svm_type c_svc
kernel_type linear
nr_class 2
total_sv 14
rho 0.5980001807755554
label 1 -1
probA -1.411773934293229
probB 0.0068788841363068495
nr_sv 6 8
SV
0.7670577546924725 1:0.004998077662437524 2:0.7001153402537486 3:0.2106881968473664 4:0.8385236447520185 5:0.9113802383698577 6:0.005190311418685121 7:0.004998077662437524 8:0.7001153402537486 9:0.2106881968473664 10:0.8385236447520185 11:0.910803537101115 12:0.005190311418685121 13:0.12091503267973856 14:0.14129181084198386 15:0.1253364090734333 16:0.08189158016147635 17:0.17704728950403692 18:0.12091503267973856 19:0.20607458669742407 20:0.02287581699346405 21:0.8360246059207997 22:0.5661284121491734 23:0.629757785467128 24:0.43790849673202614 25:0.007689350249903883 
1.0 1:0.9982698961937716 2:0.24048442906574394 3:0.2106881968473664 4:0.005574778931180315 5:0.005190311418685121 6:0.3833141099577086 7:0.9982698961937716 8:0.24029219530949636 9:0.2106881968473664 10:0.005574778931180315 11:0.005190311418685121 12:0.3833141099577086 13:0.1439830834294502 14:0.17704728950403692 15:0.1253364090734333 16:0.12091503267973856 17:0.12091503267973856 18:0.1253364090734333 19:0.20607458669742407 20:0.016724336793540944 21:0.005382545174932718 22:0.5661284121491734 23:0.007881584006151481 24:0.005382545174932718 25:0.007689350249903883 
0.39356161616682767 1:0.27720107650903497 2:0.004998077662437524 3:0.2106881968473664 4:0.9982698961937716 5:0.24048442906574394 6:0.47231833910034604 7:0.27720107650903497 8:0.004998077662437524 9:0.2106881968473664 10:0.9982698961937716 11:0.24048442906574394 12:0.47231833910034604 13:0.11476355247981546 14:0.12091503267973856 15:0.1253364090734333 16:0.1439830834294502 17:0.12091503267973856 18:0.0265282583621684 19:0.20607458669742407 20:0.02172241445597847 22:0.5661284121491734 23:0.6391772395232603 25:0.007689350249903883 
1.0 1:0.31853133410226836 2:0.24106113033448673 3:0.2106881968473664 4:0.42964244521337946 5:0.5130718954248366 6:0.474240676662822 7:0.31853133410226836 8:0.24029219530949636 9:0.2106881968473664 10:0.42964244521337946 11:0.512879661668589 12:0.474240676662822 13:0.14129181084198386 14:0.17704728950403692 15:0.1253364090734333 16:0.14129181084198386 17:0.17704728950403692 18:0.08189158016147635 19:0.20607458669742407 20:0.018838908112264515 22:0.5661284121491734 23:0.6391772395232603 25:0.007689350249903883 
0.41530196257636287 1:0.4340638216070742 2:0.2241445597846982 3:0.6361014994232987 4:0.6361014994232987 5:0.8954248366013072 6:0.7422145328719724 7:0.4340638216070742 8:0.2241445597846982 9:0.6361014994232987 10:0.6361014994232987 11:0.8954248366013072 12:0.7422145328719724 13:0.14129181084198386 14:0.17704728950403692 15:0.1253364090734333 16:0.1253364090734333 17:0.11476355247981546 18:0.11476355247981546 19:0.6318723567858516 20:0.28123798539023454 21:0.6318723567858516 22:0.5601691657054979 23:0.5222991157247212 24:0.5601691657054979 25:0.007689350249903883 
0.42192191486772695 1:0.4004229142637447 2:0.040945790080738176 3:0.004998077662437524 4:0.7650903498654363 5:0.73279507881584 6:0.3844675124951942 7:0.4004229142637447 8:0.26855055747789314 9:0.004998077662437524 10:0.7650903498654363 11:0.7324106113033448 12:0.3844675124951942 13:0.1253364090734333 14:0.1439830834294502 15:0.12091503267973856 16:0.14129181084198386 17:0.17704728950403692 18:0.1253364090734333 20:0.6903114186851211 21:0.7589388696655133 23:0.51999231064975 24:0.5734332948865821 25:0.007689350249903883 
-1.0 1:0.531526336024606 2:0.3623606305267205 3:0.0044213763936947325 4:0.327758554402153 5:0.00461361014994233 6:0.005190311418685121 7:0.531526336024606 8:0.3621683967704729 9:0.0044213763936947325 10:0.327758554402153 11:0.00461361014994233 12:0.005190311418685121 13:0.1253364090734333 14:0.11476355247981546 15:0.12091503267973856 16:0.1253364090734333 17:0.12091503267973856 18:0.12091503267973856 20:0.02114571318723568 21:0.3246828143021915 23:0.0019223375624759708 24:0.29161860822760477 25:0.007689350249903883 
-0.05588532877336844 1:0.07054978854286813 2:0.1906958861976163 3:0.2101114955786236 7:0.4229142637447136 8:0.1906958861976163 9:0.2101114955786236 13:0.17704728950403692 14:0.0265282583621684 15:0.1253364090734333 19:0.20607458669742407 20:0.057477893118031524 22:0.5601691657054979 23:0.6318723567858516 25:0.007689350249903883 
-0.9844081423621914 1:0.9848135332564398 2:0.5661284121491734 3:0.25451749327181855 4:0.0044213763936947325 5:0.878316032295271 6:0.002114571318723568 7:0.9698193002691272 8:0.5734332948865821 9:0.25432525951557095 10:0.0044213763936947325 11:0.878316032295271 12:0.002114571318723568 13:0.17704728950403692 14:0.06382160707420223 15:0.11476355247981546 16:0.12091503267973856 17:0.08189158016147635 18:0.12091503267973856 19:0.2499038831218762 20:0.16993464052287582 22:0.6384083044982699 23:0.8135332564398309 25:0.007689350249903883 
-0.3140428201778241 1:0.3191080353710111 2:0.9913494809688581 3:0.9838523644752019 4:0.5820838139177239 5:0.6403306420607459 6:0.9913494809688581 7:0.3191080353710111 8:0.9876970396001538 9:0.9838523644752019 10:0.5820838139177239 11:0.6403306420607459 12:0.9876970396001538 13:0.14129181084198386 14:0.17704728950403692 15:0.17704728950403692 16:0.14129181084198386 17:0.0265282583621684 18:0.17704728950403692 19:0.9777008842752788 20:0.07112648981161092 22:0.773356401384083 23:0.20530565167243367 25:0.007689350249903883 26:0.02631578947368421 
-0.3241513522822188 1:0.004998077662437524 2:0.9809688581314879 3:0.18646674356016918 4:0.6931949250288351 5:0.5232602845059593 6:0.7798923490965013 7:0.004998077662437524 8:0.9809688581314879 9:0.18646674356016918 10:0.6931949250288351 11:0.5734332948865821 12:0.7798923490965013 13:0.12091503267973856 14:0.11476355247981546 15:0.1253364090734333 16:0.1253364090734333 17:0.06382160707420223 18:0.11476355247981546 20:0.8169934640522876 21:0.6903114186851211 23:0.6497500961168782 24:0.44367550941945405 25:0.007689350249903883 26:0.2631578947368421 
-0.17140766619023418 1:0.92079969242599 2:0.4004229142637447 3:0.954248366013072 4:0.6495578623606305 5:0.2101114955786236 6:0.0592079969242599 7:0.92079969242599 8:0.4004229142637447 9:0.9559784698193002 10:0.6495578623606305 11:0.2101114955786236 12:0.3429450211457132 13:0.11476355247981546 14:0.1253364090734333 15:0.06382160707420223 16:0.14129181084198386 17:0.1253364090734333 18:0.1439830834294502 19:0.9538638985005767 20:0.7808535178777394 22:0.629757785467128 23:0.5520953479430988 25:0.007689350249903883 
-0.21437840327857408 1:0.20530565167243367 2:0.7087658592848904 3:0.39254133025759325 4:0.42964244521337946 5:0.15840061514801998 6:0.004998077662437524 7:0.20530565167243367 8:0.7085736255286428 9:0.39254133025759325 10:0.42964244521337946 11:0.8537101114955786 12:0.004998077662437524 13:0.1253364090734333 14:0.11476355247981546 15:0.1253364090734333 16:0.14129181084198386 17:0.1439830834294502 18:0.12091503267973856 19:0.3890811226451365 20:0.1512879661668589 22:0.43810073048827375 23:0.6318723567858516 25:0.007689350249903883 
-0.9335695352389792 2:0.06055363321799308 3:0.09419454056132257 4:0.42964244521337946 5:0.18762014609765476 6:0.9711649365628604 8:0.3562091503267974 9:0.5484429065743944 10:0.42964244521337946 11:0.18762014609765476 12:0.9711649365628604 14:0.11476355247981546 15:0.1439830834294502 16:0.14129181084198386 17:0.0265282583621684 18:0.08189158016147635 19:0.0918877354863514 20:0.5069204152249135 22:0.4534794309880815 23:0.9133025759323338 25:0.007689350249903883 26:0.34210526315789475 
