svm_type c_svc
kernel_type linear
nr_class 2
total_sv 17
rho -0.40783706534623243
label -1 9
probA 0.5162576778177431
probB -0.9586082002076487
nr_sv 10 7
SV
1.0 1:0.6209150326797386 2:0.9809688581314879 3:0.18646674356016918 4:0.004998077662437524 5:0.4340638216070742 6:0.5232602845059593 7:0.6209150326797386 8:0.9809688581314879 9:0.18646674356016918 10:0.004998077662437524 11:0.4340638216070742 12:0.5734332948865821 13:0.08189158016147635 14:0.11476355247981546 15:0.1253364090734333 16:0.12091503267973856 17:0.14129181084198386 18:0.06382160707420223 20:0.13379469434832755 23:0.9953863898500577 25:0.007689350249903883 
1.0 1:0.383121876201461 2:0.5470972702806612 3:0.4004229142637447 4:0.00461361014994233 5:0.005190311418685121 7:0.383121876201461 8:0.5470972702806612 9:0.4004229142637447 10:0.00461361014994233 11:0.005190311418685121 13:0.1253364090734333 14:0.11476355247981546 15:0.1253364090734333 16:0.12091503267973856 17:0.12091503267973856 20:0.07112648981161092 23:0.20530565167243367 25:0.007689350249903883 26:0.02631578947368421 
1.0 1:0.4004229142637447 2:0.23375624759707805 3:0.531526336024606 4:0.005190311418685121 7:0.4004229142637447 8:0.23375624759707805 9:0.531526336024606 10:0.005190311418685121 13:0.1253364090734333 14:0.11476355247981546 15:0.1253364090734333 16:0.12091503267973856 20:0.04017685505574779 23:0.629757785467128 25:0.007689350249903883 
0.1272282825364443 1:0.2106881968473664 2:0.720876585928489 3:0.4004229142637447 4:0.004998077662437524 5:0.9982698961937716 6:0.19127258746635908 7:0.2106881968473664 8:0.7197231833910035 9:0.4004229142637447 10:0.004998077662437524 11:0.9982698961937716 12:0.19127258746635908 13:0.1253364090734333 14:0.11476355247981546 15:0.1253364090734333 16:0.12091503267973856 17:0.1439830834294502 18:0.08189158016147635 20:0.1111111111111111 23:0.6391772395232603 25:0.007689350249903883 26:0.2894736842105263 
0.9879151755912292 3:0.09073433294886582 4:0.9982698961937716 5:0.9538638985005767 6:0.5797770088427527 9:0.5734332948865821 10:0.9982698961937716 11:0.9559784698193002 12:0.5797770088427527 15:0.06382160707420223 16:0.1439830834294502 17:0.06382160707420223 18:0.11476355247981546 20:0.29161860822760477 23:0.8594771241830066 25:0.007689350249903883 
0.8461469680846863 4:0.8327566320645905 10:0.8323721645520954 16:0.17704728950403692 20:0.08804306036139946 21:0.8244905805459438 23:0.3833141099577086 24:0.9286812764321415 25:0.007689350249903883 
9.496014430803634E-4 1:0.4004229142637447 2:0.4869281045751634 3:0.20607458669742407 4:0.005190311418685121 7:0.4004229142637447 8:0.4869281045751634 9:0.20607458669742407 10:0.005190311418685121 13:0.1253364090734333 14:0.11476355247981546 15:0.1253364090734333 16:0.12091503267973856 20:0.10553633217993079 23:0.11495578623606305 25:0.007689350249903883 26:0.6578947368421053 
1.0 1:0.8492887351018839 2:0.7687427912341407 3:0.531526336024606 4:0.009419454056132258 5:0.6139946174548251 6:0.18646674356016918 7:0.8492887351018839 8:0.7689350249903883 9:0.531526336024606 10:0.009419454056132258 11:0.6141868512110726 12:0.18646674356016918 13:0.14129181084198386 14:0.17704728950403692 15:0.1253364090734333 16:0.08189158016147635 17:0.11476355247981546 18:0.1253364090734333 20:0.5820838139177239 23:0.2631680123029604 25:0.007689350249903883 
0.4960938775347365 1:0.9486735870818915 2:0.6931949250288351 3:0.9538638985005767 4:0.005190311418685121 7:0.9486735870818915 8:0.6931949250288351 9:0.9559784698193002 10:0.005190311418685121 13:0.14129181084198386 14:0.1253364090734333 15:0.06382160707420223 16:0.12091503267973856 20:0.8594771241830066 23:0.20530565167243367 25:0.007689350249903883 26:0.02631578947368421 
0.5416660948098233 1:0.18646674356016918 2:0.7087658592848904 3:0.38389081122645136 4:0.5820838139177239 5:0.18646674356016918 6:0.6395617070357554 7:0.18646674356016918 8:0.7085736255286428 9:0.38389081122645136 10:0.5820838139177239 11:0.18646674356016918 12:0.6395617070357554 13:0.1253364090734333 14:0.11476355247981546 15:0.1253364090734333 16:0.14129181084198386 17:0.1253364090734333 18:0.14129181084198386 19:0.3833141099577086 20:0.773356401384083 22:0.20607458669742407 23:0.37850826605151866 25:0.007689350249903883 26:0.6842105263157895 
-1.0 4:0.2101114955786236 5:0.7745098039215687 6:0.4340638216070742 10:0.2101114955786236 11:0.7745098039215687 12:0.4340638216070742 16:0.1253364090734333 17:0.1439830834294502 18:0.14129181084198386 20:0.6068819684736639 21:0.20607458669742407 23:0.629757785467128 24:0.5601691657054979 25:0.007689350249903883 
-1.0 1:0.526720492118416 2:0.461361014994233 3:0.005190311418685121 4:0.4340638216070742 5:0.22529796232218377 6:0.2114571318723568 7:0.5265282583621684 8:0.4615532487504806 9:0.005190311418685121 10:0.4340638216070742 11:0.22529796232218377 12:0.2114571318723568 13:0.11476355247981546 14:0.08189158016147635 15:0.12091503267973856 16:0.14129181084198386 17:0.1439830834294502 18:0.1253364090734333 20:0.8860053825451749 23:0.6391772395232603 25:0.007689350249903883 
-1.0 1:0.8202614379084967 2:0.6843521722414456 3:0.18646674356016918 4:0.004998077662437524 5:0.05632449058054594 6:0.004998077662437524 7:0.8202614379084967 8:0.6843521722414456 9:0.18646674356016918 10:0.004998077662437524 11:0.33160322952710497 12:0.004998077662437524 13:0.11476355247981546 14:0.08189158016147635 15:0.1253364090734333 16:0.12091503267973856 17:0.1439830834294502 18:0.12091503267973856 20:0.1061130334486736 23:0.6166858900422915 25:0.007689350249903883 
-1.0 1:0.004998077662437524 2:0.05632449058054594 3:0.004998077662437524 4:0.42964244521337946 5:0.10342176086120723 6:0.005190311418685121 7:0.004998077662437524 8:0.33160322952710497 9:0.004998077662437524 10:0.42964244521337946 11:0.5757400999615533 12:0.005190311418685121 13:0.12091503267973856 14:0.1439830834294502 15:0.12091503267973856 16:0.14129181084198386 17:0.1439830834294502 18:0.12091503267973856 20:0.1837754709727028 23:0.44367550941945405 25:0.007689350249903883 
-1.0 1:0.004998077662437524 2:0.1839677047289504 3:0.42964244521337946 4:0.005190311418685121 7:0.004998077662437524 8:0.9921184159938485 9:0.42964244521337946 10:0.005190311418685121 13:0.12091503267973856 14:0.1439830834294502 15:0.14129181084198386 16:0.12091503267973856 20:0.10246059207996924 23:0.9969242599000384 25:0.007689350249903883 
-1.0 1:0.5943867743175701 2:0.7168396770472895 3:0.5232602845059593 4:0.004998077662437524 5:0.3246828143021915 6:0.5167243367935409 7:0.5943867743175701 8:0.7164552095347944 9:0.5734332948865821 10:0.004998077662437524 11:0.3246828143021915 12:0.25855440215301806 13:0.11476355247981546 14:0.14129181084198386 15:0.06382160707420223 16:0.12091503267973856 17:0.14129181084198386 18:0.17704728950403692 20:0.1572472126105344 23:0.9286812764321415 25:0.007689350249903883 
-1.0 1:0.92079969242599 2:0.4004229142637447 3:0.954248366013072 4:0.6495578623606305 5:0.2101114955786236 6:0.0592079969242599 7:0.92079969242599 8:0.4004229142637447 9:0.9559784698193002 10:0.6495578623606305 11:0.2101114955786236 12:0.3429450211457132 13:0.11476355247981546 14:0.1253364090734333 15:0.06382160707420223 16:0.14129181084198386 17:0.1253364090734333 18:0.1439830834294502 19:0.9538638985005767 20:0.7808535178777394 22:0.629757785467128 23:0.5520953479430988 25:0.007689350249903883 
