svm_type c_svc
kernel_type linear
nr_class 2
total_sv 87
rho -0.37369973064440826
label -1 8
probA -2.3348078031653112
probB 0.2616663716231234
nr_sv 45 42
SV
1.0 1:0.9976931949250288 2:0.8404459823144944 3:0.18646674356016918 4:0.531526336024606 5:0.011726259131103423 6:0.6139946174548251 7:0.9976931949250288 8:0.8404459823144944 9:0.18646674356016918 10:0.531526336024606 11:0.011726259131103423 12:0.6141868512110726 13:0.1439830834294502 14:0.0265282583621684 15:0.1253364090734333 16:0.1253364090734333 17:0.08189158016147635 18:0.11476355247981546 20:0.032103037293348714 23:0.20607458669742407 25:0.007689350249903883 
1.0 3:0.0993848519800077 4:0.9982698961937716 5:0.3375624759707805 6:0.6495578623606305 9:0.5734332948865821 10:0.9982698961937716 11:0.33717800845828527 12:0.6495578623606305 15:0.06382160707420223 16:0.1439830834294502 17:0.17704728950403692 18:0.14129181084198386 20:0.8860053825451749 23:0.5570934256055363 25:0.007689350249903883 26:0.3684210526315789 
1.0 1:0.5049980776624375 2:0.20665128796616686 3:0.18646674356016918 4:0.5820838139177239 5:0.6541714725105728 6:0.2750865051903114 7:0.5734332948865821 8:0.20703575547866204 9:0.18646674356016918 10:0.5820838139177239 11:0.654555940023068 12:0.2750865051903114 13:0.06382160707420223 14:0.11476355247981546 15:0.1253364090734333 16:0.14129181084198386 17:0.17704728950403692 18:0.0265282583621684 20:0.1774317570165321 23:0.44367550941945405 25:0.007689350249903883 26:0.3157894736842105 
0.813887866955892 1:0.5661284121491734 2:0.2973856209150327 3:0.2106881968473664 4:0.005190311418685121 7:0.5734332948865821 8:0.29700115340253747 9:0.2106881968473664 10:0.005190311418685121 13:0.06382160707420223 14:0.11476355247981546 15:0.1253364090734333 16:0.12091503267973856 19:0.20607458669742407 20:0.010380622837370242 22:0.5661284121491734 23:0.018069973087274125 25:0.007689350249903883 
0.803920802439405 1:0.014033064206074588 2:0.68800461361015 3:0.3833141099577086 4:0.005190311418685121 7:0.014033064206074588 8:0.6881968473663975 9:0.3833141099577086 10:0.005190311418685121 13:0.08189158016147635 14:0.11476355247981546 15:0.1253364090734333 16:0.12091503267973856 20:0.1311034217608612 23:0.21760861207227988 25:0.007689350249903883 
1.0 1:0.635524798154556 2:0.3154555940023068 3:0.4004229142637447 4:0.005190311418685121 7:0.635524798154556 8:0.3154555940023068 9:0.4004229142637447 10:0.005190311418685121 13:0.1253364090734333 14:0.11476355247981546 15:0.1253364090734333 16:0.12091503267973856 20:0.10399846212995002 23:0.29161860822760477 25:0.007689350249903883 
1.0 1:0.36120722798923494 2:0.249519415609381 3:0.5232602845059593 4:0.005190311418685121 7:0.36005382545174935 8:0.249519415609381 9:0.5734332948865821 10:0.005190311418685121 13:0.17704728950403692 14:0.0265282583621684 15:0.06382160707420223 16:0.12091503267973856 20:0.09669357939254133 23:0.2051134179161861 25:0.007689350249903883 
0.029242563055730513 1:0.42964244521337946 2:0.09419454056132257 3:0.18473663975394078 4:0.0793925413302576 5:0.004998077662437524 6:0.9590542099192618 7:0.42964244521337946 8:0.5484429065743944 9:0.9936562860438293 10:0.46943483275663206 11:0.004998077662437524 12:0.9590542099192618 13:0.14129181084198386 14:0.1439830834294502 15:0.1439830834294502 16:0.1439830834294502 17:0.12091503267973856 18:0.08189158016147635 25:0.007689350249903883 26:0.07894736842105263 
1.0 1:0.4340638216070742 2:0.5484429065743944 3:0.9936562860438293 4:0.46943483275663206 5:0.5115340253748558 6:0.005190311418685121 7:0.4340638216070742 8:0.5484429065743944 9:0.9936562860438293 10:0.46943483275663206 11:0.5115340253748558 12:0.005190311418685121 13:0.14129181084198386 14:0.1439830834294502 15:0.08189158016147635 16:0.1439830834294502 17:0.08189158016147635 18:0.12091503267973856 25:0.007689350249903883 26:0.07894736842105263 
1.0 1:0.12072279892349097 2:0.4004229142637447 3:0.002306805074971165 4:0.002306805074971165 7:0.6468665897731641 8:0.4004229142637447 9:0.0034602076124567475 10:0.0034602076124567475 13:0.14129181084198386 14:0.1253364090734333 15:0.12091503267973856 16:0.12091503267973856 20:0.039792387543252594 23:0.1510957324106113 25:0.007689350249903883 
1.0 1:0.007497116493656286 2:0.008458285274894272 3:0.20607458669742407 4:0.007497116493656286 5:0.011341791618608228 6:0.531526336024606 7:0.007497116493656286 8:0.008458285274894272 9:0.20607458669742407 10:0.007497116493656286 11:0.011341791618608228 12:0.531526336024606 13:0.12091503267973856 14:0.11476355247981546 15:0.1253364090734333 16:0.12091503267973856 17:0.11476355247981546 18:0.1253364090734333 20:0.011534025374855825 23:0.008458285274894272 25:0.007689350249903883 
1.0 1:0.7151095732410612 2:0.68800461361015 3:0.3833141099577086 4:0.42964244521337946 5:0.38369857747020375 6:0.6020761245674741 7:0.7158785082660515 8:0.6881968473663975 9:0.3833141099577086 10:0.42964244521337946 11:0.38369857747020375 12:0.6022683583237216 13:0.08189158016147635 14:0.11476355247981546 15:0.1253364090734333 16:0.14129181084198386 17:0.1253364090734333 18:0.08189158016147635 20:0.11803152633602461 23:0.5993848519800077 25:0.007689350249903883 26:0.05263157894736842 
1.0 1:0.9982698961937716 2:0.6956939638600538 3:0.004998077662437524 4:0.42964244521337946 5:0.18646674356016918 6:0.7151095732410612 7:0.9982698961937716 8:0.696078431372549 9:0.004998077662437524 10:0.42964244521337946 11:0.18646674356016918 12:0.7158785082660515 13:0.1439830834294502 14:0.08189158016147635 15:0.12091503267973856 16:0.14129181084198386 17:0.1253364090734333 18:0.08189158016147635 20:0.12149173394848135 23:0.967512495194156 25:0.007689350249903883 
1.0 1:0.9982698961937716 2:0.25278738946559015 3:0.20607458669742407 4:0.6931949250288351 5:0.3191080353710111 6:0.9982698961937716 7:0.9982698961937716 8:0.25278738946559015 9:0.20607458669742407 10:0.6931949250288351 11:0.3191080353710111 12:0.9982698961937716 13:0.1439830834294502 14:0.17704728950403692 15:0.1253364090734333 16:0.1253364090734333 17:0.14129181084198386 18:0.12091503267973856 20:0.08054594386774318 21:0.6903114186851211 23:0.9532871972318339 24:0.44367550941945405 25:0.007689350249903883 26:0.05263157894736842 
1.0 4:0.0044213763936947325 5:0.7622068435217224 6:0.48904267589388695 10:0.0044213763936947325 11:0.7622068435217224 12:0.49019607843137253 16:0.12091503267973856 17:0.14129181084198386 18:0.17704728950403692 20:0.18473663975394078 23:0.46943483275663206 25:0.007689350249903883 
1.0 1:0.01787773933102653 2:0.0851595540176855 3:0.20607458669742407 4:0.5184544405997693 5:0.8621683967704729 6:0.29123414071510956 7:0.01787773933102653 8:0.5030757400999616 9:0.20607458669742407 10:0.25855440215301806 11:0.8617839292579778 12:0.29123414071510956 13:0.11476355247981546 14:0.11476355247981546 15:0.1253364090734333 16:0.17704728950403692 17:0.17704728950403692 18:0.11476355247981546 20:0.00865051903114187 23:0.5734332948865821 25:0.007689350249903883 
1.0 1:0.21568627450980393 2:0.20184544405997693 3:0.9061899269511726 4:0.005190311418685121 7:0.2166474432910419 8:0.20184544405997693 9:0.9061899269511726 10:0.005190311418685121 13:0.08189158016147635 14:0.17704728950403692 15:0.1253364090734333 16:0.12091503267973856 19:0.9019607843137255 20:0.1443675509419454 22:0.5601691657054979 23:0.5601691657054979 25:0.007689350249903883 26:0.21052631578947367 
1.0 1:0.21914648212226068 2:0.9971164936562861 3:0.39254133025759325 4:0.42964244521337946 5:0.0036524413687043446 6:0.8913879277201077 7:0.21933871587850826 8:0.9971164936562861 9:0.39254133025759325 10:0.42964244521337946 11:0.0036524413687043446 12:0.4500192233756248 13:0.08189158016147635 14:0.11476355247981546 15:0.1253364090734333 16:0.14129181084198386 17:0.14129181084198386 18:0.17704728950403692 19:0.3890811226451365 20:0.5601691657054979 22:0.43810073048827375 23:0.6391772395232603 25:0.007689350249903883 
0.7153155579072527 1:0.004998077662437524 2:0.531526336024606 3:0.708958093041138 4:0.394079200307574 5:0.32833525567089583 6:0.0036524413687043446 7:0.004998077662437524 8:0.531526336024606 9:0.7095347943098809 10:0.394079200307574 11:0.3289119569396386 12:0.0036524413687043446 13:0.12091503267973856 14:0.1253364090734333 15:0.08189158016147635 16:0.1253364090734333 17:0.11476355247981546 18:0.14129181084198386 19:0.7026143790849673 20:0.057477893118031524 21:0.3890811226451365 22:0.629757785467128 23:0.5174932718185313 24:0.5601691657054979 25:0.007689350249903883 
0.22049368813689504 1:0.004998077662437524 2:0.9805843906189927 3:0.2101114955786236 4:0.004998077662437524 5:0.20607458669742407 6:0.3154555940023068 7:0.004998077662437524 8:0.9805843906189927 9:0.2101114955786236 10:0.004998077662437524 11:0.20607458669742407 12:0.3154555940023068 13:0.12091503267973856 14:0.08189158016147635 15:0.1253364090734333 16:0.12091503267973856 17:0.1253364090734333 18:0.11476355247981546 19:0.20607458669742407 20:0.16359092656670512 22:0.5601691657054979 23:0.5661284121491734 25:0.007689350249903883 
1.0 1:0.3037293348712034 2:0.394079200307574 3:0.604959630911188 4:0.004998077662437524 5:0.5717031910803537 6:0.019992310649750097 7:0.3037293348712034 8:0.394079200307574 9:0.604959630911188 10:0.004998077662437524 11:0.5717031910803537 12:0.019992310649750097 13:0.11476355247981546 14:0.1253364090734333 15:0.11476355247981546 16:0.12091503267973856 17:0.11476355247981546 18:0.11476355247981546 19:0.5993848519800077 20:0.13456362937331795 22:0.629757785467128 23:0.6459054209919262 25:0.007689350249903883 
1.0 1:0.2825836216839677 2:0.6001537870049981 3:0.4004229142637447 4:0.004998077662437524 5:0.5661284121491734 6:0.2968089196462899 7:0.2825836216839677 8:0.6001537870049981 9:0.4004229142637447 10:0.004998077662437524 11:0.5734332948865821 12:0.2968089196462899 13:0.11476355247981546 14:0.08189158016147635 15:0.1253364090734333 16:0.12091503267973856 17:0.06382160707420223 18:0.11476355247981546 20:0.1311034217608612 23:0.9959630911188004 25:0.007689350249903883 
1.0 1:0.8502499038831218 2:0.002306805074971165 3:0.4004229142637447 4:0.6495578623606305 5:0.4004229142637447 6:0.7647058823529411 7:0.8504421376393695 8:0.0034602076124567475 9:0.4004229142637447 10:0.6495578623606305 11:0.4004229142637447 12:0.7647058823529411 13:0.08189158016147635 14:0.12091503267973856 15:0.1253364090734333 16:0.14129181084198386 17:0.1253364090734333 18:0.14129181084198386 20:0.051134179161860825 23:0.5816993464052288 25:0.007689350249903883 26:0.07894736842105263 
1.0 1:0.4077277970011534 2:0.31853133410226836 3:0.7658592848904268 4:0.6068819684736639 5:0.5167243367935409 6:0.7035755478662054 7:0.4077277970011534 8:0.31853133410226836 9:0.7658592848904268 10:0.6068819684736639 11:0.25855440215301806 12:0.7035755478662054 13:0.17704728950403692 14:0.14129181084198386 15:0.08189158016147635 16:0.14129181084198386 17:0.17704728950403692 18:0.0265282583621684 19:0.7589388696655133 20:0.6391772395232603 22:0.9286812764321415 23:0.43810073048827375 25:0.007689350249903883 
1.0 4:0.31853133410226836 5:0.5232602845059593 6:0.28700499807766244 10:0.31853133410226836 11:0.5734332948865821 12:0.28700499807766244 16:0.14129181084198386 17:0.06382160707420223 18:0.11476355247981546 20:0.029411764705882353 21:0.31814686658977315 23:0.5051903114186851 24:0.5174932718185313 25:0.007689350249903883 26:0.05263157894736842 
0.3506894932995741 4:0.9807766243752403 5:0.2101114955786236 6:0.8796616685890042 10:0.9807766243752403 11:0.2101114955786236 12:0.8796616685890042 16:0.08189158016147635 17:0.1253364090734333 18:0.11476355247981546 21:0.9777008842752788 24:0.6166858900422915 25:0.007689350249903883 
1.0 4:0.7616301422529796 5:0.7402921953094963 6:0.8373702422145328 10:0.7616301422529796 11:0.7402921953094963 12:0.8373702422145328 16:0.08189158016147635 17:0.11476355247981546 18:0.11476355247981546 20:0.1443675509419454 21:0.7589388696655133 23:0.9286812764321415 24:0.9496347558631296 25:0.007689350249903883 
1.0 1:0.19607843137254902 2:0.6633986928104575 3:0.9538638985005767 4:0.4340638216070742 5:0.18646674356016918 6:0.17973856209150327 7:0.19607843137254902 8:0.6633986928104575 9:0.9559784698193002 10:0.4340638216070742 11:0.18646674356016918 12:0.9717416378316033 13:0.1253364090734333 14:0.17704728950403692 15:0.06382160707420223 16:0.14129181084198386 17:0.1253364090734333 18:0.1439830834294502 20:0.9777008842752788 23:0.9617454825067282 25:0.007689350249903883 26:0.05263157894736842 
1.0 1:0.5203767781622453 2:0.3502499038831219 3:0.8890811226451365 4:0.005190311418685121 7:0.5734332948865821 8:0.3500576701268743 9:0.8890811226451365 10:0.005190311418685121 13:0.06382160707420223 14:0.08189158016147635 15:0.11476355247981546 16:0.12091503267973856 19:0.8860053825451749 20:0.09015763168012303 22:0.7731641676278355 23:0.5530565167243368 25:0.007689350249903883 26:0.05263157894736842 
1.0 4:0.004998077662437524 5:0.7078046905036525 6:0.005190311418685121 10:0.004998077662437524 11:0.7078046905036525 12:0.005190311418685121 16:0.12091503267973856 17:0.08189158016147635 18:0.12091503267973856 20:0.051134179161860825 23:0.6166858900422915 25:0.007689350249903883 26:0.23684210526315788 
1.0 3:0.031526336024605923 4:0.6068819684736639 5:0.5173010380622838 6:0.6637831603229527 9:0.2101114955786236 10:0.6068819684736639 11:0.25855440215301806 12:0.6633986928104575 15:0.1253364090734333 16:0.14129181084198386 17:0.17704728950403692 18:0.17704728950403692 19:0.029988465974625143 20:0.773356401384083 22:0.5601691657054979 23:0.6591695501730104 25:0.007689350249903883 26:0.05263157894736842 
1.0 1:0.791041906958862 2:0.3402537485582468 3:0.3846597462514418 4:0.42964244521337946 5:0.3846597462514418 6:0.4855824682814302 7:0.7906574394463668 8:0.34006151480199925 9:0.3846597462514418 10:0.42964244521337946 11:0.3846597462514418 12:0.4855824682814302 13:0.17704728950403692 14:0.17704728950403692 15:0.1253364090734333 16:0.14129181084198386 17:0.1253364090734333 18:0.11476355247981546 19:0.3833141099577086 20:0.9617454825067282 22:0.5601691657054979 23:0.9496347558631296 25:0.007689350249903883 
1.0 3:0.07151095732410612 4:0.954248366013072 5:0.27393310265282583 6:0.3291041906958862 9:0.4279123414071511 10:0.9559784698193002 11:0.27393310265282583 12:0.3285274894271434 15:0.1439830834294502 16:0.06382160707420223 17:0.08189158016147635 18:0.11476355247981546 19:0.07112648981161092 21:0.9538638985005767 22:0.20530565167243367 24:0.629757785467128 25:0.007689350249903883 26:0.07894736842105263 
1.0 4:0.21280276816608998 5:0.23125720876585928 6:0.42964244521337946 10:0.21280276816608998 11:0.23529411764705882 12:0.42964244521337946 16:0.11476355247981546 17:0.17704728950403692 18:0.14129181084198386 20:0.1311034217608612 21:0.20607458669742407 23:0.629757785467128 24:0.5818915801614764 25:0.007689350249903883 
1.0 4:0.477124183006536 5:0.5993848519800077 10:0.477124183006536 11:0.5993848519800077 16:0.1439830834294502 17:0.14129181084198386 20:0.11803152633602461 21:0.4755863129565552 23:0.668396770472895 24:0.6610918877354863 25:0.007689350249903883 26:0.05263157894736842 
1.0 4:0.6403306420607459 5:0.7079969242599 6:0.42964244521337946 10:0.6403306420607459 11:0.7079969242599 12:0.42964244521337946 16:0.0265282583621684 17:0.08189158016147635 18:0.14129181084198386 20:0.04017685505574779 21:0.6391772395232603 23:0.6391772395232603 24:0.6591695501730104 25:0.007689350249903883 26:0.05263157894736842 
0.00850931774783829 1:0.002114571318723568 2:0.42964244521337946 3:0.8427527873894656 4:0.005190311418685121 7:0.002114571318723568 8:0.42964244521337946 9:0.8427527873894656 10:0.005190311418685121 13:0.12091503267973856 14:0.14129181084198386 15:0.1253364090734333 16:0.12091503267973856 19:0.8360246059207997 20:0.7022299115724722 22:0.9959630911188004 23:0.6591695501730104 25:0.007689350249903883 26:0.02631578947368421 
0.17032683909084312 4:0.8260284505959247 5:0.9976931949250288 6:0.5203767781622453 10:0.8260284505959247 11:0.9976931949250288 12:0.5734332948865821 16:0.08189158016147635 17:0.11476355247981546 18:0.06382160707420223 20:0.04017685505574779 21:0.8244905805459438 23:0.6391772395232603 24:0.8594771241830066 25:0.007689350249903883 
0.8125054669751554 1:0.6428296808919647 2:0.24163783160322952 3:0.531526336024606 4:0.5232602845059593 5:0.31872356785851597 6:0.9976931949250288 7:0.6428296808919647 8:0.24163783160322952 9:0.531526336024606 10:0.5734332948865821 11:0.31872356785851597 12:0.9976931949250288 13:0.08189158016147635 14:0.11476355247981546 15:0.1253364090734333 16:0.06382160707420223 17:0.11476355247981546 18:0.1439830834294502 20:0.5184544405997693 23:0.43810073048827375 25:0.007689350249903883 26:0.05263157894736842 
1.0 4:0.857362552864283 5:0.531526336024606 6:0.288158400615148 10:0.8569780853517878 11:0.531526336024606 12:0.2895040369088812 16:0.17704728950403692 17:0.1253364090734333 18:0.08189158016147635 20:0.029988465974625143 21:0.8492887351018839 23:0.5051903114186851 24:0.9286812764321415 25:0.007689350249903883 26:0.05263157894736842 
1.0 1:0.23836985774702038 2:0.42964244521337946 3:0.954248366013072 4:0.7129950019223376 5:0.31853133410226836 6:0.288158400615148 7:0.23836985774702038 8:0.42964244521337946 9:0.9559784698193002 10:0.7122260668973471 11:0.31853133410226836 12:0.288158400615148 13:0.11476355247981546 14:0.14129181084198386 15:0.06382160707420223 16:0.11476355247981546 17:0.14129181084198386 18:0.17704728950403692 19:0.9538638985005767 20:0.33391003460207613 21:0.7026143790849673 22:0.629757785467128 23:0.9496347558631296 24:0.5563244905805459 25:0.007689350249903883 
1.0 1:0.004998077662437524 2:0.18646674356016918 3:0.4284890426758939 4:0.42964244521337946 5:0.38389081122645136 6:0.3154555940023068 7:0.004998077662437524 8:0.18646674356016918 9:0.4284890426758939 10:0.42964244521337946 11:0.38389081122645136 12:0.3154555940023068 13:0.12091503267973856 14:0.1253364090734333 15:0.08189158016147635 16:0.14129181084198386 17:0.1253364090734333 18:0.11476355247981546 19:0.4277201076509035 20:0.6720492118415994 22:0.9515570934256056 23:0.773356401384083 25:0.007689350249903883 
0.24476592228276176 3:0.1312956555171088 9:0.7031910803537101 15:0.08189158016147635 19:0.1311034217608612 20:0.6655132641291811 22:0.5661284121491734 23:0.9496347558631296 25:0.007689350249903883 26:0.4473684210526316 
1.0 3:0.1312956555171088 9:0.7031910803537101 15:0.08189158016147635 19:0.1311034217608612 20:0.6655132641291811 22:0.5661284121491734 23:0.9496347558631296 25:0.007689350249903883 26:0.4473684210526316 
1.0 2:0.06055363321799308 3:0.09419454056132257 4:0.42964244521337946 5:0.18762014609765476 6:0.9711649365628604 8:0.3562091503267974 9:0.5484429065743944 10:0.42964244521337946 11:0.18762014609765476 12:0.9711649365628604 14:0.11476355247981546 15:0.1439830834294502 16:0.14129181084198386 17:0.0265282583621684 18:0.08189158016147635 19:0.0918877354863514 20:0.5069204152249135 22:0.4534794309880815 23:0.9133025759323338 25:0.007689350249903883 26:0.3684210526315789 
-1.0 1:0.52479815455594 2:0.531526336024606 3:0.7658592848904268 4:0.005190311418685121 7:0.52479815455594 8:0.531526336024606 9:0.7658592848904268 10:0.005190311418685121 13:0.17704728950403692 14:0.1253364090734333 15:0.08189158016147635 16:0.12091503267973856 19:0.7589388696655133 20:0.08804306036139946 22:0.9286812764321415 23:0.43810073048827375 25:0.007689350249903883 
-1.0 1:0.7135717031910803 2:0.004998077662437524 3:0.5232602845059593 4:0.6361014994232987 5:0.9021530180699731 6:0.9188773548635141 7:0.7135717031910803 8:0.004998077662437524 9:0.5734332948865821 10:0.6361014994232987 11:0.906958861976163 12:0.9186851211072664 13:0.11476355247981546 14:0.12091503267973856 15:0.06382160707420223 16:0.1253364090734333 17:0.08189158016147635 18:0.11476355247981546 20:0.18569780853517878 21:0.6318723567858516 23:0.6389850057670127 24:0.5601691657054979 25:0.007689350249903883 
-1.0 1:0.6070742022299116 2:0.4596309111880046 3:0.209919261822376 4:0.4004229142637447 5:0.1322568242983468 6:0.005190311418685121 7:0.6143790849673203 8:0.4596309111880046 9:0.209919261822376 10:0.4004229142637447 11:0.7097270280661284 12:0.005190311418685121 13:0.08189158016147635 14:0.11476355247981546 15:0.1253364090734333 16:0.1253364090734333 17:0.1439830834294502 18:0.12091503267973856 19:0.20607458669742407 20:0.5184544405997693 22:0.5597846981930027 23:0.5520953479430988 25:0.007689350249903883 
-1.0 1:0.08804306036139946 2:0.8621683967704729 3:0.20607458669742407 4:0.6931949250288351 5:0.014801999231064974 6:0.5 7:0.25855440215301806 8:0.8617839292579778 9:0.20607458669742407 10:0.6931949250288351 11:0.014801999231064974 12:0.5001922337562476 13:0.17704728950403692 14:0.17704728950403692 15:0.1253364090734333 16:0.1253364090734333 17:0.08189158016147635 18:0.11476355247981546 20:0.14667435601691656 21:0.6903114186851211 23:0.629757785467128 24:0.44367550941945405 25:0.007689350249903883 
-1.0 4:0.02575932333717801 5:0.9559784698193002 6:0.825836216839677 10:0.02575932333717801 11:0.9559784698193002 12:0.825836216839677 16:0.12091503267973856 17:0.06382160707420223 18:0.11476355247981546 20:0.18031526336024606 23:0.3890811226451365 25:0.007689350249903883 
-1.0 3:0.17550941945405613 4:0.31853133410226836 5:0.6541714725105728 6:0.2750865051903114 9:0.9559784698193002 10:0.31853133410226836 11:0.654555940023068 12:0.2750865051903114 15:0.06382160707420223 16:0.14129181084198386 17:0.17704728950403692 18:0.0265282583621684 20:0.1443675509419454 21:0.31814686658977315 23:0.3833141099577086 24:0.5174932718185313 25:0.007689350249903883 
-1.0 2:0.07612456747404844 3:0.9538638985005767 4:0.6068819684736639 5:0.24529027297193387 6:0.7597078046905037 8:0.4500192233756248 9:0.9559784698193002 10:0.6068819684736639 11:0.2437524029219531 12:0.7597078046905037 14:0.17704728950403692 15:0.06382160707420223 16:0.14129181084198386 17:0.17704728950403692 18:0.14129181084198386 20:0.1443675509419454 23:0.3833141099577086 25:0.007689350249903883 
-1.0 4:0.0263360246059208 10:0.0263360246059208 16:0.12091503267973856 20:0.03421760861207228 23:0.4936562860438293 25:0.007689350249903883 
-1.0 3:0.10246059207996924 4:0.004998077662437524 5:0.5232602845059593 6:0.7420222991157247 9:0.5734332948865821 10:0.004998077662437524 11:0.5734332948865821 12:0.7420222991157247 15:0.06382160707420223 16:0.12091503267973856 17:0.06382160707420223 18:0.08189158016147635 20:0.15647827758554403 23:0.5820838139177239 25:0.007689350249903883 
-1.0 4:0.8327566320645905 10:0.8323721645520954 16:0.17704728950403692 20:0.08804306036139946 21:0.8244905805459438 23:0.3833141099577086 24:0.9286812764321415 25:0.007689350249903883 
-1.0 1:0.16186082276047675 2:0.8913879277201077 3:0.6359092656670511 4:0.6931949250288351 5:0.021530180699730873 6:0.5 7:0.4500192233756248 8:0.8913879277201077 9:0.6359092656670511 10:0.6931949250288351 11:0.021530180699730873 12:0.5001922337562476 13:0.17704728950403692 14:0.11476355247981546 15:0.1253364090734333 16:0.1253364090734333 17:0.08189158016147635 18:0.11476355247981546 19:0.6318723567858516 20:0.08804306036139946 21:0.6903114186851211 22:0.5597846981930027 23:0.3833141099577086 24:0.44367550941945405 25:0.007689350249903883 
-1.0 1:0.08804306036139946 2:0.21184159938485198 3:0.209919261822376 4:0.635524798154556 5:0.015378700499807767 6:0.5630526720492118 7:0.25855440215301806 8:0.2116493656286044 9:0.209919261822376 10:0.635524798154556 11:0.015378700499807767 12:0.5632449058054594 13:0.17704728950403692 14:0.17704728950403692 15:0.1253364090734333 16:0.1253364090734333 17:0.11476355247981546 18:0.17704728950403692 19:0.20607458669742407 20:0.08804306036139946 21:0.6318723567858516 22:0.5597846981930027 23:0.9617454825067282 24:0.43810073048827375 25:0.007689350249903883 
-1.0 20:0.08688965782391388 23:0.629757785467128 25:0.007689350249903883 
-1.0 1:0.7264513648596693 2:0.2241445597846982 3:0.20607458669742407 4:0.5820838139177239 5:0.006343713956170703 6:0.5232602845059593 7:0.7258746635909266 8:0.2241445597846982 9:0.20607458669742407 10:0.5820838139177239 11:0.006343713956170703 12:0.5734332948865821 13:0.17704728950403692 14:0.17704728950403692 15:0.1253364090734333 16:0.14129181084198386 17:0.17704728950403692 18:0.06382160707420223 20:0.29161860822760477 23:0.629757785467128 25:0.007689350249903883 
-1.0 1:0.33698577470203767 2:0.35082660515186465 3:0.5232602845059593 4:0.42964244521337946 5:0.16282199154171473 6:0.00461361014994233 7:0.33698577470203767 8:0.35082660515186465 9:0.5734332948865821 10:0.42964244521337946 11:0.8721645520953479 12:0.00461361014994233 13:0.11476355247981546 14:0.1253364090734333 15:0.06382160707420223 16:0.14129181084198386 17:0.1439830834294502 18:0.12091503267973856 20:0.773356401384083 23:0.9953863898500577 25:0.007689350249903883 
-1.0 2:0.029219530949634757 3:0.9061899269511726 8:0.20107650903498656 9:0.9061899269511726 14:0.11476355247981546 15:0.1253364090734333 19:0.9019607843137255 20:0.0459438677431757 22:0.5601691657054979 23:0.8087274125336409 25:0.007689350249903883 
-0.48921010262223036 1:0.02575932333717801 2:0.9809688581314879 3:0.18646674356016918 4:0.42964244521337946 5:0.20607458669742407 6:0.058823529411764705 7:0.02575932333717801 8:0.9809688581314879 9:0.18646674356016918 10:0.42964244521337946 11:0.20607458669742407 12:0.33948481353325644 13:0.12091503267973856 14:0.1253364090734333 15:0.1253364090734333 16:0.14129181084198386 17:0.1253364090734333 18:0.1439830834294502 20:0.13706266820453672 23:0.9263744713571703 25:0.007689350249903883 
-1.0 1:0.5190311418685121 2:0.0044213763936947325 3:0.5232602845059593 4:0.4340638216070742 5:0.5232602845059593 6:0.15282583621683968 7:0.5190311418685121 8:0.0044213763936947325 9:0.5734332948865821 10:0.4340638216070742 11:0.5734332948865821 12:0.8237216455209535 13:0.11476355247981546 14:0.12091503267973856 15:0.06382160707420223 16:0.14129181084198386 17:0.06382160707420223 18:0.1439830834294502 20:0.10111495578623607 23:0.773356401384083 25:0.007689350249903883 
-1.0 4:0.635524798154556 5:0.34678969627066514 6:0.2895040369088812 10:0.635524798154556 11:0.34678969627066514 12:0.2895040369088812 16:0.1253364090734333 17:0.11476355247981546 18:0.08189158016147635 20:0.029988465974625143 21:0.6318723567858516 23:0.5051903114186851 24:0.43810073048827375 25:0.007689350249903883 
-1.0 4:0.6403306420607459 5:0.0044213763936947325 6:0.21376393694732795 10:0.6403306420607459 11:0.0044213763936947325 12:0.21376393694732795 16:0.0265282583621684 17:0.12091503267973856 18:0.0265282583621684 20:0.12898885044213765 21:0.6391772395232603 23:0.5661284121491734 24:0.6591695501730104 25:0.007689350249903883 
-1.0 1:0.42964244521337946 2:0.0036524413687043446 3:0.3733179546328335 4:0.18646674356016918 5:0.6443675509419454 7:0.42964244521337946 8:0.0036524413687043446 9:0.3731257208765859 10:0.18646674356016918 11:0.6443675509419454 13:0.14129181084198386 14:0.14129181084198386 15:0.17704728950403692 16:0.1253364090734333 17:0.11476355247981546 19:0.33391003460207613 20:0.0196078431372549 22:0.9133025759323338 23:0.8091118800461361 25:0.007689350249903883 
-1.0 1:0.1120722798923491 2:0.004998077662437524 3:0.5601691657054979 4:0.9982698961937716 5:0.7695117262591311 6:0.18646674356016918 7:0.610726643598616 8:0.004998077662437524 9:0.5734332948865821 10:0.9982698961937716 11:0.7695117262591311 12:0.18646674356016918 13:0.1439830834294502 14:0.12091503267973856 15:0.06382160707420223 16:0.1439830834294502 17:0.08189158016147635 18:0.1253364090734333 20:0.8860053825451749 23:0.5661284121491734 25:0.007689350249903883 
-0.29636521817673933 1:0.5190311418685121 2:0.868319876970396 3:0.6361014994232987 4:0.4004229142637447 5:0.17839292579777008 6:0.005190311418685121 7:0.5190311418685121 8:0.8685121107266436 9:0.6361014994232987 10:0.4004229142637447 11:0.9642445213379469 12:0.005190311418685121 13:0.11476355247981546 14:0.17704728950403692 15:0.1253364090734333 16:0.1253364090734333 17:0.1439830834294502 18:0.12091503267973856 19:0.6318723567858516 20:0.41926182237600923 22:0.5601691657054979 23:0.9946174548250672 25:0.007689350249903883 
-1.0 4:0.5820838139177239 5:0.4004229142637447 6:0.826797385620915 10:0.5820838139177239 11:0.4004229142637447 12:0.8275663206459054 16:0.14129181084198386 17:0.1253364090734333 18:0.08189158016147635 20:0.07247212610534409 23:0.33391003460207613 25:0.007689350249903883 
-0.13846814200383906 1:0.1522491349480969 2:0.08631295655517109 3:0.4004229142637447 4:0.005190311418685121 7:0.8208381391772396 8:0.5126874279123415 9:0.4004229142637447 10:0.005190311418685121 13:0.08189158016147635 14:0.1439830834294502 15:0.1253364090734333 16:0.12091503267973856 20:0.1311034217608612 23:0.9959630911188004 25:0.007689350249903883 
-1.0 1:0.5167243367935409 2:0.3404459823144944 3:0.4004229142637447 4:0.9982698961937716 5:0.31853133410226836 6:0.6403306420607459 7:0.25855440215301806 8:0.34006151480199925 9:0.4004229142637447 10:0.9982698961937716 11:0.31853133410226836 12:0.6403306420607459 13:0.17704728950403692 14:0.17704728950403692 15:0.1253364090734333 16:0.1439830834294502 17:0.14129181084198386 18:0.0265282583621684 20:0.7026143790849673 23:0.5563244905805459 25:0.007689350249903883 
-0.2456140550885399 2:0.1707035755478662 3:0.3833141099577086 4:0.42964244521337946 5:0.08285274894271434 6:0.9982698961937716 8:0.929834678969627 9:0.3833141099577086 10:0.42964244521337946 11:0.4915417147251057 12:0.9982698961937716 14:0.17704728950403692 15:0.1253364090734333 16:0.14129181084198386 17:0.1439830834294502 18:0.1439830834294502 20:0.032679738562091505 23:0.5601691657054979 25:0.007689350249903883 
-1.0 3:0.16416762783544792 4:0.18646674356016918 5:0.7151095732410612 6:0.68800461361015 9:0.8890811226451365 10:0.18646674356016918 11:0.7158785082660515 12:0.6881968473663975 15:0.11476355247981546 16:0.1253364090734333 17:0.08189158016147635 18:0.11476355247981546 19:0.16359092656670512 20:0.09015763168012303 22:0.7731641676278355 23:0.5530565167243368 25:0.007689350249903883 
-1.0 2:0.1122645136485967 3:0.531526336024606 4:0.004998077662437524 5:0.29277201076509035 6:0.4340638216070742 8:0.6122645136485967 9:0.531526336024606 10:0.004998077662437524 11:0.29257977700884275 12:0.4340638216070742 14:0.1439830834294502 15:0.1253364090734333 16:0.12091503267973856 17:0.11476355247981546 18:0.14129181084198386 20:0.29161860822760477 23:0.9498269896193772 25:0.007689350249903883 
-1.0 1:0.12918108419838523 2:0.31853133410226836 3:0.009034986543637063 4:0.4004229142637447 5:0.9736639753940792 6:0.3246828143021915 7:0.6906958861976163 8:0.31853133410226836 9:0.009034986543637063 10:0.4004229142637447 11:0.9736639753940792 12:0.3246828143021915 13:0.11476355247981546 14:0.14129181084198386 15:0.08189158016147635 16:0.1253364090734333 17:0.11476355247981546 18:0.14129181084198386 20:0.28604382929642447 23:0.7673971549404075 25:0.007689350249903883 
-1.0 1:0.004998077662437524 2:0.5232602845059593 3:0.29815455594002305 4:0.42964244521337946 5:0.5678585159554018 6:0.6562860438292965 7:0.004998077662437524 8:0.5734332948865821 9:0.29815455594002305 10:0.42964244521337946 11:0.5680507497116494 12:0.6562860438292965 13:0.12091503267973856 14:0.06382160707420223 15:0.11476355247981546 16:0.14129181084198386 17:0.11476355247981546 18:0.08189158016147635 19:0.29161860822760477 20:0.24202229911572473 22:0.5520953479430988 23:0.6384083044982699 25:0.007689350249903883 
-1.0 1:0.671280276816609 2:0.20972702806612842 3:0.0036524413687043446 4:0.005190311418685121 7:0.671280276816609 8:0.20972702806612842 9:0.0036524413687043446 10:0.005190311418685121 13:0.0265282583621684 14:0.1253364090734333 15:0.14129181084198386 16:0.12091503267973856 20:0.09496347558631296 23:0.8360246059207997 25:0.007689350249903883 
-1.0 1:0.4284890426758939 2:0.68800461361015 3:0.3844675124951942 4:0.005190311418685121 7:0.4284890426758939 8:0.6881968473663975 9:0.3844675124951942 10:0.005190311418685121 13:0.08189158016147635 14:0.11476355247981546 15:0.1253364090734333 16:0.12091503267973856 19:0.3833141099577086 20:0.12149173394848135 22:0.5597846981930027 23:0.967512495194156 25:0.007689350249903883 
-1.0 1:0.7658592848904268 2:0.5190311418685121 3:0.38389081122645136 4:0.20607458669742407 5:0.01768550557477893 6:0.4011918492887351 7:0.7658592848904268 8:0.5190311418685121 9:0.38389081122645136 10:0.20607458669742407 11:0.01768550557477893 12:0.4011918492887351 13:0.08189158016147635 14:0.11476355247981546 15:0.1253364090734333 16:0.1253364090734333 17:0.11476355247981546 18:0.11476355247981546 19:0.3833141099577086 20:0.01710880430603614 22:0.20607458669742407 23:0.773356401384083 25:0.007689350249903883 
-1.0 4:0.005190311418685121 10:0.005190311418685121 16:0.12091503267973856 20:0.057477893118031524 23:0.6166858900422915 25:0.007689350249903883 
-1.0 1:0.8929257977700884 2:0.407920030757401 3:0.31853133410226836 4:0.9538638985005767 5:0.018646674356016916 6:0.8929257977700884 7:0.8927335640138409 8:0.4077277970011534 9:0.31853133410226836 10:0.9559784698193002 11:0.018646674356016916 12:0.8927335640138409 13:0.11476355247981546 14:0.17704728950403692 15:0.14129181084198386 16:0.06382160707420223 17:0.08189158016147635 18:0.11476355247981546 19:0.31814686658977315 22:0.5174932718185313 25:0.007689350249903883 
-1.0 4:0.531526336024606 5:0.29700115340253747 6:0.35082660515186465 10:0.531526336024606 11:0.29700115340253747 12:0.35082660515186465 16:0.1253364090734333 17:0.11476355247981546 18:0.1253364090734333 20:0.1111111111111111 23:0.2358708189158016 25:0.007689350249903883 
-1.0 1:0.4284890426758939 2:0.68800461361015 3:0.38389081122645136 4:0.42964244521337946 5:0.38389081122645136 6:0.3154555940023068 7:0.4284890426758939 8:0.6881968473663975 9:0.38389081122645136 10:0.42964244521337946 11:0.38389081122645136 12:0.3154555940023068 13:0.08189158016147635 14:0.11476355247981546 15:0.1253364090734333 16:0.14129181084198386 17:0.1253364090734333 18:0.11476355247981546 19:0.3833141099577086 20:0.041330257593233374 22:0.20607458669742407 23:0.773356401384083 25:0.007689350249903883 
-1.0 1:0.68800461361015 2:0.38389081122645136 3:0.6728181468665898 4:0.42964244521337946 5:0.38427527873894657 6:0.0036524413687043446 7:0.6881968473663975 8:0.38389081122645136 9:0.6728181468665898 10:0.42964244521337946 11:0.38427527873894657 12:0.0036524413687043446 13:0.11476355247981546 14:0.1253364090734333 15:0.11476355247981546 16:0.14129181084198386 17:0.1253364090734333 18:0.14129181084198386 19:0.6720492118415994 20:0.12648981161091888 22:0.8360246059207997 23:0.6391772395232603 25:0.007689350249903883 
-1.0 1:0.31853133410226836 2:0.4211841599384852 3:0.5601691657054979 4:0.42964244521337946 5:0.5661284121491734 6:0.47673971549404076 7:0.31853133410226836 8:0.4213763936947328 9:0.5734332948865821 10:0.42964244521337946 11:0.5734332948865821 12:0.47654748173779315 13:0.14129181084198386 14:0.17704728950403692 15:0.06382160707420223 16:0.14129181084198386 17:0.06382160707420223 18:0.11476355247981546 20:0.0459438677431757 23:0.8087274125336409 25:0.007689350249903883 
-1.0 3:0.0993848519800077 4:0.9982698961937716 5:0.5334486735870819 6:0.635524798154556 9:0.5734332948865821 10:0.9982698961937716 11:0.5330642060745867 12:0.635524798154556 15:0.06382160707420223 16:0.1439830834294502 17:0.17704728950403692 18:0.1253364090734333 20:0.9936562860438293 23:0.46943483275663206 25:0.007689350249903883 
-1.0 1:0.6697424067666282 2:0.5203767781622453 3:0.49673202614379086 4:0.42964244521337946 5:0.031141868512110725 6:0.8669742406766628 7:0.6697424067666282 8:0.5734332948865821 9:0.49653979238754326 10:0.42964244521337946 11:0.20915032679738563 12:0.4500192233756248 13:0.11476355247981546 14:0.06382160707420223 15:0.11476355247981546 16:0.14129181084198386 17:0.1439830834294502 18:0.17704728950403692 19:0.4936562860438293 20:0.08381391772395233 22:0.7808535178777394 23:0.3833141099577086 25:0.007689350249903883 
