svm_type c_svc
kernel_type linear
nr_class 2
total_sv 140
rho -2.8037158304408587
label -1 5
probA -1.8994732581707354
probB 0.03208773361850894
nr_sv 71 69
SV
1.0 1:0.31853133410226836 2:0.24106113033448673 3:0.2106881968473664 4:0.42964244521337946 5:0.5130718954248366 6:0.474240676662822 7:0.31853133410226836 8:0.24029219530949636 9:0.2106881968473664 10:0.42964244521337946 11:0.512879661668589 12:0.474240676662822 13:0.14129181084198386 14:0.17704728950403692 15:0.1253364090734333 16:0.14129181084198386 17:0.17704728950403692 18:0.08189158016147635 19:0.20607458669742407 20:0.018838908112264515 22:0.5661284121491734 23:0.6391772395232603 25:0.007689350249903883 
1.0 3:0.0651672433679354 4:0.20607458669742407 5:0.00865051903114187 6:0.10438292964244521 9:0.38389081122645136 10:0.20607458669742407 11:0.00865051903114187 12:0.577277970011534 15:0.1253364090734333 16:0.1253364090734333 17:0.11476355247981546 18:0.1439830834294502 19:0.06497500961168781 20:0.01787773933102653 22:0.20607458669742407 23:0.6391772395232603 25:0.007689350249903883 26:0.07894736842105263 
1.0 1:0.9063821607074202 2:0.8819684736639753 3:0.4004229142637447 4:0.004998077662437524 5:0.18800461361014995 6:0.73279507881584 7:0.9063821607074202 8:0.8817762399077278 9:0.4004229142637447 10:0.004998077662437524 11:0.25855440215301806 12:0.7324106113033448 13:0.1253364090734333 14:0.11476355247981546 15:0.1253364090734333 16:0.12091503267973856 17:0.17704728950403692 18:0.17704728950403692 20:0.12648981161091888 23:0.6391772395232603 25:0.007689350249903883 
1.0 1:0.27335640138408307 2:0.44386774317570166 3:0.5601691657054979 4:0.42964244521337946 5:0.763360246059208 6:0.5638216070742023 7:0.2747020376778162 8:0.4500192233756248 9:0.5734332948865821 10:0.42964244521337946 11:0.763360246059208 12:0.5638216070742023 13:0.08189158016147635 14:0.17704728950403692 15:0.06382160707420223 16:0.14129181084198386 17:0.11476355247981546 18:0.08189158016147635 20:0.7143406382160707 23:0.5601691657054979 25:0.007689350249903883 
1.0 1:0.31853133410226836 2:0.8740868896578239 3:0.3846597462514418 4:0.004998077662437524 5:0.209919261822376 6:0.21395617070357556 7:0.31853133410226836 8:0.8742791234140715 9:0.3846597462514418 10:0.004998077662437524 11:0.209919261822376 12:0.21395617070357556 13:0.14129181084198386 14:0.17704728950403692 15:0.1253364090734333 16:0.12091503267973856 17:0.1253364090734333 18:0.11476355247981546 19:0.3833141099577086 20:0.37870049980776627 22:0.5601691657054979 23:0.6391772395232603 25:0.007689350249903883 
1.0 1:0.9644367550941946 2:0.531526336024606 3:0.9480968858131488 4:0.002114571318723568 5:0.002114571318723568 6:0.002114571318723568 7:0.9644367550941946 8:0.531526336024606 9:0.9488658208381392 10:0.002114571318723568 11:0.002114571318723568 12:0.002114571318723568 13:0.17704728950403692 14:0.1253364090734333 15:0.08189158016147635 16:0.12091503267973856 17:0.12091503267973856 18:0.12091503267973856 19:0.9452133794694348 20:0.0918877354863514 22:0.9133025759323338 23:0.7673971549404075 25:0.007689350249903883 
1.0 4:0.6403306420607459 5:0.23279507881584005 6:0.209919261822376 10:0.6403306420607459 11:0.23260284505959247 12:0.209919261822376 16:0.0265282583621684 17:0.17704728950403692 18:0.1253364090734333 20:0.6068819684736639 21:0.6391772395232603 23:0.31814686658977315 24:0.6591695501730104 25:0.007689350249903883 
1.0 1:0.7562475970780469 2:0.5297962322183776 3:0.4004229142637447 4:0.4340638216070742 5:0.5497885428681276 6:0.948481353325644 7:0.7564398308342946 8:0.5301806997308728 9:0.4004229142637447 10:0.4340638216070742 11:0.5497885428681276 12:0.9488658208381392 13:0.11476355247981546 14:0.17704728950403692 15:0.1253364090734333 16:0.14129181084198386 17:0.08189158016147635 18:0.08189158016147635 20:0.12648981161091888 23:0.497116493656286 25:0.007689350249903883 
1.0 3:0.09842368319876971 4:0.9982698961937716 5:0.531526336024606 6:0.954248366013072 9:0.5734332948865821 10:0.9982698961937716 11:0.531526336024606 12:0.9559784698193002 15:0.06382160707420223 16:0.11476355247981546 17:0.1253364090734333 18:0.06382160707420223 20:0.03633217993079585 23:0.5730488273740869 25:0.007689350249903883 
1.0 1:0.15071126489811612 2:0.42964244521337946 3:0.09419454056132257 4:0.0793925413302576 5:0.004998077662437524 6:0.9590542099192618 7:0.8581314878892734 8:0.42964244521337946 9:0.5484429065743944 10:0.46943483275663206 11:0.004998077662437524 12:0.9590542099192618 13:0.11476355247981546 14:0.14129181084198386 15:0.1439830834294502 16:0.1439830834294502 17:0.12091503267973856 18:0.08189158016147635 19:0.0918877354863514 20:0.18473663975394078 22:0.4534794309880815 23:0.0011534025374855825 25:0.007689350249903883 26:0.05263157894736842 
1.0 20:0.029027297193387157 23:0.8087274125336409 25:0.007689350249903883 
1.0 1:0.19607843137254902 2:0.6633986928104575 3:0.9538638985005767 4:0.4340638216070742 5:0.18646674356016918 6:0.17973856209150327 7:0.19607843137254902 8:0.6633986928104575 9:0.9559784698193002 10:0.4340638216070742 11:0.18646674356016918 12:0.9717416378316033 13:0.1253364090734333 14:0.17704728950403692 15:0.06382160707420223 16:0.14129181084198386 17:0.1253364090734333 18:0.1439830834294502 20:0.9777008842752788 23:0.9617454825067282 25:0.007689350249903883 
0.09798886205242556 2:0.09842368319876971 3:0.23836985774702038 4:0.382160707420223 5:0.004998077662437524 6:0.7377931564782776 8:0.5734332948865821 9:0.23836985774702038 10:0.3813917723952326 11:0.004998077662437524 12:0.73760092272203 14:0.06382160707420223 15:0.11476355247981546 16:0.17704728950403692 17:0.12091503267973856 18:0.17704728950403692 19:0.2358708189158016 21:0.37870049980776627 22:0.9286812764321415 24:0.9286812764321415 25:0.007689350249903883 
1.0 1:0.02575932333717801 2:0.5601691657054979 3:0.7233756247597078 7:0.02575932333717801 8:0.5734332948865821 9:0.7233756247597078 13:0.12091503267973856 14:0.06382160707420223 15:0.11476355247981546 19:0.7143406382160707 20:0.9777008842752788 22:0.6318723567858516 23:0.5601691657054979 25:0.007689350249903883 
1.0 1:0.18762014609765476 2:0.9352172241445598 3:0.635524798154556 4:0.004998077662437524 5:0.5601691657054979 6:0.8921568627450981 7:0.18762014609765476 8:0.936562860438293 9:0.635524798154556 10:0.004998077662437524 11:0.5734332948865821 12:0.8921568627450981 13:0.0265282583621684 14:0.08189158016147635 15:0.1253364090734333 16:0.12091503267973856 17:0.06382160707420223 18:0.11476355247981546 19:0.6318723567858516 20:0.37870049980776627 22:0.43810073048827375 23:0.6391772395232603 25:0.007689350249903883 26:0.2894736842105263 
0.5988010177692642 1:0.8896578239138793 2:0.3833141099577086 3:0.26547481737793155 4:0.22202998846597463 5:0.42964244521337946 6:0.7887351018838908 7:0.8896578239138793 8:0.3833141099577086 9:0.26547481737793155 10:0.22241445597846982 11:0.42964244521337946 12:0.7885428681276432 13:0.11476355247981546 14:0.1253364090734333 15:0.11476355247981546 16:0.08189158016147635 17:0.14129181084198386 18:0.17704728950403692 19:0.2639369473279508 21:0.21760861207227988 22:0.6391772395232603 24:0.5207612456747405 25:0.007689350249903883 26:0.05263157894736842 
1.0 2:0.06055363321799308 3:0.9936562860438293 4:0.5334486735870819 5:0.635524798154556 6:0.7402921953094963 8:0.3562091503267974 9:0.9936562860438293 10:0.5330642060745867 11:0.635524798154556 12:0.7402921953094963 14:0.11476355247981546 15:0.11476355247981546 16:0.17704728950403692 17:0.1253364090734333 18:0.11476355247981546 20:0.46943483275663206 21:0.531526336024606 23:0.9123414071510957 24:0.8169934640522876 25:0.007689350249903883 
1.0 3:0.11976163014225298 4:0.5993848519800077 9:0.6430219146482122 10:0.5993848519800077 15:0.1439830834294502 16:0.14129181084198386 19:0.11803152633602461 20:0.4755863129565552 22:0.668396770472895 23:0.6610918877354863 25:0.007689350249903883 26:0.05263157894736842 
1.0 1:0.2178008458285275 2:0.46232218377547096 3:0.5661284121491734 4:0.531526336024606 5:0.7629757785467128 6:0.6931949250288351 7:0.21818531334102267 8:0.46232218377547096 9:0.5734332948865821 10:0.531526336024606 11:0.7629757785467128 12:0.6931949250288351 13:0.17704728950403692 14:0.17704728950403692 15:0.06382160707420223 16:0.1253364090734333 17:0.11476355247981546 18:0.1253364090734333 20:0.8244905805459438 23:0.5661284121491734 25:0.007689350249903883 26:0.05263157894736842 
0.010486577377591455 1:0.8913879277201077 2:0.7818146866589774 3:0.5601691657054979 4:0.08861976163014225 5:0.27970011534025374 6:0.824875048058439 7:0.4500192233756248 8:0.7814302191464821 9:0.5734332948865821 10:0.5194156093810073 11:0.27989234909650135 12:0.824875048058439 13:0.17704728950403692 14:0.17704728950403692 15:0.06382160707420223 16:0.11476355247981546 17:0.17704728950403692 18:0.17704728950403692 20:0.08650519031141868 21:0.08804306036139946 23:0.8860053825451749 24:0.8360246059207997 25:0.007689350249903883 26:0.05263157894736842 
1.0 1:0.8669742406766628 2:0.7120338331410996 3:0.31853133410226836 4:0.0044213763936947325 5:0.6318723567858516 6:0.5184544405997693 7:0.4500192233756248 8:0.7120338331410996 9:0.31853133410226836 10:0.0044213763936947325 11:0.6318723567858516 12:0.25855440215301806 13:0.17704728950403692 14:0.0265282583621684 15:0.08189158016147635 16:0.12091503267973856 17:0.14129181084198386 18:0.17704728950403692 19:0.31814686658977315 20:0.1903114186851211 22:0.5174932718185313 23:0.5695886197616301 25:0.007689350249903883 
1.0 1:0.44386774317570166 2:0.7068435217224145 3:0.42964244521337946 4:0.004998077662437524 5:0.3754325259515571 6:0.340638216070742 7:0.4500192233756248 8:0.7079969242599 9:0.42964244521337946 10:0.004998077662437524 11:0.3754325259515571 12:0.340638216070742 13:0.17704728950403692 14:0.08189158016147635 15:0.14129181084198386 16:0.12091503267973856 17:0.1439830834294502 18:0.14129181084198386 20:0.5820838139177239 23:0.9133025759323338 25:0.007689350249903883 26:0.05263157894736842 
1.0 1:0.6931949250288351 2:0.2952710495963091 3:0.9538638985005767 4:0.3246828143021915 5:0.8669742406766628 6:0.9900038446751249 7:0.6931949250288351 8:0.2952710495963091 9:0.9559784698193002 10:0.3246828143021915 11:0.4500192233756248 12:0.9876970396001538 13:0.1253364090734333 14:0.17704728950403692 15:0.06382160707420223 16:0.0265282583621684 17:0.17704728950403692 18:0.17704728950403692 20:0.5601691657054979 23:0.629757785467128 25:0.007689350249903883 26:0.05263157894736842 
1.0 4:0.4646289888504421 5:0.004998077662437524 6:0.35082660515186465 10:0.4646289888504421 11:0.004998077662437524 12:0.35082660515186465 16:0.08189158016147635 17:0.12091503267973856 18:0.1253364090734333 20:0.029988465974625143 21:0.4573241061130334 23:0.5051903114186851 24:0.9184928873510189 25:0.007689350249903883 
1.0 3:0.18473663975394078 4:0.42964244521337946 5:0.6797385620915033 6:0.5113417916186083 9:0.9936562860438293 10:0.42964244521337946 11:0.6797385620915033 12:0.5113417916186083 15:0.1439830834294502 16:0.14129181084198386 17:0.11476355247981546 18:0.11476355247981546 20:0.9978854286812764 23:0.46943483275663206 25:0.007689350249903883 
1.0 1:0.20665128796616686 2:0.394079200307574 3:0.31122645136485966 4:0.004998077662437524 5:0.6637831603229527 6:0.4340638216070742 7:0.20703575547866204 8:0.394079200307574 9:0.31122645136485966 10:0.004998077662437524 11:0.6633986928104575 12:0.4340638216070742 13:0.11476355247981546 14:0.1253364090734333 15:0.11476355247981546 16:0.12091503267973856 17:0.17704728950403692 18:0.14129181084198386 19:0.29161860822760477 20:0.10976547481737793 22:0.629757785467128 23:0.5207612456747405 25:0.007689350249903883 
1.0 1:0.5232602845059593 2:0.33102652825836215 3:0.23836985774702038 4:0.004998077662437524 5:0.7670126874279123 6:0.3191080353710111 7:0.5734332948865821 8:0.33102652825836215 9:0.23836985774702038 10:0.004998077662437524 11:0.7670126874279123 12:0.3191080353710111 13:0.06382160707420223 14:0.08189158016147635 15:0.11476355247981546 16:0.12091503267973856 17:0.0265282583621684 18:0.14129181084198386 19:0.2358708189158016 20:0.11803152633602461 22:0.9286812764321415 23:0.43810073048827375 25:0.007689350249903883 26:0.05263157894736842 
1.0 1:0.42964244521337946 2:0.18646674356016918 3:0.4284890426758939 4:0.07093425605536333 5:0.005190311418685121 7:0.42964244521337946 8:0.18646674356016918 9:0.4284890426758939 10:0.4273356401384083 11:0.005190311418685121 13:0.14129181084198386 14:0.1253364090734333 15:0.08189158016147635 16:0.08189158016147635 17:0.12091503267973856 19:0.4277201076509035 20:0.6720492118415994 21:0.07074202229911572 22:0.9515570934256056 23:0.222798923490965 24:0.967512495194156 25:0.007689350249903883 26:0.07894736842105263 
1.0 1:0.3846597462514418 2:0.8921568627450981 3:0.5734332948865821 4:0.4590542099192618 5:0.18646674356016918 6:0.7087658592848904 7:0.3846597462514418 8:0.8921568627450981 9:0.5734332948865821 10:0.4590542099192618 11:0.18646674356016918 12:0.7085736255286428 13:0.1253364090734333 14:0.11476355247981546 15:0.06382160707420223 16:0.0265282583621684 17:0.1253364090734333 18:0.11476355247981546 20:0.7673971549404075 21:0.4573241061130334 23:0.497116493656286 24:0.9184928873510189 25:0.007689350249903883 26:0.05263157894736842 
1.0 1:0.9315647827758554 2:0.02575932333717801 3:0.5601691657054979 4:0.9982698961937716 5:0.3971549404075356 6:0.38485198000768933 7:0.9315647827758554 8:0.02575932333717801 9:0.5734332948865821 10:0.9982698961937716 11:0.3973471741637832 12:0.38485198000768933 13:0.11476355247981546 14:0.12091503267973856 15:0.06382160707420223 16:0.1439830834294502 17:0.08189158016147635 18:0.1253364090734333 20:0.773356401384083 23:0.6591695501730104 25:0.007689350249903883 
1.0 1:0.4004229142637447 2:0.9559784698193002 3:0.39119569396386006 4:0.57920030757401 5:0.5601691657054979 6:0.8954248366013072 7:0.4004229142637447 8:0.9559784698193002 9:0.39119569396386006 10:0.57920030757401 11:0.5734332948865821 12:0.8954248366013072 13:0.1253364090734333 14:0.14129181084198386 15:0.1253364090734333 16:0.1253364090734333 17:0.06382160707420223 18:0.11476355247981546 19:0.3890811226451365 20:0.16359092656670512 21:0.5765090349865436 22:0.5695886197616301 23:0.5592079969242599 24:0.5051903114186851 25:0.007689350249903883 26:0.05263157894736842 
1.0 3:0.06189926951172626 9:0.36543637062668205 15:0.11476355247981546 19:0.057477893118031524 20:0.0793925413302576 22:0.6391772395232603 23:0.9965397923875432 25:0.007689350249903883 26:0.05263157894736842 
1.0 1:0.9425221068819685 2:0.7489427143406382 3:0.635524798154556 4:0.18646674356016918 5:0.7537485582468282 6:0.8633217993079585 7:0.9430988081507112 8:0.7489427143406382 9:0.635524798154556 10:0.18646674356016918 11:0.7537485582468282 12:0.8633217993079585 13:0.17704728950403692 14:0.0265282583621684 15:0.1253364090734333 16:0.1253364090734333 17:0.08189158016147635 18:0.0265282583621684 19:0.6318723567858516 20:0.31276432141484045 22:0.43810073048827375 23:0.5213379469434832 25:0.007689350249903883 26:0.3157894736842105 
1.0 2:0.1186082276047674 3:0.44790465205690116 4:0.02575932333717801 5:0.209919261822376 6:0.5419069588619762 8:0.6403306420607459 9:0.44809688581314877 10:0.02575932333717801 11:0.209919261822376 12:0.5419069588619762 14:0.0265282583621684 15:0.17704728950403692 16:0.12091503267973856 17:0.1253364090734333 18:0.11476355247981546 19:0.44502114571318724 20:0.773356401384083 22:0.9184928873510189 23:0.6591695501730104 25:0.007689350249903883 26:0.05263157894736842 
1.0 1:0.6209150326797386 2:0.2747020376778162 3:0.3942714340638216 4:0.004998077662437524 5:0.8498654363706267 6:0.395040369088812 7:0.6209150326797386 8:0.2747020376778162 9:0.3942714340638216 10:0.004998077662437524 11:0.4500192233756248 12:0.3948481353325644 13:0.08189158016147635 14:0.11476355247981546 15:0.1253364090734333 16:0.12091503267973856 17:0.17704728950403692 18:0.17704728950403692 19:0.3890811226451365 20:0.33391003460207613 22:0.5661284121491734 23:0.7673971549404075 25:0.007689350249903883 
0.2740231082360815 1:0.5597846981930027 2:0.19992310649750097 3:0.4004229142637447 4:0.9982698961937716 5:0.31699346405228757 6:0.9538638985005767 7:0.5734332948865821 8:0.19992310649750097 9:0.4004229142637447 10:0.9982698961937716 11:0.31699346405228757 12:0.9559784698193002 13:0.06382160707420223 14:0.11476355247981546 15:0.1253364090734333 16:0.1439830834294502 17:0.0265282583621684 18:0.06382160707420223 20:0.0793925413302576 23:0.6391772395232603 25:0.007689350249903883 26:0.05263157894736842 
1.0 2:0.5601691657054979 3:0.6422529796232218 4:0.6222606689734718 5:0.8402537485582469 6:0.4611687812379854 8:0.5734332948865821 9:0.6428296808919647 10:0.6222606689734718 11:0.8402537485582469 12:0.4615532487504806 14:0.06382160707420223 15:0.08189158016147635 16:0.1439830834294502 17:0.0265282583621684 18:0.08189158016147635 19:0.6391772395232603 20:0.5734332948865821 21:0.6166858900422915 22:0.7673971549404075 23:0.6591695501730104 24:0.9286812764321415 25:0.007689350249903883 
0.28740573484371973 1:0.9740484429065744 2:0.6501345636293733 3:0.4004229142637447 4:0.42964244521337946 5:0.8527489427143407 6:0.004998077662437524 7:0.9761630142252979 8:0.6501345636293733 9:0.4004229142637447 10:0.42964244521337946 11:0.8527489427143407 12:0.004998077662437524 13:0.08189158016147635 14:0.11476355247981546 15:0.1253364090734333 16:0.14129181084198386 17:0.11476355247981546 18:0.12091503267973856 20:0.932718185313341 23:0.9496347558631296 25:0.007689350249903883 
1.0 1:0.2973856209150327 2:0.6209150326797386 3:0.5094194540561322 4:0.340638216070742 5:0.5232602845059593 6:0.26547481737793155 7:0.29700115340253747 8:0.6209150326797386 9:0.5090349865436371 10:0.340638216070742 11:0.5734332948865821 12:0.26547481737793155 13:0.11476355247981546 14:0.0265282583621684 15:0.08189158016147635 16:0.14129181084198386 17:0.06382160707420223 18:0.11476355247981546 19:0.5069204152249135 20:0.33391003460207613 21:0.33391003460207613 22:0.4004229142637447 23:0.9127258746635909 24:0.5993848519800077 25:0.007689350249903883 26:0.21052631578947367 
1.0 3:0.1432141484044598 4:0.7818146866589774 5:0.3833141099577086 6:0.954248366013072 9:0.7658592848904268 10:0.7814302191464821 11:0.3833141099577086 12:0.9559784698193002 15:0.08189158016147635 16:0.17704728950403692 17:0.1253364090734333 18:0.06382160707420223 19:0.14148404459823144 20:0.20607458669742407 21:0.7808535178777394 22:0.9286812764321415 23:0.0013456362937331796 24:0.9286812764321415 25:0.007689350249903883 
1.0 1:0.6670511341791618 2:0.31853133410226836 3:0.8492887351018839 4:0.60399846212995 5:0.18646674356016918 6:0.48808150711264897 7:0.6670511341791618 8:0.31853133410226836 9:0.8492887351018839 10:0.6055363321799307 11:0.18646674356016918 12:0.48808150711264897 13:0.11476355247981546 14:0.14129181084198386 15:0.14129181084198386 16:0.17704728950403692 17:0.1253364090734333 18:0.17704728950403692 20:0.8169934640522876 21:0.5993848519800077 23:0.8164167627835448 24:0.8594771241830066 25:0.007689350249903883 
1.0 4:0.5820838139177239 5:0.4004229142637447 6:0.826797385620915 10:0.5820838139177239 11:0.4004229142637447 12:0.8275663206459054 16:0.14129181084198386 17:0.1253364090734333 18:0.08189158016147635 20:0.07247212610534409 23:0.33391003460207613 25:0.007689350249903883 
1.0 2:0.1122645136485967 3:0.531526336024606 4:0.004998077662437524 5:0.29277201076509035 6:0.4340638216070742 8:0.6122645136485967 9:0.531526336024606 10:0.004998077662437524 11:0.29257977700884275 12:0.4340638216070742 14:0.1439830834294502 15:0.1253364090734333 16:0.12091503267973856 17:0.11476355247981546 18:0.14129181084198386 20:0.29161860822760477 23:0.9498269896193772 25:0.007689350249903883 
1.0 4:0.6368704344482892 5:0.004998077662437524 6:0.47923875432525953 10:0.6368704344482892 11:0.004998077662437524 12:0.47923875432525953 16:0.11476355247981546 17:0.12091503267973856 18:0.0265282583621684 20:0.17550941945405613 21:0.6318723567858516 23:0.33391003460207613 24:0.4430988081507113 25:0.007689350249903883 26:0.05263157894736842 
0.652449772118598 1:0.12918108419838523 2:0.31853133410226836 3:0.009034986543637063 4:0.4004229142637447 5:0.9736639753940792 6:0.3246828143021915 7:0.6906958861976163 8:0.31853133410226836 9:0.009034986543637063 10:0.4004229142637447 11:0.9736639753940792 12:0.3246828143021915 13:0.11476355247981546 14:0.14129181084198386 15:0.08189158016147635 16:0.1253364090734333 17:0.11476355247981546 18:0.14129181084198386 20:0.28604382929642447 23:0.7673971549404075 25:0.007689350249903883 26:0.05263157894736842 
1.0 1:0.004998077662437524 2:0.5232602845059593 3:0.29815455594002305 4:0.42964244521337946 5:0.5678585159554018 6:0.6562860438292965 7:0.004998077662437524 8:0.5734332948865821 9:0.29815455594002305 10:0.42964244521337946 11:0.5680507497116494 12:0.6562860438292965 13:0.12091503267973856 14:0.06382160707420223 15:0.11476355247981546 16:0.14129181084198386 17:0.11476355247981546 18:0.08189158016147635 19:0.29161860822760477 20:0.24202229911572473 22:0.5520953479430988 23:0.6384083044982699 25:0.007689350249903883 
1.0 1:0.671280276816609 2:0.20972702806612842 3:0.0036524413687043446 4:0.005190311418685121 7:0.671280276816609 8:0.20972702806612842 9:0.0036524413687043446 10:0.005190311418685121 13:0.0265282583621684 14:0.1253364090734333 15:0.14129181084198386 16:0.12091503267973856 20:0.09496347558631296 23:0.8360246059207997 25:0.007689350249903883 26:0.05263157894736842 
1.0 1:0.4284890426758939 2:0.68800461361015 3:0.3844675124951942 4:0.005190311418685121 7:0.4284890426758939 8:0.6881968473663975 9:0.3844675124951942 10:0.005190311418685121 13:0.08189158016147635 14:0.11476355247981546 15:0.1253364090734333 16:0.12091503267973856 19:0.3833141099577086 20:0.12149173394848135 22:0.5597846981930027 23:0.967512495194156 25:0.007689350249903883 26:0.05263157894736842 
1.0 4:0.8910034602076125 5:0.209919261822376 6:0.20492118415993849 10:0.4500192233756248 11:0.209919261822376 12:0.20492118415993849 16:0.17704728950403692 17:0.1253364090734333 18:0.11476355247981546 20:0.07497116493656286 21:0.8860053825451749 23:0.5559400230680508 24:0.9263744713571703 25:0.007689350249903883 
0.9783875018109788 1:0.47500961168781236 2:0.31410995770857364 3:0.004998077662437524 4:0.8235294117647058 5:0.42964244521337946 6:0.26547481737793155 7:0.47500961168781236 8:0.31410995770857364 9:0.004998077662437524 10:0.8235294117647058 11:0.42964244521337946 12:0.2648981161091888 13:0.11476355247981546 14:0.1439830834294502 15:0.12091503267973856 16:0.11476355247981546 17:0.14129181084198386 18:0.17704728950403692 20:0.6391772395232603 21:0.8169934640522876 23:0.51999231064975 24:0.629757785467128 25:0.007689350249903883 26:0.05263157894736842 
1.0 1:0.7658592848904268 2:0.5190311418685121 3:0.38389081122645136 4:0.20607458669742407 5:0.01768550557477893 6:0.4011918492887351 7:0.7658592848904268 8:0.5190311418685121 9:0.38389081122645136 10:0.20607458669742407 11:0.01768550557477893 12:0.4011918492887351 13:0.08189158016147635 14:0.11476355247981546 15:0.1253364090734333 16:0.1253364090734333 17:0.11476355247981546 18:0.11476355247981546 19:0.3833141099577086 20:0.01710880430603614 22:0.20607458669742407 23:0.773356401384083 25:0.007689350249903883 
1.0 1:0.9982698961937716 2:0.9809688581314879 3:0.2101114955786236 4:0.004998077662437524 5:0.42964244521337946 6:0.3506343713956171 7:0.9982698961937716 8:0.9809688581314879 9:0.2101114955786236 10:0.004998077662437524 11:0.42964244521337946 12:0.3506343713956171 13:0.1439830834294502 14:0.1253364090734333 15:0.1253364090734333 16:0.12091503267973856 17:0.14129181084198386 18:0.14129181084198386 19:0.20607458669742407 20:0.13456362937331795 22:0.5601691657054979 23:0.949442522106882 25:0.007689350249903883 26:0.05263157894736842 
1.0 1:0.7650903498654363 2:0.73279507881584 3:0.3844675124951942 4:0.458477508650519 5:0.5684352172241446 6:0.8302575932333718 7:0.7650903498654363 8:0.7324106113033448 9:0.3844675124951942 10:0.46232218377547096 11:0.5684352172241446 12:0.8302575932333718 13:0.14129181084198386 14:0.17704728950403692 15:0.1253364090734333 16:0.17704728950403692 17:0.0265282583621684 18:0.1439830834294502 19:0.3833141099577086 20:0.09554017685505575 21:0.4573241061130334 22:0.5597846981930027 23:0.5207612456747405 24:0.9617454825067282 25:0.007689350249903883 26:0.07894736842105263 
1.0 1:0.9763552479815456 2:0.5601691657054979 3:0.9011918492887351 4:0.31853133410226836 5:0.9777008842752788 6:0.36120722798923494 7:0.9763552479815456 8:0.5734332948865821 9:0.9011918492887351 10:0.31853133410226836 11:0.9777008842752788 12:0.36120722798923494 13:0.1253364090734333 14:0.06382160707420223 15:0.11476355247981546 16:0.14129181084198386 17:0.14129181084198386 18:0.11476355247981546 19:0.8860053825451749 20:0.5530565167243368 21:0.31814686658977315 22:0.3833141099577086 23:0.773356401384083 24:0.5174932718185313 25:0.007689350249903883 26:0.05263157894736842 
1.0 1:0.8492887351018839 2:0.9425221068819685 3:0.19607843137254902 4:0.004998077662437524 5:0.2106881968473664 6:0.720876585928489 7:0.8492887351018839 8:0.9430988081507112 9:0.19607843137254902 10:0.004998077662437524 11:0.2106881968473664 12:0.7197231833910035 13:0.14129181084198386 14:0.17704728950403692 15:0.1253364090734333 16:0.12091503267973856 17:0.1253364090734333 18:0.11476355247981546 20:0.12360630526720492 23:0.7673971549404075 25:0.007689350249903883 26:0.15789473684210525 
1.0 2:0.09073433294886582 3:0.33275663206459055 4:0.9982698961937716 5:0.6209150326797386 6:0.507112648981161 8:0.5734332948865821 9:0.33275663206459055 10:0.9982698961937716 11:0.6209150326797386 12:0.507112648981161 14:0.06382160707420223 15:0.11476355247981546 16:0.1439830834294502 17:0.0265282583621684 18:0.08189158016147635 19:0.3304498269896194 20:0.6903114186851211 22:0.5820838139177239 23:0.8166089965397924 25:0.007689350249903883 26:0.05263157894736842 
0.4645909043935938 2:0.5601691657054979 3:0.6422529796232218 4:0.8402537485582469 5:0.4611687812379854 8:0.5734332948865821 9:0.6428296808919647 10:0.8402537485582469 11:0.4615532487504806 14:0.06382160707420223 15:0.08189158016147635 16:0.0265282583621684 17:0.08189158016147635 19:0.6391772395232603 20:0.5734332948865821 21:0.8360246059207997 22:0.7673971549404075 23:0.9286812764321415 24:0.9184928873510189 25:0.007689350249903883 
1.0 1:0.6993464052287581 2:0.8679354094579008 3:0.394079200307574 4:0.44386774317570166 5:0.6209150326797386 6:0.7343329488658208 7:0.6993464052287581 8:0.8679354094579008 9:0.394079200307574 10:0.4500192233756248 11:0.6209150326797386 12:0.7343329488658208 13:0.08189158016147635 14:0.0265282583621684 15:0.1253364090734333 16:0.17704728950403692 17:0.0265282583621684 18:0.11476355247981546 19:0.3890811226451365 20:0.773356401384083 21:0.44367550941945405 22:0.5601691657054979 23:0.6591695501730104 24:0.7673971549404075 25:0.007689350249903883 
0.6875971323965192 1:0.12379853902345252 2:0.004998077662437524 3:0.2106881968473664 4:0.004998077662437524 5:0.9982698961937716 6:0.19127258746635908 7:0.6597462514417531 8:0.004998077662437524 9:0.2106881968473664 10:0.004998077662437524 11:0.9982698961937716 12:0.19127258746635908 13:0.1439830834294502 14:0.12091503267973856 15:0.1253364090734333 16:0.12091503267973856 17:0.1439830834294502 18:0.08189158016147635 19:0.20607458669742407 20:0.7143406382160707 22:0.5661284121491734 23:0.6391772395232603 25:0.007689350249903883 26:0.7105263157894737 
1.0 1:0.004998077662437524 2:0.9809688581314879 3:0.18646674356016918 4:0.6931949250288351 5:0.5232602845059593 6:0.7798923490965013 7:0.004998077662437524 8:0.9809688581314879 9:0.18646674356016918 10:0.6931949250288351 11:0.5734332948865821 12:0.7798923490965013 13:0.12091503267973856 14:0.11476355247981546 15:0.1253364090734333 16:0.1253364090734333 17:0.06382160707420223 18:0.11476355247981546 20:0.8169934640522876 21:0.6903114186851211 23:0.6497500961168782 24:0.44367550941945405 25:0.007689350249903883 
1.0 4:0.6580161476355249 5:0.31853133410226836 6:0.49480968858131485 10:0.6580161476355249 11:0.31853133410226836 12:0.49480968858131485 16:0.1253364090734333 17:0.08189158016147635 18:0.08189158016147635 20:0.12898885044213765 21:0.6572472126105344 23:0.5661284121491734 24:0.773356401384083 25:0.007689350249903883 
1.0 1:0.92079969242599 2:0.4004229142637447 3:0.954248366013072 4:0.6495578623606305 5:0.2101114955786236 6:0.0592079969242599 7:0.92079969242599 8:0.4004229142637447 9:0.9559784698193002 10:0.6495578623606305 11:0.2101114955786236 12:0.3429450211457132 13:0.11476355247981546 14:0.1253364090734333 15:0.06382160707420223 16:0.14129181084198386 17:0.1253364090734333 18:0.1439830834294502 19:0.9538638985005767 20:0.7808535178777394 22:0.629757785467128 23:0.5520953479430988 25:0.007689350249903883 
1.0 1:0.3754325259515571 2:0.9855824682814303 3:0.20607458669742407 4:0.004998077662437524 5:0.6562860438292965 6:0.5001922337562476 7:0.3754325259515571 8:0.9855824682814303 9:0.20607458669742407 10:0.004998077662437524 11:0.6562860438292965 12:0.5001922337562476 13:0.1439830834294502 14:0.17704728950403692 15:0.1253364090734333 16:0.12091503267973856 17:0.08189158016147635 18:0.11476355247981546 20:0.6068819684736639 23:0.9504036908881199 25:0.007689350249903883 26:0.02631578947368421 
1.0 4:0.694156093810073 5:0.3246828143021915 6:0.8669742406766628 10:0.694156093810073 11:0.3246828143021915 12:0.4500192233756248 16:0.08189158016147635 17:0.0265282583621684 18:0.17704728950403692 20:0.057477893118031524 21:0.6903114186851211 23:0.41926182237600923 24:0.5201845444059977 25:0.007689350249903883 
1.0 1:0.9434832756632064 2:0.2308727412533641 3:0.004998077662437524 4:0.5378700499807766 5:0.32545174932718185 6:0.4004229142637447 7:0.9430988081507112 8:0.23529411764705882 9:0.004998077662437524 10:0.5378700499807766 11:0.32545174932718185 12:0.4004229142637447 13:0.17704728950403692 14:0.17704728950403692 15:0.12091503267973856 16:0.08189158016147635 17:0.11476355247981546 18:0.1253364090734333 20:0.773356401384083 21:0.531526336024606 23:0.6591695501730104 24:0.9184928873510189 25:0.007689350249903883 
1.0 1:0.17550941945405613 2:0.27854671280276816 3:0.20530565167243367 4:0.4004229142637447 5:0.11380238369857747 7:0.9559784698193002 8:0.27854671280276816 9:0.20530565167243367 10:0.4004229142637447 11:0.6224529027297193 13:0.06382160707420223 14:0.11476355247981546 15:0.1253364090734333 16:0.1253364090734333 17:0.1439830834294502 20:0.7026143790849673 23:0.9184928873510189 25:0.007689350249903883 26:0.07894736842105263 
1.0 1:0.4340638216070742 2:0.2241445597846982 3:0.6361014994232987 4:0.6361014994232987 5:0.8954248366013072 6:0.7422145328719724 7:0.4340638216070742 8:0.2241445597846982 9:0.6361014994232987 10:0.6361014994232987 11:0.8954248366013072 12:0.7422145328719724 13:0.14129181084198386 14:0.17704728950403692 15:0.1253364090734333 16:0.1253364090734333 17:0.11476355247981546 18:0.11476355247981546 19:0.6318723567858516 20:0.28123798539023454 21:0.6318723567858516 22:0.5601691657054979 23:0.5222991157247212 24:0.5601691657054979 25:0.007689350249903883 26:0.05263157894736842 
1.0 1:0.44386774317570166 2:0.6931949250288351 3:0.5734332948865821 4:0.5549788542868128 5:0.004998077662437524 6:0.8679354094579008 7:0.44386774317570166 8:0.6931949250288351 9:0.5734332948865821 10:0.5553633217993079 11:0.004998077662437524 12:0.8679354094579008 13:0.11476355247981546 14:0.1253364090734333 15:0.06382160707420223 16:0.11476355247981546 17:0.12091503267973856 18:0.0265282583621684 20:0.7026143790849673 21:0.5544021530180699 23:0.5563244905805459 24:0.629757785467128 25:0.007689350249903883 26:0.05263157894736842 
1.0 3:0.0993848519800077 4:0.9982698961937716 5:0.5334486735870819 6:0.635524798154556 9:0.5734332948865821 10:0.9982698961937716 11:0.5330642060745867 12:0.635524798154556 15:0.06382160707420223 16:0.1439830834294502 17:0.17704728950403692 18:0.1253364090734333 20:0.9936562860438293 23:0.46943483275663206 25:0.007689350249903883 26:0.05263157894736842 
1.0 4:0.4004229142637447 5:0.2427912341407151 6:0.531526336024606 10:0.4004229142637447 11:0.2429834678969627 12:0.531526336024606 16:0.1253364090734333 17:0.11476355247981546 18:0.1253364090734333 20:0.1061130334486736 23:0.9959630911188004 25:0.007689350249903883 26:0.10526315789473684 
1.0 1:0.4004229142637447 2:0.040945790080738176 3:0.004998077662437524 4:0.7650903498654363 5:0.73279507881584 6:0.3844675124951942 7:0.4004229142637447 8:0.26855055747789314 9:0.004998077662437524 10:0.7650903498654363 11:0.7324106113033448 12:0.3844675124951942 13:0.1253364090734333 14:0.1439830834294502 15:0.12091503267973856 16:0.14129181084198386 17:0.17704728950403692 18:0.1253364090734333 20:0.6903114186851211 21:0.7589388696655133 23:0.51999231064975 24:0.5734332948865821 25:0.007689350249903883 26:0.05263157894736842 
-1.0 1:0.5601691657054979 2:0.7233756247597078 3:0.9329104190695886 4:0.42964244521337946 5:0.763360246059208 6:0.5638216070742023 7:0.5734332948865821 8:0.7233756247597078 9:0.9329104190695886 10:0.42964244521337946 11:0.763360246059208 12:0.5638216070742023 13:0.06382160707420223 14:0.11476355247981546 15:0.1253364090734333 16:0.14129181084198386 17:0.11476355247981546 18:0.08189158016147635 19:0.932718185313341 20:0.7673971549404075 22:0.7673971549404075 23:0.5601691657054979 25:0.007689350249903883 
-1.0 1:0.07054978854286813 2:0.1906958861976163 3:0.2101114955786236 7:0.4229142637447136 8:0.1906958861976163 9:0.2101114955786236 13:0.17704728950403692 14:0.0265282583621684 15:0.1253364090734333 19:0.20607458669742407 20:0.057477893118031524 22:0.5601691657054979 23:0.6318723567858516 25:0.007689350249903883 
-1.0 1:0.06151480199923107 2:0.6495578623606305 3:0.2101114955786236 4:0.531526336024606 5:0.8144944252210689 6:0.3890811226451365 7:0.36120722798923494 8:0.6495578623606305 9:0.2101114955786236 10:0.531526336024606 11:0.8144944252210689 12:0.3890811226451365 13:0.1439830834294502 14:0.14129181084198386 15:0.1253364090734333 16:0.1253364090734333 17:0.1439830834294502 18:0.1253364090734333 19:0.20607458669742407 20:0.057477893118031524 22:0.5601691657054979 23:0.6318723567858516 25:0.007689350249903883 
-1.0 1:0.7233756247597078 2:0.02575932333717801 3:0.9809688581314879 7:0.7233756247597078 8:0.02575932333717801 9:0.9809688581314879 13:0.11476355247981546 14:0.12091503267973856 15:0.1253364090734333 19:0.9777008842752788 20:0.16916570549788543 22:0.6391772395232603 23:0.6384083044982699 25:0.007689350249903883 
-1.0 1:0.9538638985005767 2:0.6141868512110726 3:0.3846597462514418 4:0.6695501730103807 5:0.7564398308342946 6:0.6931949250288351 7:0.9559784698193002 8:0.6141868512110726 9:0.3846597462514418 10:0.6695501730103807 11:0.7560553633217993 12:0.6931949250288351 13:0.06382160707420223 14:0.11476355247981546 15:0.1253364090734333 16:0.11476355247981546 17:0.17704728950403692 18:0.1253364090734333 19:0.3833141099577086 20:0.16359092656670512 21:0.668396770472895 22:0.5601691657054979 23:0.6384083044982699 24:0.6166858900422915 25:0.007689350249903883 
-1.0 1:0.7233756247597078 2:0.9809688581314879 3:0.2101114955786236 7:0.7233756247597078 8:0.9809688581314879 9:0.2101114955786236 13:0.11476355247981546 14:0.11476355247981546 15:0.1253364090734333 19:0.20607458669742407 20:0.7673971549404075 22:0.5601691657054979 23:0.5601691657054979 25:0.007689350249903883 
-0.7111336481277204 1:0.8973471741637832 2:0.9809688581314879 3:0.2101114955786236 4:0.42964244521337946 5:0.2114571318723568 6:0.16493656286043828 7:0.8975394079200307 8:0.9809688581314879 9:0.2101114955786236 10:0.42964244521337946 11:0.2114571318723568 12:0.890234525182622 13:0.08189158016147635 14:0.1253364090734333 15:0.1253364090734333 16:0.14129181084198386 17:0.1253364090734333 18:0.1439830834294502 19:0.20607458669742407 20:0.9452133794694348 22:0.5601691657054979 23:0.6591695501730104 25:0.007689350249903883 
-1.0 1:0.42964244521337946 2:0.3846597462514418 3:0.460399846212995 4:0.004998077662437524 5:0.5820838139177239 6:0.49096501345636295 7:0.42964244521337946 8:0.3846597462514418 9:0.46078431372549017 10:0.004998077662437524 11:0.5820838139177239 12:0.49096501345636295 13:0.14129181084198386 14:0.1253364090734333 15:0.08189158016147635 16:0.12091503267973856 17:0.14129181084198386 18:0.0265282583621684 19:0.4573241061130334 20:0.7026143790849673 22:0.8169934640522876 23:0.21760861207227988 25:0.009034986543637063 
-1.0 1:0.032487504805843906 2:0.004998077662437524 3:0.3833141099577086 4:0.8669742406766628 5:0.024413687043444827 6:0.6139946174548251 7:0.22260668973471742 8:0.004998077662437524 9:0.3833141099577086 10:0.4500192233756248 11:0.024413687043444827 12:0.6141868512110726 13:0.1439830834294502 14:0.12091503267973856 15:0.1253364090734333 16:0.17704728950403692 17:0.08189158016147635 18:0.11476355247981546 20:0.15301806997308728 21:0.8594771241830066 23:0.6572472126105344 24:0.6391772395232603 25:0.007689350249903883 
-1.0 3:0.0655517108804306 4:0.8492887351018839 5:0.7687427912341407 6:0.5232602845059593 9:0.3846597462514418 10:0.8492887351018839 11:0.7689350249903883 12:0.5734332948865821 15:0.1253364090734333 16:0.14129181084198386 17:0.17704728950403692 18:0.06382160707420223 19:0.06497500961168781 20:0.16359092656670512 22:0.5601691657054979 23:0.5570934256055363 25:0.007689350249903883 
-1.0 1:0.5232602845059593 2:0.9407920030757401 3:0.18646674356016918 4:0.004998077662437524 5:0.8360246059207997 6:0.8492887351018839 7:0.5734332948865821 8:0.9407920030757401 9:0.18646674356016918 10:0.004998077662437524 11:0.8360246059207997 12:0.8492887351018839 13:0.06382160707420223 14:0.11476355247981546 15:0.1253364090734333 16:0.12091503267973856 17:0.14129181084198386 18:0.14129181084198386 20:0.032103037293348714 23:0.20607458669742407 25:0.007689350249903883 
-1.0 1:0.9976931949250288 2:0.8404459823144944 3:0.18646674356016918 4:0.531526336024606 5:0.011726259131103423 6:0.6139946174548251 7:0.9976931949250288 8:0.8404459823144944 9:0.18646674356016918 10:0.531526336024606 11:0.011726259131103423 12:0.6141868512110726 13:0.1439830834294502 14:0.0265282583621684 15:0.1253364090734333 16:0.1253364090734333 17:0.08189158016147635 18:0.11476355247981546 20:0.032103037293348714 23:0.20607458669742407 25:0.007689350249903883 
-1.0 3:0.0993848519800077 4:0.9982698961937716 5:0.3375624759707805 6:0.6495578623606305 9:0.5734332948865821 10:0.9982698961937716 11:0.33717800845828527 12:0.6495578623606305 15:0.06382160707420223 16:0.1439830834294502 17:0.17704728950403692 18:0.14129181084198386 20:0.8860053825451749 23:0.5570934256055363 25:0.007689350249903883 
-1.0 1:0.05190311418685121 2:0.6495578623606305 3:0.18646674356016918 4:0.35082660515186465 5:0.9480968858131488 6:0.5597846981930027 7:0.3146866589773164 8:0.6495578623606305 9:0.18646674356016918 10:0.35082660515186465 11:0.9488658208381392 12:0.5734332948865821 13:0.1439830834294502 14:0.14129181084198386 15:0.1253364090734333 16:0.1253364090734333 17:0.08189158016147635 18:0.06382160707420223 20:0.15301806997308728 21:0.33391003460207613 23:0.6572472126105344 24:0.6591695501730104 25:0.007689350249903883 
-1.0 1:0.6209150326797386 2:0.9809688581314879 3:0.18646674356016918 4:0.004998077662437524 5:0.4340638216070742 6:0.5232602845059593 7:0.6209150326797386 8:0.9809688581314879 9:0.18646674356016918 10:0.004998077662437524 11:0.4340638216070742 12:0.5734332948865821 13:0.08189158016147635 14:0.11476355247981546 15:0.1253364090734333 16:0.12091503267973856 17:0.14129181084198386 18:0.06382160707420223 20:0.13379469434832755 23:0.9953863898500577 25:0.007689350249903883 
-1.0 1:0.12995001922337562 2:0.2241445597846982 3:0.20607458669742407 4:0.8492887351018839 5:0.5288350634371396 6:0.327758554402153 7:0.6931949250288351 8:0.2241445597846982 9:0.20607458669742407 10:0.8492887351018839 11:0.5290272971933871 12:0.327758554402153 13:0.1253364090734333 14:0.17704728950403692 15:0.1253364090734333 16:0.14129181084198386 17:0.17704728950403692 18:0.0265282583621684 20:0.967512495194156 23:0.9286812764321415 25:0.007689350249903883 
-1.0 1:0.3846597462514418 2:0.460399846212995 3:0.002306805074971165 4:0.002306805074971165 5:0.4004229142637447 6:0.07151095732410612 7:0.3846597462514418 8:0.46078431372549017 9:0.0034602076124567475 10:0.0034602076124567475 11:0.4004229142637447 12:0.4279123414071511 13:0.1253364090734333 14:0.08189158016147635 15:0.12091503267973856 16:0.12091503267973856 17:0.1253364090734333 18:0.1439830834294502 20:0.967512495194156 23:0.5601691657054979 25:0.007689350249903883 
-1.0 1:0.6931949250288351 2:0.5021145713187236 3:0.6361014994232987 4:0.005190311418685121 7:0.6931949250288351 8:0.501922337562476 9:0.6361014994232987 10:0.005190311418685121 13:0.1253364090734333 14:0.11476355247981546 15:0.1253364090734333 16:0.12091503267973856 19:0.6318723567858516 20:0.1774317570165321 22:0.5601691657054979 23:0.629757785467128 25:0.007689350249903883 
-1.0 1:0.9982698961937716 2:0.6956939638600538 3:0.004998077662437524 4:0.42964244521337946 5:0.18646674356016918 6:0.7151095732410612 7:0.9982698961937716 8:0.696078431372549 9:0.004998077662437524 10:0.42964244521337946 11:0.18646674356016918 12:0.7158785082660515 13:0.1439830834294502 14:0.08189158016147635 15:0.12091503267973856 16:0.14129181084198386 17:0.1253364090734333 18:0.08189158016147635 20:0.12149173394848135 23:0.967512495194156 25:0.007689350249903883 
-1.0 1:0.5692041522491349 2:0.34505959246443674 3:0.42964244521337946 4:0.4004229142637447 5:0.7766243752402922 6:0.6209150326797386 7:0.5692041522491349 8:0.34505959246443674 9:0.42964244521337946 10:0.4004229142637447 11:0.7766243752402922 12:0.6209150326797386 13:0.11476355247981546 14:0.08189158016147635 15:0.14129181084198386 16:0.1253364090734333 17:0.08189158016147635 18:0.08189158016147635 20:0.7143406382160707 23:0.9496347558631296 25:0.007689350249903883 
-1.0 1:0.21914648212226068 2:0.9971164936562861 3:0.39254133025759325 4:0.42964244521337946 5:0.0036524413687043446 6:0.8913879277201077 7:0.21933871587850826 8:0.9971164936562861 9:0.39254133025759325 10:0.42964244521337946 11:0.0036524413687043446 12:0.4500192233756248 13:0.08189158016147635 14:0.11476355247981546 15:0.1253364090734333 16:0.14129181084198386 17:0.14129181084198386 18:0.17704728950403692 19:0.3890811226451365 20:0.5601691657054979 22:0.43810073048827375 23:0.6391772395232603 25:0.007689350249903883 
-1.0 1:0.8502499038831218 2:0.002306805074971165 3:0.4004229142637447 4:0.6495578623606305 5:0.4004229142637447 6:0.7647058823529411 7:0.8504421376393695 8:0.0034602076124567475 9:0.4004229142637447 10:0.6495578623606305 11:0.4004229142637447 12:0.7647058823529411 13:0.08189158016147635 14:0.12091503267973856 15:0.1253364090734333 16:0.14129181084198386 17:0.1253364090734333 18:0.14129181084198386 20:0.051134179161860825 23:0.5816993464052288 25:0.007689350249903883 
-0.7815249989391218 3:0.09073433294886582 4:0.2754709727028066 5:0.4004229142637447 6:0.954248366013072 9:0.5734332948865821 10:0.27566320645905423 11:0.4004229142637447 12:0.9559784698193002 15:0.06382160707420223 16:0.17704728950403692 17:0.1253364090734333 18:0.06382160707420223 20:0.07766243752402922 21:0.2722029988465975 23:0.6460976547481738 24:0.5207612456747405 25:0.007689350249903883 
-1.0 1:0.4077277970011534 2:0.31853133410226836 3:0.7658592848904268 4:0.6068819684736639 5:0.5167243367935409 6:0.7035755478662054 7:0.4077277970011534 8:0.31853133410226836 9:0.7658592848904268 10:0.6068819684736639 11:0.25855440215301806 12:0.7035755478662054 13:0.17704728950403692 14:0.14129181084198386 15:0.08189158016147635 16:0.14129181084198386 17:0.17704728950403692 18:0.0265282583621684 19:0.7589388696655133 20:0.6391772395232603 22:0.9286812764321415 23:0.43810073048827375 25:0.007689350249903883 
-1.0 4:0.615916955017301 5:0.2233756247597078 6:0.8360246059207997 10:0.6161091887735486 11:0.2233756247597078 12:0.8360246059207997 16:0.08189158016147635 17:0.14129181084198386 18:0.14129181084198386 20:0.05613225682429835 21:0.6068819684736639 23:0.5601691657054979 24:0.9133025759323338 25:0.007689350249903883 
-1.0 4:0.22241445597846982 5:0.004998077662437524 6:0.5778546712802768 10:0.22241445597846982 11:0.004998077662437524 12:0.5778546712802768 16:0.08189158016147635 17:0.12091503267973856 18:0.08189158016147635 20:0.04017685505574779 21:0.21760861207227988 23:0.6391772395232603 24:0.5520953479430988 25:0.007689350249903883 
-1.0 4:0.7124183006535948 5:0.9678969627066513 6:0.5820838139177239 10:0.7124183006535948 11:0.9678969627066513 12:0.5820838139177239 16:0.14129181084198386 17:0.11476355247981546 18:0.14129181084198386 20:0.16359092656670512 21:0.7026143790849673 23:0.7673971549404075 24:0.9286812764321415 25:0.007689350249903883 
-1.0 1:0.7658592848904268 2:0.5190311418685121 3:0.18646674356016918 4:0.42964244521337946 5:0.050173010380622836 6:0.9976931949250288 7:0.7658592848904268 8:0.5190311418685121 9:0.18646674356016918 10:0.42964244521337946 11:0.3035371011149558 12:0.9976931949250288 13:0.08189158016147635 14:0.11476355247981546 15:0.1253364090734333 16:0.14129181084198386 17:0.11476355247981546 18:0.1439830834294502 20:0.29161860822760477 23:0.5661284121491734 25:0.007689350249903883 
-1.0 1:0.7616301422529796 2:0.42964244521337946 3:0.714725105728566 4:0.531526336024606 5:0.005190311418685121 7:0.7612456747404844 8:0.42964244521337946 9:0.7158785082660515 10:0.531526336024606 11:0.005190311418685121 13:0.1439830834294502 14:0.14129181084198386 15:0.08189158016147635 16:0.1253364090734333 17:0.12091503267973856 19:0.7143406382160707 20:0.9617454825067282 22:0.29161860822760477 23:0.9496347558631296 25:0.007689350249903883 
-1.0 1:0.5678585159554018 2:0.8998462129950019 3:0.0044213763936947325 4:0.8685121107266436 5:0.5232602845059593 6:0.42810457516339867 7:0.5680507497116494 8:0.8996539792387543 9:0.0044213763936947325 10:0.8685121107266436 11:0.5734332948865821 12:0.42810457516339867 13:0.11476355247981546 14:0.17704728950403692 15:0.12091503267973856 16:0.17704728950403692 17:0.06382160707420223 18:0.11476355247981546 20:0.7525951557093425 21:0.8594771241830066 23:0.9615532487504805 24:0.773356401384083 25:0.007689350249903883 
-1.0 4:0.002306805074971165 5:0.18646674356016918 6:0.6632064590542099 10:0.0034602076124567475 11:0.18646674356016918 12:0.6632064590542099 16:0.12091503267973856 17:0.1253364090734333 18:0.11476355247981546 20:0.029988465974625143 23:0.5051903114186851 25:0.007689350249903883 
-1.0 1:0.6985774702037678 2:0.0036524413687043446 3:0.5601691657054979 4:0.4004229142637447 5:0.959438677431757 6:0.394079200307574 7:0.6985774702037678 8:0.0036524413687043446 9:0.5734332948865821 10:0.4004229142637447 11:0.959438677431757 12:0.394079200307574 13:0.17704728950403692 14:0.14129181084198386 15:0.06382160707420223 16:0.1253364090734333 17:0.17704728950403692 18:0.1253364090734333 20:0.7143406382160707 23:0.9496347558631296 25:0.007689350249903883 
-1.0 1:0.9538638985005767 2:0.9269511726259131 3:0.4813533256439831 4:0.005190311418685121 7:0.9559784698193002 8:0.9269511726259131 9:0.4813533256439831 10:0.005190311418685121 13:0.06382160707420223 14:0.08189158016147635 15:0.11476355247981546 16:0.12091503267973856 19:0.4755863129565552 20:0.7143406382160707 22:0.9569396386005382 23:0.9448289119569396 25:0.007689350249903883 
-1.0 1:0.531526336024606 2:0.7658592848904268 3:0.5190311418685121 4:0.6068819684736639 5:0.5469050365244137 6:0.954248366013072 7:0.531526336024606 8:0.7658592848904268 9:0.5190311418685121 10:0.6068819684736639 11:0.5465205690119185 12:0.9559784698193002 13:0.1253364090734333 14:0.08189158016147635 15:0.11476355247981546 16:0.14129181084198386 17:0.17704728950403692 18:0.06382160707420223 19:0.5184544405997693 20:0.6903114186851211 22:0.43810073048827375 23:0.51999231064975 25:0.007689350249903883 
-1.0 1:0.31853133410226836 2:0.18646674356016918 3:0.018646674356016916 4:0.39215686274509803 5:0.04709727028066128 6:0.31853133410226836 7:0.31853133410226836 8:0.18646674356016918 9:0.018646674356016916 10:0.39215686274509803 11:0.2902729719338716 12:0.31853133410226836 13:0.14129181084198386 14:0.1253364090734333 15:0.08189158016147635 16:0.1253364090734333 17:0.1439830834294502 18:0.14129181084198386 20:0.6068819684736639 21:0.3890811226451365 23:0.6318723567858516 24:0.43790849673202614 25:0.007689350249903883 
-1.0 4:0.35082660515186465 5:0.9423298731257209 6:0.9338715878508266 10:0.35082660515186465 11:0.9423298731257209 12:0.9338715878508266 16:0.1253364090734333 17:0.08189158016147635 18:0.11476355247981546 20:0.04805843906189927 21:0.33391003460207613 23:0.5520953479430988 24:0.6591695501730104 25:0.007689350249903883 
-1.0 1:0.707035755478662 2:0.004998077662437524 3:0.826797385620915 4:0.394079200307574 5:0.8896578239138793 6:0.004998077662437524 7:0.7079969242599 8:0.004998077662437524 9:0.8275663206459054 10:0.394079200307574 11:0.8896578239138793 12:0.004998077662437524 13:0.08189158016147635 14:0.12091503267973856 15:0.08189158016147635 16:0.1253364090734333 17:0.11476355247981546 18:0.12091503267973856 19:0.8244905805459438 20:0.5765090349865436 21:0.3890811226451365 22:0.8169934640522876 23:0.9496347558631296 24:0.5601691657054979 25:0.007689350249903883 
-1.0 1:0.22722029988465975 2:0.31853133410226836 3:0.6833910034602076 4:0.9855824682814303 5:0.20607458669742407 6:0.6124567474048442 7:0.22741253364090736 8:0.31853133410226836 9:0.6835832372164552 10:0.9855824682814303 11:0.20607458669742407 12:0.6124567474048442 13:0.11476355247981546 14:0.14129181084198386 15:0.17704728950403692 16:0.17704728950403692 17:0.1253364090734333 18:0.1439830834294502 19:0.6720492118415994 20:0.33391003460207613 21:0.9777008842752788 22:0.6720492118415994 23:0.9127258746635909 24:0.9184928873510189 25:0.007689350249903883 
-1.0 1:0.018646674356016916 2:0.6139946174548251 3:0.3846597462514418 4:0.39215686274509803 5:0.04709727028066128 6:0.31853133410226836 7:0.018646674356016916 8:0.6141868512110726 9:0.3846597462514418 10:0.39215686274509803 11:0.2902729719338716 12:0.31853133410226836 13:0.08189158016147635 14:0.11476355247981546 15:0.1253364090734333 16:0.1253364090734333 17:0.1439830834294502 18:0.14129181084198386 19:0.3833141099577086 20:0.8860053825451749 21:0.3890811226451365 22:0.5601691657054979 23:0.6318723567858516 24:0.43790849673202614 25:0.007689350249903883 
-0.23576786263652613 1:0.19992310649750097 2:0.6361014994232987 3:0.9796232218377547 4:0.00461361014994233 5:0.42964244521337946 6:0.2233756247597078 7:0.19992310649750097 8:0.6361014994232987 9:0.9809688581314879 10:0.00461361014994233 11:0.42964244521337946 12:0.2233756247597078 13:0.11476355247981546 14:0.1253364090734333 15:0.11476355247981546 16:0.12091503267973856 17:0.14129181084198386 18:0.14129181084198386 19:0.9777008842752788 20:0.7131872356785851 22:0.629757785467128 23:0.9953863898500577 25:0.007689350249903883 
-1.0 3:0.0993848519800077 4:0.08842752787389466 5:0.9982698961937716 6:0.6687812379853902 9:0.5734332948865821 10:0.5190311418685121 11:0.9982698961937716 12:0.6695501730103807 15:0.06382160707420223 16:0.11476355247981546 17:0.1439830834294502 18:0.08189158016147635 20:0.7143406382160707 21:0.08804306036139946 23:0.6389850057670127 24:0.43810073048827375 25:0.007689350249903883 
-1.0 1:0.31853133410226836 2:0.5907343329488658 3:0.8492887351018839 4:0.29853902345251826 5:0.18646674356016918 6:0.7087658592848904 7:0.31853133410226836 8:0.5895809304113803 9:0.8492887351018839 10:0.29853902345251826 11:0.18646674356016918 12:0.7085736255286428 13:0.14129181084198386 14:0.17704728950403692 15:0.14129181084198386 16:0.17704728950403692 17:0.1253364090734333 18:0.11476355247981546 20:0.7525951557093425 21:0.29161860822760477 23:0.9615532487504805 24:0.773356401384083 25:0.007689350249903883 
-1.0 1:0.42964244521337946 2:0.4876970396001538 3:0.35082660515186465 4:0.42964244521337946 5:0.7575932333717801 6:0.5232602845059593 7:0.42964244521337946 8:0.4876970396001538 9:0.35082660515186465 10:0.42964244521337946 11:0.7575932333717801 12:0.5734332948865821 13:0.14129181084198386 14:0.11476355247981546 15:0.1253364090734333 16:0.14129181084198386 17:0.14129181084198386 18:0.06382160707420223 19:0.33391003460207613 20:0.6462898885044214 22:0.6591695501730104 23:0.5601691657054979 25:0.007689350249903883 
-1.0 1:0.025951557093425604 2:0.7114571318723568 3:0.004998077662437524 4:0.42964244521337946 5:0.6762783544790465 6:0.34429065743944637 7:0.025951557093425604 8:0.7114571318723568 9:0.004998077662437524 10:0.42964244521337946 11:0.6762783544790465 12:0.34429065743944637 13:0.12091503267973856 14:0.11476355247981546 15:0.12091503267973856 16:0.14129181084198386 17:0.11476355247981546 18:0.08189158016147635 20:0.5565167243367936 23:0.9967320261437909 25:0.007689350249903883 
-0.4873322629001079 1:0.7650903498654363 2:0.394079200307574 3:0.6478277585544021 4:0.0044213763936947325 5:0.5601691657054979 6:0.9313725490196079 7:0.7650903498654363 8:0.394079200307574 9:0.6485966935793925 10:0.0044213763936947325 11:0.5734332948865821 12:0.9313725490196079 13:0.14129181084198386 14:0.1253364090734333 15:0.08189158016147635 16:0.12091503267973856 17:0.06382160707420223 18:0.11476355247981546 19:0.6462898885044214 20:0.0459438677431757 22:0.9617454825067282 23:0.4573241061130334 25:0.007689350249903883 
-1.0 3:0.10073048827374087 4:0.8669742406766628 5:0.28854286812764324 6:0.4340638216070742 9:0.5734332948865821 10:0.4500192233756248 11:0.2895040369088812 12:0.4340638216070742 15:0.06382160707420223 16:0.17704728950403692 17:0.08189158016147635 18:0.14129181084198386 20:0.7026143790849673 21:0.8594771241830066 23:0.5661284121491734 24:0.6391772395232603 25:0.007689350249903883 
-1.0 4:0.21280276816608998 5:0.23125720876585928 6:0.42964244521337946 10:0.21280276816608998 11:0.23529411764705882 12:0.42964244521337946 16:0.11476355247981546 17:0.17704728950403692 18:0.14129181084198386 20:0.1311034217608612 21:0.20607458669742407 23:0.629757785467128 24:0.5818915801614764 25:0.007689350249903883 
-0.6599078575845431 3:0.13206459054209918 4:0.03825451749327182 5:0.4004229142637447 6:0.11130334486735871 9:0.7079969242599 10:0.2581699346405229 11:0.4004229142637447 12:0.6072664359861591 15:0.08189158016147635 16:0.1439830834294502 17:0.1253364090734333 18:0.1439830834294502 19:0.1311034217608612 20:0.5184544405997693 21:0.03787004998077662 22:0.5734332948865821 23:0.6459054209919262 24:0.9515570934256056 25:0.007689350249903883 
-1.0 3:0.14186851211072665 4:0.004998077662437524 5:0.6695501730103807 6:0.7402921953094963 9:0.7616301422529796 10:0.004998077662437524 11:0.6695501730103807 12:0.7402921953094963 15:0.08189158016147635 16:0.12091503267973856 17:0.08189158016147635 18:0.11476355247981546 19:0.14148404459823144 20:0.09015763168012303 22:0.9496347558631296 23:0.5530565167243368 25:0.007689350249903883 
-1.0 3:0.10073048827374087 4:0.8669742406766628 5:0.3492887351018839 6:0.6361014994232987 9:0.5734332948865821 10:0.4500192233756248 11:0.3489042675893887 12:0.6361014994232987 15:0.06382160707420223 16:0.17704728950403692 17:0.17704728950403692 18:0.1253364090734333 20:0.3246828143021915 21:0.8594771241830066 23:0.6318723567858516 24:0.6391772395232603 25:0.007689350249903883 
-1.0 3:0.07535563244905806 4:0.8910034602076125 5:0.209919261822376 6:0.20492118415993849 9:0.44425221068819687 10:0.4500192233756248 11:0.209919261822376 12:0.20492118415993849 15:0.1439830834294502 16:0.17704728950403692 17:0.1253364090734333 18:0.11476355247981546 19:0.07497116493656286 20:0.497116493656286 21:0.8860053825451749 22:0.6166858900422915 23:0.5559400230680508 24:0.9263744713571703 25:0.007689350249903883 
-1.0 1:0.004998077662437524 2:0.4083044982698962 3:0.531526336024606 4:0.005190311418685121 7:0.004998077662437524 8:0.4083044982698962 9:0.531526336024606 10:0.005190311418685121 13:0.12091503267973856 14:0.0265282583621684 15:0.1253364090734333 16:0.12091503267973856 20:0.932718185313341 23:0.9515570934256056 25:0.007689350249903883 
-1.0 1:0.002114571318723568 2:0.42964244521337946 3:0.8427527873894656 4:0.005190311418685121 7:0.002114571318723568 8:0.42964244521337946 9:0.8427527873894656 10:0.005190311418685121 13:0.12091503267973856 14:0.14129181084198386 15:0.1253364090734333 16:0.12091503267973856 19:0.8360246059207997 20:0.7022299115724722 22:0.9959630911188004 23:0.6591695501730104 25:0.007689350249903883 
-1.0 1:0.3354479046520569 2:0.5601691657054979 3:0.8492887351018839 4:0.3617839292579777 5:0.635524798154556 6:0.801038062283737 7:0.3354479046520569 8:0.5601691657054979 9:0.8492887351018839 10:0.3617839292579777 11:0.635524798154556 12:0.8018069973087274 13:0.11476355247981546 14:0.14129181084198386 15:0.14129181084198386 16:0.17704728950403692 17:0.1253364090734333 18:0.17704728950403692 20:0.7525951557093425 21:0.33391003460207613 23:0.9615532487504805 24:0.773356401384083 25:0.007689350249903883 
-1.0 1:0.49673202614379086 2:0.08400615148019992 3:0.42964244521337946 4:0.8669742406766628 5:0.699923106497501 6:0.8808150711264898 7:0.49653979238754326 8:0.49750096116878123 9:0.42964244521337946 10:0.4500192233756248 11:0.698961937716263 12:0.8810073048827374 13:0.11476355247981546 14:0.1439830834294502 15:0.14129181084198386 16:0.17704728950403692 17:0.11476355247981546 18:0.08189158016147635 20:0.029988465974625143 21:0.8594771241830066 23:0.8091118800461361 24:0.6391772395232603 25:0.007689350249903883 
-1.0 1:0.6428296808919647 2:0.24163783160322952 3:0.531526336024606 4:0.5232602845059593 5:0.31872356785851597 6:0.9976931949250288 7:0.6428296808919647 8:0.24163783160322952 9:0.531526336024606 10:0.5734332948865821 11:0.31872356785851597 12:0.9976931949250288 13:0.08189158016147635 14:0.11476355247981546 15:0.1253364090734333 16:0.06382160707420223 17:0.11476355247981546 18:0.1439830834294502 20:0.5184544405997693 23:0.43810073048827375 25:0.007689350249903883 
-1.0 1:0.0788158400615148 2:0.6501345636293733 3:0.4004229142637447 4:0.0036524413687043446 7:0.4657823913879277 8:0.6501345636293733 9:0.4004229142637447 10:0.0036524413687043446 13:0.08189158016147635 14:0.11476355247981546 15:0.1253364090734333 16:0.14129181084198386 20:0.932718185313341 23:0.9133025759323338 25:0.007689350249903883 
-1.0 4:0.7616301422529796 5:0.7402921953094963 6:0.6695501730103807 10:0.7616301422529796 11:0.7402921953094963 12:0.6695501730103807 16:0.08189158016147635 17:0.11476355247981546 18:0.08189158016147635 20:0.1443675509419454 21:0.7589388696655133 23:0.9286812764321415 24:0.9496347558631296 25:0.007689350249903883 
-1.0 4:0.8621683967704729 5:0.531526336024606 6:0.7654748173779315 10:0.8617839292579778 11:0.531526336024606 12:0.7654748173779315 16:0.17704728950403692 17:0.1253364090734333 18:0.08189158016147635 20:0.02748942714340638 21:0.8594771241830066 23:0.6166858900422915 24:0.9286812764321415 25:0.007689350249903883 
-1.0 1:0.6209150326797386 2:0.3073817762399077 3:0.004998077662437524 4:0.00461361014994233 5:0.005190311418685121 7:0.6209150326797386 8:0.3073817762399077 9:0.004998077662437524 10:0.00461361014994233 11:0.005190311418685121 13:0.08189158016147635 14:0.11476355247981546 15:0.12091503267973856 16:0.12091503267973856 17:0.12091503267973856 20:0.6903114186851211 23:0.8166089965397924 25:0.007689350249903883 
-1.0 2:0.029988465974625143 3:0.6428296808919647 4:0.5232602845059593 5:0.31872356785851597 6:0.9976931949250288 8:0.20607458669742407 9:0.6428296808919647 10:0.5734332948865821 11:0.31872356785851597 12:0.9976931949250288 14:0.1253364090734333 15:0.08189158016147635 16:0.06382160707420223 17:0.11476355247981546 18:0.1439830834294502 19:0.6391772395232603 20:0.2358708189158016 22:0.8091118800461361 23:0.43810073048827375 25:0.007689350249903883 
-1.0 1:0.42964244521337946 2:0.5926566705113417 3:0.004998077662437524 4:0.340638216070742 5:0.6403306420607459 6:0.44386774317570166 7:0.42964244521337946 8:0.5926566705113417 9:0.004998077662437524 10:0.340638216070742 11:0.6403306420607459 12:0.4500192233756248 13:0.14129181084198386 14:0.1439830834294502 15:0.12091503267973856 16:0.14129181084198386 17:0.0265282583621684 18:0.17704728950403692 20:0.33391003460207613 21:0.33391003460207613 23:0.9127258746635909 24:0.5993848519800077 25:0.007689350249903883 
-1.0 1:0.18646674356016918 2:0.7087658592848904 3:0.38389081122645136 4:0.5820838139177239 5:0.18646674356016918 6:0.6395617070357554 7:0.18646674356016918 8:0.7085736255286428 9:0.38389081122645136 10:0.5820838139177239 11:0.18646674356016918 12:0.6395617070357554 13:0.1253364090734333 14:0.11476355247981546 15:0.1253364090734333 16:0.14129181084198386 17:0.1253364090734333 18:0.14129181084198386 19:0.3833141099577086 20:0.773356401384083 22:0.20607458669742407 23:0.37850826605151866 25:0.007689350249903883 
-1.0 1:0.7010765090349865 2:0.340638216070742 3:0.635524798154556 4:0.004998077662437524 5:0.7003075740099961 6:0.18646674356016918 7:0.7006920415224913 8:0.340638216070742 9:0.635524798154556 10:0.004998077662437524 11:0.7003075740099961 12:0.18646674356016918 13:0.11476355247981546 14:0.0265282583621684 15:0.1253364090734333 16:0.12091503267973856 17:0.11476355247981546 18:0.1253364090734333 19:0.6318723567858516 20:0.5820838139177239 22:0.43810073048827375 23:0.8594771241830066 25:0.007689350249903883 
-1.0 1:0.5190311418685121 2:0.9982698961937716 3:0.3473663975394079 4:0.004998077662437524 5:0.18646674356016918 6:0.6851211072664359 7:0.5190311418685121 8:0.9982698961937716 9:0.3473663975394079 10:0.004998077662437524 11:0.18646674356016918 12:0.6851211072664359 13:0.11476355247981546 14:0.08189158016147635 15:0.0265282583621684 16:0.12091503267973856 17:0.1253364090734333 18:0.17704728950403692 19:0.33391003460207613 20:0.43041138023836983 22:0.9184928873510189 23:0.5813148788927336 25:0.007689350249903883 
-0.17606398081075286 1:0.7954632833525567 2:0.6931949250288351 3:0.9786620530565168 4:0.37235678585159554 5:0.340638216070742 6:0.5993848519800077 7:0.7952710495963091 8:0.6931949250288351 9:0.9784698193002691 10:0.37235678585159554 11:0.340638216070742 12:0.5993848519800077 13:0.17704728950403692 14:0.1253364090734333 15:0.11476355247981546 16:0.11476355247981546 17:0.0265282583621684 18:0.14129181084198386 19:0.9777008842752788 20:0.5734332948865821 21:0.33391003460207613 22:0.7808535178777394 23:0.6714725105728566 24:0.8860053825451749 25:0.007689350249903883 
-1.0 1:0.340638216070742 2:0.3833141099577086 3:0.8567858515955402 4:0.005190311418685121 7:0.340638216070742 8:0.3833141099577086 9:0.8567858515955402 10:0.005190311418685121 13:0.0265282583621684 14:0.1253364090734333 15:0.11476355247981546 16:0.12091503267973856 19:0.8492887351018839 20:0.9926951172625913 22:0.9286812764321415 23:0.4302191464821223 25:0.007689350249903883 
-1.0 1:0.89119569396386 2:0.42964244521337946 3:0.2114571318723568 4:0.0044213763936947325 5:0.27124183006535946 6:0.5013456362937332 7:0.89119569396386 8:0.42964244521337946 9:0.2114571318723568 10:0.0044213763936947325 11:0.27162629757785467 12:0.5013456362937332 13:0.11476355247981546 14:0.14129181084198386 15:0.1253364090734333 16:0.12091503267973856 17:0.17704728950403692 18:0.17704728950403692 19:0.20607458669742407 20:0.16359092656670512 22:0.5734332948865821 23:0.5592079969242599 25:0.007689350249903883 
-1.0 1:0.42964244521337946 2:0.5943867743175701 3:0.6005382545174933 4:0.19550173010380623 5:0.20530565167243367 6:0.8456362937331795 7:0.42964244521337946 8:0.5943867743175701 9:0.6005382545174933 10:0.19550173010380623 11:0.20530565167243367 12:0.8460207612456747 13:0.14129181084198386 14:0.11476355247981546 15:0.0265282583621684 16:0.11476355247981546 17:0.1253364090734333 18:0.11476355247981546 19:0.5993848519800077 20:0.0993848519800077 21:0.1903114186851211 22:0.5520953479430988 23:0.5695886197616301 24:0.9502114571318724 25:0.007689350249903883 
