svm_type c_svc
kernel_type linear
nr_class 2
total_sv 156
rho 4.5864791876245
label -1 7
probA -2.616633633185724
probB -0.07976416015064675
nr_sv 76 80
SV
1.0 1:0.8369148119723715 2:0.8476592478894858 3:0.3904451266308519 4:0.004412893323100537 5:0.34919416730621644 6:0.8585955487336915 7:0.837298541826554 8:0.44704528012279354 9:0.3904451266308519 10:0.004412893323100537 11:0.34919416730621644 12:0.8587874136607828 13:0.1751726784343822 14:0.1751726784343822 15:0.12682271680736762 16:0.12221795855717575 17:0.12682271680736762 18:0.11569455103607061 19:0.386991557943208 20:0.003261703760552571 22:0.43534151957022255 23:0.0072908672294704525 25:0.007099002302379125 
1.0 1:0.5226400613967767 2:0.9393706830391404 3:0.18438219493476593 4:0.004412893323100537 5:0.8340368380660015 6:0.8472755180353031 7:0.5727168073676132 8:0.9393706830391404 9:0.18438219493476593 10:0.004412893323100537 11:0.8340368380660015 12:0.8472755180353031 13:0.06907137375287797 14:0.11569455103607061 15:0.12682271680736762 16:0.12221795855717575 17:0.1419800460475825 18:0.1419800460475825 20:0.0374136607828089 23:0.20471987720644666 25:0.007099002302379125 
1.0 3:0.10514198004604758 4:0.004412893323100537 5:0.5226400613967767 6:0.7402148887183423 9:0.5727168073676132 10:0.004412893323100537 11:0.5727168073676132 12:0.7402148887183423 15:0.06907137375287797 16:0.12221795855717575 17:0.06907137375287797 18:0.08403683806600154 20:0.15541059094397544 23:0.5805832693783577 25:0.007099002302379125 
0.42079082806432694 3:0.14389869531849578 4:0.9528012279355333 5:0.2709132770529547 6:0.2971987720644666 9:0.7647735993860323 10:0.954911742133538 11:0.2709132770529547 12:0.2971987720644666 15:0.08403683806600154 16:0.06907137375287797 17:0.08403683806600154 18:0.11569455103607061 19:0.14217191097467383 22:0.9270913277052955 25:0.007099002302379125 
1.0 4:0.7801227935533385 5:0.9528012279355333 6:0.2709132770529547 10:0.7801227935533385 11:0.954911742133538 12:0.2709132770529547 16:0.1751726784343822 17:0.06907137375287797 18:0.08403683806600154 20:0.06254796623177283 21:0.7797390636991558 23:0.624136607828089 24:0.6302762854950115 25:0.007099002302379125 
1.0 1:0.38046815042210286 2:0.004412893323100537 3:0.5226400613967767 4:0.9976976208749041 5:0.6187643898695319 6:0.19071373752877974 7:0.3797006907137375 8:0.004412893323100537 9:0.5727168073676132 10:0.9976976208749041 11:0.6187643898695319 12:0.1912893323100537 13:0.1751726784343822 14:0.12221795855717575 15:0.06907137375287797 16:0.1446661550268611 17:0.08403683806600154 18:0.1751726784343822 20:0.5727168073676132 23:0.49194167306216424 25:0.007099002302379125 
1.0 1:0.3816193399846508 2:0.03894858019953953 3:0.4268994627782041 4:0.9976976208749041 5:0.33902532617037606 6:0.44704528012279354 7:0.3816193399846508 8:0.22831926323867996 9:0.4268994627782041 10:0.9976976208749041 11:0.33902532617037606 12:0.4466615502686109 13:0.12682271680736762 14:0.1446661550268611 15:0.1419800460475825 16:0.1446661550268611 17:0.032041442824251726 18:0.11569455103607061 20:0.0844205679201842 23:0.5656178050652341 25:0.007099002302379125 
1.0 1:0.6914811972371451 2:0.23867996930161167 3:0.9042594013814275 4:0.28914044512663084 5:0.9976976208749041 6:0.3490023023791251 7:0.6914811972371451 8:0.23867996930161167 9:0.9042594013814275 10:0.28914044512663084 11:0.44704528012279354 12:0.3490023023791251 13:0.12682271680736762 14:0.1751726784343822 15:0.12682271680736762 16:0.032041442824251726 17:0.1751726784343822 18:0.032041442824251726 19:0.9004221028396009 20:0.13545663852647735 22:0.9510744435917114 23:0.5512279355333844 25:0.007099002302379125 
1.0 2:0.05487336914811972 3:0.24117421335379893 4:0.004604758250191865 8:0.29412893323100536 9:0.24117421335379893 10:0.004604758250191865 14:0.1446661550268611 15:0.08403683806600154 16:0.12221795855717575 19:0.24040675364543362 20:0.4952033768227168 22:0.6367996930161166 23:0.8075594781273984 25:0.007099002302379125 
1.0 3:0.10360706062931696 4:0.86415963161934 5:0.28626247122026094 6:0.4313123561013047 9:0.5727168073676132 10:0.44704528012279354 11:0.28722179585571755 12:0.4313123561013047 15:0.06907137375287797 16:0.1751726784343822 17:0.08403683806600154 18:0.1419800460475825 20:0.7008825786646201 21:0.8568687643898696 23:0.5656178050652341 24:0.637567152724482 25:0.007099002302379125 
1.0 1:0.4180736761320031 2:0.5965080583269379 3:0.4313123561013047 4:0.9932847275518035 5:0.9973138910207214 6:0.46699923254029163 7:0.4180736761320031 8:0.5965080583269379 9:0.4313123561013047 10:0.9932847275518035 11:0.9973138910207214 12:0.46699923254029163 13:0.11569455103607061 14:0.11569455103607061 15:0.1419800460475825 16:0.08403683806600154 17:0.1446661550268611 18:0.1446661550268611 20:0.5306983883346125 23:0.4508825786646201 25:0.007099002302379125 
1.0 3:0.10360706062931696 4:0.86415963161934 5:0.3476592478894858 6:0.6344973138910207 9:0.5727168073676132 10:0.44704528012279354 11:0.34727551803530315 12:0.6344973138910207 15:0.06907137375287797 16:0.1751726784343822 17:0.1751726784343822 18:0.12682271680736762 20:0.3231005372217959 21:0.8568687643898696 23:0.6302762854950115 24:0.637567152724482 25:0.007099002302379125 
1.0 1:0.5159247889485802 2:0.9976976208749041 3:0.34574059861857254 4:0.004412893323100537 5:0.18438219493476593 6:0.6834228702993093 7:0.5159247889485802 8:0.9976976208749041 9:0.34574059861857254 10:0.004412893323100537 11:0.18438219493476593 12:0.6834228702993093 13:0.11569455103607061 14:0.08403683806600154 15:0.032041442824251726 16:0.12221795855717575 17:0.12682271680736762 18:0.1751726784343822 19:0.3323100537221796 20:0.42766692248656946 22:0.9169224865694551 23:0.5798158096699924 25:0.007099002302379125 
1.0 1:0.8927475057559479 2:0.77168073676132 3:0.39006139677666923 4:0.18207981580967 5:0.5306983883346125 6:0.1730621642363776 7:0.8927475057559479 8:0.77168073676132 9:0.39006139677666923 10:0.9930928626247122 11:0.5306983883346125 12:0.9489639293937069 13:0.08403683806600154 14:0.11569455103607061 15:0.12682271680736762 16:0.08403683806600154 17:0.12682271680736762 18:0.1446661550268611 19:0.386991557943208 20:0.047006907137375285 21:0.18188795088257867 22:0.4351496546431312 23:0.8829623944742901 24:0.807367613200307 25:0.007099002302379125 
0.7224915412916684 4:0.840752110514198 5:0.5107444359171144 6:0.7369531849577897 10:0.840752110514198 11:0.5109363008442057 12:0.7367613200306984 16:0.12682271680736762 17:0.08403683806600154 18:0.11569455103607061 20:0.035303146584804296 21:0.8340368380660015 23:0.5026861089792786 24:0.9955871066768994 25:0.007099002302379125 
0.5241385665707656 1:0.63871834228703 2:0.46757482732156563 3:0.3904451266308519 4:0.5086339217191097 5:0.003837298541826554 6:0.6379508825786646 7:0.63871834228703 8:0.46757482732156563 9:0.3904451266308519 10:0.5086339217191097 11:0.003837298541826554 12:0.6379508825786646 13:0.032041442824251726 14:0.1751726784343822 15:0.12682271680736762 16:0.08403683806600154 17:0.12221795855717575 18:0.1419800460475825 19:0.386991557943208 20:0.9313123561013047 21:0.5042210283960092 22:0.43534151957022255 23:0.44071373752877974 24:0.9270913277052955 25:0.007099002302379125 
1.0 3:0.05564082885648503 4:0.8551419800460476 5:0.20395241749808135 6:0.7075978511128166 9:0.29758250191864927 10:0.8547582501918649 11:0.20395241749808135 12:0.7074059861857253 15:0.1446661550268611 16:0.1751726784343822 17:0.12682271680736762 18:0.11569455103607061 19:0.05429777436684574 21:0.8472755180353031 22:0.8568687643898696 24:0.9270913277052955 25:0.007099002302379125 
1.0 1:0.9725633154259401 2:0.6483115886415963 3:0.39792785878741366 4:0.4268994627782041 5:0.850729086722947 6:0.004412893323100537 7:0.9746738296239448 8:0.6483115886415963 9:0.39792785878741366 10:0.4268994627782041 11:0.850729086722947 12:0.004412893323100537 13:0.08403683806600154 14:0.11569455103607061 15:0.12682271680736762 16:0.1419800460475825 17:0.11569455103607061 18:0.12221795855717575 20:0.9313123561013047 23:0.9485801995395242 25:0.007099002302379125 
1.0 2:0.03607060629316961 3:0.4268994627782041 4:0.9973138910207214 5:0.054681504221028396 8:0.20606293169608594 9:0.4268994627782041 10:0.9973138910207214 11:0.2908672294704528 14:0.1446661550268611 15:0.1419800460475825 16:0.1446661550268611 17:0.1446661550268611 20:0.060629316960859554 23:0.5201458173445894 25:0.007099002302379125 
1.0 1:0.9976976208749041 2:0.9806216423637759 3:0.2085571757482732 4:0.004412893323100537 5:0.4268994627782041 6:0.3490023023791251 7:0.9976976208749041 8:0.9806216423637759 9:0.2085571757482732 10:0.004412893323100537 11:0.4268994627782041 12:0.3490023023791251 13:0.1446661550268611 14:0.12682271680736762 15:0.12682271680736762 16:0.12221795855717575 17:0.1419800460475825 18:0.1419800460475825 19:0.20471987720644666 20:0.13545663852647735 22:0.5594781273983116 23:0.9483883346124329 25:0.007099002302379125 
0.3234505084195106 1:0.5226400613967767 2:0.6122409823484267 3:0.004412893323100537 4:0.004412893323100537 5:0.9528012279355333 6:0.6110897927858787 7:0.5727168073676132 8:0.6122409823484267 9:0.004412893323100537 10:0.004412893323100537 11:0.954911742133538 12:0.6110897927858787 13:0.06907137375287797 14:0.1419800460475825 15:0.12221795855717575 16:0.12221795855717575 17:0.06907137375287797 18:0.11569455103607061 20:0.6886032233307752 23:0.8146584804297774 25:0.007099002302379125 
1.0 1:0.8472755180353031 2:0.9410974673829624 3:0.5306983883346125 4:0.004412893323100537 5:0.9764006139677667 6:0.8933231005372217 7:0.8472755180353031 8:0.9416730621642364 9:0.5306983883346125 10:0.004412893323100537 11:0.9764006139677667 12:0.8935149654643131 13:0.1419800460475825 14:0.1751726784343822 15:0.12682271680736762 16:0.12221795855717575 17:0.11569455103607061 18:0.08403683806600154 20:0.9762087490406753 23:0.9270913277052955 25:0.007099002302379125 
1.0 1:0.764006139677667 2:0.3919800460475825 3:0.6462010744435918 4:0.003837298541826554 5:0.5594781273983116 6:0.929777436684574 7:0.764006139677667 8:0.3919800460475825 9:0.646968534151957 10:0.003837298541826554 11:0.5727168073676132 12:0.929777436684574 13:0.1419800460475825 14:0.12682271680736762 15:0.08403683806600154 16:0.12221795855717575 17:0.06907137375287797 18:0.11569455103607061 19:0.6446661550268611 20:0.05161166538756715 22:0.9606676899462778 23:0.45452801227935535 25:0.007099002302379125 
1.0 1:0.5226400613967767 2:0.3294320798158097 3:0.23676132003069839 4:0.004412893323100537 5:0.7659247889485802 6:0.31753645433614736 7:0.5727168073676132 8:0.3294320798158097 9:0.23676132003069839 10:0.004412893323100537 11:0.7659247889485802 12:0.31753645433614736 13:0.06907137375287797 14:0.08403683806600154 15:0.11569455103607061 16:0.12221795855717575 17:0.032041442824251726 18:0.1419800460475825 19:0.23445894090560246 20:0.1191481197237145 22:0.9270913277052955 23:0.43534151957022255 25:0.007099002302379125 
1.0 1:0.5656178050652341 2:0.6981964696853415 3:0.2085571757482732 7:0.5727168073676132 8:0.6972371450498849 9:0.2085571757482732 13:0.06907137375287797 14:0.11569455103607061 15:0.12682271680736762 19:0.20471987720644666 20:0.772256331542594 22:0.5594781273983116 23:0.6573292402148887 25:0.007099002302379125 26:0.047619047619047616 
1.0 1:0.6993476592478894 2:0.33902532617037606 3:0.6339217191097467 4:0.004412893323100537 5:0.6985801995395242 6:0.18438219493476593 7:0.6989639293937069 8:0.33902532617037606 9:0.6339217191097467 10:0.004412893323100537 11:0.6985801995395242 12:0.18438219493476593 13:0.11569455103607061 14:0.032041442824251726 15:0.12682271680736762 16:0.12221795855717575 17:0.11569455103607061 18:0.12682271680736762 19:0.6302762854950115 20:0.5805832693783577 22:0.43534151957022255 23:0.8568687643898696 25:0.007099002302379125 
1.0 1:0.7110514198004605 2:0.8248273215656178 3:0.004412893323100537 4:0.33902532617037606 5:0.5656178050652341 6:0.591903300076746 7:0.7110514198004605 8:0.8255947812739831 9:0.004412893323100537 10:0.33902532617037606 11:0.5727168073676132 12:0.5917114351496546 13:0.032041442824251726 14:0.08403683806600154 15:0.12221795855717575 16:0.032041442824251726 17:0.06907137375287797 18:0.11569455103607061 20:0.3323100537221796 21:0.3323100537221796 23:0.9111665387567153 24:0.5974673829623944 25:0.007099002302379125 
1.0 4:0.5805832693783577 5:0.39792785878741366 6:0.8248273215656178 10:0.5805832693783577 11:0.39792785878741366 12:0.8255947812739831 16:0.1419800460475825 17:0.12682271680736762 18:0.08403683806600154 20:0.0761703760552571 23:0.3323100537221796 25:0.007099002302379125 
1.0 1:0.5226400613967767 2:0.7787797390636991 3:0.3919800460475825 4:0.4268994627782041 5:0.16116653875671527 6:0.004029163468917882 7:0.5727168073676132 8:0.7787797390636991 9:0.3919800460475825 10:0.4268994627782041 11:0.8693399846508059 12:0.004029163468917882 13:0.06907137375287797 14:0.11569455103607061 15:0.12682271680736762 16:0.1419800460475825 17:0.1446661550268611 18:0.12221795855717575 19:0.386991557943208 20:0.05429777436684574 22:0.5594781273983116 23:0.9950115118956255 25:0.007099002302379125 
1.0 1:0.5159247889485802 2:0.8655026861089793 3:0.6344973138910207 4:0.39792785878741366 5:0.17651573292402148 6:0.004604758250191865 7:0.5159247889485802 8:0.8656945510360706 9:0.6344973138910207 10:0.39792785878741366 11:0.9631619339984651 12:0.004604758250191865 13:0.11569455103607061 14:0.1751726784343822 15:0.12682271680736762 16:0.12682271680736762 17:0.1446661550268611 18:0.12221795855717575 19:0.6302762854950115 20:0.41653875671527246 22:0.5594781273983116 23:0.9942440521872602 25:0.007099002302379125 
1.0 4:0.63871834228703 5:0.7068303914044513 6:0.4268994627782041 10:0.63871834228703 11:0.7068303914044513 12:0.4268994627782041 16:0.032041442824251726 17:0.08403683806600154 18:0.1419800460475825 20:0.04604758250191865 21:0.637567152724482 23:0.637567152724482 24:0.6573292402148887 25:0.007099002302379125 
1.0 1:0.3829623944742901 2:0.8885264773599386 3:0.39006139677666923 4:0.31696085955487335 5:0.9633537989255564 6:0.5306983883346125 7:0.3829623944742901 8:0.8885264773599386 9:0.39006139677666923 10:0.31696085955487335 11:0.9633537989255564 12:0.5306983883346125 13:0.12682271680736762 14:0.1446661550268611 15:0.12682271680736762 16:0.1419800460475825 17:0.1751726784343822 18:0.12682271680736762 19:0.386991557943208 20:0.05161166538756715 21:0.31657712970069074 22:0.4351496546431312 23:0.9564466615502686 24:0.5143898695318496 25:0.007099002302379125 
0.8035281668894554 1:0.13066001534919416 2:0.31696085955487335 3:0.009785111281657714 4:0.39792785878741366 5:0.9721795855717574 6:0.3231005372217959 7:0.6889869531849578 8:0.31696085955487335 9:0.009785111281657714 10:0.39792785878741366 11:0.9721795855717574 12:0.3231005372217959 13:0.11569455103607061 14:0.1419800460475825 15:0.08403683806600154 16:0.12682271680736762 17:0.11569455103607061 18:0.1419800460475825 20:0.28376822716807365 23:0.7663085188027629 25:0.007099002302379125 
1.0 4:0.4268994627782041 5:0.33940905602455873 6:0.454336147352264 10:0.4268994627782041 11:0.33940905602455873 12:0.454336147352264 16:0.1419800460475825 17:0.11569455103607061 18:0.11569455103607061 20:0.04604758250191865 23:0.637567152724482 25:0.007099002302379125 
1.0 1:0.19819646968534152 2:0.6344973138910207 3:0.9792785878741366 4:0.004029163468917882 5:0.4268994627782041 6:0.22179585571757482 7:0.19819646968534152 8:0.6344973138910207 9:0.9806216423637759 10:0.004029163468917882 11:0.4268994627782041 12:0.22179585571757482 13:0.11569455103607061 14:0.12682271680736762 15:0.11569455103607061 16:0.12221795855717575 17:0.1419800460475825 18:0.1419800460475825 19:0.9762087490406753 20:0.7118188795088258 22:0.6281657712970069 23:0.9950115118956255 25:0.007099002302379125 
1.0 3:0.1690330007674597 4:0.004604758250191865 9:0.9282425172678435 10:0.004604758250191865 15:0.1751726784343822 16:0.12221795855717575 19:0.16864927091327706 20:0.13775901765157328 22:0.6145433614735226 23:0.9270913277052955 25:0.007099002302379125 
1.0 1:0.4268994627782041 2:0.590752110514198 3:0.004412893323100537 4:0.33902532617037606 5:0.63871834228703 6:0.44090560245587107 7:0.4268994627782041 8:0.590752110514198 9:0.004412893323100537 10:0.33902532617037606 11:0.63871834228703 12:0.44704528012279354 13:0.1419800460475825 14:0.1446661550268611 15:0.12221795855717575 16:0.1419800460475825 17:0.032041442824251726 18:0.1751726784343822 20:0.3323100537221796 21:0.3323100537221796 23:0.9111665387567153 24:0.5974673829623944 25:0.007099002302379125 
1.0 4:0.6924405218726016 5:0.3231005372217959 6:0.86415963161934 10:0.6924405218726016 11:0.3231005372217959 12:0.44704528012279354 16:0.08403683806600154 17:0.032041442824251726 18:0.1751726784343822 20:0.06293169608595549 21:0.6886032233307752 23:0.41653875671527246 24:0.5195702225633154 25:0.007099002302379125 
1.0 2:0.10072908672294704 3:0.039907904834996163 4:0.9528012279355333 5:0.7129700690713737 6:0.4892555640828857 8:0.5727168073676132 9:0.23503453568687643 10:0.954911742133538 11:0.7129700690713737 12:0.4892555640828857 14:0.06907137375287797 15:0.1446661550268611 16:0.06907137375287797 17:0.08403683806600154 18:0.11569455103607061 19:0.039716039907904836 22:0.49194167306216424 25:0.007099002302379125 
1.0 3:0.007482732156561781 4:0.39792785878741366 5:0.38411358403683804 6:0.2083653108211819 9:0.007482732156561781 10:0.39792785878741366 11:0.3843054489639294 12:0.2083653108211819 15:0.08403683806600154 16:0.12682271680736762 17:0.11569455103607061 18:0.12682271680736762 19:0.0072908672294704525 20:0.07943207981580967 22:0.0072908672294704525 23:0.8075594781273984 25:0.007099002302379125 
1.0 1:0.3117805065234075 2:0.3904451266308519 3:0.9119339984650806 4:0.6479278587874137 5:0.7323484267075978 6:0.953184957789716 7:0.3117805065234075 8:0.3904451266308519 9:0.9119339984650806 10:0.6479278587874137 11:0.7323484267075978 12:0.954911742133538 13:0.11569455103607061 14:0.12682271680736762 15:0.11569455103607061 16:0.1419800460475825 17:0.1751726784343822 18:0.06907137375287797 19:0.9117421335379893 20:0.26093630084420566 22:0.5577513430544896 23:0.26151189562547966 25:0.007099002302379125 
1.0 1:0.2085571757482732 2:0.39639293937068304 3:0.3919800460475825 4:0.004412893323100537 5:0.4268994627782041 6:0.0030698388334612432 7:0.2085571757482732 8:0.39639293937068304 9:0.3919800460475825 10:0.004412893323100537 11:0.4268994627782041 12:0.0030698388334612432 13:0.12682271680736762 14:0.11569455103607061 15:0.12682271680736762 16:0.12221795855717575 17:0.1419800460475825 18:0.1419800460475825 19:0.386991557943208 20:0.772256331542594 22:0.5594781273983116 23:0.6573292402148887 25:0.007099002302379125 26:0.047619047619047616 
1.0 1:0.39792785878741366 2:0.954911742133538 3:0.38910207214121256 4:0.577897160399079 5:0.5594781273983116 6:0.8938986953184958 7:0.39792785878741366 8:0.954911742133538 9:0.38910207214121256 10:0.577897160399079 11:0.5727168073676132 12:0.8938986953184958 13:0.12682271680736762 14:0.1419800460475825 15:0.12682271680736762 16:0.12682271680736762 17:0.06907137375287797 18:0.11569455103607061 19:0.386991557943208 20:0.16193399846508058 21:0.5755947812739831 22:0.569071373752878 23:0.5585188027628549 24:0.5026861089792786 25:0.007099002302379125 
1.0 1:0.8482348426707598 2:0.001343054489639294 3:0.39792785878741366 4:0.6479278587874137 5:0.39792785878741366 6:0.7636224098234843 7:0.8484267075978511 8:0.002686108979278588 9:0.39792785878741366 10:0.6479278587874137 11:0.39792785878741366 12:0.7636224098234843 13:0.08403683806600154 14:0.12221795855717575 15:0.12682271680736762 16:0.1419800460475825 17:0.12682271680736762 18:0.1419800460475825 20:0.057367613200306984 23:0.580199539524175 25:0.007099002302379125 
1.0 4:0.6137759017651573 5:0.22179585571757482 6:0.8340368380660015 10:0.6139677666922486 11:0.22179585571757482 12:0.8340368380660015 16:0.08403683806600154 17:0.1419800460475825 18:0.1419800460475825 20:0.06197237145049885 21:0.6049501151189562 23:0.5594781273983116 24:0.9117421335379893 25:0.007099002302379125 
1.0 1:0.7384881043745203 2:0.8248273215656178 3:0.8472755180353031 4:0.9416730621642364 5:0.39792785878741366 6:0.5986185725249424 7:0.7384881043745203 8:0.8255947812739831 9:0.8472755180353031 10:0.9416730621642364 11:0.39792785878741366 12:0.5986185725249424 13:0.11569455103607061 14:0.08403683806600154 15:0.1419800460475825 16:0.1751726784343822 17:0.12682271680736762 18:0.11569455103607061 20:0.7507674597083653 21:0.9313123561013047 23:0.9604758250191865 24:0.772256331542594 25:0.007099002302379125 
1.0 1:0.0011511895625479663 2:0.4268994627782041 3:0.840752110514198 4:0.004604758250191865 7:0.0011511895625479663 8:0.4268994627782041 9:0.840752110514198 10:0.004604758250191865 13:0.12221795855717575 14:0.1419800460475825 15:0.12682271680736762 16:0.12221795855717575 19:0.8340368380660015 20:0.7004988488104374 22:0.9955871066768994 23:0.6573292402148887 25:0.007099002302379125 
1.0 1:0.953184957789716 2:0.6513814274750576 3:0.9764006139677667 4:0.6914811972371451 5:0.7308135072908672 6:0.7647735993860323 7:0.954911742133538 8:0.6527244819646969 9:0.9764006139677667 10:0.6914811972371451 11:0.7308135072908672 12:0.7647735993860323 13:0.06907137375287797 14:0.1751726784343822 15:0.11569455103607061 16:0.12682271680736762 17:0.1751726784343822 18:0.08403683806600154 19:0.9762087490406753 20:0.5306983883346125 21:0.6886032233307752 22:0.5201458173445894 23:0.4508825786646201 24:0.44071373752877974 25:0.007099002302379125 
1.0 1:0.7135456638526477 2:0.6843821949347659 3:0.3821949347659248 4:0.9976976208749041 5:0.8779739063699156 6:0.031465848042977744 7:0.7143131235610131 8:0.6843821949347659 9:0.3821949347659248 10:0.9976976208749041 11:0.8779739063699156 12:0.031465848042977744 13:0.08403683806600154 14:0.11569455103607061 15:0.12682271680736762 16:0.1446661550268611 17:0.08403683806600154 18:0.12221795855717575 19:0.3816193399846508 20:0.09900230237912509 22:0.20471987720644666 23:0.5723330775134305 25:0.007099002302379125 
1.0 1:0.47256331542594016 2:0.31254796623177283 3:0.004412893323100537 4:0.8215656178050652 5:0.4268994627782041 6:0.2636224098234843 7:0.47256331542594016 8:0.31254796623177283 9:0.004412893323100537 10:0.8215656178050652 11:0.4268994627782041 12:0.2630468150422103 13:0.11569455103607061 14:0.1446661550268611 15:0.12221795855717575 16:0.11569455103607061 17:0.1419800460475825 18:0.1751726784343822 20:0.637567152724482 21:0.8150422102839601 23:0.5193783576362241 24:0.6281657712970069 25:0.007099002302379125 
1.0 1:0.32041442824251726 2:0.2083653108211819 3:0.5159247889485802 4:0.3144666155026861 5:0.39792785878741366 6:0.7872217958557176 7:0.32041442824251726 8:0.2083653108211819 9:0.5159247889485802 10:0.31465848042977745 11:0.39792785878741366 12:0.7872217958557176 13:0.1751726784343822 14:0.12682271680736762 15:0.11569455103607061 16:0.1751726784343822 17:0.12682271680736762 18:0.1751726784343822 19:0.5153491941673062 20:0.6886032233307752 21:0.31120491174213355 22:0.43534151957022255 23:0.5193783576362241 24:0.637567152724482 25:0.007099002302379125 26:0.09523809523809523 
1.0 1:0.363584036838066 2:0.2085571757482732 3:0.9792785878741366 4:0.004604758250191865 7:0.363584036838066 8:0.2085571757482732 9:0.9806216423637759 10:0.004604758250191865 13:0.11569455103607061 14:0.12682271680736762 15:0.08403683806600154 16:0.12221795855717575 19:0.9762087490406753 20:0.9528012279355333 22:0.6281657712970069 23:0.9485801995395242 25:0.007099002302379125 
1.0 1:0.7943207981580968 2:0.6914811972371451 3:0.9781273983115887 4:0.3704911742133538 5:0.33902532617037606 6:0.5974673829623944 7:0.7941289332310054 8:0.6914811972371451 9:0.9779355333844973 10:0.3704911742133538 11:0.33902532617037606 12:0.5974673829623944 13:0.1751726784343822 14:0.12682271680736762 15:0.11569455103607061 16:0.11569455103607061 17:0.032041442824251726 18:0.1419800460475825 19:0.9762087490406753 20:0.5727168073676132 21:0.3323100537221796 22:0.7797390636991558 23:0.6694167306216423 24:0.8829623944742901 25:0.007099002302379125 
1.0 1:0.29508825786646203 2:0.6187643898695319 3:0.5065234075211051 4:0.33902532617037606 5:0.5226400613967767 6:0.2636224098234843 7:0.29470452801227937 8:0.6187643898695319 9:0.5061396776669225 10:0.33902532617037606 11:0.5727168073676132 12:0.2636224098234843 13:0.11569455103607061 14:0.032041442824251726 15:0.08403683806600154 16:0.1419800460475825 17:0.06907137375287797 18:0.11569455103607061 19:0.5042210283960092 20:0.3323100537221796 21:0.3323100537221796 22:0.39792785878741366 23:0.9111665387567153 24:0.5974673829623944 25:0.007099002302379125 
1.0 1:0.7075978511128166 2:0.004412893323100537 3:0.2285111281657713 4:0.7079815809669993 5:0.9829240214888718 6:0.63871834228703 7:0.7074059861857253 8:0.004412893323100537 9:0.2285111281657713 10:0.7079815809669993 11:0.9829240214888718 12:0.63871834228703 13:0.11569455103607061 14:0.12221795855717575 15:0.1419800460475825 16:0.032041442824251726 17:0.08403683806600154 18:0.032041442824251726 19:0.22122026093630084 21:0.7008825786646201 22:0.9963545663852648 24:0.9169224865694551 25:0.007099002302379125 
1.0 1:0.49481964696853414 2:0.08557175748273216 3:0.4268994627782041 4:0.86415963161934 5:0.6981964696853415 6:0.8777820414428242 7:0.4946277820414428 8:0.4955871066768995 9:0.4268994627782041 10:0.44704528012279354 11:0.6972371450498849 12:0.8779739063699156 13:0.11569455103607061 14:0.1446661550268611 15:0.1419800460475825 16:0.1751726784343822 17:0.11569455103607061 18:0.08403683806600154 20:0.035303146584804296 21:0.8568687643898696 23:0.8075594781273984 24:0.637567152724482 25:0.007099002302379125 
1.0 1:0.18438219493476593 2:0.7075978511128166 3:0.3821949347659248 4:0.5805832693783577 5:0.18438219493476593 6:0.6379508825786646 7:0.18438219493476593 8:0.7074059861857253 9:0.3821949347659248 10:0.5805832693783577 11:0.18438219493476593 12:0.6379508825786646 13:0.12682271680736762 14:0.11569455103607061 15:0.12682271680736762 16:0.1419800460475825 17:0.12682271680736762 18:0.1419800460475825 19:0.3816193399846508 20:0.772256331542594 22:0.20471987720644666 23:0.3768227168073676 25:0.007099002302379125 
1.0 1:0.764006139677667 2:0.7311972371450499 3:0.38277052954719876 4:0.4556792018419033 5:0.56792018419033 6:0.8282808902532617 7:0.764006139677667 8:0.7308135072908672 9:0.38277052954719876 10:0.4595165003837299 11:0.56792018419033 12:0.8282808902532617 13:0.1419800460475825 14:0.1751726784343822 15:0.12682271680736762 16:0.1751726784343822 17:0.032041442824251726 18:0.1446661550268611 19:0.3816193399846508 20:0.09785111281657713 21:0.45452801227935535 22:0.5590943975441289 23:0.5201458173445894 24:0.9606676899462778 25:0.007099002302379125 
1.0 4:0.6561780506523408 5:0.31696085955487335 6:0.4930928626247122 10:0.6561780506523408 11:0.31696085955487335 12:0.4930928626247122 16:0.12682271680736762 17:0.08403683806600154 18:0.08403683806600154 20:0.13046815042210283 21:0.6554105909439755 23:0.5656178050652341 24:0.772256331542594 25:0.007099002302379125 
1.0 1:0.8591711435149655 2:0.6914811972371451 3:0.63871834228703 4:0.39792785878741366 5:0.0159247889485802 6:0.006907137375287797 7:0.8591711435149655 8:0.6914811972371451 9:0.63871834228703 10:0.39792785878741366 11:0.0159247889485802 12:0.006907137375287797 13:0.1751726784343822 14:0.12682271680736762 15:0.032041442824251726 16:0.12682271680736762 17:0.11569455103607061 18:0.12221795855717575 19:0.637567152724482 20:0.7008825786646201 22:0.6573292402148887 23:0.5558326937835764 25:0.007099002302379125 
1.0 1:0.6676899462778204 2:0.5197620874904068 3:0.49481964696853414 4:0.4268994627782041 5:0.036454336147352266 6:0.86415963161934 7:0.6676899462778204 8:0.5727168073676132 9:0.4946277820414428 10:0.4268994627782041 11:0.2075978511128166 12:0.44704528012279354 13:0.11569455103607061 14:0.06907137375287797 15:0.11569455103607061 16:0.1419800460475825 17:0.1446661550268611 18:0.1751726784343822 19:0.49194167306216424 20:0.08537989255564082 22:0.7797390636991558 23:0.3816193399846508 25:0.007099002302379125 
1.0 1:0.11722947045280123 2:0.4268994627782041 3:0.056600153491941675 4:0.5594781273983116 5:0.8985034535686877 6:0.9976976208749041 7:0.6285495011511896 8:0.4268994627782041 9:0.3019953952417498 10:0.5727168073676132 11:0.8985034535686877 12:0.9976976208749041 13:0.1446661550268611 14:0.1419800460475825 15:0.11569455103607061 16:0.06907137375287797 17:0.11569455103607061 18:0.1446661550268611 19:0.05429777436684574 22:0.637567152724482 25:0.007099002302379125 
1.0 1:0.944359171143515 2:0.4268994627782041 3:0.20990023023791252 4:0.003837298541826554 5:0.2693783576362241 6:0.49884881043745205 7:0.9441673062164236 8:0.4268994627782041 9:0.20990023023791252 10:0.003837298541826554 11:0.26976208749040675 12:0.49884881043745205 13:0.1446661550268611 14:0.1419800460475825 15:0.12682271680736762 16:0.12221795855717575 17:0.1751726784343822 18:0.1751726784343822 19:0.20471987720644666 20:0.16193399846508058 22:0.5727168073676132 23:0.5585188027628549 25:0.007099002302379125 
1.0 1:0.5023023791250959 2:0.8879508825786646 3:0.2083653108211819 4:0.6343054489639294 5:0.4478127398311589 6:0.4268994627782041 7:0.5023023791250959 8:0.44704528012279354 9:0.2083653108211819 10:0.6343054489639294 11:0.4478127398311589 12:0.4268994627782041 13:0.1446661550268611 14:0.1751726784343822 15:0.12682271680736762 16:0.12682271680736762 17:0.1446661550268611 18:0.1419800460475825 19:0.20471987720644666 20:0.20107444359171142 21:0.6302762854950115 22:0.5590943975441289 23:0.4272831926323868 24:0.5590943975441289 25:0.007099002302379125 
1.0 1:0.37356101304681505 2:0.9852264006139677 3:0.20471987720644666 4:0.004412893323100537 5:0.6544512663085188 6:0.49769762087490405 7:0.37356101304681505 8:0.9852264006139677 9:0.20471987720644666 10:0.004412893323100537 11:0.6544512663085188 12:0.49769762087490405 13:0.1446661550268611 14:0.1751726784343822 15:0.12682271680736762 16:0.12221795855717575 17:0.08403683806600154 18:0.11569455103607061 20:0.6049501151189562 23:0.9493476592478894 25:0.007099002302379125 
1.0 1:0.8923637759017652 2:0.30966999232540293 3:0.003837298541826554 4:0.004029163468917882 5:0.004412893323100537 6:0.6049501151189562 7:0.8923637759017652 8:0.30966999232540293 9:0.003837298541826554 10:0.004029163468917882 11:0.004412893323100537 12:0.6049501151189562 13:0.08403683806600154 14:0.11569455103607061 15:0.12221795855717575 16:0.12221795855717575 17:0.12221795855717575 18:0.1419800460475825 20:0.6145433614735226 23:0.6442824251726784 25:0.007099002302379125 
1.0 1:0.003837298541826554 2:0.023215656178050652 3:0.8914044512663085 4:0.004029163468917882 5:0.004412893323100537 6:0.29508825786646203 7:0.003837298541826554 8:0.023215656178050652 9:0.8912125863392172 10:0.004029163468917882 11:0.004412893323100537 12:0.29470452801227937 13:0.12221795855717575 14:0.08403683806600154 15:0.11569455103607061 16:0.12221795855717575 17:0.12221795855717575 18:0.11569455103607061 19:0.8829623944742901 20:0.9004221028396009 22:0.5656178050652341 23:0.6590560245587107 25:0.007099002302379125 
1.0 1:0.9420567920184191 2:0.22947045280122794 3:0.004412893323100537 4:0.5370299309286263 5:0.32386799693016116 6:0.39792785878741366 7:0.9416730621642364 8:0.23388334612432848 9:0.004412893323100537 10:0.5370299309286263 11:0.32386799693016116 12:0.39792785878741366 13:0.1751726784343822 14:0.1751726784343822 15:0.12221795855717575 16:0.08403683806600154 17:0.11569455103607061 18:0.12682271680736762 20:0.772256331542594 21:0.5306983883346125 23:0.6573292402148887 24:0.9169224865694551 25:0.007099002302379125 26:0.047619047619047616 
1.0 3:0.09267075978511129 4:0.27321565617805066 5:0.39792785878741366 6:0.953184957789716 9:0.5727168073676132 10:0.273407521105142 11:0.39792785878741366 12:0.954911742133538 15:0.06907137375287797 16:0.1751726784343822 17:0.12682271680736762 18:0.06907137375287797 20:0.0803914044512663 21:0.27033768227168076 23:0.6444742900997698 24:0.5201458173445894 25:0.007099002302379125 
1.0 4:0.8551419800460476 5:0.5306983883346125 6:0.28587874136607827 10:0.8547582501918649 11:0.5306983883346125 12:0.28722179585571755 16:0.1751726784343822 17:0.12682271680736762 18:0.08403683806600154 20:0.035303146584804296 21:0.8472755180353031 23:0.5026861089792786 24:0.9270913277052955 25:0.007099002302379125 
1.0 3:0.07022256331542594 4:0.20471987720644666 5:0.008633921719109747 6:0.5153491941673062 9:0.3821949347659248 10:0.20471987720644666 11:0.008825786646201074 12:0.2567152724481965 15:0.12682271680736762 16:0.12682271680736762 17:0.1446661550268611 18:0.1751726784343822 19:0.07003069838833462 20:0.019953952417498082 22:0.20471987720644666 23:0.637567152724482 25:0.007099002302379125 
1.0 4:0.9804297774366846 5:0.2085571757482732 6:0.8766308518802763 10:0.9804297774366846 11:0.2085571757482732 12:0.8766308518802763 16:0.08403683806600154 17:0.12682271680736762 18:0.11569455103607061 21:0.9762087490406753 24:0.6145433614735226 25:0.007099002302379125 
1.0 4:0.7626630851880276 5:0.646968534151957 6:0.4268994627782041 10:0.7626630851880276 11:0.646968534151957 12:0.4268994627782041 16:0.032041442824251726 17:0.08403683806600154 18:0.1419800460475825 20:0.039716039907904836 21:0.7572908672294705 23:0.41653875671527246 24:0.8472755180353031 25:0.007099002302379125 
1.0 4:0.6339217191097467 5:0.34516500383729853 6:0.28722179585571755 10:0.6339217191097467 11:0.34516500383729853 12:0.28722179585571755 16:0.12682271680736762 17:0.11569455103607061 18:0.08403683806600154 20:0.035303146584804296 21:0.6302762854950115 23:0.5026861089792786 24:0.43534151957022255 25:0.007099002302379125 
1.0 4:0.9973138910207214 5:0.46699923254029163 6:0.4268994627782041 10:0.9973138910207214 11:0.46699923254029163 12:0.4268994627782041 16:0.1446661550268611 17:0.1446661550268611 18:0.1419800460475825 25:0.007099002302379125 
1.0 4:0.63871834228703 5:0.003837298541826554 6:0.21220260936300844 10:0.63871834228703 11:0.003837298541826554 12:0.21220260936300844 16:0.032041442824251726 17:0.12221795855717575 18:0.032041442824251726 20:0.13046815042210283 21:0.637567152724482 23:0.5656178050652341 24:0.6573292402148887 25:0.007099002302379125 
-0.7857308497524 1:0.31753645433614736 2:0.9909823484267076 3:0.9834996162701458 4:0.5805832693783577 5:0.63871834228703 6:0.9909823484267076 7:0.31753645433614736 8:0.9873369148119724 9:0.9834996162701458 10:0.5805832693783577 11:0.63871834228703 12:0.9873369148119724 13:0.1419800460475825 14:0.1751726784343822 15:0.1751726784343822 16:0.1419800460475825 17:0.032041442824251726 18:0.1751726784343822 19:0.9762087490406753 20:0.07463545663852647 22:0.772256331542594 23:0.20395241749808135 25:0.007099002302379125 26:0.14285714285714285 
-1.0 1:0.12643898695318495 2:0.6914811972371451 3:0.9834996162701458 4:0.4268994627782041 5:0.1772831926323868 7:0.6674980813507291 8:0.6914811972371451 9:0.9834996162701458 10:0.4268994627782041 11:0.9706446661550269 13:0.08403683806600154 14:0.12682271680736762 15:0.1751726784343822 16:0.1419800460475825 17:0.1446661550268611 19:0.9762087490406753 20:0.12778204144282426 22:0.772256331542594 23:0.9606676899462778 25:0.007099002302379125 26:0.42857142857142855 
-1.0 1:0.9834996162701458 2:0.6561780506523408 3:0.31696085955487335 4:0.22179585571757482 5:0.763430544896393 6:0.694934765924789 7:0.9834996162701458 8:0.6561780506523408 9:0.31696085955487335 10:0.22179585571757482 11:0.763430544896393 12:0.694934765924789 13:0.1751726784343822 14:0.12682271680736762 15:0.08403683806600154 16:0.1419800460475825 17:0.1419800460475825 18:0.1751726784343822 19:0.31657712970069074 20:0.12778204144282426 21:0.22122026093630084 22:0.5143898695318496 23:0.9606676899462778 24:0.5143898695318496 25:0.007099002302379125 26:0.42857142857142855 
-1.0 1:0.5805832693783577 2:0.8478511128165771 3:0.18438219493476593 4:0.4011895625479662 5:0.9416730621642364 6:0.8867996930161166 7:0.5805832693783577 8:0.44704528012279354 9:0.18438219493476593 10:0.4011895625479662 11:0.9416730621642364 12:0.8866078280890253 13:0.1419800460475825 14:0.1751726784343822 15:0.12682271680736762 16:0.08403683806600154 17:0.1751726784343822 18:0.11569455103607061 20:0.14773599386032232 21:0.39792785878741366 23:0.5805832693783577 24:0.5656178050652341 25:0.007099002302379125 
-1.0 4:0.9976976208749041 5:0.953184957789716 6:0.2718726016884114 10:0.9976976208749041 11:0.954911742133538 12:0.2718726016884114 16:0.1446661550268611 17:0.06907137375287797 18:0.08403683806600154 20:0.07463545663852647 23:0.20395241749808135 25:0.007099002302379125 26:0.14285714285714285 
-1.0 4:0.9618188795088258 5:0.2730237912509593 6:0.9528012279355333 10:0.9620107444359172 11:0.2730237912509593 12:0.954911742133538 16:0.1751726784343822 17:0.032041442824251726 18:0.06907137375287797 20:0.07463545663852647 21:0.9606676899462778 23:0.20395241749808135 24:0.5656178050652341 25:0.007099002302379125 26:0.14285714285714285 
-1.0 1:0.46373752877973906 2:0.2085571757482732 3:0.39927091327705294 4:0.004412893323100537 5:0.840752110514198 6:0.7179585571757483 7:0.4639293937068304 8:0.2085571757482732 9:0.39927091327705294 10:0.004412893323100537 11:0.840752110514198 12:0.7179585571757483 13:0.1751726784343822 14:0.12682271680736762 15:0.08403683806600154 16:0.12221795855717575 17:0.12682271680736762 18:0.1751726784343822 19:0.39792785878741366 20:0.039716039907904836 22:0.7663085188027629 23:0.9965464313123561 25:0.007099002302379125 26:0.9523809523809523 
-1.0 1:0.7546047582501919 2:0.5289716039907905 3:0.39792785878741366 4:0.4313123561013047 5:0.5489255564082886 6:0.9474290099769762 7:0.7547966231772832 8:0.5293553338449731 9:0.39792785878741366 10:0.4313123561013047 11:0.5489255564082886 12:0.9478127398311589 13:0.11569455103607061 14:0.1751726784343822 15:0.12682271680736762 16:0.1419800460475825 17:0.08403683806600154 18:0.08403683806600154 20:0.12778204144282426 23:0.4952033768227168 25:0.007099002302379125 
-1.0 1:0.9909823484267076 2:0.794512663085188 3:0.005180353031465848 4:0.9976976208749041 5:0.9528012279355333 6:0.2139293937068304 7:0.9873369148119724 8:0.794512663085188 9:0.005180353031465848 10:0.44704528012279354 11:0.954911742133538 12:0.21508058326937834 13:0.1751726784343822 14:0.1751726784343822 15:0.032041442824251726 16:0.1751726784343822 17:0.06907137375287797 18:0.08403683806600154 19:0.004796623177283192 20:0.27033768227168076 22:0.004796623177283192 23:0.43495778971603993 25:0.007099002302379125 
-1.0 1:0.8923637759017652 2:0.30966999232540293 3:0.004412893323100537 4:0.9528012279355333 5:0.6110897927858787 6:0.8248273215656178 7:0.8923637759017652 8:0.30966999232540293 9:0.004412893323100537 10:0.954911742133538 11:0.6110897927858787 12:0.8255947812739831 13:0.08403683806600154 14:0.11569455103607061 15:0.12221795855717575 16:0.06907137375287797 17:0.11569455103607061 18:0.08403683806600154 25:0.007099002302379125 26:0.19047619047619047 
-1.0 1:0.2085571757482732 2:0.4804297774366846 3:0.004412893323100537 4:0.004412893323100537 5:0.8783576362240982 6:0.4268994627782041 7:0.2085571757482732 8:0.4804297774366846 9:0.004412893323100537 10:0.004412893323100537 11:0.8783576362240982 12:0.4268994627782041 13:0.12682271680736762 14:0.08403683806600154 15:0.12221795855717575 16:0.12221795855717575 17:0.11569455103607061 18:0.1419800460475825 20:0.6699923254029163 23:0.4508825786646201 25:0.007099002302379125 
-1.0 3:0.10897927858787414 4:0.004412893323100537 5:0.5090176515732924 6:0.0011511895625479663 9:0.5849961627014582 10:0.004412893323100537 11:0.508825786646201 12:0.0011511895625479663 15:0.032041442824251726 16:0.12221795855717575 17:0.11569455103607061 18:0.12221795855717575 19:0.1080199539524175 20:0.7008825786646201 22:0.20395241749808135 23:0.5558326937835764 25:0.007099002302379125 
-1.0 3:0.09382194934765925 4:0.004412893323100537 5:0.5590943975441289 6:0.18937068303914045 9:0.5306983883346125 10:0.004412893323100537 11:0.5727168073676132 12:0.18937068303914045 15:0.12682271680736762 16:0.12221795855717575 17:0.06907137375287797 18:0.11569455103607061 20:0.7008825786646201 23:0.5558326937835764 25:0.007099002302379125 
-1.0 1:0.6321949347659248 2:0.5594781273983116 3:0.3545663852647736 4:0.9973138910207214 5:0.08211818879508825 6:0.31696085955487335 7:0.6327705295471988 8:0.5727168073676132 9:0.3545663852647736 10:0.9973138910207214 11:0.46699923254029163 12:0.31696085955487335 13:0.08403683806600154 14:0.06907137375287797 15:0.11569455103607061 16:0.1446661550268611 17:0.1446661550268611 18:0.1419800460475825 19:0.3323100537221796 22:0.6302762854950115 25:0.007099002302379125 
-1.0 1:0.906945510360706 2:0.34458940905602453 3:0.3816193399846508 4:0.004412893323100537 5:0.9984650805832693 6:0.843630084420568 7:0.906945510360706 8:0.3449731389102072 9:0.3816193399846508 10:0.004412893323100537 11:0.9984650805832693 12:0.8440138142747505 13:0.11569455103607061 14:0.08403683806600154 15:0.12682271680736762 16:0.12221795855717575 17:0.1446661550268611 18:0.11569455103607061 20:0.569071373752878 23:0.6367996930161166 25:0.007099002302379125 
-1.0 1:0.386991557943208 2:0.47486569455103605 3:0.18438219493476593 4:0.6914811972371451 5:0.5021105141980046 6:0.5226400613967767 7:0.386991557943208 8:0.47486569455103605 9:0.18438219493476593 10:0.6914811972371451 11:0.5021105141980046 12:0.5727168073676132 13:0.12682271680736762 14:0.11569455103607061 15:0.12682271680736762 16:0.12682271680736762 17:0.12221795855717575 18:0.06907137375287797 20:0.05065234075211052 21:0.6886032233307752 23:0.442056792018419 24:0.44071373752877974 25:0.007099002302379125 
-1.0 1:0.6383346124328473 2:0.2757099002302379 3:0.003837298541826554 4:0.6914811972371451 5:0.42574827321565617 6:0.2753261703760553 7:0.6383346124328473 8:0.27551803530314656 9:0.003837298541826554 10:0.6914811972371451 11:0.42574827321565617 12:0.2753261703760553 13:0.1751726784343822 14:0.11569455103607061 15:0.12221795855717575 16:0.12682271680736762 17:0.11569455103607061 18:0.11569455103607061 20:0.998848810437452 21:0.6886032233307752 23:0.022256331542594012 24:0.44071373752877974 25:0.007099002302379125 
-1.0 1:0.07022256331542594 2:0.020337682271680736 3:0.20471987720644666 4:0.5153491941673062 5:0.8595548733691482 6:0.2889485801995395 7:0.3821949347659248 8:0.020529547198772063 9:0.20471987720644666 10:0.2567152724481965 11:0.8591711435149655 12:0.2889485801995395 13:0.12682271680736762 14:0.1446661550268611 15:0.12682271680736762 16:0.1751726784343822 17:0.1751726784343822 18:0.11569455103607061 20:0.00844205679201842 23:0.5727168073676132 25:0.007099002302379125 
-1.0 1:0.20395241749808135 2:0.7075978511128166 3:0.3904451266308519 4:0.4268994627782041 5:0.15752110514198003 6:0.004412893323100537 7:0.20395241749808135 8:0.7074059861857253 9:0.3904451266308519 10:0.4268994627782041 11:0.8516884113584037 12:0.004412893323100537 13:0.12682271680736762 14:0.11569455103607061 15:0.12682271680736762 16:0.1419800460475825 17:0.1446661550268611 18:0.12221795855717575 19:0.386991557943208 20:0.15023023791250958 22:0.43534151957022255 23:0.6302762854950115 25:0.007099002302379125 
-1.0 1:0.39792785878741366 2:0.4201841903300077 3:0.18438219493476593 4:0.953184957789716 5:0.6427475057559479 6:0.004604758250191865 7:0.39792785878741366 8:0.4201841903300077 9:0.18438219493476593 10:0.954911742133538 11:0.6427475057559479 12:0.004604758250191865 13:0.12682271680736762 14:0.1751726784343822 15:0.12682271680736762 16:0.06907137375287797 17:0.11569455103607061 18:0.12221795855717575 20:0.2893323100537222 21:0.9528012279355333 23:0.49194167306216424 24:0.6281657712970069 25:0.007099002302379125 
-9.398361151736583E-4 2:0.10072908672294704 3:0.2056792018419033 4:0.8551419800460476 5:0.6337298541826554 6:0.7346508058326938 8:0.5727168073676132 9:0.2056792018419033 10:0.8547582501918649 11:0.6337298541826554 12:0.7348426707597852 14:0.06907137375287797 15:0.11569455103607061 16:0.1751726784343822 17:0.12682271680736762 18:0.11569455103607061 19:0.20471987720644666 21:0.8472755180353031 22:0.5026861089792786 24:0.9270913277052955 25:0.007099002302379125 26:0.19047619047619047 
-1.0 1:0.9299693016116654 2:0.03127398311588642 3:0.5594781273983116 4:0.9976976208749041 5:0.39504988488104376 6:0.3831542594013814 7:0.9299693016116654 8:0.03127398311588642 9:0.5727168073676132 10:0.9976976208749041 11:0.3952417498081351 12:0.3831542594013814 13:0.11569455103607061 14:0.12221795855717575 15:0.06907137375287797 16:0.1446661550268611 17:0.08403683806600154 18:0.12682271680736762 20:0.772256331542594 23:0.6573292402148887 25:0.007099002302379125 
-1.0 1:0.7647735993860323 2:0.5159247889485802 3:0.3821949347659248 4:0.20471987720644666 5:0.019570222563315427 6:0.398695318495779 7:0.7647735993860323 8:0.5159247889485802 9:0.3821949347659248 10:0.20471987720644666 11:0.019570222563315427 12:0.398695318495779 13:0.08403683806600154 14:0.11569455103607061 15:0.12682271680736762 16:0.12682271680736762 17:0.11569455103607061 18:0.11569455103607061 19:0.3816193399846508 20:0.018610897927858788 22:0.20471987720644666 23:0.772256331542594 25:0.007099002302379125 
-1.0 1:0.5412509593246354 2:0.3919800460475825 3:0.4575978511128166 4:0.6344973138910207 5:0.681504221028396 6:0.4474290099769762 7:0.5412509593246354 8:0.3919800460475825 9:0.45798158096699926 10:0.6344973138910207 11:0.681504221028396 12:0.4474290099769762 13:0.11569455103607061 14:0.12682271680736762 15:0.08403683806600154 16:0.12682271680736762 17:0.11569455103607061 18:0.11569455103607061 19:0.45452801227935535 20:0.043745203376822715 21:0.6302762854950115 22:0.8150422102839601 23:0.20471987720644666 24:0.5594781273983116 25:0.007099002302379125 
-1.0 1:0.9748656945510361 2:0.5594781273983116 3:0.8996546431312357 4:0.31696085955487335 5:0.9762087490406753 6:0.3593630084420568 7:0.9748656945510361 8:0.5727168073676132 9:0.8996546431312357 10:0.31696085955487335 11:0.9762087490406753 12:0.3593630084420568 13:0.12682271680736762 14:0.06907137375287797 15:0.11569455103607061 16:0.1419800460475825 17:0.1419800460475825 18:0.11569455103607061 19:0.8829623944742901 20:0.5521872601688411 21:0.31657712970069074 22:0.3816193399846508 23:0.772256331542594 24:0.5143898695318496 25:0.007099002302379125 
-1.0 1:0.42574827321565617 2:0.6863008442056792 3:0.3821949347659248 4:0.4268994627782041 5:0.3821949347659248 6:0.3138910207214121 7:0.42574827321565617 8:0.6864927091327705 9:0.3821949347659248 10:0.4268994627782041 11:0.3821949347659248 12:0.3138910207214121 13:0.08403683806600154 14:0.11569455103607061 15:0.12682271680736762 16:0.1419800460475825 17:0.12682271680736762 18:0.11569455103607061 19:0.3816193399846508 20:0.047006907137375285 22:0.20471987720644666 23:0.772256331542594 25:0.007099002302379125 
-0.4906085119881082 1:0.03127398311588642 2:0.9806216423637759 3:0.18438219493476593 4:0.4268994627782041 5:0.20471987720644666 6:0.0644666155026861 7:0.03127398311588642 8:0.9806216423637759 9:0.18438219493476593 10:0.4268994627782041 11:0.20471987720644666 12:0.3378741366078281 13:0.12221795855717575 14:0.12682271680736762 15:0.12682271680736762 16:0.1419800460475825 17:0.12682271680736762 18:0.1446661550268611 20:0.13775901765157328 23:0.9247889485801996 25:0.007099002302379125 
-1.0 1:0.2085571757482732 2:0.06485034535686876 3:0.5306983883346125 4:0.004412893323100537 5:0.21085955487336916 6:0.7647735993860323 7:0.2085571757482732 8:0.34132770529547196 9:0.5306983883346125 10:0.004412893323100537 11:0.21085955487336916 12:0.7647735993860323 13:0.12682271680736762 14:0.1446661550268611 15:0.12682271680736762 16:0.12221795855717575 17:0.1419800460475825 18:0.08403683806600154 20:0.8112049117421335 23:0.6550268610897928 25:0.007099002302379125 
-1.0 1:0.5805832693783577 2:0.9882962394474291 3:0.9834996162701458 4:0.840752110514198 5:0.8737528779739063 6:0.5107444359171144 7:0.5805832693783577 8:0.9873369148119724 9:0.9834996162701458 10:0.840752110514198 11:0.8737528779739063 12:0.5109363008442057 13:0.1419800460475825 14:0.1751726784343822 15:0.1751726784343822 16:0.12682271680736762 17:0.1751726784343822 18:0.08403683806600154 19:0.9762087490406753 20:0.1080199539524175 21:0.8340368380660015 22:0.772256331542594 23:0.5207214121258634 24:0.9955871066768994 25:0.007099002302379125 
-1.0 4:0.63871834228703 5:0.23138910207214122 6:0.2083653108211819 10:0.63871834228703 11:0.2311972371450499 12:0.2083653108211819 16:0.032041442824251726 17:0.1751726784343822 18:0.12682271680736762 20:0.6049501151189562 21:0.637567152724482 23:0.31657712970069074 24:0.6573292402148887 25:0.007099002302379125 
-1.0 1:0.15636991557943208 2:0.8879508825786646 3:0.20471987720644666 4:0.7641980046047583 5:0.2258250191864927 6:0.6914811972371451 7:0.44704528012279354 8:0.44704528012279354 9:0.20471987720644666 10:0.7641980046047583 11:0.2258250191864927 12:0.6914811972371451 13:0.1751726784343822 14:0.1751726784343822 15:0.12682271680736762 16:0.08403683806600154 17:0.11569455103607061 18:0.12682271680736762 20:0.04508825786646201 21:0.7572908672294705 23:0.637567152724482 24:0.9115502686108979 25:0.007099002302379125 
-1.0 1:0.5159247889485802 2:0.003837298541826554 3:0.5226400613967767 4:0.4313123561013047 5:0.5226400613967767 6:0.1517651573292402 7:0.5159247889485802 8:0.003837298541826554 9:0.5727168073676132 10:0.4313123561013047 11:0.5727168073676132 12:0.8217574827321565 13:0.11569455103607061 14:0.12221795855717575 15:0.06907137375287797 16:0.1419800460475825 17:0.06907137375287797 18:0.1446661550268611 20:0.10399079048349961 23:0.772256331542594 25:0.007099002302379125 
-1.0 1:0.0049884881043745204 2:0.3760552570990023 3:0.39006139677666923 4:0.2256331542594014 5:0.6435149654643131 6:0.004029163468917882 7:0.0049884881043745204 8:0.3760552570990023 9:0.39006139677666923 10:0.2258250191864927 11:0.6435149654643131 12:0.004029163468917882 13:0.12221795855717575 14:0.11569455103607061 15:0.12682271680736762 16:0.11569455103607061 17:0.11569455103607061 18:0.12221795855717575 19:0.386991557943208 20:0.7269762087490407 21:0.22122026093630084 22:0.4351496546431312 23:0.6049501151189562 24:0.6367996930161166 25:0.007099002302379125 
-1.0 1:0.759976976208749 2:0.006907137375287797 3:0.7384881043745203 4:0.6676899462778204 5:0.5197620874904068 6:0.49481964696853414 7:0.7595932463545664 8:0.006907137375287797 9:0.7384881043745203 10:0.6676899462778204 11:0.5727168073676132 12:0.4946277820414428 13:0.11569455103607061 14:0.12221795855717575 15:0.11569455103607061 16:0.11569455103607061 17:0.06907137375287797 18:0.11569455103607061 19:0.7269762087490407 21:0.6663468917881811 22:0.9965464313123561 24:0.648119723714505 25:0.007099002302379125 26:0.19047619047619047 
-1.0 4:0.5023023791250959 5:0.8879508825786646 6:0.2083653108211819 10:0.5023023791250959 11:0.44704528012279354 12:0.2083653108211819 16:0.1446661550268611 17:0.1751726784343822 18:0.12682271680736762 20:0.07808902532617037 21:0.4952033768227168 23:0.6145433614735226 24:0.5554489639293937 25:0.007099002302379125 
-1.0 4:0.31696085955487335 5:0.004412893323100537 6:0.9840752110514198 10:0.31696085955487335 11:0.004412893323100537 12:0.9689178818112049 16:0.08403683806600154 17:0.12221795855717575 18:0.1751726784343822 20:0.035303146584804296 21:0.31657712970069074 23:0.5026861089792786 24:0.5143898695318496 25:0.007099002302379125 
-1.0 4:0.34919416730621644 5:0.9409056024558711 6:0.9324635456638527 10:0.34919416730621644 11:0.9409056024558711 12:0.9324635456638527 16:0.12682271680736762 17:0.08403683806600154 18:0.11569455103607061 20:0.05429777436684574 21:0.3323100537221796 23:0.5512279355333844 24:0.6573292402148887 25:0.007099002302379125 
-1.0 4:0.2112432847275518 5:0.22985418265541058 6:0.4268994627782041 10:0.2112432847275518 11:0.23388334612432848 12:0.4268994627782041 16:0.11569455103607061 17:0.1751726784343822 18:0.1419800460475825 20:0.13238679969301612 21:0.20471987720644666 23:0.6281657712970069 24:0.5803914044512664 25:0.007099002302379125 
-1.0 4:0.22064466615502687 5:0.004412893323100537 6:0.5765541059094398 10:0.22064466615502687 11:0.004412893323100537 12:0.5765541059094398 16:0.08403683806600154 17:0.12221795855717575 18:0.08403683806600154 20:0.04604758250191865 21:0.216039907904835 23:0.637567152724482 24:0.5512279355333844 25:0.007099002302379125 
-0.15293699722396248 1:0.44090560245587107 2:0.6914811972371451 3:0.5727168073676132 4:0.554489639293937 5:0.004412893323100537 6:0.8651189562547966 7:0.44090560245587107 8:0.6914811972371451 9:0.5727168073676132 10:0.5548733691481197 11:0.004412893323100537 12:0.8651189562547966 13:0.11569455103607061 14:0.12682271680736762 15:0.06907137375287797 16:0.11569455103607061 17:0.12221795855717575 18:0.032041442824251726 20:0.7008825786646201 21:0.5539140445126631 23:0.5558326937835764 24:0.6281657712970069 25:0.007099002302379125 
-1.0 1:0.004412893323100537 2:0.9253645433614736 3:0.38910207214121256 4:0.39792785878741366 5:0.26880276285495014 6:0.30928626247122026 7:0.004412893323100537 8:0.9253645433614736 9:0.38910207214121256 10:0.39792785878741366 11:0.26918649270913275 12:0.30928626247122026 13:0.12221795855717575 14:0.08403683806600154 15:0.12682271680736762 16:0.12682271680736762 17:0.08403683806600154 18:0.11569455103607061 19:0.386991557943208 20:0.5153491941673062 22:0.569071373752878 23:0.43534151957022255 25:0.007099002302379125 
-1.0 4:0.003837298541826554 5:0.760552570990023 6:0.4873369148119724 10:0.003837298541826554 11:0.760552570990023 12:0.48848810437452034 16:0.12221795855717575 17:0.1419800460475825 18:0.1751726784343822 20:0.1822716807367613 23:0.46699923254029163 25:0.007099002302379125 
-1.0 4:0.4746738296239447 5:0.5974673829623944 10:0.4746738296239447 11:0.5974673829623944 16:0.1446661550268611 17:0.1419800460475825 20:0.1191481197237145 21:0.4731389102072141 23:0.6663468917881811 24:0.6590560245587107 25:0.007099002302379125 
-1.0 1:0.21623177283192632 2:0.4595165003837299 3:0.5656178050652341 4:0.5306983883346125 5:0.7613200306983884 6:0.6914811972371451 7:0.216615502686109 8:0.4595165003837299 9:0.5727168073676132 10:0.5306983883346125 11:0.7613200306983884 12:0.6914811972371451 13:0.1751726784343822 14:0.1751726784343822 15:0.06907137375287797 16:0.12682271680736762 17:0.11569455103607061 18:0.12682271680736762 20:0.8225249424405219 23:0.5656178050652341 25:0.007099002302379125 
-1.0 1:0.5159247889485802 2:0.8342287029930928 3:0.5656178050652341 4:0.8092862624712203 5:0.8480429777436684 6:0.9528012279355333 7:0.5159247889485802 8:0.8342287029930928 9:0.5727168073676132 10:0.8092862624712203 11:0.44704528012279354 12:0.954911742133538 13:0.11569455103607061 14:0.1419800460475825 15:0.06907137375287797 16:0.1446661550268611 17:0.1751726784343822 18:0.06907137375287797 20:0.3288564850345357 21:0.8075594781273984 23:0.5205295471987721 24:0.6243284727551803 25:0.007099002302379125 
-1.0 4:0.5306983883346125 5:0.29470452801227937 6:0.34919416730621644 10:0.5306983883346125 11:0.29470452801227937 12:0.34919416730621644 16:0.12682271680736762 17:0.11569455103607061 18:0.12682271680736762 20:0.11224098234842671 23:0.23445894090560246 25:0.007099002302379125 
-1.0 1:0.6922486569455104 2:0.5306983883346125 3:0.44762087490406754 4:0.5274366845740599 5:0.39792785878741366 6:0.8873752877973906 7:0.6920567920184191 8:0.5306983883346125 9:0.44762087490406754 10:0.5274366845740599 11:0.39792785878741366 12:0.8873752877973906 13:0.11569455103607061 14:0.12682271680736762 15:0.11569455103607061 16:0.08403683806600154 17:0.12682271680736762 18:0.1751726784343822 19:0.442056792018419 21:0.5232156561780507 22:0.9169224865694551 24:0.5656178050652341 25:0.007099002302379125 26:0.19047619047619047 
-1.0 1:0.26534919416730623 2:0.18438219493476593 3:0.763430544896393 4:0.004412893323100537 5:0.4268994627782041 6:0.6970452801227935 7:0.26554105909439757 8:0.18438219493476593 9:0.763430544896393 10:0.004412893323100537 11:0.4268994627782041 12:0.6970452801227935 13:0.11569455103607061 14:0.12682271680736762 15:0.08403683806600154 16:0.12221795855717575 17:0.1419800460475825 18:0.032041442824251726 19:0.7572908672294705 20:0.6554105909439755 22:0.5594781273983116 23:0.2893323100537222 25:0.007099002302379125 
-1.0 1:0.86415963161934 2:0.7106676899462778 3:0.31696085955487335 4:0.003837298541826554 5:0.6302762854950115 6:0.5153491941673062 7:0.44704528012279354 8:0.7106676899462778 9:0.31696085955487335 10:0.003837298541826554 11:0.6302762854950115 12:0.2567152724481965 13:0.1751726784343822 14:0.032041442824251726 15:0.08403683806600154 16:0.12221795855717575 17:0.1419800460475825 18:0.1751726784343822 19:0.31657712970069074 20:0.18802762854950114 22:0.5143898695318496 23:0.569071373752878 25:0.007099002302379125 
-1.0 1:0.3816193399846508 2:0.023599386032233306 3:0.5046047582501919 4:0.2592095165003837 5:0.5995778971603991 6:0.3231005372217959 7:0.3816193399846508 8:0.023599386032233306 9:0.5053722179585571 10:0.2592095165003837 11:0.5995778971603991 12:0.3231005372217959 13:0.12682271680736762 14:0.08403683806600154 15:0.11569455103607061 16:0.08403683806600154 17:0.1419800460475825 18:0.1419800460475825 19:0.5042210283960092 20:0.7797390636991558 21:0.25594781273983114 22:0.39792785878741366 23:0.44071373752877974 24:0.9117421335379893 25:0.007099002302379125 
-1.0 1:0.3338449731389102 2:0.5594781273983116 3:0.8472755180353031 4:0.35993860322333077 5:0.6339217191097467 6:0.7996930161166539 7:0.3338449731389102 8:0.5594781273983116 9:0.8472755180353031 10:0.35993860322333077 11:0.6339217191097467 12:0.8004604758250192 13:0.11569455103607061 14:0.1419800460475825 15:0.1419800460475825 16:0.1751726784343822 17:0.12682271680736762 18:0.1751726784343822 20:0.7507674597083653 21:0.3323100537221796 23:0.9604758250191865 24:0.772256331542594 25:0.007099002302379125 
-1.0 1:0.4268994627782041 2:0.3825786646201074 3:0.0030698388334612432 4:0.9748656945510361 5:0.5594781273983116 6:0.8996546431312357 7:0.4268994627782041 8:0.3825786646201074 9:0.0030698388334612432 10:0.9748656945510361 11:0.5727168073676132 12:0.8996546431312357 13:0.1419800460475825 14:0.12682271680736762 15:0.1419800460475825 16:0.12682271680736762 17:0.06907137375287797 18:0.11569455103607061 20:0.09286262471220261 21:0.9664236377590176 23:0.3323100537221796 24:0.8568687643898696 25:0.007099002302379125 
-0.10659233802072998 2:0.14389869531849578 3:0.21066768994627783 4:0.7806983883346125 5:0.3816193399846508 6:0.953184957789716 8:0.7647735993860323 9:0.21066768994627783 10:0.7803146584804298 11:0.3816193399846508 12:0.954911742133538 14:0.08403683806600154 15:0.1446661550268611 16:0.1751726784343822 17:0.12682271680736762 18:0.06907137375287797 19:0.20471987720644666 21:0.7797390636991558 22:0.5512279355333844 24:0.9270913277052955 25:0.007099002302379125 26:0.19047619047619047 
-1.0 4:0.0011511895625479663 10:0.0011511895625479663 16:0.12221795855717575 20:0.11224098234842671 23:0.9270913277052955 25:0.007099002302379125 
-1.0 1:0.5306983883346125 2:0.3138910207214121 3:0.8472755180353031 4:0.23867996930161167 5:0.18438219493476593 6:0.7075978511128166 7:0.5306983883346125 8:0.3138910207214121 9:0.8472755180353031 10:0.23867996930161167 11:0.18438219493476593 12:0.7074059861857253 13:0.12682271680736762 14:0.11569455103607061 15:0.1419800460475825 16:0.1751726784343822 17:0.12682271680736762 18:0.11569455103607061 20:0.7507674597083653 21:0.23445894090560246 23:0.9604758250191865 24:0.772256331542594 25:0.007099002302379125 
-0.15108534194722267 1:0.10168841135840369 2:0.3348042977743668 3:0.63871834228703 4:0.763430544896393 5:0.39792785878741366 6:0.9528012279355333 7:0.5727168073676132 8:0.3348042977743668 9:0.63871834228703 10:0.763430544896393 11:0.39792785878741366 12:0.954911742133538 13:0.06907137375287797 14:0.11569455103607061 15:0.032041442824251726 16:0.1419800460475825 17:0.12682271680736762 18:0.06907137375287797 19:0.637567152724482 21:0.7572908672294705 22:0.6573292402148887 24:0.5594781273983116 25:0.007099002302379125 26:0.19047619047619047 
-1.0 20:0.0803914044512663 23:0.8568687643898696 25:0.007099002302379125 
-0.6587394327907345 1:0.6843821949347659 2:0.3821949347659248 3:0.09938603223330775 4:0.8779739063699156 5:0.031465848042977744 6:0.6667306216423637 7:0.6843821949347659 8:0.3821949347659248 9:0.5569838833461244 10:0.8779739063699156 11:0.031465848042977744 12:0.6674980813507291 13:0.11569455103607061 14:0.12682271680736762 15:0.1446661550268611 16:0.08403683806600154 17:0.12221795855717575 18:0.08403683806600154 19:0.09900230237912509 21:0.8689562547966232 22:0.5723330775134305 24:0.41653875671527246 25:0.007099002302379125 26:0.19047619047619047 
-1.0 1:0.20529547198772063 2:0.3919800460475825 3:0.30966999232540293 4:0.004412893323100537 5:0.6617421335379893 6:0.4313123561013047 7:0.2056792018419033 8:0.3919800460475825 9:0.30966999232540293 10:0.004412893323100537 11:0.6613584036838066 12:0.4313123561013047 13:0.11569455103607061 14:0.12682271680736762 15:0.11569455103607061 16:0.12221795855717575 17:0.1751726784343822 18:0.1419800460475825 19:0.2893323100537222 20:0.11128165771297006 22:0.6281657712970069 23:0.5201458173445894 25:0.007099002302379125 
-1.0 1:0.6650038372985418 2:0.31696085955487335 3:0.8472755180353031 4:0.6020721412125863 5:0.18438219493476593 6:0.4863775901765157 7:0.6650038372985418 8:0.31696085955487335 9:0.8472755180353031 10:0.603607060629317 11:0.18438219493476593 12:0.4863775901765157 13:0.11569455103607061 14:0.1419800460475825 15:0.1419800460475825 16:0.1751726784343822 17:0.12682271680736762 18:0.1751726784343822 20:0.8150422102839601 21:0.5974673829623944 23:0.8144666155026861 24:0.8568687643898696 25:0.007099002302379125 
-0.018428163281947164 1:0.18591711435149655 2:0.7311972371450499 3:0.953184957789716 4:0.48522640061396777 5:0.5598618572524943 6:0.004412893323100537 7:0.2567152724481965 8:0.7308135072908672 9:0.954911742133538 10:0.48522640061396777 11:0.5598618572524943 12:0.004412893323100537 13:0.1751726784343822 14:0.1751726784343822 15:0.06907137375287797 16:0.11569455103607061 17:0.11569455103607061 18:0.12221795855717575 19:0.9528012279355333 20:0.7008825786646201 21:0.4798541826554106 22:0.6281657712970069 23:0.5594781273983116 24:0.9169224865694551 25:0.007099002302379125 
-1.0 1:0.4268994627782041 2:0.59247889485802 3:0.5986185725249424 4:0.193207981580967 5:0.20395241749808135 6:0.843630084420568 7:0.4268994627782041 8:0.59247889485802 9:0.5986185725249424 10:0.193207981580967 11:0.20395241749808135 12:0.8440138142747505 13:0.1419800460475825 14:0.11569455103607061 15:0.032041442824251726 16:0.11569455103607061 17:0.12682271680736762 18:0.11569455103607061 19:0.5974673829623944 20:0.10168841135840369 21:0.18802762854950114 22:0.5512279355333844 23:0.569071373752878 24:0.9491557943207981 25:0.007099002302379125 
-0.837448461572795 1:0.39792785878741366 2:0.953184957789716 3:0.9840752110514198 4:0.9050268610897928 5:0.8561013046815042 6:0.39792785878741366 7:0.39792785878741366 8:0.954911742133538 9:0.9840752110514198 10:0.9050268610897928 11:0.8561013046815042 12:0.39792785878741366 13:0.12682271680736762 14:0.06907137375287797 15:0.11569455103607061 16:0.12682271680736762 17:0.11569455103607061 18:0.12682271680736762 19:0.9762087490406753 20:0.09132770529547199 21:0.9004221028396009 22:0.9117421335379893 23:0.10149654643131235 24:0.5727168073676132 25:0.007099002302379125 
-1.0 4:0.03127398311588642 5:0.63871834228703 6:0.9976976208749041 10:0.03127398311588642 11:0.63871834228703 12:0.9976976208749041 16:0.12221795855717575 17:0.032041442824251726 18:0.1446661550268611 20:0.11377590176515733 23:0.5656178050652341 25:0.007099002302379125 
-0.7502418830692374 2:0.09267075978511129 3:0.59247889485802 4:0.7538372985418266 5:0.34919416730621644 6:0.9528012279355333 8:0.5727168073676132 9:0.59247889485802 10:0.7524942440521872 11:0.34919416730621644 12:0.954911742133538 14:0.06907137375287797 15:0.11569455103607061 16:0.1751726784343822 17:0.12682271680736762 18:0.06907137375287797 19:0.5805832693783577 21:0.7507674597083653 22:0.772256331542594 24:0.9270913277052955 25:0.007099002302379125 26:0.19047619047619047 
-0.8416477954734161 1:0.10168841135840369 2:0.7342670759785112 3:0.39792785878741366 4:0.2904834996162701 5:0.6344973138910207 6:0.5729086722947045 7:0.5727168073676132 8:0.7342670759785112 9:0.39792785878741366 10:0.29029163468917885 11:0.6344973138910207 12:0.5729086722947045 13:0.06907137375287797 14:0.11569455103607061 15:0.12682271680736762 16:0.11569455103607061 17:0.12682271680736762 18:0.11569455103607061 20:0.06293169608595549 21:0.2893323100537222 23:0.9117421335379893 24:0.4896392939370683 25:0.007099002302379125 
-1.0 2:0.1688411358403684 3:0.3816193399846508 4:0.4268994627782041 5:0.08461243284727551 6:0.9976976208749041 8:0.9282425172678435 9:0.3816193399846508 10:0.4268994627782041 11:0.4898311588641596 12:0.9976976208749041 14:0.1751726784343822 15:0.12682271680736762 16:0.1419800460475825 17:0.1446661550268611 18:0.1446661550268611 20:0.03818112049117421 23:0.5594781273983116 25:0.007099002302379125 
-1.0 1:0.48311588641596315 2:0.8651189562547966 3:0.3816193399846508 4:0.9178818112049117 5:0.4268994627782041 6:0.04355333844973139 7:0.4829240214888718 8:0.8651189562547966 9:0.3816193399846508 10:0.9180736761320031 11:0.4268994627782041 12:0.2540291634689179 13:0.1751726784343822 14:0.032041442824251726 15:0.12682271680736762 16:0.11569455103607061 17:0.1419800460475825 18:0.08403683806600154 20:0.1191481197237145 21:0.9169224865694551 23:0.8472755180353031 24:0.3231005372217959 25:0.007099002302379125 
-1.0 1:0.9079048349961627 2:0.4313123561013047 3:0.953184957789716 4:0.6914811972371451 5:0.4595165003837299 6:0.3338449731389102 7:0.9079048349961627 8:0.4313123561013047 9:0.954911742133538 10:0.6914811972371451 11:0.4595165003837299 12:0.3338449731389102 13:0.11569455103607061 14:0.1419800460475825 15:0.06907137375287797 16:0.12682271680736762 17:0.1751726784343822 18:0.11569455103607061 19:0.9528012279355333 20:0.2810821181887951 21:0.6886032233307752 22:0.6281657712970069 23:0.52168073676132 24:0.44071373752877974 25:0.007099002302379125 
-1.0 1:0.888142747505756 2:0.5226400613967767 3:0.6897544128933231 4:0.7492325402916347 5:0.004604758250191865 7:0.44704528012279354 8:0.5727168073676132 9:0.6897544128933231 10:0.7486569455103607 11:0.004604758250191865 13:0.1751726784343822 14:0.06907137375287797 15:0.08403683806600154 16:0.1751726784343822 17:0.12221795855717575 19:0.6886032233307752 20:0.13775901765157328 21:0.7269762087490407 22:0.6590560245587107 23:0.6373752877973906 24:0.9270913277052955 25:0.007099002302379125 
-1.0 1:0.8914044512663085 2:0.40541059094397547 3:0.31696085955487335 4:0.9528012279355333 5:0.02168073676132003 6:0.8914044512663085 7:0.8912125863392172 8:0.40521872601688413 9:0.31696085955487335 10:0.954911742133538 11:0.02168073676132003 12:0.8912125863392172 13:0.11569455103607061 14:0.1751726784343822 15:0.1419800460475825 16:0.06907137375287797 17:0.08403683806600154 18:0.11569455103607061 19:0.31657712970069074 22:0.5143898695318496 25:0.007099002302379125 26:0.19047619047619047 
-1.0 1:0.37164236377590176 2:0.3816193399846508 3:0.08346124328472755 4:0.004604758250191865 7:0.3718342287029931 8:0.3816193399846508 9:0.4769762087490407 10:0.004604758250191865 13:0.11569455103607061 14:0.12682271680736762 15:0.1446661550268611 16:0.12221795855717575 19:0.08288564850345356 20:0.1778587874136608 22:0.9169224865694551 23:0.49194167306216424 25:0.007099002302379125 
-1.0 1:0.33902532617037606 2:0.3816193399846508 3:0.8545663852647736 4:0.004604758250191865 7:0.33902532617037606 8:0.3816193399846508 9:0.8545663852647736 10:0.004604758250191865 13:0.032041442824251726 14:0.12682271680736762 15:0.11569455103607061 16:0.12221795855717575 19:0.8472755180353031 20:0.9923254029163469 22:0.9270913277052955 23:0.4274750575594781 25:0.007099002302379125 
-1.0 1:0.6412125863392172 2:0.24002302379125096 3:0.5306983883346125 4:0.5226400613967767 5:0.3171527244819647 6:0.9973138910207214 7:0.6412125863392172 8:0.24002302379125096 9:0.5306983883346125 10:0.5727168073676132 11:0.3171527244819647 12:0.9973138910207214 13:0.08403683806600154 14:0.11569455103607061 15:0.12682271680736762 16:0.06907137375287797 17:0.11569455103607061 18:0.1446661550268611 20:0.5153491941673062 23:0.43534151957022255 25:0.007099002302379125 
-1.0 3:0.06619339984650806 4:0.508250191864927 5:0.4268994627782041 6:0.18553338449731388 9:0.3545663852647736 10:0.508250191864927 11:0.4268994627782041 12:0.18553338449731388 15:0.11569455103607061 16:0.1446661550268611 17:0.1419800460475825 18:0.032041442824251726 19:0.06293169608595549 20:0.09382194934765925 21:0.5042210283960092 22:0.6302762854950115 23:0.4508825786646201 24:0.9117421335379893 25:0.007099002302379125 26:0.19047619047619047 
-1.0 1:0.5590943975441289 2:0.18937068303914045 3:0.18438219493476593 4:0.9976976208749041 5:0.5086339217191097 6:0.004412893323100537 7:0.5727168073676132 8:0.18937068303914045 9:0.18438219493476593 10:0.9976976208749041 11:0.5086339217191097 12:0.004412893323100537 13:0.06907137375287797 14:0.11569455103607061 15:0.12682271680736762 16:0.1446661550268611 17:0.08403683806600154 18:0.12221795855717575 20:0.09382194934765925 23:0.4508825786646201 25:0.007099002302379125 26:0.19047619047619047 
-1.0 1:0.6187643898695319 2:0.30583269378357636 3:0.004412893323100537 4:0.004029163468917882 5:0.004604758250191865 7:0.6187643898695319 8:0.30583269378357636 9:0.004412893323100537 10:0.004029163468917882 11:0.004604758250191865 13:0.08403683806600154 14:0.11569455103607061 15:0.12221795855717575 16:0.12221795855717575 17:0.12221795855717575 20:0.6886032233307752 23:0.8146584804297774 25:0.007099002302379125 
-1.0 1:0.39217191097467385 2:0.5065234075211051 3:0.3275134305448964 4:0.004604758250191865 7:0.39217191097467385 8:0.5061396776669225 9:0.3269378357636224 10:0.004604758250191865 13:0.12682271680736762 14:0.08403683806600154 15:0.11569455103607061 16:0.12221795855717575 19:0.3231005372217959 20:0.1191481197237145 22:0.9485801995395242 23:0.6302762854950115 25:0.007099002302379125 
-1.0 1:0.42574827321565617 2:0.6863008442056792 3:0.38277052954719876 4:0.004604758250191865 7:0.42574827321565617 8:0.6864927091327705 9:0.38277052954719876 10:0.004604758250191865 13:0.08403683806600154 14:0.11569455103607061 15:0.12682271680736762 16:0.12221795855717575 19:0.3816193399846508 20:0.12279355333844973 22:0.5590943975441289 23:0.9664236377590176 25:0.007099002302379125 
-1.0 1:0.004412893323100537 2:0.9806216423637759 3:0.2085571757482732 4:0.004604758250191865 7:0.004412893323100537 8:0.9806216423637759 9:0.2085571757482732 10:0.004604758250191865 13:0.12221795855717575 14:0.08403683806600154 15:0.12682271680736762 16:0.12221795855717575 19:0.20471987720644666 20:0.8829623944742901 22:0.5594781273983116 23:0.5656178050652341 25:0.007099002302379125 
