svm_type c_svc
kernel_type linear
nr_class 2
total_sv 2
rho -0.639839745458765
label -1 2
probA 0.25025765668861283
probB -0.6656140024707919
nr_sv 1 1
SV
0.6886688011091548 1:0.07521105141980046 2:0.34919416730621644 3:0.3261703760552571 4:0.39792785878741366 5:0.9163468917881811 6:0.6479278587874137 7:0.42517267843438217 8:0.34919416730621644 9:0.3261703760552571 10:0.39792785878741366 11:0.9163468917881811 12:0.6479278587874137 13:0.1446661550268611 14:0.12682271680736762 15:0.12682271680736762 16:0.12682271680736762 17:0.11569455103607061 18:0.1419800460475825 19:0.3231005372217959 20:0.02858787413660783 22:0.2893323100537222 23:0.8075594781273984 25:0.007099002302379125 
-0.6886688011091548 1:0.9528012279355333 2:0.7996930161166539 3:0.001343054489639294 4:0.001343054489639294 5:0.42133537989255565 6:0.9810053722179586 7:0.954911742133538 8:0.7996930161166539 9:0.002686108979278588 10:0.002686108979278588 11:0.42133537989255565 12:0.9712202609363009 13:0.06907137375287797 14:0.11569455103607061 15:0.12221795855717575 16:0.12221795855717575 17:0.032041442824251726 18:0.1751726784343822 20:0.10168841135840369 23:0.9117421335379893 25:0.007099002302379125 
