svm_type c_svc
kernel_type linear
nr_class 2
total_sv 17
rho -1.0880735092225118
label -1 3
probA 0.47822823783350493
probB -1.0560979300157807
nr_sv 10 7
SV
1.0 1:0.646392939370683 2:0.18438219493476593 3:0.47006907137375287 4:0.031465848042977744 5:0.4694934765924789 6:0.38277052954719876 7:0.646392939370683 8:0.18438219493476593 9:0.47006907137375287 10:0.031465848042977744 11:0.4694934765924789 12:0.38277052954719876 13:0.032041442824251726 14:0.12682271680736762 15:0.11569455103607061 16:0.12221795855717575 17:0.11569455103607061 18:0.12682271680736762 19:0.46699923254029163 20:0.6663468917881811 22:0.6302762854950115 23:0.011320030698388335 25:0.007099002302379125 
0.6148490756574798 1:0.9528012279355333 2:0.6120491174213354 3:0.3829623944742901 4:0.6674980813507291 5:0.7547966231772832 6:0.6914811972371451 7:0.954911742133538 8:0.6120491174213354 9:0.3829623944742901 10:0.6674980813507291 11:0.7544128933231006 12:0.6914811972371451 13:0.06907137375287797 14:0.11569455103607061 15:0.12682271680736762 16:0.11569455103607061 17:0.1751726784343822 18:0.12682271680736762 19:0.3816193399846508 20:0.16193399846508058 21:0.6663468917881811 22:0.5594781273983116 23:0.6367996930161166 24:0.6145433614735226 25:0.007099002302379125 
0.9149071222467211 1:0.7217958557175749 2:0.9806216423637759 3:0.2085571757482732 7:0.7217958557175749 8:0.9806216423637759 9:0.2085571757482732 13:0.11569455103607061 14:0.11569455103607061 15:0.12682271680736762 19:0.20471987720644666 20:0.7663085188027629 22:0.5594781273983116 23:0.5594781273983116 25:0.007099002302379125 
0.4716896367469278 1:0.9643131235610131 2:0.6659631619339985 3:0.39792785878741366 4:0.004412893323100537 5:0.6922486569455104 6:0.764006139677667 7:0.966039907904835 8:0.6661550268610897 9:0.39792785878741366 10:0.004412893323100537 11:0.6920567920184191 12:0.764006139677667 13:0.08403683806600154 14:0.11569455103607061 15:0.12682271680736762 16:0.12221795855717575 17:0.1446661550268611 18:0.1419800460475825 20:0.04604758250191865 23:0.6281657712970069 25:0.007099002302379125 26:0.2857142857142857 
1.0 1:0.5805832693783577 2:0.8478511128165771 3:0.18438219493476593 4:0.4011895625479662 5:0.9416730621642364 6:0.8867996930161166 7:0.5805832693783577 8:0.44704528012279354 9:0.18438219493476593 10:0.4011895625479662 11:0.9416730621642364 12:0.8866078280890253 13:0.1419800460475825 14:0.1751726784343822 15:0.12682271680736762 16:0.08403683806600154 17:0.1751726784343822 18:0.11569455103607061 20:0.14773599386032232 21:0.39792785878741366 23:0.5805832693783577 24:0.5656178050652341 25:0.007099002302379125 
0.284037543747718 4:0.6523407521105142 5:0.6187643898695319 6:0.6914811972371451 10:0.6527244819646969 11:0.6187643898695319 12:0.6914811972371451 16:0.1751726784343822 17:0.032041442824251726 18:0.12682271680736762 20:0.07463545663852647 21:0.6511895625479662 23:0.20395241749808135 24:0.772256331542594 25:0.007099002302379125 26:0.14285714285714285 
1.0 1:0.10168841135840369 2:0.7217958557175749 3:0.3904451266308519 4:0.9976976208749041 5:0.6667306216423637 6:0.004412893323100537 7:0.5727168073676132 8:0.7217958557175749 9:0.3904451266308519 10:0.9976976208749041 11:0.6674980813507291 12:0.004412893323100537 13:0.06907137375287797 14:0.11569455103607061 15:0.12682271680736762 16:0.1446661550268611 17:0.08403683806600154 18:0.12221795855717575 19:0.386991557943208 20:0.1822716807367613 22:0.43534151957022255 23:0.43534151957022255 25:0.007099002302379125 26:0.0 
0.023434438567054124 1:0.6051419800460476 2:0.45683039140445125 3:0.2083653108211819 4:0.39792785878741366 5:0.13334612432847276 6:0.004604758250191865 7:0.6122409823484267 8:0.45683039140445125 9:0.2083653108211819 10:0.39792785878741366 11:0.7085571757482733 12:0.004604758250191865 13:0.08403683806600154 14:0.11569455103607061 15:0.12682271680736762 16:0.12682271680736762 17:0.1446661550268611 18:0.12221795855717575 19:0.20471987720644666 20:0.5153491941673062 22:0.5590943975441289 23:0.5512279355333844 25:0.007099002302379125 
0.5571668541036838 1:0.44090560245587107 2:0.75 3:0.39792785878741366 4:0.0011511895625479663 5:0.0011511895625479663 6:0.0011511895625479663 7:0.44704528012279354 8:0.75 9:0.39792785878741366 10:0.0011511895625479663 11:0.0011511895625479663 12:0.0011511895625479663 13:0.1751726784343822 14:0.11569455103607061 15:0.12682271680736762 16:0.12221795855717575 17:0.12221795855717575 18:0.12221795855717575 25:0.007099002302379125 26:0.5238095238095238 
1.0 1:0.6448580199539524 2:0.33902532617037606 3:0.5226400613967767 4:0.0049884881043745204 5:0.4023407521105142 6:0.20990023023791252 7:0.6448580199539524 8:0.33902532617037606 9:0.5727168073676132 10:0.0049884881043745204 11:0.40214888718342284 12:0.20990023023791252 13:0.11569455103607061 14:0.032041442824251726 15:0.06907137375287797 16:0.12221795855717575 17:0.11569455103607061 18:0.12682271680736762 20:0.019570222563315427 21:0.004796623177283192 23:0.011128165771297006 24:0.004796623177283192 25:0.007099002302379125 
-1.0 1:0.5306983883346125 2:0.36051419800460477 3:0.003837298541826554 4:0.3261703760552571 5:0.004029163468917882 6:0.004604758250191865 7:0.5306983883346125 8:0.36032233307751343 9:0.003837298541826554 10:0.3261703760552571 11:0.004029163468917882 12:0.004604758250191865 13:0.12682271680736762 14:0.11569455103607061 15:0.12221795855717575 16:0.12682271680736762 17:0.12221795855717575 18:0.12221795855717575 20:0.02436684574059862 21:0.3231005372217959 23:9.593246354566385E-4 24:0.2893323100537222 25:0.007099002302379125 
-1.0 1:0.07521105141980046 2:0.34919416730621644 3:0.3261703760552571 4:0.39792785878741366 5:0.9163468917881811 6:0.6479278587874137 7:0.42517267843438217 8:0.34919416730621644 9:0.3261703760552571 10:0.39792785878741366 11:0.9163468917881811 12:0.6479278587874137 13:0.1446661550268611 14:0.12682271680736762 15:0.12682271680736762 16:0.12682271680736762 17:0.11569455103607061 18:0.1419800460475825 19:0.3231005372217959 20:0.02858787413660783 22:0.2893323100537222 23:0.8075594781273984 25:0.007099002302379125 
-1.0 1:0.3904451266308519 2:0.6774750575594781 3:0.39792785878741366 4:0.20471987720644666 5:0.49769762087490405 6:0.44090560245587107 7:0.3904451266308519 8:0.6774750575594781 9:0.39792785878741366 10:0.20471987720644666 11:0.49769762087490405 12:0.44704528012279354 13:0.12682271680736762 14:0.11569455103607061 15:0.12682271680736762 16:0.12682271680736762 17:0.11569455103607061 18:0.1751726784343822 20:0.17267843438219493 23:0.014773599386032234 25:0.007099002302379125 
-0.8660846710695849 1:0.3904451266308519 2:0.9157712970069072 3:0.931504221028396 4:0.4313123561013047 5:0.9992325402916347 7:0.3904451266308519 8:0.9157712970069072 9:0.931504221028396 10:0.4313123561013047 11:0.9992325402916347 13:0.12682271680736762 14:0.11569455103607061 15:0.12682271680736762 16:0.1419800460475825 17:0.1446661550268611 19:0.9313123561013047 20:0.998848810437452 22:0.7663085188027629 23:0.0072908672294704525 25:0.007099002302379125 
-1.0 1:0.931504221028396 2:0.9990406753645433 3:0.4313123561013047 7:0.931504221028396 8:0.9990406753645433 9:0.4313123561013047 13:0.12682271680736762 14:0.1446661550268611 15:0.1419800460475825 20:0.998848810437452 23:0.0072908672294704525 25:0.007099002302379125 
-1.0 1:0.6379508825786646 2:0.18591711435149655 3:0.672678434382195 4:0.6914811972371451 5:0.5226400613967767 6:0.8039140445126631 7:0.6379508825786646 8:0.2567152724481965 9:0.6722947045280123 10:0.6914811972371451 11:0.5727168073676132 12:0.8039140445126631 13:0.1419800460475825 14:0.1751726784343822 15:0.1751726784343822 16:0.12682271680736762 17:0.06907137375287797 18:0.11569455103607061 19:0.6699923254029163 20:0.025709900230237913 21:0.6886032233307752 22:0.9270913277052955 23:0.8075594781273984 24:0.44071373752877974 25:0.007099002302379125 
-1.0 1:0.7384881043745203 2:0.7835763622409824 3:0.003837298541826554 4:0.004029163468917882 5:0.9976976208749041 6:0.7110514198004605 7:0.7384881043745203 8:0.7835763622409824 9:0.003837298541826554 10:0.004029163468917882 11:0.9976976208749041 12:0.7110514198004605 13:0.11569455103607061 14:0.08403683806600154 15:0.12221795855717575 16:0.12221795855717575 17:0.1446661550268611 18:0.1419800460475825 20:0.027052954719877207 23:9.593246354566385E-4 25:0.007099002302379125 
