svm_type c_svc
kernel_type linear
nr_class 2
total_sv 15
rho -1.0859748499528843
label -1 6
probA 2.3448824977536815
probB -3.112307520236091
nr_sv 9 6
SV
1.0 1:0.49750575594781277 2:0.18438219493476593 3:0.47006907137375287 4:0.004604758250191865 7:0.49769762087490405 8:0.18438219493476593 9:0.47006907137375287 10:0.004604758250191865 13:0.11569455103607061 14:0.12682271680736762 15:0.11569455103607061 16:0.12221795855717575 19:0.46699923254029163 20:0.4952033768227168 22:0.6302762854950115 23:0.011128165771297006 25:0.007099002302379125 
0.24629344332309808 1:0.7384881043745203 2:0.8248273215656178 3:0.8472755180353031 4:0.9416730621642364 5:0.39792785878741366 6:0.5986185725249424 7:0.7384881043745203 8:0.8255947812739831 9:0.8472755180353031 10:0.9416730621642364 11:0.39792785878741366 12:0.5986185725249424 13:0.11569455103607061 14:0.08403683806600154 15:0.1419800460475825 16:0.1751726784343822 17:0.12682271680736762 18:0.11569455103607061 20:0.7507674597083653 21:0.9313123561013047 23:0.9604758250191865 24:0.772256331542594 25:0.007099002302379125 
0.39398069057939816 1:0.759976976208749 2:0.4268994627782041 3:0.7131619339984651 4:0.5306983883346125 5:0.004604758250191865 7:0.7595932463545664 8:0.4268994627782041 9:0.7143131235610131 10:0.5306983883346125 11:0.004604758250191865 13:0.1446661550268611 14:0.1419800460475825 15:0.08403683806600154 16:0.12682271680736762 17:0.12221795855717575 19:0.7127782041442824 20:0.9606676899462778 22:0.2893323100537222 23:0.9485801995395242 25:0.007099002302379125 26:0.14285714285714285 
0.8898112810998423 1:0.7135456638526477 2:0.6843821949347659 3:0.3821949347659248 4:0.9976976208749041 5:0.8779739063699156 6:0.031465848042977744 7:0.7143131235610131 8:0.6843821949347659 9:0.3821949347659248 10:0.9976976208749041 11:0.8779739063699156 12:0.031465848042977744 13:0.08403683806600154 14:0.11569455103607061 15:0.12682271680736762 16:0.1446661550268611 17:0.08403683806600154 18:0.12221795855717575 19:0.3816193399846508 20:0.09900230237912509 22:0.20471987720644666 23:0.5723330775134305 25:0.007099002302379125 26:0.14285714285714285 
1.0 1:0.32041442824251726 2:0.2083653108211819 3:0.5159247889485802 4:0.3144666155026861 5:0.39792785878741366 6:0.7872217958557176 7:0.32041442824251726 8:0.2083653108211819 9:0.5159247889485802 10:0.31465848042977745 11:0.39792785878741366 12:0.7872217958557176 13:0.1751726784343822 14:0.12682271680736762 15:0.11569455103607061 16:0.1751726784343822 17:0.12682271680736762 18:0.1751726784343822 19:0.5153491941673062 20:0.6886032233307752 21:0.31120491174213355 22:0.43534151957022255 23:0.5193783576362241 24:0.637567152724482 25:0.007099002302379125 
0.8056225688972473 1:0.764006139677667 2:0.7311972371450499 3:0.38277052954719876 4:0.4556792018419033 5:0.56792018419033 6:0.8282808902532617 7:0.764006139677667 8:0.7308135072908672 9:0.38277052954719876 10:0.4595165003837299 11:0.56792018419033 12:0.8282808902532617 13:0.1419800460475825 14:0.1751726784343822 15:0.12682271680736762 16:0.1751726784343822 17:0.032041442824251726 18:0.1446661550268611 19:0.3816193399846508 20:0.09785111281657713 21:0.45452801227935535 22:0.5590943975441289 23:0.5201458173445894 24:0.9606676899462778 25:0.007099002302379125 
0.38476002584293917 4:0.6561780506523408 5:0.31696085955487335 6:0.4930928626247122 10:0.6561780506523408 11:0.31696085955487335 12:0.4930928626247122 16:0.12682271680736762 17:0.08403683806600154 18:0.08403683806600154 20:0.13046815042210283 21:0.6554105909439755 23:0.5656178050652341 24:0.772256331542594 25:0.007099002302379125 
1.0 1:0.8591711435149655 2:0.6914811972371451 3:0.63871834228703 4:0.39792785878741366 5:0.0159247889485802 6:0.006907137375287797 7:0.8591711435149655 8:0.6914811972371451 9:0.63871834228703 10:0.39792785878741366 11:0.0159247889485802 12:0.006907137375287797 13:0.1751726784343822 14:0.12682271680736762 15:0.032041442824251726 16:0.12682271680736762 17:0.11569455103607061 18:0.12221795855717575 19:0.637567152724482 20:0.7008825786646201 22:0.6573292402148887 23:0.5558326937835764 25:0.007099002302379125 
0.27953199025747505 1:0.11722947045280123 2:0.4268994627782041 3:0.056600153491941675 4:0.5594781273983116 5:0.8985034535686877 6:0.9976976208749041 7:0.6285495011511896 8:0.4268994627782041 9:0.3019953952417498 10:0.5727168073676132 11:0.8985034535686877 12:0.9976976208749041 13:0.1446661550268611 14:0.1419800460475825 15:0.11569455103607061 16:0.06907137375287797 17:0.11569455103607061 18:0.1446661550268611 19:0.05429777436684574 22:0.637567152724482 25:0.007099002302379125 26:0.23809523809523808 
-1.0 1:0.9844589409056025 2:0.5656178050652341 3:0.2528779739063699 4:0.003837298541826554 5:0.875287797390637 6:0.0011511895625479663 7:0.9689178818112049 8:0.5727168073676132 9:0.25268610897927857 10:0.003837298541826554 11:0.875287797390637 12:0.0011511895625479663 13:0.1751726784343822 14:0.06907137375287797 15:0.11569455103607061 16:0.12221795855717575 17:0.08403683806600154 18:0.12221795855717575 19:0.24827321565617805 20:0.16807367613200308 22:0.6367996930161166 23:0.8108211818879509 25:0.007099002302379125 
-1.0 1:0.0011511895625479663 2:0.4268994627782041 3:0.840752110514198 4:0.004604758250191865 7:0.0011511895625479663 8:0.4268994627782041 9:0.840752110514198 10:0.004604758250191865 13:0.12221795855717575 14:0.1419800460475825 15:0.12682271680736762 16:0.12221795855717575 19:0.8340368380660015 20:0.7004988488104374 22:0.9955871066768994 23:0.6573292402148887 25:0.007099002302379125 
-1.0 1:0.47256331542594016 2:0.31254796623177283 3:0.004412893323100537 4:0.8215656178050652 5:0.4268994627782041 6:0.2636224098234843 7:0.47256331542594016 8:0.31254796623177283 9:0.004412893323100537 10:0.8215656178050652 11:0.4268994627782041 12:0.2630468150422103 13:0.11569455103607061 14:0.1446661550268611 15:0.12221795855717575 16:0.11569455103607061 17:0.1419800460475825 18:0.1751726784343822 20:0.637567152724482 21:0.8150422102839601 23:0.5193783576362241 24:0.6281657712970069 25:0.007099002302379125 
-1.0 1:0.18438219493476593 2:0.7075978511128166 3:0.3821949347659248 4:0.5805832693783577 5:0.18438219493476593 6:0.6379508825786646 7:0.18438219493476593 8:0.7074059861857253 9:0.3821949347659248 10:0.5805832693783577 11:0.18438219493476593 12:0.6379508825786646 13:0.12682271680736762 14:0.11569455103607061 15:0.12682271680736762 16:0.1419800460475825 17:0.12682271680736762 18:0.1419800460475825 19:0.3816193399846508 20:0.772256331542594 22:0.20471987720644666 23:0.3768227168073676 25:0.007099002302379125 
-1.0 1:0.6676899462778204 2:0.5197620874904068 3:0.49481964696853414 4:0.4268994627782041 5:0.036454336147352266 6:0.86415963161934 7:0.6676899462778204 8:0.5727168073676132 9:0.4946277820414428 10:0.4268994627782041 11:0.2075978511128166 12:0.44704528012279354 13:0.11569455103607061 14:0.06907137375287797 15:0.11569455103607061 16:0.1419800460475825 17:0.1446661550268611 18:0.1751726784343822 19:0.49194167306216424 20:0.08537989255564082 22:0.7797390636991558 23:0.3816193399846508 25:0.007099002302379125 
-1.0 1:0.63871834228703 2:0.5656178050652341 3:0.862432847275518 4:0.908672294704528 5:0.5805832693783577 6:0.39217191097467385 7:0.63871834228703 8:0.5727168073676132 9:0.8626247122026094 10:0.9084804297774367 11:0.5805832693783577 12:0.39217191097467385 13:0.032041442824251726 14:0.06907137375287797 15:0.08403683806600154 16:0.1751726784343822 17:0.1419800460475825 18:0.12682271680736762 19:0.8568687643898696 20:0.2810821181887951 21:0.9004221028396009 22:0.9169224865694551 23:0.442056792018419 24:0.9169224865694551 25:0.007099002302379125 
