svm_type c_svc
kernel_type linear
nr_class 2
total_sv 194
rho 2.9242660085372436
label -1 7
probA -2.4123346424557304
probB -0.16937208201445053
nr_sv 95 99
SV
1.0 1:0.8389081122645137 2:0.8496732026143791 3:0.39254133025759325 4:0.004998077662437524 5:0.35082660515186465 6:0.8612072279892349 7:0.8392925797770089 8:0.4500192233756248 9:0.39254133025759325 10:0.004998077662437524 11:0.35082660515186465 12:0.8613994617454825 13:0.17704728950403692 14:0.17704728950403692 15:0.1253364090734333 16:0.12091503267973856 17:0.1253364090734333 18:0.11476355247981546 19:0.3890811226451365 20:0.0038446751249519417 22:0.43810073048827375 23:0.007881584006151481 25:0.007689350249903883 
1.0 1:0.5232602845059593 2:0.9407920030757401 3:0.18646674356016918 4:0.004998077662437524 5:0.8360246059207997 6:0.8492887351018839 7:0.5734332948865821 8:0.9407920030757401 9:0.18646674356016918 10:0.004998077662437524 11:0.8360246059207997 12:0.8492887351018839 13:0.06382160707420223 14:0.11476355247981546 15:0.1253364090734333 16:0.12091503267973856 17:0.14129181084198386 18:0.14129181084198386 20:0.032103037293348714 23:0.20607458669742407 25:0.007689350249903883 
1.0 3:0.10246059207996924 4:0.004998077662437524 5:0.5232602845059593 6:0.7420222991157247 9:0.5734332948865821 10:0.004998077662437524 11:0.5734332948865821 12:0.7420222991157247 15:0.06382160707420223 16:0.12091503267973856 17:0.06382160707420223 18:0.08189158016147635 20:0.15647827758554403 23:0.5820838139177239 25:0.007689350249903883 
1.0 3:0.09073433294886582 4:0.9982698961937716 5:0.9538638985005767 6:0.5190311418685121 9:0.5734332948865821 10:0.9982698961937716 11:0.9559784698193002 12:0.5190311418685121 15:0.06382160707420223 16:0.1439830834294502 17:0.06382160707420223 18:0.11476355247981546 20:0.08266051518646675 23:0.4409842368319877 25:0.007689350249903883 
1.0 3:0.1432141484044598 4:0.9538638985005767 5:0.27297193387158786 6:0.29950019223375624 9:0.7658592848904268 10:0.9559784698193002 11:0.27297193387158786 12:0.29950019223375624 15:0.08189158016147635 16:0.06382160707420223 17:0.08189158016147635 18:0.11476355247981546 19:0.14148404459823144 22:0.9286812764321415 25:0.007689350249903883 
1.0 1:0.39254133025759325 2:0.26547481737793155 3:0.9982698961937716 4:0.2908496732026144 5:0.18166089965397925 6:0.223760092272203 7:0.39254133025759325 8:0.26547481737793155 9:0.9982698961937716 10:0.2908496732026144 11:0.9825067281814687 12:0.223760092272203 13:0.1253364090734333 14:0.11476355247981546 15:0.1439830834294502 16:0.1439830834294502 17:0.1439830834294502 18:0.14129181084198386 20:0.09727028066128413 23:0.9969242599000384 25:0.007689350249903883 
1.0 2:0.14282968089196463 3:0.5190311418685121 4:0.9982698961937716 5:0.6005382545174933 6:0.4004229142637447 8:0.765282583621684 9:0.5190311418685121 10:0.9982698961937716 11:0.6005382545174933 12:0.4004229142637447 14:0.08189158016147635 15:0.11476355247981546 16:0.1439830834294502 17:0.11476355247981546 18:0.1253364090734333 19:0.5184544405997693 20:0.09015763168012303 22:0.43810073048827375 23:0.5530565167243368 25:0.007689350249903883 
1.0 2:0.030565167243367934 3:0.42964244521337946 4:0.9976931949250288 5:0.04844290657439446 8:0.20742022299115725 9:0.42964244521337946 10:0.9976931949250288 11:0.29315647827758556 14:0.1439830834294502 15:0.14129181084198386 16:0.1439830834294502 17:0.1439830834294502 20:0.05478662053056517 23:0.5207612456747405 25:0.007689350249903883 
1.0 2:0.029219530949634757 3:0.9061899269511726 8:0.20107650903498656 9:0.9061899269511726 14:0.11476355247981546 15:0.1253364090734333 19:0.9019607843137255 20:0.0459438677431757 22:0.5601691657054979 23:0.8087274125336409 25:0.007689350249903883 
1.0 1:0.02575932333717801 2:0.9809688581314879 3:0.18646674356016918 4:0.42964244521337946 5:0.20607458669742407 6:0.058823529411764705 7:0.02575932333717801 8:0.9809688581314879 9:0.18646674356016918 10:0.42964244521337946 11:0.20607458669742407 12:0.33948481353325644 13:0.12091503267973856 14:0.1253364090734333 15:0.1253364090734333 16:0.14129181084198386 17:0.1253364090734333 18:0.1439830834294502 20:0.13706266820453672 23:0.9263744713571703 25:0.007689350249903883 
1.0 1:0.5232602845059593 2:0.7798923490965013 3:0.394079200307574 4:0.42964244521337946 5:0.16282199154171473 6:0.00461361014994233 7:0.5734332948865821 8:0.7798923490965013 9:0.394079200307574 10:0.42964244521337946 11:0.8721645520953479 12:0.00461361014994233 13:0.06382160707420223 14:0.11476355247981546 15:0.1253364090734333 16:0.14129181084198386 17:0.1439830834294502 18:0.12091503267973856 19:0.3890811226451365 20:0.04805843906189927 22:0.5601691657054979 23:0.9953863898500577 25:0.007689350249903883 
1.0 1:0.5190311418685121 2:0.0044213763936947325 3:0.5232602845059593 4:0.4340638216070742 5:0.5232602845059593 6:0.15282583621683968 7:0.5190311418685121 8:0.0044213763936947325 9:0.5734332948865821 10:0.4340638216070742 11:0.5734332948865821 12:0.8237216455209535 13:0.11476355247981546 14:0.12091503267973856 15:0.06382160707420223 16:0.14129181084198386 17:0.06382160707420223 18:0.1439830834294502 20:0.10111495578623607 23:0.773356401384083 25:0.007689350249903883 
1.0 2:0.08169934640522876 3:0.20607458669742407 8:0.4888504421376394 9:0.20607458669742407 14:0.11476355247981546 15:0.1253364090734333 20:0.1061130334486736 23:0.9133025759323338 25:0.007689350249903883 
1.0 20:0.029027297193387157 23:0.8087274125336409 25:0.007689350249903883 
1.0 4:0.7124183006535948 5:0.9678969627066513 6:0.5820838139177239 10:0.7124183006535948 11:0.9678969627066513 12:0.5820838139177239 16:0.14129181084198386 17:0.11476355247981546 18:0.14129181084198386 20:0.16359092656670512 21:0.7026143790849673 23:0.7673971549404075 24:0.9286812764321415 25:0.007689350249903883 
1.0 1:0.382160707420223 2:0.004998077662437524 3:0.5232602845059593 4:0.9982698961937716 5:0.6209150326797386 6:0.19300269127258746 7:0.3813917723952326 8:0.004998077662437524 9:0.5734332948865821 10:0.9982698961937716 11:0.6209150326797386 12:0.19357939254133025 13:0.17704728950403692 14:0.12091503267973856 15:0.06382160707420223 16:0.1439830834294502 17:0.08189158016147635 18:0.17704728950403692 20:0.5734332948865821 23:0.4936562860438293 25:0.007689350249903883 
1.0 1:0.18646674356016918 2:0.3735101883890811 3:0.3833141099577086 4:0.18127643214148403 5:0.005190311418685121 7:0.18646674356016918 8:0.3737024221453287 9:0.3833141099577086 10:0.9819300269127259 11:0.005190311418685121 13:0.1253364090734333 14:0.11476355247981546 15:0.1253364090734333 16:0.1439830834294502 17:0.12091503267973856 20:0.08054594386774318 21:0.18031526336024606 23:0.9184928873510189 24:0.4936562860438293 25:0.007689350249903883 
1.0 4:0.635524798154556 5:0.34678969627066514 6:0.2895040369088812 10:0.635524798154556 11:0.34678969627066514 12:0.2895040369088812 16:0.1253364090734333 17:0.11476355247981546 18:0.08189158016147635 20:0.029988465974625143 21:0.6318723567858516 23:0.5051903114186851 24:0.43810073048827375 25:0.007689350249903883 
1.0 1:0.5678585159554018 2:0.8998462129950019 3:0.0044213763936947325 4:0.8685121107266436 5:0.5232602845059593 6:0.42810457516339867 7:0.5680507497116494 8:0.8996539792387543 9:0.0044213763936947325 10:0.8685121107266436 11:0.5734332948865821 12:0.42810457516339867 13:0.11476355247981546 14:0.17704728950403692 15:0.12091503267973856 16:0.17704728950403692 17:0.06382160707420223 18:0.11476355247981546 20:0.7525951557093425 21:0.8594771241830066 23:0.9615532487504805 24:0.773356401384083 25:0.007689350249903883 
1.0 4:0.6403306420607459 5:0.0044213763936947325 6:0.21376393694732795 10:0.6403306420607459 11:0.0044213763936947325 12:0.21376393694732795 16:0.0265282583621684 17:0.12091503267973856 18:0.0265282583621684 20:0.12898885044213765 21:0.6391772395232603 23:0.5661284121491734 24:0.6591695501730104 25:0.007689350249903883 
1.0 4:0.002306805074971165 5:0.18646674356016918 6:0.6632064590542099 10:0.0034602076124567475 11:0.18646674356016918 12:0.6632064590542099 16:0.12091503267973856 17:0.1253364090734333 18:0.11476355247981546 20:0.029988465974625143 23:0.5051903114186851 25:0.007689350249903883 
1.0 3:0.9992310649750096 4:0.9994232987312572 9:0.9992310649750096 10:0.9994232987312572 15:0.08189158016147635 16:0.1439830834294502 20:0.13706266820453672 23:0.33391003460207613 25:0.007689350249903883 
1.0 1:0.14109957708573626 2:0.9127258746635909 3:0.02575932333717801 4:0.9976931949250288 5:0.7402921953094963 6:0.249519415609381 7:0.7577854671280276 8:0.8494809688581315 9:0.02575932333717801 10:0.9976931949250288 11:0.7402921953094963 12:0.249519415609381 13:0.0265282583621684 14:0.11476355247981546 15:0.12091503267973856 16:0.08189158016147635 17:0.11476355247981546 18:0.0265282583621684 20:0.14148404459823144 23:0.9496347558631296 25:0.007689350249903883 
1.0 1:0.9538638985005767 2:0.9269511726259131 3:0.4813533256439831 4:0.005190311418685121 7:0.9559784698193002 8:0.9269511726259131 9:0.4813533256439831 10:0.005190311418685121 13:0.06382160707420223 14:0.08189158016147635 15:0.11476355247981546 16:0.12091503267973856 19:0.4755863129565552 20:0.7143406382160707 22:0.9569396386005382 23:0.9448289119569396 25:0.007689350249903883 
0.5935311028945288 1:0.42964244521337946 2:0.7445213379469435 3:0.394079200307574 4:0.35082660515186465 5:0.5597846981930027 6:0.5413302575932334 7:0.42964244521337946 8:0.7441368704344483 9:0.394079200307574 10:0.35082660515186465 11:0.5734332948865821 12:0.5413302575932334 13:0.14129181084198386 14:0.11476355247981546 15:0.1253364090734333 16:0.1253364090734333 17:0.06382160707420223 18:0.08189158016147635 19:0.3890811226451365 20:0.773356401384083 21:0.33391003460207613 22:0.5601691657054979 23:0.8860053825451749 24:0.6591695501730104 25:0.007689350249903883 
1.0 1:0.31853133410226836 2:0.18646674356016918 3:0.018646674356016916 4:0.39215686274509803 5:0.04709727028066128 6:0.31853133410226836 7:0.31853133410226836 8:0.18646674356016918 9:0.018646674356016916 10:0.39215686274509803 11:0.2902729719338716 12:0.31853133410226836 13:0.14129181084198386 14:0.1253364090734333 15:0.08189158016147635 16:0.1253364090734333 17:0.1439830834294502 18:0.14129181084198386 20:0.6068819684736639 21:0.3890811226451365 23:0.6318723567858516 24:0.43790849673202614 25:0.007689350249903883 26:0.0 
1.0 1:0.30699730872741254 2:0.6931949250288351 3:0.5601691657054979 4:0.004998077662437524 5:0.288158400615148 6:0.5601691657054979 7:0.3064206074586697 8:0.6931949250288351 9:0.5734332948865821 10:0.004998077662437524 11:0.2895040369088812 12:0.5734332948865821 13:0.17704728950403692 14:0.1253364090734333 15:0.06382160707420223 16:0.12091503267973856 17:0.08189158016147635 18:0.06382160707420223 20:0.932718185313341 23:0.9496347558631296 25:0.007689350249903883 
0.4359958844914568 1:0.09073433294886582 2:0.3154555940023068 3:0.3423683198769704 4:0.8492887351018839 5:0.7687427912341407 6:0.531526336024606 7:0.5734332948865821 8:0.3154555940023068 9:0.3423683198769704 10:0.8492887351018839 11:0.7689350249903883 12:0.531526336024606 13:0.06382160707420223 14:0.11476355247981546 15:0.08189158016147635 16:0.14129181084198386 17:0.17704728950403692 18:0.1253364090734333 19:0.33391003460207613 20:0.1061130334486736 22:0.5661284121491734 23:0.44502114571318724 25:0.007689350249903883 
1.0 4:0.35082660515186465 5:0.9423298731257209 6:0.9338715878508266 10:0.35082660515186465 11:0.9423298731257209 12:0.9338715878508266 16:0.1253364090734333 17:0.08189158016147635 18:0.11476355247981546 20:0.04805843906189927 21:0.33391003460207613 23:0.5520953479430988 24:0.6591695501730104 25:0.007689350249903883 
1.0 1:0.6403306420607459 2:0.4700115340253749 3:0.39254133025759325 4:0.5115340253748558 5:0.0044213763936947325 6:0.6395617070357554 7:0.6403306420607459 8:0.4700115340253749 9:0.39254133025759325 10:0.5115340253748558 11:0.0044213763936947325 12:0.6395617070357554 13:0.0265282583621684 14:0.17704728950403692 15:0.1253364090734333 16:0.08189158016147635 17:0.12091503267973856 18:0.14129181084198386 19:0.3890811226451365 20:0.932718185313341 21:0.5069204152249135 22:0.43810073048827375 23:0.44367550941945405 24:0.9286812764321415 25:0.007689350249903883 
1.0 1:0.9538638985005767 2:0.2879661668589004 3:0.47500961168781236 4:0.004998077662437524 5:0.6407151095732411 6:0.8235294117647058 7:0.9559784698193002 8:0.2879661668589004 9:0.47500961168781236 10:0.004998077662437524 11:0.6407151095732411 12:0.8235294117647058 13:0.06382160707420223 14:0.08189158016147635 15:0.11476355247981546 16:0.12091503267973856 17:0.1439830834294502 18:0.11476355247981546 19:0.46943483275663206 20:0.31276432141484045 22:0.8858131487889274 23:0.44367550941945405 25:0.007689350249903883 
1.0 1:0.018646674356016916 2:0.6139946174548251 3:0.3846597462514418 4:0.39215686274509803 5:0.04709727028066128 6:0.31853133410226836 7:0.018646674356016916 8:0.6141868512110726 9:0.3846597462514418 10:0.39215686274509803 11:0.2902729719338716 12:0.31853133410226836 13:0.08189158016147635 14:0.11476355247981546 15:0.1253364090734333 16:0.1253364090734333 17:0.1439830834294502 18:0.14129181084198386 19:0.3833141099577086 20:0.8860053825451749 21:0.3890811226451365 22:0.5601691657054979 23:0.6318723567858516 24:0.43790849673202614 25:0.007689350249903883 26:0.0 
1.0 1:0.19992310649750097 2:0.6361014994232987 3:0.9796232218377547 4:0.00461361014994233 5:0.42964244521337946 6:0.2233756247597078 7:0.19992310649750097 8:0.6361014994232987 9:0.9809688581314879 10:0.00461361014994233 11:0.42964244521337946 12:0.2233756247597078 13:0.11476355247981546 14:0.1253364090734333 15:0.11476355247981546 16:0.12091503267973856 17:0.14129181084198386 18:0.14129181084198386 19:0.9777008842752788 20:0.7131872356785851 22:0.629757785467128 23:0.9953863898500577 25:0.007689350249903883 
1.0 3:0.0993848519800077 4:0.08842752787389466 5:0.9982698961937716 6:0.6687812379853902 9:0.5734332948865821 10:0.5190311418685121 11:0.9982698961937716 12:0.6695501730103807 15:0.06382160707420223 16:0.11476355247981546 17:0.1439830834294502 18:0.08189158016147635 20:0.7143406382160707 21:0.08804306036139946 23:0.6389850057670127 24:0.43810073048827375 25:0.007689350249903883 
1.0 1:0.31853133410226836 2:0.5907343329488658 3:0.8492887351018839 4:0.29853902345251826 5:0.18646674356016918 6:0.7087658592848904 7:0.31853133410226836 8:0.5895809304113803 9:0.8492887351018839 10:0.29853902345251826 11:0.18646674356016918 12:0.7085736255286428 13:0.14129181084198386 14:0.17704728950403692 15:0.14129181084198386 16:0.17704728950403692 17:0.1253364090734333 18:0.11476355247981546 20:0.7525951557093425 21:0.29161860822760477 23:0.9615532487504805 24:0.773356401384083 25:0.007689350249903883 
0.7601677347482738 1:0.5190311418685121 2:0.868319876970396 3:0.6361014994232987 4:0.4004229142637447 5:0.17839292579777008 6:0.005190311418685121 7:0.5190311418685121 8:0.8685121107266436 9:0.6361014994232987 10:0.4004229142637447 11:0.9642445213379469 12:0.005190311418685121 13:0.11476355247981546 14:0.17704728950403692 15:0.1253364090734333 16:0.1253364090734333 17:0.1439830834294502 18:0.12091503267973856 19:0.6318723567858516 20:0.41926182237600923 22:0.5601691657054979 23:0.9946174548250672 25:0.007689350249903883 
1.0 1:0.42964244521337946 2:0.4876970396001538 3:0.35082660515186465 4:0.42964244521337946 5:0.7575932333717801 6:0.5232602845059593 7:0.42964244521337946 8:0.4876970396001538 9:0.35082660515186465 10:0.42964244521337946 11:0.7575932333717801 12:0.5734332948865821 13:0.14129181084198386 14:0.11476355247981546 15:0.1253364090734333 16:0.14129181084198386 17:0.14129181084198386 18:0.06382160707420223 19:0.33391003460207613 20:0.6462898885044214 22:0.6591695501730104 23:0.5601691657054979 25:0.007689350249903883 
1.0 1:0.7650903498654363 2:0.394079200307574 3:0.6478277585544021 4:0.0044213763936947325 5:0.5601691657054979 6:0.9313725490196079 7:0.7650903498654363 8:0.394079200307574 9:0.6485966935793925 10:0.0044213763936947325 11:0.5734332948865821 12:0.9313725490196079 13:0.14129181084198386 14:0.1253364090734333 15:0.08189158016147635 16:0.12091503267973856 17:0.06382160707420223 18:0.11476355247981546 19:0.6462898885044214 20:0.0459438677431757 22:0.9617454825067282 23:0.4573241061130334 25:0.007689350249903883 
1.0 1:0.1522491349480969 2:0.08631295655517109 3:0.4004229142637447 4:0.005190311418685121 7:0.8208381391772396 8:0.5126874279123415 9:0.4004229142637447 10:0.005190311418685121 13:0.08189158016147635 14:0.1439830834294502 15:0.1253364090734333 16:0.12091503267973856 20:0.1311034217608612 23:0.9959630911188004 25:0.007689350249903883 
1.0 3:0.10073048827374087 4:0.8669742406766628 5:0.28854286812764324 6:0.4340638216070742 9:0.5734332948865821 10:0.4500192233756248 11:0.2895040369088812 12:0.4340638216070742 15:0.06382160707420223 16:0.17704728950403692 17:0.08189158016147635 18:0.14129181084198386 20:0.7026143790849673 21:0.8594771241830066 23:0.5661284121491734 24:0.6391772395232603 25:0.007689350249903883 
1.0 4:0.21280276816608998 5:0.23125720876585928 6:0.42964244521337946 10:0.21280276816608998 11:0.23529411764705882 12:0.42964244521337946 16:0.11476355247981546 17:0.17704728950403692 18:0.14129181084198386 20:0.1311034217608612 21:0.20607458669742407 23:0.629757785467128 24:0.5818915801614764 25:0.007689350249903883 
1.0 3:0.13206459054209918 4:0.03825451749327182 5:0.4004229142637447 6:0.11130334486735871 9:0.7079969242599 10:0.2581699346405229 11:0.4004229142637447 12:0.6072664359861591 15:0.08189158016147635 16:0.1439830834294502 17:0.1253364090734333 18:0.1439830834294502 19:0.1311034217608612 20:0.5184544405997693 21:0.03787004998077662 22:0.5734332948865821 23:0.6459054209919262 24:0.9515570934256056 25:0.007689350249903883 
0.18111794933945558 2:0.1707035755478662 3:0.3833141099577086 4:0.42964244521337946 5:0.08285274894271434 6:0.9982698961937716 8:0.929834678969627 9:0.3833141099577086 10:0.42964244521337946 11:0.4915417147251057 12:0.9982698961937716 14:0.17704728950403692 15:0.1253364090734333 16:0.14129181084198386 17:0.1439830834294502 18:0.1439830834294502 20:0.032679738562091505 23:0.5601691657054979 25:0.007689350249903883 
0.19387966454923655 3:0.10073048827374087 4:0.8669742406766628 5:0.3492887351018839 6:0.6361014994232987 9:0.5734332948865821 10:0.4500192233756248 11:0.3489042675893887 12:0.6361014994232987 15:0.06382160707420223 16:0.17704728950403692 17:0.17704728950403692 18:0.1253364090734333 20:0.3246828143021915 21:0.8594771241830066 23:0.6318723567858516 24:0.6391772395232603 25:0.007689350249903883 
1.0 1:0.5232602845059593 2:0.6143790849673203 3:0.004998077662437524 4:0.004998077662437524 5:0.9538638985005767 6:0.6132256824298347 7:0.5734332948865821 8:0.6143790849673203 9:0.004998077662437524 10:0.004998077662437524 11:0.9559784698193002 12:0.6132256824298347 13:0.06382160707420223 14:0.14129181084198386 15:0.12091503267973856 16:0.12091503267973856 17:0.06382160707420223 18:0.11476355247981546 20:0.6903114186851211 23:0.8166089965397924 25:0.007689350249903883 
1.0 3:0.07535563244905806 4:0.8910034602076125 5:0.209919261822376 6:0.20492118415993849 9:0.44425221068819687 10:0.4500192233756248 11:0.209919261822376 12:0.20492118415993849 15:0.1439830834294502 16:0.17704728950403692 17:0.1253364090734333 18:0.11476355247981546 19:0.07497116493656286 20:0.497116493656286 21:0.8860053825451749 22:0.6166858900422915 23:0.5559400230680508 24:0.9263744713571703 25:0.007689350249903883 
1.0 2:0.1122645136485967 3:0.531526336024606 4:0.004998077662437524 5:0.29277201076509035 6:0.4340638216070742 8:0.6122645136485967 9:0.531526336024606 10:0.004998077662437524 11:0.29257977700884275 12:0.4340638216070742 14:0.1439830834294502 15:0.1253364090734333 16:0.12091503267973856 17:0.11476355247981546 18:0.14129181084198386 20:0.29161860822760477 23:0.9498269896193772 25:0.007689350249903883 
1.0 4:0.6403306420607459 5:0.7079969242599 6:0.42964244521337946 10:0.6403306420607459 11:0.7079969242599 12:0.42964244521337946 16:0.0265282583621684 17:0.08189158016147635 18:0.14129181084198386 20:0.04017685505574779 21:0.6391772395232603 23:0.6391772395232603 24:0.6591695501730104 25:0.007689350249903883 
1.0 1:0.004998077662437524 2:0.4083044982698962 3:0.531526336024606 4:0.005190311418685121 7:0.004998077662437524 8:0.4083044982698962 9:0.531526336024606 10:0.005190311418685121 13:0.12091503267973856 14:0.0265282583621684 15:0.1253364090734333 16:0.12091503267973856 20:0.932718185313341 23:0.9515570934256056 25:0.007689350249903883 
1.0 1:0.002114571318723568 2:0.42964244521337946 3:0.8427527873894656 4:0.005190311418685121 7:0.002114571318723568 8:0.42964244521337946 9:0.8427527873894656 10:0.005190311418685121 13:0.12091503267973856 14:0.14129181084198386 15:0.1253364090734333 16:0.12091503267973856 19:0.8360246059207997 20:0.7022299115724722 22:0.9959630911188004 23:0.6591695501730104 25:0.007689350249903883 
1.0 1:0.3354479046520569 2:0.5601691657054979 3:0.8492887351018839 4:0.3617839292579777 5:0.635524798154556 6:0.801038062283737 7:0.3354479046520569 8:0.5601691657054979 9:0.8492887351018839 10:0.3617839292579777 11:0.635524798154556 12:0.8018069973087274 13:0.11476355247981546 14:0.14129181084198386 15:0.14129181084198386 16:0.17704728950403692 17:0.1253364090734333 18:0.17704728950403692 20:0.7525951557093425 21:0.33391003460207613 23:0.9615532487504805 24:0.773356401384083 25:0.007689350249903883 
1.0 1:0.6853133410226836 2:0.4004229142637447 3:0.05363321799307959 4:0.9329104190695886 5:0.5232602845059593 6:0.05594002306805075 7:0.6853133410226836 8:0.4004229142637447 9:0.31833910034602075 10:0.9329104190695886 11:0.5734332948865821 12:0.32968089196462896 13:0.11476355247981546 14:0.1253364090734333 15:0.1439830834294502 16:0.1253364090734333 17:0.06382160707420223 18:0.1439830834294502 19:0.05324875048058439 20:0.10073048827374087 21:0.932718185313341 22:0.6459054209919262 23:0.9515570934256056 24:0.7673971549404075 25:0.007689350249903883 
1.0 4:0.6368704344482892 5:0.004998077662437524 6:0.47923875432525953 10:0.6368704344482892 11:0.004998077662437524 12:0.47923875432525953 16:0.11476355247981546 17:0.12091503267973856 18:0.0265282583621684 20:0.17550941945405613 21:0.6318723567858516 23:0.33391003460207613 24:0.4430988081507113 25:0.007689350249903883 
1.0 1:0.12918108419838523 2:0.31853133410226836 3:0.009034986543637063 4:0.4004229142637447 5:0.9736639753940792 6:0.3246828143021915 7:0.6906958861976163 8:0.31853133410226836 9:0.009034986543637063 10:0.4004229142637447 11:0.9736639753940792 12:0.3246828143021915 13:0.11476355247981546 14:0.14129181084198386 15:0.08189158016147635 16:0.1253364090734333 17:0.11476355247981546 18:0.14129181084198386 20:0.28604382929642447 23:0.7673971549404075 25:0.007689350249903883 
1.0 1:0.49673202614379086 2:0.08400615148019992 3:0.42964244521337946 4:0.8669742406766628 5:0.699923106497501 6:0.8808150711264898 7:0.49653979238754326 8:0.49750096116878123 9:0.42964244521337946 10:0.4500192233756248 11:0.698961937716263 12:0.8810073048827374 13:0.11476355247981546 14:0.1439830834294502 15:0.14129181084198386 16:0.17704728950403692 17:0.11476355247981546 18:0.08189158016147635 20:0.029988465974625143 21:0.8594771241830066 23:0.8091118800461361 24:0.6391772395232603 25:0.007689350249903883 
1.0 1:0.671280276816609 2:0.20972702806612842 3:0.0036524413687043446 4:0.005190311418685121 7:0.671280276816609 8:0.20972702806612842 9:0.0036524413687043446 10:0.005190311418685121 13:0.0265282583621684 14:0.1253364090734333 15:0.14129181084198386 16:0.12091503267973856 20:0.09496347558631296 23:0.8360246059207997 25:0.007689350249903883 
1.0 1:0.4284890426758939 2:0.68800461361015 3:0.3844675124951942 4:0.005190311418685121 7:0.4284890426758939 8:0.6881968473663975 9:0.3844675124951942 10:0.005190311418685121 13:0.08189158016147635 14:0.11476355247981546 15:0.1253364090734333 16:0.12091503267973856 19:0.3833141099577086 20:0.12149173394848135 22:0.5597846981930027 23:0.967512495194156 25:0.007689350249903883 
1.0 1:0.0788158400615148 2:0.6501345636293733 3:0.4004229142637447 4:0.0036524413687043446 7:0.4657823913879277 8:0.6501345636293733 9:0.4004229142637447 10:0.0036524413687043446 13:0.08189158016147635 14:0.11476355247981546 15:0.1253364090734333 16:0.14129181084198386 20:0.932718185313341 23:0.9133025759323338 25:0.007689350249903883 
1.0 4:0.8621683967704729 5:0.531526336024606 6:0.7654748173779315 10:0.8617839292579778 11:0.531526336024606 12:0.7654748173779315 16:0.17704728950403692 17:0.1253364090734333 18:0.08189158016147635 20:0.02748942714340638 21:0.8594771241830066 23:0.6166858900422915 24:0.9286812764321415 25:0.007689350249903883 
1.0 2:0.09842368319876971 3:0.5190311418685121 4:0.9538638985005767 5:0.019992310649750097 6:0.8929257977700884 8:0.5734332948865821 9:0.5190311418685121 10:0.9559784698193002 11:0.019992310649750097 12:0.8927335640138409 14:0.06382160707420223 15:0.11476355247981546 16:0.06382160707420223 17:0.08189158016147635 18:0.11476355247981546 19:0.5184544405997693 22:0.43810073048827375 25:0.007689350249903883 
1.0 1:0.6209150326797386 2:0.3073817762399077 3:0.004998077662437524 4:0.00461361014994233 5:0.005190311418685121 7:0.6209150326797386 8:0.3073817762399077 9:0.004998077662437524 10:0.00461361014994233 11:0.005190311418685121 13:0.08189158016147635 14:0.11476355247981546 15:0.12091503267973856 16:0.12091503267973856 17:0.12091503267973856 20:0.6903114186851211 23:0.8166089965397924 25:0.007689350249903883 
1.0 1:0.7658592848904268 2:0.5190311418685121 3:0.38389081122645136 4:0.20607458669742407 5:0.01768550557477893 6:0.4011918492887351 7:0.7658592848904268 8:0.5190311418685121 9:0.38389081122645136 10:0.20607458669742407 11:0.01768550557477893 12:0.4011918492887351 13:0.08189158016147635 14:0.11476355247981546 15:0.1253364090734333 16:0.1253364090734333 17:0.11476355247981546 18:0.11476355247981546 19:0.3833141099577086 20:0.01710880430603614 22:0.20607458669742407 23:0.773356401384083 25:0.007689350249903883 
1.0 1:0.6593617839292579 2:0.0036524413687043446 3:0.39254133025759325 4:0.021337946943483274 5:0.4340638216070742 6:0.9996155324875048 7:0.6593617839292579 8:0.0036524413687043446 9:0.39254133025759325 10:0.021337946943483274 11:0.4340638216070742 12:0.9996155324875048 13:0.11476355247981546 14:0.14129181084198386 15:0.1253364090734333 16:0.11476355247981546 17:0.14129181084198386 18:0.1439830834294502 19:0.3890811226451365 20:0.9133025759323338 21:0.02114571318723568 22:0.43810073048827375 23:0.0019223375624759708 24:0.007881584006151481 25:0.007689350249903883 
1.0 4:0.005190311418685121 10:0.005190311418685121 16:0.12091503267973856 20:0.057477893118031524 23:0.6166858900422915 25:0.007689350249903883 
1.0 1:0.42964244521337946 2:0.5926566705113417 3:0.004998077662437524 4:0.340638216070742 5:0.6403306420607459 6:0.44386774317570166 7:0.42964244521337946 8:0.5926566705113417 9:0.004998077662437524 10:0.340638216070742 11:0.6403306420607459 12:0.4500192233756248 13:0.14129181084198386 14:0.1439830834294502 15:0.12091503267973856 16:0.14129181084198386 17:0.0265282583621684 18:0.17704728950403692 20:0.33391003460207613 21:0.33391003460207613 23:0.9127258746635909 24:0.5993848519800077 25:0.007689350249903883 
1.0 1:0.8929257977700884 2:0.407920030757401 3:0.31853133410226836 4:0.9538638985005767 5:0.018646674356016916 6:0.8929257977700884 7:0.8927335640138409 8:0.4077277970011534 9:0.31853133410226836 10:0.9559784698193002 11:0.018646674356016916 12:0.8927335640138409 13:0.11476355247981546 14:0.17704728950403692 15:0.14129181084198386 16:0.06382160707420223 17:0.08189158016147635 18:0.11476355247981546 19:0.31814686658977315 22:0.5174932718185313 25:0.007689350249903883 
1.0 4:0.531526336024606 5:0.29700115340253747 6:0.35082660515186465 10:0.531526336024606 11:0.29700115340253747 12:0.35082660515186465 16:0.1253364090734333 17:0.11476355247981546 18:0.1253364090734333 20:0.1111111111111111 23:0.2358708189158016 25:0.007689350249903883 
1.0 4:0.8427527873894656 5:0.513840830449827 6:0.7387543252595156 10:0.8427527873894656 11:0.5140330642060746 12:0.738562091503268 16:0.1253364090734333 17:0.08189158016147635 18:0.11476355247981546 20:0.029988465974625143 21:0.8360246059207997 23:0.5051903114186851 24:0.9959630911188004 25:0.007689350249903883 
1.0 2:0.5601691657054979 3:0.6422529796232218 4:0.8402537485582469 5:0.4611687812379854 8:0.5734332948865821 9:0.6428296808919647 10:0.8402537485582469 11:0.4615532487504806 14:0.06382160707420223 15:0.08189158016147635 16:0.0265282583621684 17:0.08189158016147635 19:0.6391772395232603 20:0.5734332948865821 21:0.8360246059207997 22:0.7673971549404075 23:0.9286812764321415 24:0.9184928873510189 25:0.007689350249903883 
1.0 1:0.7129950019223376 2:0.4334871203383314 3:0.6361014994232987 4:0.004998077662437524 5:0.7695117262591311 6:0.531526336024606 7:0.7122260668973471 8:0.4338715878508266 9:0.6361014994232987 10:0.004998077662437524 11:0.7695117262591311 12:0.531526336024606 13:0.08189158016147635 14:0.08189158016147635 15:0.1253364090734333 16:0.12091503267973856 17:0.08189158016147635 18:0.1253364090734333 19:0.6318723567858516 20:0.9969242599000384 22:0.5601691657054979 23:0.5530565167243368 25:0.007689350249903883 
1.0 1:0.8362168396770473 2:0.5661284121491734 3:0.33083429450211455 4:0.8500576701268743 5:0.9538638985005767 6:0.7145328719723183 7:0.8362168396770473 8:0.5734332948865821 9:0.33083429450211455 10:0.4500192233756248 11:0.9559784698193002 12:0.7145328719723183 13:0.14129181084198386 14:0.06382160707420223 15:0.1439830834294502 16:0.17704728950403692 17:0.06382160707420223 18:0.0265282583621684 19:0.3304498269896194 20:0.8091118800461361 21:0.8492887351018839 22:0.5211457131872357 23:0.6264898116109189 24:0.6391772395232603 25:0.007689350249903883 
1.0 1:0.26720492118415995 2:0.18646674356016918 3:0.7645136485966936 4:0.004998077662437524 5:0.42964244521337946 6:0.6987697039600154 7:0.26739715494040756 8:0.18646674356016918 9:0.7645136485966936 10:0.004998077662437524 11:0.42964244521337946 12:0.6987697039600154 13:0.11476355247981546 14:0.1253364090734333 15:0.08189158016147635 16:0.12091503267973856 17:0.14129181084198386 18:0.0265282583621684 19:0.7589388696655133 20:0.6572472126105344 22:0.5601691657054979 23:0.29161860822760477 25:0.007689350249903883 
1.0 1:0.18646674356016918 2:0.7087658592848904 3:0.38389081122645136 4:0.5820838139177239 5:0.18646674356016918 6:0.6395617070357554 7:0.18646674356016918 8:0.7085736255286428 9:0.38389081122645136 10:0.5820838139177239 11:0.18646674356016918 12:0.6395617070357554 13:0.1253364090734333 14:0.11476355247981546 15:0.1253364090734333 16:0.14129181084198386 17:0.1253364090734333 18:0.14129181084198386 19:0.3833141099577086 20:0.773356401384083 22:0.20607458669742407 23:0.37850826605151866 25:0.007689350249903883 
1.0 1:0.7010765090349865 2:0.340638216070742 3:0.635524798154556 4:0.004998077662437524 5:0.7003075740099961 6:0.18646674356016918 7:0.7006920415224913 8:0.340638216070742 9:0.635524798154556 10:0.004998077662437524 11:0.7003075740099961 12:0.18646674356016918 13:0.11476355247981546 14:0.0265282583621684 15:0.1253364090734333 16:0.12091503267973856 17:0.11476355247981546 18:0.1253364090734333 19:0.6318723567858516 20:0.5820838139177239 22:0.43810073048827375 23:0.8594771241830066 25:0.007689350249903883 
1.0 4:0.6580161476355249 5:0.31853133410226836 6:0.49480968858131485 10:0.6580161476355249 11:0.31853133410226836 12:0.49480968858131485 16:0.1253364090734333 17:0.08189158016147635 18:0.08189158016147635 20:0.12898885044213765 21:0.6572472126105344 23:0.5661284121491734 24:0.773356401384083 25:0.007689350249903883 
0.6643858991306827 1:0.92079969242599 2:0.4004229142637447 3:0.954248366013072 4:0.6495578623606305 5:0.2101114955786236 6:0.0592079969242599 7:0.92079969242599 8:0.4004229142637447 9:0.9559784698193002 10:0.6495578623606305 11:0.2101114955786236 12:0.3429450211457132 13:0.11476355247981546 14:0.1253364090734333 15:0.06382160707420223 16:0.14129181084198386 17:0.1253364090734333 18:0.1439830834294502 19:0.9538638985005767 20:0.7808535178777394 22:0.629757785467128 23:0.5520953479430988 25:0.007689350249903883 
1.0 1:0.5190311418685121 2:0.9982698961937716 3:0.3473663975394079 4:0.004998077662437524 5:0.18646674356016918 6:0.6851211072664359 7:0.5190311418685121 8:0.9982698961937716 9:0.3473663975394079 10:0.004998077662437524 11:0.18646674356016918 12:0.6851211072664359 13:0.11476355247981546 14:0.08189158016147635 15:0.0265282583621684 16:0.12091503267973856 17:0.1253364090734333 18:0.17704728950403692 19:0.33391003460207613 20:0.43041138023836983 22:0.9184928873510189 23:0.5813148788927336 25:0.007689350249903883 
1.0 4:0.694156093810073 5:0.3246828143021915 6:0.8669742406766628 10:0.694156093810073 11:0.3246828143021915 12:0.4500192233756248 16:0.08189158016147635 17:0.0265282583621684 18:0.17704728950403692 20:0.057477893118031524 21:0.6903114186851211 23:0.41926182237600923 24:0.5201845444059977 25:0.007689350249903883 
1.0 1:0.4284890426758939 2:0.68800461361015 3:0.38389081122645136 4:0.42964244521337946 5:0.38389081122645136 6:0.3154555940023068 7:0.4284890426758939 8:0.6881968473663975 9:0.38389081122645136 10:0.42964244521337946 11:0.38389081122645136 12:0.3154555940023068 13:0.08189158016147635 14:0.11476355247981546 15:0.1253364090734333 16:0.14129181084198386 17:0.1253364090734333 18:0.11476355247981546 19:0.3833141099577086 20:0.041330257593233374 22:0.20607458669742407 23:0.773356401384083 25:0.007689350249903883 
1.0 1:0.68800461361015 2:0.38389081122645136 3:0.6728181468665898 4:0.42964244521337946 5:0.38427527873894657 6:0.0036524413687043446 7:0.6881968473663975 8:0.38389081122645136 9:0.6728181468665898 10:0.42964244521337946 11:0.38427527873894657 12:0.0036524413687043446 13:0.11476355247981546 14:0.1253364090734333 15:0.11476355247981546 16:0.14129181084198386 17:0.1253364090734333 18:0.14129181084198386 19:0.6720492118415994 20:0.12648981161091888 22:0.8360246059207997 23:0.6391772395232603 25:0.007689350249903883 
1.0 1:0.31853133410226836 2:0.4211841599384852 3:0.5601691657054979 4:0.42964244521337946 5:0.5661284121491734 6:0.47673971549404076 7:0.31853133410226836 8:0.4213763936947328 9:0.5734332948865821 10:0.42964244521337946 11:0.5734332948865821 12:0.47654748173779315 13:0.14129181084198386 14:0.17704728950403692 15:0.06382160707420223 16:0.14129181084198386 17:0.06382160707420223 18:0.11476355247981546 20:0.0459438677431757 23:0.8087274125336409 25:0.007689350249903883 
1.0 1:0.7954632833525567 2:0.6931949250288351 3:0.9786620530565168 4:0.37235678585159554 5:0.340638216070742 6:0.5993848519800077 7:0.7952710495963091 8:0.6931949250288351 9:0.9784698193002691 10:0.37235678585159554 11:0.340638216070742 12:0.5993848519800077 13:0.17704728950403692 14:0.1253364090734333 15:0.11476355247981546 16:0.11476355247981546 17:0.0265282583621684 18:0.14129181084198386 19:0.9777008842752788 20:0.5734332948865821 21:0.33391003460207613 22:0.7808535178777394 23:0.6714725105728566 24:0.8860053825451749 25:0.007689350249903883 
1.0 1:0.340638216070742 2:0.3833141099577086 3:0.8567858515955402 4:0.005190311418685121 7:0.340638216070742 8:0.3833141099577086 9:0.8567858515955402 10:0.005190311418685121 13:0.0265282583621684 14:0.1253364090734333 15:0.11476355247981546 16:0.12091503267973856 19:0.8492887351018839 20:0.9926951172625913 22:0.9286812764321415 23:0.4302191464821223 25:0.007689350249903883 
1.0 1:0.89119569396386 2:0.42964244521337946 3:0.2114571318723568 4:0.0044213763936947325 5:0.27124183006535946 6:0.5013456362937332 7:0.89119569396386 8:0.42964244521337946 9:0.2114571318723568 10:0.0044213763936947325 11:0.27162629757785467 12:0.5013456362937332 13:0.11476355247981546 14:0.14129181084198386 15:0.1253364090734333 16:0.12091503267973856 17:0.17704728950403692 18:0.17704728950403692 19:0.20607458669742407 20:0.16359092656670512 22:0.5734332948865821 23:0.5592079969242599 25:0.007689350249903883 
1.0 1:0.20530565167243367 2:0.7087658592848904 3:0.39254133025759325 4:0.42964244521337946 5:0.15840061514801998 6:0.004998077662437524 7:0.20530565167243367 8:0.7085736255286428 9:0.39254133025759325 10:0.42964244521337946 11:0.8537101114955786 12:0.004998077662437524 13:0.1253364090734333 14:0.11476355247981546 15:0.1253364090734333 16:0.14129181084198386 17:0.1439830834294502 18:0.12091503267973856 19:0.3890811226451365 20:0.1512879661668589 22:0.43810073048827375 23:0.6318723567858516 25:0.007689350249903883 
1.0 1:0.8492887351018839 2:0.9425221068819685 3:0.531526336024606 4:0.004998077662437524 5:0.9778931180315263 6:0.8948481353325644 7:0.8492887351018839 8:0.9430988081507112 9:0.531526336024606 10:0.004998077662437524 11:0.9778931180315263 12:0.895040369088812 13:0.14129181084198386 14:0.17704728950403692 15:0.1253364090734333 16:0.12091503267973856 17:0.11476355247981546 18:0.08189158016147635 20:0.9777008842752788 23:0.9286812764321415 25:0.007689350249903883 
1.0 1:0.8360246059207997 2:0.8908112264513649 3:0.209919261822376 4:0.9982698961937716 5:0.9138792772010765 6:0.2747020376778162 7:0.8360246059207997 8:0.4500192233756248 9:0.209919261822376 10:0.9982698961937716 11:0.9138792772010765 12:0.2747020376778162 13:0.14129181084198386 14:0.17704728950403692 15:0.1253364090734333 16:0.1439830834294502 17:0.0265282583621684 18:0.08189158016147635 19:0.20607458669742407 20:0.03633217993079585 22:0.5597846981930027 23:0.5530565167243368 25:0.007689350249903883 
1.0 1:0.9329104190695886 2:0.5203767781622453 3:0.9653979238754326 4:0.004998077662437524 5:0.6939638600538255 6:0.7650903498654363 7:0.9329104190695886 8:0.5734332948865821 9:0.967128027681661 10:0.004998077662437524 11:0.6937716262975778 12:0.7650903498654363 13:0.1253364090734333 14:0.06382160707420223 15:0.08189158016147635 16:0.12091503267973856 17:0.1439830834294502 18:0.14129181084198386 19:0.9617454825067282 20:0.6655132641291811 22:0.7808535178777394 23:0.629757785467128 25:0.007689350249903883 
1.0 1:0.4340638216070742 2:0.2241445597846982 3:0.6361014994232987 4:0.6361014994232987 5:0.8954248366013072 6:0.7422145328719724 7:0.4340638216070742 8:0.2241445597846982 9:0.6361014994232987 10:0.6361014994232987 11:0.8954248366013072 12:0.7422145328719724 13:0.14129181084198386 14:0.17704728950403692 15:0.1253364090734333 16:0.1253364090734333 17:0.11476355247981546 18:0.11476355247981546 19:0.6318723567858516 20:0.28123798539023454 21:0.6318723567858516 22:0.5601691657054979 23:0.5222991157247212 24:0.5601691657054979 25:0.007689350249903883 
1.0 1:0.3833141099577086 2:0.020376778162245292 3:0.5073048827374087 4:0.26105344098423683 5:0.6014994232987313 6:0.3246828143021915 7:0.3833141099577086 8:0.020376778162245292 9:0.5080738177623991 10:0.26105344098423683 11:0.6014994232987313 12:0.3246828143021915 13:0.1253364090734333 14:0.08189158016147635 15:0.11476355247981546 16:0.08189158016147635 17:0.14129181084198386 18:0.14129181084198386 19:0.5069204152249135 20:0.7808535178777394 21:0.2575932333717801 22:0.4004229142637447 23:0.44367550941945405 24:0.9133025759323338 25:0.007689350249903883 
1.0 1:0.42964244521337946 2:0.5943867743175701 3:0.6005382545174933 4:0.19550173010380623 5:0.20530565167243367 6:0.8456362937331795 7:0.42964244521337946 8:0.5943867743175701 9:0.6005382545174933 10:0.19550173010380623 11:0.20530565167243367 12:0.8460207612456747 13:0.14129181084198386 14:0.11476355247981546 15:0.0265282583621684 16:0.11476355247981546 17:0.1253364090734333 18:0.11476355247981546 19:0.5993848519800077 20:0.0993848519800077 21:0.1903114186851211 22:0.5520953479430988 23:0.5695886197616301 24:0.9502114571318724 25:0.007689350249903883 
1.0 1:0.09073433294886582 2:0.29950019223375624 3:0.12725874663590928 4:0.9538638985005767 5:0.5797770088427527 6:0.5215301806997309 7:0.5734332948865821 8:0.29950019223375624 9:0.6780084582852749 10:0.9559784698193002 11:0.5797770088427527 12:0.5215301806997309 13:0.06382160707420223 14:0.11476355247981546 15:0.08189158016147635 16:0.06382160707420223 17:0.11476355247981546 18:0.11476355247981546 19:0.12648981161091888 22:0.8594771241830066 25:0.007689350249903883 
0.25045196660754554 1:0.6697424067666282 2:0.5203767781622453 3:0.49673202614379086 4:0.42964244521337946 5:0.031141868512110725 6:0.8669742406766628 7:0.6697424067666282 8:0.5734332948865821 9:0.49653979238754326 10:0.42964244521337946 11:0.20915032679738563 12:0.4500192233756248 13:0.11476355247981546 14:0.06382160707420223 15:0.11476355247981546 16:0.14129181084198386 17:0.1439830834294502 18:0.17704728950403692 19:0.4936562860438293 20:0.08381391772395233 22:0.7808535178777394 23:0.3833141099577086 25:0.007689350249903883 
1.0 1:0.9084967320261438 2:0.3462129950019223 3:0.3833141099577086 4:0.004998077662437524 5:0.9992310649750096 6:0.8456362937331795 7:0.9084967320261438 8:0.34659746251441753 9:0.3833141099577086 10:0.004998077662437524 11:0.9992310649750096 12:0.8460207612456747 13:0.11476355247981546 14:0.08189158016147635 15:0.1253364090734333 16:0.12091503267973856 17:0.1439830834294502 18:0.11476355247981546 20:0.5695886197616301 23:0.6384083044982699 25:0.007689350249903883 
1.0 1:0.4004229142637447 2:0.040945790080738176 3:0.004998077662437524 4:0.7650903498654363 5:0.73279507881584 6:0.3844675124951942 7:0.4004229142637447 8:0.26855055747789314 9:0.004998077662437524 10:0.7650903498654363 11:0.7324106113033448 12:0.3844675124951942 13:0.1253364090734333 14:0.1439830834294502 15:0.12091503267973856 16:0.14129181084198386 17:0.17704728950403692 18:0.1253364090734333 20:0.6903114186851211 21:0.7589388696655133 23:0.51999231064975 24:0.5734332948865821 25:0.007689350249903883 
-1.0 4:0.31853133410226836 5:0.29430988081507115 10:0.31853133410226836 11:0.29430988081507115 16:0.08189158016147635 17:0.11476355247981546 20:0.04017685505574779 21:0.31814686658977315 23:0.629757785467128 24:0.5174932718185313 25:0.007689350249903883 
-1.0 1:0.1249519415609381 2:0.6931949250288351 3:0.9838523644752019 4:0.42964244521337946 5:0.17973856209150327 7:0.6695501730103807 8:0.6931949250288351 9:0.9838523644752019 10:0.42964244521337946 11:0.9717416378316033 13:0.08189158016147635 14:0.1253364090734333 15:0.17704728950403692 16:0.14129181084198386 17:0.1439830834294502 19:0.9777008842752788 20:0.12648981161091888 22:0.773356401384083 23:0.9617454825067282 25:0.007689350249903883 26:0.2631578947368421 
-1.0 1:0.9838523644752019 2:0.6580161476355249 3:0.31853133410226836 4:0.2233756247597078 5:0.7645136485966936 6:0.6966551326412919 7:0.9838523644752019 8:0.6580161476355249 9:0.31853133410226836 10:0.2233756247597078 11:0.7645136485966936 12:0.6966551326412919 13:0.17704728950403692 14:0.1253364090734333 15:0.08189158016147635 16:0.14129181084198386 17:0.14129181084198386 18:0.17704728950403692 19:0.31814686658977315 20:0.12648981161091888 21:0.222798923490965 22:0.5174932718185313 23:0.9617454825067282 24:0.5174932718185313 25:0.007689350249903883 26:0.2631578947368421 
-0.5652084871951656 1:0.9538638985005767 2:0.9788542868127643 3:0.18646674356016918 4:0.4340638216070742 5:0.18646674356016918 6:0.17973856209150327 7:0.9559784698193002 8:0.9788542868127643 9:0.18646674356016918 10:0.4340638216070742 11:0.18646674356016918 12:0.9717416378316033 13:0.06382160707420223 14:0.11476355247981546 15:0.1253364090734333 16:0.14129181084198386 17:0.1253364090734333 18:0.1439830834294502 20:0.12648981161091888 23:0.9617454825067282 25:0.007689350249903883 26:0.2631578947368421 
-1.0 4:0.9982698961937716 5:0.954248366013072 6:0.27393310265282583 10:0.9982698961937716 11:0.9559784698193002 12:0.27393310265282583 16:0.1439830834294502 17:0.06382160707420223 18:0.08189158016147635 20:0.07112648981161092 23:0.20530565167243367 25:0.007689350249903883 26:0.02631578947368421 
-1.0 4:0.9628988850442137 5:0.275278738946559 6:0.9538638985005767 10:0.9630911188004614 11:0.275278738946559 12:0.9559784698193002 16:0.17704728950403692 17:0.0265282583621684 18:0.06382160707420223 20:0.07112648981161092 21:0.9617454825067282 23:0.20530565167243367 24:0.5661284121491734 25:0.007689350249903883 26:0.02631578947368421 
-1.0 3:0.0265282583621684 4:0.3246828143021915 5:0.8492887351018839 6:0.6276432141484044 9:0.18646674356016918 10:0.3246828143021915 11:0.8492887351018839 12:0.6278354479046521 15:0.1253364090734333 16:0.14129181084198386 17:0.14129181084198386 18:0.17704728950403692 20:0.07112648981161092 23:0.20530565167243367 25:0.007689350249903883 26:0.02631578947368421 
-1.0 1:0.052479815455594 2:0.394079200307574 3:0.27393310265282583 4:0.005190311418685121 7:0.3154555940023068 8:0.394079200307574 9:0.27393310265282583 10:0.005190311418685121 13:0.11476355247981546 14:0.1253364090734333 15:0.08189158016147635 16:0.12091503267973856 19:0.2722029988465975 20:0.14744329104190695 22:0.5820838139177239 23:0.5820838139177239 25:0.007689350249903883 
-1.0 4:0.7793156478277585 5:0.3506343713956171 6:0.954248366013072 10:0.7795078815840062 11:0.3506343713956171 12:0.9559784698193002 16:0.17704728950403692 17:0.0265282583621684 18:0.06382160707420223 20:0.1774317570165321 21:0.773356401384083 23:0.44367550941945405 24:0.9133025759323338 25:0.007689350249903883 26:0.3157894736842105 
-1.0 1:0.9617454825067282 2:0.6931949250288351 3:0.9838523644752019 4:0.42964244521337946 5:0.3246828143021915 6:0.8492887351018839 7:0.9617454825067282 8:0.6931949250288351 9:0.9838523644752019 10:0.42964244521337946 11:0.3246828143021915 12:0.8492887351018839 13:0.17704728950403692 14:0.1253364090734333 15:0.17704728950403692 16:0.14129181084198386 17:0.14129181084198386 18:0.14129181084198386 19:0.9777008842752788 20:0.03421760861207228 22:0.773356401384083 23:0.9969242599000384 25:0.007689350249903883 26:0.5526315789473685 
-1.0 1:0.46655132641291813 2:0.2101114955786236 3:0.4017685505574779 4:0.004998077662437524 5:0.8427527873894656 6:0.7195309496347558 7:0.4667435601691657 8:0.2101114955786236 9:0.4017685505574779 10:0.004998077662437524 11:0.8427527873894656 12:0.7195309496347558 13:0.17704728950403692 14:0.1253364090734333 15:0.08189158016147635 16:0.12091503267973856 17:0.1253364090734333 18:0.17704728950403692 19:0.4004229142637447 20:0.03421760861207228 22:0.7673971549404075 23:0.9969242599000384 25:0.007689350249903883 26:0.5526315789473685 
-1.0 1:0.954248366013072 2:0.3291041906958862 3:0.340638216070742 4:0.005190311418685121 7:0.9559784698193002 8:0.3285274894271434 9:0.340638216070742 10:0.005190311418685121 13:0.06382160707420223 14:0.11476355247981546 15:0.0265282583621684 16:0.12091503267973856 19:0.33391003460207613 20:0.04017685505574779 22:0.5993848519800077 23:0.629757785467128 25:0.007689350249903883 
-1.0 1:0.47635524798154555 2:0.2101114955786236 3:0.002306805074971165 4:0.002306805074971165 5:0.4004229142637447 6:0.07151095732410612 7:0.47635524798154555 8:0.2101114955786236 9:0.0034602076124567475 10:0.0034602076124567475 11:0.4004229142637447 12:0.4279123414071511 13:0.11476355247981546 14:0.1253364090734333 15:0.12091503267973856 16:0.12091503267973856 17:0.1253364090734333 18:0.1439830834294502 20:0.12648981161091888 23:0.5820838139177239 25:0.007689350249903883 
-1.0 1:0.9798154555940023 2:0.35082660515186465 3:0.5601691657054979 4:0.005190311418685121 7:0.9798154555940023 8:0.35082660515186465 9:0.5734332948865821 10:0.005190311418685121 13:0.11476355247981546 14:0.1253364090734333 15:0.06382160707420223 16:0.12091503267973856 20:0.2639369473279508 23:0.9569396386005382 25:0.007689350249903883 
-1.0 1:0.39119569396386006 2:0.21626297577854672 3:0.18646674356016918 7:0.39119569396386006 8:0.21626297577854672 9:0.18646674356016918 13:0.1253364090734333 14:0.14129181084198386 15:0.1253364090734333 20:0.8492887351018839 23:0.5207612456747405 25:0.007689350249903883 
-0.6848911537786344 1:0.09842368319876971 2:0.20703575547866204 3:0.9982698961937716 4:0.004998077662437524 5:0.35082660515186465 6:0.5094194540561322 7:0.5734332948865821 8:0.20626682045367167 9:0.9982698961937716 10:0.004998077662437524 11:0.35082660515186465 12:0.5090349865436371 13:0.06382160707420223 14:0.17704728950403692 15:0.1439830834294502 16:0.12091503267973856 17:0.1253364090734333 18:0.08189158016147635 20:0.6166858900422915 23:0.6166858900422915 25:0.007689350249903883 
-0.36354036847273685 3:0.0718954248366013 4:0.5818915801614764 5:0.5215301806997309 6:0.6931949250288351 9:0.42964244521337946 10:0.5818915801614764 11:0.5215301806997309 12:0.6931949250288351 15:0.14129181084198386 16:0.17704728950403692 17:0.11476355247981546 18:0.1253364090734333 25:0.007689350249903883 
-1.0 4:0.46943483275663206 5:0.42964244521337946 6:0.6797385620915033 10:0.46943483275663206 11:0.42964244521337946 12:0.6797385620915033 16:0.1439830834294502 17:0.14129181084198386 18:0.11476355247981546 20:0.18473663975394078 23:0.0011534025374855825 25:0.007689350249903883 26:0.07894736842105263 
-1.0 1:0.8938869665513264 2:0.31122645136485966 3:0.004998077662437524 4:0.9538638985005767 5:0.6132256824298347 6:0.826797385620915 7:0.8938869665513264 8:0.31122645136485966 9:0.004998077662437524 10:0.9559784698193002 11:0.6132256824298347 12:0.8275663206459054 13:0.08189158016147635 14:0.11476355247981546 15:0.12091503267973856 16:0.06382160707420223 17:0.11476355247981546 18:0.08189158016147635 25:0.007689350249903883 26:0.05263157894736842 
-0.6959493348272799 1:0.4004229142637447 2:0.10630526720492119 3:0.18646674356016918 4:0.002114571318723568 5:0.42964244521337946 6:0.0036524413687043446 7:0.4004229142637447 8:0.5832372164552095 9:0.18646674356016918 10:0.002114571318723568 11:0.42964244521337946 12:0.0036524413687043446 13:0.1253364090734333 14:0.1439830834294502 15:0.1253364090734333 16:0.12091503267973856 17:0.14129181084198386 18:0.14129181084198386 20:0.7525951557093425 23:0.6572472126105344 25:0.007689350249903883 
-1.0 1:0.4004229142637447 2:0.2560553633217993 3:0.38389081122645136 4:0.004998077662437524 5:0.41157247212610537 6:0.4004229142637447 7:0.4004229142637447 8:0.2560553633217993 9:0.38389081122645136 10:0.004998077662437524 11:0.41234140715109574 12:0.4004229142637447 13:0.1253364090734333 14:0.11476355247981546 15:0.1253364090734333 16:0.12091503267973856 17:0.17704728950403692 18:0.1253364090734333 19:0.3833141099577086 20:0.31276432141484045 22:0.20607458669742407 23:0.629757785467128 25:0.007689350249903883 26:0.23684210526315788 
-1.0 1:0.6139946174548251 2:0.35082660515186465 3:0.5232602845059593 4:0.05190311418685121 5:0.004998077662437524 6:0.8360246059207997 7:0.6141868512110726 8:0.35082660515186465 9:0.5734332948865821 10:0.3146866589773164 11:0.004998077662437524 12:0.8360246059207997 13:0.11476355247981546 14:0.1253364090734333 15:0.06382160707420223 16:0.1439830834294502 17:0.12091503267973856 18:0.14129181084198386 20:0.932718185313341 21:0.051134179161860825 23:0.21760861207227988 24:0.20607458669742407 25:0.007689350249903883 
-1.0 3:0.10726643598615918 4:0.004998077662437524 5:0.511918492887351 6:0.002114571318723568 9:0.5865051903114187 10:0.004998077662437524 11:0.5117262591311034 12:0.002114571318723568 15:0.0265282583621684 16:0.12091503267973856 17:0.11476355247981546 18:0.12091503267973856 19:0.1061130334486736 20:0.7026143790849673 22:0.20530565167243367 23:0.5563244905805459 25:0.007689350249903883 
-0.1542043463189732 1:0.1901191849288735 2:0.002306805074971165 3:0.4004229142637447 4:0.005190311418685121 7:0.18992695117262592 8:0.0034602076124567475 9:0.4004229142637447 10:0.005190311418685121 13:0.08189158016147635 14:0.12091503267973856 15:0.1253364090734333 16:0.12091503267973856 20:0.15301806997308728 23:0.9286812764321415 25:0.007689350249903883 26:0.3684210526315789 
-1.0 3:0.0918877354863514 4:0.004998077662437524 5:0.5597846981930027 6:0.1916570549788543 9:0.531526336024606 10:0.004998077662437524 11:0.5734332948865821 12:0.1916570549788543 15:0.1253364090734333 16:0.12091503267973856 17:0.06382160707420223 18:0.11476355247981546 20:0.7026143790849673 23:0.5563244905805459 25:0.007689350249903883 
-0.1982020097020053 1:0.42079969242599 2:0.5984236831987697 3:0.4340638216070742 4:0.9936562860438293 5:0.9976931949250288 6:0.46943483275663206 7:0.42079969242599 8:0.5984236831987697 9:0.4340638216070742 10:0.9936562860438293 11:0.9976931949250288 12:0.46943483275663206 13:0.11476355247981546 14:0.11476355247981546 15:0.14129181084198386 16:0.08189158016147635 17:0.1439830834294502 18:0.1439830834294502 20:0.531526336024606 23:0.4534794309880815 25:0.007689350249903883 
-1.0 2:0.027873894655901576 3:0.6747404844290658 4:0.019992310649750097 5:0.6447520184544406 6:0.8360246059207997 8:0.25855440215301806 9:0.6743560169165705 10:0.019992310649750097 11:0.6447520184544406 12:0.8360246059207997 14:0.17704728950403692 15:0.17704728950403692 16:0.11476355247981546 17:0.08189158016147635 18:0.14129181084198386 19:0.6720492118415994 20:0.012879661668589004 22:0.9286812764321415 23:0.0019223375624759708 25:0.007689350249903883 
-1.0 1:0.004998077662437524 2:0.21626297577854672 3:0.5232602845059593 4:0.004998077662437524 5:0.21626297577854672 6:0.5597846981930027 7:0.004998077662437524 8:0.2166474432910419 9:0.5734332948865821 10:0.004998077662437524 11:0.2166474432910419 12:0.5734332948865821 13:0.12091503267973856 14:0.08189158016147635 15:0.06382160707420223 16:0.12091503267973856 17:0.08189158016147635 18:0.06382160707420223 20:0.041330257593233374 23:0.5520953479430988 25:0.007689350249903883 
-1.0 1:0.0044213763936947325 2:0.327758554402153 3:0.014801999231064974 4:0.00461361014994233 5:0.005190311418685121 7:0.0044213763936947325 8:0.327758554402153 9:0.014801999231064974 10:0.00461361014994233 11:0.005190311418685121 13:0.12091503267973856 14:0.1253364090734333 15:0.08189158016147635 16:0.12091503267973856 17:0.12091503267973856 20:0.6068819684736639 23:0.531526336024606 25:0.007689350249903883 
-1.0 1:0.09842368319876971 2:0.03440984236831988 3:0.10265282583621683 4:0.9538638985005767 5:0.7145328719723183 6:0.49096501345636295 7:0.5734332948865821 8:0.2364475201845444 9:0.5749711649365629 10:0.9559784698193002 11:0.7145328719723183 12:0.49096501345636295 13:0.06382160707420223 14:0.1439830834294502 15:0.1439830834294502 16:0.06382160707420223 17:0.08189158016147635 18:0.11476355247981546 19:0.10246059207996924 22:0.4936562860438293 25:0.007689350249903883 26:0.05263157894736842 
-1.0 1:0.4004229142637447 2:0.15378700499807765 3:0.4004229142637447 4:0.005190311418685121 7:0.4004229142637447 8:0.8294886582083814 9:0.4004229142637447 10:0.005190311418685121 13:0.1253364090734333 14:0.11476355247981546 15:0.1253364090734333 16:0.12091503267973856 20:0.1311034217608612 23:0.9286812764321415 25:0.007689350249903883 
-1.0 1:0.18646674356016918 2:0.10957324106113034 3:0.004998077662437524 4:0.004998077662437524 5:0.1839677047289504 6:0.42964244521337946 7:0.18646674356016918 8:0.5972702806612841 9:0.004998077662437524 10:0.004998077662437524 11:0.9921184159938485 12:0.42964244521337946 13:0.1253364090734333 14:0.1439830834294502 15:0.12091503267973856 16:0.12091503267973856 17:0.1439830834294502 18:0.14129181084198386 20:0.05613225682429835 23:0.5207612456747405 25:0.007689350249903883 
-1.0 1:0.7151095732410612 2:0.68800461361015 3:0.3833141099577086 4:0.42964244521337946 5:0.38369857747020375 6:0.6020761245674741 7:0.7158785082660515 8:0.6881968473663975 9:0.3833141099577086 10:0.42964244521337946 11:0.38369857747020375 12:0.6022683583237216 13:0.08189158016147635 14:0.11476355247981546 15:0.1253364090734333 16:0.14129181084198386 17:0.1253364090734333 18:0.08189158016147635 20:0.11803152633602461 23:0.5993848519800077 25:0.007689350249903883 
-1.0 1:0.3877354863514033 2:0.0044213763936947325 3:0.005574778931180315 4:0.22722029988465975 5:0.6451364859669358 6:0.00461361014994233 7:0.3871587850826605 8:0.0044213763936947325 9:0.005574778931180315 10:0.22741253364090736 11:0.6451364859669358 12:0.00461361014994233 13:0.17704728950403692 14:0.12091503267973856 15:0.12091503267973856 16:0.11476355247981546 17:0.11476355247981546 18:0.12091503267973856 19:0.005382545174932718 20:0.3763936947327951 21:0.222798923490965 22:0.005382545174932718 23:0.6068819684736639 24:0.6384083044982699 25:0.007689350249903883 
-1.0 1:0.42964244521337946 2:0.38369857747020375 3:0.6020761245674741 4:0.16359092656670512 5:0.08362168396770472 6:0.005190311418685121 7:0.42964244521337946 8:0.38369857747020375 9:0.6022683583237216 10:0.8860053825451749 11:0.4955786236063053 12:0.005190311418685121 13:0.14129181084198386 14:0.1253364090734333 15:0.08189158016147635 16:0.1439830834294502 17:0.1439830834294502 18:0.12091503267973856 19:0.5993848519800077 20:0.6318723567858516 22:0.8492887351018839 23:0.5657439446366782 25:0.007689350249903883 
-1.0 1:0.2568242983467897 2:0.6931949250288351 3:0.5597846981930027 4:0.9982698961937716 5:0.31699346405228757 6:0.9538638985005767 7:0.2568242983467897 8:0.6931949250288351 9:0.5734332948865821 10:0.9982698961937716 11:0.31699346405228757 12:0.9559784698193002 13:0.11476355247981546 14:0.1253364090734333 15:0.06382160707420223 16:0.1439830834294502 17:0.0265282583621684 18:0.06382160707420223 20:0.19934640522875818 23:0.6391772395232603 25:0.007689350249903883 26:0.3684210526315789 
-1.0 1:0.8617839292579778 2:0.6931949250288351 3:0.6403306420607459 4:0.4004229142637447 5:0.014033064206074588 6:0.007497116493656286 7:0.8617839292579778 8:0.6931949250288351 9:0.6403306420607459 10:0.4004229142637447 11:0.014033064206074588 12:0.007497116493656286 13:0.17704728950403692 14:0.1253364090734333 15:0.0265282583621684 16:0.1253364090734333 17:0.11476355247981546 18:0.12091503267973856 19:0.6391772395232603 20:0.7026143790849673 22:0.6591695501730104 23:0.5563244905805459 25:0.007689350249903883 
-1.0 1:0.27335640138408307 2:0.44386774317570166 3:0.5601691657054979 4:0.42964244521337946 5:0.763360246059208 6:0.5638216070742023 7:0.2747020376778162 8:0.4500192233756248 9:0.5734332948865821 10:0.42964244521337946 11:0.763360246059208 12:0.5638216070742023 13:0.08189158016147635 14:0.17704728950403692 15:0.06382160707420223 16:0.14129181084198386 17:0.11476355247981546 18:0.08189158016147635 20:0.7143406382160707 23:0.5601691657054979 25:0.007689350249903883 
-1.0 4:0.0044213763936947325 5:0.7622068435217224 6:0.48904267589388695 10:0.0044213763936947325 11:0.7622068435217224 12:0.49019607843137253 16:0.12091503267973856 17:0.14129181084198386 18:0.17704728950403692 20:0.18473663975394078 23:0.46943483275663206 25:0.007689350249903883 
-1.0 2:0.03364090734332949 3:0.7151095732410612 4:0.0659361783929258 5:0.42964244521337946 6:0.38369857747020375 8:0.23298731257208766 9:0.7158785082660515 10:0.38542868127643215 11:0.42964244521337946 12:0.38369857747020375 14:0.0265282583621684 15:0.08189158016147635 16:0.1439830834294502 17:0.14129181084198386 18:0.1253364090734333 19:0.7143406382160707 20:0.6720492118415994 21:0.06497500961168781 22:0.5178777393310265 23:0.773356401384083 24:0.5993848519800077 25:0.007689350249903883 26:0.39473684210526316 
-1.0 1:0.0044213763936947325 2:0.6695501730103807 3:0.5734332948865821 4:0.00461361014994233 5:0.005190311418685121 7:0.0044213763936947325 8:0.6695501730103807 9:0.5734332948865821 10:0.00461361014994233 11:0.005190311418685121 13:0.12091503267973856 14:0.08189158016147635 15:0.06382160707420223 16:0.12091503267973856 17:0.12091503267973856 20:0.8244905805459438 23:0.9184928873510189 25:0.007689350249903883 
-1.0 1:0.21568627450980393 2:0.20184544405997693 3:0.9061899269511726 4:0.005190311418685121 7:0.2166474432910419 8:0.20184544405997693 9:0.9061899269511726 10:0.005190311418685121 13:0.08189158016147635 14:0.17704728950403692 15:0.1253364090734333 16:0.12091503267973856 19:0.9019607843137255 20:0.1443675509419454 22:0.5601691657054979 23:0.5601691657054979 25:0.007689350249903883 
-1.0 1:0.6931949250288351 2:0.24029219530949636 3:0.9058054594386774 4:0.29142637447135716 5:0.9982698961937716 6:0.3506343713956171 7:0.6931949250288351 8:0.24029219530949636 9:0.9058054594386774 10:0.29142637447135716 11:0.4500192233756248 12:0.3506343713956171 13:0.1253364090734333 14:0.17704728950403692 15:0.1253364090734333 16:0.0265282583621684 17:0.17704728950403692 18:0.0265282583621684 19:0.9019607843137255 20:0.13456362937331795 22:0.9521337946943483 23:0.5520953479430988 25:0.007689350249903883 
-1.0 1:0.2825836216839677 2:0.6001537870049981 3:0.4004229142637447 4:0.004998077662437524 5:0.5661284121491734 6:0.2968089196462899 7:0.2825836216839677 8:0.6001537870049981 9:0.4004229142637447 10:0.004998077662437524 11:0.5734332948865821 12:0.2968089196462899 13:0.11476355247981546 14:0.08189158016147635 15:0.1253364090734333 16:0.12091503267973856 17:0.06382160707420223 18:0.11476355247981546 20:0.1311034217608612 23:0.9959630911188004 25:0.007689350249903883 
-1.0 1:0.9644367550941946 2:0.531526336024606 3:0.9480968858131488 4:0.002114571318723568 5:0.002114571318723568 6:0.002114571318723568 7:0.9644367550941946 8:0.531526336024606 9:0.9488658208381392 10:0.002114571318723568 11:0.002114571318723568 12:0.002114571318723568 13:0.17704728950403692 14:0.1253364090734333 15:0.08189158016147635 16:0.12091503267973856 17:0.12091503267973856 18:0.12091503267973856 19:0.9452133794694348 20:0.0918877354863514 22:0.9133025759323338 23:0.7673971549404075 25:0.007689350249903883 
-1.0 4:0.6403306420607459 5:0.23279507881584005 6:0.209919261822376 10:0.6403306420607459 11:0.23260284505959247 12:0.209919261822376 16:0.0265282583621684 17:0.17704728950403692 18:0.1253364090734333 20:0.6068819684736639 21:0.6391772395232603 23:0.31814686658977315 24:0.6591695501730104 25:0.007689350249903883 
-1.0 4:0.31853133410226836 5:0.5232602845059593 6:0.28700499807766244 10:0.31853133410226836 11:0.5734332948865821 12:0.28700499807766244 16:0.14129181084198386 17:0.06382160707420223 18:0.11476355247981546 20:0.029411764705882353 21:0.31814686658977315 23:0.5051903114186851 24:0.5174932718185313 25:0.007689350249903883 
-0.4620010145895234 1:0.15071126489811612 2:0.42964244521337946 3:0.09419454056132257 4:0.0793925413302576 5:0.004998077662437524 6:0.9590542099192618 7:0.8581314878892734 8:0.42964244521337946 9:0.5484429065743944 10:0.46943483275663206 11:0.004998077662437524 12:0.9590542099192618 13:0.11476355247981546 14:0.14129181084198386 15:0.1439830834294502 16:0.1439830834294502 17:0.12091503267973856 18:0.08189158016147635 19:0.0918877354863514 20:0.18473663975394078 22:0.4534794309880815 23:0.0011534025374855825 25:0.007689350249903883 26:0.05263157894736842 
-1.0 4:0.9807766243752403 5:0.2101114955786236 6:0.8796616685890042 10:0.9807766243752403 11:0.2101114955786236 12:0.8796616685890042 16:0.08189158016147635 17:0.1253364090734333 18:0.11476355247981546 21:0.9777008842752788 24:0.6166858900422915 25:0.007689350249903883 
-1.0 1:0.19607843137254902 2:0.6633986928104575 3:0.9538638985005767 4:0.4340638216070742 5:0.18646674356016918 6:0.17973856209150327 7:0.19607843137254902 8:0.6633986928104575 9:0.9559784698193002 10:0.4340638216070742 11:0.18646674356016918 12:0.9717416378316033 13:0.1253364090734333 14:0.17704728950403692 15:0.06382160707420223 16:0.14129181084198386 17:0.1253364090734333 18:0.1439830834294502 20:0.9777008842752788 23:0.9617454825067282 25:0.007689350249903883 26:0.05263157894736842 
-1.0 1:0.5203767781622453 2:0.3502499038831219 3:0.8890811226451365 4:0.005190311418685121 7:0.5734332948865821 8:0.3500576701268743 9:0.8890811226451365 10:0.005190311418685121 13:0.06382160707420223 14:0.08189158016147635 15:0.11476355247981546 16:0.12091503267973856 19:0.8860053825451749 20:0.09015763168012303 22:0.7731641676278355 23:0.5530565167243368 25:0.007689350249903883 
-1.0 2:0.06055363321799308 3:0.9936562860438293 4:0.5334486735870819 5:0.635524798154556 6:0.7402921953094963 8:0.3562091503267974 9:0.9936562860438293 10:0.5330642060745867 11:0.635524798154556 12:0.7402921953094963 14:0.11476355247981546 15:0.11476355247981546 16:0.17704728950403692 17:0.1253364090734333 18:0.11476355247981546 20:0.46943483275663206 21:0.531526336024606 23:0.9123414071510957 24:0.8169934640522876 25:0.007689350249903883 26:0.13157894736842105 
-0.19473167592718546 1:0.004998077662437524 2:0.9269511726259131 3:0.39119569396386006 4:0.4004229142637447 5:0.2706651287966167 6:0.3108419838523645 7:0.004998077662437524 8:0.9269511726259131 9:0.39119569396386006 10:0.4004229142637447 11:0.2710495963091119 12:0.3108419838523645 13:0.12091503267973856 14:0.08189158016147635 15:0.1253364090734333 16:0.1253364090734333 17:0.08189158016147635 18:0.11476355247981546 19:0.3890811226451365 20:0.5184544405997693 22:0.5695886197616301 23:0.43810073048827375 25:0.007689350249903883 
-1.0 1:0.2178008458285275 2:0.46232218377547096 3:0.5661284121491734 4:0.531526336024606 5:0.7629757785467128 6:0.6931949250288351 7:0.21818531334102267 8:0.46232218377547096 9:0.5734332948865821 10:0.531526336024606 11:0.7629757785467128 12:0.6931949250288351 13:0.17704728950403692 14:0.17704728950403692 15:0.06382160707420223 16:0.1253364090734333 17:0.11476355247981546 18:0.1253364090734333 20:0.8244905805459438 23:0.5661284121491734 25:0.007689350249903883 
-1.0 4:0.7637447135717031 5:0.6485966935793925 6:0.42964244521337946 10:0.7637447135717031 11:0.6485966935793925 12:0.42964244521337946 16:0.0265282583621684 17:0.08189158016147635 18:0.14129181084198386 20:0.03421760861207228 21:0.7589388696655133 23:0.41926182237600923 24:0.8492887351018839 25:0.007689350249903883 
-1.0 1:0.44386774317570166 2:0.7068435217224145 3:0.42964244521337946 4:0.004998077662437524 5:0.3754325259515571 6:0.340638216070742 7:0.4500192233756248 8:0.7079969242599 9:0.42964244521337946 10:0.004998077662437524 11:0.3754325259515571 12:0.340638216070742 13:0.17704728950403692 14:0.08189158016147635 15:0.14129181084198386 16:0.12091503267973856 17:0.1439830834294502 18:0.14129181084198386 20:0.5820838139177239 23:0.9133025759323338 25:0.007689350249903883 
-1.0 1:0.3735101883890811 2:0.3833141099577086 3:0.08112264513648597 4:0.005190311418685121 7:0.3737024221453287 8:0.3833141099577086 9:0.47943098808150714 10:0.005190311418685121 13:0.11476355247981546 14:0.1253364090734333 15:0.1439830834294502 16:0.12091503267973856 19:0.08054594386774318 20:0.18031526336024606 22:0.9184928873510189 23:0.4936562860438293 25:0.007689350249903883 
-1.0 4:0.2893118031526336 5:0.005190311418685121 10:0.2893118031526336 11:0.005190311418685121 16:0.08189158016147635 17:0.12091503267973856 20:0.04805843906189927 21:0.28604382929642447 23:0.4913494809688581 24:0.6166858900422915 25:0.007689350249903883 
-1.0 1:0.6931949250288351 2:0.2952710495963091 3:0.9538638985005767 4:0.3246828143021915 5:0.8669742406766628 6:0.9900038446751249 7:0.6931949250288351 8:0.2952710495963091 9:0.9559784698193002 10:0.3246828143021915 11:0.4500192233756248 12:0.9876970396001538 13:0.1253364090734333 14:0.17704728950403692 15:0.06382160707420223 16:0.0265282583621684 17:0.17704728950403692 18:0.17704728950403692 20:0.5601691657054979 23:0.629757785467128 25:0.007689350249903883 
-1.0 4:0.4646289888504421 5:0.004998077662437524 6:0.35082660515186465 10:0.4646289888504421 11:0.004998077662437524 12:0.35082660515186465 16:0.08189158016147635 17:0.12091503267973856 18:0.1253364090734333 20:0.029988465974625143 21:0.4573241061130334 23:0.5051903114186851 24:0.9184928873510189 25:0.007689350249903883 
-1.0 3:0.18473663975394078 4:0.42964244521337946 5:0.6797385620915033 6:0.5113417916186083 9:0.9936562860438293 10:0.42964244521337946 11:0.6797385620915033 12:0.5113417916186083 15:0.1439830834294502 16:0.14129181084198386 17:0.11476355247981546 18:0.11476355247981546 20:0.9978854286812764 23:0.46943483275663206 25:0.007689350249903883 26:0.07894736842105263 
-1.0 1:0.20665128796616686 2:0.394079200307574 3:0.31122645136485966 4:0.004998077662437524 5:0.6637831603229527 6:0.4340638216070742 7:0.20703575547866204 8:0.394079200307574 9:0.31122645136485966 10:0.004998077662437524 11:0.6633986928104575 12:0.4340638216070742 13:0.11476355247981546 14:0.1253364090734333 15:0.11476355247981546 16:0.12091503267973856 17:0.17704728950403692 18:0.14129181084198386 19:0.29161860822760477 20:0.10976547481737793 22:0.629757785467128 23:0.5207612456747405 25:0.007689350249903883 
-1.0 1:0.004998077662437524 2:0.5820838139177239 3:0.9309880815071127 4:0.006920415224913495 7:0.004998077662437524 8:0.5820838139177239 9:0.929834678969627 10:0.006920415224913495 13:0.12091503267973856 14:0.14129181084198386 15:0.17704728950403692 16:0.12091503267973856 19:0.9286812764321415 20:0.7285659361783929 21:0.005382545174932718 22:0.6166858900422915 23:0.6166858900422915 24:0.005382545174932718 25:0.007689350249903883 
-0.04633109650107415 1:0.21626297577854672 2:0.6845444059976932 3:0.6403306420607459 7:0.2166474432910419 8:0.6843521722414456 9:0.6403306420607459 13:0.08189158016147635 14:0.11476355247981546 15:0.0265282583621684 19:0.6391772395232603 20:0.33391003460207613 22:0.6591695501730104 23:0.6460976547481738 25:0.007689350249903883 
-1.0 1:0.007497116493656286 2:0.018646674356016916 3:0.5 4:0.002114571318723568 7:0.007497116493656286 8:0.018646674356016916 9:0.5001922337562476 10:0.002114571318723568 13:0.12091503267973856 14:0.08189158016147635 15:0.11476355247981546 16:0.12091503267973856 19:0.497116493656286 20:0.5820838139177239 22:0.6384083044982699 23:0.2631680123029604 25:0.007689350249903883 
-1.0 1:0.6403306420607459 2:0.9582852748942714 3:0.38389081122645136 4:0.002114571318723568 7:0.6403306420607459 8:0.9582852748942714 9:0.38389081122645136 10:0.002114571318723568 13:0.0265282583621684 14:0.17704728950403692 15:0.1253364090734333 16:0.12091503267973856 19:0.3833141099577086 20:0.773356401384083 22:0.20607458669742407 23:0.8137254901960784 25:0.007689350249903883 
-1.0 1:0.3133410226835832 2:0.39254133025759325 3:0.9134948096885813 4:0.6495578623606305 5:0.7339484813533257 6:0.954248366013072 7:0.3133410226835832 8:0.39254133025759325 9:0.9134948096885813 10:0.6495578623606305 11:0.7339484813533257 12:0.9559784698193002 13:0.11476355247981546 14:0.1253364090734333 15:0.11476355247981546 16:0.14129181084198386 17:0.17704728950403692 18:0.06382160707420223 19:0.9133025759323338 20:0.26278354479046523 22:0.558246828143022 23:0.263360246059208 25:0.007689350249903883 
-1.0 1:0.09073433294886582 2:0.3762014609765475 3:0.81199538638985 4:0.9538638985005767 5:0.6687812379853902 6:0.9000384467512496 7:0.5734332948865821 8:0.3760092272202999 9:0.81199538638985 10:0.9559784698193002 11:0.6695501730103807 12:0.9000384467512496 13:0.06382160707420223 14:0.1439830834294502 15:0.11476355247981546 16:0.06382160707420223 17:0.08189158016147635 18:0.11476355247981546 19:0.8091118800461361 22:0.629757785467128 25:0.007689350249903883 26:0.05263157894736842 
-1.0 1:0.5232602845059593 2:0.33102652825836215 3:0.23836985774702038 4:0.004998077662437524 5:0.7670126874279123 6:0.3191080353710111 7:0.5734332948865821 8:0.33102652825836215 9:0.23836985774702038 10:0.004998077662437524 11:0.7670126874279123 12:0.3191080353710111 13:0.06382160707420223 14:0.08189158016147635 15:0.11476355247981546 16:0.12091503267973856 17:0.0265282583621684 18:0.14129181084198386 19:0.2358708189158016 20:0.11803152633602461 22:0.9286812764321415 23:0.43810073048827375 25:0.007689350249903883 
-1.0 1:0.3846597462514418 2:0.8917723952326029 3:0.39215686274509803 4:0.31853133410226836 5:0.9644367550941946 6:0.531526336024606 7:0.3846597462514418 8:0.8917723952326029 9:0.39215686274509803 10:0.31853133410226836 11:0.9644367550941946 12:0.531526336024606 13:0.1253364090734333 14:0.1439830834294502 15:0.1253364090734333 16:0.14129181084198386 17:0.17704728950403692 18:0.1253364090734333 19:0.3890811226451365 20:0.0459438677431757 21:0.31814686658977315 22:0.43790849673202614 23:0.9575163398692811 24:0.5174932718185313 25:0.007689350249903883 
-1.0 1:0.9315647827758554 2:0.02575932333717801 3:0.5601691657054979 4:0.9982698961937716 5:0.3971549404075356 6:0.38485198000768933 7:0.9315647827758554 8:0.02575932333717801 9:0.5734332948865821 10:0.9982698961937716 11:0.3973471741637832 12:0.38485198000768933 13:0.11476355247981546 14:0.12091503267973856 15:0.06382160707420223 16:0.1439830834294502 17:0.08189158016147635 18:0.1253364090734333 20:0.773356401384083 23:0.6591695501730104 25:0.007689350249903883 26:0.4473684210526316 
-1.0 1:0.4004229142637447 2:0.9559784698193002 3:0.39119569396386006 4:0.57920030757401 5:0.5601691657054979 6:0.8954248366013072 7:0.4004229142637447 8:0.9559784698193002 9:0.39119569396386006 10:0.57920030757401 11:0.5734332948865821 12:0.8954248366013072 13:0.1253364090734333 14:0.14129181084198386 15:0.1253364090734333 16:0.1253364090734333 17:0.06382160707420223 18:0.11476355247981546 19:0.3890811226451365 20:0.16359092656670512 21:0.5765090349865436 22:0.5695886197616301 23:0.5592079969242599 24:0.5051903114186851 25:0.007689350249903883 
-1.0 2:0.1186082276047674 3:0.44790465205690116 4:0.02575932333717801 5:0.209919261822376 6:0.5419069588619762 8:0.6403306420607459 9:0.44809688581314877 10:0.02575932333717801 11:0.209919261822376 12:0.5419069588619762 14:0.0265282583621684 15:0.17704728950403692 16:0.12091503267973856 17:0.1253364090734333 18:0.11476355247981546 19:0.44502114571318724 20:0.773356401384083 22:0.9184928873510189 23:0.6591695501730104 25:0.007689350249903883 26:0.05263157894736842 
-1.0 1:0.249519415609381 2:0.7658592848904268 3:0.5192233756247597 4:0.9850057670126874 5:0.3844675124951942 6:0.45213379469434833 7:0.249519415609381 8:0.7658592848904268 9:0.5192233756247597 10:0.9698193002691272 11:0.3844675124951942 12:0.45213379469434833 13:0.0265282583621684 14:0.08189158016147635 15:0.11476355247981546 16:0.17704728950403692 17:0.1253364090734333 18:0.11476355247981546 19:0.5184544405997693 20:0.497116493656286 21:0.9777008842752788 22:0.5599769319492502 23:0.5559400230680508 24:0.9286812764321415 25:0.007689350249903883 
-1.0 1:0.7402921953094963 2:0.826797385620915 3:0.8492887351018839 4:0.9430988081507112 5:0.4004229142637447 6:0.6005382545174933 7:0.7402921953094963 8:0.8275663206459054 9:0.8492887351018839 10:0.9430988081507112 11:0.4004229142637447 12:0.6005382545174933 13:0.11476355247981546 14:0.08189158016147635 15:0.14129181084198386 16:0.17704728950403692 17:0.1253364090734333 18:0.11476355247981546 20:0.7525951557093425 21:0.932718185313341 23:0.9615532487504805 24:0.773356401384083 25:0.007689350249903883 
-1.0 2:0.5601691657054979 3:0.6422529796232218 4:0.6222606689734718 5:0.8402537485582469 6:0.4611687812379854 8:0.5734332948865821 9:0.6428296808919647 10:0.6222606689734718 11:0.8402537485582469 12:0.4615532487504806 14:0.06382160707420223 15:0.08189158016147635 16:0.1439830834294502 17:0.0265282583621684 18:0.08189158016147635 19:0.6391772395232603 20:0.5734332948865821 21:0.6166858900422915 22:0.7673971549404075 23:0.6591695501730104 24:0.9286812764321415 25:0.007689350249903883 
-1.0 1:0.9740484429065744 2:0.6501345636293733 3:0.4004229142637447 4:0.42964244521337946 5:0.8527489427143407 6:0.004998077662437524 7:0.9761630142252979 8:0.6501345636293733 9:0.4004229142637447 10:0.42964244521337946 11:0.8527489427143407 12:0.004998077662437524 13:0.08189158016147635 14:0.11476355247981546 15:0.1253364090734333 16:0.14129181084198386 17:0.11476355247981546 18:0.12091503267973856 20:0.932718185313341 23:0.9496347558631296 25:0.007689350249903883 
-1.0 1:0.954248366013072 2:0.4671280276816609 3:0.394079200307574 4:0.7489427143406382 5:0.4004229142637447 6:0.4869281045751634 7:0.9559784698193002 8:0.4671280276816609 9:0.394079200307574 10:0.7489427143406382 11:0.4004229142637447 12:0.4869281045751634 13:0.06382160707420223 14:0.11476355247981546 15:0.1253364090734333 16:0.0265282583621684 17:0.1253364090734333 18:0.11476355247981546 19:0.3890811226451365 20:0.14955786236063054 21:0.7285659361783929 22:0.5601691657054979 23:0.5182622068435218 24:0.5520953479430988 25:0.007689350249903883 
-1.0 1:0.39215686274509803 2:0.9034986543637062 3:0.0044213763936947325 4:0.9982698961937716 5:0.8965782391387928 6:0.42425990003844677 7:0.39215686274509803 8:0.9034986543637062 9:0.0044213763936947325 10:0.9982698961937716 11:0.8965782391387928 12:0.42425990003844677 13:0.1253364090734333 14:0.11476355247981546 15:0.12091503267973856 16:0.11476355247981546 17:0.08189158016147635 18:0.17704728950403692 20:0.497116493656286 23:0.5559400230680508 25:0.007689350249903883 
-1.0 1:0.2973856209150327 2:0.6209150326797386 3:0.5094194540561322 4:0.340638216070742 5:0.5232602845059593 6:0.26547481737793155 7:0.29700115340253747 8:0.6209150326797386 9:0.5090349865436371 10:0.340638216070742 11:0.5734332948865821 12:0.26547481737793155 13:0.11476355247981546 14:0.0265282583621684 15:0.08189158016147635 16:0.14129181084198386 17:0.06382160707420223 18:0.11476355247981546 19:0.5069204152249135 20:0.33391003460207613 21:0.33391003460207613 22:0.4004229142637447 23:0.9127258746635909 24:0.5993848519800077 25:0.007689350249903883 
-1.0 3:0.1432141484044598 4:0.7818146866589774 5:0.3833141099577086 6:0.954248366013072 9:0.7658592848904268 10:0.7814302191464821 11:0.3833141099577086 12:0.9559784698193002 15:0.08189158016147635 16:0.17704728950403692 17:0.1253364090734333 18:0.06382160707420223 19:0.14148404459823144 20:0.20607458669742407 21:0.7808535178777394 22:0.9286812764321415 23:0.0013456362937331796 24:0.9286812764321415 25:0.007689350249903883 26:0.05263157894736842 
-1.0 4:0.7812379853902345 5:0.9538638985005767 6:0.27297193387158786 10:0.7812379853902345 11:0.9559784698193002 12:0.27297193387158786 16:0.17704728950403692 17:0.06382160707420223 18:0.08189158016147635 20:0.05709342560553633 21:0.7808535178777394 23:0.6262975778546713 24:0.6318723567858516 25:0.007689350249903883 
-1.0 1:0.6670511341791618 2:0.31853133410226836 3:0.8492887351018839 4:0.60399846212995 5:0.18646674356016918 6:0.48808150711264897 7:0.6670511341791618 8:0.31853133410226836 9:0.8492887351018839 10:0.6055363321799307 11:0.18646674356016918 12:0.48808150711264897 13:0.11476355247981546 14:0.14129181084198386 15:0.14129181084198386 16:0.17704728950403692 17:0.1253364090734333 18:0.17704728950403692 20:0.8169934640522876 21:0.5993848519800077 23:0.8164167627835448 24:0.8594771241830066 25:0.007689350249903883 
-1.0 1:0.8942714340638216 2:0.7727797001153403 3:0.39215686274509803 4:0.1843521722414456 5:0.531526336024606 6:0.17512495194156094 7:0.8942714340638216 8:0.7727797001153403 9:0.39215686274509803 10:0.9934640522875817 11:0.531526336024606 12:0.9500192233756247 13:0.08189158016147635 14:0.11476355247981546 15:0.1253364090734333 16:0.08189158016147635 17:0.1253364090734333 18:0.1439830834294502 19:0.3890811226451365 20:0.041330257593233374 21:0.184159938485198 22:0.43790849673202614 23:0.8860053825451749 24:0.8089196462898885 25:0.007689350249903883 
-1.0 1:0.5601691657054979 2:0.6422529796232218 3:0.5745866974240676 4:0.8402537485582469 5:0.4611687812379854 7:0.5734332948865821 8:0.6428296808919647 9:0.5745866974240676 10:0.8402537485582469 11:0.4615532487504806 13:0.06382160707420223 14:0.08189158016147635 15:0.1439830834294502 16:0.0265282583621684 17:0.08189158016147635 19:0.5734332948865821 20:0.6166858900422915 21:0.8360246059207997 22:0.6591695501730104 23:0.9286812764321415 24:0.9184928873510189 25:0.007689350249903883 
-1.0 1:0.3942714340638216 2:0.5094194540561322 3:0.3291041906958862 4:0.005190311418685121 7:0.3942714340638216 8:0.5090349865436371 9:0.3285274894271434 10:0.005190311418685121 13:0.1253364090734333 14:0.08189158016147635 15:0.11476355247981546 16:0.12091503267973856 19:0.3246828143021915 20:0.11803152633602461 22:0.9496347558631296 23:0.6318723567858516 25:0.007689350249903883 
-1.0 4:0.477124183006536 5:0.5993848519800077 10:0.477124183006536 11:0.5993848519800077 16:0.1439830834294502 17:0.14129181084198386 20:0.11803152633602461 21:0.4755863129565552 23:0.668396770472895 24:0.6610918877354863 25:0.007689350249903883 
-1.0 4:0.8260284505959247 5:0.9976931949250288 6:0.5203767781622453 10:0.8260284505959247 11:0.9976931949250288 12:0.5734332948865821 16:0.08189158016147635 17:0.11476355247981546 18:0.06382160707420223 20:0.04017685505574779 21:0.8244905805459438 23:0.6391772395232603 24:0.8594771241830066 25:0.007689350249903883 
-0.1363402728067215 1:0.42964244521337946 2:0.38427527873894657 3:0.0036524413687043446 4:0.9763552479815456 5:0.5601691657054979 6:0.9011918492887351 7:0.42964244521337946 8:0.38427527873894657 9:0.0036524413687043446 10:0.9763552479815456 11:0.5734332948865821 12:0.9011918492887351 13:0.14129181084198386 14:0.1253364090734333 15:0.14129181084198386 16:0.1253364090734333 17:0.06382160707420223 18:0.11476355247981546 20:0.09092656670511341 21:0.967512495194156 23:0.33391003460207613 24:0.8594771241830066 25:0.007689350249903883 
-0.05977628370863559 1:0.157439446366782 2:0.8910034602076125 3:0.20607458669742407 4:0.765282583621684 5:0.22741253364090736 6:0.6931949250288351 7:0.4500192233756248 8:0.4500192233756248 9:0.20607458669742407 10:0.765282583621684 11:0.22741253364090736 12:0.6931949250288351 13:0.17704728950403692 14:0.17704728950403692 15:0.1253364090734333 16:0.08189158016147635 17:0.11476355247981546 18:0.1253364090734333 20:0.0394079200307574 21:0.7589388696655133 23:0.6391772395232603 24:0.9131103421760861 25:0.007689350249903883 
-1.0 4:0.8910034602076125 5:0.209919261822376 6:0.20492118415993849 10:0.4500192233756248 11:0.209919261822376 12:0.20492118415993849 16:0.17704728950403692 17:0.1253364090734333 18:0.11476355247981546 20:0.07497116493656286 21:0.8860053825451749 23:0.5559400230680508 24:0.9263744713571703 25:0.007689350249903883 
-1.0 1:0.47500961168781236 2:0.31410995770857364 3:0.004998077662437524 4:0.8235294117647058 5:0.42964244521337946 6:0.26547481737793155 7:0.47500961168781236 8:0.31410995770857364 9:0.004998077662437524 10:0.8235294117647058 11:0.42964244521337946 12:0.2648981161091888 13:0.11476355247981546 14:0.1439830834294502 15:0.12091503267973856 16:0.11476355247981546 17:0.14129181084198386 18:0.17704728950403692 20:0.6391772395232603 21:0.8169934640522876 23:0.51999231064975 24:0.629757785467128 25:0.007689350249903883 
-1.0 4:0.857362552864283 5:0.531526336024606 6:0.288158400615148 10:0.8569780853517878 11:0.531526336024606 12:0.2895040369088812 16:0.17704728950403692 17:0.1253364090734333 18:0.08189158016147635 20:0.029988465974625143 21:0.8492887351018839 23:0.5051903114186851 24:0.9286812764321415 25:0.007689350249903883 
-1.0 1:0.9982698961937716 2:0.9809688581314879 3:0.2101114955786236 4:0.004998077662437524 5:0.42964244521337946 6:0.3506343713956171 7:0.9982698961937716 8:0.9809688581314879 9:0.2101114955786236 10:0.004998077662437524 11:0.42964244521337946 12:0.3506343713956171 13:0.1439830834294502 14:0.1253364090734333 15:0.1253364090734333 16:0.12091503267973856 17:0.14129181084198386 18:0.14129181084198386 19:0.20607458669742407 20:0.13456362937331795 22:0.5601691657054979 23:0.949442522106882 25:0.007689350249903883 
-0.5183541579332438 1:0.7650903498654363 2:0.73279507881584 3:0.3844675124951942 4:0.458477508650519 5:0.5684352172241446 6:0.8302575932333718 7:0.7650903498654363 8:0.7324106113033448 9:0.3844675124951942 10:0.46232218377547096 11:0.5684352172241446 12:0.8302575932333718 13:0.14129181084198386 14:0.17704728950403692 15:0.1253364090734333 16:0.17704728950403692 17:0.0265282583621684 18:0.1439830834294502 19:0.3833141099577086 20:0.09554017685505575 21:0.4573241061130334 22:0.5597846981930027 23:0.5207612456747405 24:0.9617454825067282 25:0.007689350249903883 
-1.0 1:0.8492887351018839 2:0.9425221068819685 3:0.19607843137254902 4:0.004998077662437524 5:0.2106881968473664 6:0.720876585928489 7:0.8492887351018839 8:0.9430988081507112 9:0.19607843137254902 10:0.004998077662437524 11:0.2106881968473664 12:0.7197231833910035 13:0.14129181084198386 14:0.17704728950403692 15:0.1253364090734333 16:0.12091503267973856 17:0.1253364090734333 18:0.11476355247981546 20:0.12360630526720492 23:0.7673971549404075 25:0.007689350249903883 
-1.0 1:0.004998077662437524 2:0.9809688581314879 3:0.18646674356016918 4:0.6931949250288351 5:0.5232602845059593 6:0.7798923490965013 7:0.004998077662437524 8:0.9809688581314879 9:0.18646674356016918 10:0.6931949250288351 11:0.5734332948865821 12:0.7798923490965013 13:0.12091503267973856 14:0.11476355247981546 15:0.1253364090734333 16:0.1253364090734333 17:0.06382160707420223 18:0.11476355247981546 20:0.8169934640522876 21:0.6903114186851211 23:0.6497500961168782 24:0.44367550941945405 25:0.007689350249903883 
-1.0 1:0.3754325259515571 2:0.9855824682814303 3:0.20607458669742407 4:0.004998077662437524 5:0.6562860438292965 6:0.5001922337562476 7:0.3754325259515571 8:0.9855824682814303 9:0.20607458669742407 10:0.004998077662437524 11:0.6562860438292965 12:0.5001922337562476 13:0.1439830834294502 14:0.17704728950403692 15:0.1253364090734333 16:0.12091503267973856 17:0.08189158016147635 18:0.11476355247981546 20:0.6068819684736639 23:0.9504036908881199 25:0.007689350249903883 
-1.0 1:0.44386774317570166 2:0.6931949250288351 3:0.5734332948865821 4:0.5549788542868128 5:0.004998077662437524 6:0.8679354094579008 7:0.44386774317570166 8:0.6931949250288351 9:0.5734332948865821 10:0.5553633217993079 11:0.004998077662437524 12:0.8679354094579008 13:0.11476355247981546 14:0.1253364090734333 15:0.06382160707420223 16:0.11476355247981546 17:0.12091503267973856 18:0.0265282583621684 20:0.7026143790849673 21:0.5544021530180699 23:0.5563244905805459 24:0.629757785467128 25:0.007689350249903883 
