svm_type c_svc
kernel_type linear
nr_class 2
total_sv 16
rho 0.5206311308503251
label -1 9
probA -1.3402604567645744
probB -0.04301671128135537
nr_sv 9 7
SV
1.0 1:0.6187643898695319 2:0.9806216423637759 3:0.18438219493476593 4:0.004412893323100537 5:0.4313123561013047 6:0.5226400613967767 7:0.6187643898695319 8:0.9806216423637759 9:0.18438219493476593 10:0.004412893323100537 11:0.4313123561013047 12:0.5727168073676132 13:0.08403683806600154 14:0.11569455103607061 15:0.12682271680736762 16:0.12221795855717575 17:0.1419800460475825 18:0.06907137375287797 20:0.1344973138910207 23:0.9950115118956255 25:0.007099002302379125 
1.0 1:0.3814274750575595 2:0.54623944742901 3:0.39792785878741366 4:0.004029163468917882 5:0.004604758250191865 7:0.3814274750575595 8:0.54623944742901 9:0.39792785878741366 10:0.004029163468917882 11:0.004604758250191865 13:0.12682271680736762 14:0.11569455103607061 15:0.12682271680736762 16:0.12221795855717575 17:0.12221795855717575 20:0.07463545663852647 23:0.20395241749808135 25:0.007099002302379125 26:0.14285714285714285 
1.0 1:0.39792785878741366 2:0.23234842670759784 3:0.5306983883346125 4:0.004604758250191865 7:0.39792785878741366 8:0.23234842670759784 9:0.5306983883346125 10:0.004604758250191865 13:0.12682271680736762 14:0.11569455103607061 15:0.12682271680736762 16:0.12221795855717575 20:0.04604758250191865 23:0.6281657712970069 25:0.007099002302379125 26:0.2857142857142857 
0.15370500482379448 1:0.9050268610897928 2:0.8561013046815042 3:0.39792785878741366 4:0.0011511895625479663 7:0.9050268610897928 8:0.8561013046815042 9:0.39792785878741366 10:0.0011511895625479663 13:0.12682271680736762 14:0.11569455103607061 15:0.12682271680736762 16:0.12221795855717575 20:0.07463545663852647 23:0.20395241749808135 25:0.007099002302379125 26:0.14285714285714285 
0.43237714115452536 1:0.2091327705295472 2:0.7193016116653875 3:0.39792785878741366 4:0.004412893323100537 5:0.9976976208749041 6:0.18898695318495778 7:0.2091327705295472 8:0.7181504221028396 9:0.39792785878741366 10:0.004412893323100537 11:0.9976976208749041 12:0.18898695318495778 13:0.12682271680736762 14:0.11569455103607061 15:0.12682271680736762 16:0.12221795855717575 17:0.1446661550268611 18:0.08403683806600154 20:0.11224098234842671 23:0.637567152724482 25:0.007099002302379125 26:0.8095238095238095 
0.962864750700495 3:0.09267075978511129 4:0.9976976208749041 5:0.9528012279355333 6:0.578472755180353 9:0.5727168073676132 10:0.9976976208749041 11:0.954911742133538 12:0.578472755180353 15:0.06907137375287797 16:0.1446661550268611 17:0.06907137375287797 18:0.11569455103607061 20:0.2893323100537222 23:0.8568687643898696 25:0.007099002302379125 
0.39014155589083716 4:0.8307751343054489 10:0.8303914044512664 16:0.1751726784343822 20:0.08883346124328473 21:0.8225249424405219 23:0.3816193399846508 24:0.9270913277052955 25:0.007099002302379125 26:0.0 
0.36592976532834326 1:0.44090560245587107 2:0.75 3:0.39792785878741366 4:0.0011511895625479663 5:0.0011511895625479663 6:0.0011511895625479663 7:0.44704528012279354 8:0.75 9:0.39792785878741366 10:0.0011511895625479663 11:0.0011511895625479663 12:0.0011511895625479663 13:0.1751726784343822 14:0.11569455103607061 15:0.12682271680736762 16:0.12221795855717575 17:0.12221795855717575 18:0.12221795855717575 25:0.007099002302379125 26:0.5238095238095238 
0.7220276322728513 1:0.9420567920184191 2:0.22947045280122794 3:0.004412893323100537 4:0.5370299309286263 5:0.32386799693016116 6:0.39792785878741366 7:0.9416730621642364 8:0.23388334612432848 9:0.004412893323100537 10:0.5370299309286263 11:0.32386799693016116 12:0.39792785878741366 13:0.1751726784343822 14:0.1751726784343822 15:0.12221795855717575 16:0.08403683806600154 17:0.11569455103607061 18:0.12682271680736762 20:0.772256331542594 21:0.5306983883346125 23:0.6573292402148887 24:0.9169224865694551 25:0.007099002302379125 
-1.0 4:0.2085571757482732 5:0.773407521105142 6:0.4313123561013047 10:0.2085571757482732 11:0.773407521105142 12:0.4313123561013047 16:0.12682271680736762 17:0.1446661550268611 18:0.1419800460475825 20:0.6049501151189562 21:0.20471987720644666 23:0.6281657712970069 24:0.5594781273983116 25:0.007099002302379125 
-1.0 1:0.5260936300844206 2:0.4585571757482732 3:0.004604758250191865 4:0.4313123561013047 5:0.2237145049884881 6:0.20990023023791252 7:0.5259017651573292 8:0.45874904067536454 9:0.004604758250191865 10:0.4313123561013047 11:0.2237145049884881 12:0.20990023023791252 13:0.11569455103607061 14:0.08403683806600154 15:0.12221795855717575 16:0.1419800460475825 17:0.1446661550268611 18:0.12682271680736762 20:0.8829623944742901 23:0.637567152724482 25:0.007099002302379125 
-1.0 1:0.8181120491174213 2:0.6826554105909439 3:0.18438219493476593 4:0.004412893323100537 5:0.06216423637759018 6:0.004412893323100537 7:0.8181120491174213 8:0.6826554105909439 9:0.18438219493476593 10:0.004412893323100537 11:0.33000767459708363 12:0.004412893323100537 13:0.11569455103607061 14:0.08403683806600154 15:0.12682271680736762 16:0.12221795855717575 17:0.1446661550268611 18:0.12221795855717575 20:0.1080199539524175 23:0.6145433614735226 25:0.007099002302379125 
-1.0 1:0.004412893323100537 2:0.06216423637759018 3:0.004412893323100537 4:0.4268994627782041 5:0.10571757482732157 6:0.004604758250191865 7:0.004412893323100537 8:0.33000767459708363 9:0.004412893323100537 10:0.4268994627782041 11:0.5748273215656178 12:0.004604758250191865 13:0.12221795855717575 14:0.1446661550268611 15:0.12221795855717575 16:0.1419800460475825 17:0.1446661550268611 18:0.12221795855717575 20:0.181504221028396 23:0.44071373752877974 25:0.007099002302379125 
-0.7963506876105865 1:0.004412893323100537 2:0.18169608595548734 3:0.4268994627782041 4:0.004604758250191865 7:0.004412893323100537 8:0.991749808135073 9:0.4268994627782041 10:0.004604758250191865 13:0.12221795855717575 14:0.1446661550268611 15:0.1419800460475825 16:0.12221795855717575 20:0.10514198004604758 23:0.9965464313123561 25:0.007099002302379125 
-1.0 1:0.59247889485802 2:0.7152724481964697 3:0.5226400613967767 4:0.004412893323100537 5:0.3231005372217959 6:0.5136224098234843 7:0.59247889485802 8:0.7148887183422871 9:0.5727168073676132 10:0.004412893323100537 11:0.3231005372217959 12:0.2567152724481965 13:0.11569455103607061 14:0.1419800460475825 15:0.06907137375287797 16:0.12221795855717575 17:0.1419800460475825 18:0.1751726784343822 20:0.15617805065234075 23:0.9270913277052955 25:0.007099002302379125 
-0.23069516256025993 1:0.003837298541826554 2:0.023215656178050652 3:0.8914044512663085 4:0.004029163468917882 5:0.004412893323100537 6:0.29508825786646203 7:0.003837298541826554 8:0.023215656178050652 9:0.8912125863392172 10:0.004029163468917882 11:0.004412893323100537 12:0.29470452801227937 13:0.12221795855717575 14:0.08403683806600154 15:0.11569455103607061 16:0.12221795855717575 17:0.12221795855717575 18:0.11569455103607061 19:0.8829623944742901 20:0.9004221028396009 22:0.5656178050652341 23:0.6590560245587107 25:0.007099002302379125 
