svm_type c_svc
kernel_type linear
nr_class 2
total_sv 5
rho -0.23898863455321426
label -1 6
probA 0.7168108998932525
probB -1.2001572397696654
nr_sv 3 2
SV
0.08035391002028021 1:0.9996155324875048 2:0.021337946943483274 3:0.4340638216070742 7:0.9996155324875048 8:0.021337946943483274 9:0.4340638216070742 13:0.1439830834294502 14:0.11476355247981546 15:0.14129181084198386 20:0.9998077662437524 23:0.007881584006151481 25:0.007689350249903883 
0.8080616966526212 1:0.5 2:0.18646674356016918 3:0.4725105728565936 4:0.005190311418685121 7:0.5001922337562476 8:0.18646674356016918 9:0.4725105728565936 10:0.005190311418685121 13:0.11476355247981546 14:0.1253364090734333 15:0.11476355247981546 16:0.12091503267973856 19:0.46943483275663206 20:0.497116493656286 22:0.6318723567858516 23:0.010188389081122646 25:0.007689350249903883 
0.4306292017280701 1:0.004998077662437524 2:0.4083044982698962 3:0.531526336024606 4:0.005190311418685121 7:0.004998077662437524 8:0.4083044982698962 9:0.531526336024606 10:0.005190311418685121 13:0.12091503267973856 14:0.0265282583621684 15:0.1253364090734333 16:0.12091503267973856 20:0.932718185313341 23:0.9515570934256056 25:0.007689350249903883 
-0.6665000456923965 1:0.9848135332564398 2:0.5661284121491734 3:0.25451749327181855 4:0.0044213763936947325 5:0.878316032295271 6:0.002114571318723568 7:0.9698193002691272 8:0.5734332948865821 9:0.25432525951557095 10:0.0044213763936947325 11:0.878316032295271 12:0.002114571318723568 13:0.17704728950403692 14:0.06382160707420223 15:0.11476355247981546 16:0.12091503267973856 17:0.08189158016147635 18:0.12091503267973856 19:0.2499038831218762 20:0.16993464052287582 22:0.6384083044982699 23:0.8135332564398309 25:0.007689350249903883 
-0.6525447627085751 4:0.6368704344482892 5:0.004998077662437524 6:0.47923875432525953 10:0.6368704344482892 11:0.004998077662437524 12:0.47923875432525953 16:0.11476355247981546 17:0.12091503267973856 18:0.0265282583621684 20:0.17550941945405613 21:0.6318723567858516 23:0.33391003460207613 24:0.4430988081507113 25:0.007689350249903883 
