svm_type c_svc
kernel_type linear
nr_class 2
total_sv 3697
rho 1.902056042406152
label -1 2
probA -1.673031944191156
probB 0.009968900229978005
nr_sv 1850 1847
SV
1.0 6:0.5068671088865412 12:0.7970002944283759 17:0.850083998683732 28:0.550390550581063 49:8.659658116697553E-4 60:0.6125322572264847 71:0.9395555863454511 77:0.7970002944283759 78:0.850083998683732 79:0.550390550581063 80:8.659658116697553E-4 81:0.6125322572264847 82:0.9395555863454511 83:0.18017284677600928 84:0.27184398759936956 85:0.2852491383640174 86:0.2781135800758586 87:0.2852491383640174 88:0.27184398759936956 90:0.33429744193699235 93:0.7006356189057656 95:0.0017838895720396959 
1.0 6:0.8398656021060289 17:0.8622248393633419 28:0.550390550581063 49:8.659658116697553E-4 60:0.44746185420599593 71:0.6125322572264847 77:0.9680805001818528 78:0.862138242782175 79:0.550390550581063 80:8.659658116697553E-4 81:0.44746185420599593 82:0.6125322572264847 83:0.13600859038085175 84:0.27184398759936956 85:0.2852491383640174 86:0.2781135800758586 87:0.06094667382531738 88:0.2852491383640174 90:0.33429744193699235 93:0.7006356189057656 95:0.004277871109648591 
1.0 6:0.6899322814735275 17:0.27695318588822115 28:8.659658116697553E-4 49:0.9944231801728468 60:0.900188780546944 71:0.550390550581063 77:0.6899322814735275 78:0.27695318588822115 79:8.659658116697553E-4 80:0.9944231801728468 81:0.605535253468193 82:0.900188780546944 83:0.2852491383640174 84:0.307850846048598 85:0.2781135800758586 86:0.1033097213322018 87:0.13600859038085175 88:0.27184398759936956 90:0.3240790453592892 93:0.49985278581201614 95:0.004277871109648591 
1.0 6:0.8688061795320321 17:0.6877154089956529 28:0.989920157952164 49:0.5706714698903688 60:0.9571866502710473 71:0.550390550581063 77:0.8688061795320321 78:0.6878020055768198 79:0.983563968894508 80:0.5706714698903688 81:0.605535253468193 82:0.9571693309548139 83:0.3068636450232945 84:0.3589774675695804 85:0.3589774675695804 86:0.2852491383640174 87:0.13600859038085175 88:0.27184398759936956 89:0.985624967526282 90:0.29953757425656835 91:0.550390550581063 92:0.958970539843087 93:0.8091757737404527 94:0.550390550581063 95:0.0017838895720396959 
1.0 6:0.550390550581063 12:0.1302585773913646 13:0.550390550581063 17:0.675314778572542 18:0.5933251355236495 28:0.6125322572264847 34:0.28209702280953947 35:0.550390550581063 49:0.4270943383155233 55:0.03782538665373491 60:0.8277940386913525 61:8.659658116697553E-4 66:0.794281161779733 71:0.4097577027658948 77:0.605535253468193 78:0.28209702280953947 79:0.550390550581063 80:0.4270943383155233 81:0.038033218448535654 82:0.8274996103153848 83:0.13600859038085175 84:0.307850846048598 85:0.2852491383640174 86:0.2852491383640174 87:0.2781135800758586 88:0.27184398759936956 90:0.26171218760283343 91:0.424011500025979 93:0.7741734356327612 94:0.9508131418971579 95:0.004277871109648591 
1.0 6:8.659658116697553E-4 17:0.5887355167217998 18:0.18316908848438665 28:0.550390550581063 39:8.659658116697553E-4 40:0.2218950795822581 41:8.659658116697553E-4 49:0.7827291778520584 60:0.937182840021476 71:4.156635896014825E-4 77:0.5887355167217998 78:0.6788479190841545 79:0.550390550581063 80:8.659658116697553E-4 81:0.2218950795822581 82:8.659658116697553E-4 83:0.27184398759936956 84:0.18017284677600928 85:0.2852491383640174 86:0.2781135800758586 87:0.307850846048598 88:0.2781135800758586 90:0.3619390706454909 93:0.9944578188053136 95:0.0017838895720396959 
1.0 28:9.006044441365455E-4 34:9.006044441365455E-4 39:0.0013335873499714232 78:9.006044441365455E-4 79:9.006044441365455E-4 80:0.0013335873499714232 84:0.2781135800758586 85:0.2781135800758586 86:0.2781135800758586 90:0.24929423786348914 93:0.45624274753632726 95:0.0017838895720396959 
1.0 6:0.550390550581063 12:0.4088051403730581 13:0.550390550581063 17:0.9859713538509499 28:0.550390550581063 49:0.0013335873499714232 77:0.550390550581063 78:0.9859193959022498 79:0.550390550581063 80:0.0013335873499714232 83:0.2852491383640174 84:0.27184398759936956 85:0.2852491383640174 86:0.2781135800758586 90:0.3240790453592892 93:0.49985278581201614 95:0.004277871109648591 
1.0 6:0.7428601118827829 17:0.7512946188884463 28:0.3846100555950051 49:8.659658116697553E-4 60:0.32967318450267585 71:0.550390550581063 77:0.7516063665806474 78:0.3846100555950051 79:0.605535253468193 80:8.659658116697553E-4 81:0.605535253468193 82:0.7777758534093074 83:0.3589774675695804 84:0.2852491383640174 85:0.13600859038085175 86:0.2781135800758586 87:0.13600859038085175 88:0.13600859038085175 90:0.3240790453592892 93:0.41164550823533486 95:0.0017838895720396959 
1.0 6:0.3846100555950051 17:0.32967318450267585 28:8.659658116697553E-4 49:0.550390550581063 60:0.7337328322277836 71:0.5591714439113944 77:8.659658116697553E-4 78:0.605535253468193 79:0.7777758534093074 80:0.550390550581063 81:0.9595767159112558 82:0.605535253468193 83:0.2781135800758586 84:0.13600859038085175 85:0.13600859038085175 86:0.2852491383640174 87:0.13600859038085175 88:0.13600859038085175 89:0.7741734356327612 90:0.3240790453592892 92:0.757287102305201 93:0.41164550823533486 95:0.0017838895720396959 
1.0 6:0.550390550581063 17:0.7337328322277836 28:0.5591714439113944 49:8.659658116697553E-4 55:0.7954935139160706 56:0.550390550581063 60:0.06732018219920677 61:0.5308890005022602 71:0.6125322572264847 77:0.605535253468193 78:0.7336115970141499 79:0.5591714439113944 80:8.659658116697553E-4 81:0.605535253468193 82:0.7954935139160706 83:0.13600859038085175 84:0.27184398759936956 85:0.2852491383640174 86:0.2781135800758586 87:0.13600859038085175 88:0.27184398759936956 89:0.550390550581063 90:0.10627132440811236 92:0.605535253468193 93:0.46291068428618437 95:0.0017838895720396959 
1.0 6:0.7428601118827829 17:0.7512946188884463 28:0.3846100555950051 49:8.659658116697553E-4 60:0.32967318450267585 71:0.550390550581063 77:0.605535253468193 78:0.5445712603266423 79:0.605535253468193 80:8.659658116697553E-4 81:0.9944231801728468 82:0.605535253468193 83:0.13600859038085175 84:0.27184398759936956 85:0.13600859038085175 86:0.2781135800758586 87:0.1033097213322018 88:0.13600859038085175 90:0.3240790453592892 93:0.41164550823533486 95:0.0017838895720396959 
1.0 6:8.659658116697553E-4 17:0.48570290444933234 18:0.6838705207918392 28:0.550390550581063 49:0.0013335873499714232 77:0.6838532014756057 78:0.550390550581063 79:0.605535253468193 80:0.0013335873499714232 83:0.18017284677600928 84:0.2852491383640174 85:0.13600859038085175 86:0.2781135800758586 90:0.24929423786348914 93:0.40142711165763173 95:0.0017838895720396959 
1.0 6:0.9773290150504859 17:0.7620325949531512 28:0.550390550581063 34:5.022601707684581E-4 39:5.022601707684581E-4 49:0.06092935450908398 60:9.006044441365455E-4 71:9.006044441365455E-4 77:0.7620499142693846 78:0.550390550581063 79:5.022601707684581E-4 80:5.022601707684581E-4 81:0.06092935450908398 82:9.006044441365455E-4 83:0.27184398759936956 84:0.2852491383640174 85:0.2781135800758586 86:0.2781135800758586 87:0.2781135800758586 88:0.2781135800758586 90:0.24929423786348914 93:0.40142711165763173 95:0.0017838895720396959 
1.0 6:0.605535253468193 17:0.34202185697708654 28:0.6125322572264847 39:7.966885467361748E-4 40:0.09700549022324599 41:8.31327179202965E-4 49:8.659658116697553E-4 60:0.3846100555950051 71:0.2565163927328149 77:0.605535253468193 78:0.3838826443132025 79:0.6125322572264847 80:7.966885467361748E-4 81:0.09700549022324599 82:8.31327179202965E-4 83:0.13600859038085175 84:0.2781135800758586 85:0.2852491383640174 86:0.2781135800758586 87:0.307850846048598 88:0.2781135800758586 95:0.004277871109648591 
1.0 6:0.605535253468193 17:0.34202185697708654 28:0.6125322572264847 39:7.966885467361748E-4 40:0.09700549022324599 41:8.31327179202965E-4 49:8.659658116697553E-4 60:0.3846100555950051 71:0.2565163927328149 77:0.605535253468193 78:0.3838826443132025 79:0.6125322572264847 80:7.966885467361748E-4 81:0.09700549022324599 82:8.31327179202965E-4 83:0.13600859038085175 84:0.2781135800758586 85:0.2852491383640174 86:0.2781135800758586 87:0.307850846048598 88:0.2781135800758586 95:0.0017838895720396959 
1.0 6:0.7871975614402743 17:0.47215919915481736 28:0.5591714439113944 49:0.9944231801728468 60:0.40099412875179685 71:0.550390550581063 77:0.7871975614402743 78:0.47215919915481736 79:0.5591714439113944 80:0.9944231801728468 81:0.40099412875179685 82:0.550390550581063 83:0.06094667382531738 84:0.18017284677600928 85:0.2852491383640174 86:0.1033097213322018 87:0.18017284677600928 88:0.2852491383640174 89:0.550390550581063 90:0.2973207017786938 92:0.605535253468193 93:0.6293666326053448 95:0.004277871109648591 
1.0 6:0.6583938066125149 17:8.659658116697553E-4 28:0.6125322572264847 49:0.0013335873499714232 77:0.6583938066125149 78:8.659658116697553E-4 79:0.6125322572264847 80:0.0013335873499714232 83:0.27184398759936956 84:0.2781135800758586 85:0.2852491383640174 86:0.2781135800758586 95:0.0017838895720396959 
1.0 6:0.7939001368225982 17:0.9122776632778538 28:0.8688061795320321 49:0.9173868615667053 60:0.7428601118827829 71:0.5853755693725212 77:0.7939001368225982 78:0.9117754031070854 79:0.8688061795320321 80:0.9981987911117269 81:0.9981987911117269 82:0.5492821143421258 83:0.06094667382531738 84:0.3589774675695804 85:0.1033097213322018 86:0.3068636450232945 87:0.3068636450232945 88:0.3589774675695804 89:0.8687022636346317 90:0.3158870087808933 92:0.9738478324875733 93:0.8060582968184417 95:0.0017838895720396959 
1.0 6:0.7939001368225982 17:0.9122776632778538 28:0.8688061795320321 49:0.6722146209667642 60:0.9744713278719757 71:5.022601707684581E-4 77:0.7939001368225982 78:0.9117754031070854 79:0.8688061795320321 80:0.9227038916503576 81:0.9760127470167478 82:5.022601707684581E-4 83:0.06094667382531738 84:0.3589774675695804 85:0.1033097213322018 86:0.3589774675695804 87:0.13600859038085175 88:0.2781135800758586 89:0.8687022636346317 90:0.3158870087808933 91:0.6720587471206637 92:0.9738478324875733 93:0.8060582968184417 94:0.8715772701293752 95:0.0017838895720396959 
1.0 6:0.016851694695093438 12:0.4582864268518679 13:0.550390550581063 17:0.4285491608791285 18:0.6125322572264847 19:0.11706125842151752 23:8.659658116697553E-4 28:0.29494795545471864 29:8.659658116697553E-4 49:0.9944231801728468 60:0.11196937944889936 71:0.0013335873499714232 77:8.659658116697553E-4 78:0.29494795545471864 79:8.659658116697553E-4 80:0.9944231801728468 81:0.11196937944889936 82:0.0013335873499714232 83:0.2781135800758586 84:0.307850846048598 85:0.2781135800758586 86:0.1033097213322018 87:0.307850846048598 88:0.2781135800758586 90:0.3619390706454909 93:0.7006356189057656 95:0.0017838895720396959 
1.0 6:0.8688061795320321 17:0.9140615528498934 28:0.5706714698903688 49:0.812916746046866 60:4.156635896014825E-4 71:0.7298706247077366 77:0.8688061795320321 78:0.9141135107985937 79:0.5706714698903688 80:0.812916746046866 81:4.156635896014825E-4 82:0.7298706247077366 83:0.3068636450232945 84:0.3589774675695804 85:0.2852491383640174 86:0.2852491383640174 87:0.2781135800758586 88:0.3589774675695804 89:0.550390550581063 90:0.3240790453592892 91:0.8099205043384887 92:0.550390550581063 93:0.7526628448708845 94:0.8715772701293752 95:0.004277871109648591 
1.0 6:0.9173868615667053 17:0.6877154089956529 28:0.530923639134727 34:0.8258542752732122 35:0.5591714439113944 49:8.659658116697553E-4 60:0.8488716465473943 61:0.9813644157328668 71:0.6913351460884324 77:0.605535253468193 78:0.8258542752732122 79:0.5591714439113944 80:8.659658116697553E-4 81:0.9760127470167478 82:0.8488716465473943 83:0.13600859038085175 84:0.27184398759936956 85:0.2852491383640174 86:0.2781135800758586 87:0.13600859038085175 88:0.27184398759936956 89:0.550390550581063 90:0.10627132440811236 92:0.605535253468193 93:0.46291068428618437 95:0.0017838895720396959 
1.0 6:0.8630561665425449 17:0.028247804776667416 28:0.6125322572264847 39:0.550390550581063 40:0.09490985295900518 49:8.659658116697553E-4 60:0.9944231801728468 71:0.9553854413827743 77:0.028247804776667416 78:0.6125322572264847 79:0.605535253468193 80:0.550390550581063 81:0.09490985295900518 82:8.659658116697553E-4 83:0.2781135800758586 84:0.2852491383640174 85:0.13600859038085175 86:0.2852491383640174 87:0.307850846048598 88:0.2781135800758586 90:0.29953757425656835 93:0.8091757737404527 95:0.0017838895720396959 
1.0 6:0.9267219730165053 17:0.4127366251580388 28:0.550390550581063 49:8.659658116697553E-4 60:0.550390550581063 71:0.6356708637143006 77:0.9267219730165053 78:0.4127366251580388 79:0.550390550581063 80:8.659658116697553E-4 81:0.550390550581063 82:0.6349780910649647 83:0.18017284677600928 84:0.2852491383640174 85:0.2852491383640174 86:0.2781135800758586 87:0.2852491383640174 88:0.3068636450232945 90:0.35963560158644936 93:0.4428722354041462 95:0.0017838895720396959 
1.0 6:8.659658116697553E-4 17:0.8289024749302898 28:0.8398656021060289 49:0.690919482498831 60:0.816640399037046 71:0.2509568922218951 77:8.659658116697553E-4 78:0.8289024749302898 79:0.8398656021060289 80:0.6878020055768198 81:0.8171426592078145 82:0.2509568922218951 83:0.2781135800758586 84:0.1033097213322018 85:0.2852491383640174 86:0.3589774675695804 87:0.3589774675695804 88:0.307850846048598 89:0.8355704116801469 90:0.08709884133774398 91:0.6877154089956529 92:0.8060582968184417 93:0.4428722354041462 94:0.424011500025979 95:0.004277871109648591 
1.0 6:0.605535253468193 17:0.816640399037046 28:0.033478238279152736 34:0.4847503420564956 35:0.3846100555950051 49:0.6125322572264847 60:0.8688061795320321 71:0.8208836315142278 77:0.9760127470167478 78:0.4847503420564956 79:0.3846100555950051 80:0.6125322572264847 81:0.605535253468193 82:0.8688061795320321 83:0.13600859038085175 84:0.27184398759936956 85:0.2852491383640174 86:0.2852491383640174 87:0.13600859038085175 88:0.3068636450232945 90:0.341865983130986 93:0.6558651864424393 95:0.0017838895720396959 
1.0 6:0.9773290150504859 17:0.6877154089956529 28:0.9248861254957654 34:0.6817748835275983 35:0.550390550581063 49:8.659658116697553E-4 60:0.06659277091740418 71:0.6877154089956529 77:0.9227038916503576 78:0.6817748835275983 79:0.550390550581063 80:8.659658116697553E-4 81:0.937182840021476 82:0.06659277091740418 83:0.3589774675695804 84:0.27184398759936956 85:0.2852491383640174 86:0.2781135800758586 87:0.13600859038085175 88:0.307850846048598 90:0.34477562825819635 93:0.4428722354041462 95:0.0017838895720396959 
1.0 6:4.156635896014825E-4 17:8.659658116697553E-4 28:0.5508581721193647 34:0.6817748835275983 35:0.550390550581063 49:0.0013335873499714232 77:0.5508581721193647 78:0.6817748835275983 79:0.550390550581063 80:0.0013335873499714232 83:0.2852491383640174 84:0.27184398759936956 85:0.2852491383640174 86:0.2781135800758586 90:0.34477562825819635 93:0.4428722354041462 95:0.0017838895720396959 
1.0 34:0.6817748835275983 35:0.550390550581063 49:0.7626560903375534 60:0.39933147439339095 71:0.550390550581063 77:0.605535253468193 78:0.6817748835275983 79:0.550390550581063 80:0.7621884687992518 81:0.605535253468193 82:0.39933147439339095 83:0.13600859038085175 84:0.27184398759936956 85:0.2852491383640174 86:0.3589774675695804 87:0.13600859038085175 88:0.27184398759936956 90:0.34477562825819635 91:0.757287102305201 93:0.4428722354041462 94:0.9910978714560349 95:0.0017838895720396959 
1.0 6:0.8980931432827032 12:0.5394101040890905 13:0.550390550581063 17:0.2832747363134103 28:8.659658116697553E-4 34:0.6817748835275983 35:0.550390550581063 49:0.5871248203120941 60:0.0608600772441504 71:4.156635896014825E-4 77:0.605535253468193 78:0.6817748835275983 79:0.550390550581063 80:0.554945530750446 81:0.0608600772441504 82:4.156635896014825E-4 83:0.13600859038085175 84:0.27184398759936956 85:0.2852491383640174 86:0.3589774675695804 87:0.2781135800758586 88:0.2781135800758586 90:0.34477562825819635 91:0.5834531252706143 93:0.4428722354041462 94:0.7356206376972237 95:0.0017838895720396959 
1.0 28:0.34650755988153586 34:0.642529312942725 35:0.812916746046866 49:0.0013682259824382133 77:0.9760127470167478 78:0.642529312942725 79:0.812916746046866 80:0.0013682259824382133 83:0.13600859038085175 84:0.27184398759936956 85:0.2852491383640174 86:0.2781135800758586 89:0.8099205043384887 90:0.2820450648608393 91:0.0013509066662048183 92:0.8715772701293752 93:0.7320701778693777 94:0.0013509066662048183 95:0.004277871109648591 
1.0 6:0.6125322572264847 12:0.6300940438871473 13:0.550390550581063 17:0.4598798039453402 28:0.550390550581063 49:4.156635896014825E-4 60:0.0013335873499714232 77:0.550390550581063 78:0.4598798039453402 79:0.550390550581063 80:4.156635896014825E-4 81:0.0013335873499714232 83:0.2852491383640174 84:0.27184398759936956 85:0.2852491383640174 86:0.2781135800758586 87:0.2781135800758586 90:0.341865983130986 93:0.6558651864424393 95:0.0017838895720396959 
1.0 6:0.8688061795320321 17:0.40043991063232826 28:0.3846100555950051 49:8.659658116697553E-4 60:0.4313895287414053 71:0.3846100555950051 77:0.8688061795320321 78:0.40038795268362803 79:0.3846100555950051 80:8.659658116697553E-4 81:0.4313895287414053 82:0.3846100555950051 83:0.3068636450232945 84:0.3589774675695804 85:0.2852491383640174 86:0.2781135800758586 87:0.1033097213322018 88:0.2852491383640174 90:0.341865983130986 93:0.6558651864424393 95:0.004277871109648591 
1.0 6:0.550390550581063 17:0.6893780633540588 28:0.8688061795320321 49:0.9174041808829387 60:0.8688061795320321 71:0.8946812379847243 77:0.550390550581063 78:0.6893780633540588 79:0.8688061795320321 80:0.9227038916503576 81:0.605535253468193 82:0.8688061795320321 83:0.2852491383640174 84:0.3589774675695804 85:0.1033097213322018 86:0.3589774675695804 87:0.13600859038085175 88:0.3068636450232945 89:0.8687022636346317 90:0.3158870087808933 91:0.9173868615667053 92:0.9738478324875733 93:0.8060582968184417 94:0.6019847936403471 95:0.0017838895720396959 
1.0 6:0.550390550581063 17:0.7543601378617573 28:0.6125322572264847 49:0.8398656021060289 60:0.9036353244773896 71:0.9732243371031711 72:0.8040665754516012 77:0.550390550581063 78:0.7543601378617573 79:0.6125322572264847 80:0.8398656021060289 81:0.9036353244773896 82:0.937182840021476 83:0.2852491383640174 84:0.3589774675695804 85:0.2852491383640174 86:0.2852491383640174 87:0.3589774675695804 88:0.13600859038085175 90:0.341865983130986 91:0.8355704116801469 93:0.6558651864424393 94:0.8060582968184417 95:0.004277871109648591 
1.0 6:0.6877154089956529 17:0.9032542995202549 28:0.6125322572264847 49:0.3846100555950051 60:0.7746930151197631 71:0.7871975614402743 77:0.6878020055768198 78:0.9033755347338887 79:0.6125322572264847 80:0.3846100555950051 81:0.605535253468193 82:0.7746756958035297 83:0.3589774675695804 84:0.3589774675695804 85:0.2852491383640174 86:0.2852491383640174 87:0.13600859038085175 88:0.27184398759936956 90:0.07511387450423457 93:0.4208074265228009 95:0.0017838895720396959 
1.0 1:0.8972444967872668 2:0.550390550581063 6:0.9969864389753893 17:8.659658116697553E-4 28:0.550390550581063 49:8.659658116697553E-4 60:0.9944231801728468 71:0.598209182701467 77:0.9969864389753893 78:8.659658116697553E-4 79:0.550390550581063 80:8.659658116697553E-4 81:0.9944231801728468 82:0.598209182701467 83:0.307850846048598 84:0.2781135800758586 85:0.2852491383640174 86:0.2781135800758586 87:0.1033097213322018 88:0.3068636450232945 90:0.3240790453592892 93:0.47330227402622144 95:0.0017838895720396959 
1.0 6:0.3846100555950051 17:0.7539271549559223 28:0.05793311280070663 34:0.4582864268518679 35:0.6125322572264847 49:8.659658116697553E-4 60:0.9936784495748108 71:0.550390550581063 77:0.05793311280070663 78:0.45771488941616584 79:0.6125322572264847 80:8.659658116697553E-4 81:0.9936784495748108 82:0.550390550581063 83:0.2781135800758586 84:0.27184398759936956 85:0.2852491383640174 86:0.2781135800758586 87:0.27184398759936956 88:0.2852491383640174 90:0.2871889017821576 93:0.47330227402622144 95:0.004277871109648591 
1.0 6:0.5125305252948613 17:0.9929683576092416 28:0.6266474999567017 49:0.0013335873499714232 77:0.9929510382930082 78:0.6266474999567017 79:0.605535253468193 80:0.0013335873499714232 83:0.27184398759936956 84:0.2852491383640174 85:0.13600859038085175 86:0.2781135800758586 89:0.7398985088068724 90:0.10627132440811236 92:0.4428722354041462 93:0.4428722354041462 95:0.0017838895720396959 
1.0 6:0.7771177193924383 17:0.8688061795320321 28:0.9667469128318814 34:0.9509343771107917 35:0.5591714439113944 49:8.659658116697553E-4 60:0.6899322814735275 71:0.4952804863263998 77:0.605535253468193 78:0.9509343771107917 79:0.5591714439113944 80:8.659658116697553E-4 81:0.6899322814735275 82:0.605535253468193 83:0.13600859038085175 84:0.27184398759936956 85:0.2852491383640174 86:0.2781135800758586 87:0.2852491383640174 88:0.13600859038085175 89:0.550390550581063 90:0.2871889017821576 92:0.605535253468193 93:0.45125478446110945 95:0.0017838895720396959 
1.0 6:0.6352725194409324 17:0.0013335873499714232 28:0.12482031209407853 49:0.44744453488976255 60:0.9344463880565995 71:0.6300940438871473 77:0.0013335873499714232 78:0.5125305252948613 79:0.9760127470167478 80:0.44744453488976255 82:0.9227038916503576 83:0.2781135800758586 84:0.2852491383640174 85:0.13600859038085175 86:0.06094667382531738 88:0.3589774675695804 90:0.2871889017821576 91:0.4428722354041462 93:0.45125478446110945 94:0.9474358752316459 95:0.0017838895720396959 
1.0 6:0.8166057604045792 17:0.9944231801728468 28:0.8713521190183412 49:0.9173868615667053 60:0.6445383536257988 71:0.8691872044891668 77:0.9944231801728468 78:0.8713521190183412 79:0.605535253468193 80:0.9981987911117269 81:0.6408666585843191 82:0.8692045238054001 83:0.1033097213322018 84:0.06094667382531738 85:0.13600859038085175 86:0.3068636450232945 87:0.3589774675695804 88:0.3589774675695804 90:0.2871889017821576 93:0.45125478446110945 95:0.0017838895720396959 
1.0 6:0.7398985088068724 17:0.6671746999428463 28:0.8398656021060289 39:0.550390550581063 40:0.11368399175600548 49:8.659658116697553E-4 60:0.08228407142486015 71:0.9944231801728468 77:0.6671920192590797 78:0.8398656021060289 79:0.605535253468193 80:0.550390550581063 81:0.11368399175600548 82:8.659658116697553E-4 83:0.18017284677600928 84:0.2852491383640174 85:0.13600859038085175 86:0.2852491383640174 87:0.307850846048598 88:0.2781135800758586 89:0.7398985088068724 90:0.11983234901886074 92:0.4428722354041462 93:0.6311851608098512 95:0.0017838895720396959 
1.0 6:0.5125305252948613 17:0.8665719877379241 28:0.6125322572264847 34:0.989348620516462 35:0.3846100555950051 49:7.966885467361748E-4 60:0.003117476922011119 71:8.31327179202965E-4 77:0.937182840021476 78:0.989348620516462 79:0.3846100555950051 80:7.966885467361748E-4 81:0.003117476922011119 82:8.31327179202965E-4 83:0.13600859038085175 84:0.27184398759936956 85:0.2852491383640174 86:0.2781135800758586 87:0.2781135800758586 88:0.2781135800758586 90:0.3619390706454909 93:0.7006356189057656 95:0.004277871109648591 
1.0 28:0.16141602729524238 34:0.7848940923812328 35:0.550390550581063 49:8.659658116697553E-4 60:0.8688061795320321 71:0.9063371378097993 77:0.605535253468193 78:0.7848767730649994 79:0.550390550581063 80:8.659658116697553E-4 81:0.8688061795320321 82:0.9063544571260327 83:0.13600859038085175 84:0.27184398759936956 85:0.2852491383640174 86:0.2781135800758586 87:0.3068636450232945 88:0.3589774675695804 90:0.24929423786348914 93:0.5484854257953896 95:0.0017838895720396959 
1.0 6:0.6877154089956529 17:0.7514331734183134 28:0.6125322572264847 34:0.30189300126431007 35:8.659658116697553E-4 39:8.659658116697553E-4 49:0.0867178163806093 50:8.659658116697553E-4 51:0.2737317930688096 52:8.659658116697553E-4 60:0.07693240270874106 71:0.9944231801728468 77:0.6125322572264847 78:0.30189300126431007 79:8.659658116697553E-4 80:8.659658116697553E-4 81:0.0867178163806093 82:8.659658116697553E-4 83:0.2852491383640174 84:0.307850846048598 85:0.2781135800758586 86:0.2781135800758586 87:0.307850846048598 88:0.2781135800758586 90:0.19828885155614057 93:0.47330227402622144 95:0.004277871109648591 
1.0 6:0.7251078127435528 17:0.6221271584197856 28:0.3846100555950051 49:0.5125305252948613 60:0.8090891771592857 71:4.156635896014825E-4 77:0.6221271584197856 78:0.3846100555950051 79:0.9760127470167478 80:0.5125305252948613 81:0.8091064964755191 82:4.156635896014825E-4 83:0.3589774675695804 84:0.2852491383640174 85:0.13600859038085175 86:0.2852491383640174 87:0.3068636450232945 88:0.2781135800758586 89:0.9744713278719757 90:0.11983234901886074 91:0.49985278581201614 92:0.4428722354041462 93:0.6311851608098512 94:0.8042224492977017 95:0.0017838895720396959 
1.0 6:0.9944231801728468 17:0.8994613692651414 28:0.8403332236443305 49:4.156635896014825E-4 60:8.659658116697553E-4 71:0.5487452155388906 77:0.8403332236443305 78:0.9595767159112558 79:0.605535253468193 80:4.156635896014825E-4 81:8.659658116697553E-4 82:0.5487452155388906 83:0.2852491383640174 84:0.13600859038085175 85:0.13600859038085175 86:0.2781135800758586 87:0.2781135800758586 88:0.1033097213322018 89:0.7398985088068724 90:0.11983234901886074 92:0.4428722354041462 93:0.6311851608098512 95:0.0017838895720396959 
1.0 6:0.6311851608098512 17:0.6221271584197856 28:0.3846100555950051 49:0.5125305252948613 60:0.8090891771592857 71:8.659658116697553E-4 77:0.6221271584197856 78:0.3846100555950051 79:0.9760127470167478 80:0.5125305252948613 81:0.8091064964755191 82:8.659658116697553E-4 83:0.3589774675695804 84:0.2852491383640174 85:0.13600859038085175 86:0.2852491383640174 87:0.3068636450232945 88:0.2781135800758586 89:0.9744713278719757 90:0.11983234901886074 91:0.49985278581201614 92:0.4428722354041462 93:0.6311851608098512 94:0.8042224492977017 95:0.0017838895720396959 
1.0 6:0.08252654185212768 17:0.9173868615667053 28:0.8338731186892742 34:0.6509638199483885 35:0.550390550581063 49:0.5068671088865412 60:4.156635896014825E-4 71:0.41699717695145394 77:0.605535253468193 78:0.6509638199483885 79:0.550390550581063 80:0.5068671088865412 81:4.156635896014825E-4 82:0.41699717695145394 83:0.13600859038085175 84:0.27184398759936956 85:0.2852491383640174 86:0.1033097213322018 87:0.2781135800758586 88:0.3068636450232945 90:0.341865983130986 91:0.49985278581201614 93:0.6558651864424393 94:0.778243474947609 95:0.0017838895720396959 
1.0 6:0.8042570879301685 17:0.7186477077884965 28:0.4270943383155233 34:0.5197699994804205 35:0.550390550581063 49:0.5791752541609657 60:0.48572022376556573 71:0.550390550581063 77:0.605535253468193 78:0.5197699994804205 79:0.550390550581063 80:0.5792098927934325 81:0.605535253468193 82:0.48561630786816534 83:0.13600859038085175 84:0.27184398759936956 85:0.2852491383640174 86:0.3589774675695804 87:0.13600859038085175 88:0.27184398759936956 90:0.35963560158644936 91:0.550390550581063 93:0.4428722354041462 94:0.424011500025979 95:0.004277871109648591 
1.0 6:8.659658116697553E-4 17:0.4889935745336774 28:0.6125322572264847 49:0.0013335873499714232 77:8.659658116697553E-4 78:0.4890282131661442 79:0.6125322572264847 80:0.0013335873499714232 83:0.2781135800758586 84:0.18017284677600928 85:0.2852491383640174 86:0.2781135800758586 90:0.3240790453592892 93:0.49985278581201614 95:0.004277871109648591 
1.0 6:0.6001662654358406 12:0.999826806837666 17:0.4582864268518679 28:0.6125322572264847 39:7.966885467361748E-4 40:0.14941374114549957 41:8.31327179202965E-4 49:8.659658116697553E-4 60:0.7251078127435528 71:0.5612670811756352 77:0.9998094875214326 78:0.45771488941616584 79:0.6125322572264847 80:7.966885467361748E-4 81:0.14941374114549957 82:8.31327179202965E-4 83:0.18017284677600928 84:0.27184398759936956 85:0.2852491383640174 86:0.2781135800758586 87:0.307850846048598 88:0.2781135800758586 90:0.26171218760283343 93:0.7741734356327612 95:0.004277871109648591 
1.0 6:8.659658116697553E-4 12:0.6293493132891114 17:0.850083998683732 28:0.5591714439113944 49:0.0013335873499714232 77:0.6293493132891114 78:0.850083998683732 79:0.5591714439113944 80:0.0013335873499714232 83:0.18017284677600928 84:0.27184398759936956 85:0.2852491383640174 86:0.2781135800758586 89:0.550390550581063 90:0.30876876980896795 92:0.605535253468193 93:0.7526628448708845 95:0.0017838895720396959 
1.0 6:0.2455705848733092 17:0.7888428964824469 28:0.6125322572264847 49:8.659658116697553E-4 60:0.8267548797173487 71:0.6096226120992744 77:0.2455705848733092 78:0.7884791908415456 79:0.6125322572264847 80:8.659658116697553E-4 81:0.8267548797173487 82:0.6095879734668075 83:0.307850846048598 84:0.3589774675695804 85:0.2852491383640174 86:0.2781135800758586 87:0.1033097213322018 88:0.3589774675695804 90:0.3053222258785223 93:0.49985278581201614 95:0.004277871109648591 
1.0 6:0.8688061795320321 17:0.8690832885917664 28:0.812916746046866 49:8.659658116697553E-4 60:0.8484386636415594 71:0.9782642581270892 77:0.8688061795320321 78:0.8692045238054001 79:0.812916746046866 80:8.659658116697553E-4 81:0.605535253468193 82:0.8484386636415594 83:0.3068636450232945 84:0.3589774675695804 85:0.2852491383640174 86:0.2781135800758586 87:0.13600859038085175 88:0.27184398759936956 89:0.8099205043384887 90:0.341865983130986 92:0.8715772701293752 93:0.6558651864424393 95:0.004277871109648591 
1.0 6:0.6768908363497809 12:0.7679731204212058 13:0.550390550581063 17:0.8078768250229481 28:0.6125322572264847 49:0.6888758031832903 60:0.8688061795320321 71:0.9144425778070282 77:0.550390550581063 78:0.8078768250229481 79:0.6125322572264847 80:0.6878020055768198 81:0.8688061795320321 82:0.9144425778070282 83:0.2852491383640174 84:0.27184398759936956 85:0.2852491383640174 86:0.3589774675695804 87:0.1033097213322018 88:0.3589774675695804 90:0.341865983130986 91:0.6877154089956529 93:0.6558651864424393 94:0.9110479918252827 95:0.004277871109648591 
1.0 6:0.5144529693967682 17:0.8484386636415594 28:0.6125322572264847 34:0.227939520947713 35:0.550390550581063 49:4.156635896014825E-4 60:0.8306690451860961 71:0.7622577460641854 77:0.605535253468193 78:0.227939520947713 79:0.550390550581063 80:4.156635896014825E-4 82:0.8228233949323681 83:0.13600859038085175 84:0.307850846048598 85:0.2852491383640174 86:0.2781135800758586 88:0.3589774675695804 90:0.341865983130986 93:0.6558651864424393 95:0.004277871109648591 
1.0 6:0.605535253468193 17:0.34202185697708654 28:0.6899322814735275 49:0.9944231801728468 60:0.08477805296246904 71:0.5125305252948613 77:0.3838826443132025 78:0.6899322814735275 79:0.605535253468193 80:0.9944231801728468 81:0.08477805296246904 82:0.5125305252948613 83:0.2781135800758586 84:0.2852491383640174 85:0.13600859038085175 86:0.1033097213322018 87:0.307850846048598 88:0.2852491383640174 89:0.7526628448708845 90:0.09241587142139629 92:0.8081885727151492 93:0.6311851608098512 95:0.004277871109648591 
1.0 6:0.4791388835968756 17:8.659658116697553E-4 28:0.6913351460884324 49:8.659658116697553E-4 60:0.5977935191118655 71:0.7006875768544658 77:0.4791388835968756 78:8.659658116697553E-4 79:0.6913351460884324 80:8.659658116697553E-4 81:0.5977935191118655 82:0.7323126482966452 83:0.27184398759936956 84:0.2781135800758586 85:0.2852491383640174 86:0.2781135800758586 87:0.3068636450232945 88:0.3589774675695804 89:0.6877154089956529 90:0.1875855141239024 92:0.9480247319835813 93:0.5484854257953896 95:0.004277871109648591 
1.0 6:0.7377855522263981 17:0.9858154800048494 28:0.6913351460884324 49:0.0013335873499714232 77:0.7376643170127644 78:0.9858154800048494 79:0.6913351460884324 80:0.0013335873499714232 83:0.18017284677600928 84:0.3589774675695804 85:0.2852491383640174 86:0.2781135800758586 89:0.6877154089956529 90:0.3488456675730442 92:0.9480247319835813 93:0.7320701778693777 95:0.004277871109648591 
1.0 6:0.3846100555950051 17:0.8342714629626422 28:0.6125322572264847 34:0.4663225895841632 35:0.6913351460884324 49:8.659658116697553E-4 60:0.512599802559795 71:0.13013734217773082 77:0.6125322572264847 78:0.4663225895841632 79:0.6913351460884324 80:8.659658116697553E-4 81:0.512599802559795 82:0.605535253468193 83:0.2852491383640174 84:0.27184398759936956 85:0.2852491383640174 86:0.2781135800758586 87:0.2852491383640174 88:0.13600859038085175 89:0.6877154089956529 90:0.3488456675730442 92:0.9480247319835813 93:0.7320701778693777 95:0.004277871109648591 
1.0 6:0.9597499090735898 17:0.7377855522263981 28:0.6913351460884324 49:0.0013335873499714232 77:0.9595767159112558 78:0.7376643170127644 79:0.6913351460884324 80:0.0013335873499714232 83:0.3068636450232945 84:0.18017284677600928 85:0.2852491383640174 86:0.2781135800758586 89:0.6877154089956529 90:0.3488456675730442 92:0.9480247319835813 93:0.7320701778693777 95:0.004277871109648591 
1.0 6:0.8688061795320321 17:0.9136632085765254 28:0.8398656021060289 49:0.0013335873499714232 77:0.8688061795320321 78:0.9141135107985937 79:0.8398656021060289 80:0.0013335873499714232 83:0.1033097213322018 84:0.3589774675695804 85:0.2852491383640174 86:0.2781135800758586 89:0.8355704116801469 90:0.24929423786348914 92:0.8060582968184417 93:0.45624274753632726 95:0.0017838895720396959 
1.0 6:9.006044441365455E-4 17:9.006044441365455E-4 28:0.3058591246817576 49:0.0013335873499714232 77:9.006044441365455E-4 78:9.006044441365455E-4 79:0.8653942742340532 80:0.0013335873499714232 83:0.2781135800758586 84:0.2781135800758586 85:0.1033097213322018 86:0.2781135800758586 89:0.3053222258785223 90:0.24929423786348914 92:0.6311851608098512 93:0.45624274753632726 95:0.0017838895720396959 
1.0 6:0.1641005213114186 17:0.8170733819428809 28:0.8398656021060289 49:0.0013335873499714232 77:0.6408666585843191 78:0.8171426592078145 79:0.8398656021060289 80:0.0013335873499714232 83:0.3589774675695804 84:0.3589774675695804 85:0.2852491383640174 86:0.2781135800758586 89:0.8355704116801469 90:0.24929423786348914 92:0.8060582968184417 93:0.40142711165763173 95:0.0017838895720396959 
1.0 6:0.5125305252948613 17:0.827863315956286 28:0.550390550581063 39:0.49687386341987216 49:0.965984862917612 55:0.9833734564159406 56:0.5591714439113944 60:0.5005975164100521 71:0.0013335873499714232 77:0.827863315956286 78:0.550390550581063 79:0.605535253468193 80:0.49687386341987216 81:0.965984862917612 82:0.605535253468193 83:0.27184398759936956 84:0.2852491383640174 85:0.13600859038085175 86:0.18017284677600928 87:0.2852491383640174 88:0.13600859038085175 90:0.3240790453592892 91:0.4949514193179653 93:0.41164550823533486 94:0.9508131418971579 95:0.0017838895720396959 
1.0 17:0.9988915637610627 28:0.550390550581063 34:0.4674829837718007 35:0.550390550581063 39:7.966885467361748E-4 40:0.10109284885432723 41:8.31327179202965E-4 49:0.4918339423959542 60:0.45626006685256065 71:0.5125305252948613 77:0.605535253468193 78:0.4674829837718007 79:0.550390550581063 80:7.966885467361748E-4 81:0.10109284885432723 82:8.31327179202965E-4 83:0.13600859038085175 84:0.27184398759936956 85:0.2852491383640174 86:0.2781135800758586 87:0.307850846048598 88:0.2781135800758586 90:0.3240790453592892 93:0.7526628448708845 95:0.004277871109648591 
1.0 6:0.8688061795320321 17:0.7939001368225982 28:0.55700652938222 34:0.9698643897538926 35:0.6125322572264847 49:0.0013335873499714232 77:0.937182840021476 78:0.9698643897538926 79:0.6125322572264847 80:0.0013335873499714232 83:0.13600859038085175 84:0.27184398759936956 85:0.2852491383640174 86:0.2781135800758586 90:0.341865983130986 93:0.6558651864424393 95:0.004277871109648591 
1.0 6:0.9944578188053136 17:0.6502710472990526 28:0.550390550581063 34:0.4770605656488682 35:0.550390550581063 39:8.659658116697553E-4 40:0.3421257728744869 41:8.659658116697553E-4 49:0.10637524030551274 60:0.9944231801728468 66:0.8347910424496441 67:0.5591714439113944 71:0.2608289024749303 77:0.605535253468193 78:0.47688737248653423 79:0.550390550581063 80:8.659658116697553E-4 81:0.3421257728744869 82:8.659658116697553E-4 83:0.13600859038085175 84:0.27184398759936956 85:0.2852491383640174 86:0.2781135800758586 87:0.307850846048598 88:0.2781135800758586 90:0.3178267721990336 93:0.7965499922063077 95:0.0017838895720396959 
1.0 6:0.794281161779733 17:8.659658116697553E-4 28:0.4127366251580388 49:0.0013335873499714232 77:0.794281161779733 78:8.659658116697553E-4 79:0.4127366251580388 80:0.0013335873499714232 83:0.27184398759936956 84:0.2781135800758586 85:0.2852491383640174 86:0.2781135800758586 90:0.2871889017821576 93:0.45125478446110945 95:0.0017838895720396959 
1.0 6:0.5125305252948613 17:0.47993557214361177 18:0.42844524498172815 28:0.6125322572264847 49:0.06092935450908398 60:9.006044441365455E-4 71:9.006044441365455E-4 77:0.4284972029304283 78:0.6125322572264847 79:0.605535253468193 80:0.06092935450908398 81:9.006044441365455E-4 82:9.006044441365455E-4 83:0.18017284677600928 84:0.2852491383640174 85:0.13600859038085175 86:0.2781135800758586 87:0.2781135800758586 88:0.2781135800758586 90:0.2871889017821576 93:0.45125478446110945 95:0.004277871109648591 
1.0 6:0.550390550581063 12:0.6584284452449817 13:0.550390550581063 17:0.15656661874989175 28:0.6125322572264847 39:8.659658116697553E-4 40:0.08320199518523008 41:8.659658116697553E-4 49:0.5871248203120941 60:0.3846100555950051 71:0.8480749580006581 77:0.550390550581063 78:0.15656661874989175 79:0.6125322572264847 80:8.659658116697553E-4 81:0.08320199518523008 82:8.659658116697553E-4 83:0.2852491383640174 84:0.307850846048598 85:0.2852491383640174 86:0.2781135800758586 87:0.307850846048598 88:0.2781135800758586 90:0.26171218760283343 93:0.7741734356327612 95:0.004277871109648591 
1.0 6:0.8242955368122067 12:0.5295554131522887 13:0.5591714439113944 17:0.9815202895789674 28:0.3846100555950051 34:0.4200453766085315 35:0.550390550581063 36:0.36325533867922893 37:7.966885467361748E-4 39:8.31327179202965E-4 49:8.659658116697553E-4 60:0.44999047437607165 66:0.7682155908484734 67:0.550390550581063 71:0.9222189507958226 77:0.550390550581063 78:0.36325533867922893 79:7.966885467361748E-4 80:8.31327179202965E-4 81:8.659658116697553E-4 82:0.44997315505983826 83:0.2852491383640174 84:0.307850846048598 85:0.2781135800758586 86:0.2781135800758586 87:0.2781135800758586 88:0.3589774675695804 90:0.09241587142139629 93:0.4476177280520965 95:0.0017838895720396959 
1.0 6:0.8688061795320321 17:0.7515197699994804 28:0.3846100555950051 49:0.5125305252948613 60:0.5646270285249139 71:0.550390550581063 77:0.8688061795320321 78:0.7516063665806474 79:0.3846100555950051 80:0.5125305252948613 81:0.937182840021476 82:0.5646270285249139 83:0.3068636450232945 84:0.3589774675695804 85:0.2852491383640174 86:0.2852491383640174 87:0.13600859038085175 88:0.27184398759936956 90:0.341865983130986 91:0.49985278581201614 93:0.6558651864424393 94:0.8042224492977017 95:0.004277871109648591 
1.0 6:0.6125322572264847 17:0.4617849287310137 18:0.3998337345641594 28:0.6125322572264847 39:7.966885467361748E-4 40:0.1744574724189889 41:8.31327179202965E-4 49:0.9627634700982005 60:0.9762032594953152 71:0.030724466998042918 77:0.4617849287310137 78:0.3998337345641594 79:0.6125322572264847 80:7.966885467361748E-4 81:0.1744574724189889 82:8.31327179202965E-4 83:0.27184398759936956 84:0.18017284677600928 85:0.2852491383640174 86:0.2781135800758586 87:0.307850846048598 88:0.2781135800758586 90:0.26171218760283343 93:0.7741734356327612 95:0.004277871109648591 
1.0 1:0.8422903063787042 2:0.5591714439113944 6:0.12090614662533124 7:0.550390550581063 8:0.1666291414814943 17:0.5196660835830201 28:0.6125322572264847 34:0.34048043783231435 35:7.966885467361748E-4 39:8.31327179202965E-4 49:8.659658116697553E-4 60:0.6517085505464244 71:0.3846100555950051 77:0.6125322572264847 78:0.34048043783231435 79:7.966885467361748E-4 80:8.31327179202965E-4 81:8.659658116697553E-4 82:0.6515699960165573 83:0.2852491383640174 84:0.307850846048598 85:0.2781135800758586 86:0.2781135800758586 87:0.2781135800758586 88:0.3589774675695804 90:0.3619390706454909 93:0.7006356189057656 95:0.0017838895720396959 
1.0 6:0.5886316008243995 17:0.9895910909437295 28:0.4022930774693015 34:0.4978437451289423 35:0.550390550581063 39:8.659658116697553E-4 40:0.32530871681186024 41:8.659658116697553E-4 44:0.4813557560747502 45:0.5591714439113944 49:0.6400180120888828 50:0.550390550581063 51:0.09279689637853097 55:0.06089471587661719 60:0.3555655622716015 61:8.659658116697553E-4 71:0.6125322572264847 77:0.605535253468193 78:0.49772250991530853 79:0.550390550581063 80:8.659658116697553E-4 81:0.32530871681186024 82:8.659658116697553E-4 83:0.13600859038085175 84:0.27184398759936956 85:0.2852491383640174 86:0.2781135800758586 87:0.307850846048598 88:0.2781135800758586 90:0.1011967647517276 93:0.7006356189057656 95:0.004277871109648591 
1.0 6:0.8781759296142988 17:0.45626006685256065 28:0.6125322572264847 39:7.966885467361748E-4 40:0.17650115173452952 41:8.31327179202965E-4 44:0.9548831812120058 49:0.8478151682571572 60:0.6125322572264847 71:0.4868632986369698 77:0.8782105682467656 78:0.45626006685256065 79:0.6125322572264847 80:7.966885467361748E-4 81:0.17650115173452952 82:8.31327179202965E-4 83:0.3589774675695804 84:0.06094667382531738 85:0.2852491383640174 86:0.2781135800758586 87:0.307850846048598 88:0.2781135800758586 90:0.27470167477787977 93:0.9953584232494501 95:0.004277871109648591 
1.0 6:0.9944231801728468 17:0.7539271549559223 28:0.550390550581063 49:8.659658116697553E-4 60:0.3265903462131315 71:0.9944231801728468 77:0.9944231801728468 78:0.605535253468193 79:0.550390550581063 80:8.659658116697553E-4 81:0.3265903462131315 82:0.9944231801728468 83:0.1033097213322018 84:0.13600859038085175 85:0.2852491383640174 86:0.2781135800758586 87:0.307850846048598 88:0.1033097213322018 90:0.09833907757321741 93:0.4303157311349348 95:0.004277871109648591 
1.0 6:0.605535253468193 17:0.7648902821316614 28:0.6125322572264847 34:0.24394256914737006 35:7.966885467361748E-4 39:8.31327179202965E-4 49:0.0013335873499714232 77:0.6125322572264847 78:0.24394256914737006 79:7.966885467361748E-4 80:8.31327179202965E-4 81:0.0013335873499714232 83:0.2852491383640174 84:0.307850846048598 85:0.2781135800758586 86:0.2781135800758586 87:0.2781135800758586 90:0.3240790453592892 93:0.47330227402622144 95:0.004277871109648591 
1.0 6:0.4572126292453974 17:0.9857808413723826 28:0.3846100555950051 49:0.812916746046866 60:0.6222137550009526 71:0.4127366251580388 77:0.4572126292453974 78:0.9858154800048494 79:0.3846100555950051 80:0.812916746046866 81:0.6221271584197856 82:0.4127366251580388 83:0.27184398759936956 84:0.3589774675695804 85:0.2852491383640174 86:0.2852491383640174 87:0.3589774675695804 88:0.2852491383640174 90:0.3619390706454909 91:0.8099205043384887 93:0.7008261313843329 94:0.8715772701293752 95:0.0017838895720396959 
1.0 6:8.659658116697553E-4 17:0.8541713573148132 28:0.550390550581063 49:8.659658116697553E-4 60:0.9294064670326816 71:0.3846100555950051 77:8.659658116697553E-4 78:0.8541540379985798 79:0.550390550581063 80:8.659658116697553E-4 81:0.9294064670326816 82:0.3846100555950051 83:0.2781135800758586 84:0.18017284677600928 85:0.2852491383640174 86:0.2781135800758586 87:0.18017284677600928 88:0.2852491383640174 90:0.341865983130986 93:0.6558651864424393 95:0.004277871109648591 
1.0 6:0.04830357297493895 12:0.6438629002926964 17:0.7505845269228771 28:0.5706714698903688 49:8.659658116697553E-4 60:0.8280538284348534 71:0.3846100555950051 77:0.643845580976463 78:0.7505672076066436 79:0.5706714698903688 80:8.659658116697553E-4 81:0.82803650911862 82:0.3846100555950051 83:0.27184398759936956 84:0.18017284677600928 85:0.2852491383640174 86:0.2781135800758586 87:0.18017284677600928 88:0.2852491383640174 89:0.550390550581063 90:0.09833907757321741 92:0.550390550581063 93:0.4303157311349348 95:0.004277871109648591 
1.0 6:8.659658116697553E-4 17:0.8610471258594711 28:0.8811894906389096 34:0.38554529867160847 49:0.44096711061847277 60:8.659658116697553E-4 71:0.6333500753390257 77:0.9760127470167478 78:0.8811894906389096 79:0.38554529867160847 80:0.44096711061847277 81:8.659658116697553E-4 82:0.6333500753390257 83:0.13600859038085175 84:0.27184398759936956 85:0.06094667382531738 86:0.06094667382531738 87:0.2781135800758586 88:0.18017284677600928 89:0.3861687940560107 90:0.30876876980896795 91:0.4369490292523251 92:0.7017267358284695 93:0.7398985088068724 94:0.45871940975770276 95:0.0017838895720396959 
1.0 6:0.6444344377283985 17:0.6194253450873759 28:0.6125322572264847 34:0.7017786937771697 35:0.5591714439113944 49:0.9547619459983719 60:0.8522142745804395 71:0.44557404873655587 77:0.605535253468193 78:0.7017786937771697 79:0.5591714439113944 80:0.9538093836055352 81:0.8522142745804395 82:0.44557404873655587 83:0.13600859038085175 84:0.27184398759936956 85:0.2852491383640174 86:0.3589774675695804 87:0.18017284677600928 88:0.3589774675695804 89:0.550390550581063 91:0.9508131418971579 92:0.605535253468193 94:0.424011500025979 95:0.0017838895720396959 
1.0 6:0.6125322572264847 17:0.8811894906389096 28:0.8398656021060289 49:0.0013335873499714232 77:0.8811894906389096 78:0.8398656021060289 79:0.605535253468193 80:0.0013335873499714232 83:0.27184398759936956 84:0.2852491383640174 85:0.13600859038085175 86:0.2781135800758586 90:0.30876876980896795 93:0.7398985088068724 95:0.0017838895720396959 
1.0 1:0.683645369680805 6:0.6300940438871473 17:0.8688061795320321 28:0.9722890940265678 49:0.5418001697292991 60:0.5648002216872477 71:0.4127366251580388 77:0.8688061795320321 78:0.9538093836055352 79:0.605535253468193 80:0.5418001697292991 81:0.5647136251060808 82:0.4127366251580388 83:0.3068636450232945 84:0.3589774675695804 85:0.13600859038085175 86:0.1033097213322018 87:0.3589774675695804 88:0.2852491383640174 90:0.3240790453592892 91:0.5412979095585306 93:0.7526628448708845 94:0.5959230329586588 95:0.004277871109648591 
1.0 34:0.7364866035088935 35:0.550390550581063 49:8.659658116697553E-4 60:0.7086891009542943 71:0.5125305252948613 77:0.605535253468193 78:0.7364866035088935 79:0.550390550581063 80:8.659658116697553E-4 81:0.7086717816380609 82:0.5125305252948613 83:0.13600859038085175 84:0.307850846048598 85:0.2852491383640174 86:0.2781135800758586 87:0.18017284677600928 88:0.2852491383640174 90:0.341865983130986 93:0.6558651864424393 95:0.004277871109648591 
1.0 6:0.7087410589029945 17:0.9878937979528568 18:0.8040146175029009 28:0.550390550581063 49:0.0013335873499714232 77:0.9878937979528568 78:0.8040665754516012 79:0.550390550581063 80:0.0013335873499714232 83:0.27184398759936956 84:0.18017284677600928 85:0.2852491383640174 86:0.2781135800758586 90:0.341865983130986 93:0.6558651864424393 95:0.004277871109648591 
1.0 6:0.4585808552278356 17:0.9266526957515717 28:0.4127366251580388 34:0.6817748835275983 35:0.550390550581063 49:8.659658116697553E-4 60:0.9173868615667053 71:0.6220925197873188 77:0.4127366251580388 78:0.6817748835275983 79:0.550390550581063 80:8.659658116697553E-4 81:0.9981987911117269 82:0.6221271584197856 83:0.2852491383640174 84:0.27184398759936956 85:0.2852491383640174 86:0.2781135800758586 87:0.3068636450232945 88:0.3589774675695804 90:0.34477562825819635 93:0.4428722354041462 95:0.0017838895720396959 
1.0 6:0.6125322572264847 17:0.6400353314051161 18:0.9449072550615701 28:8.659658116697553E-4 34:0.7100919655691993 49:8.659658116697553E-4 60:0.9944231801728468 71:0.1744574724189889 77:0.9448899357453368 78:8.659658116697553E-4 79:0.7100919655691993 80:8.659658116697553E-4 81:0.9944231801728468 82:0.1744574724189889 83:0.18017284677600928 84:0.2781135800758586 85:0.18017284677600928 86:0.2781135800758586 87:0.1033097213322018 88:0.307850846048598 89:0.7079616896724917 90:0.34477562825819635 92:0.5959230329586588 93:0.4428722354041462 95:0.0017838895720396959 
1.0 6:0.4440153102755503 17:0.6985399816415248 28:0.6125322572264847 34:0.49772250991530853 35:0.550390550581063 49:0.8688061795320321 60:0.3846100555950051 71:0.10126604201666119 77:0.605535253468193 78:0.49772250991530853 79:0.550390550581063 80:0.8688061795320321 81:0.3846100555950051 82:0.10126604201666119 83:0.13600859038085175 84:0.27184398759936956 85:0.2852491383640174 86:0.1033097213322018 87:0.2852491383640174 88:0.307850846048598 90:0.3619390706454909 91:0.8687022636346317 93:0.7006356189057656 94:0.9738478324875733 95:0.004277871109648591 
1.0 6:0.8688061795320321 17:0.9922063076949722 28:0.3846100555950051 49:9.006044441365455E-4 60:0.0013335873499714232 77:0.8688061795320321 78:0.991981156583938 79:0.3846100555950051 80:9.006044441365455E-4 81:0.0013335873499714232 83:0.1033097213322018 84:0.3589774675695804 85:0.2852491383640174 86:0.2781135800758586 87:0.2781135800758586 90:0.09833907757321741 93:0.4303157311349348 95:0.004277871109648591 
1.0 6:0.19409757702765895 17:0.7797675747761479 28:8.659658116697553E-4 34:0.15727671071546095 35:0.6125322572264847 49:0.7939001368225982 60:0.6877154089956529 71:0.8700878089333033 77:0.605535253468193 78:0.15727671071546095 79:0.6125322572264847 80:0.7939001368225982 81:0.6878020055768198 82:0.869983893035903 83:0.13600859038085175 84:0.307850846048598 85:0.2852491383640174 86:0.06094667382531738 87:0.3589774675695804 88:0.3589774675695804 90:0.23452086111640313 93:0.4567969656557959 95:0.004277871109648591 
1.0 17:0.30743518245899654 28:0.6125322572264847 34:0.22982732641715306 35:0.550390550581063 49:0.0013335873499714232 77:0.605535253468193 78:0.22982732641715306 79:0.550390550581063 80:0.0013335873499714232 83:0.13600859038085175 84:0.307850846048598 85:0.2852491383640174 86:0.2781135800758586 90:0.2871889017821576 93:0.47330227402622144 95:0.004277871109648591 
1.0 6:0.7620499142693846 17:0.4908813800031175 28:0.550390550581063 39:0.9796151647932939 49:0.6125322572264847 60:0.041583678276381646 71:0.7759053672561007 77:0.7620499142693846 78:0.4908813800031175 79:0.550390550581063 80:0.9796324841095273 81:0.6125322572264847 82:0.04232840887441764 83:0.27184398759936956 84:0.06094667382531738 85:0.2852491383640174 86:0.18017284677600928 87:0.2852491383640174 88:0.2781135800758586 90:0.3240790453592892 91:0.9782642581270892 93:0.49985278581201614 94:0.5484854257953896 95:0.004277871109648591 
1.0 6:0.8688061795320321 17:0.8651518038067857 28:0.5727497878383762 49:0.0013335873499714232 77:0.8360726718509153 78:0.5727497878383762 79:0.605535253468193 80:0.0013335873499714232 83:0.3589774675695804 84:0.3589774675695804 85:0.13600859038085175 86:0.2781135800758586 89:0.7526628448708845 90:0.09241587142139629 92:0.8081885727151492 93:0.6311851608098512 95:0.0017838895720396959 
1.0 6:0.550390550581063 12:0.8430523562929736 17:0.9859193959022498 28:0.3846100555950051 39:0.5591714439113944 40:0.7765808205892032 41:0.550390550581063 42:0.16685429259252846 44:8.659658116697553E-4 49:0.20223765565735466 50:8.659658116697553E-4 60:0.812916746046866 71:0.4890974904310778 77:0.8430523562929736 78:0.9859193959022498 79:0.3846100555950051 80:0.5591714439113944 81:0.7765808205892032 82:0.550390550581063 83:0.18017284677600928 84:0.27184398759936956 85:0.2852491383640174 86:0.2852491383640174 87:0.27184398759936956 88:0.2852491383640174 90:0.0962261209927432 91:0.550390550581063 93:0.5959230329586588 94:0.605535253468193 95:0.004277871109648591 
1.0 6:0.38592632362874313 17:0.6556400353314051 28:0.5591714439113944 49:8.659658116697553E-4 60:0.38592632362874313 71:0.5123226935000607 77:0.598209182701467 78:0.6556227160151717 79:0.5591714439113944 80:8.659658116697553E-4 81:0.38592632362874313 82:0.598209182701467 83:0.13600859038085175 84:0.27184398759936956 85:0.2852491383640174 86:0.2781135800758586 87:0.2852491383640174 88:0.13600859038085175 89:0.550390550581063 90:0.2973207017786938 92:0.605535253468193 93:0.6293666326053448 95:0.004277871109648591 
1.0 49:0.9944231801728468 60:0.2334817021423994 71:0.9344983460052997 80:0.9944231801728468 81:0.2334817021423994 82:0.9227038916503576 86:0.1033097213322018 87:0.307850846048598 88:0.3589774675695804 90:0.36114238209875477 93:0.4208074265228009 95:0.0017838895720396959 
1.0 6:0.7588285214499731 17:0.8688061795320321 28:0.6125322572264847 49:8.659658116697553E-4 60:0.6133809037219211 66:0.9327317757494934 71:0.49133168222518575 77:0.7588285214499731 78:0.8688061795320321 79:0.6125322572264847 80:8.659658116697553E-4 81:0.6133809037219211 82:0.605535253468193 83:0.06094667382531738 84:0.1033097213322018 85:0.2852491383640174 86:0.2781135800758586 87:0.2852491383640174 88:0.13600859038085175 90:0.09833907757321741 93:0.45125478446110945 95:0.0017838895720396959 
1.0 6:8.659658116697553E-4 17:0.4003013561024611 28:0.3846100555950051 39:0.5125305252948613 40:0.4122343649872703 41:0.550390550581063 42:0.6838185628431389 49:0.6125322572264847 60:0.4721072412061172 71:0.550390550581063 77:8.659658116697553E-4 78:0.40038795268362803 79:0.3846100555950051 80:0.5125305252948613 81:0.4121824070385701 82:0.550390550581063 83:0.2781135800758586 84:0.3589774675695804 85:0.2852491383640174 86:0.2852491383640174 87:0.27184398759936956 88:0.2852491383640174 90:0.341865983130986 91:0.49985278581201614 93:0.6558651864424393 94:0.8042224492977017 95:0.004277871109648591 
1.0 6:0.3846100555950051 17:0.4844385943642945 28:0.5125305252948613 34:0.8078768250229481 35:0.6125322572264847 49:0.0013335873499714232 77:0.9760127470167478 78:0.8078768250229481 79:0.6125322572264847 80:0.0013335873499714232 83:0.13600859038085175 84:0.27184398759936956 85:0.2852491383640174 86:0.2781135800758586 90:0.341865983130986 93:0.6558651864424393 95:0.004277871109648591 
1.0 6:0.550390550581063 17:0.7897781395590502 18:0.7028178527511734 28:0.6125322572264847 49:0.0013335873499714232 77:0.7897781395590502 78:0.7028351720674068 79:0.6125322572264847 80:0.0013335873499714232 83:0.27184398759936956 84:0.18017284677600928 85:0.2852491383640174 86:0.2781135800758586 90:0.24929423786348914 93:0.45624274753632726 95:0.0017838895720396959 
1.0 6:8.659658116697553E-4 17:0.23736122897867992 28:0.9896950068411299 49:8.659658116697553E-4 60:0.5977935191118655 71:0.9173868615667053 77:8.659658116697553E-4 78:0.23736122897867992 79:0.989521813678796 80:8.659658116697553E-4 81:0.5977935191118655 82:0.9981987911117269 83:0.2781135800758586 84:0.307850846048598 85:0.3589774675695804 86:0.2781135800758586 87:0.3068636450232945 88:0.3068636450232945 89:0.985624967526282 90:0.276814631358354 92:0.9732589757356379 93:0.5484854257953896 95:0.004277871109648591 
1.0 6:0.9663658878747468 17:0.45626006685256065 28:0.5706714698903688 34:0.15334522593048028 35:7.966885467361748E-4 39:8.31327179202965E-4 49:0.4127366251580388 55:0.16361558045688357 60:0.7738790072567935 71:0.550390550581063 77:0.5706714698903688 78:0.15334522593048028 79:7.966885467361748E-4 80:8.31327179202965E-4 81:0.4127366251580388 82:0.16361558045688357 83:0.2852491383640174 84:0.307850846048598 85:0.2781135800758586 86:0.2781135800758586 87:0.2852491383640174 88:0.307850846048598 90:0.34477562825819635 93:0.4428722354041462 95:0.004277871109648591 
1.0 6:0.550390550581063 12:0.7749008469145638 13:0.550390550581063 17:0.9323334314761254 28:0.550390550581063 49:0.0013335873499714232 77:0.550390550581063 78:0.9323334314761254 79:0.550390550581063 80:0.0013335873499714232 83:0.2852491383640174 84:0.27184398759936956 85:0.2852491383640174 86:0.2781135800758586 90:0.24929423786348914 93:0.45624274753632726 95:0.0017838895720396959 
1.0 1:0.8356570082613138 2:0.550390550581063 6:0.23459013838133672 17:8.659658116697553E-4 28:0.6125322572264847 49:8.659658116697553E-4 60:0.812916746046866 71:0.7052425570238487 77:0.23459013838133672 78:8.659658116697553E-4 79:0.6125322572264847 80:8.659658116697553E-4 81:0.812916746046866 82:0.7052425570238487 83:0.307850846048598 84:0.2781135800758586 85:0.2852491383640174 86:0.2781135800758586 87:0.2852491383640174 88:0.3589774675695804 90:0.35963560158644936 93:0.4428722354041462 95:0.004277871109648591 
1.0 6:0.5591714439113944 12:0.9998094875214326 17:0.9639411836020714 28:0.550390550581063 49:8.659658116697553E-4 60:0.45206879232407904 71:0.404025009092641 77:0.9639411836020714 78:0.550390550581063 79:0.605535253468193 80:8.659658116697553E-4 81:0.45206879232407904 82:0.40416356362250816 83:0.27184398759936956 84:0.2852491383640174 85:0.13600859038085175 86:0.2781135800758586 87:0.1033097213322018 88:0.3589774675695804 90:0.14388887926704655 93:0.4127366251580388 95:0.0017838895720396959 
1.0 34:0.7968963785309756 49:0.46845286548087084 55:0.816640399037046 56:0.550390550581063 60:0.2996068515215019 71:0.9944231801728468 78:0.605535253468193 79:0.7970002944283759 80:0.46857410069450456 81:0.605535253468193 82:0.816640399037046 84:0.13600859038085175 85:0.18017284677600928 86:0.3589774675695804 87:0.13600859038085175 88:0.27184398759936956 89:0.7965673115225411 90:0.14388887926704655 91:0.46658237932766417 92:0.9782642581270892 93:0.4127366251580388 94:0.8715772701293752 95:0.0017838895720396959 
1.0 6:0.8398656021060289 12:0.7970002944283759 17:0.8175410034811825 28:0.550390550581063 49:8.659658116697553E-4 60:0.5459394863090805 66:0.9999134034188331 71:0.9639411836020714 77:0.8175410034811825 78:0.550390550581063 79:0.605535253468193 80:8.659658116697553E-4 81:0.5459394863090805 82:0.605535253468193 83:0.27184398759936956 84:0.2852491383640174 85:0.13600859038085175 86:0.2781135800758586 87:0.06094667382531738 88:0.13600859038085175 90:0.14388887926704655 93:0.4127366251580388 95:0.0017838895720396959 
1.0 6:4.156635896014825E-4 17:0.23876409359358491 28:0.7498744349573079 39:0.4865688702610021 49:9.006044441365455E-4 60:9.006044441365455E-4 71:0.6513794835379899 77:0.9981987911117269 78:0.7500303088034085 79:0.605535253468193 80:0.4865688702610021 81:9.006044441365455E-4 82:9.006044441365455E-4 83:0.3068636450232945 84:0.3589774675695804 85:0.13600859038085175 86:0.18017284677600928 87:0.2781135800758586 88:0.2781135800758586 90:0.24929423786348914 91:0.47330227402622144 93:0.6305270267929822 94:0.9976792116247251 95:0.0017838895720396959 
1.0 6:0.8688061795320321 17:0.744574724189889 28:0.612237828850517 49:0.44096711061847277 60:8.659658116697553E-4 71:0.6125322572264847 77:0.8688061795320321 78:0.9981987911117269 79:0.6123071061154506 80:0.44096711061847277 81:8.659658116697553E-4 82:0.6125322572264847 83:0.3068636450232945 84:0.3068636450232945 85:0.3589774675695804 86:0.06094667382531738 87:0.2781135800758586 88:0.2852491383640174 89:0.6083756213304699 90:0.14388887926704655 91:0.4369490292523251 92:0.7344602435095863 93:0.4127366251580388 94:0.45871940975770276 95:0.0017838895720396959 
1.0 6:8.659658116697553E-4 17:0.4908813800031175 28:0.550390550581063 34:0.7968963785309756 49:0.0013335873499714232 77:0.550390550581063 78:0.605535253468193 79:0.7970002944283759 80:0.0013335873499714232 83:0.2852491383640174 84:0.13600859038085175 85:0.18017284677600928 86:0.2781135800758586 89:0.7965673115225411 90:0.14388887926704655 92:0.9782642581270892 93:0.4127366251580388 95:0.0017838895720396959 
1.0 6:0.6125322572264847 17:0.8153934082682416 18:0.45920435061223785 28:0.550390550581063 34:0.7968963785309756 49:0.9944231801728468 60:8.659658116697553E-4 71:0.9303590294255183 77:0.550390550581063 78:0.605535253468193 79:0.7970002944283759 80:0.9944231801728468 81:8.659658116697553E-4 82:0.9303590294255183 83:0.2852491383640174 84:0.13600859038085175 85:0.18017284677600928 86:0.1033097213322018 87:0.2781135800758586 88:0.06094667382531738 89:0.7965673115225411 90:0.14388887926704655 92:0.9782642581270892 93:0.4127366251580388 95:0.0017838895720396959 
1.0 6:0.8688061795320321 17:0.9906302499177333 28:0.6125322572264847 44:0.9240374790003291 49:0.2278875629990128 60:8.659658116697553E-4 71:0.690919482498831 77:0.8688061795320321 78:0.9908727203450007 79:0.6125322572264847 80:0.605535253468193 81:0.9240201596840957 82:0.2278875629990128 83:0.3068636450232945 84:0.3589774675695804 85:0.2852491383640174 86:0.13600859038085175 87:0.18017284677600928 88:0.307850846048598 90:0.341865983130986 91:0.7526628448708845 93:0.6558651864424393 94:0.8081885727151492 95:0.004277871109648591 
1.0 6:0.5591714439113944 17:0.4918512617121876 28:0.550390550581063 34:0.7528533573494518 35:0.5591714439113944 49:0.9173868615667053 60:0.48918408701224475 71:0.5591714439113944 77:0.6413169608063873 78:0.7528533573494518 79:0.5591714439113944 80:0.9173868615667053 81:0.4890974904310778 82:0.5591714439113944 83:0.13600859038085175 84:0.27184398759936956 85:0.2852491383640174 86:0.3068636450232945 87:0.3589774675695804 88:0.2852491383640174 89:0.550390550581063 90:0.09241587142139629 92:0.605535253468193 93:0.4476177280520965 95:0.0017838895720396959 
1.0 6:0.5076118394845771 17:0.4270943383155233 23:0.7367463932523944 24:0.2399591264136892 25:0.6125322572264847 28:0.071494137411455 34:7.966885467361748E-4 39:8.659658116697553E-4 40:0.14941374114549957 41:8.31327179202965E-4 49:0.6878020055768198 60:0.8155666014305755 71:8.659658116697553E-4 77:0.6125322572264847 78:0.071494137411455 79:7.966885467361748E-4 80:8.659658116697553E-4 81:0.14941374114549957 82:8.31327179202965E-4 83:0.2852491383640174 84:0.307850846048598 85:0.2781135800758586 86:0.2781135800758586 87:0.307850846048598 88:0.2781135800758586 90:0.3619390706454909 93:0.7006356189057656 95:0.004277871109648591 
1.0 34:0.850083998683732 35:0.550390550581063 39:8.659658116697553E-4 40:0.32035539236910926 41:8.659658116697553E-4 49:0.7939001368225982 60:0.7428601118827829 71:0.6720760664368971 77:0.605535253468193 78:0.850083998683732 79:0.550390550581063 80:8.659658116697553E-4 81:0.32035539236910926 82:8.659658116697553E-4 83:0.13600859038085175 84:0.27184398759936956 85:0.2852491383640174 86:0.2781135800758586 87:0.307850846048598 88:0.2781135800758586 90:0.10627132440811236 93:0.4428722354041462 95:0.004277871109648591 
1.0 6:0.7871975614402743 17:0.9925700133358735 28:0.6125322572264847 49:0.9944231801728468 60:0.10410640987893797 71:0.9944231801728468 77:0.7871975614402743 78:0.9925700133358735 79:0.6125322572264847 80:0.9944231801728468 81:0.10410640987893797 82:0.9944231801728468 83:0.06094667382531738 84:0.18017284677600928 85:0.2852491383640174 86:0.1033097213322018 87:0.307850846048598 88:0.1033097213322018 90:0.10627132440811236 93:0.4428722354041462 95:0.004277871109648591 
1.0 6:0.07436914390619859 17:8.659658116697553E-4 28:0.6125322572264847 39:0.6699804291726562 49:8.659658116697553E-4 60:0.812916746046866 71:0.9602348499281248 77:8.659658116697553E-4 78:0.6125322572264847 79:0.605535253468193 80:0.6699804291726562 81:8.659658116697553E-4 82:0.812916746046866 83:0.2781135800758586 84:0.2852491383640174 85:0.13600859038085175 86:0.18017284677600928 87:0.2781135800758586 88:0.2852491383640174 90:0.2973207017786938 91:0.6692356985746203 93:0.6293666326053448 94:0.9983546649578274 95:0.004277871109648591 
1.0 6:0.6125322572264847 17:0.9699683056512929 18:0.6822944630146002 28:0.5591714439113944 49:0.0013335873499714232 77:0.9699683056512929 78:0.6822944630146002 79:0.5591714439113944 80:0.0013335873499714232 83:0.27184398759936956 84:0.18017284677600928 85:0.2852491383640174 86:0.2781135800758586 89:0.550390550581063 90:0.29953757425656835 92:0.605535253468193 93:0.8091757737404527 95:0.0017838895720396959 
1.0 12:0.804759348100937 13:0.550390550581063 17:0.9516444690763609 18:0.7881328045168777 28:0.550390550581063 39:8.659658116697553E-4 40:0.3460572576594676 41:8.659658116697553E-4 49:0.5296420097334558 60:0.8398656021060289 71:0.30191032058054346 77:0.9516444690763609 78:0.7881328045168777 79:0.550390550581063 80:8.659658116697553E-4 81:0.3460572576594676 82:8.659658116697553E-4 83:0.27184398759936956 84:0.18017284677600928 85:0.2852491383640174 86:0.2781135800758586 87:0.307850846048598 88:0.2781135800758586 90:0.3240790453592892 93:0.7526628448708845 95:0.004277871109648591 
1.0 6:0.5125305252948613 17:0.8347910424496441 18:0.6641611389182355 28:0.550390550581063 49:0.9944231801728468 60:0.10216664646079773 71:0.0013335873499714232 77:0.8346698072360104 78:0.6641784582344689 79:0.550390550581063 80:0.9944231801728468 81:0.10216664646079773 82:0.0013335873499714232 83:0.27184398759936956 84:0.18017284677600928 85:0.2852491383640174 86:0.1033097213322018 87:0.307850846048598 88:0.2781135800758586 90:0.07511387450423457 93:0.4208074265228009 95:0.0017838895720396959 
1.0 6:0.965326728900743 17:0.6129998787647863 28:0.3846100555950051 49:8.659658116697553E-4 60:0.5977935191118655 71:0.9173868615667053 77:0.9653960061656766 78:0.6129998787647863 79:0.3846100555950051 80:8.659658116697553E-4 81:0.5977935191118655 82:0.9981987911117269 83:0.3589774675695804 84:0.06094667382531738 85:0.2852491383640174 86:0.2781135800758586 87:0.3068636450232945 88:0.3068636450232945 90:0.07511387450423457 93:0.4208074265228009 95:0.004277871109648591 
1.0 6:0.9185472557543428 17:0.6125322572264847 28:0.6125322572264847 39:7.966885467361748E-4 40:0.2846256429796152 41:8.31327179202965E-4 49:0.9944231801728468 60:0.2682762084552902 61:7.966885467361748E-4 62:0.36044960944941895 63:8.31327179202965E-4 71:0.0013335873499714232 77:0.9185472557543428 78:0.6125322572264847 79:0.6125322572264847 80:7.966885467361748E-4 81:0.2846256429796152 82:8.31327179202965E-4 83:0.27184398759936956 84:0.2852491383640174 85:0.2852491383640174 86:0.2781135800758586 87:0.307850846048598 88:0.2781135800758586 90:0.3619390706454909 93:0.7008261313843329 95:0.004277871109648591 
1.0 6:0.8688061795320321 17:0.7505152496579435 28:0.3846100555950051 49:0.7939001368225982 60:0.7717314120438525 71:0.821940109804465 77:0.8688061795320321 78:0.7506538041878107 79:0.3846100555950051 80:0.7939001368225982 81:0.7716101768302187 82:0.605535253468193 83:0.3068636450232945 84:0.3589774675695804 85:0.2852491383640174 86:0.06094667382531738 87:0.3589774675695804 88:0.13600859038085175 90:0.09833907757321741 93:0.45125478446110945 95:0.0017838895720396959 
1.0 6:0.550390550581063 17:0.991981156583938 28:0.3846100555950051 49:0.0013335873499714232 77:0.550390550581063 78:0.991981156583938 79:0.3846100555950051 80:0.0013335873499714232 83:0.2852491383640174 84:0.3589774675695804 85:0.2852491383640174 86:0.2781135800758586 90:0.21273316129479208 93:0.6558825057586727 95:0.004277871109648591 
1.0 1:0.6649231888325049 6:0.1387277230294948 17:0.7507230814527442 28:0.3846100555950051 49:0.812916746046866 60:0.7277923067597292 71:0.3846100555950051 77:0.1387277230294948 78:0.7506538041878107 79:0.3846100555950051 80:0.812916746046866 81:0.7277923067597292 82:0.3846100555950051 83:0.307850846048598 84:0.3589774675695804 85:0.2852491383640174 86:0.2852491383640174 87:0.3589774675695804 88:0.2852491383640174 90:0.3053222258785223 91:0.8099205043384887 93:0.49985278581201614 94:0.8715772701293752 95:0.004277871109648591 
1.0 6:0.6890143577131574 17:0.9959126413689188 28:0.550390550581063 39:7.966885467361748E-4 40:0.1507126898630042 41:8.31327179202965E-4 49:0.605535253468193 60:0.816640399037046 71:0.6008070801364762 77:0.6878020055768198 78:0.9959299606851522 79:0.550390550581063 80:7.966885467361748E-4 81:0.1507126898630042 82:8.31327179202965E-4 83:0.3589774675695804 84:0.3589774675695804 85:0.2852491383640174 86:0.2781135800758586 87:0.307850846048598 88:0.2781135800758586 90:0.1900448570290445 93:0.7024541471102721 95:0.0017838895720396959 
1.0 6:0.6720760664368971 17:0.7606297303382462 28:0.5706714698903688 49:0.4561215123226935 60:0.5125305252948613 71:0.8308595576646634 77:0.9227038916503576 78:0.7606297303382462 79:0.5706714698903688 80:0.9760127470167478 81:0.4561215123226935 82:0.5125305252948613 83:0.3589774675695804 84:0.3589774675695804 85:0.2852491383640174 86:0.13600859038085175 87:0.27184398759936956 88:0.2852491383640174 89:0.550390550581063 90:0.2871889017821576 92:0.550390550581063 93:0.47330227402622144 95:0.004277871109648591 
1.0 6:0.848421344325326 17:0.7467050000865966 18:0.6931190356604722 28:0.9303417101092849 49:0.0013335873499714232 77:0.7467050000865966 78:0.6931017163442388 79:0.9303417101092849 80:0.0013335873499714232 83:0.27184398759936956 84:0.18017284677600928 85:0.2852491383640174 86:0.2781135800758586 89:0.92990872720345 90:0.3053222258785223 92:0.8745908311539861 93:0.49985278581201614 95:0.004277871109648591 
1.0 6:0.9944231801728468 17:0.41677202584041984 28:0.3846100555950051 34:0.19023536950761183 35:0.550390550581063 49:0.0013335873499714232 77:0.605535253468193 78:0.19023536950761183 79:0.550390550581063 80:0.0013335873499714232 83:0.13600859038085175 84:0.307850846048598 85:0.2852491383640174 86:0.2781135800758586 90:0.19828885155614057 93:0.47330227402622144 95:0.004277871109648591 
1.0 6:0.7428601118827829 17:0.7033893901868754 28:0.6125322572264847 49:8.659658116697553E-4 60:0.46220059232061517 71:0.5125305252948613 77:0.9981987911117269 78:0.7035279447167426 79:0.6125322572264847 80:8.659658116697553E-4 81:0.46221791163684856 82:0.5125305252948613 83:0.3068636450232945 84:0.3589774675695804 85:0.2852491383640174 86:0.2781135800758586 87:0.3589774675695804 88:0.2852491383640174 90:0.3240790453592892 93:0.47330227402622144 95:0.004277871109648591 
1.0 6:0.9572732468522143 17:0.6197544120958105 28:8.659658116697553E-4 34:0.6817748835275983 35:0.550390550581063 39:8.659658116697553E-4 40:0.18351547480905453 41:8.659658116697553E-4 49:0.9173868615667053 60:0.8493046294532292 71:0.6557439512288055 77:0.605535253468193 78:0.6817748835275983 79:0.550390550581063 80:8.659658116697553E-4 81:0.18351547480905453 82:8.659658116697553E-4 83:0.13600859038085175 84:0.27184398759936956 85:0.2852491383640174 86:0.2781135800758586 87:0.307850846048598 88:0.2781135800758586 90:0.34477562825819635 93:0.4428722354041462 95:0.0017838895720396959 
1.0 6:0.1582119537920643 17:0.2623530023034691 28:8.659658116697553E-4 34:0.6817748835275983 35:0.550390550581063 49:0.6877154089956529 60:0.8467413706506867 71:0.5136909194824988 77:0.605535253468193 78:0.6817748835275983 79:0.550390550581063 80:0.6878020055768198 81:0.8467933285993869 82:0.5136909194824988 83:0.13600859038085175 84:0.27184398759936956 85:0.2852491383640174 86:0.3589774675695804 87:0.3589774675695804 88:0.3589774675695804 90:0.34477562825819635 93:0.4428722354041462 95:0.0017838895720396959 
1.0 6:0.6400180120888828 17:8.659658116697553E-4 28:0.77477961170093 34:0.6817748835275983 35:0.550390550581063 49:0.7428601118827829 60:0.8322104643308682 71:0.9490812102738184 77:0.605535253468193 78:0.6817748835275983 79:0.550390550581063 80:0.9981987911117269 81:0.8322797415958018 82:0.605535253468193 83:0.13600859038085175 84:0.27184398759936956 85:0.2852491383640174 86:0.3068636450232945 87:0.3589774675695804 88:0.13600859038085175 90:0.34477562825819635 93:0.4428722354041462 95:0.0017838895720396959 
1.0 49:0.9235352188295606 60:0.9249380834444656 71:0.8809297008954087 80:0.9227038916503576 81:0.9249380834444656 82:0.8809470202116421 86:0.3589774675695804 87:0.06094667382531738 88:0.18017284677600928 90:0.36114238209875477 91:0.9173868615667053 93:0.4208074265228009 94:0.9110479918252827 95:0.0017838895720396959 
1.0 6:0.3846100555950051 12:0.9189629193439443 13:0.550390550581063 17:0.20440257018652905 28:0.6125322572264847 49:0.0013335873499714232 77:0.550390550581063 78:0.20440257018652905 79:0.6125322572264847 80:0.0013335873499714232 83:0.2852491383640174 84:0.307850846048598 85:0.2852491383640174 86:0.2781135800758586 90:0.33632380193629957 93:0.46658237932766417 95:0.0017838895720396959 
1.0 6:0.9303417101092849 17:0.762067233585618 28:0.6125322572264847 34:0.4791735222293424 35:0.550390550581063 49:0.0013335873499714232 77:0.605535253468193 78:0.4791735222293424 79:0.550390550581063 80:0.0013335873499714232 83:0.13600859038085175 84:0.27184398759936956 85:0.2852491383640174 86:0.2781135800758586 90:0.36114238209875477 93:0.4208074265228009 95:0.004277871109648591 
1.0 34:0.8858137480732261 35:0.550390550581063 49:0.6893087860891252 60:0.5021562548710576 71:0.812916746046866 77:0.605535253468193 78:0.8857964287569927 79:0.550390550581063 80:0.6893780633540588 81:0.5021562548710576 82:0.812916746046866 83:0.13600859038085175 84:0.27184398759936956 85:0.2852491383640174 86:0.3589774675695804 87:0.27184398759936956 88:0.2852491383640174 90:0.36114238209875477 91:0.6877154089956529 93:0.4208074265228009 94:0.6125322572264847 95:0.0017838895720396959 
1.0 6:0.5537158592978749 17:0.3938758897798715 28:0.6125322572264847 49:0.0013335873499714232 77:0.553196279810873 78:0.3938758897798715 79:0.6125322572264847 80:0.0013335873499714232 83:0.3589774675695804 84:0.3589774675695804 85:0.2852491383640174 86:0.2781135800758586 90:0.33632380193629957 93:0.46658237932766417 95:0.0017838895720396959 
1.0 6:8.659658116697553E-4 17:0.5056374374339702 28:0.8398656021060289 49:0.9944231801728468 60:0.08910788202081782 71:0.0013335873499714232 77:8.659658116697553E-4 78:0.5056547567502035 79:0.8398656021060289 80:0.9944231801728468 81:0.08910788202081782 82:0.0013335873499714232 83:0.2781135800758586 84:0.3589774675695804 85:0.2852491383640174 86:0.1033097213322018 87:0.307850846048598 88:0.2781135800758586 89:0.8355704116801469 90:0.276814631358354 92:0.8060582968184417 93:0.5484854257953896 95:0.004277871109648591 
1.0 6:0.6623252913974956 7:0.7688910441815757 17:0.550390550581063 28:0.1210100625227316 29:0.5706714698903688 30:0.10895581842428861 34:7.966885467361748E-4 39:8.31327179202965E-4 49:8.659658116697553E-4 60:0.636917854483105 61:0.6653734910545732 71:0.550390550581063 77:0.5706714698903688 78:0.10895581842428861 79:7.966885467361748E-4 80:8.31327179202965E-4 81:8.659658116697553E-4 82:0.9760127470167478 83:0.2852491383640174 84:0.307850846048598 85:0.2781135800758586 86:0.2781135800758586 87:0.2781135800758586 88:0.13600859038085175 90:0.19828885155614057 93:0.47330227402622144 95:0.004277871109648591 
1.0 12:0.958797346680753 13:0.5591714439113944 17:0.22981000710091964 28:0.550390550581063 39:8.659658116697553E-4 40:0.18545523822719479 41:8.659658116697553E-4 49:0.5463205112662152 60:0.45626006685256065 71:0.49748003948804104 77:0.5591714439113944 78:0.22981000710091964 79:0.550390550581063 80:8.659658116697553E-4 81:0.18545523822719479 82:8.659658116697553E-4 83:0.2852491383640174 84:0.307850846048598 85:0.2852491383640174 86:0.2781135800758586 87:0.307850846048598 88:0.2781135800758586 90:0.3619390706454909 93:0.7008261313843329 95:0.0017838895720396959 
1.0 6:0.9658636277039783 17:0.8688061795320321 28:0.9755624447946795 49:0.5125305252948613 60:0.09297008954086493 71:8.659658116697553E-4 77:0.8688061795320321 78:0.9754931675297459 79:0.605535253468193 80:0.5125305252948613 81:0.605535253468193 82:0.09297008954086493 83:0.3068636450232945 84:0.3589774675695804 85:0.13600859038085175 86:0.2852491383640174 87:0.13600859038085175 88:0.307850846048598 90:0.14388887926704655 91:0.49985278581201614 93:0.4127366251580388 94:0.8042224492977017 95:0.0017838895720396959 
1.0 6:0.9194132215660126 12:0.559552468868529 13:0.5591714439113944 17:0.18751623685896882 28:0.6125322572264847 39:8.659658116697553E-4 40:0.36893607440378257 41:8.659658116697553E-4 49:0.8688061795320321 60:0.93832591489288 71:0.8984395296073711 77:0.5591714439113944 78:0.18751623685896882 79:0.6125322572264847 80:8.659658116697553E-4 81:0.36893607440378257 82:8.659658116697553E-4 83:0.2852491383640174 84:0.307850846048598 85:0.2852491383640174 86:0.2781135800758586 87:0.307850846048598 88:0.2781135800758586 90:0.1846585496804586 93:0.7884272328928454 95:0.004277871109648591 
1.0 6:0.7831102028091931 17:8.659658116697553E-4 28:0.5068671088865412 34:0.7839761686208628 35:0.550390550581063 49:0.8688061795320321 60:0.4854950726545316 71:0.8307729610834964 77:0.6349780910649647 78:0.7839588493046294 79:0.550390550581063 80:0.8688061795320321 81:0.4854950726545316 82:0.8239491504875388 83:0.13600859038085175 84:0.27184398759936956 85:0.2852491383640174 86:0.3068636450232945 87:0.06094667382531738 88:0.3589774675695804 90:0.34477562825819635 91:0.8687022636346317 93:0.4428722354041462 94:0.9738478324875733 95:0.0017838895720396959 
1.0 6:8.659658116697553E-4 17:0.7679731204212058 18:0.550390550581063 19:0.8078768250229481 28:0.6125322572264847 34:0.227939520947713 35:0.550390550581063 49:0.6125322572264847 60:0.2278356050503126 71:0.6125322572264847 77:0.605535253468193 78:0.227939520947713 79:0.550390550581063 80:0.6125322572264847 81:0.2278356050503126 82:0.6125322572264847 83:0.13600859038085175 84:0.307850846048598 85:0.2852491383640174 86:0.2852491383640174 87:0.307850846048598 88:0.2852491383640174 90:0.341865983130986 93:0.6558651864424393 95:0.0017838895720396959 
1.0 6:8.659658116697553E-4 17:0.7679731204212058 18:0.550390550581063 19:0.8078768250229481 28:0.6125322572264847 34:0.227939520947713 35:0.550390550581063 49:0.6125322572264847 60:0.2278356050503126 71:0.6125322572264847 77:0.605535253468193 78:0.227939520947713 79:0.550390550581063 80:0.6125322572264847 81:0.2278356050503126 82:0.6125322572264847 83:0.13600859038085175 84:0.307850846048598 85:0.2852491383640174 86:0.2852491383640174 87:0.307850846048598 88:0.2852491383640174 90:0.341865983130986 93:0.6558651864424393 95:0.004277871109648591 
1.0 6:0.8688061795320321 17:4.156635896014825E-4 28:0.8691698851729334 34:0.4582864268518679 35:0.812916746046866 49:0.9944231801728468 60:0.45206879232407904 71:0.9571693309548139 77:0.5424409844299347 78:0.45771488941616584 79:0.812916746046866 80:0.9944231801728468 81:0.45206879232407904 82:0.605535253468193 83:0.13600859038085175 84:0.27184398759936956 85:0.2852491383640174 86:0.1033097213322018 87:0.1033097213322018 88:0.13600859038085175 89:0.8099205043384887 90:0.08709884133774398 92:0.8715772701293752 93:0.4428722354041462 95:0.004277871109648591 
1.0 6:0.550390550581063 12:0.7679731204212058 13:0.550390550581063 17:0.8078768250229481 28:0.6125322572264847 49:0.0013335873499714232 77:0.550390550581063 78:0.8078768250229481 79:0.6125322572264847 80:0.0013335873499714232 83:0.2852491383640174 84:0.27184398759936956 85:0.2852491383640174 86:0.2781135800758586 90:0.341865983130986 93:0.6558651864424393 95:0.004277871109648591 
1.0 6:0.9541904085626699 17:0.8078768250229481 18:0.8040665754516012 19:0.521415334522593 28:0.6125322572264847 49:8.659658116697553E-4 60:0.7362960910303261 71:0.5055681601690365 77:0.8040665754516012 78:0.521415334522593 79:0.6125322572264847 80:8.659658116697553E-4 81:0.605535253468193 82:0.7362960910303261 83:0.18017284677600928 84:0.18017284677600928 85:0.2852491383640174 86:0.2781135800758586 87:0.13600859038085175 88:0.27184398759936956 90:0.341865983130986 93:0.6558651864424393 95:0.004277871109648591 
1.0 6:0.8688061795320321 17:0.4800048494085454 28:0.6311851608098512 49:0.0013335873499714232 77:0.937182840021476 78:0.4800048494085454 79:0.9227038916503576 80:0.0013335873499714232 83:0.13600859038085175 84:0.27184398759936956 85:0.3589774675695804 86:0.2781135800758586 90:0.08216283621122639 93:0.4428722354041462 95:0.0017838895720396959 96:0.05357142857142857 
1.0 6:0.8837007914927518 17:0.812916746046866 28:0.8688061795320321 49:0.4469769133514609 60:0.8994613692651414 71:0.9944231801728468 77:0.8837007914927518 78:0.812916746046866 79:0.8688061795320321 80:0.4471847451462616 81:0.6349780910649647 82:0.8994613692651414 83:0.27184398759936956 84:0.2852491383640174 85:0.1033097213322018 86:0.3589774675695804 87:0.13600859038085175 88:0.27184398759936956 89:0.8687022636346317 90:0.08216283621122639 91:0.4428722354041462 92:0.9738478324875733 93:0.4428722354041462 94:0.757287102305201 95:0.0017838895720396959 96:0.05357142857142857 
1.0 6:0.5614056357055024 17:0.9285405012210118 18:0.8378738807391884 28:0.5125305252948613 49:0.4270943383155233 55:0.519527529053153 56:0.5591714439113944 60:0.8160861809175773 61:0.8522142745804395 71:0.812916746046866 77:0.9285405012210118 78:0.8379258386878886 79:0.5125305252948613 80:0.4270943383155233 81:0.605535253468193 82:0.519527529053153 83:0.27184398759936956 84:0.18017284677600928 85:0.2852491383640174 86:0.2852491383640174 87:0.13600859038085175 88:0.27184398759936956 89:0.49985278581201614 90:0.24929423786348914 91:0.424011500025979 92:0.8042224492977017 93:0.4428722354041462 94:0.9508131418971579 95:0.004277871109648591 
1.0 6:0.6890836349780911 17:0.6017076845806127 28:0.4127366251580388 49:0.0608600772441504 60:4.156635896014825E-4 71:0.5551706818614801 77:0.6007204835553093 78:0.4127366251580388 79:0.8593671521848317 80:0.0608600772441504 81:4.156635896014825E-4 82:0.605535253468193 83:0.27184398759936956 84:0.2852491383640174 85:0.13600859038085175 86:0.2781135800758586 87:0.2781135800758586 88:0.13600859038085175 89:0.8442647084293112 90:0.24929423786348914 92:0.7320701778693777 93:0.4428722354041462 95:0.0017838895720396959 
1.0 6:0.48561630786816534 17:0.550390550581063 28:0.8688061795320321 49:0.7939001368225982 60:0.8057638684424739 71:0.4127366251580388 77:0.48561630786816534 78:0.550390550581063 79:0.8688061795320321 80:0.7939001368225982 81:0.8056945911775403 82:0.4127366251580388 83:0.27184398759936956 84:0.2852491383640174 85:0.1033097213322018 86:0.06094667382531738 87:0.3589774675695804 88:0.2852491383640174 89:0.8687022636346317 90:0.24929423786348914 92:0.9738478324875733 93:0.4428722354041462 95:0.0017838895720396959 
1.0 6:0.33429744193699235 17:0.6125322572264847 23:0.8637835778243474 28:0.6017076845806127 49:0.8493046294532292 55:0.48005680735724554 56:0.3846100555950051 60:0.91776788652384 61:0.6788479190841545 71:8.659658116697553E-4 77:0.605535253468193 78:0.8635757460295468 79:0.6007204835553093 80:0.8495470998804967 81:0.937182840021476 82:0.48005680735724554 83:0.13600859038085175 84:0.18017284677600928 85:0.27184398759936956 86:0.3589774675695804 87:0.13600859038085175 88:0.27184398759936956 89:0.6007031642390759 90:0.24929423786348914 91:0.8442647084293112 92:0.4428722354041462 93:0.4428722354041462 94:0.9480247319835813 95:0.004277871109648591 
1.0 1:0.5930653457801486 2:0.5591714439113944 3:0.850083998683732 6:0.30599767921162474 17:0.9944231801728468 28:0.550390550581063 49:0.812916746046866 60:0.9627115121495003 71:0.3846100555950051 77:0.30599767921162474 78:0.9944231801728468 79:0.550390550581063 80:0.812916746046866 81:0.9627115121495003 82:0.3846100555950051 83:0.307850846048598 84:0.1033097213322018 85:0.2852491383640174 86:0.2852491383640174 87:0.3589774675695804 88:0.2852491383640174 90:0.24929423786348914 91:0.8099205043384887 93:0.4428722354041462 94:0.8715772701293752 95:0.004277871109648591 
1.0 6:0.8067164308353106 17:0.4270943383155233 28:0.8688061795320321 49:0.6877154089956529 60:0.40987893797952857 71:0.3846100555950051 77:0.4270943383155233 78:0.605535253468193 79:0.8688061795320321 80:0.6878020055768198 81:0.4098269800308284 82:0.3846100555950051 83:0.2852491383640174 84:0.13600859038085175 85:0.3068636450232945 86:0.3589774675695804 87:0.3589774675695804 88:0.2852491383640174 89:0.8687022636346317 90:0.08216283621122639 92:0.9738478324875733 93:0.4428722354041462 95:0.0017838895720396959 96:0.05357142857142857 
1.0 6:0.6893780633540588 17:0.8183550113441521 28:0.8688061795320321 34:4.156635896014825E-4 39:8.659658116697553E-4 49:0.5068671088865412 55:0.6747259218206065 60:0.7560574308526299 71:8.659658116697553E-4 77:0.8183550113441521 78:0.8688061795320321 79:4.156635896014825E-4 80:8.659658116697553E-4 81:0.5068671088865412 82:0.6747259218206065 83:0.18017284677600928 84:0.1033097213322018 85:0.2781135800758586 86:0.2781135800758586 87:0.1033097213322018 88:0.18017284677600928 90:0.08216283621122639 93:0.4428722354041462 95:0.0017838895720396959 96:0.05357142857142857 
1.0 28:0.28959628673859955 34:0.5962520999670933 49:8.659658116697553E-4 60:0.8688061795320321 71:0.6001662654358406 77:0.812916746046866 78:0.605535253468193 79:0.5962520999670933 80:8.659658116697553E-4 81:0.8688061795320321 82:0.6001662654358406 83:0.2852491383640174 84:0.13600859038085175 85:0.27184398759936956 86:0.2781135800758586 87:0.3068636450232945 88:0.2852491383640174 89:0.5959230329586588 90:0.2594953151249589 92:0.8060582968184417 93:0.6305270267929822 95:0.0017838895720396959 
1.0 6:0.5125305252948613 17:0.8851036561076568 28:4.156635896014825E-4 49:0.9477303036076136 60:0.4721072412061172 71:0.8360726718509153 72:0.9620880167650981 77:0.605535253468193 78:0.8849997402102565 79:4.156635896014825E-4 80:0.9477303036076136 81:0.47226311505221774 82:0.605535253468193 83:0.13600859038085175 84:0.27184398759936956 85:0.2781135800758586 86:0.06094667382531738 87:0.3589774675695804 88:0.13600859038085175 90:0.23452086111640313 91:0.9476263877102132 93:0.8081885727151492 94:0.7526628448708845 95:0.0017838895720396959 
1.0 6:0.28959628673859955 17:0.4497826425812709 28:8.659658116697553E-4 34:0.6300940438871473 35:0.550390550581063 49:0.503922825126864 60:0.45949877898820557 71:0.543549420668872 72:0.4737352569320563 77:0.605535253468193 78:0.6300940438871473 79:0.550390550581063 80:0.5037669512807634 81:0.45949877898820557 82:0.605535253468193 83:0.13600859038085175 84:0.27184398759936956 85:0.2852491383640174 86:0.3589774675695804 87:0.2852491383640174 88:0.13600859038085175 90:0.3400128162940127 91:0.49985278581201614 93:0.6305270267929822 94:0.5477753338298204 95:0.0017838895720396959 
1.0 6:0.543549420668872 7:0.4737352569320563 17:0.5591714439113944 28:0.5962520999670933 44:0.6645421638753702 49:0.6066783283395971 60:8.659658116697553E-4 71:0.9267392923327387 77:0.4737352569320563 78:0.5591714439113944 79:0.5962520999670933 80:0.5424409844299347 81:0.6645248445591369 82:0.606626370390897 83:0.18017284677600928 84:0.2852491383640174 85:0.27184398759936956 86:0.13600859038085175 87:0.18017284677600928 88:0.27184398759936956 89:0.5959230329586588 90:0.2594953151249589 91:0.5412979095585306 92:0.8060582968184417 93:0.6305270267929822 94:0.9070991877240686 95:0.0017838895720396959 
1.0 6:0.898300975077504 17:0.8599560089367672 18:0.8754567969656558 28:0.8398656021060289 49:0.6125322572264847 60:0.9236564540431944 61:0.8349988742444449 71:0.550390550581063 77:0.8599560089367672 78:0.8754914355981226 79:0.8398656021060289 80:0.6125322572264847 81:0.605535253468193 82:0.9236564540431944 83:0.27184398759936956 84:0.18017284677600928 85:0.2852491383640174 86:0.2852491383640174 87:0.13600859038085175 88:0.27184398759936956 89:0.8355704116801469 90:0.365974471327872 92:0.8060582968184417 93:0.7008780893330331 95:0.0017838895720396959 96:0.03571428571428571 
1.0 49:0.5871248203120941 60:0.605535253468193 71:0.2473544744453489 80:0.554945530750446 81:0.605535253468193 82:0.38381336704826896 86:0.3589774675695804 87:0.13600859038085175 88:0.2781135800758586 90:0.365974471327872 91:0.5834531252706143 93:0.7008780893330331 94:0.7356206376972237 95:0.0017838895720396959 96:0.03571428571428571 
1.0 6:0.816640399037046 17:0.8782971648279326 28:0.550390550581063 49:0.9503974783075564 60:0.550390550581063 71:0.8100936975008227 77:0.816640399037046 78:0.8782105682467656 79:0.550390550581063 80:0.605535253468193 81:0.9503974783075564 82:0.550390550581063 83:0.18017284677600928 84:0.3589774675695804 85:0.2852491383640174 86:0.13600859038085175 87:0.27184398759936956 88:0.2852491383640174 90:0.365974471327872 93:0.7008780893330331 95:0.0017838895720396959 96:0.03571428571428571 
1.0 6:0.0608600772441504 17:0.3303486378357782 28:0.9535669131782677 49:0.8688061795320321 60:0.7323126482966452 71:0.3846100555950051 77:0.0608600772441504 78:0.9981987911117269 79:0.9538093836055352 80:0.8688061795320321 81:0.7323126482966452 82:0.3846100555950051 83:0.2781135800758586 84:0.3068636450232945 85:0.3589774675695804 86:0.1033097213322018 87:0.3589774675695804 88:0.2852491383640174 89:0.9508131418971579 90:0.3178267721990336 91:0.8687022636346317 92:0.9110479918252827 93:0.7320701778693777 94:0.9738478324875733 95:0.0017838895720396959 
1.0 6:0.8364363774918167 17:0.44777360189819704 28:0.3846100555950051 49:0.9944231801728468 60:4.156635896014825E-4 71:0.41677202584041984 77:0.8360726718509153 78:0.44777360189819704 79:0.3846100555950051 80:0.9944231801728468 81:4.156635896014825E-4 82:0.4167200678917196 83:0.3589774675695804 84:0.3589774675695804 85:0.2852491383640174 86:0.1033097213322018 87:0.2781135800758586 88:0.3589774675695804 90:0.23232130795476194 93:0.47330227402622144 95:0.0017838895720396959 
1.0 6:0.8398656021060289 17:0.7887562999012799 28:0.0608600772441504 49:0.9173868615667053 60:0.6890143577131574 71:0.8584665477406952 77:0.8398656021060289 78:0.7887562999012799 79:0.0608600772441504 80:0.9981987911117269 81:0.6878020055768198 82:0.8585185056893954 83:0.2852491383640174 84:0.18017284677600928 85:0.2781135800758586 86:0.3068636450232945 87:0.3589774675695804 88:0.3589774675695804 90:0.23232130795476194 93:0.47330227402622144 95:0.0017838895720396959 
1.0 6:0.3514955229567537 12:0.4043887147335423 13:0.5591714439113944 17:0.9290947193404805 18:0.8353625798853461 28:0.6125322572264847 34:0.8198098339077573 35:0.8403332236443305 49:8.659658116697553E-4 60:0.6125322572264847 71:0.022099447513812154 77:0.605535253468193 78:0.8198098339077573 79:0.8403332236443305 80:8.659658116697553E-4 81:0.6125322572264847 82:0.3813367048268934 83:0.13600859038085175 84:0.27184398759936956 85:0.2852491383640174 86:0.2781135800758586 87:0.2852491383640174 88:0.2781135800758586 89:0.8355704116801469 90:0.26171218760283343 92:0.550390550581063 93:0.7008261313843329 95:0.0017838895720396959 
1.0 6:0.8398656021060289 12:0.15260049533244427 13:0.550390550581063 17:0.49993938239318314 28:0.550390550581063 49:0.5125305252948613 60:0.5877829543289631 71:0.6266474999567017 77:0.550390550581063 78:0.49993938239318314 79:0.550390550581063 80:0.5125305252948613 81:0.605535253468193 82:0.5877829543289631 83:0.2852491383640174 84:0.27184398759936956 85:0.2852491383640174 86:0.2852491383640174 87:0.13600859038085175 88:0.27184398759936956 90:0.09241587142139629 91:0.49985278581201614 93:0.4127193058418054 94:0.8042224492977017 95:0.0017838895720396959 
1.0 6:0.9173868615667053 17:0.8522489132129063 28:0.8688061795320321 49:0.5262474237517103 60:0.5125305252948613 66:0.4342645352361489 67:0.550390550581063 71:0.6852907047229775 72:0.412528793363238 77:0.9173868615667053 78:0.8519198462044718 79:0.8688061795320321 80:0.52614350785431 81:0.5125305252948613 82:0.605535253468193 83:0.3068636450232945 84:0.3589774675695804 85:0.1033097213322018 86:0.3589774675695804 87:0.2852491383640174 88:0.13600859038085175 89:0.8687022636346317 90:0.09241587142139629 91:0.49985278581201614 92:0.9738478324875733 93:0.4127193058418054 94:0.9110479918252827 95:0.0017838895720396959 
1.0 6:0.6007204835553093 17:0.6125322572264847 28:0.8688061795320321 49:0.6280330452553733 60:0.6125322572264847 71:0.4850274511162299 77:0.6007204835553093 78:0.6125322572264847 79:0.8688061795320321 80:0.6265089454268346 81:0.6125322572264847 82:0.937182840021476 83:0.27184398759936956 84:0.2852491383640174 85:0.3068636450232945 86:0.3589774675695804 87:0.2852491383640174 88:0.13600859038085175 89:0.8687022636346317 90:0.30876876980896795 91:0.6125322572264847 92:0.9738478324875733 93:0.605535253468193 94:0.911498294047351 95:0.0017838895720396959 
1.0 49:0.40043991063232826 60:0.4129444569528395 71:0.5125305252948613 80:0.40038795268362803 81:0.4129444569528395 82:0.5125305252948613 86:0.3589774675695804 87:0.06094667382531738 88:0.2852491383640174 90:0.30876876980896795 91:0.3934255875578032 93:0.605535253468193 94:0.7343909662446526 95:0.0017838895720396959 
1.0 6:0.9247129323334314 17:0.9981987911117269 28:0.7978316216075789 49:0.0013335873499714232 77:0.9247129323334314 78:0.9981987911117269 79:0.7978316216075789 80:0.0013335873499714232 83:0.1033097213322018 84:0.3068636450232945 85:0.1033097213322018 86:0.2781135800758586 90:0.3178267721990336 93:0.6305270267929822 95:0.0017838895720396959 
1.0 34:0.48561630786816534 35:0.550390550581063 49:8.659658116697553E-4 60:0.8106305963040579 71:0.550390550581063 77:0.605535253468193 78:0.48561630786816534 79:0.550390550581063 80:8.659658116697553E-4 81:0.8106305963040579 82:0.550390550581063 83:0.13600859038085175 84:0.27184398759936956 85:0.2852491383640174 86:0.2781135800758586 87:0.27184398759936956 88:0.2852491383640174 90:0.3178267721990336 93:0.6305270267929822 95:0.004277871109648591 
1.0 6:0.550390550581063 17:0.7709347234971163 28:9.006044441365455E-4 49:0.7526628448708845 60:0.6877154089956529 71:0.9663485685585133 77:0.605535253468193 78:0.7709347234971163 79:9.006044441365455E-4 80:0.9981987911117269 81:0.6878020055768198 82:0.9664178458234469 83:0.13600859038085175 84:0.27184398759936956 85:0.2781135800758586 86:0.3068636450232945 87:0.3589774675695804 88:0.3589774675695804 90:0.3400128162940127 93:0.6305270267929822 95:0.0017838895720396959 
1.0 6:0.7029910459135074 17:0.5591714439113944 28:0.5962520999670933 49:0.9173868615667053 60:0.6987824520687923 71:0.5648175410034811 77:0.7030430038622075 78:0.5591714439113944 79:0.5962520999670933 80:0.9981987911117269 81:0.6878020055768198 82:0.5648348603197145 83:0.27184398759936956 84:0.2852491383640174 85:0.27184398759936956 86:0.3068636450232945 87:0.3589774675695804 88:0.3589774675695804 89:0.5959230329586588 90:0.2594953151249589 92:0.8060582968184417 93:0.6305270267929822 95:0.0017838895720396959 
1.0 6:0.4127366251580388 12:0.9290947193404805 17:0.7009300472817334 28:0.8398656021060289 49:0.0013335873499714232 77:0.9290947193404805 78:0.7009300472817334 79:0.8398656021060289 80:0.0013335873499714232 83:0.27184398759936956 84:0.18017284677600928 85:0.2852491383640174 86:0.2781135800758586 89:0.8355704116801469 90:0.3400128162940127 92:0.8060582968184417 93:0.6305270267929822 95:0.0017838895720396959 
1.0 1:0.6645075252429035 6:0.2637905055508408 12:7.966885467361748E-4 17:0.25933944127885833 18:8.31327179202965E-4 28:0.9944231801728468 34:0.4165468747293857 44:7.966885467361748E-4 49:0.1726562635307158 50:8.31327179202965E-4 60:0.815410727584475 71:0.5507888948544312 77:0.9944231801728468 78:0.605535253468193 79:0.4165468747293857 80:7.966885467361748E-4 81:0.1726562635307158 82:8.31327179202965E-4 83:0.1033097213322018 84:0.13600859038085175 85:0.27184398759936956 86:0.2781135800758586 87:0.307850846048598 88:0.2781135800758586 89:0.4127366251580388 90:0.26171218760283343 92:0.9976792116247251 93:0.6305270267929822 95:0.0017838895720396959 
1.0 6:0.5591714439113944 17:0.7970002944283759 28:0.5125305252948613 49:8.659658116697553E-4 60:0.871386757650808 71:0.6125322572264847 77:0.5591714439113944 78:0.7970002944283759 79:0.5125305252948613 80:8.659658116697553E-4 81:0.871386757650808 82:0.6125322572264847 83:0.2852491383640174 84:0.18017284677600928 85:0.2852491383640174 86:0.2781135800758586 87:0.3068636450232945 88:0.2852491383640174 89:0.49985278581201614 90:0.26171218760283343 92:0.8042224492977017 93:0.6305270267929822 95:0.0017838895720396959 
1.0 6:0.6890489963456242 17:0.9032542995202549 28:0.5125305252948613 49:0.6141083150037236 60:0.9236564540431944 71:8.659658116697553E-4 77:0.6878020055768198 78:0.9033755347338887 79:0.5125305252948613 80:0.6141083150037236 81:0.4745319454787925 82:0.9236564540431944 83:0.3589774675695804 84:0.3589774675695804 85:0.2852491383640174 86:0.2852491383640174 87:0.13600859038085175 88:0.27184398759936956 89:0.49985278581201614 90:0.23232130795476194 91:0.6125322572264847 92:0.8042224492977017 93:0.6961499160013163 94:0.550390550581063 95:0.0017838895720396959 
1.0 6:0.16472401669582085 17:0.5614056357055024 28:0.8688061795320321 49:0.9260118810509361 60:0.7252117286409533 71:0.9583297251424514 77:0.6413169608063873 78:0.5612670811756352 79:0.8688061795320321 80:0.9190321966088779 81:0.7252290479571867 82:0.9583297251424514 83:0.3068636450232945 84:0.3589774675695804 85:0.1033097213322018 86:0.3589774675695804 87:0.3589774675695804 88:0.3589774675695804 89:0.8687022636346317 90:0.23232130795476194 91:0.9247129323334314 92:0.9738478324875733 93:0.6961499160013163 94:0.9738478324875733 95:0.0017838895720396959 
1.0 6:0.7777758534093074 17:0.5871248203120941 28:0.550390550581063 49:0.605535253468193 60:0.026100209563726422 71:8.659658116697553E-4 77:0.7777758534093074 78:0.554945530750446 79:0.550390550581063 80:0.605535253468193 81:0.37532690209390535 82:8.659658116697553E-4 83:0.18017284677600928 84:0.3589774675695804 85:0.2852491383640174 86:0.13600859038085175 87:0.2781135800758586 88:0.2781135800758586 90:0.3303486378357782 93:0.6305270267929822 95:0.0017838895720396959 
1.0 6:0.27125513084743413 17:0.9502416044614559 28:8.659658116697553E-4 49:0.9944231801728468 60:0.3368433814233014 71:0.40042259131609487 77:0.7871975614402743 78:0.9502416044614559 79:8.659658116697553E-4 80:0.9944231801728468 81:0.3368433814233014 82:0.40038795268362803 83:0.06094667382531738 84:0.06094667382531738 85:0.2781135800758586 86:0.1033097213322018 87:0.307850846048598 88:0.3589774675695804 90:0.2253935814614039 93:0.8081885727151492 95:0.0017838895720396959 
1.0 6:0.550390550581063 17:0.6818614801087653 28:0.550390550581063 49:0.8398656021060289 60:0.7939001368225982 71:0.6878020055768198 77:0.550390550581063 78:0.6818614801087653 79:0.550390550581063 80:0.8398656021060289 81:0.7939001368225982 82:0.6878020055768198 83:0.2852491383640174 84:0.3589774675695804 85:0.2852491383640174 86:0.2852491383640174 87:0.06094667382531738 88:0.3589774675695804 90:0.365974471327872 91:0.8355704116801469 93:0.7008780893330331 94:0.8060582968184417 95:0.0017838895720396959 96:0.03571428571428571 
1.0 6:4.156635896014825E-4 17:8.659658116697553E-4 28:0.5555343875023814 49:0.0013335873499714232 77:4.156635896014825E-4 78:8.659658116697553E-4 79:0.5553611943400475 80:0.0013335873499714232 83:0.2781135800758586 84:0.2781135800758586 85:0.3589774675695804 86:0.2781135800758586 89:0.550390550581063 90:0.365974471327872 92:0.911498294047351 93:0.7008780893330331 95:0.0017838895720396959 96:0.03571428571428571 
1.0 28:0.33521536569736227 34:8.659658116697553E-4 39:8.659658116697553E-4 49:0.550390550581063 60:0.05036457160671297 71:0.4582864268518679 78:0.9273974263496078 79:8.659658116697553E-4 80:8.659658116697553E-4 81:0.550390550581063 82:0.05036457160671297 84:0.06094667382531738 85:0.2781135800758586 86:0.2781135800758586 87:0.2852491383640174 88:0.2781135800758586 90:0.365974471327872 93:0.7008780893330331 95:0.0017838895720396959 96:0.03571428571428571 
1.0 6:0.78692045238054 17:0.7246401912052512 28:0.8403332236443305 49:0.8419612393702697 60:0.6392732814908467 71:0.6266648192729352 77:0.7840627652020298 78:0.7246401912052512 79:0.8403332236443305 80:0.8419612393702697 81:0.6408666585843191 82:0.6266648192729352 83:0.06094667382531738 84:0.18017284677600928 85:0.2852491383640174 86:0.1033097213322018 87:0.3589774675695804 88:0.06094667382531738 89:0.8355704116801469 90:0.365974471327872 91:0.8355704116801469 92:0.550390550581063 93:0.7008780893330331 94:0.9738478324875733 95:0.0017838895720396959 96:0.03571428571428571 
1.0 6:0.9944231801728468 12:0.46583764872962813 17:0.8023692824607285 28:0.550390550581063 49:8.659658116697553E-4 60:0.870382237309271 71:0.45761097351876545 77:0.46583764872962813 78:0.8023692824607285 79:0.550390550581063 80:8.659658116697553E-4 81:0.870382237309271 82:0.4575243769375985 83:0.27184398759936956 84:0.18017284677600928 85:0.2852491383640174 86:0.2781135800758586 87:0.3068636450232945 88:0.3589774675695804 90:0.365974471327872 93:0.7008780893330331 95:0.0017838895720396959 96:0.03571428571428571 
1.0 6:0.7746930151197631 7:0.5591714439113944 8:0.29002926964443443 17:0.9343078335267324 28:0.3846100555950051 49:0.3846100555950051 55:0.7783647101612429 56:0.550390550581063 60:0.4897729437641802 71:0.6686295225064515 77:0.29002926964443443 78:0.9342212369455654 79:0.3846100555950051 80:0.3846100555950051 81:0.9760127470167478 82:0.7783647101612429 83:0.307850846048598 84:0.3589774675695804 85:0.2852491383640174 86:0.2852491383640174 87:0.13600859038085175 88:0.27184398759936956 90:0.365974471327872 93:0.7008780893330331 95:0.0017838895720396959 96:0.03571428571428571 
1.0 6:0.690919482498831 17:0.6496995098633506 28:0.3846100555950051 49:0.9944231801728468 60:0.8688061795320321 71:0.8398829214222623 77:0.6878020055768198 78:0.6497514678120507 79:0.3846100555950051 80:0.9944231801728468 81:0.8688061795320321 82:0.8398829214222623 83:0.3589774675695804 84:0.3589774675695804 85:0.2852491383640174 86:0.1033097213322018 87:0.3068636450232945 88:0.06094667382531738 90:0.365974471327872 93:0.7008780893330331 95:0.0017838895720396959 96:0.03571428571428571 
