svm_type c_svc
kernel_type linear
nr_class 2
total_sv 3393
rho 4.126419402605529
label 1 -1
probA -1.58504515647216
probB 0.16617641467850364
nr_sv 1696 1697
SV
1.0 6:0.550390550581063 17:0.10396785534907081 18:8.659658116697553E-4 19:0.26283794315800413 20:8.659658116697553E-4 28:0.6176587748315696 34:0.7492682588891391 35:0.8398656021060289 49:0.0013335873499714232 77:0.605535253468193 78:0.7492682588891391 79:0.8398656021060289 80:0.0013335873499714232 83:0.13600859038085175 84:0.27184398759936956 85:0.2852491383640174 86:0.2781135800758586 89:0.8355704116801469 90:0.1846585496804586 92:0.8060582968184417 93:0.7884272328928454 95:0.0017838895720396959 
1.0 6:0.550390550581063 17:0.10396785534907081 18:8.659658116697553E-4 19:0.26283794315800413 20:8.659658116697553E-4 28:0.6176587748315696 34:0.7492682588891391 35:0.8398656021060289 49:0.0013335873499714232 77:0.605535253468193 78:0.7492682588891391 79:0.8398656021060289 80:0.0013335873499714232 83:0.13600859038085175 84:0.27184398759936956 85:0.2852491383640174 86:0.2781135800758586 89:0.8355704116801469 90:0.1846585496804586 92:0.8060582968184417 93:0.7884272328928454 95:0.004277871109648591 
1.0 34:0.8996518817437088 35:0.5591714439113944 49:0.744574724189889 60:0.6877154089956529 71:0.5487105769064238 77:0.605535253468193 78:0.8996518817437088 79:0.5591714439113944 80:0.9981987911117269 81:0.6878020055768198 82:0.5492821143421258 83:0.13600859038085175 84:0.27184398759936956 85:0.2852491383640174 86:0.3068636450232945 87:0.3589774675695804 88:0.3589774675695804 89:0.550390550581063 90:0.10627132440811236 91:0.7428601118827829 92:0.605535253468193 93:0.8091757737404527 94:0.6311851608098512 95:0.0017838895720396959 
1.0 6:0.5068671088865412 12:0.7970002944283759 17:0.850083998683732 28:0.550390550581063 49:8.659658116697553E-4 60:0.6125322572264847 71:0.9395555863454511 77:0.7970002944283759 78:0.850083998683732 79:0.550390550581063 80:8.659658116697553E-4 81:0.6125322572264847 82:0.9395555863454511 83:0.18017284677600928 84:0.27184398759936956 85:0.2852491383640174 86:0.2781135800758586 87:0.2852491383640174 88:0.27184398759936956 90:0.33429744193699235 93:0.7006356189057656 95:0.0017838895720396959 
1.0 6:0.8398656021060289 17:0.8622248393633419 28:0.550390550581063 49:8.659658116697553E-4 60:0.44746185420599593 71:0.6125322572264847 77:0.9680805001818528 78:0.862138242782175 79:0.550390550581063 80:8.659658116697553E-4 81:0.44746185420599593 82:0.6125322572264847 83:0.13600859038085175 84:0.27184398759936956 85:0.2852491383640174 86:0.2781135800758586 87:0.06094667382531738 88:0.2852491383640174 90:0.33429744193699235 93:0.7006356189057656 95:0.004277871109648591 
1.0 6:0.4610055595005109 7:0.4348360726718509 17:0.4908813800031175 28:0.550390550581063 49:0.7512772995722129 60:0.4130137342177731 71:0.04619061639446475 77:0.4348360726718509 78:0.4908813800031175 79:0.550390550581063 80:0.7516063665806474 81:0.4130137342177731 82:0.046831431095100365 83:0.18017284677600928 84:0.06094667382531738 85:0.2852491383640174 86:0.3589774675695804 87:0.06094667382531738 88:0.2781135800758586 90:0.10627132440811236 91:0.7497878383761409 93:0.4428722354041462 94:0.45871940975770276 95:0.004277871109648591 
1.0 6:0.6899322814735275 17:0.27695318588822115 28:8.659658116697553E-4 49:0.9944231801728468 60:0.900188780546944 71:0.550390550581063 77:0.6899322814735275 78:0.27695318588822115 79:8.659658116697553E-4 80:0.9944231801728468 81:0.605535253468193 82:0.900188780546944 83:0.2852491383640174 84:0.307850846048598 85:0.2781135800758586 86:0.1033097213322018 87:0.13600859038085175 88:0.27184398759936956 90:0.3240790453592892 93:0.49985278581201614 95:0.004277871109648591 
1.0 6:0.8688061795320321 17:0.6877154089956529 28:0.989920157952164 49:0.5706714698903688 60:0.9571866502710473 71:0.550390550581063 77:0.8688061795320321 78:0.6878020055768198 79:0.983563968894508 80:0.5706714698903688 81:0.605535253468193 82:0.9571693309548139 83:0.3068636450232945 84:0.3589774675695804 85:0.3589774675695804 86:0.2852491383640174 87:0.13600859038085175 88:0.27184398759936956 89:0.985624967526282 90:0.29953757425656835 91:0.550390550581063 92:0.958970539843087 93:0.8091757737404527 94:0.550390550581063 95:0.0017838895720396959 
1.0 6:8.659658116697553E-4 17:0.5887355167217998 18:0.18316908848438665 28:0.550390550581063 39:8.659658116697553E-4 40:0.2218950795822581 41:8.659658116697553E-4 49:0.7827291778520584 60:0.937182840021476 71:4.156635896014825E-4 77:0.5887355167217998 78:0.6788479190841545 79:0.550390550581063 80:8.659658116697553E-4 81:0.2218950795822581 82:8.659658116697553E-4 83:0.27184398759936956 84:0.18017284677600928 85:0.2852491383640174 86:0.2781135800758586 87:0.307850846048598 88:0.2781135800758586 90:0.3619390706454909 93:0.9944578188053136 95:0.0017838895720396959 
1.0 28:9.006044441365455E-4 34:9.006044441365455E-4 39:0.0013335873499714232 78:9.006044441365455E-4 79:9.006044441365455E-4 80:0.0013335873499714232 84:0.2781135800758586 85:0.2781135800758586 86:0.2781135800758586 90:0.24929423786348914 93:0.45624274753632726 95:0.0017838895720396959 
1.0 6:0.550390550581063 12:0.4088051403730581 13:0.550390550581063 17:0.9859713538509499 28:0.550390550581063 49:0.0013335873499714232 77:0.550390550581063 78:0.9859193959022498 79:0.550390550581063 80:0.0013335873499714232 83:0.2852491383640174 84:0.27184398759936956 85:0.2852491383640174 86:0.2781135800758586 90:0.3240790453592892 93:0.49985278581201614 95:0.004277871109648591 
1.0 6:0.7428601118827829 17:0.7512946188884463 28:0.3846100555950051 49:8.659658116697553E-4 60:0.32967318450267585 71:0.550390550581063 77:0.7516063665806474 78:0.3846100555950051 79:0.605535253468193 80:8.659658116697553E-4 81:0.605535253468193 82:0.7777758534093074 83:0.3589774675695804 84:0.2852491383640174 85:0.13600859038085175 86:0.2781135800758586 87:0.13600859038085175 88:0.13600859038085175 90:0.3240790453592892 93:0.41164550823533486 95:0.0017838895720396959 
1.0 6:0.3846100555950051 17:0.32967318450267585 28:8.659658116697553E-4 49:0.550390550581063 60:0.7337328322277836 71:0.5591714439113944 77:8.659658116697553E-4 78:0.605535253468193 79:0.7777758534093074 80:0.550390550581063 81:0.9595767159112558 82:0.605535253468193 83:0.2781135800758586 84:0.13600859038085175 85:0.13600859038085175 86:0.2852491383640174 87:0.13600859038085175 88:0.13600859038085175 89:0.7741734356327612 90:0.3240790453592892 92:0.757287102305201 93:0.41164550823533486 95:0.0017838895720396959 
1.0 6:0.550390550581063 17:0.7337328322277836 28:0.5591714439113944 49:8.659658116697553E-4 55:0.7954935139160706 56:0.550390550581063 60:0.06732018219920677 61:0.5308890005022602 71:0.6125322572264847 77:0.605535253468193 78:0.7336115970141499 79:0.5591714439113944 80:8.659658116697553E-4 81:0.605535253468193 82:0.7954935139160706 83:0.13600859038085175 84:0.27184398759936956 85:0.2852491383640174 86:0.2781135800758586 87:0.13600859038085175 88:0.27184398759936956 89:0.550390550581063 90:0.10627132440811236 92:0.605535253468193 93:0.46291068428618437 95:0.0017838895720396959 
1.0 6:0.5068671088865412 17:0.7398985088068724 28:0.550390550581063 49:0.8267548797173487 60:0.8688061795320321 71:0.9173868615667053 77:0.5068671088865412 78:0.605535253468193 79:0.550390550581063 80:0.8267548797173487 81:0.8688061795320321 82:0.9981987911117269 83:0.1033097213322018 84:0.13600859038085175 85:0.2852491383640174 86:0.1033097213322018 87:0.3068636450232945 88:0.3068636450232945 90:0.29953757425656835 91:0.8199657077538579 93:0.7079616896724917 94:0.9070991877240686 95:0.0017838895720396959 
1.0 6:0.7428601118827829 17:0.7512946188884463 28:0.3846100555950051 49:8.659658116697553E-4 60:0.32967318450267585 71:0.550390550581063 77:0.605535253468193 78:0.5445712603266423 79:0.605535253468193 80:8.659658116697553E-4 81:0.9944231801728468 82:0.605535253468193 83:0.13600859038085175 84:0.27184398759936956 85:0.13600859038085175 86:0.2781135800758586 87:0.1033097213322018 88:0.13600859038085175 90:0.3240790453592892 93:0.41164550823533486 95:0.0017838895720396959 
1.0 6:8.659658116697553E-4 17:0.48570290444933234 18:0.6838705207918392 28:0.550390550581063 49:0.0013335873499714232 77:0.6838532014756057 78:0.550390550581063 79:0.605535253468193 80:0.0013335873499714232 83:0.18017284677600928 84:0.2852491383640174 85:0.13600859038085175 86:0.2781135800758586 90:0.24929423786348914 93:0.40142711165763173 95:0.0017838895720396959 
1.0 6:0.9773290150504859 17:0.7620325949531512 28:0.550390550581063 34:5.022601707684581E-4 39:5.022601707684581E-4 49:0.06092935450908398 60:9.006044441365455E-4 71:9.006044441365455E-4 77:0.7620499142693846 78:0.550390550581063 79:5.022601707684581E-4 80:5.022601707684581E-4 81:0.06092935450908398 82:9.006044441365455E-4 83:0.27184398759936956 84:0.2852491383640174 85:0.2781135800758586 86:0.2781135800758586 87:0.2781135800758586 88:0.2781135800758586 90:0.24929423786348914 93:0.40142711165763173 95:0.0017838895720396959 
0.17538744782806626 1:0.7871975614402743 2:0.7060738842030516 3:0.5591714439113944 6:0.8188919101473874 17:0.4394949687386342 28:0.550390550581063 49:0.0013335873499714232 77:0.8188919101473874 78:0.4394949687386342 79:0.550390550581063 80:0.0013335873499714232 83:0.27184398759936956 84:0.18017284677600928 85:0.2852491383640174 86:0.2781135800758586 90:0.29953757425656835 93:0.7079616896724917 95:0.0017838895720396959 
1.0 6:0.605535253468193 17:0.34202185697708654 28:0.6125322572264847 39:7.966885467361748E-4 40:0.09700549022324599 41:8.31327179202965E-4 49:8.659658116697553E-4 60:0.3846100555950051 71:0.2565163927328149 77:0.605535253468193 78:0.3838826443132025 79:0.6125322572264847 80:7.966885467361748E-4 81:0.09700549022324599 82:8.31327179202965E-4 83:0.13600859038085175 84:0.2781135800758586 85:0.2852491383640174 86:0.2781135800758586 87:0.307850846048598 88:0.2781135800758586 95:0.004277871109648591 
1.0 6:0.605535253468193 17:0.34202185697708654 28:0.6125322572264847 39:7.966885467361748E-4 40:0.09700549022324599 41:8.31327179202965E-4 49:8.659658116697553E-4 60:0.3846100555950051 71:0.2565163927328149 77:0.605535253468193 78:0.3838826443132025 79:0.6125322572264847 80:7.966885467361748E-4 81:0.09700549022324599 82:8.31327179202965E-4 83:0.13600859038085175 84:0.2781135800758586 85:0.2852491383640174 86:0.2781135800758586 87:0.307850846048598 88:0.2781135800758586 95:0.0017838895720396959 
1.0 6:0.7871975614402743 17:0.47215919915481736 28:0.5591714439113944 49:0.9944231801728468 60:0.40099412875179685 71:0.550390550581063 77:0.7871975614402743 78:0.47215919915481736 79:0.5591714439113944 80:0.9944231801728468 81:0.40099412875179685 82:0.550390550581063 83:0.06094667382531738 84:0.18017284677600928 85:0.2852491383640174 86:0.1033097213322018 87:0.18017284677600928 88:0.2852491383640174 89:0.550390550581063 90:0.2973207017786938 92:0.605535253468193 93:0.6293666326053448 95:0.004277871109648591 
1.0 6:0.6583938066125149 17:8.659658116697553E-4 28:0.6125322572264847 49:0.0013335873499714232 77:0.6583938066125149 78:8.659658116697553E-4 79:0.6125322572264847 80:0.0013335873499714232 83:0.27184398759936956 84:0.2781135800758586 85:0.2852491383640174 86:0.2781135800758586 95:0.0017838895720396959 
1.0 6:0.7939001368225982 17:0.9122776632778538 28:0.8688061795320321 49:0.9173868615667053 60:0.7428601118827829 71:0.5853755693725212 77:0.7939001368225982 78:0.9117754031070854 79:0.8688061795320321 80:0.9981987911117269 81:0.9981987911117269 82:0.5492821143421258 83:0.06094667382531738 84:0.3589774675695804 85:0.1033097213322018 86:0.3068636450232945 87:0.3068636450232945 88:0.3589774675695804 89:0.8687022636346317 90:0.3158870087808933 92:0.9738478324875733 93:0.8060582968184417 95:0.0017838895720396959 
1.0 6:0.7939001368225982 17:0.9122776632778538 28:0.8688061795320321 49:0.6722146209667642 60:0.9744713278719757 71:5.022601707684581E-4 77:0.7939001368225982 78:0.9117754031070854 79:0.8688061795320321 80:0.9227038916503576 81:0.9760127470167478 82:5.022601707684581E-4 83:0.06094667382531738 84:0.3589774675695804 85:0.1033097213322018 86:0.3589774675695804 87:0.13600859038085175 88:0.2781135800758586 89:0.8687022636346317 90:0.3158870087808933 91:0.6720587471206637 92:0.9738478324875733 93:0.8060582968184417 94:0.8715772701293752 95:0.0017838895720396959 
1.0 6:0.6444344377283985 17:0.9664005265072135 28:0.3846100555950051 49:8.659658116697553E-4 60:0.8419612393702697 71:0.9492024454874521 77:0.6408666585843191 78:0.9664178458234469 79:0.3846100555950051 80:8.659658116697553E-4 81:0.8419612393702697 82:0.9492024454874521 83:0.3589774675695804 84:0.3589774675695804 85:0.2852491383640174 86:0.2781135800758586 87:0.1033097213322018 88:0.06094667382531738 90:0.3240790453592892 93:0.7526628448708845 95:0.004277871109648591 
1.0 6:0.0877396560383796 17:0.9944231801728468 28:0.41557699302031553 34:0.5365870555430472 49:0.550390550581063 60:0.8688061795320321 71:0.6985399816415248 77:0.41552503507161537 78:0.605535253468193 79:0.5365870555430472 80:0.550390550581063 81:0.605535253468193 82:0.8688061795320321 83:0.3589774675695804 84:0.13600859038085175 85:0.27184398759936956 86:0.2852491383640174 87:0.13600859038085175 88:0.3068636450232945 89:0.49985278581201614 90:0.16202220336341122 92:0.9480247319835813 93:0.9508131418971579 95:0.0017838895720396959 
1.0 6:0.6125322572264847 17:0.6079772770571018 28:0.8398656021060289 49:0.0013335873499714232 77:0.6125322572264847 78:0.9981987911117269 79:0.8398656021060289 80:0.0013335873499714232 83:0.2852491383640174 84:0.3068636450232945 85:0.2852491383640174 86:0.2781135800758586 89:0.8355704116801469 90:0.06905211382254628 92:0.8060582968184417 93:0.7389632657302689 95:0.0017838895720396959 
1.0 1:0.6852907047229775 6:0.7976584284452449 17:0.5408476073364623 28:0.5706714698903688 34:0.3343320805694591 35:0.6913351460884324 49:0.8398656021060289 55:0.6427544640537591 56:0.550390550581063 60:0.09776754013751537 71:8.659658116697553E-4 77:0.5706714698903688 78:0.3343320805694591 79:0.6913351460884324 80:0.8398656021060289 81:0.605535253468193 82:0.6427544640537591 83:0.2852491383640174 84:0.307850846048598 85:0.2852491383640174 86:0.2852491383640174 87:0.13600859038085175 88:0.27184398759936956 89:0.6877154089956529 90:0.06905211382254628 91:0.8355704116801469 92:0.9480247319835813 93:0.7389632657302689 94:0.8060582968184417 95:0.0017838895720396959 
1.0 6:0.7507230814527442 17:0.6890836349780911 28:0.013561024610748368 34:0.4582864268518679 35:0.8398656021060289 49:8.659658116697553E-4 60:0.994475138121547 71:0.9173868615667053 77:0.013803495038015898 78:0.45771488941616584 79:0.8398656021060289 80:8.659658116697553E-4 81:0.994475138121547 82:0.9173868615667053 83:0.2781135800758586 84:0.27184398759936956 85:0.2852491383640174 86:0.2781135800758586 87:0.1033097213322018 88:0.3068636450232945 89:0.8355704116801469 90:0.06905211382254628 92:0.8060582968184417 93:0.7389632657302689 95:0.0017838895720396959 
1.0 6:0.016851694695093438 12:0.4582864268518679 13:0.550390550581063 17:0.4285491608791285 18:0.6125322572264847 19:0.11706125842151752 23:8.659658116697553E-4 28:0.29494795545471864 29:8.659658116697553E-4 49:0.9944231801728468 60:0.11196937944889936 71:0.0013335873499714232 77:8.659658116697553E-4 78:0.29494795545471864 79:8.659658116697553E-4 80:0.9944231801728468 81:0.11196937944889936 82:0.0013335873499714232 83:0.2781135800758586 84:0.307850846048598 85:0.2781135800758586 86:0.1033097213322018 87:0.307850846048598 88:0.2781135800758586 90:0.3619390706454909 93:0.7006356189057656 95:0.0017838895720396959 
1.0 6:0.550390550581063 12:0.6670361454129791 17:0.8453731446682485 28:0.550390550581063 39:7.966885467361748E-4 40:0.34056703441348135 41:8.31327179202965E-4 49:0.6899322814735275 60:0.10128336133289458 71:0.812916746046866 77:0.6670361454129791 78:0.8454077833007153 79:0.550390550581063 80:7.966885467361748E-4 81:0.34056703441348135 82:8.31327179202965E-4 83:0.27184398759936956 84:0.18017284677600928 85:0.2852491383640174 86:0.2781135800758586 87:0.307850846048598 88:0.2781135800758586 90:0.13715166525225583 93:0.8081885727151492 95:0.0017838895720396959 
1.0 6:0.550390550581063 17:0.13924730251649664 18:7.966885467361748E-4 19:0.34056703441348135 20:8.31327179202965E-4 28:0.6899322814735275 49:0.812916746046866 60:0.7114082336029374 71:0.3846100555950051 77:0.34056703441348135 78:8.31327179202965E-4 79:0.6899322814735275 80:0.812916746046866 81:0.7113562756542372 82:0.3846100555950051 83:0.307850846048598 84:0.2781135800758586 85:0.2852491383640174 86:0.2852491383640174 87:0.3589774675695804 88:0.2852491383640174 89:0.6877154089956529 90:0.1011967647517276 91:0.8099205043384887 92:0.7006356189057656 93:0.7006356189057656 94:0.8715772701293752 95:0.0017838895720396959 
1.0 6:0.7248653423162853 17:0.6311851608098512 28:0.5309755970834271 49:0.6125322572264847 60:4.156635896014825E-4 71:0.7548450787162923 72:0.83737162056842 77:0.7248653423162853 78:0.9227038916503576 79:0.5309755970834271 80:0.6125322572264847 81:4.156635896014825E-4 82:0.9760127470167478 83:0.27184398759936956 84:0.3589774675695804 85:0.3589774675695804 86:0.2852491383640174 87:0.2781135800758586 88:0.13600859038085175 89:0.49985278581201614 90:0.23452086111640313 92:0.7323126482966452 93:0.8099205043384887 95:0.0017838895720396959 
1.0 6:0.02668906631566186 17:0.8699665737196696 28:0.9778485945374876 49:0.7939520947712985 60:0.5068671088865412 71:0.9508824191620915 77:0.3817350491002615 78:0.869983893035903 79:0.9778485945374876 80:0.7939520947712985 81:0.5068671088865412 82:0.9508824191620915 83:0.2781135800758586 84:0.3589774675695804 85:0.3589774675695804 86:0.1033097213322018 87:0.1033097213322018 88:0.27184398759936956 89:0.977467569580353 90:0.23452086111640313 91:0.7939001368225982 92:0.4369490292523251 93:0.8099205043384887 94:0.7526628448708845 95:0.0017838895720396959 
1.0 6:0.8688061795320321 17:0.9140615528498934 28:0.5706714698903688 49:0.812916746046866 60:4.156635896014825E-4 71:0.7298706247077366 77:0.8688061795320321 78:0.9141135107985937 79:0.5706714698903688 80:0.812916746046866 81:4.156635896014825E-4 82:0.7298706247077366 83:0.3068636450232945 84:0.3589774675695804 85:0.2852491383640174 86:0.2852491383640174 87:0.2781135800758586 88:0.3589774675695804 89:0.550390550581063 90:0.3240790453592892 91:0.8099205043384887 92:0.550390550581063 93:0.7526628448708845 94:0.8715772701293752 95:0.004277871109648591 
1.0 6:0.4526403297597811 17:0.8688061795320321 28:0.6119953584232495 34:0.8875110410640988 35:0.3846100555950051 49:8.659658116697553E-4 60:0.6125322572264847 71:0.967786071805885 77:0.605535253468193 78:0.8875110410640988 79:0.3846100555950051 80:8.659658116697553E-4 81:0.6125322572264847 82:0.9760127470167478 83:0.13600859038085175 84:0.27184398759936956 85:0.2852491383640174 86:0.2781135800758586 87:0.2852491383640174 88:0.13600859038085175 90:0.3240790453592892 93:0.7526628448708845 95:0.004277871109648591 
1.0 6:0.605535253468193 17:0.01319731896984707 28:0.3846100555950051 49:8.659658116697553E-4 60:0.5977935191118655 71:0.750757720085211 77:0.605535253468193 78:0.3740625920088675 79:0.3846100555950051 80:8.659658116697553E-4 81:0.5977935191118655 82:0.7506538041878107 83:0.13600859038085175 84:0.2781135800758586 85:0.2852491383640174 86:0.2781135800758586 87:0.3068636450232945 88:0.3589774675695804 90:0.3488456675730442 93:0.7320701778693777 95:0.004277871109648591 
1.0 6:8.659658116697553E-4 17:0.670759798403159 28:0.7629851573459879 49:8.659658116697553E-4 60:0.5977935191118655 71:0.7972254455394101 77:8.659658116697553E-4 78:0.670759798403159 79:0.7629851573459879 80:8.659658116697553E-4 81:0.5977935191118655 82:0.7972254455394101 83:0.2781135800758586 84:0.2852491383640174 85:0.27184398759936956 86:0.2781135800758586 87:0.3068636450232945 88:0.06094667382531738 89:0.757287102305201 90:0.10627132440811236 92:0.4369490292523251 93:0.46291068428618437 95:0.004277871109648591 
1.0 6:0.3654548918408701 17:0.9857115641074491 28:0.3846100555950051 49:0.5125305252948613 60:0.7248653423162853 71:0.550390550581063 77:0.3654548918408701 78:0.9858154800048494 79:0.3846100555950051 80:0.5125305252948613 81:0.605535253468193 82:0.7248653423162853 83:0.307850846048598 84:0.3589774675695804 85:0.2852491383640174 86:0.2852491383640174 87:0.13600859038085175 88:0.27184398759936956 90:0.3158870087808933 91:0.49985278581201614 93:0.8060582968184417 94:0.8042224492977017 95:0.0017838895720396959 
1.0 6:0.9173868615667053 17:0.6877154089956529 28:0.530923639134727 34:0.8258542752732122 35:0.5591714439113944 49:8.659658116697553E-4 60:0.8488716465473943 61:0.9813644157328668 71:0.6913351460884324 77:0.605535253468193 78:0.8258542752732122 79:0.5591714439113944 80:8.659658116697553E-4 81:0.9760127470167478 82:0.8488716465473943 83:0.13600859038085175 84:0.27184398759936956 85:0.2852491383640174 86:0.2781135800758586 87:0.13600859038085175 88:0.27184398759936956 89:0.550390550581063 90:0.10627132440811236 92:0.605535253468193 93:0.46291068428618437 95:0.0017838895720396959 
1.0 6:8.659658116697553E-4 17:0.5933251355236495 28:0.6125322572264847 34:0.338973657320009 35:0.550390550581063 49:8.659658116697553E-4 60:0.4270943383155233 71:0.9762032594953152 77:0.605535253468193 78:0.338973657320009 79:0.550390550581063 80:8.659658116697553E-4 81:0.4270943383155233 82:0.9760127470167478 83:0.13600859038085175 84:0.307850846048598 85:0.2852491383640174 86:0.2781135800758586 87:0.2852491383640174 88:0.13600859038085175 90:0.341865983130986 93:0.6558651864424393 95:0.004277871109648591 
1.0 6:0.05935329673184503 17:8.659658116697553E-4 28:0.6125322572264847 34:0.09620880167650982 35:7.966885467361748E-4 39:8.31327179202965E-4 49:0.0013335873499714232 77:0.6125322572264847 78:0.09620880167650982 79:7.966885467361748E-4 80:8.31327179202965E-4 81:0.0013335873499714232 83:0.2852491383640174 84:0.307850846048598 85:0.2781135800758586 86:0.2781135800758586 87:0.2781135800758586 90:0.1875855141239024 93:0.5484854257953896 95:0.004277871109648591 
1.0 6:0.8630561665425449 17:0.028247804776667416 28:0.6125322572264847 39:0.550390550581063 40:0.09490985295900518 49:8.659658116697553E-4 60:0.9944231801728468 71:0.9553854413827743 77:0.028247804776667416 78:0.6125322572264847 79:0.605535253468193 80:0.550390550581063 81:0.09490985295900518 82:8.659658116697553E-4 83:0.2781135800758586 84:0.2852491383640174 85:0.13600859038085175 86:0.2852491383640174 87:0.307850846048598 88:0.2781135800758586 90:0.29953757425656835 93:0.8091757737404527 95:0.0017838895720396959 
1.0 6:0.9267219730165053 17:0.4127366251580388 28:0.550390550581063 49:8.659658116697553E-4 60:0.550390550581063 71:0.6356708637143006 77:0.9267219730165053 78:0.4127366251580388 79:0.550390550581063 80:8.659658116697553E-4 81:0.550390550581063 82:0.6349780910649647 83:0.18017284677600928 84:0.2852491383640174 85:0.2852491383640174 86:0.2781135800758586 87:0.2852491383640174 88:0.3068636450232945 90:0.35963560158644936 93:0.4428722354041462 95:0.0017838895720396959 
1.0 6:8.659658116697553E-4 17:0.8289024749302898 28:0.8398656021060289 49:0.690919482498831 60:0.816640399037046 71:0.2509568922218951 77:8.659658116697553E-4 78:0.8289024749302898 79:0.8398656021060289 80:0.6878020055768198 81:0.8171426592078145 82:0.2509568922218951 83:0.2781135800758586 84:0.1033097213322018 85:0.2852491383640174 86:0.3589774675695804 87:0.3589774675695804 88:0.307850846048598 89:0.8355704116801469 90:0.08709884133774398 91:0.6877154089956529 92:0.8060582968184417 93:0.4428722354041462 94:0.424011500025979 95:0.004277871109648591 
1.0 6:0.605535253468193 17:0.816640399037046 28:0.033478238279152736 34:0.4847503420564956 35:0.3846100555950051 49:0.6125322572264847 60:0.8688061795320321 71:0.8208836315142278 77:0.9760127470167478 78:0.4847503420564956 79:0.3846100555950051 80:0.6125322572264847 81:0.605535253468193 82:0.8688061795320321 83:0.13600859038085175 84:0.27184398759936956 85:0.2852491383640174 86:0.2852491383640174 87:0.13600859038085175 88:0.3068636450232945 90:0.341865983130986 93:0.6558651864424393 95:0.0017838895720396959 
1.0 6:0.9773290150504859 17:0.6877154089956529 28:0.9248861254957654 34:0.6817748835275983 35:0.550390550581063 49:8.659658116697553E-4 60:0.06659277091740418 71:0.6877154089956529 77:0.9227038916503576 78:0.6817748835275983 79:0.550390550581063 80:8.659658116697553E-4 81:0.937182840021476 82:0.06659277091740418 83:0.3589774675695804 84:0.27184398759936956 85:0.2852491383640174 86:0.2781135800758586 87:0.13600859038085175 88:0.307850846048598 90:0.34477562825819635 93:0.4428722354041462 95:0.0017838895720396959 
1.0 6:4.156635896014825E-4 17:8.659658116697553E-4 28:0.5508581721193647 34:0.6817748835275983 35:0.550390550581063 49:0.0013335873499714232 77:0.5508581721193647 78:0.6817748835275983 79:0.550390550581063 80:0.0013335873499714232 83:0.2852491383640174 84:0.27184398759936956 85:0.2852491383640174 86:0.2781135800758586 90:0.34477562825819635 93:0.4428722354041462 95:0.0017838895720396959 
1.0 34:0.6817748835275983 35:0.550390550581063 49:0.7626560903375534 60:0.39933147439339095 71:0.550390550581063 77:0.605535253468193 78:0.6817748835275983 79:0.550390550581063 80:0.7621884687992518 81:0.605535253468193 82:0.39933147439339095 83:0.13600859038085175 84:0.27184398759936956 85:0.2852491383640174 86:0.3589774675695804 87:0.13600859038085175 88:0.27184398759936956 90:0.34477562825819635 91:0.757287102305201 93:0.4428722354041462 94:0.9910978714560349 95:0.0017838895720396959 
1.0 6:0.8980931432827032 12:0.5394101040890905 13:0.550390550581063 17:0.2832747363134103 28:8.659658116697553E-4 34:0.6817748835275983 35:0.550390550581063 49:0.5871248203120941 60:0.0608600772441504 71:4.156635896014825E-4 77:0.605535253468193 78:0.6817748835275983 79:0.550390550581063 80:0.554945530750446 81:0.0608600772441504 82:4.156635896014825E-4 83:0.13600859038085175 84:0.27184398759936956 85:0.2852491383640174 86:0.3589774675695804 87:0.2781135800758586 88:0.2781135800758586 90:0.34477562825819635 91:0.5834531252706143 93:0.4428722354041462 94:0.7356206376972237 95:0.0017838895720396959 
1.0 28:0.34650755988153586 34:0.642529312942725 35:0.812916746046866 49:0.0013682259824382133 77:0.9760127470167478 78:0.642529312942725 79:0.812916746046866 80:0.0013682259824382133 83:0.13600859038085175 84:0.27184398759936956 85:0.2852491383640174 86:0.2781135800758586 89:0.8099205043384887 90:0.2820450648608393 91:0.0013509066662048183 92:0.8715772701293752 93:0.7320701778693777 94:0.0013509066662048183 95:0.004277871109648591 
1.0 6:0.6125322572264847 12:0.6300940438871473 13:0.550390550581063 17:0.4598798039453402 28:0.550390550581063 49:4.156635896014825E-4 60:0.0013335873499714232 77:0.550390550581063 78:0.4598798039453402 79:0.550390550581063 80:4.156635896014825E-4 81:0.0013335873499714232 83:0.2852491383640174 84:0.27184398759936956 85:0.2852491383640174 86:0.2781135800758586 87:0.2781135800758586 90:0.341865983130986 93:0.6558651864424393 95:0.0017838895720396959 
1.0 6:0.8688061795320321 17:0.40043991063232826 28:0.3846100555950051 49:8.659658116697553E-4 60:0.4313895287414053 71:0.3846100555950051 77:0.8688061795320321 78:0.40038795268362803 79:0.3846100555950051 80:8.659658116697553E-4 81:0.4313895287414053 82:0.3846100555950051 83:0.3068636450232945 84:0.3589774675695804 85:0.2852491383640174 86:0.2781135800758586 87:0.1033097213322018 88:0.2852491383640174 90:0.341865983130986 93:0.6558651864424393 95:0.004277871109648591 
1.0 6:0.550390550581063 17:0.6893780633540588 28:0.8688061795320321 49:0.9174041808829387 60:0.8688061795320321 71:0.8946812379847243 77:0.550390550581063 78:0.6893780633540588 79:0.8688061795320321 80:0.9227038916503576 81:0.605535253468193 82:0.8688061795320321 83:0.2852491383640174 84:0.3589774675695804 85:0.1033097213322018 86:0.3589774675695804 87:0.13600859038085175 88:0.3068636450232945 89:0.8687022636346317 90:0.3158870087808933 91:0.9173868615667053 92:0.9738478324875733 93:0.8060582968184417 94:0.6019847936403471 95:0.0017838895720396959 
1.0 49:0.6720760664368971 60:0.45626006685256065 71:0.6326053447409896 80:0.9227038916503576 81:0.45626006685256065 82:0.605535253468193 86:0.3589774675695804 87:0.06094667382531738 88:0.13600859038085175 90:0.13715166525225583 91:0.6720587471206637 93:0.8081885727151492 94:0.9738478324875733 95:0.0017838895720396959 
1.0 6:0.022099447513812154 17:0.9404215521571209 28:0.550390550581063 34:0.4165295554131523 35:0.5591714439113944 49:0.6305443461092156 60:0.6320684459377544 71:8.659658116697553E-4 77:0.605535253468193 78:0.4165468747293857 79:0.5591714439113944 80:0.9227038916503576 81:0.6320684459377544 82:8.659658116697553E-4 83:0.13600859038085175 84:0.27184398759936956 85:0.2852491383640174 86:0.3589774675695804 87:0.3589774675695804 88:0.2781135800758586 89:0.550390550581063 90:0.16202220336341122 91:0.6305270267929822 92:0.605535253468193 93:0.9508131418971579 94:0.8715772701293752 95:0.0017838895720396959 
1.0 6:0.812916746046866 17:0.7226311505221774 28:0.6125322572264847 34:0.8634718301321463 49:0.0013335873499714232 77:0.6125322572264847 78:0.605535253468193 79:0.8634718301321463 80:0.0013335873499714232 83:0.2852491383640174 84:0.13600859038085175 85:0.18017284677600928 86:0.2781135800758586 89:0.8442647084293112 90:0.28013994007516585 92:0.9070991877240686 93:0.9508131418971579 95:0.0017838895720396959 
1.0 6:0.763729887944024 17:0.4127366251580388 28:9.006044441365455E-4 34:0.9150833925076638 49:9.006044441365455E-4 60:8.659658116697553E-4 71:0.5068671088865412 77:0.4127366251580388 78:9.006044441365455E-4 79:0.9150833925076638 80:9.006044441365455E-4 81:8.659658116697553E-4 82:0.5068671088865412 83:0.2852491383640174 84:0.2781135800758586 85:0.18017284677600928 86:0.2781135800758586 87:0.2781135800758586 88:0.1033097213322018 89:0.9116541678934516 90:0.16202220336341122 92:0.7352742513725559 93:0.9508131418971579 95:0.0017838895720396959 
1.0 6:8.659658116697553E-4 17:0.7368503091497948 28:0.6125322572264847 34:0.6399487348239492 35:0.3282010426228372 36:0.550390550581063 49:8.659658116697553E-4 60:0.4270943383155233 71:0.9749043107778105 77:0.6399487348239492 78:0.3282010426228372 79:0.550390550581063 80:8.659658116697553E-4 81:0.4270943383155233 82:0.9760127470167478 83:0.27184398759936956 84:0.307850846048598 85:0.2852491383640174 86:0.2781135800758586 87:0.2852491383640174 88:0.13600859038085175 90:0.3240790453592892 93:0.6816536483139646 95:0.0017838895720396959 
1.0 6:0.550390550581063 17:0.7543601378617573 28:0.6125322572264847 49:0.8398656021060289 60:0.9036353244773896 71:0.9732243371031711 72:0.8040665754516012 77:0.550390550581063 78:0.7543601378617573 79:0.6125322572264847 80:0.8398656021060289 81:0.9036353244773896 82:0.937182840021476 83:0.2852491383640174 84:0.3589774675695804 85:0.2852491383640174 86:0.2852491383640174 87:0.3589774675695804 88:0.13600859038085175 90:0.341865983130986 91:0.8355704116801469 93:0.6558651864424393 94:0.8060582968184417 95:0.004277871109648591 
1.0 6:0.7369888636796619 17:0.7675747761478376 28:0.6125322572264847 49:7.966885467361748E-4 55:0.01913784443790159 60:0.6977086544623218 61:8.31327179202965E-4 71:0.4270943383155233 77:0.7675747761478376 78:0.6125322572264847 79:0.605535253468193 80:7.966885467361748E-4 81:0.3829647205528326 82:0.6976220578811548 83:0.06094667382531738 84:0.2852491383640174 85:0.13600859038085175 86:0.2781135800758586 87:0.2781135800758586 88:0.27184398759936956 90:0.2871889017821576 93:0.7884272328928454 95:0.0017838895720396959 
1.0 6:0.697674015829855 17:0.6311851608098512 28:0.5591714439113944 49:0.0013335873499714232 77:0.697674015829855 78:0.9227038916503576 79:0.5591714439113944 80:0.0013335873499714232 83:0.27184398759936956 84:0.3589774675695804 85:0.2852491383640174 86:0.2781135800758586 89:0.550390550581063 90:0.16202220336341122 92:0.605535253468193 93:0.9508131418971579 95:0.0017838895720396959 
1.0 1:0.8972444967872668 2:0.550390550581063 6:0.9969864389753893 17:8.659658116697553E-4 28:0.550390550581063 49:8.659658116697553E-4 60:0.9944231801728468 71:0.598209182701467 77:0.9969864389753893 78:8.659658116697553E-4 79:0.550390550581063 80:8.659658116697553E-4 81:0.9944231801728468 82:0.598209182701467 83:0.307850846048598 84:0.2781135800758586 85:0.2852491383640174 86:0.2781135800758586 87:0.1033097213322018 88:0.3068636450232945 90:0.3240790453592892 93:0.47330227402622144 95:0.0017838895720396959 
1.0 6:0.5125305252948613 17:0.9929683576092416 28:0.6266474999567017 49:0.0013335873499714232 77:0.9929510382930082 78:0.6266474999567017 79:0.605535253468193 80:0.0013335873499714232 83:0.27184398759936956 84:0.2852491383640174 85:0.13600859038085175 86:0.2781135800758586 89:0.7398985088068724 90:0.10627132440811236 92:0.4428722354041462 93:0.4428722354041462 95:0.0017838895720396959 
1.0 6:0.7771177193924383 17:0.8688061795320321 28:0.9667469128318814 34:0.9509343771107917 35:0.5591714439113944 49:8.659658116697553E-4 60:0.6899322814735275 71:0.4952804863263998 77:0.605535253468193 78:0.9509343771107917 79:0.5591714439113944 80:8.659658116697553E-4 81:0.6899322814735275 82:0.605535253468193 83:0.13600859038085175 84:0.27184398759936956 85:0.2852491383640174 86:0.2781135800758586 87:0.2852491383640174 88:0.13600859038085175 89:0.550390550581063 90:0.2871889017821576 92:0.605535253468193 93:0.45125478446110945 95:0.0017838895720396959 
1.0 6:0.8166057604045792 17:0.9944231801728468 28:0.8713521190183412 49:0.9173868615667053 60:0.6445383536257988 71:0.8691872044891668 77:0.9944231801728468 78:0.8713521190183412 79:0.605535253468193 80:0.9981987911117269 81:0.6408666585843191 82:0.8692045238054001 83:0.1033097213322018 84:0.06094667382531738 85:0.13600859038085175 86:0.3068636450232945 87:0.3589774675695804 88:0.3589774675695804 90:0.2871889017821576 93:0.45125478446110945 95:0.0017838895720396959 
1.0 6:0.7398985088068724 17:0.6671746999428463 28:0.8398656021060289 39:0.550390550581063 40:0.11368399175600548 49:8.659658116697553E-4 60:0.08228407142486015 71:0.9944231801728468 77:0.6671920192590797 78:0.8398656021060289 79:0.605535253468193 80:0.550390550581063 81:0.11368399175600548 82:8.659658116697553E-4 83:0.18017284677600928 84:0.2852491383640174 85:0.13600859038085175 86:0.2852491383640174 87:0.307850846048598 88:0.2781135800758586 89:0.7398985088068724 90:0.11983234901886074 92:0.4428722354041462 93:0.6311851608098512 95:0.0017838895720396959 
1.0 6:8.659658116697553E-4 17:0.690919482498831 28:0.9248861254957654 49:8.659658116697553E-4 60:0.08228407142486015 71:0.9944231801728468 77:8.659658116697553E-4 78:0.6878020055768198 79:0.9227038916503576 80:8.659658116697553E-4 81:0.08228407142486015 82:0.9944231801728468 83:0.2781135800758586 84:0.3589774675695804 85:0.3589774675695804 86:0.2781135800758586 87:0.307850846048598 88:0.1033097213322018 89:0.9247129323334314 90:0.09241587142139629 92:0.5959230329586588 93:0.6311851608098512 95:0.004277871109648591 
1.0 6:0.0867178163806093 17:8.659658116697553E-4 28:0.45206879232407904 49:0.5977935191118655 60:0.6914737006182996 66:0.7672630284556365 71:0.7977969829751121 77:8.659658116697553E-4 78:0.45206879232407904 79:0.605535253468193 80:0.5977935191118655 81:0.6878020055768198 82:0.9760127470167478 83:0.2781135800758586 84:0.1033097213322018 85:0.13600859038085175 86:0.3068636450232945 87:0.3589774675695804 88:0.13600859038085175 89:0.7398985088068724 90:0.11983234901886074 91:0.5959230329586588 92:0.4428722354041462 93:0.6311851608098512 94:0.550390550581063 95:0.0017838895720396959 
1.0 6:0.5125305252948613 17:0.8665719877379241 28:0.6125322572264847 34:0.989348620516462 35:0.3846100555950051 49:7.966885467361748E-4 60:0.003117476922011119 71:8.31327179202965E-4 77:0.937182840021476 78:0.989348620516462 79:0.3846100555950051 80:7.966885467361748E-4 81:0.003117476922011119 82:8.31327179202965E-4 83:0.13600859038085175 84:0.27184398759936956 85:0.2852491383640174 86:0.2781135800758586 87:0.2781135800758586 88:0.2781135800758586 90:0.3619390706454909 93:0.7006356189057656 95:0.004277871109648591 
1.0 6:0.5591714439113944 12:0.5197699994804205 17:0.4370183065172587 28:0.6125322572264847 34:0.6399487348239492 49:0.0013335873499714232 77:0.6125322572264847 78:0.605535253468193 79:0.6399487348239492 80:0.0013335873499714232 83:0.2852491383640174 84:0.13600859038085175 85:0.27184398759936956 86:0.2781135800758586 89:0.6311851608098512 90:0.2594953151249589 92:0.7320701778693777 93:0.9953584232494501 95:0.0017838895720396959 
1.0 6:0.6125322572264847 17:0.021926254351478203 28:0.6125322572264847 34:0.47510348291449456 39:0.550390550581063 40:0.24962330487192366 49:8.659658116697553E-4 60:0.5125305252948613 71:0.7846343026377318 77:0.6125322572264847 78:0.605535253468193 79:0.47510348291449456 80:0.550390550581063 81:0.24962330487192366 82:8.659658116697553E-4 83:0.2852491383640174 84:0.13600859038085175 85:0.27184398759936956 86:0.2852491383640174 87:0.307850846048598 88:0.2781135800758586 89:0.47330227402622144 90:0.10627132440811236 92:0.9987356899149622 93:0.7006356189057656 95:0.0017838895720396959 
1.0 28:0.16141602729524238 34:0.7848940923812328 35:0.550390550581063 49:8.659658116697553E-4 60:0.8688061795320321 71:0.9063371378097993 77:0.605535253468193 78:0.7848767730649994 79:0.550390550581063 80:8.659658116697553E-4 81:0.8688061795320321 82:0.9063544571260327 83:0.13600859038085175 84:0.27184398759936956 85:0.2852491383640174 86:0.2781135800758586 87:0.3068636450232945 88:0.3589774675695804 90:0.24929423786348914 93:0.5484854257953896 95:0.0017838895720396959 
1.0 6:0.6988690486499592 7:0.550390550581063 8:0.690832885917664 17:0.9944231801728468 28:0.690832885917664 29:0.550390550581063 30:0.6988690486499592 34:8.659658116697553E-4 39:0.0013335873499714232 77:0.550390550581063 78:0.6988517293337259 79:8.659658116697553E-4 80:0.0013335873499714232 83:0.2852491383640174 84:0.27184398759936956 85:0.2781135800758586 86:0.2781135800758586 90:0.24929423786348914 93:0.5484854257953896 95:0.0017838895720396959 
1.0 6:0.6877154089956529 17:0.7514331734183134 28:0.6125322572264847 34:0.30189300126431007 35:8.659658116697553E-4 39:8.659658116697553E-4 49:0.0867178163806093 50:8.659658116697553E-4 51:0.2737317930688096 52:8.659658116697553E-4 60:0.07693240270874106 71:0.9944231801728468 77:0.6125322572264847 78:0.30189300126431007 79:8.659658116697553E-4 80:8.659658116697553E-4 81:0.0867178163806093 82:8.659658116697553E-4 83:0.2852491383640174 84:0.307850846048598 85:0.2781135800758586 86:0.2781135800758586 87:0.307850846048598 88:0.2781135800758586 90:0.19828885155614057 93:0.47330227402622144 95:0.004277871109648591 
1.0 6:0.7251078127435528 17:0.6221271584197856 28:0.3846100555950051 49:0.5125305252948613 60:0.8090891771592857 71:4.156635896014825E-4 77:0.6221271584197856 78:0.3846100555950051 79:0.9760127470167478 80:0.5125305252948613 81:0.8091064964755191 82:4.156635896014825E-4 83:0.3589774675695804 84:0.2852491383640174 85:0.13600859038085175 86:0.2852491383640174 87:0.3068636450232945 88:0.2781135800758586 89:0.9744713278719757 90:0.11983234901886074 91:0.49985278581201614 92:0.4428722354041462 93:0.6311851608098512 94:0.8042224492977017 95:0.0017838895720396959 
1.0 6:0.9944231801728468 17:0.8994613692651414 28:0.8403332236443305 49:4.156635896014825E-4 60:8.659658116697553E-4 71:0.5487452155388906 77:0.8403332236443305 78:0.9595767159112558 79:0.605535253468193 80:4.156635896014825E-4 81:8.659658116697553E-4 82:0.5487452155388906 83:0.2852491383640174 84:0.13600859038085175 85:0.13600859038085175 86:0.2781135800758586 87:0.2781135800758586 88:0.1033097213322018 89:0.7398985088068724 90:0.11983234901886074 92:0.4428722354041462 93:0.6311851608098512 95:0.0017838895720396959 
1.0 6:0.6311851608098512 17:0.6221271584197856 28:0.3846100555950051 49:0.5125305252948613 60:0.8090891771592857 71:8.659658116697553E-4 77:0.6221271584197856 78:0.3846100555950051 79:0.9760127470167478 80:0.5125305252948613 81:0.8091064964755191 82:8.659658116697553E-4 83:0.3589774675695804 84:0.2852491383640174 85:0.13600859038085175 86:0.2852491383640174 87:0.3068636450232945 88:0.2781135800758586 89:0.9744713278719757 90:0.11983234901886074 91:0.49985278581201614 92:0.4428722354041462 93:0.6311851608098512 94:0.8042224492977017 95:0.0017838895720396959 
1.0 6:0.9173868615667053 17:0.9672491730026499 28:0.5591714439113944 49:0.3846100555950051 55:0.5047541523060669 56:0.550390550581063 60:0.9446994232667695 71:0.550390550581063 77:0.9173868615667053 78:0.967214534370183 79:0.5591714439113944 80:0.3846100555950051 81:0.605535253468193 82:0.5047021943573667 83:0.3068636450232945 84:0.3589774675695804 85:0.2852491383640174 86:0.2852491383640174 87:0.13600859038085175 88:0.27184398759936956 89:0.550390550581063 90:0.1504009421708031 92:0.605535253468193 93:0.9070991877240686 95:0.0017838895720396959 
1.0 6:0.4127366251580388 12:0.4355634839536535 13:0.5591714439113944 17:0.9672491730026499 18:0.5591714439113944 19:0.4109700549022325 28:0.5591714439113944 49:4.156635896014825E-4 60:0.0013335873499714232 77:0.5591714439113944 78:0.4109700549022325 79:0.5591714439113944 80:4.156635896014825E-4 81:0.0013335873499714232 83:0.2852491383640174 84:0.27184398759936956 85:0.2852491383640174 86:0.2781135800758586 87:0.2781135800758586 89:0.550390550581063 90:0.1504009421708031 92:0.605535253468193 93:0.9070991877240686 95:0.0017838895720396959 
1.0 6:8.659658116697553E-4 17:0.7398985088068724 28:0.5591714439113944 49:4.156635896014825E-4 60:8.659658116697553E-4 71:0.6133809037219211 77:8.659658116697553E-4 78:0.605535253468193 79:0.5591714439113944 80:4.156635896014825E-4 81:8.659658116697553E-4 82:0.6133809037219211 83:0.2781135800758586 84:0.13600859038085175 85:0.2852491383640174 86:0.2781135800758586 87:0.2781135800758586 88:0.2852491383640174 89:0.550390550581063 90:0.1504009421708031 92:0.605535253468193 93:0.9070991877240686 95:0.0017838895720396959 
1.0 49:0.7694106236685776 55:0.39018687542215835 56:0.550390550581063 60:0.4109700549022325 71:0.0013335873499714232 80:0.7693586657198774 81:0.605535253468193 82:0.39018687542215835 86:0.3589774675695804 87:0.13600859038085175 88:0.27184398759936956 90:0.2253935814614039 91:0.7676613727290047 93:0.9116541678934516 94:0.9110479918252827 95:0.0017838895720396959 
1.0 49:0.6311851608098512 55:0.9999134034188331 60:0.865030568593152 71:0.550390550581063 80:0.9227038916503576 81:0.605535253468193 82:0.9999134034188331 86:0.3589774675695804 87:0.13600859038085175 88:0.18017284677600928 90:0.2253935814614039 93:0.9116541678934516 95:0.0017838895720396959 
1.0 12:0.752818718716985 13:0.550390550581063 17:0.2816640399037046 28:0.6125322572264847 49:0.8694643135489011 60:0.4398586743795355 71:0.4127366251580388 77:0.550390550581063 78:0.2816640399037046 79:0.6125322572264847 80:0.8692045238054001 81:0.4398586743795355 82:0.4127366251580388 83:0.2852491383640174 84:0.307850846048598 85:0.2852491383640174 86:0.3589774675695804 87:0.18017284677600928 88:0.2852491383640174 90:0.3619390706454909 91:0.8687022636346317 93:0.7006356189057656 94:0.6017769618455463 95:0.004277871109648591 
1.0 6:0.550390550581063 17:0.1129046225255027 28:0.550390550581063 49:0.06089471587661719 60:0.9492024454874521 71:0.9472626820693119 77:0.1129046225255027 78:0.550390550581063 79:0.605535253468193 80:0.06089471587661719 81:0.9492024454874521 82:0.9117754031070854 83:0.307850846048598 84:0.2852491383640174 85:0.13600859038085175 86:0.2781135800758586 87:0.06094667382531738 88:0.3589774675695804 89:0.7526628448708845 90:0.09241587142139629 92:0.8081885727151492 93:0.6311851608098512 95:0.0017838895720396959 
1.0 6:0.6936905730961742 17:0.4596200142018393 28:0.550390550581063 34:0.9859193959022498 35:0.3846100555950051 49:0.9944231801728468 60:0.7526628448708845 71:0.769254749822477 77:0.937182840021476 78:0.9859193959022498 79:0.3846100555950051 80:0.9944231801728468 81:0.605535253468193 82:0.769254749822477 83:0.13600859038085175 84:0.27184398759936956 85:0.2852491383640174 86:0.1033097213322018 87:0.13600859038085175 88:0.18017284677600928 90:0.24321515786556747 93:0.6311851608098512 95:0.004277871109648591 
1.0 6:0.550390550581063 17:0.40038795268362803 28:0.3846100555950051 49:0.5125305252948613 60:0.6273229532898041 71:0.8688061795320321 77:0.550390550581063 78:0.40038795268362803 79:0.3846100555950051 80:0.5125305252948613 81:0.8091064964755191 82:0.6273229532898041 83:0.2852491383640174 84:0.3589774675695804 85:0.2852491383640174 86:0.2852491383640174 87:0.13600859038085175 88:0.27184398759936956 90:0.341865983130986 91:0.49985278581201614 93:0.6558651864424393 94:0.8042224492977017 95:0.004277871109648591 
1.0 6:0.08252654185212768 17:0.9173868615667053 28:0.8338731186892742 34:0.6509638199483885 35:0.550390550581063 49:0.5068671088865412 60:4.156635896014825E-4 71:0.41699717695145394 77:0.605535253468193 78:0.6509638199483885 79:0.550390550581063 80:0.5068671088865412 81:4.156635896014825E-4 82:0.41699717695145394 83:0.13600859038085175 84:0.27184398759936956 85:0.2852491383640174 86:0.1033097213322018 87:0.2781135800758586 88:0.3068636450232945 90:0.341865983130986 91:0.49985278581201614 93:0.6558651864424393 94:0.778243474947609 95:0.0017838895720396959 
1.0 28:0.14835726285526246 34:0.8707459429501724 35:0.550390550581063 49:0.9173868615667053 60:0.8555395832972514 71:0.4301425379726008 77:0.605535253468193 78:0.8707459429501724 79:0.550390550581063 80:0.9981987911117269 81:0.8551585583401168 82:0.43012521865636744 83:0.13600859038085175 84:0.27184398759936956 85:0.2852491383640174 86:0.3068636450232945 87:0.3589774675695804 88:0.27184398759936956 90:0.3669616723531755 93:0.8042224492977017 95:0.0017838895720396959 
1.0 6:0.9944231801728468 12:0.47472245795735984 17:0.6752455013076084 28:0.550390550581063 49:0.6129306014998528 55:0.5740833751883475 56:0.550390550581063 60:0.47389113077815687 71:0.550390550581063 77:0.4747570965898266 78:0.675228181991375 79:0.550390550581063 80:0.6129306014998528 81:0.605535253468193 82:0.5740833751883475 83:0.18017284677600928 84:0.27184398759936956 85:0.2852491383640174 86:0.2852491383640174 87:0.13600859038085175 88:0.27184398759936956 90:0.3669616723531755 91:0.6125322572264847 93:0.8042224492977017 94:0.38443686243267117 95:0.0017838895720396959 
1.0 6:0.8042570879301685 17:0.7186477077884965 28:0.4270943383155233 34:0.5197699994804205 35:0.550390550581063 49:0.5791752541609657 60:0.48572022376556573 71:0.550390550581063 77:0.605535253468193 78:0.5197699994804205 79:0.550390550581063 80:0.5792098927934325 81:0.605535253468193 82:0.48561630786816534 83:0.13600859038085175 84:0.27184398759936956 85:0.2852491383640174 86:0.3589774675695804 87:0.13600859038085175 88:0.27184398759936956 90:0.35963560158644936 91:0.550390550581063 93:0.4428722354041462 94:0.424011500025979 95:0.004277871109648591 
1.0 6:8.659658116697553E-4 17:0.4889935745336774 28:0.6125322572264847 49:0.0013335873499714232 77:8.659658116697553E-4 78:0.4890282131661442 79:0.6125322572264847 80:0.0013335873499714232 83:0.2781135800758586 84:0.18017284677600928 85:0.2852491383640174 86:0.2781135800758586 90:0.3240790453592892 93:0.49985278581201614 95:0.004277871109648591 
1.0 1:0.4813557560747502 2:0.5591714439113944 6:0.6400180120888828 7:0.550390550581063 8:0.06981416373681568 17:8.659658116697553E-4 28:0.3846100555950051 49:8.659658116697553E-4 60:0.6720760664368971 71:0.435234416945219 77:0.06981416373681568 78:8.659658116697553E-4 79:0.3846100555950051 80:8.659658116697553E-4 81:0.9227038916503576 82:0.4352690555776858 83:0.307850846048598 84:0.2781135800758586 85:0.2852491383640174 86:0.2781135800758586 87:0.3589774675695804 88:0.3589774675695804 90:0.3240790453592892 93:0.7526628448708845 95:0.004277871109648591 
1.0 6:0.6001662654358406 12:0.999826806837666 17:0.4582864268518679 28:0.6125322572264847 39:7.966885467361748E-4 40:0.14941374114549957 41:8.31327179202965E-4 49:8.659658116697553E-4 60:0.7251078127435528 71:0.5612670811756352 77:0.9998094875214326 78:0.45771488941616584 79:0.6125322572264847 80:7.966885467361748E-4 81:0.14941374114549957 82:8.31327179202965E-4 83:0.18017284677600928 84:0.27184398759936956 85:0.2852491383640174 86:0.2781135800758586 87:0.307850846048598 88:0.2781135800758586 90:0.26171218760283343 93:0.7741734356327612 95:0.004277871109648591 
1.0 6:8.659658116697553E-4 12:0.6293493132891114 17:0.850083998683732 28:0.5591714439113944 49:0.0013335873499714232 77:0.6293493132891114 78:0.850083998683732 79:0.5591714439113944 80:0.0013335873499714232 83:0.18017284677600928 84:0.27184398759936956 85:0.2852491383640174 86:0.2781135800758586 89:0.550390550581063 90:0.30876876980896795 92:0.605535253468193 93:0.7526628448708845 95:0.0017838895720396959 
1.0 6:0.2455705848733092 17:0.7888428964824469 28:0.6125322572264847 49:8.659658116697553E-4 60:0.8267548797173487 71:0.6096226120992744 77:0.2455705848733092 78:0.7884791908415456 79:0.6125322572264847 80:8.659658116697553E-4 81:0.8267548797173487 82:0.6095879734668075 83:0.307850846048598 84:0.3589774675695804 85:0.2852491383640174 86:0.2781135800758586 87:0.1033097213322018 88:0.3589774675695804 90:0.3053222258785223 93:0.49985278581201614 95:0.004277871109648591 
1.0 6:0.5779109440759279 17:0.45626006685256065 28:0.8398656021060289 34:0.9502416044614559 35:0.3846100555950051 49:0.812916746046866 60:0.6515699960165573 71:0.4270943383155233 77:0.605535253468193 78:0.9502416044614559 79:0.3846100555950051 80:0.812916746046866 81:0.6515699960165573 82:0.4270943383155233 83:0.13600859038085175 84:0.27184398759936956 85:0.2852491383640174 86:0.2852491383640174 87:0.3589774675695804 88:0.2852491383640174 90:0.3619390706454909 91:0.8099205043384887 93:0.7006356189057656 94:0.8715772701293752 95:0.004277871109648591 
1.0 6:0.7393616100036371 17:0.8688061795320321 28:0.9223055473769896 39:0.5591714439113944 40:0.5387692893884549 41:0.550390550581063 42:0.09899721159008643 49:0.0013335873499714232 77:0.7393096520549368 78:0.8688061795320321 79:0.9223228666932229 80:0.5591714439113944 81:0.5387692893884549 82:0.550390550581063 83:0.27184398759936956 84:0.3068636450232945 85:0.3589774675695804 86:0.2852491383640174 87:0.27184398759936956 88:0.2852491383640174 89:0.9173868615667053 90:0.08813800031174769 91:0.550390550581063 92:0.424011500025979 93:0.9724796065051352 94:0.605535253468193 95:0.0017838895720396959 
1.0 6:0.8688061795320321 17:0.8690832885917664 28:0.812916746046866 49:8.659658116697553E-4 60:0.8484386636415594 71:0.9782642581270892 77:0.8688061795320321 78:0.8692045238054001 79:0.812916746046866 80:8.659658116697553E-4 81:0.605535253468193 82:0.8484386636415594 83:0.3068636450232945 84:0.3589774675695804 85:0.2852491383640174 86:0.2781135800758586 87:0.13600859038085175 88:0.27184398759936956 89:0.8099205043384887 90:0.341865983130986 92:0.8715772701293752 93:0.6558651864424393 95:0.004277871109648591 
1.0 6:0.6768908363497809 12:0.7679731204212058 13:0.550390550581063 17:0.8078768250229481 28:0.6125322572264847 49:0.6888758031832903 60:0.8688061795320321 71:0.9144425778070282 77:0.550390550581063 78:0.8078768250229481 79:0.6125322572264847 80:0.6878020055768198 81:0.8688061795320321 82:0.9144425778070282 83:0.2852491383640174 84:0.27184398759936956 85:0.2852491383640174 86:0.3589774675695804 87:0.1033097213322018 88:0.3589774675695804 90:0.341865983130986 91:0.6877154089956529 93:0.6558651864424393 94:0.9110479918252827 95:0.004277871109648591 
1.0 6:0.9141135107985937 17:0.4122863229359705 28:0.6125322572264847 49:0.9244185039574637 60:0.3846100555950051 71:0.2076412823221739 77:0.9141135107985937 78:0.4122690036197371 79:0.6125322572264847 80:0.9243145880600634 81:0.3846100555950051 82:0.2076412823221739 83:0.3589774675695804 84:0.18017284677600928 85:0.2852491383640174 86:0.3589774675695804 87:0.2852491383640174 88:0.307850846048598 90:0.341865983130986 91:0.9173868615667053 93:0.6558651864424393 94:0.7563518592285976 95:0.004277871109648591 
1.0 6:0.5144529693967682 17:0.8484386636415594 28:0.6125322572264847 34:0.227939520947713 35:0.550390550581063 49:4.156635896014825E-4 60:0.8306690451860961 71:0.7622577460641854 77:0.605535253468193 78:0.227939520947713 79:0.550390550581063 80:4.156635896014825E-4 82:0.8228233949323681 83:0.13600859038085175 84:0.307850846048598 85:0.2852491383640174 86:0.2781135800758586 88:0.3589774675695804 90:0.341865983130986 93:0.6558651864424393 95:0.004277871109648591 
1.0 6:0.9231715131886593 7:0.550390550581063 8:0.7735326209321256 17:0.3846100555950051 28:0.051542285110583834 34:0.9812951384679333 35:0.5591714439113944 49:8.659658116697553E-4 60:0.345243249796498 71:8.659658116697553E-4 77:0.051646201007984206 78:0.9812778191516999 79:0.5591714439113944 80:8.659658116697553E-4 81:0.605535253468193 82:0.345243249796498 83:0.2781135800758586 84:0.27184398759936956 85:0.2852491383640174 86:0.2781135800758586 87:0.13600859038085175 88:0.307850846048598 89:0.550390550581063 90:0.10627132440811236 92:0.605535253468193 93:0.605535253468193 95:0.0017838895720396959 
1.0 6:0.5499402483589948 17:0.9231715131886593 28:0.3846100555950051 34:0.46150781967127935 35:0.5591714439113944 49:8.659658116697553E-4 60:0.345243249796498 71:8.659658116697553E-4 77:0.605535253468193 78:0.4614731810388126 79:0.5591714439113944 80:8.659658116697553E-4 81:0.605535253468193 82:0.345243249796498 83:0.13600859038085175 84:0.27184398759936956 85:0.2852491383640174 86:0.2781135800758586 87:0.13600859038085175 88:0.307850846048598 89:0.550390550581063 90:0.10627132440811236 92:0.605535253468193 93:0.605535253468193 95:0.0017838895720396959 
1.0 6:0.8688061795320321 17:0.39997228909402655 28:0.9778139559050208 34:0.6399314155077157 35:0.550390550581063 49:0.812916746046866 60:0.9643395278754395 71:0.3846100555950051 77:0.605535253468193 78:0.6399314155077157 79:0.550390550581063 80:0.812916746046866 81:0.9643395278754395 82:0.3846100555950051 83:0.13600859038085175 84:0.27184398759936956 85:0.2852491383640174 86:0.2852491383640174 87:0.3589774675695804 88:0.2852491383640174 90:0.14388887926704655 91:0.8099205043384887 93:0.4127366251580388 94:0.8715772701293752 95:0.0017838895720396959 
1.0 34:0.6399314155077157 35:0.5591714439113944 49:0.6410225324304196 60:0.5984516531287345 71:0.550390550581063 77:0.605535253468193 78:0.6399314155077157 79:0.5591714439113944 80:0.6408666585843191 81:0.5984689724449679 82:0.550390550581063 83:0.13600859038085175 84:0.27184398759936956 85:0.2852491383640174 86:0.3589774675695804 87:0.18017284677600928 88:0.2852491383640174 89:0.550390550581063 90:0.10627132440811236 91:0.6311851608098512 92:0.605535253468193 93:0.605535253468193 94:0.9110479918252827 95:0.0017838895720396959 
1.0 6:0.8688061795320321 17:0.8177834739084501 28:0.8398656021060289 34:0.46058989591090943 35:0.5591714439113944 49:0.6311851608098512 60:0.4971682917958399 71:8.659658116697553E-4 77:0.605535253468193 78:0.46058989591090943 79:0.5591714439113944 80:0.9227038916503576 81:0.4971682917958399 82:8.659658116697553E-4 83:0.13600859038085175 84:0.27184398759936956 85:0.2852491383640174 86:0.3589774675695804 87:0.18017284677600928 88:0.2781135800758586 89:0.550390550581063 90:0.10627132440811236 92:0.605535253468193 93:0.8091757737404527 95:0.0017838895720396959 
1.0 6:8.659658116697553E-4 17:0.5178648746947471 28:0.6125322572264847 44:0.6238417707268917 49:0.8439356414208767 60:0.0013335873499714232 77:0.5177263201648798 78:0.6125322572264847 79:0.605535253468193 80:0.937182840021476 81:0.6238417707268917 82:0.8439356414208767 83:0.3589774675695804 84:0.2852491383640174 85:0.13600859038085175 86:0.13600859038085175 87:0.18017284677600928 88:0.27184398759936956 90:0.2871889017821576 93:0.45125478446110945 95:0.0017838895720396959 
1.0 6:0.605535253468193 17:0.34202185697708654 28:0.6899322814735275 49:0.9944231801728468 60:0.08477805296246904 71:0.5125305252948613 77:0.3838826443132025 78:0.6899322814735275 79:0.605535253468193 80:0.9944231801728468 81:0.08477805296246904 82:0.5125305252948613 83:0.2781135800758586 84:0.2852491383640174 85:0.13600859038085175 86:0.1033097213322018 87:0.307850846048598 88:0.2852491383640174 89:0.7526628448708845 90:0.09241587142139629 92:0.8081885727151492 93:0.6311851608098512 95:0.004277871109648591 
1.0 6:0.14343857704497825 17:0.9858501186373162 28:0.3846100555950051 49:8.659658116697553E-4 60:0.9944231801728468 71:0.9173868615667053 77:0.5788288678362978 78:0.9858154800048494 79:0.3846100555950051 80:8.659658116697553E-4 81:0.9944231801728468 82:0.9173868615667053 83:0.06094667382531738 84:0.3589774675695804 85:0.2852491383640174 86:0.2781135800758586 87:0.1033097213322018 88:0.3068636450232945 90:0.10221860440949791 93:0.6311851608098512 95:0.004277871109648591 
1.0 6:0.4791388835968756 17:8.659658116697553E-4 28:0.6913351460884324 49:8.659658116697553E-4 60:0.5977935191118655 71:0.7006875768544658 77:0.4791388835968756 78:8.659658116697553E-4 79:0.6913351460884324 80:8.659658116697553E-4 81:0.5977935191118655 82:0.7323126482966452 83:0.27184398759936956 84:0.2781135800758586 85:0.2852491383640174 86:0.2781135800758586 87:0.3068636450232945 88:0.3589774675695804 89:0.6877154089956529 90:0.1875855141239024 92:0.9480247319835813 93:0.5484854257953896 95:0.004277871109648591 
1.0 6:0.9173868615667053 17:0.566566791943054 28:0.6125322572264847 34:0.4978437451289423 35:0.550390550581063 39:8.659658116697553E-4 40:0.1903912433537124 41:8.659658116697553E-4 49:0.31748038587436567 50:8.659658116697553E-4 51:0.0753909835639689 52:8.659658116697553E-4 60:0.28474687819324895 71:0.9944231801728468 77:0.605535253468193 78:0.49772250991530853 79:0.550390550581063 80:8.659658116697553E-4 81:0.1903912433537124 82:8.659658116697553E-4 83:0.13600859038085175 84:0.27184398759936956 85:0.2852491383640174 86:0.2781135800758586 87:0.307850846048598 88:0.2781135800758586 90:0.3070541575018618 93:0.958970539843087 95:0.004277871109648591 
1.0 6:0.9173868615667053 17:0.566566791943054 28:0.6125322572264847 34:0.4978437451289423 35:0.550390550581063 36:0.30771229151873086 37:8.659658116697553E-4 39:8.659658116697553E-4 49:0.31748038587436567 50:8.659658116697553E-4 51:0.0753909835639689 52:8.659658116697553E-4 60:0.28474687819324895 71:0.9944231801728468 77:0.550390550581063 78:0.30771229151873086 79:8.659658116697553E-4 80:8.659658116697553E-4 81:0.31748038587436567 82:8.659658116697553E-4 83:0.2852491383640174 84:0.307850846048598 85:0.2781135800758586 86:0.2781135800758586 87:0.307850846048598 88:0.2781135800758586 90:0.1900448570290445 93:0.7024541471102721 95:0.0017838895720396959 
1.0 6:0.7377855522263981 17:0.9858154800048494 28:0.6913351460884324 49:0.0013335873499714232 77:0.7376643170127644 78:0.9858154800048494 79:0.6913351460884324 80:0.0013335873499714232 83:0.18017284677600928 84:0.3589774675695804 85:0.2852491383640174 86:0.2781135800758586 89:0.6877154089956529 90:0.3488456675730442 92:0.9480247319835813 93:0.7320701778693777 95:0.004277871109648591 
1.0 6:0.3846100555950051 17:0.8342714629626422 28:0.6125322572264847 34:0.4663225895841632 35:0.6913351460884324 49:8.659658116697553E-4 60:0.512599802559795 71:0.13013734217773082 77:0.6125322572264847 78:0.4663225895841632 79:0.6913351460884324 80:8.659658116697553E-4 81:0.512599802559795 82:0.605535253468193 83:0.2852491383640174 84:0.27184398759936956 85:0.2852491383640174 86:0.2781135800758586 87:0.2852491383640174 88:0.13600859038085175 89:0.6877154089956529 90:0.3488456675730442 92:0.9480247319835813 93:0.7320701778693777 95:0.004277871109648591 
1.0 6:0.9597499090735898 17:0.7377855522263981 28:0.6913351460884324 49:0.0013335873499714232 77:0.9595767159112558 78:0.7376643170127644 79:0.6913351460884324 80:0.0013335873499714232 83:0.3068636450232945 84:0.18017284677600928 85:0.2852491383640174 86:0.2781135800758586 89:0.6877154089956529 90:0.3488456675730442 92:0.9480247319835813 93:0.7320701778693777 95:0.004277871109648591 
1.0 6:8.659658116697553E-4 12:0.7254022411195206 13:0.550390550581063 17:0.44853565181246646 28:0.5278234815289492 34:0.9051074663572282 35:0.22556677462373786 36:0.6125322572264847 49:0.6125322572264847 60:0.02232459862484629 71:0.0013335873499714232 77:0.9051074663572282 78:0.22556677462373786 79:0.6125322572264847 80:0.6125322572264847 81:0.3815618559379276 82:0.0013335873499714232 83:0.27184398759936956 84:0.307850846048598 85:0.2852491383640174 86:0.2852491383640174 87:0.2781135800758586 88:0.2781135800758586 90:0.2871889017821576 93:0.47330227402622144 95:0.004277871109648591 
1.0 6:0.6808915983996952 17:0.4192486880617953 28:0.550390550581063 49:0.6913351460884324 60:0.605535253468193 71:0.4578188053135662 77:0.4192486880617953 78:0.550390550581063 79:0.605535253468193 80:0.6913351460884324 81:0.605535253468193 82:0.3818216456814285 83:0.06094667382531738 84:0.2852491383640174 85:0.13600859038085175 86:0.2852491383640174 87:0.13600859038085175 88:0.2781135800758586 90:0.348222172188642 91:0.6877154089956529 93:0.8715772701293752 94:0.9480247319835813 95:0.0017838895720396959 
1.0 6:9.006044441365455E-4 17:9.006044441365455E-4 28:0.1582119537920643 49:9.006044441365455E-4 60:0.6888758031832903 71:0.9323334314761254 77:9.006044441365455E-4 78:9.006044441365455E-4 79:0.6125322572264847 80:9.006044441365455E-4 81:0.6878020055768198 82:0.9323334314761254 83:0.2781135800758586 84:0.2781135800758586 85:0.2852491383640174 86:0.2781135800758586 87:0.3589774675695804 88:0.27184398759936956 90:0.24929423786348914 93:0.45624274753632726 95:0.0017838895720396959 
1.0 6:0.8688061795320321 17:0.9136632085765254 28:0.8398656021060289 49:0.0013335873499714232 77:0.8688061795320321 78:0.9141135107985937 79:0.8398656021060289 80:0.0013335873499714232 83:0.1033097213322018 84:0.3589774675695804 85:0.2852491383640174 86:0.2781135800758586 89:0.8355704116801469 90:0.24929423786348914 92:0.8060582968184417 93:0.45624274753632726 95:0.0017838895720396959 
1.0 6:9.006044441365455E-4 17:9.006044441365455E-4 28:0.3058591246817576 49:0.0013335873499714232 77:9.006044441365455E-4 78:9.006044441365455E-4 79:0.8653942742340532 80:0.0013335873499714232 83:0.2781135800758586 84:0.2781135800758586 85:0.1033097213322018 86:0.2781135800758586 89:0.3053222258785223 90:0.24929423786348914 92:0.6311851608098512 93:0.45624274753632726 95:0.0017838895720396959 
1.0 6:0.1641005213114186 17:0.8170733819428809 28:0.8398656021060289 49:0.0013335873499714232 77:0.6408666585843191 78:0.8171426592078145 79:0.8398656021060289 80:0.0013335873499714232 83:0.3589774675695804 84:0.3589774675695804 85:0.2852491383640174 86:0.2781135800758586 89:0.8355704116801469 90:0.24929423786348914 92:0.8060582968184417 93:0.40142711165763173 95:0.0017838895720396959 
1.0 6:0.5125305252948613 17:0.827863315956286 28:0.550390550581063 39:0.49687386341987216 49:0.965984862917612 55:0.9833734564159406 56:0.5591714439113944 60:0.5005975164100521 71:0.0013335873499714232 77:0.827863315956286 78:0.550390550581063 79:0.605535253468193 80:0.49687386341987216 81:0.965984862917612 82:0.605535253468193 83:0.27184398759936956 84:0.2852491383640174 85:0.13600859038085175 86:0.18017284677600928 87:0.2852491383640174 88:0.13600859038085175 90:0.3240790453592892 91:0.4949514193179653 93:0.41164550823533486 94:0.9508131418971579 95:0.0017838895720396959 
1.0 17:0.9988915637610627 28:0.550390550581063 34:0.4674829837718007 35:0.550390550581063 39:7.966885467361748E-4 40:0.10109284885432723 41:8.31327179202965E-4 49:0.4918339423959542 60:0.45626006685256065 71:0.5125305252948613 77:0.605535253468193 78:0.4674829837718007 79:0.550390550581063 80:7.966885467361748E-4 81:0.10109284885432723 82:8.31327179202965E-4 83:0.13600859038085175 84:0.27184398759936956 85:0.2852491383640174 86:0.2781135800758586 87:0.307850846048598 88:0.2781135800758586 90:0.3240790453592892 93:0.7526628448708845 95:0.004277871109648591 
0.8068723789617824 6:0.9244185039574637 17:0.45626006685256065 28:0.6125322572264847 34:0.1755312700254594 35:0.6125322572264847 39:7.966885467361748E-4 40:0.34056703441348135 41:8.31327179202965E-4 49:0.8688061795320321 60:0.7797675747761479 71:0.6311851608098512 77:0.605535253468193 78:0.1755312700254594 79:0.6125322572264847 80:7.966885467361748E-4 81:0.34056703441348135 82:8.31327179202965E-4 83:0.13600859038085175 84:0.307850846048598 85:0.2852491383640174 86:0.2781135800758586 87:0.307850846048598 88:0.2781135800758586 90:0.13715166525225583 93:0.8081885727151492 95:0.0017838895720396959 
1.0 6:0.8688061795320321 17:0.7939001368225982 28:0.55700652938222 34:0.9698643897538926 35:0.6125322572264847 49:0.0013335873499714232 77:0.937182840021476 78:0.9698643897538926 79:0.6125322572264847 80:0.0013335873499714232 83:0.13600859038085175 84:0.27184398759936956 85:0.2852491383640174 86:0.2781135800758586 90:0.341865983130986 93:0.6558651864424393 95:0.004277871109648591 
1.0 6:0.550390550581063 17:0.47688737248653423 18:0.8529070472297754 28:0.5591714439113944 34:0.4614731810388126 35:0.6266474999567017 49:0.9944231801728468 60:0.08226675210862675 71:0.9235352188295606 77:0.5591714439113944 78:0.4614731810388126 79:0.6266474999567017 80:0.9944231801728468 81:0.08226675210862675 82:0.9227038916503576 83:0.2852491383640174 84:0.27184398759936956 85:0.2852491383640174 86:0.1033097213322018 87:0.307850846048598 88:0.3589774675695804 89:0.6125322572264847 90:0.2594953151249589 92:0.8745908311539861 93:0.7884272328928454 95:0.0017838895720396959 
1.0 6:0.4127366251580388 12:0.6048424808188573 17:0.505810630596304 28:0.5591714439113944 49:0.5125305252948613 60:0.9648591073624413 71:0.6125322572264847 77:0.6048424808188573 78:0.505810630596304 79:0.5591714439113944 80:0.5125305252948613 81:0.605535253468193 82:0.9648591073624413 83:0.27184398759936956 84:0.18017284677600928 85:0.2852491383640174 86:0.2852491383640174 87:0.13600859038085175 88:0.27184398759936956 89:0.550390550581063 90:0.1188971059422574 91:0.49985278581201614 92:0.605535253468193 93:0.8087081522021511 94:0.8042224492977017 95:0.0017838895720396959 
1.0 34:0.47688737248653423 35:0.5591714439113944 49:0.9173868615667053 60:0.71121772112437 71:8.659658116697553E-4 77:0.605535253468193 78:0.47688737248653423 79:0.5591714439113944 80:0.9173868615667053 81:0.7113562756542372 82:8.659658116697553E-4 83:0.13600859038085175 84:0.27184398759936956 85:0.2852491383640174 86:0.3068636450232945 87:0.3589774675695804 88:0.2781135800758586 89:0.550390550581063 90:0.1188971059422574 92:0.605535253468193 93:0.8087081522021511 95:0.0017838895720396959 
1.0 6:0.9944578188053136 17:0.6502710472990526 28:0.550390550581063 34:0.4770605656488682 35:0.550390550581063 39:8.659658116697553E-4 40:0.3421257728744869 41:8.659658116697553E-4 49:0.10637524030551274 60:0.9944231801728468 66:0.8347910424496441 67:0.5591714439113944 71:0.2608289024749303 77:0.605535253468193 78:0.47688737248653423 79:0.550390550581063 80:8.659658116697553E-4 81:0.3421257728744869 82:8.659658116697553E-4 83:0.13600859038085175 84:0.27184398759936956 85:0.2852491383640174 86:0.2781135800758586 87:0.307850846048598 88:0.2781135800758586 90:0.3178267721990336 93:0.7965499922063077 95:0.0017838895720396959 
1.0 34:0.47688737248653423 35:0.5591714439113944 49:0.9235352188295606 60:0.5274251372555812 61:0.9658463083877449 71:0.5591714439113944 77:0.605535253468193 78:0.47688737248653423 79:0.5591714439113944 80:0.9227038916503576 81:0.605535253468193 82:0.5274251372555812 83:0.13600859038085175 84:0.27184398759936956 85:0.2852491383640174 86:0.3589774675695804 87:0.13600859038085175 88:0.27184398759936956 89:0.550390550581063 90:0.1188971059422574 91:0.9173868615667053 92:0.605535253468193 93:0.8087081522021511 94:0.9110479918252827 95:0.0017838895720396959 
1.0 28:0.2293250662463846 34:0.47688737248653423 35:0.5591714439113944 49:8.659658116697553E-4 60:0.45676232702332914 71:0.9492024454874521 77:0.605535253468193 78:0.47688737248653423 79:0.5591714439113944 80:8.659658116697553E-4 81:0.605535253468193 82:0.45676232702332914 83:0.13600859038085175 84:0.27184398759936956 85:0.2852491383640174 86:0.2781135800758586 87:0.13600859038085175 88:0.27184398759936956 89:0.550390550581063 90:0.1188971059422574 92:0.605535253468193 93:0.8087081522021511 95:0.0017838895720396959 
1.0 6:0.6125322572264847 17:0.6863471830132146 28:0.550390550581063 49:0.9944231801728468 60:0.8650825265418521 71:0.887389805850465 77:0.6863471830132146 78:0.550390550581063 79:0.605535253468193 80:0.9944231801728468 81:0.8360726718509153 82:0.887389805850465 83:0.27184398759936956 84:0.2852491383640174 85:0.13600859038085175 86:0.1033097213322018 87:0.3589774675695804 88:0.3589774675695804 89:0.7526628448708845 90:0.09241587142139629 92:0.8081885727151492 93:0.6311851608098512 95:0.0017838895720396959 
1.0 6:0.794281161779733 17:8.659658116697553E-4 28:0.4127366251580388 49:0.0013335873499714232 77:0.794281161779733 78:8.659658116697553E-4 79:0.4127366251580388 80:0.0013335873499714232 83:0.27184398759936956 84:0.2781135800758586 85:0.2852491383640174 86:0.2781135800758586 90:0.2871889017821576 93:0.45125478446110945 95:0.0017838895720396959 
1.0 6:0.5125305252948613 17:0.47993557214361177 18:0.42844524498172815 28:0.6125322572264847 49:0.06092935450908398 60:9.006044441365455E-4 71:9.006044441365455E-4 77:0.4284972029304283 78:0.6125322572264847 79:0.605535253468193 80:0.06092935450908398 81:9.006044441365455E-4 82:9.006044441365455E-4 83:0.18017284677600928 84:0.2852491383640174 85:0.13600859038085175 86:0.2781135800758586 87:0.2781135800758586 88:0.2781135800758586 90:0.2871889017821576 93:0.45125478446110945 95:0.004277871109648591 
1.0 6:0.550390550581063 12:0.6584284452449817 13:0.550390550581063 17:0.15656661874989175 28:0.6125322572264847 39:8.659658116697553E-4 40:0.08320199518523008 41:8.659658116697553E-4 49:0.5871248203120941 60:0.3846100555950051 71:0.8480749580006581 77:0.550390550581063 78:0.15656661874989175 79:0.6125322572264847 80:8.659658116697553E-4 81:0.08320199518523008 82:8.659658116697553E-4 83:0.2852491383640174 84:0.307850846048598 85:0.2852491383640174 86:0.2781135800758586 87:0.307850846048598 88:0.2781135800758586 90:0.26171218760283343 93:0.7741734356327612 95:0.004277871109648591 
1.0 6:0.7428601118827829 17:0.9810526680406657 28:0.5068671088865412 34:0.4800048494085454 35:0.8398656021060289 49:0.0013335873499714232 77:0.5068671088865412 78:0.4800048494085454 79:0.8398656021060289 80:0.0013335873499714232 83:0.1033097213322018 84:0.27184398759936956 85:0.2852491383640174 86:0.2781135800758586 89:0.8355704116801469 90:0.3619390706454909 92:0.8060582968184417 93:0.9944578188053136 95:0.0017838895720396959 
1.0 6:0.8242955368122067 12:0.5295554131522887 13:0.5591714439113944 17:0.9815202895789674 28:0.3846100555950051 34:0.4200453766085315 35:0.550390550581063 36:0.36325533867922893 37:7.966885467361748E-4 39:8.31327179202965E-4 49:8.659658116697553E-4 60:0.44999047437607165 66:0.7682155908484734 67:0.550390550581063 71:0.9222189507958226 77:0.550390550581063 78:0.36325533867922893 79:7.966885467361748E-4 80:8.31327179202965E-4 81:8.659658116697553E-4 82:0.44997315505983826 83:0.2852491383640174 84:0.307850846048598 85:0.2781135800758586 86:0.2781135800758586 87:0.2781135800758586 88:0.3589774675695804 90:0.09241587142139629 93:0.4476177280520965 95:0.0017838895720396959 
1.0 6:0.8688061795320321 17:0.7515197699994804 28:0.3846100555950051 49:0.5125305252948613 60:0.5646270285249139 71:0.550390550581063 77:0.8688061795320321 78:0.7516063665806474 79:0.3846100555950051 80:0.5125305252948613 81:0.937182840021476 82:0.5646270285249139 83:0.3068636450232945 84:0.3589774675695804 85:0.2852491383640174 86:0.2852491383640174 87:0.13600859038085175 88:0.27184398759936956 90:0.341865983130986 91:0.49985278581201614 93:0.6558651864424393 94:0.8042224492977017 95:0.004277871109648591 
1.0 6:0.5629990127989747 7:7.966885467361748E-4 8:0.3503178094528828 9:8.659658116697553E-4 17:0.11332028611510418 28:8.659658116697553E-4 49:0.7978316216075789 60:0.3280971267254369 71:8.31327179202965E-4 77:8.659658116697553E-4 78:0.11332028611510418 79:8.659658116697553E-4 80:0.7978316216075789 81:0.3280971267254369 82:8.31327179202965E-4 83:0.2781135800758586 84:0.307850846048598 85:0.2781135800758586 86:0.1033097213322018 87:0.307850846048598 88:0.2781135800758586 90:0.3303486378357782 93:0.7006356189057656 95:0.0017838895720396959 
1.0 6:0.6125322572264847 17:0.4617849287310137 18:0.3998337345641594 28:0.6125322572264847 39:7.966885467361748E-4 40:0.1744574724189889 41:8.31327179202965E-4 49:0.9627634700982005 60:0.9762032594953152 71:0.030724466998042918 77:0.4617849287310137 78:0.3998337345641594 79:0.6125322572264847 80:7.966885467361748E-4 81:0.1744574724189889 82:8.31327179202965E-4 83:0.27184398759936956 84:0.18017284677600928 85:0.2852491383640174 86:0.2781135800758586 87:0.307850846048598 88:0.2781135800758586 90:0.26171218760283343 93:0.7741734356327612 95:0.004277871109648591 
1.0 6:0.4127366251580388 17:0.186823464209633 28:0.9944231801728468 49:8.659658116697553E-4 60:0.9944231801728468 71:0.9979909593169262 72:0.7653405843537298 73:0.4061552849893486 77:0.186823464209633 78:0.9944231801728468 79:0.605535253468193 80:8.659658116697553E-4 81:0.9944231801728468 82:0.605535253468193 83:0.307850846048598 84:0.1033097213322018 85:0.13600859038085175 86:0.2781135800758586 87:0.1033097213322018 88:0.13600859038085175 90:0.10627132440811236 93:0.46291068428618437 95:0.0017838895720396959 
1.0 1:0.8422903063787042 2:0.5591714439113944 6:0.12090614662533124 7:0.550390550581063 8:0.1666291414814943 17:0.5196660835830201 28:0.6125322572264847 34:0.34048043783231435 35:7.966885467361748E-4 39:8.31327179202965E-4 49:8.659658116697553E-4 60:0.6517085505464244 71:0.3846100555950051 77:0.6125322572264847 78:0.34048043783231435 79:7.966885467361748E-4 80:8.31327179202965E-4 81:8.659658116697553E-4 82:0.6515699960165573 83:0.2852491383640174 84:0.307850846048598 85:0.2781135800758586 86:0.2781135800758586 87:0.2781135800758586 88:0.3589774675695804 90:0.3619390706454909 93:0.7006356189057656 95:0.0017838895720396959 
1.0 6:0.5886316008243995 17:0.9895910909437295 28:0.4022930774693015 34:0.4978437451289423 35:0.550390550581063 39:8.659658116697553E-4 40:0.32530871681186024 41:8.659658116697553E-4 44:0.4813557560747502 45:0.5591714439113944 49:0.6400180120888828 50:0.550390550581063 51:0.09279689637853097 55:0.06089471587661719 60:0.3555655622716015 61:8.659658116697553E-4 71:0.6125322572264847 77:0.605535253468193 78:0.49772250991530853 79:0.550390550581063 80:8.659658116697553E-4 81:0.32530871681186024 82:8.659658116697553E-4 83:0.13600859038085175 84:0.27184398759936956 85:0.2852491383640174 86:0.2781135800758586 87:0.307850846048598 88:0.2781135800758586 90:0.1011967647517276 93:0.7006356189057656 95:0.004277871109648591 
1.0 6:0.8781759296142988 17:0.45626006685256065 28:0.6125322572264847 39:7.966885467361748E-4 40:0.17650115173452952 41:8.31327179202965E-4 44:0.9548831812120058 49:0.8478151682571572 60:0.6125322572264847 71:0.4868632986369698 77:0.8782105682467656 78:0.45626006685256065 79:0.6125322572264847 80:7.966885467361748E-4 81:0.17650115173452952 82:8.31327179202965E-4 83:0.3589774675695804 84:0.06094667382531738 85:0.2852491383640174 86:0.2781135800758586 87:0.307850846048598 88:0.2781135800758586 90:0.27470167477787977 93:0.9953584232494501 95:0.004277871109648591 
1.0 6:0.9944231801728468 17:0.7539271549559223 28:0.550390550581063 49:8.659658116697553E-4 60:0.3265903462131315 71:0.9944231801728468 77:0.9944231801728468 78:0.605535253468193 79:0.550390550581063 80:8.659658116697553E-4 81:0.3265903462131315 82:0.9944231801728468 83:0.1033097213322018 84:0.13600859038085175 85:0.2852491383640174 86:0.2781135800758586 87:0.307850846048598 88:0.1033097213322018 90:0.09833907757321741 93:0.4303157311349348 95:0.004277871109648591 
1.0 6:8.659658116697553E-4 17:0.9858501186373162 28:0.3846100555950051 49:0.5977935191118655 60:0.605535253468193 71:0.8635757460295468 77:8.659658116697553E-4 78:0.9858154800048494 79:0.3846100555950051 80:0.5977935191118655 81:0.605535253468193 82:0.8635757460295468 83:0.2781135800758586 84:0.3589774675695804 85:0.2852491383640174 86:0.3068636450232945 87:0.13600859038085175 88:0.18017284677600928 90:0.3488456675730442 91:0.5959230329586588 93:0.7320701778693777 94:0.550390550581063 95:0.004277871109648591 
1.0 6:0.8398656021060289 17:0.6080119156895686 28:8.659658116697553E-4 34:0.9208680441296178 35:0.8398656021060289 49:0.8226675210862675 60:0.45626006685256065 71:0.7660333570030655 77:0.605535253468193 78:0.9208680441296178 79:0.8398656021060289 80:0.8228233949323681 81:0.45626006685256065 82:0.7660333570030655 83:0.13600859038085175 84:0.27184398759936956 85:0.2852491383640174 86:0.3589774675695804 87:0.06094667382531738 88:0.3589774675695804 89:0.8355704116801469 90:0.08216283621122639 91:0.8199657077538579 92:0.8060582968184417 93:0.7884272328928454 94:0.45871940975770276 95:0.0017838895720396959 
1.0 6:7.966885467361748E-4 17:0.6125322572264847 28:0.17324512028265124 29:8.659658116697553E-4 30:0.181956736348049 31:8.659658116697553E-4 34:0.35049100261521676 35:8.659658116697553E-4 39:8.659658116697553E-4 49:0.36218154107275846 60:8.659658116697553E-4 71:0.3629609103032612 77:8.659658116697553E-4 78:0.35049100261521676 79:8.659658116697553E-4 80:8.659658116697553E-4 81:0.36218154107275846 82:8.659658116697553E-4 83:0.2781135800758586 84:0.307850846048598 85:0.2781135800758586 86:0.2781135800758586 87:0.307850846048598 88:0.2781135800758586 90:0.15305079755451254 93:0.7497878383761409 95:0.0017838895720396959 
1.0 6:0.6125322572264847 17:0.17324512028265124 18:8.659658116697553E-4 19:0.181956736348049 20:8.659658116697553E-4 28:0.35049100261521676 29:8.659658116697553E-4 30:0.15362233499021458 31:8.659658116697553E-4 49:8.659658116697553E-4 60:0.3629609103032612 71:0.9944231801728468 77:8.659658116697553E-4 78:0.15362233499021458 79:8.659658116697553E-4 80:8.659658116697553E-4 81:0.3629609103032612 82:0.9944231801728468 83:0.2781135800758586 84:0.307850846048598 85:0.2781135800758586 86:0.2781135800758586 87:0.307850846048598 88:0.1033097213322018 90:0.3619390706454909 93:0.7008261313843329 95:0.0017838895720396959 
1.0 6:0.9944231801728468 12:0.7882540397305114 17:0.48949583470444585 28:0.5706714698903688 49:0.0013335873499714232 77:0.7882540397305114 78:0.48949583470444585 79:0.5706714698903688 80:0.0013335873499714232 83:0.27184398759936956 84:0.18017284677600928 85:0.2852491383640174 86:0.2781135800758586 89:0.550390550581063 90:0.18110808985261262 92:0.550390550581063 93:0.7006356189057656 95:0.004277871109648591 
1.0 6:0.605535253468193 17:0.7648902821316614 28:0.6125322572264847 34:0.24394256914737006 35:7.966885467361748E-4 39:8.31327179202965E-4 49:0.0013335873499714232 77:0.6125322572264847 78:0.24394256914737006 79:7.966885467361748E-4 80:8.31327179202965E-4 81:0.0013335873499714232 83:0.2852491383640174 84:0.307850846048598 85:0.2781135800758586 86:0.2781135800758586 87:0.2781135800758586 90:0.3240790453592892 93:0.47330227402622144 95:0.004277871109648591 
1.0 6:8.659658116697553E-4 17:0.7092779577062298 18:0.8867489911498294 28:0.6125322572264847 34:0.3621469024402917 35:7.966885467361748E-4 39:8.31327179202965E-4 49:0.9193959022497792 60:0.42662671677722164 71:0.3996085834531253 77:0.6125322572264847 78:0.3621469024402917 79:7.966885467361748E-4 80:8.31327179202965E-4 81:0.9190321966088779 82:0.42662671677722164 83:0.2852491383640174 84:0.307850846048598 85:0.2781135800758586 86:0.2781135800758586 87:0.3589774675695804 88:0.06094667382531738 90:0.2820450648608393 93:0.9173868615667053 95:0.004277871109648591 
1.0 1:0.9192227090874452 6:0.9395729056616845 17:0.9723064133428012 28:0.6125322572264847 34:0.3276468245033686 35:7.966885467361748E-4 39:8.31327179202965E-4 49:0.0013335873499714232 77:0.6125322572264847 78:0.3276468245033686 79:7.966885467361748E-4 80:8.31327179202965E-4 81:0.0013335873499714232 83:0.2852491383640174 84:0.307850846048598 85:0.2781135800758586 86:0.2781135800758586 87:0.2781135800758586 90:0.09241587142139629 93:0.4476177280520965 95:0.0017838895720396959 
1.0 6:0.4572126292453974 17:0.9857808413723826 28:0.3846100555950051 49:0.812916746046866 60:0.6222137550009526 71:0.4127366251580388 77:0.4572126292453974 78:0.9858154800048494 79:0.3846100555950051 80:0.812916746046866 81:0.6221271584197856 82:0.4127366251580388 83:0.27184398759936956 84:0.3589774675695804 85:0.2852491383640174 86:0.2852491383640174 87:0.3589774675695804 88:0.2852491383640174 90:0.3619390706454909 91:0.8099205043384887 93:0.7008261313843329 94:0.8715772701293752 95:0.0017838895720396959 
1.0 6:0.7871975614402743 17:0.9189802386601778 28:0.8398656021060289 34:0.6883389043800551 35:0.550390550581063 49:0.0013335873499714232 77:0.605535253468193 78:0.6883215850638217 79:0.550390550581063 80:0.0013335873499714232 83:0.13600859038085175 84:0.27184398759936956 85:0.2852491383640174 86:0.2781135800758586 90:0.341865983130986 93:0.6558651864424393 95:0.004277871109648591 
1.0 6:8.659658116697553E-4 17:0.8541713573148132 28:0.550390550581063 49:8.659658116697553E-4 60:0.9294064670326816 71:0.3846100555950051 77:8.659658116697553E-4 78:0.8541540379985798 79:0.550390550581063 80:8.659658116697553E-4 81:0.9294064670326816 82:0.3846100555950051 83:0.2781135800758586 84:0.18017284677600928 85:0.2852491383640174 86:0.2781135800758586 87:0.18017284677600928 88:0.2852491383640174 90:0.341865983130986 93:0.6558651864424393 95:0.004277871109648591 
1.0 6:0.5204800914459897 17:0.986629487867819 28:0.6125322572264847 34:0.6399487348239492 49:0.0013335873499714232 77:0.6125322572264847 78:0.605535253468193 79:0.6399487348239492 80:0.0013335873499714232 83:0.2852491383640174 84:0.13600859038085175 85:0.27184398759936956 86:0.2781135800758586 89:0.6311851608098512 90:0.2594953151249589 92:0.7320701778693777 93:0.7398985088068724 95:0.0017838895720396959 
1.0 6:0.04830357297493895 12:0.6438629002926964 17:0.7505845269228771 28:0.5706714698903688 49:8.659658116697553E-4 60:0.8280538284348534 71:0.3846100555950051 77:0.643845580976463 78:0.7505672076066436 79:0.5706714698903688 80:8.659658116697553E-4 81:0.82803650911862 82:0.3846100555950051 83:0.27184398759936956 84:0.18017284677600928 85:0.2852491383640174 86:0.2781135800758586 87:0.18017284677600928 88:0.2852491383640174 89:0.550390550581063 90:0.09833907757321741 92:0.550390550581063 93:0.4303157311349348 95:0.004277871109648591 
1.0 6:8.659658116697553E-4 17:0.8610471258594711 28:0.8811894906389096 34:0.38554529867160847 49:0.44096711061847277 60:8.659658116697553E-4 71:0.6333500753390257 77:0.9760127470167478 78:0.8811894906389096 79:0.38554529867160847 80:0.44096711061847277 81:8.659658116697553E-4 82:0.6333500753390257 83:0.13600859038085175 84:0.27184398759936956 85:0.06094667382531738 86:0.06094667382531738 87:0.2781135800758586 88:0.18017284677600928 89:0.3861687940560107 90:0.30876876980896795 91:0.4369490292523251 92:0.7017267358284695 93:0.7398985088068724 94:0.45871940975770276 95:0.0017838895720396959 
1.0 6:0.6444344377283985 17:0.6194253450873759 28:0.6125322572264847 34:0.7017786937771697 35:0.5591714439113944 49:0.9547619459983719 60:0.8522142745804395 71:0.44557404873655587 77:0.605535253468193 78:0.7017786937771697 79:0.5591714439113944 80:0.9538093836055352 81:0.8522142745804395 82:0.44557404873655587 83:0.13600859038085175 84:0.27184398759936956 85:0.2852491383640174 86:0.3589774675695804 87:0.18017284677600928 88:0.3589774675695804 89:0.550390550581063 91:0.9508131418971579 92:0.605535253468193 94:0.424011500025979 95:0.0017838895720396959 
0.5594201599519874 6:0.9380488058331458 17:0.38554529867160847 28:0.8398656021060289 49:0.6913351460884324 55:0.8346698072360104 56:0.550390550581063 60:0.11364935312353869 71:8.659658116697553E-4 77:0.38554529867160847 78:0.8398656021060289 79:0.605535253468193 80:0.6913351460884324 81:0.605535253468193 82:0.8346698072360104 83:0.06094667382531738 84:0.2852491383640174 85:0.13600859038085175 86:0.2852491383640174 87:0.13600859038085175 88:0.27184398759936956 90:0.30876876980896795 91:0.6877154089956529 93:0.7398985088068724 94:0.9480247319835813 95:0.0017838895720396959 
1.0 6:0.6125322572264847 17:0.8811894906389096 28:0.8398656021060289 49:0.0013335873499714232 77:0.8811894906389096 78:0.8398656021060289 79:0.605535253468193 80:0.0013335873499714232 83:0.27184398759936956 84:0.2852491383640174 85:0.13600859038085175 86:0.2781135800758586 90:0.30876876980896795 93:0.7398985088068724 95:0.0017838895720396959 
1.0 6:0.6125322572264847 12:0.8526299381700411 17:0.9090389511422089 28:0.550390550581063 49:0.9944231801728468 60:0.7398985088068724 71:0.9191880704549784 77:0.8526818961187412 78:0.9090389511422089 79:0.550390550581063 80:0.9944231801728468 81:0.605535253468193 82:0.9192227090874452 83:0.18017284677600928 84:0.27184398759936956 85:0.2852491383640174 86:0.1033097213322018 87:0.13600859038085175 88:0.18017284677600928 90:0.3669616723531755 93:0.8042224492977017 95:0.0017838895720396959 
1.0 6:0.965984862917612 12:0.8923258109769826 13:0.550390550581063 17:0.29635082006962365 28:8.659658116697553E-4 34:0.9811392646218328 35:0.4791215642806422 36:0.550390550581063 49:8.659658116697553E-4 60:0.9944231801728468 71:0.21280243855972567 77:0.9855556902613485 78:0.4791215642806422 79:0.550390550581063 80:8.659658116697553E-4 81:0.9944231801728468 82:0.21280243855972567 83:0.27184398759936956 84:0.27184398759936956 85:0.2852491383640174 86:0.2781135800758586 87:0.1033097213322018 88:0.307850846048598 90:0.3669616723531755 93:0.8042224492977017 95:0.0017838895720396959 
1.0 6:0.8688061795320321 17:0.7094857895010305 28:0.9303417101092849 49:8.31327179202965E-4 60:0.0013335873499714232 77:0.7096070247146643 78:0.9303417101092849 79:0.605535253468193 80:8.31327179202965E-4 81:0.0013335873499714232 83:0.3589774675695804 84:0.2852491383640174 85:0.13600859038085175 86:0.2781135800758586 87:0.2781135800758586 90:0.348222172188642 93:0.8715772701293752 95:0.0017838895720396959 
1.0 6:0.6125322572264847 17:0.8046900708360034 18:0.8369559569788185 28:0.5278234815289492 34:0.5046329170924332 49:0.0013335873499714232 77:0.5278234815289492 78:0.605535253468193 79:0.5046329170924332 80:0.0013335873499714232 83:0.2852491383640174 84:0.13600859038085175 85:0.27184398759936956 86:0.2781135800758586 89:0.49985278581201614 90:0.3619390706454909 92:0.5959230329586588 93:0.9944578188053136 95:0.0017838895720396959 
1.0 34:0.7364866035088935 35:0.550390550581063 49:8.659658116697553E-4 60:0.7086891009542943 71:0.5125305252948613 77:0.605535253468193 78:0.7364866035088935 79:0.550390550581063 80:8.659658116697553E-4 81:0.7086717816380609 82:0.5125305252948613 83:0.13600859038085175 84:0.307850846048598 85:0.2852491383640174 86:0.2781135800758586 87:0.18017284677600928 88:0.2852491383640174 90:0.341865983130986 93:0.6558651864424393 95:0.004277871109648591 
1.0 6:0.7087410589029945 17:0.9878937979528568 18:0.8040146175029009 28:0.550390550581063 49:0.0013335873499714232 77:0.9878937979528568 78:0.8040665754516012 79:0.550390550581063 80:0.0013335873499714232 83:0.27184398759936956 84:0.18017284677600928 85:0.2852491383640174 86:0.2781135800758586 90:0.341865983130986 93:0.6558651864424393 95:0.004277871109648591 
1.0 6:0.5492821143421258 12:0.992985676925475 13:0.4127366251580388 17:0.9006910407177124 28:0.5591714439113944 49:0.0013335873499714232 77:0.4127366251580388 78:0.9006910407177124 79:0.5591714439113944 80:0.0013335873499714232 83:0.2852491383640174 84:0.27184398759936956 85:0.2852491383640174 86:0.2781135800758586 89:0.550390550581063 90:0.10627132440811236 92:0.605535253468193 93:0.8091757737404527 95:0.0017838895720396959 
1.0 6:0.6125322572264847 17:0.6822251857496666 28:0.5591714439113944 49:0.9944231801728468 60:0.42662671677722164 71:0.7535980879474878 77:0.598209182701467 78:0.6820346732710992 79:0.5591714439113944 80:0.9944231801728468 81:0.42662671677722164 82:0.7534075754689205 83:0.13600859038085175 84:0.27184398759936956 85:0.2852491383640174 86:0.1033097213322018 87:0.06094667382531738 88:0.3589774675695804 89:0.550390550581063 90:0.10627132440811236 92:0.605535253468193 93:0.8091757737404527 95:0.0017838895720396959 
1.0 6:0.4582864268518679 17:0.9173868615667053 28:0.5865186442439253 34:0.7958052616082717 35:0.5706714698903688 49:0.8688061795320321 60:0.5486239803252567 71:0.550390550581063 77:0.9760127470167478 78:0.7958052616082717 79:0.5706714698903688 80:0.8688061795320321 81:0.5493513916070594 82:0.550390550581063 83:0.13600859038085175 84:0.27184398759936956 85:0.2852491383640174 86:0.3068636450232945 87:0.3589774675695804 88:0.2852491383640174 89:0.550390550581063 90:0.10221860440949791 91:0.8687022636346317 92:0.550390550581063 93:0.6311851608098512 94:0.9738478324875733 95:0.004277871109648591 
1.0 6:0.4585808552278356 17:0.9266526957515717 28:0.4127366251580388 34:0.6817748835275983 35:0.550390550581063 49:8.659658116697553E-4 60:0.9173868615667053 71:0.6220925197873188 77:0.4127366251580388 78:0.6817748835275983 79:0.550390550581063 80:8.659658116697553E-4 81:0.9981987911117269 82:0.6221271584197856 83:0.2852491383640174 84:0.27184398759936956 85:0.2852491383640174 86:0.2781135800758586 87:0.3068636450232945 88:0.3589774675695804 90:0.34477562825819635 93:0.4428722354041462 95:0.0017838895720396959 
1.0 6:0.6125322572264847 17:0.6400353314051161 18:0.9449072550615701 28:8.659658116697553E-4 34:0.7100919655691993 49:8.659658116697553E-4 60:0.9944231801728468 71:0.1744574724189889 77:0.9448899357453368 78:8.659658116697553E-4 79:0.7100919655691993 80:8.659658116697553E-4 81:0.9944231801728468 82:0.1744574724189889 83:0.18017284677600928 84:0.2781135800758586 85:0.18017284677600928 86:0.2781135800758586 87:0.1033097213322018 88:0.307850846048598 89:0.7079616896724917 90:0.34477562825819635 92:0.5959230329586588 93:0.4428722354041462 95:0.0017838895720396959 
1.0 17:0.9856942447912156 18:0.8200176657025581 28:0.5164100521311419 34:0.2675487971734876 35:0.5125305252948613 49:0.9944231801728468 60:0.8165364831396457 71:0.9303417101092849 77:0.5164966487123088 78:0.2675487971734876 79:0.5125305252948613 80:0.9944231801728468 81:0.8171426592078145 82:0.9303417101092849 83:0.3589774675695804 84:0.307850846048598 85:0.2852491383640174 86:0.1033097213322018 87:0.3589774675695804 88:0.2852491383640174 89:0.49985278581201614 90:0.24929423786348914 92:0.8042224492977017 93:0.7497878383761409 95:0.004277871109648591 
1.0 6:0.19794246523147266 17:8.659658116697553E-4 28:0.6125322572264847 34:0.28907670725159773 35:7.966885467361748E-4 39:8.31327179202965E-4 49:8.659658116697553E-4 60:0.5977935191118655 71:0.826720241084882 77:0.6125322572264847 78:0.28907670725159773 79:7.966885467361748E-4 80:8.31327179202965E-4 81:8.659658116697553E-4 82:0.5977935191118655 83:0.2852491383640174 84:0.307850846048598 85:0.2781135800758586 86:0.2781135800758586 87:0.2781135800758586 88:0.3068636450232945 90:0.10627132440811236 93:0.7006356189057656 95:0.0017838895720396959 
1.0 6:0.4440153102755503 17:0.6985399816415248 28:0.6125322572264847 34:0.49772250991530853 35:0.550390550581063 49:0.8688061795320321 60:0.3846100555950051 71:0.10126604201666119 77:0.605535253468193 78:0.49772250991530853 79:0.550390550581063 80:0.8688061795320321 81:0.3846100555950051 82:0.10126604201666119 83:0.13600859038085175 84:0.27184398759936956 85:0.2852491383640174 86:0.1033097213322018 87:0.2852491383640174 88:0.307850846048598 90:0.3619390706454909 91:0.8687022636346317 93:0.7006356189057656 94:0.9738478324875733 95:0.004277871109648591 
1.0 6:0.7062990353140858 17:0.991981156583938 28:0.3846100555950051 49:0.0013335873499714232 60:0.4850274511162299 71:0.9944231801728468 77:0.7062990353140858 78:0.991981156583938 79:0.3846100555950051 80:0.0013335873499714232 81:0.7741734356327612 82:0.4850274511162299 83:0.18017284677600928 84:0.3589774675695804 85:0.2852491383640174 86:0.2781135800758586 87:0.13600859038085175 88:0.27184398759936956 90:0.3619390706454909 93:0.9944578188053136 95:0.004277871109648591 
1.0 6:0.8688061795320321 17:0.9922063076949722 28:0.3846100555950051 49:9.006044441365455E-4 60:0.0013335873499714232 77:0.8688061795320321 78:0.991981156583938 79:0.3846100555950051 80:9.006044441365455E-4 81:0.0013335873499714232 83:0.1033097213322018 84:0.3589774675695804 85:0.2852491383640174 86:0.2781135800758586 87:0.2781135800758586 90:0.09833907757321741 93:0.4303157311349348 95:0.004277871109648591 
1.0 17:0.47163961966781554 18:7.966885467361748E-4 19:0.4151613294307141 20:8.31327179202965E-4 28:0.550390550581063 39:8.659658116697553E-4 40:0.17786937771696773 41:8.659658116697553E-4 49:0.8586051022705623 60:0.5906406415074733 71:0.6125322572264847 77:0.4151613294307141 78:8.31327179202965E-4 79:0.550390550581063 80:8.659658116697553E-4 81:0.17786937771696773 82:8.659658116697553E-4 83:0.27184398759936956 84:0.2781135800758586 85:0.2852491383640174 86:0.2781135800758586 87:0.307850846048598 88:0.2781135800758586 90:0.18110808985261262 93:0.9508131418971579 95:0.0017838895720396959 
1.0 6:0.6976913351460884 17:0.9344983460052997 28:0.5591714439113944 49:0.0013335873499714232 77:0.697674015829855 78:0.9227038916503576 79:0.5591714439113944 80:0.0013335873499714232 83:0.27184398759936956 84:0.3589774675695804 85:0.2852491383640174 86:0.2781135800758586 89:0.550390550581063 90:0.16202220336341122 92:0.605535253468193 93:0.9508131418971579 95:0.0017838895720396959 
1.0 1:0.5625833492093733 2:0.5591714439113944 3:0.6035954900500529 6:0.12078491141169746 17:7.966885467361748E-4 28:0.6125322572264847 49:8.31327179202965E-4 60:0.812916746046866 71:0.5275117338367481 77:0.12078491141169746 78:7.966885467361748E-4 79:0.6125322572264847 80:8.31327179202965E-4 81:0.812916746046866 82:0.5275117338367481 83:0.307850846048598 84:0.2781135800758586 85:0.2852491383640174 86:0.2781135800758586 87:0.2852491383640174 88:0.3589774675695804 90:0.23452086111640313 93:0.4567969656557959 95:0.004277871109648591 
1.0 6:0.6125322572264847 12:0.4313029321602383 13:0.5591714439113944 14:0.6035954900500529 17:0.12078491141169746 28:0.550390550581063 49:8.659658116697553E-4 60:0.8688061795320321 71:0.7939001368225982 77:0.6035954900500529 78:0.12078491141169746 79:0.550390550581063 80:8.659658116697553E-4 81:0.8688061795320321 82:0.7939001368225982 83:0.27184398759936956 84:0.307850846048598 85:0.2852491383640174 86:0.2781135800758586 87:0.3068636450232945 88:0.06094667382531738 90:0.23452086111640313 93:0.4567969656557959 95:0.0017838895720396959 
1.0 17:0.30743518245899654 28:0.6125322572264847 34:0.22982732641715306 35:0.550390550581063 49:0.0013335873499714232 77:0.605535253468193 78:0.22982732641715306 79:0.550390550581063 80:0.0013335873499714232 83:0.13600859038085175 84:0.307850846048598 85:0.2852491383640174 86:0.2781135800758586 90:0.2871889017821576 93:0.47330227402622144 95:0.004277871109648591 
1.0 6:0.7620499142693846 17:0.4908813800031175 28:0.550390550581063 39:0.9796151647932939 49:0.6125322572264847 60:0.041583678276381646 71:0.7759053672561007 77:0.7620499142693846 78:0.4908813800031175 79:0.550390550581063 80:0.9796324841095273 81:0.6125322572264847 82:0.04232840887441764 83:0.27184398759936956 84:0.06094667382531738 85:0.2852491383640174 86:0.18017284677600928 87:0.2852491383640174 88:0.2781135800758586 90:0.3240790453592892 91:0.9782642581270892 93:0.49985278581201614 94:0.5484854257953896 95:0.004277871109648591 
1.0 6:0.8688061795320321 17:0.8651518038067857 28:0.5727497878383762 49:0.0013335873499714232 77:0.8360726718509153 78:0.5727497878383762 79:0.605535253468193 80:0.0013335873499714232 83:0.3589774675695804 84:0.3589774675695804 85:0.13600859038085175 86:0.2781135800758586 89:0.7526628448708845 90:0.09241587142139629 92:0.8081885727151492 93:0.6311851608098512 95:0.0017838895720396959 
1.0 6:0.550390550581063 12:0.8430523562929736 17:0.9859193959022498 28:0.3846100555950051 39:0.5591714439113944 40:0.7765808205892032 41:0.550390550581063 42:0.16685429259252846 44:8.659658116697553E-4 49:0.20223765565735466 50:8.659658116697553E-4 60:0.812916746046866 71:0.4890974904310778 77:0.8430523562929736 78:0.9859193959022498 79:0.3846100555950051 80:0.5591714439113944 81:0.7765808205892032 82:0.550390550581063 83:0.18017284677600928 84:0.27184398759936956 85:0.2852491383640174 86:0.2852491383640174 87:0.27184398759936956 88:0.2852491383640174 90:0.0962261209927432 91:0.550390550581063 93:0.5959230329586588 94:0.605535253468193 95:0.004277871109648591 
1.0 6:0.2073468539462062 17:0.7504806110254767 28:0.3846100555950051 49:8.659658116697553E-4 60:0.6356015864493669 71:0.9235871767782607 77:0.2073468539462062 78:0.7506538041878107 79:0.3846100555950051 80:8.659658116697553E-4 81:0.6349780910649647 82:0.9227038916503576 83:0.307850846048598 84:0.3589774675695804 85:0.2852491383640174 86:0.2781135800758586 87:0.3068636450232945 88:0.3589774675695804 90:0.0962261209927432 93:0.5959230329586588 95:0.004277871109648591 
1.0 1:0.683645369680805 6:0.48104400838254907 17:0.8688061795320321 28:0.9746618403505429 34:0.1627842532776806 35:0.5125305252948613 36:0.17650115173452952 37:0.3859436429449765 49:0.7900379293025511 60:0.0013335873499714232 77:0.5125305252948613 78:0.17650115173452952 79:0.3859436429449765 80:0.7900379293025511 81:0.0013335873499714232 83:0.2852491383640174 84:0.307850846048598 85:0.2852491383640174 86:0.18017284677600928 87:0.2781135800758586 89:0.3861687940560107 90:0.2973207017786938 91:0.7884272328928454 92:0.605535253468193 93:0.6293666326053448 94:0.9070991877240686 95:0.004277871109648591 
1.0 6:0.38592632362874313 17:0.6556400353314051 28:0.5591714439113944 49:8.659658116697553E-4 60:0.38592632362874313 71:0.5123226935000607 77:0.598209182701467 78:0.6556227160151717 79:0.5591714439113944 80:8.659658116697553E-4 81:0.38592632362874313 82:0.598209182701467 83:0.13600859038085175 84:0.27184398759936956 85:0.2852491383640174 86:0.2781135800758586 87:0.2852491383640174 88:0.13600859038085175 89:0.550390550581063 90:0.2973207017786938 92:0.605535253468193 93:0.6293666326053448 95:0.004277871109648591 
1.0 6:0.2959005178475554 17:8.659658116697553E-4 28:0.9247129323334314 34:0.4109700549022325 35:0.5591714439113944 49:0.6311851608098512 60:0.7065588250575867 71:0.812916746046866 77:0.605535253468193 78:0.4109700549022325 79:0.5591714439113944 80:0.9227038916503576 81:0.7065588250575867 82:0.812916746046866 83:0.13600859038085175 84:0.27184398759936956 85:0.2852491383640174 86:0.3589774675695804 87:0.18017284677600928 88:0.2852491383640174 89:0.550390550581063 90:0.1504009421708031 92:0.605535253468193 93:0.9070991877240686 95:0.0017838895720396959 
1.0 49:0.9944231801728468 60:0.2334817021423994 71:0.9344983460052997 80:0.9944231801728468 81:0.2334817021423994 82:0.9227038916503576 86:0.1033097213322018 87:0.307850846048598 88:0.3589774675695804 90:0.36114238209875477 93:0.4208074265228009 95:0.0017838895720396959 
1.0 1:0.6017076845806127 2:0.6125322572264847 6:0.07864701501584717 17:8.659658116697553E-4 28:0.7376816363289977 49:0.0013335873499714232 77:0.07864701501584717 78:8.659658116697553E-4 79:0.7376816363289977 80:0.0013335873499714232 83:0.307850846048598 84:0.2781135800758586 85:0.2852491383640174 86:0.2781135800758586 89:0.7360363012868252 90:0.13929926046519683 92:0.38443686243267117 93:0.7339926219712846 95:0.0017838895720396959 
1.0 6:0.8160861809175773 7:0.5933251355236495 17:0.6125322572264847 28:0.605535253468193 34:4.156635896014825E-4 39:4.156635896014825E-4 49:0.6266474999567017 60:0.6301113632033807 71:8.659658116697553E-4 77:0.6125322572264847 78:0.605535253468193 79:4.156635896014825E-4 80:4.156635896014825E-4 81:0.6266474999567017 82:0.42210637524030553 83:0.2852491383640174 84:0.13600859038085175 85:0.2781135800758586 86:0.2781135800758586 87:0.2852491383640174 88:0.13600859038085175 90:0.2871889017821576 93:0.7884272328928454 95:0.0017838895720396959 
1.0 1:0.01659190495159251 6:0.4582864268518679 7:8.659658116697553E-4 17:0.7505672076066436 28:0.5706714698903688 49:0.0013335873499714232 77:8.659658116697553E-4 78:0.7505672076066436 79:0.5706714698903688 80:0.0013335873499714232 83:0.2781135800758586 84:0.18017284677600928 85:0.2852491383640174 86:0.2781135800758586 89:0.550390550581063 90:0.26171218760283343 92:0.550390550581063 93:0.7741734356327612 95:0.004277871109648591 
