svm_type c_svc
kernel_type linear
nr_class 2
total_sv 11
rho 0.33842600667706807
label -1 6
probA -0.10408700968954146
probB -0.6194793780444723
nr_sv 6 5
SV
0.7523075759277617 1:0.8326710816777042 2:0.2894039735099338 3:0.002869757174392936 4:0.009050772626931568 5:0.8743929359823399 6:0.0030905077262693157 7:0.8326710816777042 8:0.2894039735099338 9:0.002869757174392936 10:0.009050772626931568 11:0.8743929359823399 12:0.0030905077262693157 13:0.14503311258278145 14:0.19249448123620308 15:0.14503311258278145 16:0.14503311258278145 17:0.1620309050772627 18:0.14503311258278145 20:0.025165562913907286 23:0.0015452538631346578 25:0.009271523178807948 
1.0 1:0.5313465783664459 2:0.8130242825607064 3:0.5225165562913907 4:0.004415011037527594 7:0.9834437086092715 8:0.8130242825607064 9:0.5225165562913907 10:0.004415011037527594 13:0.19249448123620308 14:0.13752759381898455 15:0.15275938189845475 16:0.14503311258278145 20:0.08344370860927153 23:0.5364238410596026 25:0.009271523178807948 
0.4694963514657531 1:0.04370860927152318 2:0.1545253863134658 3:0.0037527593818984547 7:0.04370860927152318 8:0.7163355408388521 9:0.0037527593818984547 13:0.14503311258278145 14:0.13752759381898455 15:0.14503311258278145 20:0.1044150110375276 23:0.33642384105960266 25:0.009271523178807948 26:0.45454545454545453 
0.5935650775352159 1:0.3426048565121413 2:0.6432671081677704 3:0.4099337748344371 4:0.6256070640176601 5:0.12207505518763796 6:0.4203090507726269 7:0.3426048565121413 8:0.643046357615894 9:0.4099337748344371 10:0.6256070640176601 11:0.12207505518763796 12:0.4203090507726269 13:0.060927152317880796 14:0.08543046357615894 15:0.13752759381898455 16:0.15275938189845475 17:0.13752759381898455 18:0.13752759381898455 19:0.40927152317880794 20:0.15298013245033112 21:0.617439293598234 22:0.3902869757174393 23:0.6593818984547462 24:0.3955849889624724 25:0.009271523178807948 
1.0 4:0.0024282560706401766 5:0.04370860927152318 6:0.1545253863134658 10:0.0024282560706401766 11:0.04370860927152318 12:0.7163355408388521 16:0.14503311258278145 17:0.14503311258278145 18:0.13752759381898455 20:0.10132450331125828 23:0.7125827814569536 25:0.009271523178807948 26:0.9090909090909091 
1.0 2:0.09911699779249449 3:0.8838852097130243 4:0.0037527593818984547 5:0.158719646799117 6:0.38675496688741723 8:0.48984547461368655 9:0.8838852097130243 10:0.0037527593818984547 11:0.158719646799117 12:0.38675496688741723 14:0.03399558498896247 15:0.03399558498896247 16:0.14503311258278145 17:0.1620309050772627 18:0.054304635761589407 19:0.8834437086092716 20:0.1675496688741722 22:0.3847682119205298 23:0.38675496688741723 25:0.009271523178807948 
-1.0 1:0.21479028697571745 2:0.123841059602649 3:0.38675496688741723 7:0.21479028697571745 8:0.123841059602649 9:0.38675496688741723 13:0.15275938189845475 14:0.1620309050772627 15:0.054304635761589407 20:0.05894039735099338 23:0.7852097130242826 25:0.009271523178807948 
-1.0 1:0.4947019867549669 2:0.123841059602649 3:0.0037527593818984547 4:0.38675496688741723 5:0.059602649006622516 6:0.0847682119205298 7:0.4947019867549669 8:0.123841059602649 9:0.0037527593818984547 10:0.38675496688741723 11:0.059602649006622516 12:0.0847682119205298 13:0.060927152317880796 14:0.14503311258278145 15:0.14503311258278145 16:0.054304635761589407 17:0.14503311258278145 18:0.13752759381898455 20:0.15298013245033112 23:0.2379690949227373 25:0.009271523178807948 
-1.0 1:0.1534216335540839 2:0.16710816777041942 3:0.38675496688741723 4:0.0037527593818984547 5:0.15077262693156732 6:0.004856512141280353 7:0.1534216335540839 8:0.16710816777041942 9:0.38675496688741723 10:0.0037527593818984547 11:0.15077262693156732 12:0.004856512141280353 13:0.14503311258278145 14:0.14503311258278145 15:0.054304635761589407 16:0.14503311258278145 17:0.14503311258278145 18:0.14503311258278145 20:0.05894039735099338 23:0.7852097130242826 25:0.009271523178807948 
-1.0 1:0.3426048565121413 2:0.24547461368653423 3:0.64878587196468 4:0.0037527593818984547 5:0.3911699779249448 6:0.5896247240618101 7:0.3426048565121413 8:0.24547461368653423 9:0.64878587196468 10:0.0037527593818984547 11:0.3911699779249448 12:0.5896247240618101 13:0.060927152317880796 14:0.13752759381898455 15:0.15275938189845475 16:0.14503311258278145 17:0.03399558498896247 18:0.08543046357615894 19:0.6481236203090508 20:0.20463576158940397 22:0.24922737306843268 23:0.3240618101545254 25:0.009271523178807948 
-0.8153690049287307 1:0.3426048565121413 2:0.3176600441501104 3:0.879028697571744 4:0.004415011037527594 7:0.3426048565121413 8:0.3176600441501104 9:0.879028697571744 10:0.004415011037527594 13:0.060927152317880796 14:0.13752759381898455 15:0.15275938189845475 16:0.14503311258278145 19:0.8752759381898455 20:0.1185430463576159 22:0.24437086092715232 23:0.655187637969095 25:0.009271523178807948 
