svm_type c_svc
kernel_type linear
nr_class 2
total_sv 11
rho -1.5350181930483426
label -1 2
probA 2.3732343001825877
probB -2.1493657071221346
nr_sv 7 4
SV
0.6831863691490421 1:0.33995584988962474 2:0.36004415011037527 3:0.8794701986754967 4:0.38675496688741723 5:0.38675496688741723 6:0.29845474613686535 7:0.33995584988962474 8:0.36004415011037527 9:0.8794701986754967 10:0.38675496688741723 11:0.38675496688741723 12:0.29845474613686535 13:0.13752759381898455 14:0.15275938189845475 15:0.15275938189845475 16:0.054304635761589407 17:0.054304635761589407 18:0.08543046357615894 19:0.8752759381898455 20:0.37637969094922735 22:0.23024282560706402 23:0.013024282560706401 25:0.009271523178807948 
1.0 1:0.0037527593818984547 2:0.4083885209713024 3:0.9481236203090507 4:0.004415011037527594 7:0.0037527593818984547 8:0.40860927152317883 9:0.9481236203090507 10:0.004415011037527594 13:0.14503311258278145 14:0.19249448123620308 15:0.13752759381898455 16:0.14503311258278145 19:0.9392935982339956 20:0.023178807947019868 22:0.3902869757174393 23:0.7640176600441501 25:0.009271523178807948 
0.024928686756253822 3:0.10618101545253864 4:0.5313465783664459 5:0.4947019867549669 6:0.6911699779249448 9:0.5225165562913907 10:0.9834437086092715 11:0.4947019867549669 12:0.6911699779249448 15:0.15275938189845475 16:0.19249448123620308 17:0.16114790286975716 18:0.03399558498896247 20:0.6629139072847682 23:0.3902869757174393 25:0.009271523178807948 26:0.0 
0.9700373905526941 1:0.9567328918322295 2:0.3902869757174393 3:0.30022075055187636 4:0.3766004415011038 5:0.6991169977924945 6:0.458719646799117 7:0.9704194260485651 8:0.3902869757174393 9:0.30022075055187636 10:0.3766004415011038 11:0.6991169977924945 12:0.9143487858719647 13:0.19249448123620308 14:0.16114790286975716 15:0.15275938189845475 16:0.060927152317880796 17:0.13752759381898455 18:0.19249448123620308 19:0.2947019867549669 20:0.02075055187637969 21:0.37637969094922735 22:0.38675496688741723 23:0.8737306843267109 24:0.38675496688741723 25:0.009271523178807948 
0.45705509747591444 1:0.10242825607064018 2:0.38675496688741723 3:0.3426048565121413 4:0.005077262693156733 5:0.005077262693156733 7:0.10242825607064018 8:0.38675496688741723 9:0.3426048565121413 10:0.004856512141280353 11:0.004415011037527594 13:0.14503311258278145 14:0.054304635761589407 15:0.060927152317880796 16:0.14503311258278145 17:0.14503311258278145 20:0.15717439293598234 21:0.004635761589403974 23:0.3426048565121413 24:0.004635761589403974 25:0.009271523178807948 
0.4547569544358137 1:0.4947019867549669 2:0.123841059602649 3:0.0037527593818984547 4:0.38675496688741723 5:0.059602649006622516 6:0.0847682119205298 7:0.4947019867549669 8:0.123841059602649 9:0.0037527593818984547 10:0.38675496688741723 11:0.059602649006622516 12:0.0847682119205298 13:0.060927152317880796 14:0.14503311258278145 15:0.14503311258278145 16:0.054304635761589407 17:0.14503311258278145 18:0.13752759381898455 20:0.15298013245033112 23:0.2379690949227373 25:0.009271523178807948 
0.4100355016302819 3:0.05143487858719647 4:0.9834437086092715 5:0.3426048565121413 6:0.3207505518763797 9:0.29602649006622517 10:0.9834437086092715 11:0.3426048565121413 12:0.3200883002207506 15:0.15275938189845475 16:0.19249448123620308 17:0.060927152317880796 18:0.13752759381898455 19:0.05121412803532009 20:0.48830022075055185 21:0.9812362030905077 22:0.5205298013245033 23:0.3902869757174393 24:0.536644591611479 25:0.009271523178807948 
-1.0 1:0.3498896247240618 2:0.7788079470198676 3:0.5225165562913907 4:0.002869757174392936 5:0.48984547461368655 6:0.5876379690949227 7:0.3498896247240618 8:0.7788079470198676 9:0.5225165562913907 10:0.002869757174392936 11:0.48984547461368655 12:0.5876379690949227 13:0.16114790286975716 14:0.14503311258278145 15:0.15275938189845475 16:0.14503311258278145 17:0.03399558498896247 18:0.03399558498896247 20:0.48830022075055185 23:0.666887417218543 25:0.009271523178807948 
-1.0 1:0.5097130242825607 2:0.002869757174392936 3:0.9792494481236204 4:0.5313465783664459 5:0.47483443708609274 6:0.0030905077262693157 7:0.5077262693156733 8:0.002869757174392936 9:0.9792494481236204 10:0.9834437086092715 11:0.47483443708609274 12:0.0030905077262693157 13:0.13752759381898455 14:0.14503311258278145 15:0.03399558498896247 16:0.19249448123620308 17:0.08543046357615894 18:0.14503311258278145 19:0.9766004415011037 20:0.12847682119205298 22:0.4141280353200883 23:0.6039735099337749 25:0.009271523178807948 
-1.0 1:0.8141280353200883 2:0.38675496688741723 3:0.3766004415011038 4:0.6496688741721854 5:0.004415011037527594 7:0.8141280353200883 8:0.38675496688741723 9:0.3766004415011038 10:0.6496688741721854 11:0.004415011037527594 13:0.13752759381898455 14:0.054304635761589407 15:0.060927152317880796 16:0.15275938189845475 17:0.14503311258278145 19:0.37637969094922735 20:0.12847682119205298 21:0.6481236203090508 22:0.38675496688741723 23:0.3684326710816777 24:0.5205298013245033 25:0.009271523178807948 
-1.0 2:0.34922737306843266 3:0.29602649006622517 4:0.0037527593818984547 5:0.1534216335540839 6:0.16710816777041942 8:0.349448123620309 9:0.29602649006622517 10:0.0037527593818984547 11:0.1534216335540839 12:0.16710816777041942 14:0.19249448123620308 15:0.15275938189845475 16:0.14503311258278145 17:0.14503311258278145 18:0.14503311258278145 19:0.2947019867549669 20:0.48830022075055185 22:0.5205298013245033 23:0.7474613686534216 25:0.009271523178807948 
