svm_type c_svc
kernel_type linear
nr_class 2
total_sv 39
rho -1.1596990869761366
label -1 4
probA 0.022496650144315344
probB -0.706106734242346
nr_sv 21 18
SV
1.0 1:0.49567286888792733 2:0.3476849848550411 3:0.5607961921246214 4:0.667676330592817 5:0.47338814366075294 6:0.9766334919948074 7:0.49567286888792733 8:0.3476849848550411 9:0.5607961921246214 10:0.667676330592817 11:0.47338814366075294 12:0.9766334919948074 13:0.20315880571181308 14:0.07053223712678494 15:0.15382951103418432 16:0.04521852012115967 17:0.16140199048031156 18:0.17070532237126784 19:0.5605798355690177 20:0.021419299004759845 21:0.6672436174816097 22:0.3773258329727391 23:0.39636520986585894 24:0.4048031155344007 25:0.009086975335352661 
0.10711010215950291 2:0.21376027693639119 3:0.3855473820856772 4:0.39636520986585894 5:0.3855473820856772 6:0.13781912591951537 8:0.9541324102120294 9:0.3855473820856772 10:0.39636520986585894 11:0.3855473820856772 12:0.13781912591951537 14:0.04521852012115967 15:0.07053223712678494 16:0.06447425356988316 17:0.07053223712678494 18:0.17157074859368238 19:0.38533102553007353 20:0.18238857637386413 22:0.39636520986585894 23:0.6819558632626569 25:0.009086975335352661 
1.0 1:0.3476849848550411 2:0.2542189528342709 3:0.6568585028126352 4:0.0036780614452617912 5:0.4006923409779316 6:0.597144093466032 7:0.3476849848550411 8:0.2542189528342709 9:0.6568585028126352 10:0.0036780614452617912 11:0.4006923409779316 12:0.597144093466032 13:0.07053223712678494 14:0.14690610125486803 15:0.16140199048031156 16:0.15382951103418432 17:0.04521852012115967 18:0.09260060579835569 19:0.6559930765902207 20:0.21440934660320207 22:0.25789701427953265 23:0.32994374729554304 25:0.009086975335352661 
0.7749641990332188 1:0.5010817827780182 2:0.3297273907399394 3:0.8805711813067936 4:0.9833405452185201 5:0.4519688446559931 6:0.6919082648204241 7:0.5010817827780182 8:0.3297273907399394 9:0.8805711813067936 10:0.9833405452185201 11:0.4519688446559931 12:0.6919082648204241 13:0.07053223712678494 14:0.14690610125486803 15:0.16140199048031156 16:0.20315880571181308 17:0.04521852012115967 18:0.15382951103418432 19:0.8768931198615318 20:0.13479013414106447 21:0.9811769796624837 22:0.2531371700562527 23:0.5268282128948507 24:0.5447858070099524 25:0.01125054089138901 
1.0 1:0.0025962786672436176 2:0.6321938554738209 3:0.3855473820856772 4:0.516010385114669 5:0.6088273474686283 6:0.5309389874513197 7:0.0025962786672436176 8:0.6321938554738209 9:0.3855473820856772 10:0.516010385114669 11:0.6088273474686283 12:0.5309389874513197 13:0.15382951103418432 14:0.16140199048031156 15:0.07053223712678494 16:0.14690610125486803 17:0.14690610125486803 18:0.17070532237126784 19:0.38533102553007353 20:0.19969710082215492 21:0.5080051925573345 22:0.39636520986585894 23:0.5389441800086543 24:0.3939852877542189 25:0.009086975335352661 
1.0 1:0.5540891389009087 2:0.6490696668109044 3:0.0028126352228472523 4:0.003028991778450887 5:0.39636520986585894 6:0.2462137602769364 7:0.5540891389009087 8:0.6490696668109044 9:0.0028126352228472523 10:0.003028991778450887 11:0.39636520986585894 12:0.2462137602769364 13:0.17157074859368238 14:0.17157074859368238 15:0.15382951103418432 16:0.15382951103418432 17:0.06447425356988316 18:0.17157074859368238 20:0.7189528342708784 23:0.7743401125054089 25:0.009086975335352661 
0.6992356392001108 1:0.36888792730419734 2:0.23647771527477282 3:0.39636520986585894 7:0.36888792730419734 8:0.23647771527477282 9:0.39636520986585894 13:0.16140199048031156 14:0.17157074859368238 15:0.06447425356988316 20:0.6445261791432281 23:0.38511466897446994 25:0.009086975335352661 26:0.6666666666666666 
1.0 1:0.8717005625270445 2:0.8727823453050627 3:0.927736910428386 4:0.8351363046300303 5:0.8967979229770662 6:0.699048031155344 7:0.8714842059714409 8:0.8727823453050627 9:0.927736910428386 10:0.8351363046300303 11:0.8967979229770662 12:0.699048031155344 13:0.09260060579835569 14:0.14690610125486803 15:0.16140199048031156 16:0.15382951103418432 17:0.20315880571181308 18:0.16140199048031156 19:0.9197317178710515 20:0.4950237992211164 22:0.7085677196019039 23:0.38511466897446994 25:0.009086975335352661 
1.0 1:0.34660320207702294 2:0.2946776287321506 3:0.5432713111207269 4:0.927736910428386 5:0.02120294244915621 6:0.2734746862829944 7:0.34660320207702294 8:0.296192124621376 9:0.5432713111207269 10:0.927736910428386 11:0.043271311120726956 12:0.2728256166161835 13:0.04521852012115967 14:0.20315880571181308 15:0.17070532237126784 16:0.16140199048031156 17:0.15382951103418432 18:0.14690610125486803 20:0.012548680225010819 21:0.9197317178710515 23:0.7687148420597144 24:0.7085677196019039 25:0.009086975335352661 
1.0 1:0.9032886196451753 2:0.5482475118996105 3:0.5776720034617049 4:0.0036780614452617912 5:0.9967546516659455 6:0.3649935093033319 7:0.9017741237559498 8:0.5482475118996105 9:0.5778883600173085 10:0.0036780614452617912 11:0.9967546516659455 12:0.3649935093033319 13:0.09260060579835569 14:0.14690610125486803 15:0.20315880571181308 16:0.15382951103418432 17:0.15382951103418432 18:0.17070532237126784 19:0.5713976633491995 20:0.9991345737775854 22:0.8128515794028559 23:8.654262224145391E-4 25:0.009086975335352661 
0.041446700791616116 1:0.06382518390307226 2:0.23063608827347468 3:0.531371700562527 4:0.004327131112072695 7:0.06382518390307226 8:0.23063608827347468 9:0.531371700562527 10:0.004327131112072695 13:0.17157074859368238 14:0.14690610125486803 15:0.16140199048031156 16:0.15382951103418432 20:0.10103851146689745 23:0.5919515361315448 25:0.009086975335352661 
1.0 1:0.6832540025962787 2:0.4448290783210731 3:0.6793595845954132 4:0.699048031155344 5:0.3589355257464301 6:0.6505841627001299 7:0.6832540025962787 8:0.5904370402423194 9:0.6793595845954132 10:0.699048031155344 11:0.3589355257464301 12:0.6501514495889226 13:0.09260060579835569 14:0.20315880571181308 15:0.06447425356988316 16:0.16140199048031156 17:0.07053223712678494 18:0.14690610125486803 19:0.6791432280398096 20:0.3476849848550411 22:0.260060579835569 23:0.8128515794028559 25:0.009086975335352661 
1.0 1:0.9584595413241022 2:0.3476849848550411 3:0.6306793595845954 4:0.6490696668109044 5:0.0028126352228472523 6:0.7247944612721765 7:0.9584595413241022 8:0.3476849848550411 9:0.6304630030289918 10:0.6490696668109044 11:0.0028126352228472523 12:0.7247944612721765 13:0.20315880571181308 14:0.07053223712678494 15:0.14690610125486803 16:0.17157074859368238 17:0.15382951103418432 18:0.17157074859368238 19:0.6241886629164863 20:0.5484638684552142 21:0.6445261791432281 22:0.39636520986585894 23:0.6748160969277369 24:0.25270445694504545 25:0.009086975335352661 
0.49558431528472574 1:0.6910428385980095 2:0.0036780614452617912 3:0.6791432280398096 4:0.9474253569883168 5:0.39982691475551707 6:0.3041973171787105 7:0.6910428385980095 8:0.0036780614452617912 9:0.6791432280398096 10:0.9608394634357421 11:0.39982691475551707 12:0.3041973171787105 13:0.14690610125486803 14:0.15382951103418432 15:0.06447425356988316 16:0.20315880571181308 17:0.17070532237126784 18:0.04521852012115967 20:0.04110774556469061 21:0.9398528775421895 23:0.8753786239723064 24:0.2596278667243617 25:0.009086975335352661 
0.09180583689285671 1:0.1479878840328862 2:0.6389009086975336 3:0.34660320207702294 4:0.7667676330592818 5:0.8805711813067936 6:0.06382518390307226 7:0.6559930765902207 8:0.6382518390307226 9:0.34660320207702294 10:0.7667676330592818 11:0.8805711813067936 12:0.06382518390307226 13:0.16140199048031156 14:0.09260060579835569 15:0.06447425356988316 16:0.20315880571181308 17:0.16140199048031156 18:0.17157074859368238 19:0.34162700129813933 21:0.766551276503678 22:0.2531371700562527 24:0.39636520986585894 25:0.009086975335352661 
1.0 4:0.21159671138035482 5:0.5776720034617049 6:0.08005192557334487 10:0.21159671138035482 11:0.5776720034617049 12:0.38316745997403723 16:0.15382951103418432 17:0.14690610125486803 18:0.17157074859368238 20:0.011466897446992644 21:0.21138035482475118 23:0.8753786239723064 24:0.08870618779749026 25:0.009086975335352661 
1.0 1:0.21549112938122025 2:0.8225876244050194 3:0.699048031155344 4:0.5696668109043704 5:0.8805711813067936 6:0.2505408913890091 7:0.9625703158805712 8:0.8132842925140632 9:0.699048031155344 10:0.5696668109043704 11:0.8805711813067936 12:0.2505408913890091 13:0.17070532237126784 14:0.20315880571181308 15:0.16140199048031156 16:0.20315880571181308 17:0.16140199048031156 18:0.17070532237126784 20:0.012548680225010819 21:0.5644742535698831 23:0.39636520986585894 24:0.39636520986585894 25:0.009086975335352661 
1.0 3:0.13500649069666812 4:0.8344872349632194 5:0.8344872349632194 6:0.4024231934227607 9:0.6174816096927737 10:0.8342708784076157 11:0.004327131112072695 12:0.4024231934227607 15:0.06447425356988316 16:0.15382951103418432 17:0.15382951103418432 18:0.17070532237126784 19:0.13479013414106447 20:0.014712245781047165 21:0.8321073128515794 22:0.25789701427953265 23:0.7687148420597144 24:0.9720900043271311 25:0.009086975335352661 
0.7173376461888136 1:0.2953266983989615 2:0.9705755084379056 3:0.0028126352228472523 4:0.003028991778450887 5:0.004327131112072695 7:0.296192124621376 8:0.9705755084379056 9:0.0028126352228472523 10:0.003028991778450887 11:0.004327131112072695 13:0.20315880571181308 14:0.20315880571181308 15:0.15382951103418432 16:0.15382951103418432 17:0.15382951103418432 20:0.014712245781047165 23:0.7687148420597144 25:0.009086975335352661 
0.396435290473994 1:0.34660320207702294 2:0.6979662483773258 3:0.6713543920380788 7:0.34660320207702294 8:0.6979662483773258 9:0.6713543920380788 13:0.04521852012115967 14:0.04521852012115967 15:0.04521852012115967 19:0.6704889658156642 20:0.9991345737775854 22:0.6778450887061878 23:6.490696668109044E-4 25:0.009086975335352661 
1.0 1:0.9467762873215059 2:0.34249242752055387 3:0.531371700562527 4:0.01730852444829078 5:0.01730852444829078 6:0.531371700562527 7:0.9608394634357421 8:0.34249242752055387 9:0.531371700562527 10:0.01709216789268715 11:0.004327131112072695 12:0.531371700562527 13:0.20315880571181308 14:0.04521852012115967 15:0.16140199048031156 16:0.15382951103418432 17:0.17157074859368238 18:0.16140199048031156 20:0.6241886629164863 21:0.016443098225876245 23:0.39030722630895714 24:0.6555603634790134 25:0.009086975335352661 
-1.0 1:0.08740804846386846 2:0.9474253569883168 3:0.4381220250973604 4:0.7537862397230636 5:0.9418000865426223 6:0.9495889225443531 7:0.39982691475551707 8:0.947858070099524 9:0.4381220250973604 10:0.7537862397230636 11:0.9418000865426223 12:0.9495889225443531 13:0.17070532237126784 14:0.20315880571181308 15:0.07053223712678494 16:0.14690610125486803 17:0.17070532237126784 18:0.17070532237126784 19:0.4305495456512332 20:0.02444829078321073 21:0.7527044569450454 22:0.39636520986585894 23:0.8753786239723064 24:0.5279099956728689 25:0.009086975335352661 
-1.0 1:0.7271743833838166 2:0.0028126352228472523 3:0.2773691042838598 4:0.003028991778450887 5:0.4006923409779316 6:0.777801817395067 7:0.7271743833838166 8:0.0028126352228472523 9:0.2773691042838598 10:0.003028991778450887 11:0.4006923409779316 12:0.777801817395067 13:0.14690610125486803 14:0.15382951103418432 15:0.14690610125486803 16:0.15382951103418432 17:0.04521852012115967 18:0.09260060579835569 19:0.2717438338381653 20:0.6704889658156642 22:0.531371700562527 23:0.39982691475551707 25:0.009086975335352661 26:0.0 
-0.670016261214162 3:0.11553440069234097 4:0.5400259627866725 5:0.5010817827780182 6:0.6979662483773258 9:0.531371700562527 10:0.9833405452185201 11:0.5010817827780182 12:0.6979662483773258 15:0.16140199048031156 16:0.20315880571181308 17:0.17070532237126784 18:0.04521852012115967 20:0.6704889658156642 23:0.39982691475551707 25:0.009086975335352661 26:0.0 
-1.0 1:0.9571614019904803 2:0.39982691475551707 3:0.3067935958459541 4:0.3855473820856772 5:0.7057550843790567 6:0.4664647338814366 7:0.9705755084379056 8:0.39982691475551707 9:0.3067935958459541 10:0.3855473820856772 11:0.7057550843790567 12:0.9154045867589788 13:0.20315880571181308 14:0.17070532237126784 15:0.16140199048031156 16:0.07053223712678494 17:0.14690610125486803 18:0.20315880571181308 19:0.30138468195586327 20:0.02444829078321073 21:0.38533102553007353 22:0.39636520986585894 23:0.8753786239723064 24:0.39636520986585894 25:0.009086975335352661 
-0.5663839304379829 1:0.0036780614452617912 2:0.9785807009952402 3:0.531371700562527 4:0.6559930765902207 5:0.3476849848550411 6:0.900475984422328 7:0.0036780614452617912 8:0.9785807009952402 9:0.531371700562527 10:0.6559930765902207 11:0.3476849848550411 12:0.900475984422328 13:0.15382951103418432 14:0.09260060579835569 15:0.16140199048031156 16:0.16140199048031156 17:0.07053223712678494 18:0.14690610125486803 20:0.021852012115967115 23:0.01579402855906534 25:0.009086975335352661 
-0.08751953837269384 1:0.06793595845954133 2:0.4675465166594548 3:0.531371700562527 4:0.39636520986585894 5:0.5010817827780182 6:0.9785807009952402 7:0.06793595845954133 8:0.9608394634357421 9:0.531371700562527 10:0.39636520986585894 11:0.5010817827780182 12:0.9785807009952402 13:0.17157074859368238 14:0.20315880571181308 15:0.16140199048031156 16:0.06447425356988316 17:0.07053223712678494 18:0.09260060579835569 20:0.021852012115967115 23:0.012548680225010819 25:0.009086975335352661 
-1.0 1:0.01730852444829078 2:0.01730852444829078 3:0.531371700562527 4:0.038727823453050626 5:0.0036780614452617912 6:0.39636520986585894 7:0.01709216789268715 8:0.004327131112072695 9:0.531371700562527 10:0.038727823453050626 11:0.0036780614452617912 12:0.39636520986585894 13:0.15382951103418432 14:0.17157074859368238 15:0.16140199048031156 16:0.17157074859368238 17:0.15382951103418432 18:0.06447425356988316 20:0.26157507572479444 21:0.03851146689744699 23:0.8128515794028559 24:0.39636520986585894 25:0.009086975335352661 
-1.0 1:0.927736910428386 2:0.016659454781479878 3:0.531371700562527 4:0.004327131112072695 7:0.927736910428386 8:0.04348766767633059 9:0.531371700562527 10:0.004327131112072695 13:0.16140199048031156 14:0.17157074859368238 15:0.16140199048031156 16:0.15382951103418432 20:0.6704889658156642 23:0.39982691475551707 25:0.009086975335352661 26:0.0 
-1.0 1:0.5742102985720468 2:0.5054089138900909 3:0.24707918649935093 4:0.39636520986585894 5:0.5010817827780182 6:0.5400259627866725 7:0.5742102985720468 8:0.5054089138900909 9:0.24707918649935093 10:0.39636520986585894 11:0.5010817827780182 12:0.9833405452185201 13:0.20315880571181308 14:0.04521852012115967 15:0.06447425356988316 16:0.06447425356988316 17:0.17070532237126784 18:0.20315880571181308 20:0.039376893119861534 23:0.25789701427953265 25:0.009086975335352661 
-1.0 1:0.9495889225443531 2:0.9833405452185201 3:0.7241453916053656 4:0.8403288619645175 5:0.39636520986585894 6:0.963868455214193 7:0.9495889225443531 8:0.9833405452185201 9:0.7241453916053656 10:0.8403288619645175 11:0.39636520986585894 12:0.9649502379922111 13:0.17070532237126784 14:0.20315880571181308 15:0.04521852012115967 16:0.04521852012115967 17:0.06447425356988316 18:0.20315880571181308 19:0.7189528342708784 20:0.011466897446992644 21:0.8351363046300303 22:0.2596278667243617 23:0.24556469061012548 24:0.864344439636521 25:0.009086975335352661 
-1.0 1:0.3855473820856772 2:0.7349632193855474 3:0.927736910428386 4:0.004327131112072695 7:0.3855473820856772 8:0.7349632193855474 9:0.927736910428386 10:0.004327131112072695 13:0.07053223712678494 14:0.14690610125486803 15:0.16140199048031156 16:0.15382951103418432 19:0.9197317178710515 20:0.9123755949805279 22:0.7085677196019039 23:0.39636520986585894 25:0.009086975335352661 
-1.0 1:0.438987451319775 2:0.7349632193855474 3:0.927736910428386 4:0.39982691475551707 5:0.49870186066637817 6:0.667676330592817 7:0.42752055387278237 8:0.7349632193855474 9:0.927736910428386 10:0.39982691475551707 11:0.49870186066637817 12:0.667676330592817 13:0.20315880571181308 14:0.14690610125486803 15:0.16140199048031156 16:0.17070532237126784 17:0.04521852012115967 18:0.04521852012115967 19:0.9197317178710515 20:0.9123755949805279 22:0.7085677196019039 23:0.39636520986585894 25:0.009086975335352661 
-1.0 1:0.7234963219385547 2:0.9474253569883168 3:0.531371700562527 4:0.4822587624405019 5:0.004327131112072695 7:0.7234963219385547 8:0.9608394634357421 9:0.531371700562527 10:0.4822587624405019 11:0.004327131112072695 13:0.14690610125486803 14:0.20315880571181308 15:0.16140199048031156 16:0.09260060579835569 17:0.15382951103418432 20:0.4950237992211164 21:0.48052790999567285 23:0.6627001298139333 24:0.5400259627866725 25:0.009086975335352661 
-1.0 1:0.5121159671138036 2:0.0036780614452617912 3:0.531371700562527 4:0.8853310255300736 5:0.48701860666378194 6:0.004327131112072695 7:0.5093033318909563 8:0.0036780614452617912 9:0.531371700562527 10:0.8853310255300736 11:0.4868022501081783 12:0.004327131112072695 13:0.20315880571181308 14:0.15382951103418432 15:0.16140199048031156 16:0.04521852012115967 17:0.09260060579835569 18:0.15382951103418432 20:0.4950237992211164 21:0.8848983124188663 23:0.6627001298139333 24:0.3939852877542189 25:0.009086975335352661 
-1.0 1:0.212678494158373 2:0.49567286888792733 3:0.5951968844655993 4:0.4532669839896149 5:0.8805711813067936 6:0.3476849848550411 7:0.9495889225443531 8:0.49567286888792733 9:0.5951968844655993 10:0.4515361315447858 11:0.8805711813067936 12:0.3476849848550411 13:0.17070532237126784 14:0.20315880571181308 15:0.04521852012115967 16:0.20315880571181308 17:0.16140199048031156 18:0.07053223712678494 19:0.5921678926871484 20:0.021419299004759845 21:0.4305495456512332 22:0.39982691475551707 23:0.39636520986585894 24:0.39636520986585894 25:0.009086975335352661 
-1.0 3:0.11553440069234097 4:0.828212894850714 5:0.3476849848550411 6:0.8385980095196884 9:0.531371700562527 10:0.8277801817395067 11:0.3476849848550411 12:0.8385980095196884 15:0.16140199048031156 16:0.20315880571181308 17:0.07053223712678494 18:0.15382951103418432 20:0.26157507572479444 21:0.8128515794028559 23:0.87559498052791 24:0.3476849848550411 25:0.009086975335352661 
-1.0 1:0.21549112938122025 2:0.9467762873215059 3:0.531371700562527 4:0.5054089138900909 5:0.39636520986585894 6:0.34660320207702294 7:0.9625703158805712 8:0.9608394634357421 9:0.531371700562527 10:0.5054089138900909 11:0.39636520986585894 12:0.34660320207702294 13:0.17070532237126784 14:0.20315880571181308 15:0.16140199048031156 16:0.04521852012115967 17:0.06447425356988316 18:0.04521852012115967 20:0.6704889658156642 21:0.50475984422328 23:0.39982691475551707 24:0.39982691475551707 25:0.009086975335352661 26:0.0 
-1.0 3:0.08481176979662484 4:0.5054089138900909 5:0.46776287321505844 6:0.46776287321505844 9:0.3920380787537862 10:0.5054089138900909 11:0.9608394634357421 12:0.004327131112072695 15:0.14690610125486803 16:0.04521852012115967 17:0.20315880571181308 18:0.15382951103418432 19:0.0839463435742103 20:0.26157507572479444 21:0.50475984422328 22:0.6627001298139333 23:0.87559498052791 24:0.39982691475551707 25:0.009086975335352661 
