svm_type c_svc
kernel_type linear
nr_class 2
total_sv 41
rho -1.802561175115867
label -1 4
probA 0.11915706972433424
probB -0.7693690875453056
nr_sv 23 18
SV
1.0 1:0.488962472406181 2:0.3426048565121413 3:0.5525386313465783 4:0.6600441501103753 5:0.46578366445916114 6:0.9766004415011037 7:0.488962472406181 8:0.3426048565121413 9:0.5525386313465783 10:0.6600441501103753 11:0.46578366445916114 12:0.9766004415011037 13:0.19249448123620308 14:0.060927152317880796 15:0.14503311258278145 16:0.03399558498896247 17:0.15275938189845475 18:0.16114790286975716 19:0.552317880794702 20:0.017660044150110375 21:0.6596026490066225 22:0.3684326710816777 23:0.38675496688741723 24:0.3955849889624724 25:0.009271523178807948 
0.4435598611782616 1:0.38675496688741723 2:0.9267108167770419 3:0.9894039735099338 4:0.8105960264900662 5:0.5350993377483444 6:0.5225165562913907 7:0.38675496688741723 8:0.9267108167770419 9:0.9894039735099338 10:0.8108167770419427 11:0.5350993377483444 12:0.5225165562913907 13:0.054304635761589407 14:0.15275938189845475 15:0.13752759381898455 16:0.19249448123620308 17:0.16114790286975716 18:0.15275938189845475 19:0.9852097130242825 20:0.026710816777041943 21:0.8103752759381898 22:0.6748344370860927 23:0.7640176600441501 24:0.8295805739514349 25:0.009271523178807948 
0.6221743683999444 2:0.20375275938189846 3:0.3766004415011038 4:0.38675496688741723 5:0.3766004415011038 6:0.12847682119205298 8:0.9536423841059603 9:0.3766004415011038 10:0.38675496688741723 11:0.3766004415011038 12:0.12847682119205298 14:0.03399558498896247 15:0.060927152317880796 16:0.054304635761589407 17:0.060927152317880796 18:0.14503311258278145 19:0.37637969094922735 20:0.17306843267108168 22:0.38675496688741723 23:0.6748344370860927 25:0.009271523178807948 
1.0 1:0.3426048565121413 2:0.24547461368653423 3:0.64878587196468 4:0.0037527593818984547 5:0.3911699779249448 6:0.5896247240618101 7:0.3426048565121413 8:0.24547461368653423 9:0.64878587196468 10:0.0037527593818984547 11:0.3911699779249448 12:0.5896247240618101 13:0.060927152317880796 14:0.13752759381898455 15:0.15275938189845475 16:0.14503311258278145 17:0.03399558498896247 18:0.08543046357615894 19:0.6481236203090508 20:0.20463576158940397 22:0.24922737306843268 23:0.3240618101545254 25:0.009271523178807948 
0.24377458771425037 1:0.4947019867549669 2:0.32384105960264903 3:0.879028697571744 4:0.9834437086092715 5:0.44392935982339954 6:0.6849889624724061 7:0.4947019867549669 8:0.32384105960264903 9:0.879028697571744 10:0.9834437086092715 11:0.44392935982339954 12:0.6849889624724061 13:0.060927152317880796 14:0.13752759381898455 15:0.15275938189845475 16:0.19249448123620308 17:0.03399558498896247 18:0.14503311258278145 19:0.8752759381898455 20:0.12582781456953643 21:0.9812362030905077 22:0.24437086092715232 23:0.5176600441501104 24:0.536644591611479 25:0.011479028697571744 
0.8198473886807282 1:0.9516556291390729 2:0.43002207505518764 3:0.64878587196468 4:0.38675496688741723 5:0.4814569536423841 6:0.3766004415011038 7:0.9516556291390729 8:0.41611479028697573 9:0.64878587196468 10:0.38675496688741723 11:0.488962472406181 12:0.3766004415011038 13:0.03399558498896247 14:0.19249448123620308 15:0.15275938189845475 16:0.054304635761589407 17:0.19249448123620308 18:0.060927152317880796 19:0.6481236203090508 20:0.18785871964679912 22:0.24922737306843268 23:0.3902869757174393 25:0.009271523178807948 26:0.5454545454545454 
1.0 1:0.0026490066225165563 2:0.6256070640176601 3:0.3766004415011038 4:0.5077262693156733 5:0.6015452538631346 6:0.522075055187638 7:0.0026490066225165563 8:0.6256070640176601 9:0.3766004415011038 10:0.5077262693156733 11:0.6015452538631346 12:0.522075055187638 13:0.14503311258278145 14:0.15275938189845475 15:0.060927152317880796 16:0.13752759381898455 17:0.13752759381898455 18:0.16114790286975716 19:0.37637969094922735 20:0.18896247240618103 21:0.49933774834437084 22:0.38675496688741723 23:0.530242825607064 24:0.3847682119205298 25:0.009271523178807948 
0.8684980583661048 2:0.11456953642384106 3:0.5077262693156733 4:0.0037527593818984547 5:0.10485651214128035 6:0.07527593818984547 8:0.5584988962472406 9:0.5077262693156733 10:0.0037527593818984547 11:0.10485651214128035 12:0.07527593818984547 14:0.13752759381898455 15:0.13752759381898455 16:0.14503311258278145 17:0.14503311258278145 18:0.1620309050772627 19:0.49933774834437084 20:0.1847682119205298 22:0.3847682119205298 23:0.8618101545253863 25:0.009271523178807948 
1.0 1:0.5315673289183223 2:0.39514348785871967 3:0.002869757174392936 4:0.0030905077262693157 5:0.38675496688741723 6:0.2370860927152318 7:0.5315673289183223 8:0.39514348785871967 9:0.002869757174392936 10:0.0030905077262693157 11:0.38675496688741723 12:0.2370860927152318 13:0.14503311258278145 14:0.14503311258278145 15:0.14503311258278145 16:0.14503311258278145 17:0.054304635761589407 18:0.1620309050772627 20:0.7125827814569536 23:0.7701986754966887 25:0.009271523178807948 
0.5348104897969383 1:0.36004415011037527 2:0.22737306843267108 3:0.38675496688741723 7:0.36004415011037527 8:0.22737306843267108 9:0.38675496688741723 13:0.15275938189845475 14:0.1620309050772627 15:0.054304635761589407 20:0.6377483443708609 23:0.376158940397351 25:0.009271523178807948 26:0.09090909090909091 
0.9350550232196325 1:0.6841059602649007 2:0.0037527593818984547 3:0.6719646799116997 4:0.9470198675496688 5:0.3902869757174393 6:0.2975717439293598 7:0.6841059602649007 8:0.0037527593818984547 9:0.6719646799116997 10:0.960485651214128 11:0.3902869757174393 12:0.2975717439293598 13:0.13752759381898455 14:0.14503311258278145 15:0.054304635761589407 16:0.19249448123620308 17:0.16114790286975716 18:0.03399558498896247 20:0.0315673289183223 21:0.9392935982339956 23:0.8737306843267109 24:0.25121412803532006 25:0.009271523178807948 
0.017430329469119352 4:0.20154525386313465 5:0.5697571743929359 6:0.07130242825607064 10:0.20154525386313465 11:0.5697571743929359 12:0.3741721854304636 16:0.14503311258278145 17:0.13752759381898455 18:0.13752759381898455 20:0.011699779249448124 21:0.20132450331125828 23:0.8737306843267109 24:0.08079470198675497 25:0.009271523178807948 
1.0 1:0.20573951434878587 2:0.8198675496688742 3:0.6922737306843267 4:0.5613686534216336 5:0.879028697571744 6:0.24172185430463577 7:0.9622516556291391 8:0.8108167770419427 9:0.6922737306843267 10:0.5613686534216336 11:0.879028697571744 12:0.24172185430463577 13:0.16114790286975716 14:0.19249448123620308 15:0.15275938189845475 16:0.19249448123620308 17:0.15275938189845475 18:0.16114790286975716 20:0.012362030905077263 21:0.5562913907284768 23:0.38675496688741723 24:0.38675496688741723 25:0.009271523178807948 
0.23701942562846595 1:0.28852097130242826 2:0.9704194260485651 3:0.002869757174392936 4:0.0030905077262693157 5:0.004415011037527594 7:0.2894039735099338 8:0.9704194260485651 9:0.002869757174392936 10:0.0030905077262693157 11:0.004415011037527594 13:0.19249448123620308 14:0.19249448123620308 15:0.14503311258278145 16:0.14503311258278145 17:0.14503311258278145 20:0.013686534216335542 23:0.7640176600441501 25:0.009271523178807948 
0.19798405543318978 2:0.10596026490066225 3:0.6401766004415012 4:0.9267108167770419 5:0.011479028697571744 6:0.6503311258278146 8:0.522075055187638 9:0.6408388520971302 10:0.9267108167770419 11:0.03377483443708609 12:0.6503311258278146 14:0.16114790286975716 15:0.19249448123620308 16:0.15275938189845475 17:0.14503311258278145 18:0.13752759381898455 19:0.6377483443708609 20:0.013024282560706401 21:0.9187637969094923 22:0.8103752759381898 23:0.7640176600441501 24:0.7019867549668874 25:0.009271523178807948 
1.0 1:0.2423841059602649 2:0.5350993377483444 3:0.498233995584989 4:0.7200883002207505 5:0.33995584988962474 6:0.9905077262693157 7:0.2423841059602649 8:0.5350993377483444 9:0.498233995584989 10:0.7200883002207505 11:0.33995584988962474 12:0.993598233995585 13:0.054304635761589407 14:0.16114790286975716 15:0.16114790286975716 16:0.15275938189845475 17:0.13752759381898455 18:0.19249448123620308 19:0.4960264900662252 20:0.9997792494481236 21:0.7189845474613686 22:0.7019867549668874 23:0.01545253863134658 24:0.3902869757174393 25:0.009271523178807948 
0.5100305525987637 1:0.9022075055187638 2:0.5406181015452539 3:0.5697571743929359 4:0.0037527593818984547 5:0.9973509933774835 6:0.35607064017660045 7:0.9006622516556292 8:0.5406181015452539 9:0.5699779249448124 10:0.0037527593818984547 11:0.9973509933774835 12:0.35607064017660045 13:0.08543046357615894 14:0.13752759381898455 15:0.19249448123620308 16:0.14503311258278145 17:0.14503311258278145 18:0.16114790286975716 19:0.5633554083885209 20:0.9997792494481236 22:0.8103752759381898 23:8.830022075055188E-4 25:0.009271523178807948 
1.0 1:0.6309050772626932 2:0.9560706401766005 3:0.6719646799116997 4:0.9509933774834437 5:0.64878587196468 6:0.35607064017660045 7:0.6309050772626932 8:0.9560706401766005 9:0.6719646799116997 10:0.9509933774834437 11:0.64878587196468 12:0.35607064017660045 13:0.060927152317880796 14:0.13752759381898455 15:0.15275938189845475 16:0.03399558498896247 17:0.15275938189845475 18:0.060927152317880796 20:0.9187637969094923 21:0.9492273730684326 23:0.24922737306843268 24:0.3902869757174393 25:0.009271523178807948 
1.0 1:0.9463576158940398 2:0.3373068432671082 3:0.5225165562913907 4:0.015231788079470199 5:0.015231788079470199 6:0.5225165562913907 7:0.960485651214128 8:0.3373068432671082 9:0.5225165562913907 10:0.015011037527593819 11:0.004415011037527594 12:0.5225165562913907 13:0.19249448123620308 14:0.03399558498896247 15:0.15275938189845475 16:0.14503311258278145 17:0.1620309050772627 18:0.15275938189845475 20:0.617439293598234 21:0.014790286975717439 23:0.38145695364238413 24:0.6476821192052981 25:0.009271523178807948 
0.9670699417632519 4:0.5803532008830022 5:0.8838852097130243 6:0.7298013245033113 10:0.5803532008830022 11:0.8838852097130243 12:0.7300220750551877 16:0.03399558498896247 17:0.03399558498896247 18:0.19249448123620308 20:0.01545253863134658 21:0.5772626931567328 23:0.38675496688741723 24:0.6593818984547462 25:0.009271523178807948 
1.0 1:0.3902869757174393 2:0.5225165562913907 3:0.4295805739514349 4:0.6909492273730684 5:0.5198675496688742 6:0.695364238410596 7:0.3902869757174393 8:0.5225165562913907 9:0.4295805739514349 10:0.6909492273730684 11:0.5198675496688742 12:0.6947019867549669 13:0.16114790286975716 14:0.03399558498896247 15:0.060927152317880796 16:0.03399558498896247 17:0.03399558498896247 18:0.19249448123620308 19:0.42185430463576157 20:0.9114790286975717 21:0.6900662251655629 22:0.38675496688741723 23:0.24922737306843268 24:0.5317880794701987 25:0.009271523178807948 
1.0 1:0.016556291390728478 2:0.5225165562913907 3:0.3426048565121413 4:0.3766004415011038 5:0.2379690949227373 6:0.5772626931567328 7:0.016556291390728478 8:0.5225165562913907 9:0.3426048565121413 10:0.3766004415011038 11:0.2379690949227373 12:0.5772626931567328 13:0.14503311258278145 14:0.15275938189845475 15:0.060927152317880796 16:0.060927152317880796 17:0.060927152317880796 18:0.13752759381898455 20:0.029359823399558498 21:0.37637969094922735 23:0.38675496688741723 24:0.38675496688741723 25:0.009271523178807948 
1.0 1:0.09315673289183223 2:0.4377483443708609 3:0.21479028697571745 4:0.38675496688741723 5:0.059602649006622516 6:0.0847682119205298 7:0.47130242825607066 8:0.5944812362030905 9:0.21479028697571745 10:0.38675496688741723 11:0.059602649006622516 12:0.0847682119205298 13:0.13752759381898455 14:0.19249448123620308 15:0.15275938189845475 16:0.054304635761589407 17:0.14503311258278145 18:0.13752759381898455 19:0.21456953642384105 20:0.12317880794701987 22:0.24437086092715232 23:0.7474613686534216 25:0.009271523178807948 
-1.0 1:0.07924944812362031 2:0.9470198675496688 3:0.4295805739514349 4:0.7485651214128035 5:0.941280353200883 6:0.9492273730684326 7:0.3902869757174393 8:0.9474613686534217 9:0.4295805739514349 10:0.7485651214128035 11:0.941280353200883 12:0.9492273730684326 13:0.16114790286975716 14:0.19249448123620308 15:0.060927152317880796 16:0.13752759381898455 17:0.16114790286975716 18:0.16114790286975716 19:0.42185430463576157 20:0.02075055187637969 21:0.7474613686534216 22:0.38675496688741723 23:0.8737306843267109 24:0.5187637969094923 25:0.009271523178807948 
-1.0 1:0.720971302428256 2:0.002869757174392936 3:0.2699779249448124 4:0.0030905077262693157 5:0.3911699779249448 6:0.7737306843267108 7:0.720971302428256 8:0.002869757174392936 9:0.2699779249448124 10:0.0030905077262693157 11:0.3911699779249448 12:0.7737306843267108 13:0.13752759381898455 14:0.14503311258278145 15:0.13752759381898455 16:0.14503311258278145 17:0.03399558498896247 18:0.08543046357615894 19:0.26379690949227375 20:0.6629139072847682 22:0.5225165562913907 23:0.3902869757174393 25:0.009271523178807948 26:0.0 
-1.0 3:0.10618101545253864 4:0.5313465783664459 5:0.4947019867549669 6:0.6911699779249448 9:0.5225165562913907 10:0.9834437086092715 11:0.4947019867549669 12:0.6911699779249448 15:0.15275938189845475 16:0.19249448123620308 17:0.16114790286975716 18:0.03399558498896247 20:0.6629139072847682 23:0.3902869757174393 25:0.009271523178807948 26:0.0 
-1.0 1:0.9567328918322295 2:0.3902869757174393 3:0.30022075055187636 4:0.3766004415011038 5:0.6991169977924945 6:0.458719646799117 7:0.9704194260485651 8:0.3902869757174393 9:0.30022075055187636 10:0.3766004415011038 11:0.6991169977924945 12:0.9143487858719647 13:0.19249448123620308 14:0.16114790286975716 15:0.15275938189845475 16:0.060927152317880796 17:0.13752759381898455 18:0.19249448123620308 19:0.2947019867549669 20:0.02075055187637969 21:0.37637969094922735 22:0.38675496688741723 23:0.8737306843267109 24:0.38675496688741723 25:0.009271523178807948 
-0.3972540822486515 1:0.0037527593818984547 2:0.9785871964679912 3:0.5225165562913907 4:0.6481236203090508 5:0.3426048565121413 6:0.8993377483443709 7:0.0037527593818984547 8:0.9785871964679912 9:0.5225165562913907 10:0.6481236203090508 11:0.3426048565121413 12:0.8993377483443709 13:0.14503311258278145 14:0.08543046357615894 15:0.15275938189845475 16:0.15275938189845475 17:0.060927152317880796 18:0.13752759381898455 20:0.017880794701986755 23:0.01434878587196468 25:0.009271523178807948 
-1.0 1:0.05805739514348786 2:0.4598233995584989 3:0.5225165562913907 4:0.38675496688741723 5:0.4947019867549669 6:0.9785871964679912 7:0.05805739514348786 8:0.960485651214128 9:0.5225165562913907 10:0.38675496688741723 11:0.4947019867549669 12:0.9785871964679912 13:0.1620309050772627 14:0.19249448123620308 15:0.15275938189845475 16:0.054304635761589407 17:0.060927152317880796 18:0.08543046357615894 20:0.017880794701986755 23:0.012362030905077263 25:0.009271523178807948 
-1.0 1:0.015231788079470199 2:0.015231788079470199 3:0.5225165562913907 4:0.029580573951434878 5:0.0037527593818984547 6:0.38675496688741723 7:0.015011037527593819 8:0.004415011037527594 9:0.5225165562913907 10:0.029580573951434878 11:0.0037527593818984547 12:0.38675496688741723 13:0.14503311258278145 14:0.1620309050772627 15:0.15275938189845475 16:0.1620309050772627 17:0.14503311258278145 18:0.054304635761589407 20:0.2532008830022075 21:0.029359823399558498 23:0.8103752759381898 24:0.38675496688741723 25:0.009271523178807948 
-1.0 1:0.014790286975717439 2:0.34061810154525385 3:0.5225165562913907 4:0.004415011037527594 7:0.03377483443708609 8:0.33995584988962474 9:0.5225165562913907 10:0.004415011037527594 13:0.14503311258278145 14:0.13752759381898455 15:0.15275938189845475 16:0.14503311258278145 20:0.6629139072847682 23:0.3902869757174393 25:0.009271523178807948 26:0.0 
-1.0 1:0.5662251655629139 2:0.4966887417218543 3:0.2379690949227373 4:0.38675496688741723 5:0.4947019867549669 6:0.5313465783664459 7:0.5662251655629139 8:0.4966887417218543 9:0.2379690949227373 10:0.38675496688741723 11:0.4947019867549669 12:0.9834437086092715 13:0.19249448123620308 14:0.03399558498896247 15:0.054304635761589407 16:0.054304635761589407 17:0.16114790286975716 18:0.19249448123620308 20:0.030242825607064018 23:0.24922737306843268 25:0.009271523178807948 
-1.0 1:0.9492273730684326 2:0.9834437086092715 3:0.7181015452538632 4:0.8379690949227373 5:0.38675496688741723 6:0.9635761589403974 7:0.9492273730684326 8:0.9834437086092715 9:0.7181015452538632 10:0.8379690949227373 11:0.38675496688741723 12:0.9646799116997793 13:0.16114790286975716 14:0.19249448123620308 15:0.03399558498896247 16:0.03399558498896247 17:0.054304635761589407 18:0.19249448123620308 19:0.7125827814569536 20:0.011699779249448124 21:0.8326710816777042 22:0.25121412803532006 23:0.23642384105960265 24:0.8624724061810155 25:0.009271523178807948 
-1.0 1:0.3766004415011038 2:0.7289183222958058 3:0.9267108167770419 4:0.004415011037527594 7:0.3766004415011038 8:0.7289183222958058 9:0.9267108167770419 10:0.004415011037527594 13:0.060927152317880796 14:0.13752759381898455 15:0.15275938189845475 16:0.14503311258278145 19:0.9187637969094923 20:0.9114790286975717 22:0.7019867549668874 23:0.38675496688741723 25:0.009271523178807948 
-1.0 1:0.4304635761589404 2:0.7289183222958058 3:0.9267108167770419 4:0.3902869757174393 5:0.4922737306843267 6:0.6600441501103753 7:0.4187637969094923 8:0.7289183222958058 9:0.9267108167770419 10:0.3902869757174393 11:0.4922737306843267 12:0.6600441501103753 13:0.19249448123620308 14:0.13752759381898455 15:0.15275938189845475 16:0.16114790286975716 17:0.03399558498896247 18:0.03399558498896247 19:0.9187637969094923 20:0.9114790286975717 22:0.7019867549668874 23:0.38675496688741723 25:0.009271523178807948 
-1.0 1:0.717439293598234 2:0.9470198675496688 3:0.5225165562913907 4:0.47483443708609274 5:0.004415011037527594 7:0.717439293598234 8:0.960485651214128 9:0.5225165562913907 10:0.47483443708609274 11:0.004415011037527594 13:0.13752759381898455 14:0.19249448123620308 15:0.15275938189845475 16:0.08543046357615894 17:0.14503311258278145 20:0.48830022075055185 21:0.4730684326710817 23:0.6549668874172185 24:0.5313465783664459 25:0.009271523178807948 
-1.0 1:0.503532008830022 2:0.0037527593818984547 3:0.5225165562913907 4:0.8838852097130243 5:0.47991169977924947 6:0.004415011037527594 7:0.5006622516556292 8:0.0037527593818984547 9:0.5225165562913907 10:0.8838852097130243 11:0.47969094922737304 12:0.004415011037527594 13:0.19249448123620308 14:0.14503311258278145 15:0.15275938189845475 16:0.03399558498896247 17:0.08543046357615894 18:0.14503311258278145 20:0.48830022075055185 21:0.8834437086092716 23:0.6549668874172185 24:0.3847682119205298 25:0.009271523178807948 
-1.0 1:0.20264900662251656 2:0.488962472406181 3:0.5876379690949227 4:0.4452538631346578 5:0.879028697571744 6:0.3426048565121413 7:0.9492273730684326 8:0.488962472406181 9:0.5876379690949227 10:0.4434878587196468 11:0.879028697571744 12:0.3426048565121413 13:0.16114790286975716 14:0.19249448123620308 15:0.03399558498896247 16:0.19249448123620308 17:0.15275938189845475 18:0.060927152317880796 19:0.5845474613686534 20:0.017660044150110375 21:0.42185430463576157 22:0.3902869757174393 23:0.38675496688741723 24:0.38675496688741723 25:0.009271523178807948 
-1.0 3:0.10618101545253864 4:0.82560706401766 5:0.3426048565121413 6:0.8362030905077262 9:0.5225165562913907 10:0.8251655629139073 11:0.3426048565121413 12:0.8362030905077262 15:0.15275938189845475 16:0.19249448123620308 17:0.060927152317880796 18:0.14503311258278145 20:0.2532008830022075 21:0.8103752759381898 23:0.8739514348785872 24:0.3426048565121413 25:0.009271523178807948 
-1.0 1:0.20573951434878587 2:0.9463576158940398 3:0.5225165562913907 4:0.4966887417218543 5:0.38675496688741723 6:0.3415011037527594 7:0.9622516556291391 8:0.960485651214128 9:0.5225165562913907 10:0.4966887417218543 11:0.38675496688741723 12:0.3415011037527594 13:0.16114790286975716 14:0.19249448123620308 15:0.15275938189845475 16:0.03399558498896247 17:0.054304635761589407 18:0.03399558498896247 20:0.6629139072847682 21:0.4960264900662252 23:0.3902869757174393 24:0.3902869757174393 25:0.009271523178807948 26:0.0 
-1.0 3:0.07660044150110375 4:0.4966887417218543 5:0.46004415011037525 6:0.46004415011037525 9:0.38322295805739515 10:0.4966887417218543 11:0.960485651214128 12:0.004415011037527594 15:0.13752759381898455 16:0.03399558498896247 17:0.19249448123620308 18:0.14503311258278145 19:0.07571743929359824 20:0.2532008830022075 21:0.4960264900662252 22:0.6549668874172185 23:0.8739514348785872 24:0.3902869757174393 25:0.009271523178807948 
