svm_type c_svc
kernel_type linear
nr_class 2
total_sv 34
rho -1.0190867663192213
label -1 9
probA -1.1386490779088156
probB 0.009442839110042235
nr_sv 19 15
SV
1.0 1:0.3766004415011038 2:0.6503311258278146 3:0.879028697571744 4:0.8326710816777042 5:0.9834437086092715 6:0.004415011037527594 7:0.3766004415011038 8:0.6503311258278146 9:0.879028697571744 10:0.8326710816777042 11:0.9834437086092715 12:0.004415011037527594 13:0.060927152317880796 14:0.13752759381898455 15:0.15275938189845475 16:0.14503311258278145 17:0.19249448123620308 18:0.14503311258278145 19:0.8752759381898455 20:0.027373068432671083 22:0.24437086092715232 23:0.7640176600441501 25:0.009271523178807948 
1.0 3:0.10618101545253864 4:0.82560706401766 5:0.3426048565121413 6:0.8362030905077262 9:0.5225165562913907 10:0.8251655629139073 11:0.3426048565121413 12:0.8362030905077262 15:0.15275938189845475 16:0.19249448123620308 17:0.060927152317880796 18:0.14503311258278145 20:0.2532008830022075 21:0.8103752759381898 23:0.8739514348785872 24:0.3426048565121413 25:0.009271523178807948 
1.0 1:0.5225165562913907 2:0.31567328918322296 3:0.002869757174392936 4:0.0037527593818984547 5:0.18322295805739514 6:0.0037527593818984547 7:0.5225165562913907 8:0.31567328918322296 9:0.002869757174392936 10:0.0037527593818984547 11:0.18322295805739514 12:0.0037527593818984547 13:0.15275938189845475 14:0.13752759381898455 15:0.14503311258278145 16:0.14503311258278145 17:0.1620309050772627 18:0.14503311258278145 20:0.05739514348785872 23:0.6481236203090508 25:0.011479028697571744 26:0.36363636363636365 
1.0 20:0.16578366445916115 23:0.38675496688741723 25:0.009271523178807948 
0.19951803056038714 3:0.1260485651214128 4:0.832008830022075 5:0.832008830022075 6:0.39315673289183223 9:0.6105960264900663 10:0.8317880794701987 11:0.004415011037527594 12:0.39315673289183223 15:0.054304635761589407 16:0.14503311258278145 17:0.14503311258278145 18:0.16114790286975716 19:0.12582781456953643 20:0.013686534216335542 21:0.8295805739514349 22:0.24922737306843268 23:0.7640176600441501 24:0.9719646799116998 25:0.009271523178807948 
0.8190402870074376 1:0.13200883002207506 2:0.032671081677704196 3:0.879028697571744 4:0.004415011037527594 7:0.6313465783664459 8:0.032671081677704196 9:0.879028697571744 10:0.004415011037527594 13:0.13752759381898455 14:0.14503311258278145 15:0.15275938189845475 16:0.14503311258278145 19:0.8752759381898455 20:0.017880794701986755 22:0.24437086092715232 23:0.020309050772626933 25:0.009271523178807948 26:0.6363636363636364 
1.0 4:0.20154525386313465 5:0.5697571743929359 6:0.07130242825607064 10:0.20154525386313465 11:0.5697571743929359 12:0.3741721854304636 16:0.14503311258278145 17:0.13752759381898455 18:0.13752759381898455 20:0.011699779249448124 21:0.20132450331125828 23:0.8737306843267109 24:0.08079470198675497 25:0.009271523178807948 
0.575457636770346 1:0.28852097130242826 2:0.9704194260485651 3:0.002869757174392936 4:0.0030905077262693157 5:0.004415011037527594 7:0.2894039735099338 8:0.9704194260485651 9:0.002869757174392936 10:0.0030905077262693157 11:0.004415011037527594 13:0.19249448123620308 14:0.19249448123620308 15:0.14503311258278145 16:0.14503311258278145 17:0.14503311258278145 20:0.013686534216335542 23:0.7640176600441501 25:0.009271523178807948 
0.037903337523662504 2:0.10596026490066225 3:0.6401766004415012 4:0.9267108167770419 5:0.011479028697571744 6:0.6503311258278146 8:0.522075055187638 9:0.6408388520971302 10:0.9267108167770419 11:0.03377483443708609 12:0.6503311258278146 14:0.16114790286975716 15:0.19249448123620308 16:0.15275938189845475 17:0.14503311258278145 18:0.13752759381898455 19:0.6377483443708609 20:0.013024282560706401 21:0.9187637969094923 22:0.8103752759381898 23:0.7640176600441501 24:0.7019867549668874 25:0.009271523178807948 
1.0 1:0.2423841059602649 2:0.5350993377483444 3:0.498233995584989 4:0.7200883002207505 5:0.33995584988962474 6:0.9905077262693157 7:0.2423841059602649 8:0.5350993377483444 9:0.498233995584989 10:0.7200883002207505 11:0.33995584988962474 12:0.993598233995585 13:0.054304635761589407 14:0.16114790286975716 15:0.16114790286975716 16:0.15275938189845475 17:0.13752759381898455 18:0.19249448123620308 19:0.4960264900662252 20:0.9997792494481236 21:0.7189845474613686 22:0.7019867549668874 23:0.01545253863134658 24:0.3902869757174393 25:0.009271523178807948 
0.624735771633695 1:0.9022075055187638 2:0.5406181015452539 3:0.5697571743929359 4:0.0037527593818984547 5:0.9973509933774835 6:0.35607064017660045 7:0.9006622516556292 8:0.5406181015452539 9:0.5699779249448124 10:0.0037527593818984547 11:0.9973509933774835 12:0.35607064017660045 13:0.08543046357615894 14:0.13752759381898455 15:0.19249448123620308 16:0.14503311258278145 17:0.14503311258278145 18:0.16114790286975716 19:0.5633554083885209 20:0.9997792494481236 22:0.8103752759381898 23:8.830022075055188E-4 25:0.009271523178807948 
1.0 1:0.5225165562913907 2:0.6214128035320088 3:0.015231788079470199 4:0.5225165562913907 5:0.25364238410596024 6:0.029580573951434878 7:0.5225165562913907 8:0.6214128035320088 9:0.015011037527593819 10:0.5225165562913907 11:0.25364238410596024 12:0.029580573951434878 13:0.15275938189845475 14:0.1620309050772627 15:0.14503311258278145 16:0.15275938189845475 17:0.1620309050772627 18:0.1620309050772627 19:0.014790286975717439 20:0.014790286975717439 22:0.6476821192052981 23:0.6476821192052981 25:0.009271523178807948 
0.1692717112502793 1:0.2379690949227373 2:0.4240618101545254 3:0.9267108167770419 4:0.5225165562913907 5:0.6660044150110376 6:0.004415011037527594 7:0.2379690949227373 8:0.3044150110375276 9:0.9267108167770419 10:0.5225165562913907 11:0.6660044150110376 12:0.004415011037527594 13:0.03399558498896247 14:0.19249448123620308 15:0.15275938189845475 16:0.15275938189845475 17:0.1620309050772627 18:0.14503311258278145 19:0.9187637969094923 20:0.014790286975717439 22:0.7019867549668874 23:0.38675496688741723 25:0.009271523178807948 
1.0 4:0.5803532008830022 5:0.8838852097130243 6:0.7298013245033113 10:0.5803532008830022 11:0.8838852097130243 12:0.7300220750551877 16:0.03399558498896247 17:0.03399558498896247 18:0.19249448123620308 20:0.01545253863134658 21:0.5772626931567328 23:0.38675496688741723 24:0.6593818984547462 25:0.009271523178807948 
0.9181149809181611 1:0.3902869757174393 2:0.5225165562913907 3:0.4295805739514349 4:0.6909492273730684 5:0.5198675496688742 6:0.695364238410596 7:0.3902869757174393 8:0.5225165562913907 9:0.4295805739514349 10:0.6909492273730684 11:0.5198675496688742 12:0.6947019867549669 13:0.16114790286975716 14:0.03399558498896247 15:0.060927152317880796 16:0.03399558498896247 17:0.03399558498896247 18:0.19249448123620308 19:0.42185430463576157 20:0.9114790286975717 21:0.6900662251655629 22:0.38675496688741723 23:0.24922737306843268 24:0.5317880794701987 25:0.009271523178807948 
1.0 1:0.016556291390728478 2:0.5225165562913907 3:0.3426048565121413 4:0.3766004415011038 5:0.2379690949227373 6:0.5772626931567328 7:0.016556291390728478 8:0.5225165562913907 9:0.3426048565121413 10:0.3766004415011038 11:0.2379690949227373 12:0.5772626931567328 13:0.14503311258278145 14:0.15275938189845475 15:0.060927152317880796 16:0.060927152317880796 17:0.060927152317880796 18:0.13752759381898455 20:0.029359823399558498 21:0.37637969094922735 23:0.38675496688741723 24:0.38675496688741723 25:0.009271523178807948 
0.2640667797772285 1:0.09315673289183223 2:0.4377483443708609 3:0.21479028697571745 4:0.38675496688741723 5:0.059602649006622516 6:0.0847682119205298 7:0.47130242825607066 8:0.5944812362030905 9:0.21479028697571745 10:0.38675496688741723 11:0.059602649006622516 12:0.0847682119205298 13:0.13752759381898455 14:0.19249448123620308 15:0.15275938189845475 16:0.054304635761589407 17:0.14503311258278145 18:0.13752759381898455 19:0.21456953642384105 20:0.12317880794701987 22:0.24437086092715232 23:0.7474613686534216 25:0.009271523178807948 
1.0 1:0.04701986754966887 2:0.1750551876379691 3:0.0024282560706401766 7:0.04701986754966887 8:0.1750551876379691 9:0.0024282560706401766 13:0.14503311258278145 14:0.14503311258278145 15:0.14503311258278145 20:0.0434878587196468 23:0.763355408388521 25:0.009271523178807948 
0.24197858090307875 1:0.30022075055187636 2:0.601766004415011 3:0.879028697571744 4:0.0037527593818984547 5:0.3726269315673289 6:0.47130242825607066 7:0.30022075055187636 8:0.601766004415011 9:0.879028697571744 10:0.0037527593818984547 11:0.3726269315673289 12:0.47130242825607066 13:0.15275938189845475 14:0.13752759381898455 15:0.15275938189845475 16:0.14503311258278145 17:0.03399558498896247 18:0.13752759381898455 19:0.8752759381898455 20:0.48830022075055185 22:0.24437086092715232 23:0.6748344370860927 25:0.009271523178807948 
-1.0 1:0.38675496688741723 2:0.6911699779249448 3:0.5225165562913907 4:0.38962472406181015 5:0.6105960264900663 6:0.16556291390728478 7:0.38675496688741723 8:0.6911699779249448 9:0.5225165562913907 10:0.38962472406181015 11:0.6105960264900663 12:0.16556291390728478 13:0.054304635761589407 14:0.03399558498896247 15:0.15275938189845475 16:0.03399558498896247 17:0.03399558498896247 18:0.1620309050772627 20:0.20706401766004415 21:0.38675496688741723 23:0.3686534216335541 24:0.9730684326710817 25:0.009271523178807948 
-0.2956670182061412 1:0.20728476821192052 2:0.38962472406181015 3:0.6105960264900663 4:0.048785871964679914 5:0.5313465783664459 6:0.6898454746136865 7:0.20728476821192052 8:0.38962472406181015 9:0.6105960264900663 10:0.048785871964679914 11:0.9834437086092715 12:0.6836644591611479 13:0.1620309050772627 14:0.03399558498896247 15:0.03399558498896247 16:0.1620309050772627 17:0.19249448123620308 18:0.060927152317880796 19:0.6083885209713025 20:0.16490066225165562 21:0.046799116997792496 22:0.24922737306843268 23:0.7030905077262694 24:0.3845474613686534 25:0.009271523178807948 26:0.8181818181818182 
-1.0 1:0.5439293598233995 2:0.38962472406181015 3:0.05143487858719647 4:0.5726269315673289 5:0.5350993377483444 6:0.3748344370860927 7:0.543046357615894 8:0.38962472406181015 9:0.29602649006622517 10:0.5728476821192053 11:0.5350993377483444 12:0.3748344370860927 13:0.13752759381898455 14:0.03399558498896247 15:0.13752759381898455 16:0.19249448123620308 17:0.16114790286975716 18:0.03399558498896247 19:0.05121412803532009 20:0.16490066225165562 21:0.5708609271523178 22:0.5205298013245033 23:0.7030905077262694 24:0.5362030905077263 25:0.009271523178807948 26:0.8181818181818182 
-1.0 1:0.21479028697571745 2:0.017439293598233995 3:0.9534216335540839 4:0.0037527593818984547 5:0.9264900662251656 6:0.4947019867549669 7:0.21479028697571745 8:0.03377483443708609 9:0.9496688741721855 10:0.0037527593818984547 11:0.9143487858719647 12:0.4947019867549669 13:0.15275938189845475 14:0.14503311258278145 15:0.13752759381898455 16:0.14503311258278145 17:0.19249448123620308 18:0.060927152317880796 19:0.9492273730684326 20:0.8430463576158941 22:0.38675496688741723 23:0.3240618101545254 25:0.009271523178807948 
-1.0 4:0.5313465783664459 5:0.3766004415011038 6:0.48984547461368655 10:0.9834437086092715 11:0.3766004415011038 12:0.48984547461368655 16:0.19249448123620308 17:0.060927152317880796 18:0.08543046357615894 20:0.17858719646799118 23:0.7852097130242826 25:0.009271523178807948 
-1.0 1:0.0026490066225165563 2:0.6256070640176601 3:0.3766004415011038 4:0.5077262693156733 5:0.6015452538631346 6:0.522075055187638 7:0.0026490066225165563 8:0.6256070640176601 9:0.3766004415011038 10:0.5077262693156733 11:0.6015452538631346 12:0.522075055187638 13:0.14503311258278145 14:0.15275938189845475 15:0.060927152317880796 16:0.13752759381898455 17:0.13752759381898455 18:0.16114790286975716 19:0.37637969094922735 20:0.18896247240618103 21:0.49933774834437084 22:0.38675496688741723 23:0.530242825607064 24:0.3847682119205298 25:0.009271523178807948 
-1.0 2:0.11456953642384106 3:0.5077262693156733 4:0.0037527593818984547 5:0.10485651214128035 6:0.07527593818984547 8:0.5584988962472406 9:0.5077262693156733 10:0.0037527593818984547 11:0.10485651214128035 12:0.07527593818984547 14:0.13752759381898455 15:0.13752759381898455 16:0.14503311258278145 17:0.14503311258278145 18:0.1620309050772627 19:0.49933774834437084 20:0.1847682119205298 22:0.3847682119205298 23:0.8618101545253863 25:0.009271523178807948 
-1.0 4:0.024944812362030905 5:0.817439293598234 6:0.5145695364238411 10:0.03377483443708609 11:0.8167770419426048 12:0.5145695364238411 16:0.14503311258278145 17:0.13752759381898455 18:0.14503311258278145 20:0.8452538631346579 23:0.3847682119205298 25:0.009271523178807948 
-1.0 1:0.5313465783664459 2:0.879028697571744 3:0.3328918322295806 4:0.004415011037527594 7:0.9834437086092715 8:0.879028697571744 9:0.3328918322295806 10:0.004415011037527594 13:0.19249448123620308 14:0.15275938189845475 15:0.13752759381898455 16:0.14503311258278145 19:0.3293598233995585 20:0.15298013245033112 22:0.8728476821192053 23:0.2379690949227373 25:0.009271523178807948 
-1.0 1:0.3426048565121413 2:0.6432671081677704 3:0.4099337748344371 4:0.6256070640176601 5:0.12207505518763796 6:0.4203090507726269 7:0.3426048565121413 8:0.643046357615894 9:0.4099337748344371 10:0.6256070640176601 11:0.12207505518763796 12:0.4203090507726269 13:0.060927152317880796 14:0.08543046357615894 15:0.13752759381898455 16:0.15275938189845475 17:0.13752759381898455 18:0.13752759381898455 19:0.40927152317880794 20:0.15298013245033112 21:0.617439293598234 22:0.3902869757174393 23:0.6593818984547462 24:0.3955849889624724 25:0.009271523178807948 
-1.0 4:0.9993377483443708 5:0.3748344370860927 6:0.3426048565121413 10:0.9993377483443708 11:0.3748344370860927 12:0.3426048565121413 16:0.14503311258278145 17:0.13752759381898455 18:0.060927152317880796 20:0.12582781456953643 23:0.2379690949227373 25:0.009271523178807948 
-1.0 4:0.0037527593818984547 5:0.10485651214128035 10:0.0037527593818984547 11:0.10485651214128035 16:0.14503311258278145 17:0.1620309050772627 20:0.18388520971302427 23:0.763355408388521 25:0.009271523178807948 26:0.9090909090909091 
-1.0 1:0.38675496688741723 2:0.9785871964679912 3:0.3766004415011038 4:0.5077262693156733 5:0.2739514348785872 6:0.35607064017660045 7:0.38675496688741723 8:0.9785871964679912 9:0.3766004415011038 10:0.5077262693156733 11:0.27417218543046357 12:0.35607064017660045 13:0.054304635761589407 14:0.08543046357615894 15:0.060927152317880796 16:0.13752759381898455 17:0.19249448123620308 18:0.16114790286975716 19:0.37637969094922735 20:0.19293598233995585 21:0.49933774834437084 22:0.38675496688741723 23:0.5977924944812362 24:0.3847682119205298 25:0.009271523178807948 
-0.5544200981381344 4:0.0024282560706401766 5:0.04370860927152318 6:0.1545253863134658 10:0.0024282560706401766 11:0.04370860927152318 12:0.7163355408388521 16:0.14503311258278145 17:0.14503311258278145 18:0.13752759381898455 20:0.10132450331125828 23:0.7125827814569536 25:0.009271523178807948 26:0.9090909090909091 
-1.0 4:0.5313465783664459 5:0.3766004415011038 6:0.4774834437086093 10:0.9834437086092715 11:0.3766004415011038 12:0.4774834437086093 16:0.19249448123620308 17:0.060927152317880796 18:0.08543046357615894 20:0.18388520971302427 23:0.3240618101545254 25:0.009271523178807948 
