svm_type c_svc
kernel_type linear
nr_class 2
total_sv 35
rho -0.3245059103490711
label -1 9
probA -1.50168871132847
probB 0.1255663056060795
nr_sv 19 16
SV
0.2761670587652946 1:0.6471224578104716 2:0.8684552141929901 3:0.6791432280398096 4:0.5010817827780182 5:0.516010385114669 6:0.9515361315447858 7:0.6475551709216789 8:0.8684552141929901 9:0.6791432280398096 10:0.5010817827780182 11:0.516010385114669 12:0.9515361315447858 13:0.20315880571181308 14:0.20315880571181308 15:0.06447425356988316 16:0.07053223712678494 17:0.14690610125486803 18:0.04521852012115967 20:0.800951968844656 21:0.4950237992211164 23:0.8606663781912592 24:0.4048031155344007 25:0.009086975335352661 
1.0 3:0.11553440069234097 4:0.828212894850714 5:0.3476849848550411 6:0.8385980095196884 9:0.531371700562527 10:0.8277801817395067 11:0.3476849848550411 12:0.8385980095196884 15:0.16140199048031156 16:0.20315880571181308 17:0.07053223712678494 18:0.15382951103418432 20:0.26157507572479444 21:0.8128515794028559 23:0.87559498052791 24:0.3476849848550411 25:0.009086975335352661 
1.0 1:0.3649935093033319 2:0.516010385114669 3:0.39636520986585894 4:0.49567286888792733 5:0.3855473820856772 6:0.735179575941151 7:0.3649935093033319 8:0.516010385114669 9:0.39636520986585894 10:0.49567286888792733 11:0.3855473820856772 12:0.735179575941151 13:0.07053223712678494 14:0.14690610125486803 15:0.06447425356988316 16:0.20315880571181308 17:0.07053223712678494 18:0.15382951103418432 20:0.19515361315447857 21:0.4950237992211164 23:0.662916486369537 24:0.39636520986585894 25:0.009086975335352661 
1.0 1:0.531371700562527 2:0.3219385547382086 3:0.0028126352228472523 4:0.0036780614452617912 5:0.19255733448723497 6:0.0036780614452617912 7:0.531371700562527 8:0.3219385547382086 9:0.0028126352228472523 10:0.0036780614452617912 11:0.19255733448723497 12:0.0036780614452617912 13:0.16140199048031156 14:0.14690610125486803 15:0.15382951103418432 16:0.15382951103418432 17:0.17157074859368238 18:0.15382951103418432 20:0.06728688879273043 23:0.6559930765902207 25:0.01125054089138901 26:0.1111111111111111 
0.011306215077355691 1:0.3909562959757681 2:0.7981393336218088 3:0.9463435742102986 4:0.5945478147987884 5:0.2505408913890091 6:0.8647771527477283 7:0.3909562959757681 8:0.7979229770662051 9:0.9463435742102986 10:0.5943314582431848 11:0.2505408913890091 12:0.8647771527477283 13:0.14690610125486803 14:0.20315880571181308 15:0.06447425356988316 16:0.20315880571181308 17:0.17070532237126784 18:0.04521852012115967 19:0.9398528775421895 20:0.16464733881436608 21:0.5921678926871484 22:0.6743833838165296 23:0.39982691475551707 24:0.48615318044136735 25:0.009086975335352661 
0.5582045283818675 1:0.8717005625270445 2:0.8727823453050627 3:0.927736910428386 4:0.8351363046300303 5:0.8967979229770662 6:0.699048031155344 7:0.8714842059714409 8:0.8727823453050627 9:0.927736910428386 10:0.8351363046300303 11:0.8967979229770662 12:0.699048031155344 13:0.09260060579835569 14:0.14690610125486803 15:0.16140199048031156 16:0.15382951103418432 17:0.20315880571181308 18:0.16140199048031156 19:0.9197317178710515 20:0.4950237992211164 22:0.7085677196019039 23:0.38511466897446994 25:0.009086975335352661 
1.0 1:0.9032886196451753 2:0.5482475118996105 3:0.5776720034617049 4:0.0036780614452617912 5:0.9967546516659455 6:0.3649935093033319 7:0.9017741237559498 8:0.5482475118996105 9:0.5778883600173085 10:0.0036780614452617912 11:0.9967546516659455 12:0.3649935093033319 13:0.09260060579835569 14:0.14690610125486803 15:0.20315880571181308 16:0.15382951103418432 17:0.15382951103418432 18:0.17070532237126784 19:0.5713976633491995 20:0.9991345737775854 22:0.8128515794028559 23:8.654262224145391E-4 25:0.009086975335352661 
0.964905827543323 1:0.516010385114669 2:0.19623539593249675 3:0.0036780614452617912 7:0.516010385114669 8:0.1964517524881004 9:0.0036780614452617912 13:0.14690610125486803 14:0.17157074859368238 15:0.15382951103418432 20:0.11337083513630462 23:0.8351363046300303 25:0.009086975335352661 26:0.2222222222222222 
0.1219314234684332 1:0.0028126352228472523 2:0.6875811337083514 3:0.6875811337083514 4:0.6384681955863263 5:0.003028991778450887 6:0.004327131112072695 7:0.0028126352228472523 8:0.6873647771527477 9:0.004327131112072695 10:0.004327131112072695 11:0.003028991778450887 12:0.004327131112072695 13:0.15382951103418432 14:0.15382951103418432 15:0.15382951103418432 16:0.15382951103418432 17:0.15382951103418432 18:0.15382951103418432 19:0.6819558632626569 20:0.029208135006490697 21:0.6350064906966681 22:0.4244915620943315 23:0.6555603634790134 24:0.6555603634790134 25:0.009086975335352661 
0.23650324333204156 1:0.1479878840328862 2:0.6389009086975336 3:0.34660320207702294 4:0.7667676330592818 5:0.8805711813067936 6:0.06382518390307226 7:0.6559930765902207 8:0.6382518390307226 9:0.34660320207702294 10:0.7667676330592818 11:0.8805711813067936 12:0.06382518390307226 13:0.16140199048031156 14:0.09260060579835569 15:0.06447425356988316 16:0.20315880571181308 17:0.16140199048031156 18:0.17157074859368238 19:0.34162700129813933 21:0.766551276503678 22:0.2531371700562527 24:0.39636520986585894 25:0.009086975335352661 
1.0 4:0.21159671138035482 5:0.5776720034617049 6:0.08005192557334487 10:0.21159671138035482 11:0.5776720034617049 12:0.38316745997403723 16:0.15382951103418432 17:0.14690610125486803 18:0.17157074859368238 20:0.011466897446992644 21:0.21138035482475118 23:0.8753786239723064 24:0.08870618779749026 25:0.009086975335352661 
1.0 3:0.13500649069666812 4:0.8344872349632194 5:0.8344872349632194 6:0.4024231934227607 9:0.6174816096927737 10:0.8342708784076157 11:0.004327131112072695 12:0.4024231934227607 15:0.06447425356988316 16:0.15382951103418432 17:0.15382951103418432 18:0.17070532237126784 19:0.13479013414106447 20:0.014712245781047165 21:0.8321073128515794 22:0.25789701427953265 23:0.7687148420597144 24:0.9720900043271311 25:0.009086975335352661 
0.16600963345575048 1:0.2953266983989615 2:0.9705755084379056 3:0.0028126352228472523 4:0.003028991778450887 5:0.004327131112072695 7:0.296192124621376 8:0.9705755084379056 9:0.0028126352228472523 10:0.003028991778450887 11:0.004327131112072695 13:0.20315880571181308 14:0.20315880571181308 15:0.15382951103418432 16:0.15382951103418432 17:0.15382951103418432 20:0.014712245781047165 23:0.7687148420597144 25:0.009086975335352661 
0.2728381440072166 1:0.34660320207702294 2:0.6979662483773258 3:0.6713543920380788 7:0.34660320207702294 8:0.6979662483773258 9:0.6713543920380788 13:0.04521852012115967 14:0.04521852012115967 15:0.04521852012115967 19:0.6704889658156642 20:0.9991345737775854 22:0.6778450887061878 23:6.490696668109044E-4 25:0.009086975335352661 
1.0 1:0.02033751622674167 2:0.531371700562527 3:0.3476849848550411 4:0.3855473820856772 5:0.24707918649935093 6:0.5850281263522285 7:0.02033751622674167 8:0.531371700562527 9:0.3476849848550411 10:0.3855473820856772 11:0.24707918649935093 12:0.5850281263522285 13:0.15382951103418432 14:0.16140199048031156 15:0.07053223712678494 16:0.07053223712678494 17:0.07053223712678494 18:0.14690610125486803 20:0.03851146689744699 21:0.38533102553007353 23:0.39636520986585894 24:0.39636520986585894 25:0.009086975335352661 
1.0 1:0.1001730852444829 2:0.44612721765469493 3:0.22414539160536565 4:0.39636520986585894 5:0.06945045434876677 7:0.4787970575508438 8:0.6019039376893119 9:0.22414539160536565 10:0.39636520986585894 11:0.06945045434876677 13:0.14690610125486803 14:0.20315880571181308 15:0.16140199048031156 16:0.06447425356988316 17:0.17157074859368238 19:0.223929035049762 20:0.13219385547382087 22:0.2531371700562527 23:0.7527044569450454 25:0.009086975335352661 
1.0 2:0.11055819991345738 3:0.002379922111639983 8:0.5164430982258762 9:0.002379922111639983 14:0.17157074859368238 15:0.15382951103418432 20:0.053440069234097796 23:0.7680657723929035 25:0.009086975335352661 
1.0 2:0.212678494158373 3:0.49567286888792733 4:0.4532669839896149 5:0.8805711813067936 6:0.5010817827780182 8:0.9495889225443531 9:0.49567286888792733 10:0.4515361315447858 11:0.8805711813067936 12:0.5010817827780182 14:0.17070532237126784 15:0.20315880571181308 16:0.20315880571181308 17:0.16140199048031156 18:0.07053223712678494 19:0.4950237992211164 20:0.3939852877542189 21:0.4305495456512332 22:0.39636520986585894 23:0.24556469061012548 24:0.39636520986585894 25:0.009086975335352661 
1.0 1:0.5010817827780182 2:0.531371700562527 3:0.49480744266551274 4:0.38143660752920816 5:0.7442665512765037 6:0.4588922544353094 7:0.5010817827780182 8:0.531371700562527 9:0.49480744266551274 10:0.38143660752920816 11:0.7442665512765037 12:0.7845088706187797 13:0.07053223712678494 14:0.16140199048031156 15:0.15382951103418432 16:0.04521852012115967 17:0.09260060579835569 18:0.20315880571181308 19:0.4874513197749892 20:0.1460406750324535 21:0.37754218952834273 22:0.5432713111207269 23:0.39636520986585894 24:0.87559498052791 25:0.009086975335352661 
-1.0 1:0.39636520986585894 2:0.6979662483773258 3:0.531371700562527 4:0.3991778450887062 5:0.6174816096927737 6:0.17481609692773692 7:0.39636520986585894 8:0.6979662483773258 9:0.531371700562527 10:0.3991778450887062 11:0.6174816096927737 12:0.17481609692773692 13:0.06447425356988316 14:0.04521852012115967 15:0.16140199048031156 16:0.04521852012115967 17:0.04521852012115967 18:0.17157074859368238 20:0.21657291215923843 21:0.39636520986585894 23:0.37754218952834273 24:0.9731717871051493 25:0.009086975335352661 
-0.9251525587316863 1:0.21678926871484205 2:0.3991778450887062 3:0.6174816096927737 4:0.0590653396797923 5:0.5400259627866725 6:0.696668109043704 7:0.21678926871484205 8:0.3991778450887062 9:0.6174816096927737 10:0.0590653396797923 11:0.9833405452185201 12:0.6906101254868022 13:0.17157074859368238 14:0.04521852012115967 15:0.04521852012115967 16:0.17157074859368238 17:0.20315880571181308 18:0.07053223712678494 19:0.6153180441367373 20:0.17438338381652965 21:0.05690177412375595 22:0.25789701427953265 23:0.7096495023799221 24:0.39376893119861534 25:0.009086975335352661 26:0.7777777777777778 
-1.0 1:0.5514928602336651 2:0.3991778450887062 3:0.061661618347035915 4:0.5804846386845521 5:0.5432713111207269 6:0.3838165296408481 7:0.5506274340112506 8:0.3991778450887062 9:0.3026828212894851 10:0.5807009952401557 11:0.5432713111207269 12:0.3838165296408481 13:0.14690610125486803 14:0.04521852012115967 15:0.14690610125486803 16:0.20315880571181308 17:0.17070532237126784 18:0.04521852012115967 19:0.06144526179143228 20:0.17438338381652965 21:0.5787537862397231 22:0.529640848117698 23:0.7096495023799221 24:0.5443530938987451 25:0.009086975335352661 26:0.7777777777777778 
-1.0 1:0.7144093466032021 2:0.22414539160536565 3:0.021635655560363478 4:0.0036780614452617912 5:0.9275205538727823 6:0.5010817827780182 7:0.7146257031588057 8:0.22414539160536565 9:0.044785807009952404 10:0.0036780614452617912 11:0.9154045867589788 12:0.5010817827780182 13:0.20315880571181308 14:0.16140199048031156 15:0.17157074859368238 16:0.15382951103418432 17:0.20315880571181308 18:0.07053223712678494 19:0.025962786672436174 20:0.8453050627434011 22:0.39636520986585894 23:0.32994374729554304 25:0.009086975335352661 
-1.0 4:0.5400259627866725 5:0.3855473820856772 6:0.49653829511034187 10:0.9833405452185201 11:0.3855473820856772 12:0.49653829511034187 16:0.20315880571181308 17:0.07053223712678494 18:0.09260060579835569 20:0.187797490263955 23:0.7888360017308524 25:0.009086975335352661 
-1.0 1:0.0025962786672436176 2:0.6321938554738209 3:0.3855473820856772 4:0.516010385114669 5:0.6088273474686283 6:0.5309389874513197 7:0.0025962786672436176 8:0.6321938554738209 9:0.3855473820856772 10:0.516010385114669 11:0.6088273474686283 12:0.5309389874513197 13:0.15382951103418432 14:0.16140199048031156 15:0.07053223712678494 16:0.14690610125486803 17:0.14690610125486803 18:0.17070532237126784 19:0.38533102553007353 20:0.19969710082215492 21:0.5080051925573345 22:0.39636520986585894 23:0.5389441800086543 24:0.3939852877542189 25:0.009086975335352661 
-1.0 2:0.12332323669407183 3:0.516010385114669 4:0.0036780614452617912 5:0.11401990480311554 8:0.5666378191259195 9:0.516010385114669 10:0.0036780614452617912 11:0.11401990480311554 14:0.14690610125486803 15:0.14690610125486803 16:0.15382951103418432 17:0.17157074859368238 19:0.5080051925573345 20:0.19515361315447857 22:0.3939852877542189 23:0.8636953699697101 25:0.009086975335352661 
-1.0 4:0.03158805711813068 5:0.8202077022933795 6:0.5240155776720035 10:0.043271311120726956 11:0.8195586326265686 12:0.5240155776720035 16:0.15382951103418432 17:0.14690610125486803 18:0.15382951103418432 20:0.8476849848550411 23:0.3939852877542189 25:0.009086975335352661 
-1.0 1:0.5400259627866725 2:0.8805711813067936 3:0.3381652964084812 4:0.004327131112072695 7:0.9833405452185201 8:0.8805711813067936 9:0.3381652964084812 10:0.004327131112072695 13:0.20315880571181308 14:0.16140199048031156 15:0.14690610125486803 16:0.15382951103418432 19:0.334703591518823 20:0.16161834703591518 22:0.8745131977498918 23:0.24707918649935093 25:0.009086975335352661 
-1.0 1:0.3476849848550411 2:0.6512332323669408 3:0.418866291648637 4:0.6321938554738209 5:0.1311120726958027 6:0.4290350497620078 7:0.3476849848550411 8:0.651016875811337 9:0.418866291648637 10:0.6321938554738209 11:0.1311120726958027 12:0.4290350497620078 13:0.07053223712678494 14:0.09260060579835569 15:0.14690610125486803 16:0.16140199048031156 17:0.14690610125486803 18:0.14690610125486803 19:0.41821722198182604 20:0.16161834703591518 21:0.6241886629164863 22:0.39982691475551707 23:0.6670272609260061 24:0.4048031155344007 25:0.009086975335352661 
-0.3730152814240008 4:0.002379922111639983 5:0.05387278234530506 10:0.002379922111639983 11:0.0540891389009087 16:0.15382951103418432 17:0.17157074859368238 20:0.10904370402423194 23:0.7189528342708784 25:0.009086975335352661 26:0.8888888888888888 
-1.0 4:0.9987018606663782 5:0.3838165296408481 6:0.3476849848550411 10:0.9987018606663782 11:0.3838165296408481 12:0.3476849848550411 16:0.15382951103418432 17:0.14690610125486803 18:0.07053223712678494 20:0.13479013414106447 23:0.24707918649935093 25:0.009086975335352661 
-1.0 1:0.39636520986585894 2:0.9785807009952402 3:0.3855473820856772 4:0.516010385114669 5:0.28126352228472523 6:0.3649935093033319 7:0.39636520986585894 8:0.9785807009952402 9:0.3855473820856772 10:0.516010385114669 11:0.2814798788403289 12:0.3649935093033319 13:0.06447425356988316 14:0.09260060579835569 15:0.07053223712678494 16:0.14690610125486803 17:0.20315880571181308 18:0.17070532237126784 19:0.38533102553007353 20:0.20359151882302035 21:0.5080051925573345 22:0.39636520986585894 23:0.6051492860233665 24:0.3939852877542189 25:0.009086975335352661 
-0.18128390567198016 4:0.5400259627866725 5:0.3855473820856772 6:0.4848550411077456 10:0.9833405452185201 11:0.3855473820856772 12:0.4848550411077456 16:0.20315880571181308 17:0.07053223712678494 18:0.09260060579835569 20:0.19320640415404586 23:0.32994374729554304 25:0.009086975335352661 
-0.12841432820361584 3:0.3026828212894851 4:0.6135871916919082 5:0.5400259627866725 6:0.7265253137170056 9:0.3026828212894851 10:0.6135871916919082 11:0.9833405452185201 12:0.7265253137170056 15:0.04521852012115967 16:0.20315880571181308 17:0.20315880571181308 18:0.09260060579835569 19:0.30138468195586327 20:0.3476849848550411 21:0.6116399826914756 22:0.529640848117698 23:0.4041540458675898 24:0.39636520986585894 25:0.009086975335352661 
-1.0 1:0.0036780614452617912 2:0.18044136737343142 3:0.0036780614452617912 4:0.3991778450887062 5:0.13500649069666812 6:0.9452617914322804 7:0.0036780614452617912 8:0.18044136737343142 9:0.0036780614452617912 10:0.3991778450887062 11:0.13500649069666812 12:0.9452617914322804 13:0.15382951103418432 14:0.17157074859368238 15:0.15382951103418432 16:0.04521852012115967 17:0.15382951103418432 18:0.20315880571181308 20:0.1330592816962354 21:0.39636520986585894 23:0.7663349199480745 24:0.9731717871051493 25:0.009086975335352661 
