svm_type c_svc
kernel_type linear
nr_class 2
total_sv 67
rho -1.6763968257197635
label -1 10
probA -2.2008993148872045
probB 0.07838300560782283
nr_sv 34 33
SV
1.0 1:0.0036780614452617912 2:0.6549112938122025 3:0.8554738208567719 4:0.531371700562527 5:0.3476849848550411 6:0.6583729987018606 7:0.0036780614452617912 8:0.6549112938122025 9:0.8554738208567719 10:0.531371700562527 11:0.3476849848550411 12:0.6583729987018606 13:0.15382951103418432 14:0.14690610125486803 15:0.16140199048031156 16:0.16140199048031156 17:0.07053223712678494 18:0.14690610125486803 19:0.8476849848550411 20:0.3725659887494591 22:0.7098658589355258 23:0.8753786239723064 25:0.009086975335352661 
1.0 1:0.21549112938122025 2:0.9467762873215059 3:0.531371700562527 4:0.5054089138900909 5:0.39636520986585894 6:0.34660320207702294 7:0.9625703158805712 8:0.9608394634357421 9:0.531371700562527 10:0.5054089138900909 11:0.39636520986585894 12:0.34660320207702294 13:0.17070532237126784 14:0.20315880571181308 15:0.16140199048031156 16:0.04521852012115967 17:0.06447425356988316 18:0.04521852012115967 20:0.6704889658156642 21:0.50475984422328 23:0.39982691475551707 24:0.39982691475551707 25:0.009086975335352661 26:0.0 
0.40324543727719625 4:0.002379922111639983 5:0.05365642578970143 6:0.16313284292514063 10:0.002379922111639983 11:0.05365642578970143 12:0.7224145391605366 16:0.15382951103418432 17:0.15382951103418432 18:0.14690610125486803 20:0.10904370402423194 23:0.7189528342708784 25:0.009086975335352661 26:0.8888888888888888 
1.0 1:0.26027693639117266 2:0.531371700562527 3:0.5010817827780182 4:0.0028126352228472523 5:0.44612721765469493 6:0.531371700562527 7:0.40588489831241886 8:0.531371700562527 9:0.5010817827780182 10:0.0028126352228472523 11:0.6019039376893119 12:0.531371700562527 13:0.20315880571181308 14:0.16140199048031156 15:0.07053223712678494 16:0.15382951103418432 17:0.20315880571181308 18:0.16140199048031156 19:0.4950237992211164 20:0.05690177412375595 22:0.4048031155344007 23:0.4240588489831242 25:0.009086975335352661 
1.0 1:0.0036780614452617912 2:0.9433145824318477 3:0.8554738208567719 4:0.9474253569883168 5:0.4381220250973604 6:0.8734314149718736 7:0.0036780614452617912 8:0.9433145824318477 9:0.8554738208567719 10:0.9608394634357421 11:0.4381220250973604 12:0.8734314149718736 13:0.15382951103418432 14:0.20315880571181308 15:0.16140199048031156 16:0.20315880571181308 17:0.07053223712678494 18:0.14690610125486803 19:0.8476849848550411 20:0.021852012115967115 21:0.9398528775421895 22:0.7098658589355258 23:0.029208135006490697 24:0.2596278667243617 25:0.009086975335352661 
1.0 1:0.4203807875378624 2:0.3589355257464301 3:0.8810038944180009 4:0.7068368671570748 5:0.27823453050627434 6:0.8351363046300303 7:0.4203807875378624 8:0.3589355257464301 9:0.8810038944180009 10:0.7066205106014712 11:0.27758546083946345 12:0.8351363046300303 13:0.15382951103418432 14:0.17070532237126784 15:0.16140199048031156 16:0.20315880571181308 17:0.20315880571181308 18:0.15382951103418432 19:0.8768931198615318 20:0.014712245781047165 21:0.699048031155344 22:0.23950670705322372 23:0.8753786239723064 24:0.39636520986585894 25:0.009086975335352661 
0.5685662885066811 1:0.01730852444829078 2:0.531371700562527 3:0.26200778883600173 4:0.0036780614452617912 5:0.39636520986585894 6:0.49567286888792733 7:0.004327131112072695 8:0.531371700562527 9:0.26200778883600173 10:0.0036780614452617912 11:0.39636520986585894 12:0.49567286888792733 13:0.17157074859368238 14:0.16140199048031156 15:0.17157074859368238 16:0.15382951103418432 17:0.06447425356988316 18:0.20315880571181308 19:0.26157507572479444 20:0.03851146689744699 22:0.8128515794028559 23:0.39636520986585894 25:0.009086975335352661 
0.05177570554358217 20:0.16161834703591518 23:0.01579402855906534 25:0.009086975335352661 
1.0 1:0.6174816096927737 2:0.5748593682388576 3:0.5432713111207269 4:0.8961488533102553 5:0.39636520986585894 6:0.42752055387278237 7:0.6174816096927737 8:0.5824318476849849 9:0.5432713111207269 10:0.8961488533102553 11:0.39636520986585894 12:0.42752055387278237 13:0.06447425356988316 14:0.20315880571181308 15:0.17070532237126784 16:0.20315880571181308 17:0.06447425356988316 18:0.20315880571181308 20:0.3476849848550411 21:0.8848983124188663 23:0.24556469061012548 24:0.39636520986585894 25:0.009086975335352661 
1.0 1:0.9426655127650367 2:0.4491562094331458 3:0.699048031155344 4:0.004327131112072695 7:0.9426655127650367 8:0.6185633924707918 9:0.699048031155344 10:0.004327131112072695 13:0.09260060579835569 14:0.20315880571181308 15:0.16140199048031156 16:0.15382951103418432 20:0.3476849848550411 23:0.7524881003894418 25:0.009086975335352661 
1.0 1:0.44612721765469493 2:0.5765902206836867 3:0.3026828212894851 4:0.004327131112072695 7:0.6019039376893119 8:0.577022933794894 9:0.3026828212894851 10:0.004327131112072695 13:0.20315880571181308 14:0.20315880571181308 15:0.16140199048031156 16:0.15382951103418432 19:0.30138468195586327 20:0.3476849848550411 22:0.529640848117698 23:0.6627001298139333 25:0.009086975335352661 
1.0 1:0.03158805711813068 2:0.22349632193855473 3:0.9506707053223713 4:0.39636520986585894 5:0.927736910428386 6:0.5432713111207269 7:0.043271311120726956 8:0.22349632193855473 9:0.9506707053223713 10:0.39636520986585894 11:0.927736910428386 12:0.5432713111207269 13:0.15382951103418432 14:0.15382951103418432 15:0.14690610125486803 16:0.06447425356988316 17:0.16140199048031156 18:0.17070532237126784 19:0.9495889225443531 20:0.16161834703591518 22:0.6627001298139333 23:0.5400259627866725 25:0.009086975335352661 
1.0 1:0.531371700562527 2:0.3297273907399394 3:0.8805711813067936 7:0.531371700562527 8:0.3297273907399394 9:0.8805711813067936 13:0.16140199048031156 14:0.14690610125486803 15:0.16140199048031156 19:0.8768931198615318 20:0.14647338814366076 22:0.2531371700562527 23:0.39636520986585894 25:0.009086975335352661 
1.0 1:0.3656425789701428 2:0.003028991778450887 3:0.531371700562527 4:0.2925140631761142 5:0.9299004759844224 6:0.8647771527477283 7:0.3656425789701428 8:0.003028991778450887 9:0.531371700562527 10:0.2922977066205106 11:0.9299004759844224 12:0.8647771527477283 13:0.15382951103418432 14:0.15382951103418432 15:0.16140199048031156 16:0.20315880571181308 17:0.04521852012115967 18:0.16140199048031156 20:0.07096495023799221 21:0.2717438338381653 23:0.531371700562527 24:0.260060579835569 25:0.009086975335352661 
0.7504314602333252 1:0.12786672436174817 2:0.516010385114669 3:0.8805711813067936 4:0.0036780614452617912 5:0.38143660752920816 6:0.49653829511034187 7:0.5856771960190393 8:0.516010385114669 9:0.8805711813067936 10:0.0036780614452617912 11:0.38143660752920816 12:0.49653829511034187 13:0.09260060579835569 14:0.14690610125486803 15:0.16140199048031156 16:0.15382951103418432 17:0.04521852012115967 18:0.04521852012115967 19:0.8768931198615318 20:0.12591951536131546 22:0.2531371700562527 23:0.7922977066205106 25:0.009086975335352661 
0.409284388726145 1:0.9402855906533968 2:0.9495889225443531 3:0.531371700562527 4:0.4675465166594548 5:0.9833405452185201 6:0.0036780614452617912 7:0.9402855906533968 8:0.9495889225443531 9:0.531371700562527 10:0.9608394634357421 11:0.9833405452185201 12:0.0036780614452617912 13:0.17070532237126784 14:0.17070532237126784 15:0.16140199048031156 16:0.20315880571181308 17:0.20315880571181308 18:0.15382951103418432 20:0.5209865858935526 21:0.4305495456512332 23:0.34162700129813933 24:0.8128515794028559 25:0.009086975335352661 
1.0 1:0.8805711813067936 2:0.3297273907399394 3:0.8805711813067936 4:0.004327131112072695 7:0.8805711813067936 8:0.3297273907399394 9:0.8805711813067936 10:0.004327131112072695 13:0.16140199048031156 14:0.14690610125486803 15:0.16140199048031156 16:0.15382951103418432 19:0.8768931198615318 20:0.12829943747295544 22:0.2531371700562527 23:0.5294244915620944 25:0.009086975335352661 
1.0 1:0.531371700562527 2:0.5010817827780182 3:0.3701860666378191 4:0.004327131112072695 7:0.531371700562527 8:0.5010817827780182 9:0.3701860666378191 10:0.004327131112072695 13:0.16140199048031156 14:0.07053223712678494 15:0.14690610125486803 16:0.15382951103418432 19:0.3662916486369537 20:0.151665945478148 22:0.7739073993942016 23:0.3939852877542189 25:0.009086975335352661 
1.0 1:0.516010385114669 2:0.6365209865858935 3:0.531371700562527 4:0.004327131112072695 7:0.516010385114669 8:0.6365209865858935 9:0.531371700562527 10:0.004327131112072695 13:0.14690610125486803 14:0.04521852012115967 15:0.16140199048031156 16:0.15382951103418432 20:0.4950237992211164 23:0.7888360017308524 25:0.009086975335352661 
1.0 4:0.4963219385547382 5:0.9833405452185201 6:0.8202077022933795 10:0.49567286888792733 11:0.9833405452185201 12:0.8195586326265686 16:0.20315880571181308 17:0.07053223712678494 18:0.14690610125486803 20:0.10904370402423194 21:0.4950237992211164 23:0.39982691475551707 24:0.42319342276070965 25:0.009086975335352661 
1.0 1:0.8563392470791865 2:0.149286023366508 3:0.008870618779749026 4:0.07009952401557767 5:0.003028991778450887 6:0.004327131112072695 7:0.8563392470791865 8:0.149286023366508 9:0.008870618779749026 10:0.07009952401557767 11:0.003028991778450887 12:0.004327131112072695 13:0.14690610125486803 14:0.15382951103418432 15:0.15382951103418432 16:0.15382951103418432 17:0.15382951103418432 18:0.15382951103418432 20:0.19234097793163132 21:0.06880138468195586 23:0.2596278667243617 24:0.6780614452617915 25:0.009086975335352661 
1.0 1:0.9541324102120294 2:0.24231934227607096 3:0.8647771527477283 4:0.008870618779749026 5:0.15447858070099524 6:0.004327131112072695 7:0.9541324102120294 8:0.24231934227607096 9:0.8647771527477283 10:0.008870618779749026 11:0.15447858070099524 12:0.004327131112072695 13:0.04521852012115967 14:0.09260060579835569 15:0.16140199048031156 16:0.15382951103418432 17:0.15382951103418432 18:0.15382951103418432 19:0.8645607961921247 20:0.17633059281696237 22:0.5402423193422761 23:0.6627001298139333 25:0.009086975335352661 
0.35283157465037807 1:0.927736910428386 2:0.6376027693639117 3:0.38468195586326265 7:0.927736910428386 8:0.6376027693639117 9:0.38468195586326265 13:0.16140199048031156 14:0.07053223712678494 15:0.14690610125486803 19:0.38360017308524447 20:0.11683254002596279 22:0.8351363046300303 23:0.5921678926871484 25:0.009086975335352661 
1.0 2:0.2732583297273907 3:0.22414539160536565 4:0.927736910428386 5:0.712678494158373 6:0.3476849848550411 8:0.2730419731717871 9:0.22414539160536565 10:0.927736910428386 11:0.712678494158373 12:0.3476849848550411 14:0.20315880571181308 15:0.16140199048031156 16:0.16140199048031156 17:0.04521852012115967 18:0.07053223712678494 19:0.223929035049762 20:0.4305495456512332 21:0.9197317178710515 22:0.2531371700562527 23:0.4041540458675898 24:0.7085677196019039 25:0.009086975335352661 
1.0 1:0.3859800951968845 2:0.9549978364344439 3:0.38965815664214626 4:0.6771960190393769 5:0.9482907832107312 6:0.5432713111207269 7:0.3859800951968845 8:0.9547814798788403 9:0.08372998701860666 10:0.6771960190393769 11:0.9482907832107312 12:0.5432713111207269 13:0.09260060579835569 14:0.07053223712678494 15:0.14690610125486803 16:0.06447425356988316 17:0.17070532237126784 18:0.17070532237126784 19:0.38922544353093896 20:0.021419299004759845 22:0.25789701427953265 23:0.0015144958892254435 25:0.009086975335352661 
0.8791436723010054 3:0.13500649069666812 4:0.5400259627866725 5:0.3589355257464301 6:0.438987451319775 9:0.6174816096927737 10:0.9833405452185201 11:0.3589355257464301 12:0.42752055387278237 15:0.06447425356988316 16:0.20315880571181308 17:0.07053223712678494 18:0.20315880571181308 19:0.13479013414106447 20:0.3476849848550411 22:0.25789701427953265 23:0.6559930765902207 25:0.009086975335352661 
1.0 1:0.0028126352228472523 2:0.05300735612289052 3:0.008870618779749026 4:0.003028991778450887 5:0.6473388143660753 6:0.8913890090869754 7:0.0028126352228472523 8:0.05300735612289052 9:0.008870618779749026 10:0.003028991778450887 11:0.6475551709216789 12:0.911726525313717 13:0.15382951103418432 14:0.17157074859368238 15:0.15382951103418432 16:0.15382951103418432 17:0.20315880571181308 18:0.09260060579835569 20:0.18303764604067504 23:0.7085677196019039 25:0.009086975335352661 
1.0 1:0.8130679359584595 2:0.5432713111207269 3:0.531371700562527 4:0.8139333621808741 5:0.004327131112072695 7:0.8132842925140632 8:0.5432713111207269 9:0.531371700562527 10:0.8139333621808741 11:0.004327131112072695 13:0.20315880571181308 14:0.17070532237126784 15:0.16140199048031156 16:0.14690610125486803 17:0.15382951103418432 20:0.5209865858935526 21:0.8128515794028559 23:0.34162700129813933 24:0.23907399394201645 25:0.009086975335352661 
1.0 1:0.5432713111207269 2:0.9850713976633492 3:0.6568585028126352 4:0.6771960190393769 5:0.6568585028126352 6:0.5774556469061013 7:0.5432713111207269 8:0.9850713976633492 9:0.6568585028126352 10:0.6771960190393769 11:0.6568585028126352 12:0.5774556469061013 13:0.17070532237126784 14:0.04521852012115967 15:0.16140199048031156 16:0.06447425356988316 17:0.16140199048031156 18:0.17157074859368238 19:0.6559930765902207 20:0.11964517524881003 22:0.25789701427953265 23:0.6559930765902207 25:0.009086975335352661 
0.7120241611193189 1:0.22414539160536565 2:0.19926438771094765 3:0.0036780614452617912 4:0.0036780614452617912 5:0.13349199480744267 6:0.3991778450887062 7:0.22414539160536565 8:0.19926438771094765 9:0.0036780614452617912 10:0.0036780614452617912 11:0.13349199480744267 12:0.3991778450887062 13:0.16140199048031156 14:0.17157074859368238 15:0.15382951103418432 16:0.15382951103418432 17:0.17157074859368238 18:0.04521852012115967 20:0.18022501081782777 23:0.7663349199480745 25:0.009086975335352661 
1.0 1:0.7319342276070965 2:0.0028126352228472523 3:0.32431847684984855 4:0.003028991778450887 5:0.9536996971008221 6:0.8351363046300303 7:0.7317178710514929 8:0.0028126352228472523 9:0.32431847684984855 10:0.003028991778450887 11:0.9536996971008221 12:0.8351363046300303 13:0.14690610125486803 14:0.15382951103418432 15:0.04521852012115967 16:0.15382951103418432 17:0.04521852012115967 18:0.15382951103418432 19:0.3241021202942449 20:0.04889658156642146 22:0.8764604067503245 23:0.750540891389009 25:0.009086975335352661 
1.0 1:0.042622241453916056 2:0.088273474686283 3:0.6568585028126352 4:0.5400259627866725 5:0.977498918217222 6:0.8996105581999134 7:0.042622241453916056 8:0.409346603202077 9:0.6568585028126352 10:0.9833405452185201 11:0.977498918217222 12:0.8996105581999134 13:0.15382951103418432 14:0.14690610125486803 15:0.16140199048031156 16:0.20315880571181308 17:0.09260060579835569 18:0.09260060579835569 19:0.6559930765902207 20:0.1330592816962354 22:0.25789701427953265 23:0.7085677196019039 25:0.009086975335352661 
1.0 3:0.3026828212894851 4:0.6135871916919082 5:0.5400259627866725 6:0.7265253137170056 9:0.3026828212894851 10:0.6135871916919082 11:0.9833405452185201 12:0.7265253137170056 15:0.04521852012115967 16:0.20315880571181308 17:0.20315880571181308 18:0.09260060579835569 19:0.30138468195586327 20:0.3476849848550411 21:0.6116399826914756 22:0.529640848117698 23:0.4041540458675898 24:0.39636520986585894 25:0.009086975335352661 
1.0 1:0.0036780614452617912 2:0.18044136737343142 3:0.0036780614452617912 4:0.3991778450887062 5:0.13500649069666812 6:0.9452617914322804 7:0.0036780614452617912 8:0.18044136737343142 9:0.0036780614452617912 10:0.3991778450887062 11:0.13500649069666812 12:0.9452617914322804 13:0.15382951103418432 14:0.17157074859368238 15:0.15382951103418432 16:0.04521852012115967 17:0.15382951103418432 18:0.20315880571181308 20:0.1330592816962354 21:0.39636520986585894 23:0.7663349199480745 24:0.9731717871051493 25:0.009086975335352661 
-1.0 1:0.9299004759844224 2:0.17892687148420597 3:0.0036780614452617912 4:0.004327131112072695 7:0.9299004759844224 8:0.1784941583729987 9:0.0036780614452617912 10:0.004327131112072695 13:0.04521852012115967 14:0.14690610125486803 15:0.15382951103418432 16:0.15382951103418432 20:0.1678926871484206 23:0.39636520986585894 25:0.009086975335352661 
-1.0 1:0.4415837299870186 2:0.36888792730419734 3:0.649286023366508 4:0.39636520986585894 5:0.6527477282561661 6:0.599524015577672 7:0.49913457377758547 8:0.36888792730419734 9:0.649286023366508 10:0.39636520986585894 11:0.6527477282561661 12:0.6094764171354392 13:0.20315880571181308 14:0.16140199048031156 15:0.17157074859368238 16:0.06447425356988316 17:0.17157074859368238 18:0.20315880571181308 19:0.6445261791432281 20:0.14517524881003893 22:0.7784508870618779 23:0.5309389874513197 25:0.009086975335352661 
-1.0 1:0.5540891389009087 2:0.6490696668109044 3:0.0028126352228472523 4:0.003028991778450887 5:0.39636520986585894 6:0.2462137602769364 7:0.5540891389009087 8:0.6490696668109044 9:0.0028126352228472523 10:0.003028991778450887 11:0.39636520986585894 12:0.2462137602769364 13:0.17157074859368238 14:0.17157074859368238 15:0.15382951103418432 16:0.15382951103418432 17:0.06447425356988316 18:0.17157074859368238 20:0.7189528342708784 23:0.7743401125054089 25:0.009086975335352661 
-1.0 1:0.36888792730419734 2:0.23647771527477282 3:0.39636520986585894 7:0.36888792730419734 8:0.23647771527477282 9:0.39636520986585894 13:0.16140199048031156 14:0.17157074859368238 15:0.06447425356988316 20:0.6445261791432281 23:0.38511466897446994 25:0.009086975335352661 26:0.6666666666666666 
-1.0 1:0.0034617048896581565 2:0.9355257464301169 3:0.7390739939420164 4:0.0036780614452617912 5:0.9588922544353093 6:0.3838165296408481 7:0.0034617048896581565 8:0.9350930333189096 9:0.7390739939420164 10:0.0036780614452617912 11:0.9584595413241022 12:0.3838165296408481 13:0.15382951103418432 14:0.09260060579835569 15:0.15382951103418432 16:0.15382951103418432 17:0.20315880571181308 18:0.04521852012115967 19:0.737559498052791 20:0.14257897014279533 22:0.2531371700562527 23:0.38511466897446994 25:0.009086975335352661 
-1.0 3:0.0034617048896581565 4:0.8805711813067936 5:0.3476849848550411 6:0.19948074426655127 9:0.0034617048896581565 10:0.8805711813067936 11:0.3476849848550411 12:0.19948074426655127 15:0.15382951103418432 16:0.16140199048031156 17:0.07053223712678494 18:0.15382951103418432 20:0.18887927304197316 21:0.8768931198615318 23:0.8321073128515794 24:0.2531371700562527 25:0.009086975335352661 
-1.0 2:0.10601471224578105 3:0.8853310255300736 4:0.0036780614452617912 5:0.16832540025962786 6:0.39636520986585894 8:0.49653829511034187 9:0.8853310255300736 10:0.0036780614452617912 11:0.16832540025962786 12:0.39636520986585894 14:0.04521852012115967 15:0.04521852012115967 16:0.15382951103418432 17:0.17157074859368238 18:0.06447425356988316 19:0.8848983124188663 20:0.17633059281696237 22:0.3939852877542189 23:0.39636520986585894 25:0.009086975335352661 
-1.0 1:0.8853310255300736 2:0.17892687148420597 3:0.0036780614452617912 4:0.39636520986585894 5:0.08610990913024665 6:0.004327131112072695 7:0.8853310255300736 8:0.1784941583729987 9:0.0036780614452617912 10:0.39636520986585894 11:0.08589355257464301 12:0.004327131112072695 13:0.04521852012115967 14:0.17157074859368238 15:0.15382951103418432 16:0.06447425356988316 17:0.17157074859368238 18:0.15382951103418432 20:0.1678926871484206 23:0.39636520986585894 25:0.009086975335352661 
-1.0 1:0.3026828212894851 2:0.09800951968844655 3:0.0036780614452617912 4:0.6771960190393769 5:0.10168758113370835 6:0.839463435742103 7:0.3026828212894851 8:0.09800951968844655 9:0.0036780614452617912 10:0.6771960190393769 11:0.10168758113370835 12:0.839463435742103 13:0.16140199048031156 14:0.15382951103418432 15:0.15382951103418432 16:0.06447425356988316 17:0.15382951103418432 18:0.09260060579835569 20:0.1479878840328862 23:0.5417568152315015 25:0.009086975335352661 
-1.0 1:0.3909562959757681 2:0.7981393336218088 3:0.9463435742102986 4:0.5945478147987884 5:0.2505408913890091 6:0.8647771527477283 7:0.3909562959757681 8:0.7979229770662051 9:0.9463435742102986 10:0.5943314582431848 11:0.2505408913890091 12:0.8647771527477283 13:0.14690610125486803 14:0.20315880571181308 15:0.06447425356988316 16:0.20315880571181308 17:0.17070532237126784 18:0.04521852012115967 19:0.9398528775421895 20:0.16464733881436608 21:0.5921678926871484 22:0.6743833838165296 23:0.39982691475551707 24:0.48615318044136735 25:0.009086975335352661 
-1.0 1:0.4787970575508438 2:0.0036780614452617912 3:0.927736910428386 4:0.6293812202509736 5:0.9474253569883168 6:0.6979662483773258 7:0.4787970575508438 8:0.0036780614452617912 9:0.927736910428386 10:0.6293812202509736 11:0.9608394634357421 12:0.6979662483773258 13:0.09260060579835569 14:0.15382951103418432 15:0.16140199048031156 16:0.15382951103418432 17:0.20315880571181308 18:0.04521852012115967 19:0.9197317178710515 20:0.16875811337083513 21:0.6241886629164863 22:0.7085677196019039 23:0.5919515361315448 24:0.7741237559498053 25:0.009086975335352661 
-0.11158330360360233 1:0.927736910428386 2:0.8710514928602336 3:0.6568585028126352 4:0.6771960190393769 5:0.36477715274772826 6:0.004327131112072695 7:0.927736910428386 8:0.87083513630463 9:0.6568585028126352 10:0.6771960190393769 11:0.36477715274772826 12:0.004327131112072695 13:0.16140199048031156 14:0.14690610125486803 15:0.16140199048031156 16:0.06447425356988316 17:0.17157074859368238 18:0.15382951103418432 19:0.6559930765902207 20:0.7189528342708784 22:0.25789701427953265 23:0.5471657291215923 25:0.009086975335352661 
-1.0 1:0.6832540025962787 2:0.4448290783210731 3:0.6793595845954132 4:0.699048031155344 5:0.3589355257464301 6:0.6505841627001299 7:0.6832540025962787 8:0.5904370402423194 9:0.6793595845954132 10:0.699048031155344 11:0.3589355257464301 12:0.6501514495889226 13:0.09260060579835569 14:0.20315880571181308 15:0.06447425356988316 16:0.16140199048031156 17:0.07053223712678494 18:0.14690610125486803 19:0.6791432280398096 20:0.3476849848550411 22:0.260060579835569 23:0.8128515794028559 25:0.009086975335352661 
-1.0 1:0.3067935958459541 2:0.6090437040242319 3:0.8805711813067936 4:0.0036780614452617912 5:0.38143660752920816 6:0.4787970575508438 7:0.3067935958459541 8:0.6090437040242319 9:0.8805711813067936 10:0.0036780614452617912 11:0.38143660752920816 12:0.4787970575508438 13:0.16140199048031156 14:0.14690610125486803 15:0.16140199048031156 16:0.15382951103418432 17:0.04521852012115967 18:0.14690610125486803 19:0.8768931198615318 20:0.4950237992211164 22:0.2531371700562527 23:0.6819558632626569 25:0.009086975335352661 
-1.0 1:0.12094331458243185 2:0.6771960190393769 3:0.6568585028126352 4:0.004327131112072695 7:0.12094331458243185 8:0.6771960190393769 9:0.6568585028126352 10:0.004327131112072695 13:0.17157074859368238 14:0.06447425356988316 15:0.16140199048031156 16:0.15382951103418432 19:0.6559930765902207 20:0.5713976633491995 22:0.25789701427953265 23:0.23907399394201645 25:0.009086975335352661 
-1.0 1:0.531371700562527 2:0.3649935093033319 3:0.0019472090004327132 4:0.0019472090004327132 5:0.004327131112072695 7:0.531371700562527 8:0.3649935093033319 9:0.0019472090004327132 10:0.0019472090004327132 11:0.004327131112072695 13:0.16140199048031156 14:0.07053223712678494 15:0.15382951103418432 16:0.15382951103418432 17:0.15382951103418432 20:0.5644742535698831 23:0.5207702293379489 25:0.009086975335352661 
-1.0 1:0.8351363046300303 2:0.31003894418000866 3:0.8554738208567719 4:0.003028991778450887 5:0.34725227174383383 6:0.9625703158805712 7:0.8351363046300303 8:0.31003894418000866 9:0.8554738208567719 10:0.003028991778450887 11:0.34725227174383383 12:0.9625703158805712 13:0.15382951103418432 14:0.20315880571181308 15:0.16140199048031156 16:0.15382951103418432 17:0.17070532237126784 18:0.17070532237126784 19:0.8476849848550411 20:0.021419299004759845 22:0.7098658589355258 23:0.8606663781912592 25:0.009086975335352661 
-0.19293822616051806 1:0.8647771527477283 2:0.3476849848550411 3:0.5506274340112506 4:0.5951968844655993 5:0.32128948507139765 6:0.472739073993942 7:0.8647771527477283 8:0.3476849848550411 9:0.5506274340112506 10:0.5951968844655993 11:0.32128948507139765 12:0.9807442665512766 13:0.16140199048031156 14:0.07053223712678494 15:0.14690610125486803 16:0.04521852012115967 17:0.04521852012115967 18:0.20315880571181308 19:0.5484638684552142 20:0.3939852877542189 21:0.5921678926871484 22:0.39982691475551707 23:0.6627001298139333 24:0.39982691475551707 25:0.009086975335352661 
-1.0 1:0.5010817827780182 2:0.38403288619645176 3:0.3297273907399394 4:0.0036780614452617912 5:0.6174816096927737 6:0.9541324102120294 7:0.5010817827780182 8:0.3838165296408481 9:0.3297273907399394 10:0.0036780614452617912 11:0.6174816096927737 12:0.9541324102120294 13:0.07053223712678494 14:0.09260060579835569 15:0.14690610125486803 16:0.15382951103418432 17:0.06447425356988316 18:0.04521852012115967 19:0.3284292514063176 20:0.17503245348334054 22:0.8745131977498918 23:0.6241886629164863 25:0.009086975335352661 
-1.0 1:0.3855473820856772 2:0.31371700562527044 3:0.7124621376027693 4:0.39636520986585894 5:0.945478147987884 6:0.531371700562527 7:0.3855473820856772 8:0.31371700562527044 9:0.7124621376027693 10:0.39636520986585894 11:0.945478147987884 12:0.531371700562527 13:0.07053223712678494 14:0.14690610125486803 15:0.16140199048031156 16:0.06447425356988316 17:0.14690610125486803 18:0.16140199048031156 19:0.7120294244915621 20:0.3476849848550411 22:0.39982691475551707 23:0.3939852877542189 25:0.009086975335352661 
-1.0 1:0.5010817827780182 2:0.5560363479013414 3:0.39636520986585894 4:0.9787970575508438 5:0.004327131112072695 7:0.5010817827780182 8:0.5560363479013414 9:0.39636520986585894 10:0.9787970575508438 11:0.004327131112072695 13:0.07053223712678494 14:0.17157074859368238 15:0.06447425356988316 16:0.17070532237126784 17:0.15382951103418432 20:0.8128515794028559 21:0.9766334919948074 23:0.4041540458675898 24:0.5982258762440502 25:0.009086975335352661 
-0.2516537174120166 1:0.262440501947209 2:0.4811769796624838 3:0.22414539160536565 4:0.3067935958459541 5:0.6090437040242319 6:0.8805711813067936 7:0.262440501947209 8:0.4811769796624838 9:0.22414539160536565 10:0.3067935958459541 11:0.6090437040242319 12:0.8805711813067936 13:0.09260060579835569 14:0.14690610125486803 15:0.16140199048031156 16:0.16140199048031156 17:0.14690610125486803 18:0.16140199048031156 19:0.223929035049762 20:0.3476849848550411 21:0.30138468195586327 22:0.2531371700562527 23:0.3939852877542189 24:0.39636520986585894 25:0.009086975335352661 
-1.0 1:0.39766334919948076 2:0.7462137602769364 3:0.6321938554738209 4:0.6321938554738209 5:0.886845521419299 6:0.7650367806144526 7:0.39766334919948076 8:0.7462137602769364 9:0.6321938554738209 10:0.6321938554738209 11:0.8853310255300736 12:0.7643877109476417 13:0.09260060579835569 14:0.14690610125486803 15:0.16140199048031156 16:0.16140199048031156 17:0.15382951103418432 18:0.14690610125486803 19:0.6241886629164863 20:0.3476849848550411 21:0.6241886629164863 22:0.4048031155344007 23:0.2531371700562527 24:0.4048031155344007 25:0.009086975335352661 
-1.0 1:0.8072263089571614 2:0.23842492427520554 3:0.699048031155344 4:0.004759844223279966 5:0.3905235828645608 6:0.7847252271743834 7:0.8072263089571614 8:0.23842492427520554 9:0.699048031155344 10:0.004759844223279966 11:0.39030722630895714 12:0.7847252271743834 13:0.09260060579835569 14:0.14690610125486803 15:0.16140199048031156 16:0.15382951103418432 17:0.14690610125486803 18:0.20315880571181308 20:0.16161834703591518 21:0.004543487667676331 23:0.39636520986585894 24:0.004543487667676331 25:0.009086975335352661 
-0.9557376804866785 1:0.7247944612721765 2:0.003028991778450887 3:0.39636520986585894 4:0.39636520986585894 5:0.6488533102553007 6:0.9781479878840329 7:0.7247944612721765 8:0.003028991778450887 9:0.39636520986585894 10:0.39636520986585894 11:0.6488533102553007 12:0.9779316313284292 13:0.17157074859368238 14:0.15382951103418432 15:0.06447425356988316 16:0.06447425356988316 17:0.17157074859368238 18:0.20315880571181308 20:0.24599740372133275 23:0.38511466897446994 25:0.009086975335352661 
-0.855971505558664 1:0.5432713111207269 2:0.5824318476849849 3:0.36737343141497186 4:0.9588922544353093 5:0.34249242752055387 6:0.6979662483773258 7:0.5432713111207269 8:0.5824318476849849 9:0.36737343141497186 10:0.9584595413241022 11:0.34249242752055387 12:0.6979662483773258 13:0.17070532237126784 14:0.20315880571181308 15:0.20315880571181308 16:0.20315880571181308 17:0.04521852012115967 18:0.04521852012115967 19:0.3662916486369537 20:0.42470791864993507 21:0.9495889225443531 22:0.39636520986585894 23:0.24707918649935093 24:0.5815664214625703 25:0.009086975335352661 
-1.0 1:0.7431847684984855 2:0.40328861964517526 3:0.34725227174383383 4:0.3950670705322371 5:0.34508870618779747 6:0.699048031155344 7:0.7431847684984855 8:0.40328861964517526 9:0.34725227174383383 10:0.39463435742102987 11:0.34508870618779747 12:0.699048031155344 13:0.09260060579835569 14:0.20315880571181308 15:0.06447425356988316 16:0.07053223712678494 17:0.14690610125486803 18:0.16140199048031156 19:0.34162700129813933 20:0.3476849848550411 21:0.3939852877542189 22:0.260060579835569 23:0.5417568152315015 24:0.5571181306793596 25:0.009086975335352661 
-1.0 1:0.3026828212894851 2:0.23063608827347468 3:0.8135006490696668 4:0.927736910428386 5:0.5432713111207269 6:0.5649069666810904 7:0.3026828212894851 8:0.23063608827347468 9:0.8135006490696668 10:0.927736910428386 11:0.5432713111207269 12:0.5649069666810904 13:0.16140199048031156 14:0.14690610125486803 15:0.14690610125486803 16:0.16140199048031156 17:0.17070532237126784 18:0.09260060579835569 19:0.8128515794028559 20:0.5080051925573345 21:0.9197317178710515 22:0.260060579835569 23:0.2531371700562527 24:0.7085677196019039 25:0.009086975335352661 
-1.0 2:0.35828645607961923 3:0.3026828212894851 4:0.0036780614452617912 5:0.16205106014712245 6:0.39636520986585894 8:0.3585028126352228 9:0.3026828212894851 10:0.0036780614452617912 11:0.16205106014712245 12:0.39636520986585894 14:0.20315880571181308 15:0.16140199048031156 16:0.15382951103418432 17:0.17157074859368238 18:0.06447425356988316 19:0.30138468195586327 20:0.4950237992211164 22:0.529640848117698 23:0.7527044569450454 25:0.009086975335352661 
-1.0 1:0.21787105149286023 2:0.5765902206836867 3:0.3026828212894851 7:0.21787105149286023 8:0.5765902206836867 9:0.3026828212894851 13:0.15382951103418432 14:0.09260060579835569 15:0.16140199048031156 19:0.30138468195586327 20:0.6116399826914756 22:0.529640848117698 23:0.39636520986585894 25:0.009086975335352661 
-1.0 1:0.0036780614452617912 2:0.5400259627866725 3:0.531371700562527 4:0.2492427520553873 5:0.927736910428386 6:0.4984855041107746 7:0.0036780614452617912 8:0.9833405452185201 9:0.531371700562527 10:0.2492427520553873 11:0.927736910428386 12:0.49653829511034187 13:0.15382951103418432 14:0.20315880571181308 15:0.16140199048031156 16:0.04521852012115967 17:0.16140199048031156 18:0.09260060579835569 20:0.662916486369537 21:0.24707918649935093 23:0.38511466897446994 24:0.39636520986585894 25:0.009086975335352661 
-0.7594182551361521 3:0.1566421462570316 4:0.5400259627866725 5:0.39982691475551707 6:0.6713543920380788 9:0.6906101254868022 10:0.9833405452185201 11:0.39982691475551707 12:0.6713543920380788 15:0.07053223712678494 16:0.20315880571181308 17:0.17070532237126784 18:0.04521852012115967 19:0.15577672003461704 20:0.5279099956728689 22:0.674167027260926 23:0.39636520986585894 25:0.009086975335352661 
-1.0 2:0.212678494158373 3:0.49567286888792733 4:0.4532669839896149 5:0.8805711813067936 6:0.5010817827780182 8:0.9495889225443531 9:0.49567286888792733 10:0.4515361315447858 11:0.8805711813067936 12:0.5010817827780182 14:0.17070532237126784 15:0.20315880571181308 16:0.20315880571181308 17:0.16140199048031156 18:0.07053223712678494 19:0.4950237992211164 20:0.3939852877542189 21:0.4305495456512332 22:0.39636520986585894 23:0.24556469061012548 24:0.39636520986585894 25:0.009086975335352661 
