svm_type c_svc
kernel_type linear
nr_class 2
total_sv 48
rho -1.9639001463006236
label -1 8
probA -1.6591403959509343
probB -0.05381932427072051
nr_sv 25 23
SV
1.0 3:0.09352619014183401 4:0.03903946074989468 5:0.2513691897205449 6:0.22398539530964753 9:0.4753545850301924 10:0.03903946074989468 11:0.25122876000561717 12:0.22398539530964753 15:0.13144221317230725 16:0.13649768290970368 17:0.07611290549080185 18:0.13144221317230725 19:0.09338576042690633 20:0.8477741890183963 22:0.5412161213312737 23:0.7857042550203623 25:0.00968965033000983 26:0.0 
0.1185251387825773 4:0.4462856340401629 5:0.9719140570144642 6:0.8949585732340963 10:0.9978935542760848 11:0.9719140570144642 12:0.8949585732340963 16:0.1814351916865609 17:0.09563263586574919 18:0.09563263586574919 20:0.11459064738098582 21:0.44277489116697094 23:0.498244628563404 24:0.8820390394607499 25:0.00968965033000983 26:0.5555555555555556 
1.0 1:0.8731919674203061 2:0.3719983148434209 3:0.5750596826288442 4:0.2562842297430136 5:0.9203763516360062 6:0.938351355146749 7:0.8731919674203061 8:0.3719983148434209 9:0.5847493329588541 10:0.2562842297430136 11:0.9203763516360062 12:0.938351355146749 13:0.13144221317230725 14:0.13860412863361887 15:0.07611290549080185 16:0.13860412863361887 17:0.09563263586574919 18:0.07611290549080185 20:0.32144361746945654 21:0.25502036230866454 23:0.24490942283387165 24:0.4226934419323129 25:0.00968965033000983 
1.0 1:0.3705940176941441 2:0.30276646538407526 3:0.2949024013481253 4:9.83008004493751E-4 5:9.83008004493751E-4 6:9.83008004493751E-4 7:0.3705940176941441 8:0.30276646538407526 9:0.2949024013481253 10:9.83008004493751E-4 11:9.83008004493751E-4 12:9.83008004493751E-4 13:0.13860412863361887 14:0.07611290549080185 15:0.13144221317230725 16:0.13649768290970368 17:0.13649768290970368 18:0.13649768290970368 19:0.29040865047043957 20:0.4002246875438843 22:0.6593175115854515 23:0.012638674343491082 25:0.00968965033000983 
0.7465008054382192 2:0.16303889903103497 3:0.08495997753124561 8:0.16303889903103497 9:0.08495997753124561 14:0.13860412863361887 15:0.15306838927116978 19:0.08481954781631794 20:0.01937930066001966 22:0.9059120909984553 23:0.013200393203201797 25:0.00968965033000983 
1.0 1:0.7597247577587417 2:0.3719983148434209 3:0.5750596826288442 4:0.004774610307541075 5:0.7521415531526471 6:0.4002246875438843 7:0.7597247577587417 8:0.3719983148434209 9:0.5847493329588541 10:0.004774610307541075 11:0.7521415531526471 12:0.4002246875438843 13:0.09563263586574919 14:0.13860412863361887 15:0.07611290549080185 16:0.13649768290970368 17:0.1814351916865609 18:0.07611290549080185 20:0.49318915882600756 23:0.30276646538407526 25:0.00968965033000983 
1.0 1:0.4468473528998736 2:0.2831063052942003 3:0.369330150259795 4:0.00435332116275804 5:0.004915040022468754 7:0.4468473528998736 8:0.28296587557927255 9:0.369330150259795 10:0.00435332116275804 11:0.004915040022468754 13:0.06403595000702149 14:0.13144221317230725 15:0.13860412863361887 16:0.13649768290970368 17:0.13649768290970368 20:0.050975986518747365 23:0.9837101530683893 25:0.00968965033000983 
0.2295404363131544 1:0.016851565791321445 2:0.9237466647942705 3:0.4181996910546272 4:0.4002246875438843 5:0.6226653559893274 6:0.00435332116275804 7:0.016851565791321445 8:0.9237466647942705 9:0.4181996910546272 10:0.4002246875438843 11:0.6226653559893274 12:0.00435332116275804 13:0.07611290549080185 14:0.13144221317230725 15:0.09563263586574919 16:0.07611290549080185 17:0.13144221317230725 18:0.13649768290970368 19:0.4035950007021486 20:0.033141412722932174 22:0.9914337873894116 23:0.027383794410897347 25:0.00968965033000983 26:0.2222222222222222 
0.34584246318171535 1:0.6379721949164443 2:0.5231006881056032 3:0.004212891447830361 4:0.9827271450638955 5:0.44010672658334504 6:0.022468754388428592 7:0.6379721949164443 8:0.5231006881056032 9:0.004212891447830361 10:0.9827271450638955 11:0.44010672658334504 12:0.02232832467350091 13:0.13144221317230725 14:0.09563263586574919 15:0.13649768290970368 16:0.13860412863361887 17:0.09563263586574919 18:0.15306838927116978 20:0.3719983148434209 23:0.5412161213312737 25:0.00968965033000983 
0.7546783744015689 1:0.8932734166549642 2:0.1423957309366662 3:0.9827271450638955 4:0.5722510883302907 5:0.4224125825024575 6:0.7407667462435051 7:0.8932734166549642 8:0.6947057997472265 9:0.9827271450638955 10:0.5847493329588541 11:0.4224125825024575 12:0.7407667462435051 13:0.13860412863361887 14:0.15306838927116978 15:0.13860412863361887 16:0.07611290549080185 17:0.13144221317230725 18:0.13860412863361887 20:0.0256986378317652 23:0.5412161213312737 25:0.00968965033000983 
1.0 1:0.004774610307541075 2:0.6138182839488836 3:0.4288723493891307 4:0.5847493329588541 5:0.264850442353602 6:0.8932734166549642 7:0.004774610307541075 8:0.6138182839488836 9:0.4288723493891307 10:0.5847493329588541 11:0.264850442353602 12:0.8932734166549642 13:0.13649768290970368 14:0.09563263586574919 15:0.13860412863361887 16:0.07611290549080185 17:0.13144221317230725 18:0.13860412863361887 20:0.4922061508215138 23:0.44193231287740486 25:0.00968965033000983 
1.0 1:0.525768852689229 2:0.8567616907737677 3:0.4753545850301924 4:0.4468473528998736 5:0.2513691897205449 6:0.3360483078219351 7:0.525768852689229 8:0.8567616907737677 9:0.4753545850301924 10:0.4468473528998736 11:0.25122876000561717 12:0.3360483078219351 13:0.13860412863361887 14:0.13144221317230725 15:0.09563263586574919 16:0.06403595000702149 17:0.07611290549080185 18:0.13144221317230725 19:0.4735289987361326 20:0.22861957590226092 22:0.5412161213312737 23:0.012638674343491082 25:0.00968965033000983 
1.0 1:0.6343210223283247 2:0.9827271450638955 3:0.719421429574498 4:0.00435332116275804 5:0.6121331273697515 6:0.24996489257126808 7:0.6343210223283247 8:0.9827271450638955 9:0.719421429574498 10:0.00435332116275804 11:0.6121331273697515 12:0.24996489257126808 13:0.13144221317230725 14:0.13860412863361887 15:0.13144221317230725 16:0.13649768290970368 17:0.06403595000702149 18:0.13860412863361887 19:0.7185788512849319 20:0.4002246875438843 22:0.42367644993680664 23:0.44277489116697094 25:0.00968965033000983 
1.0 1:0.031596685858727706 2:0.634180592613397 3:0.4002246875438843 4:0.4468473528998736 5:0.3719983148434209 6:0.8392079764078079 7:0.031596685858727706 8:0.634180592613397 9:0.4002246875438843 10:0.4468473528998736 11:0.3719983148434209 12:0.8389271169779525 13:0.07611290549080185 14:0.13144221317230725 15:0.07611290549080185 16:0.06403595000702149 17:0.13860412863361887 18:0.15306838927116978 20:0.3277629546412021 23:0.9859570285072321 25:0.00968965033000983 
1.0 1:0.061227355708467913 2:0.7243364695969667 3:0.004212891447830361 4:0.4468473528998736 5:0.18340120769554838 6:0.00435332116275804 7:0.061227355708467913 8:0.7239151804521837 9:0.004212891447830361 10:0.4468473528998736 11:0.18340120769554838 12:0.00435332116275804 13:0.09563263586574919 14:0.1814351916865609 15:0.13649768290970368 16:0.06403595000702149 17:0.15306838927116978 18:0.13649768290970368 20:0.6871225951411318 23:0.7322005336329167 25:0.00968965033000983 
1.0 1:0.4288723493891307 2:0.3875860132003932 3:0.3719983148434209 4:0.004212891447830361 5:0.6653559893273416 6:0.036933015025979496 7:0.4288723493891307 8:0.3875860132003932 9:0.3719983148434209 10:0.004212891447830361 11:0.6653559893273416 12:0.036933015025979496 13:0.13860412863361887 14:0.13144221317230725 15:0.13860412863361887 16:0.13649768290970368 17:0.13144221317230725 18:0.13649768290970368 20:0.06572110658615363 23:0.9421429574497964 25:0.00968965033000983 
1.0 1:0.9530964752141553 2:0.7535458503019239 3:0.3719983148434209 4:0.4468473528998736 5:0.3719983148434209 6:0.8578851284931892 7:0.9695267518606937 8:0.7535458503019239 9:0.3719983148434209 10:0.4468473528998736 11:0.3719983148434209 12:0.8717876702710293 13:0.1814351916865609 14:0.1814351916865609 15:0.13860412863361887 16:0.06403595000702149 17:0.13860412863361887 18:0.07611290549080185 20:0.06572110658615363 23:0.44277489116697094 25:0.00968965033000983 
0.24455761920099267 1:0.3086645134110378 2:0.4468473528998736 3:0.4715629827271451 4:0.9299255722510883 5:0.9369470579974722 6:0.7407667462435051 7:0.3086645134110378 8:0.4468473528998736 9:0.4715629827271451 10:0.9299255722510883 11:0.9369470579974722 12:0.7407667462435051 13:0.13144221317230725 14:0.06403595000702149 15:0.13144221317230725 16:0.09563263586574919 17:0.09563263586574919 18:0.13860412863361887 19:0.4693161072883022 20:0.015587698356972336 21:0.9230445162196321 22:0.7857042550203623 23:0.038899031034967 24:0.6786968122454712 25:0.00968965033000983 
0.5740729539527291 1:0.4468473528998736 2:0.9203763516360062 3:0.4288723493891307 4:0.004915040022468754 7:0.4468473528998736 8:0.9203763516360062 9:0.4288723493891307 10:0.004915040022468754 13:0.06403595000702149 14:0.09563263586574919 15:0.13860412863361887 16:0.13649768290970368 20:0.22861957590226092 23:0.9413003791602303 25:0.00968965033000983 
1.0 1:0.4002246875438843 2:0.8686982165426205 3:0.004212891447830361 4:0.00435332116275804 5:0.4468473528998736 6:0.5916303889903104 7:0.4002246875438843 8:0.8686982165426205 9:0.004212891447830361 10:0.00435332116275804 11:0.4468473528998736 12:0.5847493329588541 13:0.13860412863361887 14:0.13144221317230725 15:0.13649768290970368 16:0.13649768290970368 17:0.06403595000702149 18:0.07611290549080185 20:0.5847493329588541 23:0.3829518326077798 25:0.00968965033000983 
1.0 1:0.8724898188456678 2:0.2405561016711136 3:0.004212891447830361 4:0.00435332116275804 5:0.4468473528998736 6:0.7093104900997051 7:0.9978935542760848 8:0.2399943828114029 9:0.004212891447830361 10:0.00435332116275804 11:0.4468473528998736 12:0.7093104900997051 13:0.1814351916865609 14:0.1814351916865609 15:0.13649768290970368 16:0.13649768290970368 17:0.06403595000702149 18:0.13860412863361887 20:0.012638674343491082 23:0.4468473528998736 25:0.00968965033000983 
1.0 1:0.4288723493891307 2:0.4601881758180031 3:0.3719983148434209 4:0.004774610307541075 5:0.3705940176941441 6:0.587838786687263 7:0.4288723493891307 8:0.4601881758180031 9:0.3719983148434209 10:0.004774610307541075 11:0.3705940176941441 12:0.587838786687263 13:0.13860412863361887 14:0.13144221317230725 15:0.13860412863361887 16:0.13649768290970368 17:0.13860412863361887 18:0.15306838927116978 20:0.5750596826288442 23:0.5847493329588541 25:0.00968965033000983 
1.0 1:0.8477741890183963 2:0.7446987782614801 3:0.1878949585732341 4:0.00435332116275804 5:0.004915040022468754 7:0.8477741890183963 8:0.7446987782614801 9:0.2576885268922904 10:0.00435332116275804 11:0.004915040022468754 13:0.15138323269203763 14:0.09563263586574919 15:0.1814351916865609 16:0.13649768290970368 17:0.13649768290970368 20:0.48546552450498526 23:0.9405982305855919 25:0.00968965033000983 
1.0 1:0.5754809717736273 2:0.004774610307541075 3:0.3705940176941441 4:0.4468473528998736 5:0.9827271450638955 6:0.018958011515236625 7:0.5861536301081309 8:0.004774610307541075 9:0.3705940176941441 10:0.4468473528998736 11:0.9827271450638955 12:0.018958011515236625 13:0.15306838927116978 14:0.13649768290970368 15:0.13860412863361887 16:0.06403595000702149 17:0.13860412863361887 18:0.07611290549080185 19:0.3696110096896503 20:0.5847493329588541 22:0.6678837241960399 23:0.21682347984833591 25:0.00968965033000983 
1.0 3:0.08229181294761971 4:0.4002246875438843 5:0.6226653559893274 6:0.7093104900997051 9:0.08229181294761971 10:0.4002246875438843 11:0.6226653559893274 12:0.7093104900997051 15:0.09563263586574919 16:0.07611290549080185 17:0.13144221317230725 18:0.13860412863361887 19:0.08144923465805365 20:0.03791602303047325 22:0.9914337873894116 23:0.009830080044937508 25:0.00968965033000983 
-1.0 1:0.8477741890183963 2:0.7459626456958293 3:0.7407667462435051 4:0.9827271450638955 5:0.528437017272855 6:0.6639516921780649 7:0.8477741890183963 8:0.7461030754107569 9:0.7407667462435051 10:0.9827271450638955 11:0.528437017272855 12:0.6639516921780649 13:0.15138323269203763 14:0.1814351916865609 15:0.13860412863361887 16:0.13860412863361887 17:0.1814351916865609 18:0.09563263586574919 19:0.7322005336329167 20:0.17329026822075552 22:0.9401769414408089 23:0.2214576604409493 25:0.00968965033000983 
-1.0 4:0.4468473528998736 5:0.12442072742592332 6:0.9818845667743294 10:0.4468473528998736 11:0.6199971914057014 12:0.9818845667743294 16:0.06403595000702149 17:0.15306838927116978 18:0.13144221317230725 20:0.18354163741047605 23:0.6680241539109676 25:0.00968965033000983 
-1.0 1:0.5722510883302907 2:0.5546973739643308 3:0.3719983148434209 4:0.004212891447830361 5:0.9060525207133829 6:0.3124561157140851 7:0.5847493329588541 8:0.5546973739643308 9:0.3719983148434209 10:0.004212891447830361 11:0.9060525207133829 12:0.3124561157140851 13:0.07611290549080185 14:0.13144221317230725 15:0.13860412863361887 16:0.13649768290970368 17:0.13144221317230725 18:0.09563263586574919 20:0.12694846229462153 23:0.42634461452043254 25:0.00968965033000983 
-1.0 2:0.10265412161213312 3:0.9827271450638955 4:0.004774610307541075 5:0.18705238028366802 6:0.4468473528998736 8:0.5235219772503862 9:0.9827271450638955 10:0.004774610307541075 11:0.18705238028366802 12:0.4468473528998736 14:0.13144221317230725 15:0.13860412863361887 16:0.13649768290970368 17:0.15306838927116978 18:0.06403595000702149 20:0.12694846229462153 23:0.42634461452043254 25:0.00968965033000983 
-1.0 1:0.369330150259795 2:0.21864906614239574 3:0.004212891447830361 4:0.4468473528998736 5:0.18705238028366802 6:0.00435332116275804 7:0.369330150259795 8:0.21808734728268503 9:0.004212891447830361 10:0.4468473528998736 11:0.18705238028366802 12:0.00435332116275804 13:0.13860412863361887 14:0.13144221317230725 15:0.13649768290970368 16:0.06403595000702149 17:0.15306838927116978 18:0.13649768290970368 20:0.12694846229462153 23:0.42634461452043254 25:0.00968965033000983 
-1.0 1:0.004212891447830361 2:0.12708889200954923 3:0.4468473528998736 4:0.00435332116275804 5:0.6669007161915461 6:0.5722510883302907 7:0.004212891447830361 8:0.12708889200954923 9:0.4468473528998736 10:0.00435332116275804 11:0.6060946496278613 12:0.5722510883302907 13:0.13649768290970368 14:0.15306838927116978 15:0.06403595000702149 16:0.13649768290970368 17:0.15138323269203763 18:0.15138323269203763 20:0.18691195056874035 23:0.6535598932734167 25:0.00968965033000983 
-1.0 1:0.6143800028085943 2:0.4006459766886673 3:0.004774610307541075 4:0.004774610307541075 5:0.5353180733043111 6:0.4462856340401629 7:0.6143800028085943 8:0.400786406403595 9:0.004774610307541075 10:0.004774610307541075 11:0.5353180733043111 12:0.9978935542760848 13:0.13144221317230725 14:0.15306838927116978 15:0.13649768290970368 16:0.13649768290970368 17:0.15138323269203763 18:0.1814351916865609 20:0.8180030894537285 23:0.44277489116697094 25:0.00968965033000983 
-1.0 3:0.04858868136497683 4:0.4468473528998736 5:0.11360763937649207 6:0.21331273697514394 9:0.22370453587979217 10:0.4468473528998736 11:0.11360763937649207 12:0.21331273697514394 15:0.13144221317230725 16:0.06403595000702149 17:0.15306838927116978 18:0.09563263586574919 19:0.04816739222019379 20:0.1008285353180733 22:0.8241819969105463 23:0.42634461452043254 25:0.00968965033000983 
-1.0 1:0.895520292093807 2:0.9827271450638955 3:0.7952534756354445 4:0.4468473528998736 5:0.11388849880634742 6:0.004774610307541075 7:0.895520292093807 8:0.9827271450638955 9:0.7952534756354445 10:0.4468473528998736 11:0.11388849880634742 12:0.004774610307541075 13:0.09563263586574919 14:0.13860412863361887 15:0.1814351916865609 16:0.06403595000702149 17:0.15306838927116978 18:0.13649768290970368 19:0.7857042550203623 20:0.1008285353180733 22:0.44193231287740486 23:0.42634461452043254 25:0.00968965033000983 
-1.0 1:0.8321864906614239 2:0.9827271450638955 3:0.0025277348686982165 4:0.0025277348686982165 5:0.004774610307541075 6:0.6669007161915461 7:0.8321864906614239 8:0.9827271450638955 9:0.003791602303047325 10:0.003791602303047325 11:0.004774610307541075 12:0.6060946496278613 13:0.1814351916865609 14:0.13860412863361887 15:0.13649768290970368 16:0.13649768290970368 17:0.13649768290970368 18:0.15138323269203763 20:0.7077657632355007 23:0.24996489257126808 25:0.00968965033000983 
-1.0 1:0.08622384496559472 2:0.6984974020502739 3:0.004774610307541075 4:0.004774610307541075 5:0.5847493329588541 6:0.8557786827692739 7:0.08622384496559472 8:0.6984974020502739 9:0.004774610307541075 10:0.004774610307541075 11:0.5847493329588541 12:0.8557786827692739 13:0.13860412863361887 14:0.09563263586574919 15:0.13649768290970368 16:0.13649768290970368 17:0.07611290549080185 18:0.13144221317230725 20:0.16430276646538408 23:0.2214576604409493 25:0.00968965033000983 
-1.0 1:0.004774610307541075 2:0.15082151383232692 3:0.004774610307541075 4:0.005195899452324112 5:0.00435332116275804 6:0.4468473528998736 7:0.004774610307541075 8:0.7675888217946918 9:0.004774610307541075 10:0.005195899452324112 11:0.00435332116275804 12:0.4468473528998736 13:0.13649768290970368 14:0.15306838927116978 15:0.13649768290970368 16:0.13649768290970368 17:0.13649768290970368 18:0.06403595000702149 20:0.11683752281982868 21:0.005055469737396433 23:0.5847493329588541 24:0.005055469737396433 25:0.00968965033000983 
-0.7157406973911629 1:0.9827271450638955 2:0.12413986799606797 3:0.004774610307541075 4:0.4468473528998736 5:0.9220615082151383 6:0.5916303889903104 7:0.9827271450638955 8:0.12413986799606797 9:0.004774610307541075 10:0.4468473528998736 11:0.922201937930066 12:0.5847493329588541 13:0.13860412863361887 14:0.15306838927116978 15:0.13649768290970368 16:0.06403595000702149 17:0.09563263586574919 18:0.07611290549080185 20:0.6055329307681505 23:0.6565089172868979 25:0.00968965033000983 
-0.53823142296477 1:0.6521555961241399 2:0.3719983148434209 3:0.0025277348686982165 4:0.0025277348686982165 5:0.4468473528998736 6:0.5750596826288442 7:0.6521555961241399 8:0.3719983148434209 9:0.003932032017975004 10:0.003932032017975004 11:0.4468473528998736 12:0.5847493329588541 13:0.13144221317230725 14:0.13860412863361887 15:0.13649768290970368 16:0.13649768290970368 17:0.06403595000702149 18:0.07611290549080185 20:0.13059963488274118 23:0.9382109254318214 25:0.00968965033000983 
-1.0 1:0.30276646538407526 2:0.8533913776155034 3:0.4753545850301924 4:0.005195899452324112 5:0.00435332116275804 7:0.30276646538407526 8:0.9978935542760848 9:0.4753545850301924 10:0.005195899452324112 11:0.00435332116275804 13:0.13860412863361887 14:0.1814351916865609 15:0.09563263586574919 16:0.13649768290970368 17:0.13649768290970368 19:0.4735289987361326 20:0.22861957590226092 21:0.005055469737396433 22:0.5412161213312737 23:0.9987361325656509 24:0.005055469737396433 25:0.00968965033000983 
-1.0 1:0.8477741890183963 2:0.8643448953798624 3:0.4371577025698638 4:0.4468473528998736 5:0.5761831203482657 6:0.004774610307541075 7:0.8477741890183963 8:0.86448532509479 9:0.4371577025698638 10:0.4468473528998736 11:0.5875579272574076 12:0.004774610307541075 13:0.15138323269203763 14:0.1814351916865609 15:0.13860412863361887 16:0.06403595000702149 17:0.15306838927116978 18:0.13649768290970368 19:0.4288723493891307 20:0.5750596826288442 22:0.7857042550203623 23:0.7857042550203623 25:0.00968965033000983 
-1.0 1:0.9331554556944249 2:0.7570565931751159 3:0.2562842297430136 7:0.9331554556944249 8:0.7570565931751159 9:0.2562842297430136 13:0.09563263586574919 14:0.09563263586574919 15:0.13860412863361887 19:0.25502036230866454 20:0.938351355146749 22:0.4226934419323129 23:0.8209521134672096 25:0.00968965033000983 
-1.0 1:0.938351355146749 2:0.5260497121190844 3:0.1878949585732341 4:0.29026822075551184 5:0.4462856340401629 6:0.572531947760146 7:0.938351355146749 8:0.5260497121190844 9:0.2576885268922904 10:0.29026822075551184 11:0.9978935542760848 12:0.5868557786827693 13:0.07611290549080185 14:0.13144221317230725 15:0.1814351916865609 16:0.15138323269203763 17:0.1814351916865609 18:0.15306838927116978 20:0.2603566914759163 23:0.6565089172868979 25:0.00968965033000983 
-0.37871742240866707 1:0.7744698778261481 2:0.3038899031034967 3:0.3719983148434209 4:0.004774610307541075 5:0.21640219070355288 6:0.7744698778261481 7:0.7744698778261481 8:0.3038899031034967 9:0.3719983148434209 10:0.004774610307541075 11:0.21640219070355288 12:0.7744698778261481 13:0.06403595000702149 14:0.13860412863361887 15:0.13860412863361887 16:0.13649768290970368 17:0.09563263586574919 18:0.06403595000702149 20:0.8371015306838927 23:0.9790759724757758 25:0.00968965033000983 
-0.6793472465496411 1:0.5607358517062211 2:0.20783597809296447 3:0.9609605392501053 4:0.24996489257126808 5:0.7496138182839489 6:0.004774610307541075 7:0.5607358517062211 8:0.2576885268922904 9:0.9602583906754669 10:0.24996489257126808 11:0.7496138182839489 12:0.004774610307541075 13:0.15138323269203763 14:0.1814351916865609 15:0.1814351916865609 16:0.13860412863361887 17:0.13144221317230725 18:0.13649768290970368 19:0.953236904929083 20:0.5847493329588541 22:0.9358236202780509 23:0.9421429574497964 25:0.00968965033000983 
-1.0 1:0.8578851284931892 2:0.4406684454430557 3:0.004774610307541075 4:0.004774610307541075 5:0.15082151383232692 6:0.004774610307541075 7:0.8717876702710293 8:0.4406684454430557 9:0.004774610307541075 10:0.004774610307541075 11:0.7675888217946918 12:0.004774610307541075 13:0.07611290549080185 14:0.13144221317230725 15:0.13649768290970368 16:0.13649768290970368 17:0.15306838927116978 18:0.13649768290970368 20:0.6096053925010533 23:0.5412161213312737 25:0.00968965033000983 
-0.7016810019567158 1:0.2721527875298413 2:0.7237747507372561 3:0.7521415531526471 4:0.4468473528998736 5:0.7000421289144783 6:0.8602724336469597 7:0.2721527875298413 8:0.7239151804521837 9:0.7521415531526471 10:0.4468473528998736 11:0.7000421289144783 12:0.8602724336469597 13:0.09563263586574919 14:0.1814351916865609 15:0.09563263586574919 16:0.06403595000702149 17:0.09563263586574919 18:0.09563263586574919 19:0.7444179188316248 20:0.7781210504142677 22:0.5204325235219772 23:0.5750596826288442 25:0.00968965033000983 
-1.0 3:0.08130880494312596 4:0.005617188597107148 5:0.7310770959134953 6:0.9299255722510883 9:0.08130880494312596 10:0.005617188597107148 11:0.7310770959134953 12:0.9299255722510883 15:0.13860412863361887 16:0.13649768290970368 17:0.09563263586574919 18:0.09563263586574919 19:0.08102794551327061 20:0.01937930066001966 21:0.005055469737396433 22:0.9837101530683893 23:0.027383794410897347 24:0.005055469737396433 25:0.00968965033000983 
