svm_type c_svc
kernel_type linear
nr_class 2
total_sv 53
rho -1.1655931598610796
label -1 3
probA 0.26646628509798115
probB -0.9067797238259402
nr_sv 30 23
SV
1.0 4:0.3705940176941441 5:0.5847493329588541 6:0.30473248139306275 10:0.3705940176941441 11:0.5847493329588541 12:0.30473248139306275 16:0.13860412863361887 17:0.07611290549080185 18:0.13144221317230725 20:0.15503440528015727 21:0.3696110096896503 23:1.404297149276787E-4 24:0.6678837241960399 25:0.00968965033000983 
1.0 1:0.3593596404999298 2:0.8995927538267098 3:0.9827271450638955 4:0.004915040022468754 7:0.3593596404999298 8:0.8995927538267098 9:0.9827271450638955 10:0.004915040022468754 13:0.09563263586574919 14:0.13144221317230725 15:0.13860412863361887 16:0.13649768290970368 20:0.9750035107428732 23:0.27145063895520294 25:0.00968965033000983 
1.0 1:0.9827271450638955 2:0.9644712821232972 3:0.2562842297430136 4:0.004774610307541075 5:0.06361466086223845 6:0.9391939334363151 7:0.9827271450638955 8:0.9644712821232972 9:0.2562842297430136 10:0.004774610307541075 11:0.2846510321584047 12:0.938351355146749 13:0.13860412863361887 14:0.1814351916865609 15:0.13860412863361887 16:0.13649768290970368 17:0.09563263586574919 18:0.07611290549080185 19:0.25502036230866454 20:0.5722510883302907 22:0.4226934419323129 23:0.19140570144642607 25:0.00968965033000983 
1.0 1:0.3297289706501896 2:0.4468473528998736 3:0.3719983148434209 4:0.004774610307541075 5:0.5750596826288442 6:0.7314983850582784 7:0.3297289706501896 8:0.4468473528998736 9:0.3719983148434209 10:0.004774610307541075 11:0.5847493329588541 12:0.7314983850582784 13:0.15306838927116978 14:0.06403595000702149 15:0.13860412863361887 16:0.13649768290970368 17:0.07611290549080185 18:0.13144221317230725 20:0.8371015306838927 23:0.7857042550203623 25:0.00968965033000983 
1.0 1:0.369330150259795 2:0.20278050835556805 3:0.3705940176941441 4:0.004915040022468754 7:0.369330150259795 8:0.20264007864064035 9:0.3705940176941441 10:0.004915040022468754 13:0.13860412863361887 14:0.13144221317230725 15:0.13860412863361887 16:0.13649768290970368 19:0.3696110096896503 20:0.12287600056171886 22:0.6678837241960399 23:0.533211627580396 25:0.010953517764358938 
1.0 1:0.5916303889903104 2:0.4613116135374245 3:0.4288723493891307 4:0.5353180733043111 5:0.9778121050414268 6:0.1878949585732341 7:0.5847493329588541 8:0.4613116135374245 9:0.4288723493891307 10:0.5353180733043111 11:0.9778121050414268 12:0.2576885268922904 13:0.07611290549080185 14:0.13144221317230725 15:0.13860412863361887 16:0.15138323269203763 17:0.15138323269203763 18:0.1814351916865609 20:0.08481954781631794 23:0.9059120909984553 25:0.00968965033000983 
1.0 1:0.5847493329588541 2:0.30473248139306275 3:0.3719983148434209 4:0.24996489257126808 5:0.41454851846650753 6:0.3719983148434209 7:0.5847493329588541 8:0.30473248139306275 9:0.3719983148434209 10:0.24996489257126808 11:0.41454851846650753 12:0.3719983148434209 13:0.07611290549080185 14:0.13144221317230725 15:0.13860412863361887 16:0.13860412863361887 17:0.13144221317230725 18:0.13860412863361887 20:0.12694846229462153 23:0.2214576604409493 25:0.010953517764358938 
1.0 1:0.4288723493891307 2:0.46524364555539954 3:0.9827271450638955 4:0.004774610307541075 5:0.6525768852689229 6:0.836961100968965 7:0.4288723493891307 8:0.46524364555539954 9:0.9827271450638955 10:0.004774610307541075 11:0.6525768852689229 12:0.836961100968965 13:0.13860412863361887 14:0.13144221317230725 15:0.13860412863361887 16:0.13649768290970368 17:0.09563263586574919 18:0.06403595000702149 20:0.12694846229462153 23:0.2214576604409493 25:0.010953517764358938 
1.0 1:0.3719983148434209 2:0.4839207976407808 3:0.1878949585732341 7:0.3719983148434209 8:0.4839207976407808 9:0.2576885268922904 13:0.13860412863361887 14:0.13144221317230725 15:0.1814351916865609 20:0.5722510883302907 23:0.4468473528998736 25:0.00968965033000983 
0.7807291878416049 1:0.4468473528998736 2:0.6685858727706783 3:0.24996489257126808 7:0.4468473528998736 8:0.6685858727706783 9:0.24996489257126808 13:0.06403595000702149 14:0.13144221317230725 15:0.13860412863361887 20:0.29040865047043957 23:0.9474792866170482 25:0.00968965033000983 
0.2565874664639344 1:0.938351355146749 2:0.638533913776155 3:0.24996489257126808 4:0.4468473528998736 5:0.6659177081870524 6:0.638533913776155 7:0.938351355146749 8:0.638533913776155 9:0.24996489257126808 10:0.4468473528998736 11:0.8717876702710293 12:0.638533913776155 13:0.07611290549080185 14:0.13144221317230725 15:0.13860412863361887 16:0.06403595000702149 17:0.07611290549080185 18:0.13144221317230725 20:0.29040865047043957 23:0.9474792866170482 25:0.00968965033000983 
0.26772047458915627 2:0.5847493329588541 3:0.2949024013481253 4:0.4462856340401629 5:0.938351355146749 6:0.30234517623929225 8:0.5847493329588541 9:0.2949024013481253 10:0.9978935542760848 11:0.938351355146749 12:0.30234517623929225 14:0.07611290549080185 15:0.13144221317230725 16:0.1814351916865609 17:0.07611290549080185 18:0.13144221317230725 19:0.29040865047043957 20:0.5750596826288442 21:0.44277489116697094 22:0.6593175115854515 23:0.44277489116697094 24:0.8820390394607499 25:0.00968965033000983 26:0.7777777777777778 
1.0 2:0.10265412161213312 3:0.9827271450638955 4:0.004774610307541075 5:0.18705238028366802 6:0.4468473528998736 8:0.5235219772503862 9:0.9827271450638955 10:0.004774610307541075 11:0.18705238028366802 12:0.4468473528998736 14:0.13144221317230725 15:0.13860412863361887 16:0.13649768290970368 17:0.15306838927116978 18:0.06403595000702149 20:0.12694846229462153 23:0.42634461452043254 25:0.00968965033000983 
0.023419065478779786 1:0.9827271450638955 2:0.12708889200954923 3:0.004774610307541075 4:0.4468473528998736 5:0.17778401909844124 6:0.1293357674483921 7:0.9827271450638955 8:0.12708889200954923 9:0.004774610307541075 10:0.4468473528998736 11:0.9198146327762955 12:0.6382530543462996 13:0.13860412863361887 14:0.15306838927116978 15:0.13649768290970368 16:0.06403595000702149 17:0.13144221317230725 18:0.13144221317230725 20:0.18691195056874035 23:0.6535598932734167 25:0.00968965033000983 
0.3773966053617317 1:0.3719983148434209 2:0.7090296306698497 3:0.6090436736413425 4:0.00435332116275804 5:0.004915040022468754 7:0.3719983148434209 8:0.7090296306698497 9:0.6090436736413425 10:0.00435332116275804 11:0.004915040022468754 13:0.13860412863361887 14:0.13144221317230725 15:0.13144221317230725 16:0.13649768290970368 17:0.13649768290970368 20:0.04578008706642325 23:4.212891447830361E-4 25:0.00968965033000983 
0.6393770111533313 4:0.4462856340401629 5:0.20081449234658053 6:0.4468473528998736 10:0.9978935542760848 11:0.20081449234658053 12:0.4468473528998736 16:0.1814351916865609 17:0.09563263586574919 18:0.06403595000702149 20:0.5847493329588541 21:0.44277489116697094 23:0.5226793989608202 24:0.8820390394607499 25:0.00968965033000983 
0.4275671264083677 1:0.8731919674203061 2:0.3719983148434209 3:0.5750596826288442 4:0.2562842297430136 5:0.9203763516360062 6:0.938351355146749 7:0.8731919674203061 8:0.3719983148434209 9:0.5847493329588541 10:0.2562842297430136 11:0.9203763516360062 12:0.938351355146749 13:0.13144221317230725 14:0.13860412863361887 15:0.07611290549080185 16:0.13860412863361887 17:0.09563263586574919 18:0.07611290549080185 20:0.32144361746945654 21:0.25502036230866454 23:0.24490942283387165 24:0.4226934419323129 25:0.00968965033000983 
1.0 1:0.3705940176941441 2:0.30276646538407526 3:0.2949024013481253 4:9.83008004493751E-4 5:9.83008004493751E-4 6:9.83008004493751E-4 7:0.3705940176941441 8:0.30276646538407526 9:0.2949024013481253 10:9.83008004493751E-4 11:9.83008004493751E-4 12:9.83008004493751E-4 13:0.13860412863361887 14:0.07611290549080185 15:0.13144221317230725 16:0.13649768290970368 17:0.13649768290970368 18:0.13649768290970368 19:0.29040865047043957 20:0.4002246875438843 22:0.6593175115854515 23:0.012638674343491082 25:0.00968965033000983 
1.0 1:0.4371577025698638 2:0.6330571548939755 3:0.4468473528998736 4:0.004774610307541075 5:0.6126948462294621 6:0.653840752703272 7:0.4371577025698638 8:0.6330571548939755 9:0.4468473528998736 10:0.004774610307541075 11:0.6126948462294621 12:0.653840752703272 13:0.13860412863361887 14:0.15306838927116978 15:0.06403595000702149 16:0.13649768290970368 17:0.13144221317230725 18:0.09563263586574919 25:0.00968965033000983 
1.0 1:0.24996489257126808 2:0.6413425080747086 3:0.3719983148434209 4:0.6121331273697515 5:0.2721527875298413 6:0.3705940176941441 7:0.24996489257126808 8:0.6406403595000703 9:0.3719983148434209 10:0.6121331273697515 11:0.2721527875298413 12:0.3705940176941441 13:0.13860412863361887 14:0.13144221317230725 15:0.13860412863361887 16:0.06403595000702149 17:0.09563263586574919 18:0.13860412863361887 20:0.5667743294481112 21:0.6096053925010533 23:0.5412161213312737 24:0.5589102654121613 25:0.00968965033000983 
1.0 1:0.3705940176941441 2:0.5916303889903104 3:0.22763656789776718 4:0.00435332116275804 5:0.004915040022468754 7:0.3705940176941441 8:0.5847493329588541 9:0.2273557084679118 10:0.00435332116275804 11:0.004915040022468754 13:0.13860412863361887 14:0.07611290549080185 15:0.13144221317230725 16:0.13649768290970368 17:0.13649768290970368 19:0.2214576604409493 20:0.015587698356972336 22:0.44277489116697094 23:0.03412442072742592 25:0.00968965033000983 
1.0 1:0.7597247577587417 2:0.3719983148434209 3:0.5750596826288442 4:0.004774610307541075 5:0.7521415531526471 6:0.4002246875438843 7:0.7597247577587417 8:0.3719983148434209 9:0.5847493329588541 10:0.004774610307541075 11:0.7521415531526471 12:0.4002246875438843 13:0.09563263586574919 14:0.13860412863361887 15:0.07611290549080185 16:0.13649768290970368 17:0.1814351916865609 18:0.07611290549080185 20:0.49318915882600756 23:0.30276646538407526 25:0.00968965033000983 
0.515221064987033 2:0.17525628422974301 3:0.4468473528998736 4:0.48237607077657635 5:0.43519168656087626 6:0.938351355146749 8:0.17525628422974301 9:0.4468473528998736 10:0.482516500491504 11:0.43519168656087626 12:0.938351355146749 14:0.15306838927116978 15:0.06403595000702149 16:0.1814351916865609 17:0.09563263586574919 18:0.07611290549080185 20:0.17483499508495998 21:0.4791461873332397 23:0.30276646538407526 24:0.6680241539109676 25:0.00968965033000983 26:0.2222222222222222 
0.8520005545016345 1:0.5353180733043111 2:0.9778121050414268 3:0.1878949585732341 4:0.7750315966858587 5:0.938351355146749 6:0.9827271450638955 7:0.5353180733043111 8:0.9778121050414268 9:0.2576885268922904 10:0.7751720264007864 11:0.938351355146749 12:0.9827271450638955 13:0.15138323269203763 14:0.15138323269203763 15:0.1814351916865609 16:0.07611290549080185 17:0.07611290549080185 18:0.13860412863361887 20:0.02345176239292234 21:0.7713804240977391 23:0.02345176239292234 24:0.9370874877123999 25:0.00968965033000983 
1.0 1:0.5311051818564808 2:0.7093104900997051 3:0.5722510883302907 4:0.004915040022468754 7:0.5311051818564808 8:0.7093104900997051 9:0.5847493329588541 10:0.004915040022468754 13:0.13144221317230725 14:0.13860412863361887 15:0.07611290549080185 16:0.13649768290970368 20:0.9915742171043392 23:0.9358236202780509 25:0.00968965033000983 
0.3760287314540193 1:0.3719983148434209 2:0.6285634040162899 3:0.004212891447830361 7:0.3719983148434209 8:0.6285634040162899 9:0.004212891447830361 13:0.13860412863361887 14:0.13144221317230725 15:0.13649768290970368 20:0.2603566914759163 23:2.808594298553574E-4 25:0.00968965033000983 
0.04522240132669417 1:0.11683752281982868 2:0.6676028647661846 3:0.24926274399662968 4:0.4462856340401629 5:0.9331554556944249 6:0.2721527875298413 7:0.5847493329588541 8:0.6671815756214015 9:0.24926274399662968 10:0.9978935542760848 11:0.9331554556944249 12:0.2721527875298413 13:0.07611290549080185 14:0.09563263586574919 15:0.13144221317230725 16:0.1814351916865609 17:0.09563263586574919 18:0.09563263586574919 19:0.24490942283387165 20:0.16683050133408228 21:0.44277489116697094 22:0.6772925150961944 23:0.6796798202499649 24:0.8820390394607499 25:0.00968965033000983 
1.0 3:0.14071057435753406 4:0.4288723493891307 5:0.3875860132003932 6:0.3719983148434209 9:0.14071057435753406 10:0.4288723493891307 11:0.3875860132003932 12:0.3719983148434209 15:0.13144221317230725 16:0.13860412863361887 17:0.13144221317230725 18:0.13860412863361887 19:0.14057014464260636 20:0.1159949445302626 22:0.08355568038196882 23:0.132425221176801 25:0.00968965033000983 
0.8398730503987523 3:0.16500491504002246 4:0.4468473528998736 5:0.25431821373402613 6:0.3335205729532369 9:0.16500491504002246 10:0.4468473528998736 11:0.25403735430417074 12:0.3333801432383092 15:0.06403595000702149 16:0.06403595000702149 17:0.09563263586574919 18:0.13144221317230725 19:0.16458362589523942 20:0.18354163741047605 22:0.6772925150961944 23:0.21190843982586716 25:0.00968965033000983 
0.59885726003496 1:0.031596685858727706 2:0.004493750877685719 3:0.0071619154613116135 4:0.004774610307541075 5:0.7000421289144783 6:0.24364555539952254 7:0.031596685858727706 8:0.004493750877685719 9:0.0071619154613116135 10:0.004774610307541075 11:0.7000421289144783 12:0.24364555539952254 13:0.09563263586574919 14:0.13144221317230725 15:0.13860412863361887 16:0.13649768290970368 17:0.09563263586574919 18:0.09563263586574919 19:0.007021485746383935 20:0.13088049431259655 22:0.6678837241960399 23:0.6827692739783738 25:0.00968965033000983 
-1.0 2:0.171324252211768 3:0.4288723493891307 4:0.4468473528998736 5:0.02022187894958573 6:0.24996489257126808 8:0.171324252211768 9:0.4288723493891307 10:0.4468473528998736 11:0.02022187894958573 12:0.24996489257126808 14:0.09563263586574919 15:0.13860412863361887 16:0.06403595000702149 17:0.15306838927116978 18:0.13860412863361887 20:0.01937930066001966 23:0.011655666338997332 25:0.00968965033000983 
-1.0 1:0.4288723493891307 2:0.020081449234658055 3:0.4468473528998736 4:0.24996489257126808 5:0.07723634321022328 7:0.4288723493891307 8:0.020081449234658055 9:0.4468473528998736 10:0.24996489257126808 11:0.07723634321022328 13:0.13860412863361887 14:0.15306838927116978 15:0.06403595000702149 16:0.13860412863361887 17:0.15306838927116978 20:0.01937930066001966 23:0.012638674343491082 25:0.00968965033000983 
-1.0 1:0.9391939334363151 2:0.8505827833169499 3:0.4002246875438843 4:0.48616767307962366 5:0.5611571408510041 6:0.2016570706361466 7:0.938351355146749 8:0.8505827833169499 9:0.4002246875438843 10:0.48616767307962366 11:0.5611571408510041 12:0.20137621120629126 13:0.07611290549080185 14:0.13144221317230725 15:0.13860412863361887 16:0.09563263586574919 17:0.09563263586574919 18:0.1814351916865609 20:0.024434770397416095 21:0.48546552450498526 23:0.9413003791602303 24:0.6680241539109676 25:0.00968965033000983 
-1.0 1:0.9771099564667883 2:0.70537845808173 3:0.4288723493891307 7:0.9771099564667883 8:0.7063614660862239 9:0.4288723493891307 13:0.09563263586574919 14:0.1814351916865609 15:0.13860412863361887 20:0.01937930066001966 23:0.012638674343491082 25:0.00968965033000983 
-1.0 1:0.00954922061508215 2:0.7508776857182979 3:0.004212891447830361 4:0.00435332116275804 5:0.004915040022468754 6:0.7152085381266676 7:0.00954922061508215 8:0.7508776857182979 9:0.004212891447830361 10:0.00435332116275804 11:0.004915040022468754 12:0.7152085381266676 13:0.13860412863361887 14:0.13144221317230725 15:0.13649768290970368 16:0.13649768290970368 17:0.13649768290970368 18:0.13144221317230725 20:0.8477741890183963 23:0.7857042550203623 25:0.00968965033000983 26:0.0 
-1.0 3:0.2953236904929083 4:9.83008004493751E-4 5:9.83008004493751E-4 6:9.83008004493751E-4 9:0.29546412020783597 10:9.83008004493751E-4 11:9.83008004493751E-4 12:9.83008004493751E-4 15:0.15306838927116978 16:0.13649768290970368 17:0.13649768290970368 18:0.13649768290970368 19:0.29040865047043957 20:0.01937930066001966 22:0.4468473528998736 23:0.012638674343491082 25:0.00968965033000983 
-1.0 1:0.014183401207695548 2:0.5663530403033282 3:0.004212891447830361 4:0.4468473528998736 5:0.016991995506249122 6:0.00435332116275804 7:0.014183401207695548 8:0.5655104620137621 9:0.004212891447830361 10:0.4468473528998736 11:0.016991995506249122 12:0.00435332116275804 13:0.07611290549080185 14:0.13144221317230725 15:0.13649768290970368 16:0.06403595000702149 17:0.15306838927116978 18:0.13649768290970368 20:0.3719983148434209 23:0.4468473528998736 25:0.00968965033000983 
-1.0 1:0.004212891447830361 2:0.37803679258531103 3:0.4468473528998736 4:0.00435332116275804 5:0.004915040022468754 7:0.004212891447830361 8:0.3773346440106727 9:0.4468473528998736 10:0.00435332116275804 11:0.004915040022468754 13:0.13649768290970368 14:0.15306838927116978 15:0.06403595000702149 16:0.13649768290970368 17:0.13649768290970368 20:0.016570706361466087 23:0.012638674343491082 25:0.00968965033000983 
-1.0 1:0.24996489257126808 2:0.6413425080747086 3:0.3719983148434209 4:0.004774610307541075 5:0.5353180733043111 6:0.4462856340401629 7:0.24996489257126808 8:0.6406403595000703 9:0.3719983148434209 10:0.004774610307541075 11:0.5353180733043111 12:0.9978935542760848 13:0.13860412863361887 14:0.13144221317230725 15:0.13860412863361887 16:0.13649768290970368 17:0.15138323269203763 18:0.1814351916865609 20:0.5667743294481112 23:0.4468473528998736 25:0.00968965033000983 
-1.0 1:0.7087487712399944 2:0.004212891447830361 3:0.40457800870664234 4:0.3329588540935262 5:0.30276646538407526 6:0.8533913776155034 7:0.7087487712399944 8:0.004212891447830361 9:0.40457800870664234 10:0.3329588540935262 11:0.30276646538407526 12:0.9978935542760848 13:0.13144221317230725 14:0.13649768290970368 15:0.13144221317230725 16:0.09563263586574919 17:0.13860412863361887 18:0.1814351916865609 19:0.4035950007021486 20:0.5667743294481112 21:0.3277629546412021 22:0.9413003791602303 23:0.4468473528998736 24:0.6680241539109676 25:0.00968965033000983 
-1.0 3:0.08622384496559472 4:0.04957168936947058 5:0.8195478163179328 6:0.9827271450638955 9:0.08622384496559472 10:0.04957168936947058 11:0.8195478163179328 12:0.9827271450638955 15:0.13860412863361887 16:0.15306838927116978 17:0.13860412863361887 18:0.13860412863361887 20:0.5667743294481112 21:0.049431259654542904 23:0.4468473528998736 24:0.9413003791602303 25:0.00968965033000983 
-1.0 1:0.2273557084679118 2:0.37747507372560035 3:0.4288723493891307 4:0.938351355146749 5:0.33197584608903247 6:0.3719983148434209 7:0.2273557084679118 8:0.37747507372560035 9:0.4288723493891307 10:0.938351355146749 11:0.33197584608903247 12:0.3719983148434209 13:0.13144221317230725 14:0.09563263586574919 15:0.13860412863361887 16:0.07611290549080185 17:0.13144221317230725 18:0.13860412863361887 20:0.5667743294481112 23:0.4468473528998736 25:0.00968965033000983 
-1.0 1:0.004774610307541075 2:0.4718438421570004 3:0.4288723493891307 4:0.00435332116275804 5:0.5527313579553433 6:0.4288723493891307 7:0.004774610307541075 8:0.47142255301221736 9:0.4288723493891307 10:0.00435332116275804 11:0.5527313579553433 12:0.4288723493891307 13:0.13649768290970368 14:0.1814351916865609 15:0.13860412863361887 16:0.13649768290970368 17:0.13144221317230725 18:0.13860412863361887 20:0.8477741890183963 23:0.7857042550203623 25:0.00968965033000983 26:0.0 
-1.0 2:0.8995927538267098 3:0.4288723493891307 4:0.03903946074989468 5:0.7553714365959837 8:0.8995927538267098 9:0.4288723493891307 10:0.03903946074989468 11:0.7553714365959837 14:0.13144221317230725 15:0.13860412863361887 16:0.13649768290970368 17:0.13144221317230725 20:0.8477741890183963 23:0.7857042550203623 25:0.00968965033000983 26:0.0 
-1.0 1:0.6669007161915461 2:0.9778121050414268 3:0.9936806628282545 4:0.4468473528998736 5:0.9384917848616767 6:9.83008004493751E-4 7:0.6060946496278613 8:0.9778121050414268 9:0.9978935542760848 10:0.4468473528998736 11:0.9384917848616767 12:9.83008004493751E-4 13:0.15138323269203763 14:0.15138323269203763 15:0.1814351916865609 16:0.06403595000702149 17:0.15306838927116978 18:0.13649768290970368 19:0.9915742171043392 20:0.3719983148434209 22:0.6678837241960399 23:0.9987361325656509 25:0.00968965033000983 
-1.0 1:0.9936806628282545 2:0.37789636287038336 3:0.4468473528998736 4:9.83008004493751E-4 5:9.83008004493751E-4 6:0.00435332116275804 7:0.9978935542760848 8:0.37719421429574496 9:0.4468473528998736 10:9.83008004493751E-4 11:9.83008004493751E-4 12:0.00435332116275804 13:0.1814351916865609 14:0.15306838927116978 15:0.06403595000702149 16:0.13649768290970368 17:0.13649768290970368 18:0.13649768290970368 20:0.938351355146749 23:0.3829518326077798 25:0.00968965033000983 
-1.0 1:0.9080185367223704 2:0.1147310770959135 3:0.4288723493891307 4:0.46833309928380845 5:0.3719983148434209 6:0.7237747507372561 7:0.9078781070074428 8:0.5858727706782755 9:0.4288723493891307 10:0.46833309928380845 11:0.3719983148434209 12:0.7237747507372561 13:0.1814351916865609 14:0.15306838927116978 15:0.13860412863361887 16:0.13144221317230725 17:0.13860412863361887 18:0.13144221317230725 20:0.01937930066001966 21:0.45990731638814775 23:0.011655666338997332 24:0.9059120909984553 25:0.00968965033000983 
-1.0 1:0.43055750596826287 2:0.9827271450638955 3:0.6993399803398399 4:0.005195899452324112 5:0.5607358517062211 6:0.20783597809296447 7:0.43055750596826287 8:0.9827271450638955 9:0.6993399803398399 10:0.005195899452324112 11:0.5607358517062211 12:0.2576885268922904 13:0.09563263586574919 14:0.13860412863361887 15:0.1814351916865609 16:0.13649768290970368 17:0.15138323269203763 18:0.1814351916865609 19:0.6871225951411318 20:0.4002246875438843 21:0.005055469737396433 22:0.5583485465524505 23:0.012638674343491082 24:0.005055469737396433 25:0.00968965033000983 
-1.0 3:0.09352619014183401 4:0.03903946074989468 5:0.2513691897205449 6:0.22398539530964753 9:0.4753545850301924 10:0.03903946074989468 11:0.25122876000561717 12:0.22398539530964753 15:0.13144221317230725 16:0.13649768290970368 17:0.07611290549080185 18:0.13144221317230725 19:0.09338576042690633 20:0.8477741890183963 22:0.5412161213312737 23:0.7857042550203623 25:0.00968965033000983 26:0.0 
-1.0 1:0.25726723774750737 2:0.9005757618312035 3:0.4288723493891307 4:0.00435332116275804 5:0.004774610307541075 6:0.6772925150961944 7:0.2576885268922904 8:0.9005757618312035 9:0.4288723493891307 10:0.00435332116275804 11:0.004774610307541075 12:0.6772925150961944 13:0.1814351916865609 14:0.09563263586574919 15:0.13860412863361887 16:0.13649768290970368 17:0.13649768290970368 18:0.15138323269203763 20:0.01937930066001966 23:0.011655666338997332 25:0.00968965033000983 
-1.0 1:0.4002246875438843 2:0.010391798904648223 3:0.24996489257126808 4:0.3705940176941441 5:0.938351355146749 6:0.6379721949164443 7:0.4002246875438843 8:0.010391798904648223 9:0.24996489257126808 10:0.3705940176941441 11:0.938351355146749 12:0.6379721949164443 13:0.07611290549080185 14:0.15306838927116978 15:0.13860412863361887 16:0.13860412863361887 17:0.07611290549080185 18:0.13144221317230725 20:0.01937930066001966 21:0.3696110096896503 23:0.013481252633057154 24:0.6678837241960399 25:0.00968965033000983 
-1.0 1:0.8995927538267098 2:0.25853110518185646 3:0.4468473528998736 4:0.004774610307541075 5:0.5311051818564808 6:0.9331554556944249 7:0.8995927538267098 8:0.25853110518185646 9:0.4468473528998736 10:0.004774610307541075 11:0.5311051818564808 12:0.9331554556944249 13:0.13860412863361887 14:0.15306838927116978 15:0.06403595000702149 16:0.13649768290970368 17:0.13144221317230725 18:0.09563263586574919 20:0.01937930066001966 23:0.012638674343491082 25:0.00968965033000983 
-1.0 1:0.24996489257126808 2:0.6413425080747086 3:0.369330150259795 4:0.004774610307541075 5:0.7168936947057998 6:0.3719983148434209 7:0.24996489257126808 8:0.6406403595000703 9:0.369330150259795 10:0.004774610307541075 11:0.7168936947057998 12:0.3719983148434209 13:0.13860412863361887 14:0.13144221317230725 15:0.13860412863361887 16:0.13649768290970368 17:0.09563263586574919 18:0.13860412863361887 20:0.05378458081730094 23:0.5353180733043111 25:0.00968965033000983 
