svm_type c_svc
kernel_type linear
nr_class 2
total_sv 90
rho 1.0831268420301714
label -1 6
probA -1.9725519107481777
probB 0.13863185608196418
nr_sv 45 45
SV
1.0 1:0.7160511164162336 2:0.41173992416795396 3:0.9827271450638955 4:0.24996489257126808 5:0.5942985535739362 6:0.3719983148434209 7:0.7160511164162336 8:0.41173992416795396 9:0.9827271450638955 10:0.24996489257126808 11:0.5942985535739362 12:0.3719983148434209 13:0.09563263586574919 14:0.13144221317230725 15:0.13860412863361887 16:0.13860412863361887 17:0.13144221317230725 18:0.13860412863361887 25:0.00968965033000983 
0.6826826986948852 1:0.004774610307541075 2:0.3962926555259093 3:0.5750596826288442 4:0.4468473528998736 5:0.6080606656368488 6:0.004774610307541075 7:0.004774610307541075 8:0.3962926555259093 9:0.5847493329588541 10:0.4468473528998736 11:0.6080606656368488 12:0.004774610307541075 13:0.13649768290970368 14:0.13860412863361887 15:0.07611290549080185 16:0.06403595000702149 17:0.09563263586574919 18:0.13649768290970368 20:0.15840471843842158 23:0.2214576604409493 25:0.00968965033000983 
1.0 1:0.7407667462435051 2:0.5919112484201657 3:0.4468473528998736 4:0.00870664232551608 5:0.04058418761409914 6:0.922201937930066 7:0.7407667462435051 8:0.5871366381126246 9:0.4468473528998736 10:0.00870664232551608 11:0.04058418761409914 12:0.922201937930066 13:0.13860412863361887 14:0.15306838927116978 15:0.06403595000702149 16:0.13144221317230725 17:0.13144221317230725 18:0.09563263586574919 20:0.5750596826288442 21:0.008425782895660722 23:0.7857042550203623 24:0.5299817441370595 25:0.00968965033000983 
1.0 1:0.6653559893273416 2:0.5330711978654683 3:0.8585872770678276 4:0.4468473528998736 5:0.6639516921780649 6:0.922201937930066 7:0.6654964190422693 8:0.5330711978654683 9:0.8585872770678276 10:0.4468473528998736 11:0.6639516921780649 12:0.922201937930066 13:0.1814351916865609 14:0.09563263586574919 15:0.09563263586574919 16:0.06403595000702149 17:0.09563263586574919 18:0.09563263586574919 19:0.8477741890183963 20:0.8180030894537285 22:0.6680241539109676 23:0.44277489116697094 25:0.00968965033000983 
1.0 4:0.03903946074989468 5:0.00435332116275804 10:0.03903946074989468 11:0.00435332116275804 16:0.13649768290970368 17:0.13649768290970368 20:0.17483499508495998 23:0.3696110096896503 25:0.00968965033000983 26:0.2222222222222222 
1.0 20:0.17483499508495998 23:0.3696110096896503 25:0.00968965033000983 26:0.2222222222222222 
1.0 3:0.14071057435753406 4:0.4288723493891307 5:0.3875860132003932 6:0.3719983148434209 9:0.14071057435753406 10:0.4288723493891307 11:0.3875860132003932 12:0.3719983148434209 15:0.13144221317230725 16:0.13860412863361887 17:0.13144221317230725 18:0.13860412863361887 19:0.14057014464260636 20:0.1159949445302626 22:0.08355568038196882 23:0.132425221176801 25:0.00968965033000983 
0.8162044501407115 1:0.38014323830922625 2:0.37859851144502177 3:0.25431821373402613 4:0.4462856340401629 5:0.5847493329588541 6:0.7310770959134953 7:0.38014323830922625 8:0.938351355146749 9:0.25403735430417074 10:0.9978935542760848 11:0.5847493329588541 12:0.7310770959134953 13:0.13144221317230725 14:0.07611290549080185 15:0.09563263586574919 16:0.1814351916865609 17:0.07611290549080185 18:0.09563263586574919 19:0.24996489257126808 20:0.11838224968403314 21:0.44277489116697094 22:0.44277489116697094 23:0.040724617329026824 24:0.8820390394607499 25:0.00968965033000983 
1.0 1:0.044937508776857184 2:0.8995927538267098 3:0.24996489257126808 7:0.2064316809436877 8:0.8995927538267098 9:0.24996489257126808 13:0.09563263586574919 14:0.13144221317230725 15:0.13860412863361887 20:0.17483499508495998 23:0.42634461452043254 25:0.00968965033000983 26:0.2222222222222222 
0.09460215759828976 1:0.2949024013481253 2:0.3719983148434209 3:0.5750596826288442 4:0.4468473528998736 5:0.3719983148434209 6:0.11697795253475636 7:0.2949024013481253 8:0.3719983148434209 9:0.5847493329588541 10:0.4468473528998736 11:0.3719983148434209 12:0.5848897626737818 13:0.13144221317230725 14:0.13860412863361887 15:0.07611290549080185 16:0.06403595000702149 17:0.13860412863361887 18:0.15306838927116978 20:0.2603566914759163 23:0.44277489116697094 25:0.00968965033000983 26:0.7777777777777778 
1.0 1:0.004212891447830361 2:0.07541075691616346 3:0.004774610307541075 4:0.00435332116275804 7:0.004212891447830361 8:0.07541075691616346 9:0.004774610307541075 10:0.00435332116275804 13:0.13649768290970368 14:0.15306838927116978 15:0.13649768290970368 16:0.13649768290970368 20:0.13270608060665637 23:0.5583485465524505 25:0.00968965033000983 
1.0 1:0.6772925150961944 2:0.8122454711416935 3:0.4288723493891307 4:0.4468473528998736 5:0.4288723493891307 6:0.22890043533211626 7:0.6772925150961944 8:0.8123859008566212 9:0.4288723493891307 10:0.4468473528998736 11:0.4288723493891307 12:0.22890043533211626 13:0.15138323269203763 14:0.1814351916865609 15:0.13860412863361887 16:0.06403595000702149 17:0.13860412863361887 18:0.15306838927116978 20:0.6096053925010533 23:0.20783597809296447 25:0.00968965033000983 
1.0 1:0.2513691897205449 2:0.22398539530964753 3:0.4288723493891307 4:0.004212891447830361 5:0.21640219070355288 6:0.7744698778261481 7:0.25122876000561717 8:0.22398539530964753 9:0.4288723493891307 10:0.004212891447830361 11:0.21640219070355288 12:0.7744698778261481 13:0.07611290549080185 14:0.13144221317230725 15:0.13860412863361887 16:0.13649768290970368 17:0.09563263586574919 18:0.06403595000702149 20:0.5667743294481112 23:0.5412161213312737 25:0.00968965033000983 
1.0 1:0.08313439123718579 2:0.07681505406544024 3:0.5722510883302907 4:9.83008004493751E-4 5:0.03932032017975003 6:0.2630248560595422 7:0.08313439123718579 8:0.07681505406544024 9:0.5847493329588541 10:9.83008004493751E-4 11:0.03932032017975003 12:0.2630248560595422 13:0.09563263586574919 14:0.13860412863361887 15:0.07611290549080185 16:0.13649768290970368 17:0.13860412863361887 18:0.13144221317230725 20:0.42550203623086646 23:0.9059120909984553 25:0.00968965033000983 
1.0 1:0.016851565791321445 2:0.9237466647942705 3:0.4181996910546272 4:0.4002246875438843 5:0.6226653559893274 6:0.00435332116275804 7:0.016851565791321445 8:0.9237466647942705 9:0.4181996910546272 10:0.4002246875438843 11:0.6226653559893274 12:0.00435332116275804 13:0.07611290549080185 14:0.13144221317230725 15:0.09563263586574919 16:0.07611290549080185 17:0.13144221317230725 18:0.13649768290970368 19:0.4035950007021486 20:0.033141412722932174 22:0.9914337873894116 23:0.027383794410897347 25:0.00968965033000983 
1.0 1:0.9818845667743294 2:0.5434629967701166 3:0.24996489257126808 4:0.7760146046903524 5:0.4634180592613397 6:0.6979356831905631 7:0.9818845667743294 8:0.5431821373402612 9:0.24996489257126808 10:0.7760146046903524 11:0.462435051256846 12:0.6979356831905631 13:0.13860412863361887 14:0.09563263586574919 15:0.13860412863361887 16:0.13860412863361887 17:0.1814351916865609 18:0.13144221317230725 20:0.07147872489818846 21:0.7713804240977391 23:0.7781210504142677 24:0.937508776857183 25:0.00968965033000983 
1.0 1:0.24996489257126808 2:0.5942985535739362 3:0.3719983148434209 4:0.6646538407527033 7:0.24996489257126808 8:0.5942985535739362 9:0.3719983148434209 10:0.6646538407527033 13:0.13860412863361887 14:0.13144221317230725 15:0.13860412863361887 16:0.09563263586574919 21:0.661704816739222 24:0.6680241539109676 25:0.00968965033000983 
1.0 2:0.11459064738098582 3:0.5311051818564808 4:0.004774610307541075 5:0.8477741890183963 6:0.9318915882600758 8:0.5847493329588541 9:0.5311051818564808 10:0.004774610307541075 11:0.8477741890183963 12:0.9323128774048589 14:0.07611290549080185 15:0.13144221317230725 16:0.13649768290970368 17:0.15138323269203763 18:0.1814351916865609 19:0.5309647521415531 20:0.12568459486027245 22:0.42634461452043254 23:4.212891447830361E-4 25:0.00968965033000983 26:0.4444444444444444 
1.0 1:0.30276646538407526 2:0.8533913776155034 3:0.4753545850301924 4:0.005195899452324112 5:0.00435332116275804 7:0.30276646538407526 8:0.9978935542760848 9:0.4753545850301924 10:0.005195899452324112 11:0.00435332116275804 13:0.13860412863361887 14:0.1814351916865609 15:0.09563263586574919 16:0.13649768290970368 17:0.13649768290970368 19:0.4735289987361326 20:0.22861957590226092 21:0.005055469737396433 22:0.5412161213312737 23:0.9987361325656509 24:0.005055469737396433 25:0.00968965033000983 
1.0 1:0.11136076393764921 2:0.2553012217385199 3:0.972475775874175 4:0.2562842297430136 5:0.6301081308804943 6:0.43210223283246735 7:0.11136076393764921 8:0.2576885268922904 9:0.9644712821232972 10:0.2562842297430136 11:0.8717876702710293 12:0.4319618031175397 13:0.15138323269203763 14:0.1814351916865609 15:0.1814351916865609 16:0.13860412863361887 17:0.07611290549080185 18:0.13144221317230725 20:0.12287600056171886 21:0.25502036230866454 23:0.6563684875719702 24:0.4226934419323129 25:0.00968965033000983 
1.0 1:0.43210223283246735 2:0.5847493329588541 3:0.7043954500772364 4:0.6121331273697515 5:0.7000421289144783 6:0.38056452745400926 7:0.4319618031175397 8:0.5847493329588541 9:0.7043954500772364 10:0.6121331273697515 11:0.7000421289144783 12:0.38056452745400926 13:0.13144221317230725 14:0.07611290549080185 15:0.13144221317230725 16:0.06403595000702149 17:0.09563263586574919 18:0.09563263586574919 19:0.6871225951411318 20:0.05898048026962505 21:0.6096053925010533 22:0.6565089172868979 23:0.498244628563404 24:0.5589102654121613 25:0.00968965033000983 
0.963433485290777 1:0.004212891447830361 2:0.7597247577587417 3:0.3719983148434209 4:0.004774610307541075 5:0.0579974722651313 6:0.004774610307541075 7:0.004212891447830361 8:0.7597247577587417 9:0.3719983148434209 10:0.004774610307541075 11:0.0579974722651313 12:0.004774610307541075 13:0.13649768290970368 14:0.13860412863361887 15:0.13860412863361887 16:0.13649768290970368 17:0.15306838927116978 18:0.13649768290970368 20:0.29040865047043957 23:0.5589102654121613 25:0.00968965033000983 
1.0 1:0.2064316809436877 2:0.8995927538267098 3:0.004212891447830361 4:0.00435332116275804 7:0.2064316809436877 8:0.8995927538267098 9:0.004212891447830361 10:0.00435332116275804 13:0.09563263586574919 14:0.13144221317230725 15:0.13649768290970368 16:0.13649768290970368 20:0.10433927819126528 23:0.5329307681505406 25:0.00968965033000983 26:0.2222222222222222 
1.0 1:0.9331554556944249 2:0.7570565931751159 3:0.2562842297430136 7:0.9331554556944249 8:0.7570565931751159 9:0.2562842297430136 13:0.09563263586574919 14:0.09563263586574919 15:0.13860412863361887 19:0.25502036230866454 20:0.938351355146749 22:0.4226934419323129 23:0.8209521134672096 25:0.00968965033000983 
1.0 1:0.25389692458924307 2:0.3719983148434209 3:0.5750596826288442 4:0.004212891447830361 5:0.6188737536862801 6:0.004774610307541075 7:0.25389692458924307 8:0.3719983148434209 9:0.5847493329588541 10:0.004212891447830361 11:0.6188737536862801 12:0.004774610307541075 13:0.13144221317230725 14:0.13860412863361887 15:0.07611290549080185 16:0.13649768290970368 17:0.13144221317230725 18:0.13649768290970368 20:0.1411318635023171 23:0.7857042550203623 25:0.00968965033000983 
1.0 1:0.938351355146749 2:0.5260497121190844 3:0.1878949585732341 4:0.29026822075551184 5:0.4462856340401629 6:0.572531947760146 7:0.938351355146749 8:0.5260497121190844 9:0.2576885268922904 10:0.29026822075551184 11:0.9978935542760848 12:0.5868557786827693 13:0.07611290549080185 14:0.13144221317230725 15:0.1814351916865609 16:0.15138323269203763 17:0.1814351916865609 18:0.15306838927116978 20:0.2603566914759163 23:0.6565089172868979 25:0.00968965033000983 
1.0 1:0.04858868136497683 2:0.10124982446285634 3:0.4468473528998736 4:0.21331273697514394 5:0.11388849880634742 7:0.22370453587979217 8:0.10124982446285634 9:0.4468473528998736 10:0.21331273697514394 11:0.11388849880634742 13:0.13144221317230725 14:0.15306838927116978 15:0.06403595000702149 16:0.09563263586574919 17:0.13144221317230725 20:0.11346720966156439 21:0.21190843982586716 23:0.5364415110237326 24:0.24238168796517343 25:0.00968965033000983 
1.0 1:0.0513972756635304 2:0.4468473528998736 3:0.3719983148434209 7:0.0513972756635304 8:0.4468473528998736 9:0.3719983148434209 13:0.15306838927116978 14:0.06403595000702149 15:0.13860412863361887 20:0.13270608060665637 23:0.5935964049992979 25:0.00968965033000983 
1.0 1:0.4468473528998736 2:0.9203763516360062 3:0.4288723493891307 4:0.004915040022468754 7:0.4468473528998736 8:0.9203763516360062 9:0.4288723493891307 10:0.004915040022468754 13:0.06403595000702149 14:0.09563263586574919 15:0.13860412863361887 16:0.13649768290970368 20:0.22861957590226092 23:0.9413003791602303 25:0.00968965033000983 
1.0 1:0.8717876702710293 2:0.443617469456537 3:0.9827271450638955 4:0.5722510883302907 5:0.9962083976969527 6:0.004915040022468754 7:0.8717876702710293 8:0.443617469456537 9:0.9827271450638955 10:0.5847493329588541 11:0.9962083976969527 12:0.004915040022468754 13:0.07611290549080185 14:0.13144221317230725 15:0.13860412863361887 16:0.07611290549080185 17:0.13144221317230725 18:0.13649768290970368 20:0.2359219210785002 23:0.8592894256424659 25:0.00968965033000983 
0.48122916918334896 1:0.5607358517062211 2:0.20783597809296447 3:0.9609605392501053 4:0.24996489257126808 5:0.7496138182839489 6:0.004774610307541075 7:0.5607358517062211 8:0.2576885268922904 9:0.9602583906754669 10:0.24996489257126808 11:0.7496138182839489 12:0.004774610307541075 13:0.15138323269203763 14:0.1814351916865609 15:0.1814351916865609 16:0.13860412863361887 17:0.13144221317230725 18:0.13649768290970368 19:0.953236904929083 20:0.5847493329588541 22:0.9358236202780509 23:0.9421429574497964 25:0.00968965033000983 
1.0 1:0.716331975846089 2:0.6121331273697515 3:0.9827271450638955 4:0.6772925150961944 5:0.7173149838505828 6:0.21471703412442072 7:0.7160511164162336 8:0.6121331273697515 9:0.9827271450638955 10:0.6772925150961944 11:0.7439966296868418 12:0.21471703412442072 13:0.09563263586574919 14:0.06403595000702149 15:0.13860412863361887 16:0.15138323269203763 17:0.1814351916865609 18:0.1814351916865609 20:0.5750596826288442 23:0.24238168796517343 25:0.00968965033000983 
0.6821794636800831 1:0.704114590647381 2:0.5750596826288442 3:0.6548237607077657 4:0.969807611290549 5:0.6751860693722792 6:0.8425782895660722 7:0.704114590647381 8:0.5847493329588541 9:0.6548237607077657 10:0.6060946496278613 11:0.6754669288021345 12:0.8427187192809998 13:0.13144221317230725 14:0.07611290549080185 15:0.13144221317230725 16:0.15138323269203763 17:0.1814351916865609 18:0.13860412863361887 19:0.6535598932734167 20:0.3719983148434209 21:0.9632074146889482 22:0.7857042550203623 23:0.44277489116697094 24:0.9405982305855919 25:0.00968965033000983 
1.0 1:0.9250105322286196 2:0.5076534194635585 3:0.7407667462435051 4:0.4468473528998736 5:0.6148012919533773 6:0.6268782474371577 7:0.9250105322286196 8:0.5076534194635585 9:0.7407667462435051 10:0.4468473528998736 11:0.6148012919533773 12:0.6268782474371577 13:0.13144221317230725 14:0.09563263586574919 15:0.13860412863361887 16:0.06403595000702149 17:0.15306838927116978 18:0.13144221317230725 19:0.7322005336329167 20:0.6055329307681505 22:0.9401769414408089 23:0.6796798202499649 25:0.00968965033000983 
0.7794461877185817 1:0.8578851284931892 2:0.4406684454430557 3:0.004774610307541075 4:0.004774610307541075 5:0.15082151383232692 6:0.004774610307541075 7:0.8717876702710293 8:0.4406684454430557 9:0.004774610307541075 10:0.004774610307541075 11:0.7675888217946918 12:0.004774610307541075 13:0.07611290549080185 14:0.13144221317230725 15:0.13649768290970368 16:0.13649768290970368 17:0.15306838927116978 18:0.13649768290970368 20:0.6096053925010533 23:0.5412161213312737 25:0.00968965033000983 
1.0 1:0.5916303889903104 2:0.22426625473950287 3:0.369330150259795 4:0.4468473528998736 5:0.3719983148434209 6:0.1331273697514394 7:0.5847493329588541 8:0.22398539530964753 9:0.369330150259795 10:0.4468473528998736 11:0.3719983148434209 12:0.1331273697514394 13:0.07611290549080185 14:0.13144221317230725 15:0.13860412863361887 16:0.06403595000702149 17:0.13860412863361887 18:0.15306838927116978 20:0.050975986518747365 23:0.9401769414408089 25:0.00968965033000983 
1.0 1:0.7760146046903524 2:0.4634180592613397 3:0.6979356831905631 4:0.004774610307541075 5:0.6121331273697515 6:0.7407667462435051 7:0.7760146046903524 8:0.462435051256846 9:0.6979356831905631 10:0.004774610307541075 11:0.6121331273697515 12:0.7407667462435051 13:0.13860412863361887 14:0.1814351916865609 15:0.13144221317230725 16:0.13649768290970368 17:0.06403595000702149 18:0.13860412863361887 19:0.6871225951411318 20:0.4002246875438843 22:0.9122314281702009 23:0.824322426625474 25:0.00968965033000983 
1.0 1:0.8477741890183963 2:0.7446987782614801 3:0.1878949585732341 4:0.00435332116275804 5:0.004915040022468754 7:0.8477741890183963 8:0.7446987782614801 9:0.2576885268922904 10:0.00435332116275804 11:0.004915040022468754 13:0.15138323269203763 14:0.09563263586574919 15:0.1814351916865609 16:0.13649768290970368 17:0.13649768290970368 20:0.48546552450498526 23:0.9405982305855919 25:0.00968965033000983 
1.0 1:0.7407667462435051 2:0.24659457941300378 3:0.5847493329588541 4:0.6837522819828675 5:0.5722510883302907 6:0.23830922623227074 7:0.7407667462435051 8:0.24659457941300378 9:0.5847493329588541 10:0.6837522819828675 11:0.5847493329588541 12:0.23830922623227074 13:0.13860412863361887 14:0.1814351916865609 15:0.07611290549080185 16:0.06403595000702149 17:0.07611290549080185 18:0.15306838927116978 20:0.26850161494172164 23:0.5580676871225951 25:0.00968965033000983 
0.5678440353762576 3:0.08229181294761971 4:0.4002246875438843 5:0.6226653559893274 6:0.7093104900997051 9:0.08229181294761971 10:0.4002246875438843 11:0.6226653559893274 12:0.7093104900997051 15:0.09563263586574919 16:0.07611290549080185 17:0.13144221317230725 18:0.13860412863361887 19:0.08144923465805365 20:0.03791602303047325 22:0.9914337873894116 23:0.009830080044937508 25:0.00968965033000983 
1.0 3:0.08130880494312596 4:0.005617188597107148 5:0.7310770959134953 6:0.9299255722510883 9:0.08130880494312596 10:0.005617188597107148 11:0.7310770959134953 12:0.9299255722510883 15:0.13860412863361887 16:0.13649768290970368 17:0.09563263586574919 18:0.09563263586574919 19:0.08102794551327061 20:0.01937930066001966 21:0.005055469737396433 22:0.9837101530683893 23:0.027383794410897347 24:0.005055469737396433 25:0.00968965033000983 
1.0 1:0.969807611290549 2:0.5933155455694425 3:0.9827271450638955 4:0.7407667462435051 5:0.9978935542760848 6:0.8932734166549642 7:0.6060946496278613 8:0.5931751158545148 9:0.9827271450638955 10:0.7407667462435051 11:0.9978935542760848 12:0.8932734166549642 13:0.15138323269203763 14:0.1814351916865609 15:0.13860412863361887 16:0.13860412863361887 17:0.1814351916865609 18:0.13860412863361887 20:0.03609043673641343 21:0.7322005336329167 23:0.5412161213312737 24:0.9401769414408089 25:0.00968965033000983 
0.7245574924359693 1:0.3719983148434209 2:0.8734728268501615 3:0.9827271450638955 4:0.004774610307541075 5:0.5750596826288442 6:0.4902401348125263 7:0.3719983148434209 8:0.8734728268501615 9:0.9827271450638955 10:0.004774610307541075 11:0.5847493329588541 12:0.4902401348125263 13:0.13860412863361887 14:0.1814351916865609 15:0.13860412863361887 16:0.13649768290970368 17:0.07611290549080185 18:0.13144221317230725 20:0.5750596826288442 23:0.7857042550203623 25:0.00968965033000983 
1.0 1:0.6576323550063193 2:0.5916303889903104 3:0.7215278752984131 4:0.21640219070355288 5:0.7744698778261481 6:0.5847493329588541 7:0.6579132144361747 8:0.5847493329588541 9:0.7211065861536301 10:0.21640219070355288 11:0.7744698778261481 12:0.5847493329588541 13:0.1814351916865609 14:0.07611290549080185 15:0.13144221317230725 16:0.09563263586574919 17:0.06403595000702149 18:0.07611290549080185 19:0.7185788512849319 20:0.5847493329588541 21:0.21190843982586716 22:0.44277489116697094 23:0.4468473528998736 24:0.8241819969105463 25:0.00968965033000983 
1.0 1:0.3719983148434209 2:0.5750596826288442 3:0.7247577587417497 4:0.6837522819828675 5:0.5916303889903104 6:0.6934419323128774 7:0.3719983148434209 8:0.5847493329588541 9:0.7247577587417497 10:0.6837522819828675 11:0.5847493329588541 12:0.6933015025979498 13:0.13860412863361887 14:0.07611290549080185 15:0.13144221317230725 16:0.06403595000702149 17:0.07611290549080185 18:0.13144221317230725 19:0.7232130318775453 20:0.1570004212891448 22:0.498244628563404 23:0.44923465805364415 25:0.00968965033000983 
-0.9129188671233915 1:0.2721527875298413 2:0.8646257548097177 3:0.3705940176941441 4:0.004212891447830361 5:0.03370313158264289 6:0.9827271450638955 7:0.2721527875298413 8:0.86448532509479 9:0.3705940176941441 10:0.004212891447830361 11:0.03370313158264289 12:0.9827271450638955 13:0.09563263586574919 14:0.1814351916865609 15:0.13860412863361887 16:0.13649768290970368 17:0.13144221317230725 18:0.13860412863361887 19:0.3696110096896503 20:0.04816739222019379 22:0.6678837241960399 23:0.36722370453587977 25:0.00968965033000983 
-1.0 1:0.4681926695688808 2:0.8149136357253195 3:0.9827271450638955 4:0.6904929082993961 5:0.575621401488555 6:0.6837522819828675 7:0.46229462154191825 8:0.8149136357253195 9:0.9827271450638955 10:0.6904929082993961 11:0.5862940598230586 12:0.6837522819828675 13:0.1814351916865609 14:0.1814351916865609 15:0.13860412863361887 16:0.13860412863361887 17:0.15306838927116978 18:0.06403595000702149 20:0.1411318635023171 21:0.6871225951411318 23:0.5589102654121613 24:0.237326218227777 25:0.010953517764358938 26:0.1111111111111111 
-0.20905199876444822 1:0.9827271450638955 2:0.3038899031034967 3:0.3719983148434209 7:0.9827271450638955 8:0.3038899031034967 9:0.3719983148434209 13:0.13860412863361887 14:0.13860412863361887 15:0.13860412863361887 20:0.9425642465945794 23:0.44277489116697094 25:0.00968965033000983 
-1.0 1:0.4002246875438843 2:0.2735570846791181 3:0.7407667462435051 4:0.6532790338435613 5:0.4462856340401629 6:0.41258250245752 7:0.4002246875438843 8:0.2735570846791181 9:0.7407667462435051 10:0.6532790338435613 11:0.9978935542760848 12:0.41258250245752 13:0.13860412863361887 14:0.13144221317230725 15:0.13860412863361887 16:0.09563263586574919 17:0.1814351916865609 18:0.09563263586574919 19:0.7322005336329167 20:0.5722510883302907 22:0.9401769414408089 23:0.30276646538407526 25:0.00968965033000983 
-1.0 1:0.029490240134812527 2:0.004493750877685719 3:0.3719983148434209 7:0.029490240134812527 8:0.004493750877685719 9:0.3719983148434209 13:0.07611290549080185 14:0.13144221317230725 15:0.13860412863361887 20:0.05757618312034827 23:0.6565089172868979 25:0.00968965033000983 
-1.0 1:0.8477741890183963 2:0.867574778823199 3:0.1878949585732341 4:0.3323971352338155 5:0.3705940176941441 6:0.5916303889903104 7:0.8477741890183963 8:0.867574778823199 9:0.2576885268922904 10:0.3323971352338155 11:0.3705940176941441 12:0.5847493329588541 13:0.15138323269203763 14:0.13860412863361887 15:0.1814351916865609 16:0.06403595000702149 17:0.13860412863361887 18:0.07611290549080185 20:0.29040865047043957 21:0.3277629546412021 23:0.44277489116697094 24:0.6253335205729532 25:0.00968965033000983 
-1.0 1:0.4681926695688808 2:0.9498665917708187 3:0.1878949585732341 4:0.004774610307541075 5:0.5260497121190844 6:0.17553714365959838 7:0.4681926695688808 8:0.9498665917708187 9:0.2576885268922904 10:0.004774610307541075 11:0.5260497121190844 12:0.17553714365959838 13:0.13649768290970368 14:0.1814351916865609 15:0.1814351916865609 16:0.13649768290970368 17:0.13144221317230725 18:0.15306838927116978 20:0.10391798904648224 23:0.3696110096896503 25:0.00968965033000983 
-1.0 2:0.178767027102935 3:0.3705940176941441 8:0.178767027102935 9:0.3705940176941441 14:0.13144221317230725 15:0.13860412863361887 19:0.3696110096896503 20:0.12287600056171886 22:0.6678837241960399 23:0.533211627580396 25:0.010953517764358938 
-1.0 1:0.5916303889903104 2:0.4613116135374245 3:0.4288723493891307 4:0.5353180733043111 5:0.9778121050414268 6:0.1878949585732341 7:0.5847493329588541 8:0.4613116135374245 9:0.4288723493891307 10:0.5353180733043111 11:0.9778121050414268 12:0.2576885268922904 13:0.07611290549080185 14:0.13144221317230725 15:0.13860412863361887 16:0.15138323269203763 17:0.15138323269203763 18:0.1814351916865609 20:0.08481954781631794 23:0.9059120909984553 25:0.00968965033000983 
-1.0 3:0.16303889903103497 4:0.020362308664513412 9:0.16303889903103497 10:0.020362308664513412 15:0.13860412863361887 16:0.15306838927116978 19:0.1628984693161073 20:0.08481954781631794 21:0.01937930066001966 22:0.9401769414408089 23:0.9059120909984553 24:0.013200393203201797 25:0.00968965033000983 
-1.0 1:0.24996489257126808 2:0.41454851846650753 3:0.3719983148434209 4:0.7407667462435051 5:0.02050273837944109 6:0.005195899452324112 7:0.24996489257126808 8:0.41454851846650753 9:0.3719983148434209 10:0.7407667462435051 11:0.02050273837944109 12:0.005195899452324112 13:0.13860412863361887 14:0.13144221317230725 15:0.13860412863361887 16:0.13860412863361887 17:0.15306838927116978 18:0.13649768290970368 20:0.1411318635023171 21:0.7322005336329167 23:0.5589102654121613 24:0.9401769414408089 25:0.010953517764358938 26:0.1111111111111111 
-1.0 1:0.8337312175256284 2:0.004072461732902682 3:0.3719983148434209 4:0.6121331273697515 5:0.303328184243786 6:0.4153910967560736 7:0.8337312175256284 8:0.004072461732902682 9:0.3719983148434209 10:0.6121331273697515 11:0.303328184243786 12:0.41567195618592895 13:0.13144221317230725 14:0.13860412863361887 15:0.13860412863361887 16:0.06403595000702149 17:0.13860412863361887 18:0.1814351916865609 20:0.1411318635023171 21:0.6096053925010533 23:0.5589102654121613 24:0.5589102654121613 25:0.010953517764358938 26:0.1111111111111111 
-1.0 1:0.6024434770397417 2:0.5659317511585451 3:0.8932734166549642 4:0.9827271450638955 5:0.02583906754669288 6:0.5722510883302907 7:0.6018817581800309 8:0.5659317511585451 9:0.8932734166549642 10:0.9827271450638955 11:0.02583906754669288 12:0.5847493329588541 13:0.09563263586574919 14:0.13144221317230725 15:0.13860412863361887 16:0.13860412863361887 17:0.15306838927116978 18:0.07611290549080185 19:0.8866732200533632 20:0.1411318635023171 22:0.9401769414408089 23:0.5589102654121613 25:0.010953517764358938 26:0.1111111111111111 
-0.8799471167862783 1:0.0626316528577447 2:0.8995927538267098 3:0.9827271450638955 4:0.06319337171745541 7:0.27791040584187615 8:0.8995927538267098 9:0.9827271450638955 10:0.2821232972897065 13:0.09563263586574919 14:0.13144221317230725 15:0.13860412863361887 16:0.15306838927116978 20:0.1411318635023171 21:0.06221036371296166 23:0.5589102654121613 24:0.6615643870242943 25:0.010953517764358938 26:0.1111111111111111 
-1.0 1:0.8875157983429294 2:0.3719983148434209 3:0.5750596826288442 4:0.7310770959134953 5:0.7602864766184525 6:0.9827271450638955 7:0.8875157983429294 8:0.3719983148434209 9:0.5847493329588541 10:0.7310770959134953 11:0.7602864766184525 12:0.9827271450638955 13:0.13144221317230725 14:0.13860412863361887 15:0.07611290549080185 16:0.09563263586574919 17:0.09563263586574919 18:0.13860412863361887 20:0.09450919814632776 21:0.7232130318775453 23:0.30276646538407526 24:0.9405982305855919 25:0.010953517764358938 
-1.0 1:0.5131301783457379 2:0.004774610307541075 3:0.7778401909844123 4:0.6565089172868979 5:0.8696812245471142 6:0.7000421289144783 7:0.5129897486308103 8:0.004774610307541075 9:0.7778401909844123 10:0.6565089172868979 11:0.9978935542760848 12:0.7000421289144783 13:0.13144221317230725 14:0.13649768290970368 15:0.06403595000702149 16:0.09563263586574919 17:0.1814351916865609 18:0.09563263586574919 19:0.7713804240977391 20:0.10391798904648224 22:0.9424238168796517 23:0.3696110096896503 25:0.00968965033000983 
-1.0 1:0.5916303889903104 2:0.38056452745400926 3:0.3719983148434209 4:0.004774610307541075 5:0.9936806628282545 6:0.4288723493891307 7:0.5847493329588541 8:0.38056452745400926 9:0.3719983148434209 10:0.004774610307541075 11:0.9978935542760848 12:0.4288723493891307 13:0.07611290549080185 14:0.13860412863361887 15:0.13860412863361887 16:0.13649768290970368 17:0.1814351916865609 18:0.13860412863361887 20:0.1411318635023171 23:0.5589102654121613 25:0.010953517764358938 26:0.1111111111111111 
-1.0 1:0.5365819407386603 2:0.3719983148434209 3:0.5750596826288442 4:0.5108833029068951 5:0.9827271450638955 6:0.30276646538407526 7:0.5365819407386603 8:0.3719983148434209 9:0.5847493329588541 10:0.5108833029068951 11:0.9827271450638955 12:0.30276646538407526 13:0.13144221317230725 14:0.13860412863361887 15:0.07611290549080185 16:0.13144221317230725 17:0.13860412863361887 18:0.07611290549080185 20:0.07555118663109114 21:0.5055469737396433 23:0.1377615503440528 24:0.30276646538407526 25:0.00968965033000983 
-1.0 1:0.4002246875438843 2:0.32411178205308244 3:0.7407667462435051 4:0.004774610307541075 5:0.8654683330992838 6:0.6555259092824042 7:0.4002246875438843 8:0.32411178205308244 9:0.7407667462435051 10:0.004774610307541075 11:0.8654683330992838 12:0.6555259092824042 13:0.07611290549080185 14:0.13144221317230725 15:0.13860412863361887 16:0.13649768290970368 17:0.13144221317230725 18:0.09563263586574919 19:0.7322005336329167 20:0.5722510883302907 22:0.9401769414408089 23:0.30276646538407526 25:0.00968965033000983 
-1.0 1:0.8731919674203061 2:0.3719983148434209 3:0.5750596826288442 4:0.2562842297430136 5:0.9203763516360062 6:0.938351355146749 7:0.8731919674203061 8:0.3719983148434209 9:0.5847493329588541 10:0.2562842297430136 11:0.9203763516360062 12:0.938351355146749 13:0.13144221317230725 14:0.13860412863361887 15:0.07611290549080185 16:0.13860412863361887 17:0.09563263586574919 18:0.07611290549080185 20:0.32144361746945654 21:0.25502036230866454 23:0.24490942283387165 24:0.4226934419323129 25:0.00968965033000983 
-1.0 1:0.7597247577587417 2:0.3719983148434209 3:0.5750596826288442 4:0.004774610307541075 5:0.7521415531526471 6:0.4002246875438843 7:0.7597247577587417 8:0.3719983148434209 9:0.5847493329588541 10:0.004774610307541075 11:0.7521415531526471 12:0.4002246875438843 13:0.09563263586574919 14:0.13860412863361887 15:0.07611290549080185 16:0.13649768290970368 17:0.1814351916865609 18:0.07611290549080185 20:0.49318915882600756 23:0.30276646538407526 25:0.00968965033000983 
-1.0 1:0.4468473528998736 2:0.2831063052942003 3:0.369330150259795 4:0.00435332116275804 5:0.004915040022468754 7:0.4468473528998736 8:0.28296587557927255 9:0.369330150259795 10:0.00435332116275804 11:0.004915040022468754 13:0.06403595000702149 14:0.13144221317230725 15:0.13860412863361887 16:0.13649768290970368 17:0.13649768290970368 20:0.050975986518747365 23:0.9837101530683893 25:0.00968965033000983 
-1.0 1:0.2701867715208538 2:0.6837522819828675 3:0.5722510883302907 4:0.004915040022468754 7:0.2701867715208538 8:0.6837522819828675 9:0.5847493329588541 10:0.004915040022468754 13:0.15306838927116978 14:0.06403595000702149 15:0.07611290549080185 16:0.13649768290970368 20:0.237326218227777 23:0.5326499087206853 25:0.00968965033000983 
-0.3924055290681422 1:0.3719983148434209 2:0.6285634040162899 3:0.004212891447830361 7:0.3719983148434209 8:0.6285634040162899 9:0.004212891447830361 13:0.13860412863361887 14:0.13144221317230725 15:0.13649768290970368 20:0.2603566914759163 23:2.808594298553574E-4 25:0.00968965033000983 
-1.0 1:0.3719983148434209 2:0.3006600196601601 3:0.004774610307541075 4:0.004774610307541075 5:0.12498244628563404 6:0.004774610307541075 7:0.3719983148434209 8:0.3006600196601601 9:0.004774610307541075 10:0.004774610307541075 11:0.12498244628563404 12:0.004774610307541075 13:0.13860412863361887 14:0.15306838927116978 15:0.13649768290970368 16:0.13649768290970368 17:0.15306838927116978 18:0.13649768290970368 20:0.05757618312034827 23:0.6761690773767729 25:0.00968965033000983 
-1.0 1:0.6114309787951131 2:0.4468473528998736 3:0.4288723493891307 7:0.6114309787951131 8:0.4468473528998736 9:0.4288723493891307 13:0.15306838927116978 14:0.06403595000702149 15:0.13860412863361887 20:0.22861957590226092 23:0.9987361325656509 25:0.00968965033000983 
-0.7933539135937352 2:0.17118382249684033 3:0.4002246875438843 4:0.24996489257126808 5:0.01951973037494734 6:0.3705940176941441 8:0.8995927538267098 9:0.4002246875438843 10:0.24996489257126808 11:0.01951973037494734 12:0.3705940176941441 14:0.13144221317230725 15:0.07611290549080185 16:0.13860412863361887 17:0.15306838927116978 18:0.13860412863361887 20:0.010251369189720545 23:0.010672658334503581 25:0.00968965033000983 
-1.0 1:0.8170200814492347 2:0.055188877966577725 3:0.4468473528998736 4:0.30697935683190564 5:0.2273557084679118 6:9.83008004493751E-4 7:0.8170200814492347 8:0.055188877966577725 9:0.4468473528998736 10:0.30276646538407526 11:0.2273557084679118 12:9.83008004493751E-4 13:0.1814351916865609 14:0.15306838927116978 15:0.06403595000702149 16:0.07611290549080185 17:0.13144221317230725 18:0.13649768290970368 20:0.3677854233955905 21:0.30276646538407526 23:0.6565089172868979 24:0.9059120909984553 25:0.00968965033000983 
-1.0 1:0.5722510883302907 2:0.22370453587979217 3:0.3158264288723494 4:0.2107850021064457 5:0.7744698778261481 6:0.8717876702710293 7:0.5847493329588541 8:0.22370453587979217 9:0.3158264288723494 10:0.2107850021064457 11:0.7744698778261481 12:0.8717876702710293 13:0.07611290549080185 14:0.13144221317230725 15:0.13144221317230725 16:0.09563263586574919 17:0.06403595000702149 18:0.07611290549080185 19:0.30740064597668865 20:0.061086925993540236 21:0.20783597809296447 22:0.423957309366662 23:0.21190843982586716 24:0.8602724336469597 25:0.00968965033000983 
-1.0 1:0.08973458783878668 2:0.4468473528998736 3:0.3719983148434209 4:0.004915040022468754 7:0.08987501755371437 8:0.4468473528998736 9:0.3719983148434209 10:0.004915040022468754 13:0.15306838927116978 14:0.06403595000702149 15:0.13860412863361887 16:0.13649768290970368 20:0.1575621401488555 23:0.5350372138744558 25:0.00968965033000983 
-1.0 1:0.3941862098019941 2:0.3719983148434209 3:0.5722510883302907 4:0.004774610307541075 5:0.4034545709872209 6:0.6659177081870524 7:0.3941862098019941 8:0.3719983148434209 9:0.5847493329588541 10:0.004774610307541075 11:0.4034545709872209 12:0.8717876702710293 13:0.13144221317230725 14:0.13860412863361887 15:0.07611290549080185 16:0.13649768290970368 17:0.13860412863361887 18:0.07611290549080185 20:0.44277489116697094 23:0.24238168796517343 25:0.00968965033000983 
-1.0 1:0.24996489257126808 2:0.6413425080747086 3:0.3719983148434209 4:0.004915040022468754 7:0.24996489257126808 8:0.6406403595000703 9:0.3719983148434209 10:0.004915040022468754 13:0.13860412863361887 14:0.13144221317230725 15:0.13860412863361887 16:0.13649768290970368 20:0.6096053925010533 23:0.20783597809296447 25:0.00968965033000983 
-1.0 3:0.00954922061508215 9:0.00954922061508215 15:0.06403595000702149 20:0.12863361887375369 23:7.021485746383935E-4 25:0.00968965033000983 
-1.0 1:0.4964190422693442 2:0.4468473528998736 3:0.5750596826288442 4:0.005195899452324112 5:0.8869540794832187 6:0.004915040022468754 7:0.4964190422693442 8:0.4468473528998736 9:0.5847493329588541 10:0.005195899452324112 11:0.8869540794832187 12:0.004915040022468754 13:0.13144221317230725 14:0.06403595000702149 15:0.07611290549080185 16:0.13649768290970368 17:0.09563263586574919 18:0.13649768290970368 20:0.07695548378036793 21:0.005055469737396433 23:0.2117680101109395 24:0.005055469737396433 25:0.00968965033000983 
-0.4318155623674454 1:0.4580817300940879 2:0.8932734166549642 3:0.5750596826288442 4:0.004915040022468754 7:0.4580817300940879 8:0.8932734166549642 9:0.5847493329588541 10:0.004915040022468754 13:0.09563263586574919 14:0.13860412863361887 15:0.07611290549080185 16:0.13649768290970368 20:0.17708187052380284 23:0.6565089172868979 25:0.00968965033000983 
-0.9180879831684547 1:0.45653700322988344 2:0.004774610307541075 3:0.8932734166549642 4:0.004774610307541075 5:0.5353180733043111 6:0.1878949585732341 7:0.45653700322988344 8:0.004774610307541075 9:0.8932734166549642 10:0.004774610307541075 11:0.5353180733043111 12:0.2576885268922904 13:0.1814351916865609 14:0.13649768290970368 15:0.13860412863361887 16:0.13649768290970368 17:0.15138323269203763 18:0.1814351916865609 19:0.8866732200533632 20:0.5750596826288442 22:0.9401769414408089 23:0.44277489116697094 25:0.00968965033000983 
-1.0 1:0.8811964611711838 2:0.37677292515096195 3:0.5719702289004354 4:0.4468473528998736 5:0.6989186911950569 6:0.4002246875438843 7:0.8811964611711838 8:0.37677292515096195 9:0.5719702289004354 10:0.4468473528998736 11:0.6989186911950569 12:0.4002246875438843 13:0.09563263586574919 14:0.13860412863361887 15:0.07611290549080185 16:0.06403595000702149 17:0.13144221317230725 18:0.07611290549080185 20:0.21190843982586716 23:0.6565089172868979 25:0.00968965033000983 
-1.0 1:0.969807611290549 2:0.9977531245611572 3:0.4288723493891307 4:0.4468473528998736 5:0.6639516921780649 6:0.4288723493891307 7:0.6060946496278613 8:0.9978935542760848 9:0.4288723493891307 10:0.4468473528998736 11:0.6639516921780649 12:0.4288723493891307 13:0.15138323269203763 14:0.1814351916865609 15:0.13860412863361887 16:0.06403595000702149 17:0.09563263586574919 18:0.13860412863361887 20:0.040303328184243786 23:0.18031175396713944 25:0.00968965033000983 
-1.0 1:0.6343210223283247 2:0.9827271450638955 3:0.719421429574498 4:0.00435332116275804 5:0.6121331273697515 6:0.24996489257126808 7:0.6343210223283247 8:0.9827271450638955 9:0.719421429574498 10:0.00435332116275804 11:0.6121331273697515 12:0.24996489257126808 13:0.13144221317230725 14:0.13860412863361887 15:0.13144221317230725 16:0.13649768290970368 17:0.06403595000702149 18:0.13860412863361887 19:0.7185788512849319 20:0.4002246875438843 22:0.42367644993680664 23:0.44277489116697094 25:0.00968965033000983 
-1.0 1:0.0863642746805224 2:0.6289846931610729 3:0.9827271450638955 4:0.004774610307541075 5:0.6059542199129335 6:0.4468473528998736 7:0.0863642746805224 8:0.6289846931610729 9:0.9827271450638955 10:0.004774610307541075 11:0.6059542199129335 12:0.4468473528998736 13:0.09563263586574919 14:0.09563263586574919 15:0.13860412863361887 16:0.13649768290970368 17:0.15306838927116978 18:0.06403595000702149 20:0.12287600056171886 23:0.3277629546412021 25:0.00968965033000983 
-1.0 1:0.2949024013481253 2:0.11725881196461171 3:0.4288723493891307 4:0.5607358517062211 5:0.20783597809296447 6:0.9080185367223704 7:0.2949024013481253 8:0.58741749754248 9:0.4288723493891307 10:0.5607358517062211 11:0.2576885268922904 12:0.9078781070074428 13:0.13144221317230725 14:0.15306838927116978 15:0.13860412863361887 16:0.15138323269203763 17:0.1814351916865609 18:0.1814351916865609 20:0.01937930066001966 23:0.01081308804943126 25:0.00968965033000983 
-1.0 1:0.7490520994242381 2:0.9566072180873473 3:0.37859851144502177 4:0.004915040022468754 7:0.7489116697093104 8:0.9498665917708187 9:0.938351355146749 10:0.004915040022468754 13:0.09563263586574919 14:0.1814351916865609 15:0.07611290549080185 16:0.13649768290970368 19:0.3719983148434209 20:0.6871225951411318 22:0.44277489116697094 23:0.8820390394607499 25:0.00968965033000983 
-0.2545981692470086 1:0.938351355146749 2:0.8906052520713383 3:0.8995927538267098 4:0.6837522819828675 5:0.5722510883302907 6:0.22398539530964753 7:0.938351355146749 8:0.8906052520713383 9:0.8995927538267098 10:0.6837522819828675 11:0.5847493329588541 12:0.22398539530964753 13:0.07611290549080185 14:0.09563263586574919 15:0.13144221317230725 16:0.06403595000702149 17:0.07611290549080185 18:0.13144221317230725 19:0.898609745822216 20:0.24996489257126808 22:0.9401769414408089 23:0.4468473528998736 25:0.00968965033000983 
-1.0 1:0.4634180592613397 2:0.5847493329588541 3:0.2949024013481253 4:0.4288723493891307 5:0.019941019519730374 6:0.5607358517062211 7:0.462435051256846 8:0.5847493329588541 9:0.2949024013481253 10:0.4288723493891307 11:0.019941019519730374 12:0.5607358517062211 13:0.1814351916865609 14:0.07611290549080185 15:0.13144221317230725 16:0.13860412863361887 17:0.15306838927116978 18:0.15138323269203763 19:0.29040865047043957 20:0.11683752281982868 22:0.6593175115854515 23:0.3719983148434209 25:0.00968965033000983 
-1.0 1:0.2721527875298413 2:0.9778121050414268 3:0.8170200814492347 4:0.4468473528998736 5:0.3679258531105182 6:0.30697935683190564 7:0.2721527875298413 8:0.9778121050414268 9:0.8170200814492347 10:0.4468473528998736 11:0.3679258531105182 12:0.30276646538407526 13:0.09563263586574919 14:0.15138323269203763 15:0.1814351916865609 16:0.06403595000702149 17:0.15306838927116978 18:0.07611290549080185 19:0.7857042550203623 20:0.05490801853672237 22:0.5583485465524505 23:0.5329307681505406 25:0.00968965033000983 
