svm_type c_svc
kernel_type linear
nr_class 2
total_sv 59
rho -0.9144632022614751
label -1 3
probA -0.7354865888626421
probB -0.26281089557740483
nr_sv 32 27
SV
0.20226888286022005 4:0.37753643898256645 5:0.5851671906258931 6:0.31023149471277506 10:0.37753643898256645 11:0.5851671906258931 12:0.31023149471277506 16:0.14075450128608175 17:0.0757359245498714 18:0.13246641897685052 20:0.15833095170048586 21:0.37639325521577593 23:1.4289797084881395E-4 24:0.6629036867676479 25:0.009574164046870535 
0.05367275359050464 1:0.44198342383538153 2:0.03158045155758788 3:0.4519862817947985 7:0.44198342383538153 8:0.03158045155758788 9:0.4519862817947985 13:0.14075450128608175 14:0.15633038010860245 15:0.06244641326093169 20:0.021720491569019718 23:0.027722206344669906 25:0.009574164046870535 
1.0 1:0.3655330094312661 2:0.8992569305515862 3:0.9828522434981424 4:0.00471563303801086 7:0.3655330094312661 8:0.8992569305515862 9:0.9828522434981424 10:0.00471563303801086 13:0.09659902829379823 14:0.13246641897685052 15:0.14075450128608175 16:0.13818233781080308 20:0.97470705915976 23:0.2767933695341526 25:0.009574164046870535 
1.0 1:0.9828522434981424 2:0.9639897113460989 3:0.26193198056587597 4:0.004572735067162046 5:0.06201771934838525 6:0.9381251786224636 7:0.9828522434981424 8:0.9639897113460989 9:0.26193198056587597 10:0.004572735067162046 11:0.29036867676478995 12:0.9379822806516147 13:0.14075450128608175 14:0.18448128036581882 15:0.14075450128608175 16:0.13818233781080308 17:0.09659902829379823 18:0.0757359245498714 19:0.26064589882823663 20:0.5803086596170335 22:0.42712203486710487 23:0.19534152615032865 25:0.009574164046870535 
1.0 1:0.3353815375821663 2:0.4519862817947985 3:0.3789654186910546 4:0.004572735067162046 5:0.5804515575878822 6:0.7279222635038582 7:0.3353815375821663 8:0.4519862817947985 9:0.3789654186910546 10:0.004572735067162046 11:0.5851671906258931 12:0.7279222635038582 13:0.15633038010860245 14:0.06244641326093169 15:0.14075450128608175 16:0.13818233781080308 17:0.0757359245498714 18:0.13246641897685052 20:0.8356673335238639 23:0.7837953701057445 25:0.009574164046870535 
0.10730355260623956 1:0.3761074592740783 2:0.20705915975993142 3:0.37753643898256645 4:0.00471563303801086 7:0.3761074592740783 8:0.2069162617890826 9:0.37753643898256645 10:0.00471563303801086 13:0.14075450128608175 14:0.13246641897685052 15:0.14075450128608175 16:0.13818233781080308 19:0.37639325521577593 20:0.1220348671048871 22:0.6629036867676479 23:0.5401543298085167 25:0.011003143755358673 
1.0 1:0.5851671906258931 2:0.31023149471277506 3:0.3789654186910546 4:0.2562160617319234 5:0.4188339525578737 6:0.3789654186910546 7:0.5851671906258931 8:0.31023149471277506 9:0.3789654186910546 10:0.2562160617319234 11:0.4188339525578737 12:0.3789654186910546 13:0.0757359245498714 14:0.13246641897685052 15:0.14075450128608175 16:0.14075450128608175 17:0.13246641897685052 18:0.14075450128608175 20:0.12746498999714204 23:0.22677907973706773 25:0.011003143755358673 
1.0 1:0.43355244355530154 2:0.47113460988853956 3:0.9828522434981424 4:0.004572735067162046 5:0.6471849099742784 6:0.8355244355530151 7:0.43355244355530154 8:0.47113460988853956 9:0.9828522434981424 10:0.004572735067162046 11:0.6471849099742784 12:0.8355244355530151 13:0.14075450128608175 14:0.13246641897685052 15:0.14075450128608175 16:0.13818233781080308 17:0.09659902829379823 18:0.06244641326093169 20:0.12746498999714204 23:0.22677907973706773 25:0.011003143755358673 
1.0 1:0.3789654186910546 2:0.4908545298656759 3:0.19176907687910832 7:0.3789654186910546 8:0.4908545298656759 9:0.2633609602743641 13:0.14075450128608175 14:0.13246641897685052 15:0.18448128036581882 20:0.5803086596170335 23:0.4519862817947985 25:0.009574164046870535 
1.0 1:0.9379822806516147 2:0.6327522149185482 3:0.2562160617319234 4:0.4519862817947985 5:0.6607602172049157 6:0.6327522149185482 7:0.9379822806516147 8:0.6327522149185482 9:0.2562160617319234 10:0.4519862817947985 11:0.8712489282652186 12:0.6327522149185482 13:0.0757359245498714 14:0.13246641897685052 15:0.14075450128608175 16:0.06244641326093169 17:0.0757359245498714 18:0.13246641897685052 20:0.2962274935695913 23:0.9464132609316948 25:0.009574164046870535 
1.0 2:0.1034581308945413 3:0.9828522434981424 4:0.004572735067162046 5:0.19091168905401543 6:0.4519862817947985 8:0.5310088596741926 9:0.9828522434981424 10:0.004572735067162046 11:0.19091168905401543 12:0.4519862817947985 14:0.13246641897685052 15:0.14075450128608175 16:0.13818233781080308 17:0.15633038010860245 18:0.06244641326093169 20:0.12746498999714204 23:0.43098028008002287 25:0.009574164046870535 
0.09544450905480933 1:0.9828522434981424 2:0.12760788796799086 3:0.004572735067162046 4:0.4519862817947985 5:0.18062303515290082 6:0.12989425550157188 7:0.9828522434981424 8:0.12760788796799086 9:0.004572735067162046 10:0.4519862817947985 11:0.9189768505287225 12:0.6324664189768505 13:0.14075450128608175 14:0.15633038010860245 15:0.13818233781080308 16:0.06244641326093169 17:0.13246641897685052 18:0.13246641897685052 20:0.1907687910831666 23:0.64818519577022 25:0.009574164046870535 
1.0 1:0.3789654186910546 2:0.7047727922263504 3:0.6030294369819948 4:0.00400114318376679 5:0.00471563303801086 7:0.3789654186910546 8:0.7047727922263504 9:0.6030294369819948 10:0.00400114318376679 11:0.00471563303801086 13:0.14075450128608175 14:0.13246641897685052 15:0.13246641897685052 16:0.13818233781080308 17:0.13818233781080308 20:0.044155472992283507 23:4.2869391254644185E-4 25:0.009574164046870535 
1.0 1:0.44198342383538153 2:0.6268933981137468 3:0.4519862817947985 4:0.004572735067162046 5:0.606744784224064 6:0.6484709917119177 7:0.44198342383538153 8:0.6268933981137468 9:0.4519862817947985 10:0.004572735067162046 11:0.606744784224064 12:0.6484709917119177 13:0.14075450128608175 14:0.15633038010860245 15:0.06244641326093169 16:0.13818233781080308 17:0.13246641897685052 18:0.09659902829379823 25:0.009574164046870535 
0.3639311296415721 1:0.37753643898256645 2:0.5858816804801372 3:0.23320948842526437 4:0.00400114318376679 5:0.00471563303801086 7:0.37753643898256645 8:0.5851671906258931 9:0.23292369248356673 10:0.00400114318376679 11:0.00471563303801086 13:0.14075450128608175 14:0.0757359245498714 15:0.13246641897685052 16:0.13818233781080308 17:0.13818233781080308 19:0.22677907973706773 20:0.01557587882252072 22:0.4476993426693341 23:0.032437839382680765 25:0.009574164046870535 
1.0 3:0.14318376679051156 4:0.43355244355530154 5:0.393255215775936 6:0.3789654186910546 9:0.14318376679051156 10:0.43355244355530154 11:0.393255215775936 12:0.3789654186910546 15:0.13246641897685052 16:0.14075450128608175 17:0.13246641897685052 18:0.14075450128608175 19:0.14304086881966277 20:0.11631894827093456 22:0.08345241497570735 23:0.13346670477279224 25:0.009574164046870535 
1.0 1:0.0038582452129179764 2:0.7570734495570163 3:0.3789654186910546 4:0.004572735067162046 5:0.0563018005144327 6:0.004572735067162046 7:0.0038582452129179764 8:0.7570734495570163 9:0.3789654186910546 10:0.004572735067162046 11:0.0563018005144327 12:0.004572735067162046 13:0.13818233781080308 14:0.14075450128608175 15:0.14075450128608175 16:0.13818233781080308 17:0.15633038010860245 18:0.13818233781080308 20:0.2962274935695913 23:0.5664475564446985 25:0.009574164046870535 
1.0 2:0.14932837953701059 3:0.40625893112317807 4:0.19634181194627037 5:0.9828522434981424 6:0.7157759359817091 8:0.7212060588739639 9:0.40625893112317807 10:0.19634181194627037 11:0.9828522434981424 12:0.7156330380108602 14:0.13246641897685052 15:0.0757359245498714 16:0.09659902829379823 17:0.14075450128608175 18:0.13246641897685052 20:0.11831951986281795 21:0.19534152615032865 23:0.4519862817947985 24:0.5851671906258931 25:0.009574164046870535 
1.0 1:0.05744498428122321 2:0.15933123749642755 3:0.4519862817947985 4:0.48913975421549016 5:0.43998285224349815 6:0.9379822806516147 7:0.05744498428122321 8:0.15933123749642755 9:0.4519862817947985 10:0.48928265218633893 11:0.43998285224349815 12:0.9379822806516147 13:0.13246641897685052 14:0.13246641897685052 15:0.06244641326093169 16:0.18448128036581882 17:0.09659902829379823 18:0.0757359245498714 20:0.1793369534152615 21:0.4858531008859674 23:0.30808802515004285 24:0.6630465847384968 25:0.009574164046870535 26:0.125 
1.0 4:0.004572735067162046 5:0.19091168905401543 6:0.4519862817947985 10:0.004572735067162046 11:0.19091168905401543 12:0.4519862817947985 16:0.13818233781080308 17:0.15633038010860245 18:0.06244641326093169 20:0.10302943698199486 23:0.43098028008002287 25:0.009574164046870535 
1.0 2:0.8483852529294084 3:0.2562160617319234 4:0.456987710774507 5:0.3789654186910546 6:0.6581880537296371 8:0.8483852529294084 9:0.2562160617319234 10:0.456987710774507 11:0.3789654186910546 12:0.6581880537296371 14:0.14075450128608175 15:0.14075450128608175 16:0.09659902829379823 17:0.14075450128608175 18:0.0757359245498714 20:0.6320377250643041 21:0.45613032294941414 23:0.822520720205773 24:0.6630465847384968 25:0.009574164046870535 
0.04252774321135792 1:0.5422977993712489 2:0.977707916547585 3:0.19176907687910832 4:0.7727922263503858 5:0.9379822806516147 6:0.9828522434981424 7:0.5422977993712489 8:0.977707916547585 9:0.2633609602743641 10:0.7729351243212347 11:0.9379822806516147 12:0.9828522434981424 13:0.15461560445841668 14:0.15461560445841668 15:0.18448128036581882 16:0.0757359245498714 17:0.0757359245498714 18:0.14075450128608175 20:0.02243498142326379 21:0.7690768791083167 23:0.02243498142326379 24:0.9366961989139754 25:0.009574164046870535 
1.0 1:0.37753643898256645 2:0.30808802515004285 3:0.30108602457845096 4:0.0010002857959416976 5:0.0010002857959416976 6:0.0010002857959416976 7:0.37753643898256645 8:0.30808802515004285 9:0.30108602457845096 10:0.0010002857959416976 11:0.0010002857959416976 12:0.0010002857959416976 13:0.14075450128608175 14:0.0757359245498714 15:0.13246641897685052 16:0.13818233781080308 17:0.13818233781080308 18:0.13818233781080308 19:0.2962274935695913 20:0.40625893112317807 22:0.6540440125750214 23:0.012717919405544441 25:0.009574164046870535 
0.5744661435839354 1:0.09488425264361246 2:0.4962846527579308 3:0.43355244355530154 4:0.40625893112317807 5:0.6657616461846242 6:0.007430694484138326 7:0.09488425264361246 8:0.4962846527579308 9:0.43355244355530154 10:0.40625893112317807 11:0.6657616461846242 12:0.007430694484138326 13:0.13246641897685052 14:0.18448128036581882 15:0.14075450128608175 16:0.14075450128608175 17:0.13246641897685052 18:0.09659902829379823 20:0.5747356387539297 23:0.936981994855673 25:0.009574164046870535 
0.9359893419000974 2:0.16719062589311232 3:0.0850242926550443 8:0.16719062589311232 9:0.0850242926550443 14:0.14075450128608175 15:0.15633038010860245 19:0.08488139468419549 20:0.019291226064589884 22:0.9056873392397828 23:0.013146613318090883 25:0.009574164046870535 
1.0 1:0.2562160617319234 2:0.6356101743355245 3:0.3789654186910546 4:0.00471563303801086 7:0.2562160617319234 8:0.6348956844812804 9:0.3789654186910546 10:0.00471563303801086 13:0.14075450128608175 14:0.13246641897685052 15:0.14075450128608175 16:0.13818233781080308 20:0.6036010288653901 23:0.21263218062303516 25:0.009574164046870535 
1.0 1:0.2562160617319234 2:0.6356101743355245 3:0.3789654186910546 4:0.456987710774507 5:0.3789654186910546 6:0.6581880537296371 7:0.2562160617319234 8:0.6348956844812804 9:0.3789654186910546 10:0.456987710774507 11:0.3789654186910546 12:0.6581880537296371 13:0.14075450128608175 14:0.13246641897685052 15:0.14075450128608175 16:0.09659902829379823 17:0.14075450128608175 18:0.0757359245498714 20:0.6036010288653901 21:0.45613032294941414 23:0.822520720205773 24:0.6630465847384968 25:0.009574164046870535 
1.0 2:0.08645327236353244 3:0.5750214346956273 4:0.8176621891969134 5:0.9828522434981424 6:0.9639897113460989 8:0.08645327236353244 9:0.5750214346956273 10:0.8176621891969134 11:0.9828522434981424 12:0.9639897113460989 14:0.14075450128608175 15:0.15633038010860245 16:0.14075450128608175 17:0.14075450128608175 18:0.18448128036581882 19:0.5747356387539297 20:0.048013718205201485 21:0.8165190054301229 22:0.4519862817947985 23:0.940125750214347 24:0.43355244355530154 25:0.009574164046870535 
0.5212173003683112 1:0.3789654186910546 2:0.6226064589882824 3:0.0038582452129179764 7:0.3789654186910546 8:0.6226064589882824 9:0.0038582452129179764 13:0.14075450128608175 14:0.13246641897685052 15:0.13818233781080308 20:0.26593312374964273 23:2.857959416976279E-4 25:0.009574164046870535 
1.0 1:0.7570734495570163 2:0.3789654186910546 3:0.5804515575878822 4:0.004572735067162046 5:0.7493569591311804 6:0.40625893112317807 7:0.7570734495570163 8:0.3789654186910546 9:0.5851671906258931 10:0.004572735067162046 11:0.7493569591311804 12:0.40625893112317807 13:0.09659902829379823 14:0.14075450128608175 15:0.0757359245498714 16:0.13818233781080308 17:0.18448128036581882 18:0.0757359245498714 20:0.5002857959416976 23:0.30808802515004285 25:0.009574164046870535 
1.0 1:0.3789654186910546 2:0.8818233781080309 3:0.3739639897113461 4:0.7376393255215776 5:0.43669619891397543 6:0.45127179194055445 7:0.3789654186910546 8:0.8818233781080309 9:0.3739639897113461 10:0.7376393255215776 11:0.43669619891397543 12:0.9981423263789654 13:0.14075450128608175 14:0.13246641897685052 15:0.14075450128608175 16:0.14075450128608175 17:0.13246641897685052 18:0.18448128036581882 19:0.37367819376964845 20:0.5803086596170335 21:0.7286367533581023 22:0.6480422977993713 23:0.4476993426693341 24:0.9389825664475564 25:0.009574164046870535 
0.5224492590442189 1:0.40625893112317807 2:0.30108602457845096 3:0.2562160617319234 4:0.00471563303801086 7:0.40625893112317807 8:0.30108602457845096 9:0.2562160617319234 10:0.00471563303801086 13:0.0757359245498714 14:0.13818233781080308 15:0.14075450128608175 16:0.13818233781080308 20:0.30808802515004285 23:0.2962274935695913 25:0.009574164046870535 
-1.0 2:0.17562160617319234 3:0.43355244355530154 4:0.4519862817947985 5:0.020005715918833954 6:0.2562160617319234 8:0.17562160617319234 9:0.43355244355530154 10:0.4519862817947985 11:0.020005715918833954 12:0.2562160617319234 14:0.09659902829379823 15:0.14075450128608175 16:0.06244641326093169 17:0.15633038010860245 18:0.14075450128608175 20:0.019291226064589884 23:0.011717633609602743 25:0.009574164046870535 
-1.0 1:0.43355244355530154 2:0.01986281794798514 3:0.4519862817947985 4:0.2562160617319234 5:0.07716490425835953 6:0.05744498428122321 7:0.43355244355530154 8:0.01986281794798514 9:0.4519862817947985 10:0.2562160617319234 11:0.07716490425835953 12:0.05744498428122321 13:0.14075450128608175 14:0.15633038010860245 15:0.06244641326093169 16:0.14075450128608175 17:0.13246641897685052 18:0.13246641897685052 20:0.019291226064589884 23:0.012717919405544441 25:0.009574164046870535 
-1.0 1:0.9381251786224636 2:0.84938553872535 3:0.40625893112317807 4:0.49314089739925693 5:0.5687339239782795 6:0.20577307802229208 7:0.9379822806516147 8:0.84938553872535 9:0.40625893112317807 10:0.49314089739925693 11:0.5687339239782795 12:0.20548728208059447 13:0.0757359245498714 14:0.13246641897685052 15:0.14075450128608175 16:0.09659902829379823 17:0.09659902829379823 18:0.18448128036581882 20:0.02314947127750786 21:0.4924264075450129 23:0.940125750214347 24:0.6630465847384968 25:0.009574164046870535 
-1.0 1:0.9768505287224921 2:0.7010574449842812 3:0.43355244355530154 7:0.9768505287224921 8:0.7020577307802229 9:0.43355244355530154 13:0.09659902829379823 14:0.18448128036581882 15:0.14075450128608175 20:0.019291226064589884 23:0.012717919405544441 25:0.009574164046870535 
-1.0 1:0.00943126607602172 2:0.7480708773935411 3:0.0038582452129179764 4:0.00400114318376679 5:0.00471563303801086 6:0.7110603029436982 7:0.00943126607602172 8:0.7480708773935411 9:0.0038582452129179764 10:0.00400114318376679 11:0.00471563303801086 12:0.7110603029436982 13:0.14075450128608175 14:0.13246641897685052 15:0.13818233781080308 16:0.13818233781080308 17:0.13818233781080308 18:0.13246641897685052 20:0.8465275793083739 23:0.7837953701057445 25:0.009574164046870535 
-1.0 1:0.30108602457845096 2:0.5803086596170335 3:0.45141468991140327 4:0.0010002857959416976 5:0.0010002857959416976 6:0.0010002857959416976 7:0.30108602457845096 8:0.5851671906258931 9:0.45141468991140327 10:0.0010002857959416976 11:0.0010002857959416976 12:0.0010002857959416976 13:0.18448128036581882 14:0.0757359245498714 15:0.13246641897685052 16:0.13818233781080308 17:0.13818233781080308 18:0.13818233781080308 19:0.4476993426693341 20:0.019291226064589884 22:0.4519862817947985 23:0.012717919405544441 25:0.009574164046870535 
-1.0 1:0.014146899114032581 2:0.5743069448413832 3:0.0038582452129179764 4:0.4519862817947985 5:0.01700485853100886 6:0.84938553872535 7:0.014146899114032581 8:0.5734495570162904 9:0.0038582452129179764 10:0.4519862817947985 11:0.01700485853100886 12:0.84938553872535 13:0.0757359245498714 14:0.13246641897685052 15:0.13818233781080308 16:0.06244641326093169 17:0.0757359245498714 18:0.13246641897685052 20:0.3789654186910546 23:0.4519862817947985 25:0.009574164046870535 
-1.0 1:0.3789654186910546 2:0.5750214346956273 3:0.4519862817947985 4:0.00400114318376679 5:0.00471563303801086 7:0.3789654186910546 8:0.5750214346956273 9:0.4519862817947985 10:0.00400114318376679 11:0.00471563303801086 13:0.14075450128608175 14:0.13246641897685052 15:0.06244641326093169 16:0.13818233781080308 17:0.13818233781080308 20:0.016576164618462418 23:0.012717919405544441 25:0.009574164046870535 
-1.0 1:0.2562160617319234 2:0.6356101743355245 3:0.3789654186910546 4:0.004572735067162046 5:0.5422977993712489 6:0.45127179194055445 7:0.2562160617319234 8:0.6348956844812804 9:0.3789654186910546 10:0.004572735067162046 11:0.5422977993712489 12:0.9981423263789654 13:0.14075450128608175 14:0.13246641897685052 15:0.14075450128608175 16:0.13818233781080308 17:0.15461560445841668 18:0.18448128036581882 20:0.5747356387539297 23:0.4519862817947985 25:0.009574164046870535 
-1.0 1:0.704344098313804 2:0.0038582452129179764 3:0.4088310945984567 4:0.33866819091168904 5:0.30808802515004285 6:0.8522434981423264 7:0.704344098313804 8:0.0038582452129179764 9:0.4088310945984567 10:0.33866819091168904 11:0.30808802515004285 12:0.9981423263789654 13:0.13246641897685052 14:0.13818233781080308 15:0.13246641897685052 16:0.09659902829379823 17:0.14075450128608175 18:0.18448128036581882 19:0.407830808802515 20:0.5747356387539297 21:0.33338096599028294 22:0.940125750214347 23:0.4519862817947985 24:0.6630465847384968 25:0.009574164046870535 
-1.0 3:0.08645327236353244 4:0.0481566161760503 5:0.8176621891969134 6:0.9828522434981424 9:0.08645327236353244 10:0.0481566161760503 11:0.8176621891969134 12:0.9828522434981424 15:0.14075450128608175 16:0.15633038010860245 17:0.14075450128608175 18:0.14075450128608175 20:0.5747356387539297 21:0.048013718205201485 23:0.4519862817947985 24:0.940125750214347 25:0.009574164046870535 
-1.0 1:0.23292369248356673 2:0.38382394969991424 3:0.43355244355530154 4:0.9379822806516147 5:0.33766790511574735 6:0.3789654186910546 7:0.23292369248356673 8:0.38382394969991424 9:0.43355244355530154 10:0.9379822806516147 11:0.33766790511574735 12:0.3789654186910546 13:0.13246641897685052 14:0.09659902829379823 15:0.14075450128608175 16:0.0757359245498714 17:0.13246641897685052 18:0.14075450128608175 20:0.5747356387539297 23:0.4519862817947985 25:0.009574164046870535 
-1.0 1:0.004572735067162046 2:0.47785081451843386 3:0.43355244355530154 4:0.00400114318376679 5:0.5601600457273507 6:0.43355244355530154 7:0.004572735067162046 8:0.4774221206058874 9:0.43355244355530154 10:0.00400114318376679 11:0.5601600457273507 12:0.43355244355530154 13:0.13818233781080308 14:0.18448128036581882 15:0.14075450128608175 16:0.13818233781080308 17:0.13246641897685052 18:0.14075450128608175 20:0.8465275793083739 23:0.7837953701057445 25:0.009574164046870535 
-1.0 2:0.8992569305515862 3:0.43355244355530154 4:0.03715347242069163 5:0.7526436124607031 8:0.8992569305515862 9:0.43355244355530154 10:0.03715347242069163 11:0.7526436124607031 14:0.13246641897685052 15:0.14075450128608175 16:0.13818233781080308 17:0.13246641897685052 20:0.8465275793083739 23:0.7837953701057445 25:0.009574164046870535 
-1.0 1:0.6617605030008574 2:0.977707916547585 3:0.993855387253501 4:0.4519862817947985 5:0.9379822806516147 6:0.5708773935410117 7:0.5998856816233209 8:0.977707916547585 9:0.9981423263789654 10:0.4519862817947985 11:0.9379822806516147 12:0.5708773935410117 13:0.15461560445841668 14:0.15461560445841668 15:0.18448128036581882 16:0.06244641326093169 17:0.0757359245498714 18:0.13246641897685052 19:0.9917119176907688 20:0.3789654186910546 22:0.6629036867676479 23:0.9987139182623607 25:0.009574164046870535 
-1.0 1:0.003715347242069163 2:0.23478136610460132 3:0.4519862817947985 4:0.0010002857959416976 5:0.0010002857959416976 6:0.00400114318376679 7:0.003715347242069163 8:0.23478136610460132 9:0.4519862817947985 10:0.0010002857959416976 11:0.0010002857959416976 12:0.00400114318376679 13:0.14075450128608175 14:0.13246641897685052 15:0.06244641326093169 16:0.13818233781080308 17:0.13818233781080308 18:0.13818233781080308 20:0.9379822806516147 23:0.3885395827379251 25:0.009574164046870535 
-1.0 1:0.11603315232923693 2:0.45141468991140327 3:0.43355244355530154 4:0.4742783652472135 5:0.3789654186910546 6:0.7202057730780222 7:0.5851671906258931 8:0.45141468991140327 9:0.43355244355530154 10:0.4742783652472135 11:0.3789654186910546 12:0.7202057730780222 13:0.0757359245498714 14:0.15461560445841668 15:0.14075450128608175 16:0.13246641897685052 17:0.14075450128608175 18:0.13246641897685052 20:0.019291226064589884 21:0.46570448699628464 23:0.011717633609602743 24:0.9056873392397828 25:0.009574164046870535 
-1.0 1:0.4352672192054873 2:0.9828522434981424 3:0.6949128322377822 4:0.005001428979708488 5:0.5683052300657331 6:0.21263218062303516 7:0.4352672192054873 8:0.9828522434981424 9:0.6949128322377822 10:0.005001428979708488 11:0.5683052300657331 12:0.2633609602743641 13:0.09659902829379823 14:0.14075450128608175 15:0.18448128036581882 16:0.13818233781080308 17:0.15461560445841668 18:0.18448128036581882 19:0.6826236067447842 20:0.40625893112317807 21:0.004858531008859674 22:0.5658759645613032 23:0.012717919405544441 24:0.004858531008859674 25:0.009574164046870535 
-1.0 3:0.0943126607602172 4:0.03715347242069163 5:0.2567876536153187 6:0.2294941411831952 9:0.48185195770220063 10:0.03715347242069163 11:0.25664475564446987 12:0.2294941411831952 15:0.13246641897685052 16:0.13818233781080308 17:0.0757359245498714 18:0.13246641897685052 19:0.0941697627893684 20:0.8465275793083739 22:0.5482995141468991 23:0.7837953701057445 25:0.009574164046870535 
-1.0 1:0.26293226636181766 2:0.9002572163475279 3:0.43355244355530154 4:0.00400114318376679 5:0.004572735067162046 6:0.6724778508145184 7:0.2633609602743641 8:0.9002572163475279 9:0.43355244355530154 10:0.00400114318376679 11:0.004572735067162046 12:0.6724778508145184 13:0.18448128036581882 14:0.09659902829379823 15:0.14075450128608175 16:0.13818233781080308 17:0.13818233781080308 18:0.15461560445841668 20:0.019291226064589884 23:0.011717633609602743 25:0.009574164046870535 
-1.0 1:0.00943126607602172 2:0.010717347813661047 3:0.2562160617319234 4:0.37753643898256645 5:0.9379822806516147 6:0.6321806230351529 7:0.00943126607602172 8:0.010717347813661047 9:0.2562160617319234 10:0.37753643898256645 11:0.9379822806516147 12:0.6321806230351529 13:0.13818233781080308 14:0.0757359245498714 15:0.14075450128608175 16:0.14075450128608175 17:0.0757359245498714 18:0.13246641897685052 20:0.019291226064589884 21:0.37639325521577593 23:0.013432409259788511 24:0.6629036867676479 25:0.009574164046870535 
-0.12709787724948088 1:0.26407545012860817 2:0.01986281794798514 3:0.4519862817947985 4:0.004572735067162046 5:0.5385824521291798 6:0.9325521577593598 7:0.26407545012860817 8:0.01986281794798514 9:0.4519862817947985 10:0.004572735067162046 11:0.5385824521291798 12:0.9325521577593598 13:0.13246641897685052 14:0.09659902829379823 15:0.06244641326093169 16:0.13818233781080308 17:0.13246641897685052 18:0.09659902829379823 20:0.019291226064589884 23:0.012717919405544441 25:0.009574164046870535 
-1.0 1:0.2562160617319234 2:0.6356101743355245 3:0.3761074592740783 4:0.004572735067162046 5:0.712775078593884 6:0.3789654186910546 7:0.2562160617319234 8:0.6348956844812804 9:0.3761074592740783 10:0.004572735067162046 11:0.712775078593884 12:0.3789654186910546 13:0.14075450128608175 14:0.13246641897685052 15:0.14075450128608175 16:0.13818233781080308 17:0.09659902829379823 18:0.14075450128608175 20:0.05215775935981709 23:0.5422977993712489 25:0.009574164046870535 
-0.8086493817779262 1:0.42369248356673334 2:0.38339525578736783 3:0.5804515575878822 4:0.0038582452129179764 5:0.20062875107173478 6:0.7802229208345242 7:0.42369248356673334 8:0.38339525578736783 9:0.5851671906258931 10:0.0038582452129179764 11:0.20062875107173478 12:0.7802229208345242 13:0.18448128036581882 14:0.14075450128608175 15:0.0757359245498714 16:0.13818233781080308 17:0.13246641897685052 18:0.09659902829379823 20:0.5002857959416976 23:0.21691911974849956 25:0.009574164046870535 
-1.0 1:0.40011431837667905 2:0.3789654186910546 3:0.5803086596170335 4:0.004572735067162046 5:0.40768791083166617 6:0.6607602172049157 7:0.40011431837667905 8:0.3789654186910546 9:0.5851671906258931 10:0.004572735067162046 11:0.40768791083166617 12:0.8712489282652186 13:0.13246641897685052 14:0.14075450128608175 15:0.0757359245498714 16:0.13818233781080308 17:0.14075450128608175 18:0.0757359245498714 20:0.4476993426693341 23:0.24849957130608746 25:0.009574164046870535 
-1.0 1:0.2567876536153187 2:0.2294941411831952 3:0.43355244355530154 4:0.0038582452129179764 5:0.2214918548156616 6:0.7722206344669905 7:0.25664475564446987 8:0.2294941411831952 9:0.43355244355530154 10:0.0038582452129179764 11:0.2214918548156616 12:0.7722206344669905 13:0.0757359245498714 14:0.13246641897685052 15:0.14075450128608175 16:0.13818233781080308 17:0.09659902829379823 18:0.06244641326093169 20:0.5747356387539297 23:0.5482995141468991 25:0.009574164046870535 
-0.48352335683385994 1:0.11703343812517862 2:0.7166333238068019 3:0.43355244355530154 4:0.5683052300657331 5:0.21263218062303516 6:0.9079737067733639 7:0.5851671906258931 8:0.7166333238068019 9:0.43355244355530154 10:0.5683052300657331 11:0.2633609602743641 12:0.907830808802515 13:0.0757359245498714 14:0.13246641897685052 15:0.14075450128608175 16:0.15461560445841668 17:0.18448128036581882 18:0.18448128036581882 20:0.019291226064589884 23:0.010860245784509859 25:0.009574164046870535 
