svm_type c_svc
kernel_type linear
nr_class 2
total_sv 19
rho -2.1071762257498214
label -1 5
probA -1.8235217702469224
probB 0.18218736983648257
nr_sv 10 9
SV
1.0 1:0.46959696671815754 2:0.5847493329588541 3:0.6143800028085943 4:0.004774610307541075 5:0.8182839488835838 6:0.004774610307541075 7:0.46959696671815754 8:0.5847493329588541 9:0.6143800028085943 10:0.004774610307541075 11:0.8182839488835838 12:0.004774610307541075 13:0.1814351916865609 14:0.07611290549080185 15:0.13144221317230725 16:0.13649768290970368 17:0.15306838927116978 18:0.13649768290970368 19:0.6096053925010533 20:0.4002246875438843 22:0.44193231287740486 23:0.8477741890183963 25:0.00968965033000983 
1.0 1:0.004212891447830361 2:0.37803679258531103 3:0.4468473528998736 4:0.00435332116275804 5:0.004915040022468754 7:0.004212891447830361 8:0.3773346440106727 9:0.4468473528998736 10:0.00435332116275804 11:0.004915040022468754 13:0.13649768290970368 14:0.15306838927116978 15:0.06403595000702149 16:0.13649768290970368 17:0.13649768290970368 20:0.016570706361466087 23:0.012638674343491082 25:0.00968965033000983 
1.0 1:0.5750596826288442 2:0.7247577587417497 3:0.4468473528998736 4:0.004915040022468754 7:0.5847493329588541 8:0.7247577587417497 9:0.4468473528998736 10:0.004915040022468754 13:0.07611290549080185 14:0.13144221317230725 15:0.06403595000702149 16:0.13649768290970368 20:0.5750596826288442 23:0.498244628563404 25:0.00968965033000983 
0.10601153481482811 1:0.4371577025698638 2:0.575200112343772 3:0.4468473528998736 4:0.004774610307541075 5:0.30276646538407526 6:0.6532790338435613 7:0.4371577025698638 8:0.5860132003932031 9:0.4468473528998736 10:0.004774610307541075 11:0.30276646538407526 12:0.6532790338435613 13:0.13860412863361887 14:0.15306838927116978 15:0.06403595000702149 16:0.13649768290970368 17:0.15138323269203763 18:0.09563263586574919 20:0.5750596826288442 23:0.5285774469877826 25:0.00968965033000983 
0.9502849753668157 1:0.8337312175256284 2:0.004072461732902682 3:0.3719983148434209 4:0.6121331273697515 5:0.303328184243786 6:0.4153910967560736 7:0.8337312175256284 8:0.004072461732902682 9:0.3719983148434209 10:0.6121331273697515 11:0.303328184243786 12:0.41567195618592895 13:0.13144221317230725 14:0.13860412863361887 15:0.13860412863361887 16:0.06403595000702149 17:0.13860412863361887 18:0.1814351916865609 20:0.1411318635023171 21:0.6096053925010533 23:0.5589102654121613 24:0.5589102654121613 25:0.010953517764358938 26:0.1111111111111111 
0.75437202881621 1:0.6024434770397417 2:0.5659317511585451 3:0.8932734166549642 4:0.9827271450638955 5:0.02583906754669288 6:0.5722510883302907 7:0.6018817581800309 8:0.5659317511585451 9:0.8932734166549642 10:0.9827271450638955 11:0.02583906754669288 12:0.5847493329588541 13:0.09563263586574919 14:0.13144221317230725 15:0.13860412863361887 16:0.13860412863361887 17:0.15306838927116978 18:0.07611290549080185 19:0.8866732200533632 20:0.1411318635023171 22:0.9401769414408089 23:0.5589102654121613 25:0.010953517764358938 26:0.1111111111111111 
0.4672144627742414 1:0.5377053784580818 2:0.5201516640921219 3:0.3719983148434209 4:0.004915040022468754 7:0.5375649487431541 8:0.5195899452324112 9:0.3719983148434209 10:0.004915040022468754 13:0.13144221317230725 14:0.09563263586574919 15:0.13860412863361887 16:0.13649768290970368 20:0.10223283246735008 23:0.6593175115854515 25:0.00968965033000983 
0.4630436005623378 1:0.004212891447830361 2:0.12708889200954923 3:0.4468473528998736 4:0.00435332116275804 5:0.6669007161915461 6:0.5722510883302907 7:0.004212891447830361 8:0.12708889200954923 9:0.4468473528998736 10:0.00435332116275804 11:0.6060946496278613 12:0.5722510883302907 13:0.13649768290970368 14:0.15306838927116978 15:0.06403595000702149 16:0.13649768290970368 17:0.15138323269203763 18:0.15138323269203763 20:0.18691195056874035 23:0.6535598932734167 25:0.00968965033000983 
0.9032264415664674 1:0.4468473528998736 2:0.9203763516360062 3:0.4288723493891307 4:0.004915040022468754 7:0.4468473528998736 8:0.9203763516360062 9:0.4288723493891307 10:0.004915040022468754 13:0.06403595000702149 14:0.09563263586574919 15:0.13860412863361887 16:0.13649768290970368 20:0.22861957590226092 23:0.9413003791602303 25:0.00968965033000983 
1.0 1:0.2721527875298413 2:0.7237747507372561 3:0.7521415531526471 4:0.4468473528998736 5:0.7000421289144783 6:0.8602724336469597 7:0.2721527875298413 8:0.7239151804521837 9:0.7521415531526471 10:0.4468473528998736 11:0.7000421289144783 12:0.8602724336469597 13:0.09563263586574919 14:0.1814351916865609 15:0.09563263586574919 16:0.06403595000702149 17:0.09563263586574919 18:0.09563263586574919 19:0.7444179188316248 20:0.7781210504142677 22:0.5204325235219772 23:0.5750596826288442 25:0.00968965033000983 
-1.0 1:0.6772925150961944 2:0.7173149838505828 3:0.9323128774048589 4:0.9827271450638955 5:0.37859851144502177 6:0.7508776857182979 7:0.6772925150961944 8:0.7439966296868418 9:0.9323128774048589 10:0.9827271450638955 11:0.938351355146749 12:0.7508776857182979 13:0.13144221317230725 14:0.1814351916865609 15:0.1814351916865609 16:0.13860412863361887 17:0.07611290549080185 18:0.13144221317230725 19:0.9230445162196321 20:0.5847493329588541 22:0.44193231287740486 23:0.8209521134672096 25:0.00968965033000983 
-0.48535574891831046 1:0.9331554556944249 2:0.8972054486729392 3:0.9827271450638955 4:0.004915040022468754 7:0.9331554556944249 8:0.8972054486729392 9:0.9827271450638955 10:0.004915040022468754 13:0.09563263586574919 14:0.09563263586574919 15:0.13860412863361887 16:0.13649768290970368 20:0.050133408229181296 23:0.6563684875719702 25:0.00968965033000983 
-0.1587972949825897 1:0.9936806628282545 2:0.2162617609886252 3:0.9602583906754669 4:0.5353180733043111 5:0.9778121050414268 6:0.1878949585732341 7:0.9978935542760848 8:0.21471703412442072 9:0.9602583906754669 10:0.5353180733043111 11:0.9778121050414268 12:0.2576885268922904 13:0.1814351916865609 14:0.1814351916865609 15:0.1814351916865609 16:0.15138323269203763 17:0.15138323269203763 18:0.1814351916865609 19:0.953236904929083 20:0.5750596826288442 22:0.44193231287740486 23:0.30740064597668865 25:0.00968965033000983 
-1.0 1:0.004774610307541075 2:0.3962926555259093 3:0.5750596826288442 4:0.4468473528998736 5:0.6080606656368488 6:0.004774610307541075 7:0.004774610307541075 8:0.3962926555259093 9:0.5847493329588541 10:0.4468473528998736 11:0.6080606656368488 12:0.004774610307541075 13:0.13649768290970368 14:0.13860412863361887 15:0.07611290549080185 16:0.06403595000702149 17:0.09563263586574919 18:0.13649768290970368 20:0.15840471843842158 23:0.2214576604409493 25:0.00968965033000983 
-1.0 1:0.27917427327622524 2:0.5659317511585451 3:0.9827271450638955 4:0.004915040022468754 7:0.27791040584187615 8:0.5659317511585451 9:0.9827271450638955 10:0.004915040022468754 13:0.09563263586574919 14:0.13144221317230725 15:0.13860412863361887 16:0.13649768290970368 20:0.050133408229181296 23:0.6563684875719702 25:0.00968965033000983 
-1.0 1:0.27917427327622524 2:0.5659317511585451 3:0.9827271450638955 4:0.004774610307541075 5:0.5916303889903104 6:0.5635444460047746 7:0.27791040584187615 8:0.5659317511585451 9:0.9827271450638955 10:0.004774610307541075 11:0.5847493329588541 12:0.5629827271450639 13:0.09563263586574919 14:0.13144221317230725 15:0.13860412863361887 16:0.13649768290970368 17:0.07611290549080185 18:0.13144221317230725 20:0.5722510883302907 23:0.3719983148434209 25:0.00968965033000983 
-1.0 3:0.11683752281982868 9:0.5847493329588541 15:0.07611290549080185 20:0.9425642465945794 23:0.3719983148434209 25:0.00968965033000983 
-1.0 1:0.9601179609605393 2:0.9827271450638955 3:0.5722510883302907 4:0.004915040022468754 7:0.9601179609605393 8:0.9827271450638955 9:0.5847493329588541 10:0.004915040022468754 13:0.13144221317230725 14:0.13860412863361887 15:0.07611290549080185 16:0.13649768290970368 20:0.050133408229181296 23:0.6563684875719702 25:0.00968965033000983 
-1.0 1:0.7407667462435051 2:0.24659457941300378 3:0.5847493329588541 4:0.6837522819828675 5:0.5722510883302907 6:0.23830922623227074 7:0.7407667462435051 8:0.24659457941300378 9:0.5847493329588541 10:0.6837522819828675 11:0.5847493329588541 12:0.23830922623227074 13:0.13860412863361887 14:0.1814351916865609 15:0.07611290549080185 16:0.06403595000702149 17:0.07611290549080185 18:0.15306838927116978 20:0.26850161494172164 23:0.5580676871225951 25:0.00968965033000983 
