svm_type c_svc
kernel_type linear
nr_class 2
total_sv 46
rho -1.7472359919057532
label -1 8
probA -1.5510737683057259
probB -0.09487042422775942
nr_sv 23 23
SV
1.0 3:0.0943126607602172 4:0.03715347242069163 5:0.2567876536153187 6:0.2294941411831952 9:0.48185195770220063 10:0.03715347242069163 11:0.25664475564446987 12:0.2294941411831952 15:0.13246641897685052 16:0.13818233781080308 17:0.0757359245498714 18:0.13246641897685052 19:0.0941697627893684 20:0.8465275793083739 22:0.5482995141468991 23:0.7837953701057445 25:0.009574164046870535 
1.0 1:0.26293226636181766 2:0.9002572163475279 3:0.43355244355530154 4:0.00400114318376679 5:0.004572735067162046 6:0.6724778508145184 7:0.2633609602743641 8:0.9002572163475279 9:0.43355244355530154 10:0.00400114318376679 11:0.004572735067162046 12:0.6724778508145184 13:0.18448128036581882 14:0.09659902829379823 15:0.14075450128608175 16:0.13818233781080308 17:0.13818233781080308 18:0.15461560445841668 20:0.019291226064589884 23:0.011717633609602743 25:0.009574164046870535 
0.17797441232991898 4:0.45127179194055445 5:0.9379822806516147 6:0.6874821377536439 10:0.9981423263789654 11:0.9379822806516147 12:0.6874821377536439 16:0.18448128036581882 17:0.0757359245498714 18:0.13246641897685052 20:0.048728208059445555 21:0.4476993426693341 23:0.8192340668762503 24:0.8818233781080309 25:0.009574164046870535 
0.6336232861936223 1:0.37753643898256645 2:0.5858816804801372 3:0.23320948842526437 4:0.00400114318376679 5:0.00471563303801086 7:0.37753643898256645 8:0.5851671906258931 9:0.23292369248356673 10:0.00400114318376679 11:0.00471563303801086 13:0.14075450128608175 14:0.0757359245498714 15:0.13246641897685052 16:0.13818233781080308 17:0.13818233781080308 19:0.22677907973706773 20:0.01557587882252072 22:0.4476993426693341 23:0.032437839382680765 25:0.009574164046870535 
1.0 1:0.42369248356673334 2:0.38339525578736783 3:0.5804515575878822 4:0.0038582452129179764 5:0.20062875107173478 6:0.7802229208345242 7:0.42369248356673334 8:0.38339525578736783 9:0.5851671906258931 10:0.0038582452129179764 11:0.20062875107173478 12:0.7802229208345242 13:0.18448128036581882 14:0.14075450128608175 15:0.0757359245498714 16:0.13818233781080308 17:0.13246641897685052 18:0.09659902829379823 20:0.5002857959416976 23:0.21691911974849956 25:0.009574164046870535 
1.0 3:0.14318376679051156 4:0.43355244355530154 5:0.393255215775936 6:0.3789654186910546 9:0.14318376679051156 10:0.43355244355530154 11:0.393255215775936 12:0.3789654186910546 15:0.13246641897685052 16:0.14075450128608175 17:0.13246641897685052 18:0.14075450128608175 19:0.14304086881966277 20:0.11631894827093456 22:0.08345241497570735 23:0.13346670477279224 25:0.009574164046870535 
1.0 1:0.0038582452129179764 2:0.7570734495570163 3:0.3789654186910546 4:0.004572735067162046 5:0.0563018005144327 6:0.004572735067162046 7:0.0038582452129179764 8:0.7570734495570163 9:0.3789654186910546 10:0.004572735067162046 11:0.0563018005144327 12:0.004572735067162046 13:0.13818233781080308 14:0.14075450128608175 15:0.14075450128608175 16:0.13818233781080308 17:0.15633038010860245 18:0.13818233781080308 20:0.2962274935695913 23:0.5664475564446985 25:0.009574164046870535 
1.0 1:0.40011431837667905 2:0.3789654186910546 3:0.5803086596170335 4:0.004572735067162046 5:0.40768791083166617 6:0.6607602172049157 7:0.40011431837667905 8:0.3789654186910546 9:0.5851671906258931 10:0.004572735067162046 11:0.40768791083166617 12:0.8712489282652186 13:0.13246641897685052 14:0.14075450128608175 15:0.0757359245498714 16:0.13818233781080308 17:0.14075450128608175 18:0.0757359245498714 20:0.4476993426693341 23:0.24849957130608746 25:0.009574164046870535 
1.0 1:0.7174907116318948 2:0.6819091168905401 3:0.19176907687910832 4:0.004572735067162046 5:0.6817662189196914 6:0.9292655044298371 7:0.7174907116318948 8:0.6819091168905401 9:0.2633609602743641 10:0.004572735067162046 11:0.6817662189196914 12:0.9292655044298371 13:0.13246641897685052 14:0.09659902829379823 15:0.18448128036581882 16:0.13818233781080308 17:0.13246641897685052 18:0.09659902829379823 20:0.012717919405544441 23:0.0174335524435553 25:0.009574164046870535 
1.0 1:0.0038582452129179764 2:0.379394112603601 3:0.19176907687910832 4:0.9819948556730494 5:0.9292655044298371 6:0.9042583595312946 7:0.0038582452129179764 8:0.379394112603601 9:0.2633609602743641 10:0.9819948556730494 11:0.9292655044298371 12:0.9042583595312946 13:0.13818233781080308 14:0.13246641897685052 15:0.18448128036581882 16:0.09659902829379823 17:0.09659902829379823 18:0.09659902829379823 20:0.021434695627322094 23:8.573878250928837E-4 25:0.009574164046870535 
0.15432770606121235 1:0.6724778508145184 2:0.8099456987710775 3:0.43355244355530154 4:0.4519862817947985 5:0.43355244355530154 6:0.23478136610460132 7:0.6724778508145184 8:0.8100885967419262 9:0.43355244355530154 10:0.4519862817947985 11:0.43355244355530154 12:0.23478136610460132 13:0.15461560445841668 14:0.18448128036581882 15:0.14075450128608175 16:0.06244641326093169 17:0.14075450128608175 18:0.15633038010860245 20:0.6036010288653901 23:0.21263218062303516 25:0.009574164046870535 
0.2620132952537806 1:0.016861960560160046 2:0.9229779937124892 3:0.4225492997999428 4:0.40625893112317807 5:0.6164618462417834 6:0.00400114318376679 7:0.016861960560160046 8:0.9229779937124892 9:0.4225492997999428 10:0.40625893112317807 11:0.6164618462417834 12:0.00400114318376679 13:0.0757359245498714 14:0.13246641897685052 15:0.09659902829379823 16:0.0757359245498714 17:0.13246641897685052 18:0.13818233781080308 19:0.407830808802515 20:0.03158045155758788 22:0.99156901971992 23:0.025864532723635324 25:0.009574164046870535 
1.0 3:0.08216633323806802 4:0.40625893112317807 5:0.6164618462417834 6:0.705058588168048 9:0.08216633323806802 10:0.40625893112317807 11:0.6164618462417834 12:0.705058588168048 15:0.09659902829379823 16:0.0757359245498714 17:0.13246641897685052 18:0.14075450128608175 19:0.08130894541297513 20:0.03615318662474993 22:0.99156901971992 23:0.009717062017719349 25:0.009574164046870535 
1.0 1:0.8719634181194627 2:0.24664189768505287 3:0.0038582452129179764 4:0.00400114318376679 5:0.4519862817947985 6:0.705058588168048 7:0.9981423263789654 8:0.24607030580165762 9:0.0038582452129179764 10:0.00400114318376679 11:0.4519862817947985 12:0.705058588168048 13:0.18448128036581882 14:0.18448128036581882 15:0.13818233781080308 16:0.13818233781080308 17:0.06244641326093169 18:0.14075450128608175 20:0.012717919405544441 23:0.4519862817947985 25:0.009574164046870535 
1.0 1:0.4622749356959131 2:0.004572735067162046 3:0.8928265218633895 4:0.004572735067162046 5:0.5422977993712489 6:0.19176907687910832 7:0.4622749356959131 8:0.004572735067162046 9:0.8928265218633895 10:0.004572735067162046 11:0.5422977993712489 12:0.2633609602743641 13:0.18448128036581882 14:0.13818233781080308 15:0.14075450128608175 16:0.13818233781080308 17:0.15461560445841668 18:0.18448128036581882 19:0.8861103172334953 20:0.5804515575878822 22:0.9389825664475564 23:0.4476993426693341 25:0.009574164046870535 
1.0 1:0.19176907687910832 2:0.7156330380108602 3:0.3789654186910546 4:0.004572735067162046 5:0.6256073163761074 6:0.1444698485281509 7:0.2633609602743641 8:0.7156330380108602 9:0.3789654186910546 10:0.004572735067162046 11:0.6256073163761074 12:0.1444698485281509 13:0.18448128036581882 14:0.13246641897685052 15:0.14075450128608175 16:0.13818233781080308 17:0.13246641897685052 18:0.13246641897685052 20:0.5804515575878822 23:0.8193769648470992 25:0.009574164046870535 
0.5225225226727214 1:0.6817662189196914 2:0.40625893112317807 3:0.7119176907687911 4:0.2562160617319234 5:0.5878822520720206 6:0.3789654186910546 7:0.6817662189196914 8:0.40625893112317807 9:0.7119176907687911 10:0.2562160617319234 11:0.5878822520720206 12:0.3789654186910546 13:0.13246641897685052 14:0.0757359245498714 15:0.09659902829379823 16:0.14075450128608175 17:0.13246641897685052 18:0.14075450128608175 19:0.7033438125178623 20:0.407830808802515 22:0.5673049442697914 23:0.03158045155758788 25:0.009574164046870535 
1.0 1:0.9214061160331524 2:0.9379822806516147 3:0.03000857387825093 4:0.004572735067162046 5:0.6956273220920263 6:0.24978565304372677 7:0.9214061160331524 8:0.9379822806516147 9:0.03000857387825093 10:0.004572735067162046 11:0.6956273220920263 12:0.24978565304372677 13:0.0757359245498714 14:0.0757359245498714 15:0.09659902829379823 16:0.13818233781080308 17:0.09659902829379823 18:0.09659902829379823 20:0.004286939125464418 23:0.678193769648471 25:0.009574164046870535 
1.0 1:0.6471849099742784 2:0.352529294084024 3:0.7722206344669905 4:0.00471563303801086 7:0.6471849099742784 8:0.352529294084024 9:0.7722206344669905 10:0.00471563303801086 13:0.09659902829379823 14:0.13246641897685052 15:0.06244641326093169 16:0.13818233781080308 19:0.7690768791083167 20:0.1107459274078308 22:0.936981994855673 23:0.03658188053729637 25:0.009574164046870535 
1.0 1:0.4519862817947985 2:0.9195484424121178 3:0.43355244355530154 4:0.00471563303801086 7:0.4519862817947985 8:0.9195484424121178 9:0.43355244355530154 10:0.00471563303801086 13:0.06244641326093169 14:0.09659902829379823 15:0.14075450128608175 16:0.13818233781080308 20:0.23420977422120606 23:0.940125750214347 25:0.009574164046870535 
1.0 1:0.8465275793083739 2:0.7416404687053444 3:0.19176907687910832 4:0.00400114318376679 5:0.00471563303801086 7:0.8465275793083739 8:0.7416404687053444 9:0.2633609602743641 10:0.00400114318376679 11:0.00471563303801086 13:0.15461560445841668 14:0.09659902829379823 15:0.18448128036581882 16:0.13818233781080308 17:0.13818233781080308 20:0.4924264075450129 23:0.9394112603601029 25:0.009574164046870535 
1.0 1:0.6997713632466419 2:0.5804515575878822 3:0.6494712775078594 4:0.9694198342383538 5:0.6703343812517862 6:0.8410974564161189 7:0.6997713632466419 8:0.5851671906258931 9:0.6494712775078594 10:0.5998856816233209 11:0.6706201771934839 12:0.8412403543869678 13:0.13246641897685052 14:0.0757359245498714 15:0.13246641897685052 16:0.15461560445841668 17:0.18448128036581882 18:0.14075450128608175 19:0.64818519577022 20:0.3789654186910546 21:0.9627036296084596 22:0.7837953701057445 23:0.4476993426693341 24:0.9394112603601029 25:0.009574164046870535 
1.0 1:0.5858816804801372 2:0.9418405258645327 3:0.8459559874249786 4:0.9379822806516147 5:0.9226921977707917 6:0.7046298942555016 7:0.5851671906258931 8:0.9416976278936839 9:0.8458130894541297 10:0.9379822806516147 11:0.9226921977707917 12:0.7046298942555016 13:0.0757359245498714 14:0.13246641897685052 15:0.09659902829379823 16:0.0757359245498714 17:0.13246641897685052 18:0.09659902829379823 19:0.8452414975707345 20:0.3789654186910546 22:0.4476993426693341 23:0.4476993426693341 25:0.009574164046870535 26:0.125 
-1.0 1:0.8465275793083739 2:0.7429265504429837 3:0.7376393255215776 4:0.9828522434981424 5:0.5358673906830523 6:0.6587596456130322 7:0.8465275793083739 8:0.7430694484138325 9:0.7376393255215776 10:0.9828522434981424 11:0.5358673906830523 12:0.6587596456130322 13:0.15461560445841668 14:0.18448128036581882 15:0.14075450128608175 16:0.14075450128608175 17:0.18448128036581882 18:0.09659902829379823 19:0.7286367533581023 20:0.17776507573592454 22:0.9389825664475564 23:0.22677907973706773 25:0.009574164046870535 
-0.05447115238604195 2:0.12660760217204917 3:0.4352672192054873 4:0.4519862817947985 5:0.9828522434981424 6:0.9215490140040011 8:0.6230351529008288 9:0.4352672192054873 10:0.4519862817947985 11:0.9828522434981424 12:0.9214061160331524 14:0.13246641897685052 15:0.09659902829379823 16:0.06244641326093169 17:0.14075450128608175 18:0.09659902829379823 19:0.43355244355530154 20:0.1466133180908831 22:0.7837953701057445 23:0.4468419548442412 25:0.009574164046870535 
-1.0 1:0.5803086596170335 2:0.5621606173192341 3:0.3789654186910546 4:0.0038582452129179764 5:0.9058302372106316 6:0.31780508716776223 7:0.5851671906258931 8:0.5621606173192341 9:0.3789654186910546 10:0.0038582452129179764 11:0.9058302372106316 12:0.31780508716776223 13:0.0757359245498714 14:0.13246641897685052 15:0.14075450128608175 16:0.13818233781080308 17:0.13246641897685052 18:0.09659902829379823 20:0.12746498999714204 23:0.43098028008002287 25:0.009574164046870535 
-1.0 2:0.1034581308945413 3:0.9828522434981424 4:0.004572735067162046 5:0.19091168905401543 6:0.4519862817947985 8:0.5310088596741926 9:0.9828522434981424 10:0.004572735067162046 11:0.19091168905401543 12:0.4519862817947985 14:0.13246641897685052 15:0.14075450128608175 16:0.13818233781080308 17:0.15633038010860245 18:0.06244641326093169 20:0.12746498999714204 23:0.43098028008002287 25:0.009574164046870535 
-1.0 1:0.9828522434981424 2:0.12760788796799086 3:0.004572735067162046 4:0.4519862817947985 5:0.18062303515290082 6:0.12989425550157188 7:0.9828522434981424 8:0.12760788796799086 9:0.004572735067162046 10:0.4519862817947985 11:0.9189768505287225 12:0.6324664189768505 13:0.14075450128608175 14:0.15633038010860245 15:0.13818233781080308 16:0.06244641326093169 17:0.13246641897685052 18:0.13246641897685052 20:0.1907687910831666 23:0.64818519577022 25:0.009574164046870535 
-1.0 1:0.3761074592740783 2:0.22377822234924263 3:0.0038582452129179764 4:0.4519862817947985 5:0.19091168905401543 6:0.00400114318376679 7:0.3761074592740783 8:0.22320663046584738 9:0.0038582452129179764 10:0.4519862817947985 11:0.19091168905401543 12:0.00400114318376679 13:0.14075450128608175 14:0.13246641897685052 15:0.13818233781080308 16:0.06244641326093169 17:0.15633038010860245 18:0.13818233781080308 20:0.12746498999714204 23:0.43098028008002287 25:0.009574164046870535 
-1.0 1:0.0038582452129179764 2:0.12760788796799086 3:0.4519862817947985 4:0.00400114318376679 5:0.6617605030008574 6:0.5803086596170335 7:0.0038582452129179764 8:0.12760788796799086 9:0.4519862817947985 10:0.00400114318376679 11:0.5998856816233209 12:0.5803086596170335 13:0.13818233781080308 14:0.15633038010860245 15:0.06244641326093169 16:0.13818233781080308 17:0.15461560445841668 18:0.15461560445841668 20:0.1907687910831666 23:0.64818519577022 25:0.009574164046870535 
-0.1331486180897665 1:0.6230351529008288 2:0.19176907687910832 3:0.9151186053158045 4:0.00471563303801086 7:0.6230351529008288 8:0.2633609602743641 9:0.5998856816233209 10:0.00471563303801086 13:0.13246641897685052 14:0.18448128036581882 15:0.15461560445841668 16:0.13818233781080308 19:0.9141183195198628 20:0.9798513861103172 22:0.6707630751643326 23:0.9801371820520148 25:0.009574164046870535 
-1.0 1:0.8060874535581595 2:0.8209488425264361 3:0.004572735067162046 4:0.004572735067162046 5:0.5422977993712489 6:0.45127179194055445 7:0.8070877393541012 8:0.8209488425264361 9:0.004572735067162046 10:0.004572735067162046 11:0.5422977993712489 12:0.9981423263789654 13:0.18448128036581882 14:0.09659902829379823 15:0.13818233781080308 16:0.13818233781080308 17:0.15461560445841668 18:0.18448128036581882 20:0.8159474135467276 23:0.4476993426693341 25:0.009574164046870535 
-0.34924908420087125 1:0.6601886253215205 2:0.5400114318376679 3:0.8575307230637325 4:0.4519862817947985 5:0.6587596456130322 6:0.9214061160331524 7:0.6603315232923692 8:0.5400114318376679 9:0.8575307230637325 10:0.4519862817947985 11:0.6587596456130322 12:0.9214061160331524 13:0.18448128036581882 14:0.09659902829379823 15:0.09659902829379823 16:0.06244641326093169 17:0.09659902829379823 18:0.09659902829379823 19:0.8465275793083739 20:0.8159474135467276 22:0.6630465847384968 23:0.4476993426693341 25:0.009574164046870535 
-1.0 3:0.0471563303801086 4:0.4519862817947985 5:0.11446127464989997 6:0.21834809945698772 9:0.22920834524149758 10:0.4519862817947985 11:0.11446127464989997 12:0.21834809945698772 15:0.13246641897685052 16:0.06244641326093169 17:0.15633038010860245 18:0.09659902829379823 19:0.046584738496713345 20:0.1014575593026579 22:0.822520720205773 23:0.43098028008002287 25:0.009574164046870535 
-1.0 1:0.8951128893969705 2:0.9828522434981424 3:0.7935124321234639 4:0.4519862817947985 5:0.11488996856244642 6:0.004572735067162046 7:0.8951128893969705 8:0.9828522434981424 9:0.7935124321234639 10:0.4519862817947985 11:0.11488996856244642 12:0.004572735067162046 13:0.09659902829379823 14:0.14075450128608175 15:0.18448128036581882 16:0.06244641326093169 17:0.15633038010860245 18:0.13818233781080308 19:0.7837953701057445 20:0.1014575593026579 22:0.4468419548442412 23:0.43098028008002287 25:0.009574164046870535 
-1.0 1:0.8306659045441555 2:0.9828522434981424 3:0.002572163475278651 4:0.002572163475278651 5:0.004572735067162046 6:0.6617605030008574 7:0.8306659045441555 8:0.9828522434981424 9:0.003429551300371535 10:0.003429551300371535 11:0.004572735067162046 12:0.5998856816233209 13:0.18448128036581882 14:0.14075450128608175 15:0.13818233781080308 16:0.13818233781080308 17:0.13818233781080308 18:0.15461560445841668 20:0.7033438125178623 23:0.2562160617319234 25:0.009574164046870535 
-1.0 1:0.6471849099742784 2:0.7667905115747357 3:0.7722206344669905 4:0.2562160617319234 5:0.30108602457845096 6:0.5803086596170335 7:0.6471849099742784 8:0.7667905115747357 9:0.7722206344669905 10:0.2562160617319234 11:0.30108602457845096 12:0.5851671906258931 13:0.09659902829379823 14:0.13246641897685052 15:0.14075450128608175 16:0.14075450128608175 17:0.13246641897685052 18:0.0757359245498714 19:0.7690768791083167 20:0.7033438125178623 22:0.936981994855673 23:0.2562160617319234 25:0.009574164046870535 
-1.0 1:0.08645327236353244 2:0.6940554444126893 3:0.004572735067162046 4:0.004572735067162046 5:0.5851671906258931 6:0.8546727636467563 7:0.08645327236353244 8:0.6940554444126893 9:0.004572735067162046 10:0.004572735067162046 11:0.5851671906258931 12:0.8546727636467563 13:0.14075450128608175 14:0.09659902829379823 15:0.13818233781080308 16:0.13818233781080308 17:0.0757359245498714 18:0.13246641897685052 20:0.16847670763075165 23:0.22677907973706773 25:0.009574164046870535 
-1.0 1:0.40625893112317807 2:0.09517004858531009 3:0.004572735067162046 4:0.005001428979708488 5:0.00400114318376679 6:0.4519862817947985 7:0.40625893112317807 8:0.4907116318948271 9:0.004572735067162046 10:0.005001428979708488 11:0.00400114318376679 12:0.4519862817947985 13:0.0757359245498714 14:0.13246641897685052 15:0.13818233781080308 16:0.13818233781080308 17:0.13818233781080308 18:0.06244641326093169 20:0.11703343812517862 21:0.004858531008859674 23:0.5851671906258931 24:0.004858531008859674 25:0.009574164046870535 
-1.0 1:0.30808802515004285 2:0.8522434981423264 3:0.48185195770220063 4:0.005001428979708488 5:0.00400114318376679 7:0.30808802515004285 8:0.9981423263789654 9:0.48185195770220063 10:0.005001428979708488 11:0.00400114318376679 13:0.14075450128608175 14:0.18448128036581882 15:0.09659902829379823 16:0.13818233781080308 17:0.13818233781080308 19:0.47999428408116607 20:0.23420977422120606 21:0.004858531008859674 22:0.5482995141468991 23:0.9987139182623607 24:0.004858531008859674 25:0.009574164046870535 
-1.0 3:0.08116604744212633 4:0.0054301228922549296 5:0.7274935695913118 6:0.9292655044298371 9:0.08116604744212633 10:0.0054301228922549296 11:0.7274935695913118 12:0.9292655044298371 15:0.14075450128608175 16:0.13818233781080308 17:0.09659902829379823 18:0.09659902829379823 19:0.0808802515004287 20:0.019291226064589884 21:0.004858531008859674 22:0.9837096313232352 23:0.025864532723635324 24:0.004858531008859674 25:0.009574164046870535 
-1.0 1:0.646756216061732 2:0.3789654186910546 3:0.002572163475278651 4:0.002572163475278651 5:0.4519862817947985 6:0.5804515575878822 7:0.646756216061732 8:0.3789654186910546 9:0.003572449271220349 10:0.003572449271220349 11:0.4519862817947985 12:0.5851671906258931 13:0.13246641897685052 14:0.14075450128608175 15:0.13818233781080308 16:0.13818233781080308 17:0.06244641326093169 18:0.0757359245498714 20:0.13132323521006 23:0.9378393826807659 25:0.009574164046870535 
-0.21359236783457627 1:0.2636467562160617 2:0.2745070020005716 3:0.21549014004001144 4:0.004572735067162046 5:0.7722206344669905 6:0.6617605030008574 7:0.2633609602743641 8:0.2745070020005716 9:0.215061446127465 10:0.004572735067162046 11:0.7722206344669905 12:0.5998856816233209 13:0.18448128036581882 14:0.09659902829379823 15:0.18448128036581882 16:0.13818233781080308 17:0.14075450128608175 18:0.15461560445841668 19:0.21263218062303516 20:0.30808802515004285 22:0.6437553586739069 23:0.9378393826807659 25:0.009574164046870535 
-1.0 2:0.10517290654472707 3:0.13232352100600173 4:0.004572735067162046 5:0.2750785938839668 6:0.6719062589311232 8:0.5385824521291798 9:0.13232352100600173 10:0.004572735067162046 11:0.2743641040297228 12:0.6719062589311232 14:0.13246641897685052 15:0.13246641897685052 16:0.13818233781080308 17:0.09659902829379823 18:0.13246641897685052 19:0.1321806230351529 20:0.9982852243498143 22:0.3289511288939697 23:0.30808802515004285 25:0.009574164046870535 
-1.0 1:0.3789654186910546 2:0.5804515575878822 3:0.7212060588739639 4:0.6791940554444127 5:0.5858816804801372 6:0.6889111174621321 7:0.3789654186910546 8:0.5851671906258931 9:0.7212060588739639 10:0.6791940554444127 11:0.5851671906258931 12:0.6887682194912832 13:0.14075450128608175 14:0.0757359245498714 15:0.13246641897685052 16:0.06244641326093169 17:0.0757359245498714 18:0.13246641897685052 19:0.7196341811946271 20:0.16033152329236924 22:0.5052872249214061 23:0.45441554729922834 25:0.009574164046870535 
-1.0 1:0.27750785938839667 2:0.977707916547585 3:0.8148042297799372 4:0.4519862817947985 5:0.3746784795655902 6:0.3122320663046585 7:0.27750785938839667 8:0.977707916547585 9:0.8148042297799372 10:0.4519862817947985 11:0.3746784795655902 12:0.30808802515004285 13:0.09659902829379823 14:0.15461560445841668 15:0.18448128036581882 16:0.06244641326093169 17:0.15633038010860245 18:0.0757359245498714 19:0.7837953701057445 20:0.053015147184909975 22:0.5658759645613032 23:0.5398685338668191 25:0.009574164046870535 
