svm_type c_svc
kernel_type linear
nr_class 2
total_sv 93
rho 0.2545461706287894
label -1 7
probA -1.8956358081926303
probB 0.04070294471885054
nr_sv 46 47
SV
1.0 1:0.003715347242069163 2:0.23478136610460132 3:0.4519862817947985 4:0.0010002857959416976 5:0.0010002857959416976 6:0.00400114318376679 7:0.003715347242069163 8:0.23478136610460132 9:0.4519862817947985 10:0.0010002857959416976 11:0.0010002857959416976 12:0.00400114318376679 13:0.14075450128608175 14:0.13246641897685052 15:0.06244641326093169 16:0.13818233781080308 17:0.13818233781080308 18:0.13818233781080308 20:0.9379822806516147 23:0.3885395827379251 25:0.009574164046870535 
1.0 1:0.11603315232923693 2:0.45141468991140327 3:0.43355244355530154 4:0.4742783652472135 5:0.3789654186910546 6:0.7202057730780222 7:0.5851671906258931 8:0.45141468991140327 9:0.43355244355530154 10:0.4742783652472135 11:0.3789654186910546 12:0.7202057730780222 13:0.0757359245498714 14:0.15461560445841668 15:0.14075450128608175 16:0.13246641897685052 17:0.14075450128608175 18:0.13246641897685052 20:0.019291226064589884 21:0.46570448699628464 23:0.011717633609602743 24:0.9056873392397828 25:0.009574164046870535 
1.0 1:0.5858816804801372 2:0.38611031723349526 3:0.3789654186910546 4:0.004572735067162046 5:0.993855387253501 6:0.43355244355530154 7:0.5851671906258931 8:0.38611031723349526 9:0.3789654186910546 10:0.004572735067162046 11:0.9981423263789654 12:0.43355244355530154 13:0.0757359245498714 14:0.14075450128608175 15:0.14075450128608175 16:0.13818233781080308 17:0.18448128036581882 18:0.14075450128608175 20:0.14361246070305803 23:0.5664475564446985 25:0.011003143755358673 
1.0 3:0.0471563303801086 4:0.4519862817947985 5:0.11446127464989997 6:0.21834809945698772 9:0.22920834524149758 10:0.4519862817947985 11:0.11446127464989997 12:0.21834809945698772 15:0.13246641897685052 16:0.06244641326093169 17:0.15633038010860245 18:0.09659902829379823 19:0.046584738496713345 20:0.1014575593026579 22:0.822520720205773 23:0.43098028008002287 25:0.009574164046870535 
1.0 2:0.17547870820234351 3:0.40625893112317807 4:0.2562160617319234 5:0.019291226064589884 6:0.00943126607602172 8:0.8992569305515862 9:0.40625893112317807 10:0.2562160617319234 11:0.019291226064589884 12:0.00943126607602172 14:0.13246641897685052 15:0.0757359245498714 16:0.14075450128608175 17:0.0757359245498714 18:0.13818233781080308 20:0.010574449842812233 23:0.010717347813661047 25:0.009574164046870535 
1.0 2:0.16719062589311232 3:0.0850242926550443 8:0.16719062589311232 9:0.0850242926550443 14:0.14075450128608175 15:0.15633038010860245 19:0.08488139468419549 20:0.019291226064589884 22:0.9056873392397828 23:0.013146613318090883 25:0.009574164046870535 
0.8073546231920401 1:0.2562160617319234 2:0.6356101743355245 3:0.3789654186910546 4:0.00471563303801086 7:0.2562160617319234 8:0.6348956844812804 9:0.3789654186910546 10:0.00471563303801086 13:0.14075450128608175 14:0.13246641897685052 15:0.14075450128608175 16:0.13818233781080308 20:0.6036010288653901 23:0.21263218062303516 25:0.009574164046870535 
1.0 1:0.4519862817947985 2:0.28865390111460415 3:0.3761074592740783 4:0.00400114318376679 5:0.00471563303801086 7:0.4519862817947985 8:0.2885110031437554 9:0.3761074592740783 10:0.00400114318376679 11:0.00471563303801086 13:0.06244641326093169 14:0.13246641897685052 15:0.14075450128608175 16:0.13818233781080308 17:0.13818233781080308 20:0.04958559588453844 23:0.9837096313232352 25:0.009574164046870535 
1.0 1:0.22820805944555586 2:0.4519862817947985 3:0.3789654186910546 4:0.0010002857959416976 7:0.22806516147470707 8:0.4519862817947985 9:0.3789654186910546 10:0.0010002857959416976 13:0.13246641897685052 14:0.06244641326093169 15:0.14075450128608175 16:0.13818233781080308 20:0.11703343812517862 23:0.25107173478136613 25:0.009574164046870535 
1.0 1:0.05601600457273507 2:0.004572735067162046 3:0.2562160617319234 4:0.00471563303801086 7:0.2669334095455845 8:0.004572735067162046 9:0.2562160617319234 10:0.00471563303801086 13:0.13246641897685052 14:0.13818233781080308 15:0.14075450128608175 16:0.13818233781080308 20:0.13575307230637326 23:0.30808802515004285 25:0.009574164046870535 
1.0 1:0.2755072877965133 2:0.6791940554444127 3:0.5803086596170335 4:0.00471563303801086 7:0.2755072877965133 8:0.6791940554444127 9:0.5851671906258931 10:0.00471563303801086 13:0.15633038010860245 14:0.06244641326093169 15:0.0757359245498714 16:0.13818233781080308 20:0.24335524435553016 23:0.5395827379251215 25:0.009574164046870535 
1.0 1:0.3655330094312661 2:0.8992569305515862 3:0.3761074592740783 4:0.00471563303801086 7:0.3655330094312661 8:0.8992569305515862 9:0.3761074592740783 10:0.00471563303801086 13:0.09659902829379823 14:0.13246641897685052 15:0.14075450128608175 16:0.13818233781080308 20:0.20677336381823377 23:0.5401543298085167 25:0.011003143755358673 
1.0 3:0.00943126607602172 9:0.00943126607602172 15:0.06244641326093169 20:0.12932266361817663 23:7.144898542440697E-4 25:0.009574164046870535 
1.0 1:0.8148042297799372 2:0.0533009431266076 3:0.4519862817947985 4:0.3122320663046585 5:0.23292369248356673 6:0.0010002857959416976 7:0.8148042297799372 8:0.0533009431266076 9:0.4519862817947985 10:0.30808802515004285 11:0.23292369248356673 12:0.0010002857959416976 13:0.18448128036581882 14:0.15633038010860245 15:0.06244641326093169 16:0.0757359245498714 17:0.13246641897685052 18:0.13818233781080308 20:0.3745355815947414 21:0.30808802515004285 23:0.6511860531580451 24:0.9056873392397828 25:0.009574164046870535 
1.0 1:0.3789654186910546 2:0.30594455558731065 3:0.004572735067162046 4:0.004572735067162046 5:0.125178622463561 6:0.004572735067162046 7:0.3789654186910546 8:0.30594455558731065 9:0.004572735067162046 10:0.004572735067162046 11:0.125178622463561 12:0.004572735067162046 13:0.14075450128608175 14:0.15633038010860245 15:0.13818233781080308 16:0.13818233781080308 17:0.15633038010860245 18:0.13818233781080308 20:0.05573020863103744 23:0.6713346670477279 25:0.009574164046870535 
0.055352874368371933 1:0.40625893112317807 2:0.09517004858531009 3:0.004572735067162046 4:0.005001428979708488 5:0.00400114318376679 6:0.4519862817947985 7:0.40625893112317807 8:0.4907116318948271 9:0.004572735067162046 10:0.005001428979708488 11:0.00400114318376679 12:0.4519862817947985 13:0.0757359245498714 14:0.13246641897685052 15:0.13818233781080308 16:0.13818233781080308 17:0.13818233781080308 18:0.06244641326093169 20:0.11703343812517862 21:0.004858531008859674 23:0.5851671906258931 24:0.004858531008859674 25:0.009574164046870535 
1.0 1:0.19005430122892256 2:0.4355530151471849 3:0.43355244355530154 7:0.19005430122892256 8:0.4355530151471849 9:0.43355244355530154 13:0.13246641897685052 14:0.18448128036581882 15:0.14075450128608175 20:0.22192054872820807 23:0.6511860531580451 25:0.009574164046870535 26:0.0 
0.6178737156093279 2:0.16261789082595027 3:0.9828522434981424 8:0.8309517004858531 9:0.9828522434981424 14:0.13246641897685052 15:0.14075450128608175 20:0.1466133180908831 23:0.2562160617319234 25:0.009574164046870535 
1.0 1:0.40625893112317807 2:0.7326378965418691 3:0.4519862817947985 4:0.004572735067162046 5:0.3843955415833095 6:0.3392397827950843 7:0.40625893112317807 8:0.7326378965418691 9:0.4519862817947985 10:0.004572735067162046 11:0.9379822806516147 12:0.3390968848242355 13:0.0757359245498714 14:0.13246641897685052 15:0.06244641326093169 16:0.13818233781080308 17:0.0757359245498714 18:0.13246641897685052 20:0.40625893112317807 23:0.5398685338668191 25:0.009574164046870535 
1.0 1:0.6030294369819948 2:0.9971420405830237 3:0.9997142040583024 4:0.48085167190625894 5:0.6921977707916548 6:0.5858816804801372 7:0.6030294369819948 8:0.9971420405830237 9:0.9997142040583024 10:0.48099456987710776 11:0.6921977707916548 12:0.5851671906258931 13:0.0757359245498714 14:0.13246641897685052 15:0.18448128036581882 16:0.18448128036581882 17:0.14075450128608175 18:0.0757359245498714 20:0.11703343812517862 21:0.47999428408116607 23:0.5420120034295512 24:0.7837953701057445 25:0.009574164046870535 
0.563337873705171 1:0.17547870820234351 2:0.42883681051729067 3:0.2562160617319234 4:0.004572735067162046 5:0.712775078593884 6:0.3789654186910546 7:0.8992569305515862 8:0.42869391254644185 9:0.2562160617319234 10:0.004572735067162046 11:0.712775078593884 12:0.3789654186910546 13:0.13246641897685052 14:0.18448128036581882 15:0.14075450128608175 16:0.13818233781080308 17:0.09659902829379823 18:0.14075450128608175 20:0.6320377250643041 23:0.5422977993712489 25:0.009574164046870535 
1.0 1:0.30808802515004285 2:0.8522434981423264 3:0.48185195770220063 4:0.005001428979708488 5:0.00400114318376679 7:0.30808802515004285 8:0.9981423263789654 9:0.48185195770220063 10:0.005001428979708488 11:0.00400114318376679 13:0.14075450128608175 14:0.18448128036581882 15:0.09659902829379823 16:0.13818233781080308 17:0.13818233781080308 19:0.47999428408116607 20:0.23420977422120606 21:0.004858531008859674 22:0.5482995141468991 23:0.9987139182623607 24:0.004858531008859674 25:0.009574164046870535 
1.0 1:0.40625893112317807 2:0.8681051729065448 3:0.0038582452129179764 4:0.00400114318376679 5:0.4519862817947985 6:0.5858816804801372 7:0.40625893112317807 8:0.8681051729065448 9:0.0038582452129179764 10:0.00400114318376679 11:0.4519862817947985 12:0.5851671906258931 13:0.14075450128608175 14:0.13246641897685052 15:0.13818233781080308 16:0.13818233781080308 17:0.06244641326093169 18:0.0757359245498714 20:0.5851671906258931 23:0.3885395827379251 25:0.009574164046870535 
1.0 1:0.612174907116319 2:0.7297799371248929 3:0.004572735067162046 4:0.004572735067162046 5:0.11703343812517862 6:0.16076021720491568 7:0.612174907116319 8:0.7297799371248929 9:0.004572735067162046 10:0.004572735067162046 11:0.5851671906258931 12:0.16076021720491568 13:0.13246641897685052 14:0.13246641897685052 15:0.13818233781080308 16:0.13818233781080308 17:0.0757359245498714 18:0.13246641897685052 20:0.153615318662475 23:0.6791940554444127 25:0.009574164046870535 
1.0 1:0.6624749928551015 2:0.7174907116318948 3:0.3789654186910546 4:0.6511860531580451 5:0.8465275793083739 6:0.8636753358102315 7:0.6620462989425551 8:0.7174907116318948 9:0.3789654186910546 10:0.6511860531580451 11:0.8465275793083739 12:0.8638182337810804 13:0.09659902829379823 14:0.13246641897685052 15:0.14075450128608175 16:0.09659902829379823 17:0.15461560445841668 18:0.18448128036581882 20:0.11603315232923693 23:0.4519862817947985 25:0.009574164046870535 
1.0 1:0.7376393255215776 2:0.25278651043155187 3:0.5851671906258931 4:0.6791940554444127 5:0.5803086596170335 6:0.24435553015147185 7:0.7376393255215776 8:0.25278651043155187 9:0.5851671906258931 10:0.6791940554444127 11:0.5851671906258931 12:0.24435553015147185 13:0.14075450128608175 14:0.18448128036581882 15:0.0757359245498714 16:0.06244641326093169 17:0.0757359245498714 18:0.15633038010860245 20:0.27407830808802514 23:0.5655901686196056 25:0.009574164046870535 
0.5416753233616403 1:0.9828522434981424 2:0.03158045155758788 3:0.2562160617319234 4:0.6594741354672764 7:0.9828522434981424 8:0.03158045155758788 9:0.2562160617319234 10:0.6594741354672764 13:0.14075450128608175 14:0.15633038010860245 15:0.14075450128608175 16:0.09659902829379823 20:0.5871677622177766 21:0.6564732780794512 23:0.03415261503286653 24:0.6630465847384968 25:0.009574164046870535 
1.0 1:0.5422977993712489 2:0.46098885395827377 3:0.01886253215204344 4:0.004572735067162046 5:0.8489568448128036 6:0.5858816804801372 7:0.5422977993712489 8:0.4611317519291226 9:0.01886253215204344 10:0.004572735067162046 11:0.8490997427836525 12:0.5851671906258931 13:0.15461560445841668 14:0.18448128036581882 15:0.0757359245498714 16:0.13818233781080308 17:0.14075450128608175 18:0.0757359245498714 20:0.9342669334095456 23:0.5655901686196056 25:0.009574164046870535 
1.0 3:0.08116604744212633 4:0.0054301228922549296 5:0.7274935695913118 6:0.9292655044298371 9:0.08116604744212633 10:0.0054301228922549296 11:0.7274935695913118 12:0.9292655044298371 15:0.14075450128608175 16:0.13818233781080308 17:0.09659902829379823 18:0.09659902829379823 19:0.0808802515004287 20:0.019291226064589884 21:0.004858531008859674 22:0.9837096313232352 23:0.025864532723635324 24:0.004858531008859674 25:0.009574164046870535 
1.0 1:0.27750785938839667 2:0.7202057730780222 3:0.7493569591311804 4:0.4519862817947985 5:0.6956273220920263 6:0.8592454987139183 7:0.27750785938839667 8:0.7203486710488711 9:0.7493569591311804 10:0.4519862817947985 11:0.6956273220920263 12:0.8592454987139183 13:0.09659902829379823 14:0.18448128036581882 15:0.09659902829379823 16:0.06244641326093169 17:0.09659902829379823 18:0.09659902829379823 19:0.7413546727636467 20:0.7759359817090598 22:0.5278651043155187 23:0.5804515575878822 25:0.009574164046870535 
1.0 1:0.646756216061732 2:0.3789654186910546 3:0.002572163475278651 4:0.002572163475278651 5:0.4519862817947985 6:0.5804515575878822 7:0.646756216061732 8:0.3789654186910546 9:0.003572449271220349 10:0.003572449271220349 11:0.4519862817947985 12:0.5851671906258931 13:0.13246641897685052 14:0.14075450128608175 15:0.13818233781080308 16:0.13818233781080308 17:0.06244641326093169 18:0.0757359245498714 20:0.13132323521006 23:0.9378393826807659 25:0.009574164046870535 
1.0 1:0.2636467562160617 2:0.2745070020005716 3:0.21549014004001144 4:0.004572735067162046 5:0.7722206344669905 6:0.6617605030008574 7:0.2633609602743641 8:0.2745070020005716 9:0.215061446127465 10:0.004572735067162046 11:0.7722206344669905 12:0.5998856816233209 13:0.18448128036581882 14:0.09659902829379823 15:0.18448128036581882 16:0.13818233781080308 17:0.14075450128608175 18:0.15461560445841668 19:0.21263218062303516 20:0.30808802515004285 22:0.6437553586739069 23:0.9378393826807659 25:0.009574164046870535 
1.0 2:0.10517290654472707 3:0.13232352100600173 4:0.004572735067162046 5:0.2750785938839668 6:0.6719062589311232 8:0.5385824521291798 9:0.13232352100600173 10:0.004572735067162046 11:0.2743641040297228 12:0.6719062589311232 14:0.13246641897685052 15:0.13246641897685052 16:0.13818233781080308 17:0.09659902829379823 18:0.13246641897685052 19:0.1321806230351529 20:0.9982852243498143 22:0.3289511288939697 23:0.30808802515004285 25:0.009574164046870535 
1.0 1:0.9694198342383538 2:0.9488425264361247 3:0.9828522434981424 4:0.7376393255215776 5:0.5858816804801372 6:0.07159188339525578 7:0.5998856816233209 8:0.9489854244069734 9:0.9828522434981424 10:0.7376393255215776 11:0.5851671906258931 12:0.07159188339525578 13:0.15461560445841668 14:0.18448128036581882 15:0.14075450128608175 16:0.14075450128608175 17:0.0757359245498714 18:0.13246641897685052 20:0.04572735067162046 21:0.7286367533581023 23:0.22192054872820807 24:0.9389825664475564 25:0.009574164046870535 
0.5121829785359011 1:0.5803086596170335 2:0.22920834524149758 3:0.32123463846813377 4:0.21577593598170905 5:0.7722206344669905 6:0.8712489282652186 7:0.5851671906258931 8:0.22920834524149758 9:0.32123463846813377 10:0.21577593598170905 11:0.7722206344669905 12:0.8712489282652186 13:0.0757359245498714 14:0.13246641897685052 15:0.13246641897685052 16:0.09659902829379823 17:0.06244641326093169 18:0.0757359245498714 19:0.3126607602172049 20:0.05930265790225779 21:0.21263218062303516 22:0.4284081166047442 23:0.21691911974849956 24:0.8592454987139183 25:0.009574164046870535 
1.0 1:0.08659617033438125 2:0.6230351529008288 3:0.9828522434981424 4:0.004572735067162046 5:0.5997427836524721 6:0.4519862817947985 7:0.08659617033438125 8:0.6230351529008288 9:0.9828522434981424 10:0.004572735067162046 11:0.5997427836524721 12:0.4519862817947985 13:0.09659902829379823 14:0.09659902829379823 15:0.14075450128608175 16:0.13818233781080308 17:0.15633038010860245 18:0.06244641326093169 20:0.1220348671048871 23:0.33338096599028294 25:0.009574164046870535 
1.0 1:0.4519862817947985 2:0.9195484424121178 3:0.43355244355530154 4:0.00471563303801086 7:0.4519862817947985 8:0.9195484424121178 9:0.43355244355530154 10:0.00471563303801086 13:0.06244641326093169 14:0.09659902829379823 15:0.14075450128608175 16:0.13818233781080308 20:0.23420977422120606 23:0.940125750214347 25:0.009574164046870535 
1.0 1:0.7274935695913118 2:0.7576450414404116 3:0.9828522434981424 4:0.45127179194055445 5:0.9379822806516147 6:0.5385824521291798 7:0.7274935695913118 8:0.7576450414404116 9:0.9828522434981424 10:0.9981423263789654 11:0.9379822806516147 12:0.5385824521291798 13:0.09659902829379823 14:0.09659902829379823 15:0.14075450128608175 16:0.18448128036581882 17:0.0757359245498714 18:0.13246641897685052 20:0.2962274935695913 21:0.4476993426693341 23:0.6511860531580451 24:0.8818233781080309 25:0.009574164046870535 
1.0 1:0.3789654186910546 2:0.5804515575878822 3:0.7212060588739639 4:0.6791940554444127 5:0.5858816804801372 6:0.6889111174621321 7:0.3789654186910546 8:0.5851671906258931 9:0.7212060588739639 10:0.6791940554444127 11:0.5851671906258931 12:0.6887682194912832 13:0.14075450128608175 14:0.0757359245498714 15:0.13246641897685052 16:0.06244641326093169 17:0.0757359245498714 18:0.13246641897685052 19:0.7196341811946271 20:0.16033152329236924 22:0.5052872249214061 23:0.45441554729922834 25:0.009574164046870535 
1.0 1:0.12460703058016576 2:0.26193198056587597 3:0.6243212346384681 4:0.44498428122320666 5:0.00471563303801086 7:0.12460703058016576 8:0.26193198056587597 9:0.8712489282652186 10:0.44498428122320666 11:0.00471563303801086 13:0.15633038010860245 14:0.14075450128608175 15:0.0757359245498714 16:0.09659902829379823 17:0.13818233781080308 19:0.6191769076879108 20:0.43355244355530154 21:0.43355244355530154 22:0.4476993426693341 23:0.036724778508145185 24:0.6724778508145184 25:0.009574164046870535 
0.680462903265689 1:0.5858816804801372 2:0.9418405258645327 3:0.8459559874249786 4:0.9379822806516147 5:0.9226921977707917 6:0.7046298942555016 7:0.5851671906258931 8:0.9416976278936839 9:0.8458130894541297 10:0.9379822806516147 11:0.9226921977707917 12:0.7046298942555016 13:0.0757359245498714 14:0.13246641897685052 15:0.09659902829379823 16:0.0757359245498714 17:0.13246641897685052 18:0.09659902829379823 19:0.8452414975707345 20:0.3789654186910546 22:0.4476993426693341 23:0.4476993426693341 25:0.009574164046870535 
1.0 1:0.8712489282652186 2:0.44855673049442696 3:0.9828522434981424 4:0.5803086596170335 5:0.9964275507287796 6:0.00471563303801086 7:0.8712489282652186 8:0.44855673049442696 9:0.9828522434981424 10:0.5851671906258931 11:0.9964275507287796 12:0.00471563303801086 13:0.0757359245498714 14:0.13246641897685052 15:0.14075450128608175 16:0.0757359245498714 17:0.13246641897685052 18:0.13818233781080308 20:0.2416404687053444 23:0.8582452129179766 25:0.009574164046870535 
1.0 1:0.6949128322377822 2:0.3789654186910546 3:0.8712489282652186 4:0.5803086596170335 5:0.9964275507287796 6:0.00471563303801086 7:0.6949128322377822 8:0.3789654186910546 9:0.8712489282652186 10:0.5851671906258931 11:0.9964275507287796 12:0.00471563303801086 13:0.18448128036581882 14:0.14075450128608175 15:0.0757359245498714 16:0.0757359245498714 17:0.13246641897685052 18:0.13818233781080308 19:0.8661046013146614 20:0.4476993426693341 22:0.6724778508145184 23:0.8582452129179766 25:0.009574164046870535 
1.0 1:0.22677907973706773 2:0.38368105172906547 3:0.2562160617319234 4:0.004572735067162046 5:0.5422977993712489 6:0.45127179194055445 7:0.22677907973706773 8:0.38368105172906547 9:0.2562160617319234 10:0.004572735067162046 11:0.5422977993712489 12:0.9981423263789654 13:0.13246641897685052 14:0.09659902829379823 15:0.14075450128608175 16:0.13818233781080308 17:0.15461560445841668 18:0.18448128036581882 20:0.6320377250643041 23:0.4519862817947985 25:0.009574164046870535 
1.0 1:0.27750785938839667 2:0.977707916547585 3:0.8148042297799372 4:0.4519862817947985 5:0.3746784795655902 6:0.3122320663046585 7:0.27750785938839667 8:0.977707916547585 9:0.8148042297799372 10:0.4519862817947985 11:0.3746784795655902 12:0.30808802515004285 13:0.09659902829379823 14:0.15461560445841668 15:0.18448128036581882 16:0.06244641326093169 17:0.15633038010860245 18:0.0757359245498714 19:0.7837953701057445 20:0.053015147184909975 22:0.5658759645613032 23:0.5398685338668191 25:0.009574164046870535 
1.0 1:0.24106887682194914 2:0.9381251786224636 3:0.5961703343812518 4:0.9828522434981424 5:0.024435553015147184 6:0.40625893112317807 7:0.24106887682194914 8:0.9379822806516147 9:0.5955987424978565 10:0.9828522434981424 11:0.024435553015147184 12:0.40625893112317807 13:0.14075450128608175 14:0.0757359245498714 15:0.09659902829379823 16:0.14075450128608175 17:0.13246641897685052 18:0.14075450128608175 19:0.5925978851100314 20:0.5715918833952558 22:0.936981994855673 23:0.5664475564446985 25:0.011003143755358673 
-0.7368654608152059 1:0.5803086596170335 2:0.9901400400114319 3:0.3789654186910546 4:0.705058588168048 5:0.004572735067162046 6:0.5803086596170335 7:0.5851671906258931 8:0.9901400400114319 9:0.3789654186910546 10:0.705058588168048 11:0.004572735067162046 12:0.5851671906258931 13:0.0757359245498714 14:0.13246641897685052 15:0.14075450128608175 16:0.14075450128608175 17:0.13818233781080308 18:0.0757359245498714 20:0.5803086596170335 21:0.7033438125178623 23:0.4519862817947985 24:0.6630465847384968 25:0.009574164046870535 
-1.0 1:0.56987710774507 2:0.8143755358673906 3:0.3789654186910546 4:0.5683052300657331 5:0.977707916547585 6:0.45127179194055445 7:0.56987710774507 8:0.8143755358673906 9:0.3789654186910546 10:0.5683052300657331 11:0.977707916547585 12:0.9981423263789654 13:0.15461560445841668 14:0.13246641897685052 15:0.14075450128608175 16:0.15461560445841668 17:0.15461560445841668 18:0.18448128036581882 20:0.5801657616461846 23:0.6826236067447842 25:0.009574164046870535 
-1.0 1:0.3789654186910546 2:0.8885395827379251 3:0.9828522434981424 4:0.4519862817947985 5:0.6617605030008574 6:0.2636467562160617 7:0.3789654186910546 8:0.8885395827379251 9:0.9828522434981424 10:0.4519862817947985 11:0.5998856816233209 12:0.2633609602743641 13:0.14075450128608175 14:0.13246641897685052 15:0.14075450128608175 16:0.06244641326093169 17:0.15461560445841668 18:0.18448128036581882 20:0.5803086596170335 23:0.4519862817947985 25:0.009574164046870535 
-1.0 1:0.8636753358102315 2:0.6956273220920263 3:0.2562160617319234 4:0.6061731923406688 5:0.2562160617319234 6:0.30108602457845096 7:0.8638182337810804 8:0.6956273220920263 9:0.2562160617319234 10:0.6061731923406688 11:0.2562160617319234 12:0.30108602457845096 13:0.18448128036581882 14:0.09659902829379823 15:0.14075450128608175 16:0.06244641326093169 17:0.14075450128608175 18:0.13246641897685052 20:0.2962274935695913 21:0.6036010288653901 23:0.5664475564446985 24:0.5664475564446985 25:0.009574164046870535 
-1.0 1:0.3789654186910546 2:0.4908545298656759 3:0.19176907687910832 7:0.3789654186910546 8:0.4908545298656759 9:0.2633609602743641 13:0.14075450128608175 14:0.13246641897685052 15:0.18448128036581882 20:0.5803086596170335 23:0.4519862817947985 25:0.009574164046870535 
-1.0 1:0.4519862817947985 2:0.6636181766218919 3:0.2562160617319234 7:0.4519862817947985 8:0.6636181766218919 9:0.2562160617319234 13:0.06244641326093169 14:0.13246641897685052 15:0.14075450128608175 20:0.2962274935695913 23:0.9464132609316948 25:0.009574164046870535 
-1.0 1:0.9379822806516147 2:0.6327522149185482 3:0.2562160617319234 4:0.4519862817947985 5:0.6607602172049157 6:0.6327522149185482 7:0.9379822806516147 8:0.6327522149185482 9:0.2562160617319234 10:0.4519862817947985 11:0.8712489282652186 12:0.6327522149185482 13:0.0757359245498714 14:0.13246641897685052 15:0.14075450128608175 16:0.06244641326093169 17:0.0757359245498714 18:0.13246641897685052 20:0.2962274935695913 23:0.9464132609316948 25:0.009574164046870535 
-1.0 1:0.1823378108030866 2:0.2743641040297228 3:0.8992569305515862 4:0.2274935695913118 5:0.17147756501857675 7:0.1823378108030866 8:0.2743641040297228 9:0.8992569305515862 10:0.2274935695913118 11:0.17147756501857675 13:0.09659902829379823 14:0.09659902829379823 15:0.13246641897685052 16:0.13818233781080308 17:0.13818233781080308 19:0.8982566447556445 20:0.1793369534152615 21:0.22677907973706773 22:0.9389825664475564 23:0.3126607602172049 24:0.6510431551871964 25:0.009574164046870535 26:0.125 
-1.0 1:0.27107745070020006 2:0.2960845955987425 3:0.45127179194055445 4:0.0010002857959416976 7:0.27107745070020006 8:0.2960845955987425 9:0.9981423263789654 10:0.0010002857959416976 13:0.15633038010860245 14:0.15461560445841668 15:0.18448128036581882 16:0.13818233781080308 19:0.4476993426693341 20:0.5803086596170335 22:0.8818233781080309 23:0.8465275793083739 25:0.009574164046870535 
-0.47342311737142245 20:0.1793369534152615 23:0.3126607602172049 25:0.009574164046870535 26:0.125 
-1.0 1:0.11303229494141183 2:0.7857959416976279 3:0.6599028293798228 4:0.4519862817947985 5:0.7967990854529866 6:0.6243212346384681 7:0.11303229494141183 8:0.7859388396684767 9:0.6599028293798228 10:0.4519862817947985 11:0.7967990854529866 12:0.8712489282652186 13:0.15461560445841668 14:0.18448128036581882 15:0.09659902829379823 16:0.06244641326093169 17:0.13246641897685052 18:0.0757359245498714 19:0.6564732780794512 20:0.0420120034295513 22:0.6630465847384968 23:0.5655901686196056 25:0.009574164046870535 
-1.0 1:0.1733352386396113 2:0.9418405258645327 3:0.9828522434981424 7:0.1733352386396113 8:0.9416976278936839 9:0.9828522434981424 13:0.14075450128608175 14:0.13246641897685052 15:0.14075450128608175 20:0.5803086596170335 23:0.4519862817947985 25:0.009574164046870535 
-1.0 1:0.9381251786224636 2:0.84938553872535 3:0.9828522434981424 4:0.004572735067162046 5:0.6617605030008574 6:0.2636467562160617 7:0.9379822806516147 8:0.84938553872535 9:0.9828522434981424 10:0.004572735067162046 11:0.5998856816233209 12:0.2633609602743641 13:0.0757359245498714 14:0.13246641897685052 15:0.14075450128608175 16:0.13818233781080308 17:0.15461560445841668 18:0.18448128036581882 20:0.1670477279222635 23:0.22677907973706773 25:0.009574164046870535 
-1.0 1:0.8106601886253215 2:0.31094598456701916 3:0.9828522434981424 4:0.7376393255215776 5:0.9379822806516147 6:0.7490711631894827 7:0.8100885967419262 8:0.31094598456701916 9:0.9828522434981424 10:0.7376393255215776 11:0.9379822806516147 12:0.7490711631894827 13:0.18448128036581882 14:0.09659902829379823 15:0.14075450128608175 16:0.14075450128608175 17:0.0757359245498714 18:0.09659902829379823 20:0.1670477279222635 21:0.7286367533581023 23:0.22677907973706773 24:0.9389825664475564 25:0.009574164046870535 
-1.0 1:0.3789654186910546 2:0.9418405258645327 3:0.37753643898256645 4:0.19176907687910832 5:0.10474421263218062 6:0.00471563303801086 7:0.3789654186910546 8:0.9416976278936839 9:0.37753643898256645 10:0.2633609602743641 11:0.10474421263218062 12:0.00471563303801086 13:0.14075450128608175 14:0.13246641897685052 15:0.14075450128608175 16:0.18448128036581882 17:0.15633038010860245 18:0.13818233781080308 19:0.37639325521577593 20:0.5803086596170335 22:0.6629036867676479 23:0.3126607602172049 25:0.009574164046870535 26:0.125 
-1.0 1:0.7722206344669905 2:0.7072020577307803 3:0.2562160617319234 4:0.6061731923406688 5:0.6617605030008574 6:0.6511860531580451 7:0.7722206344669905 8:0.7072020577307803 9:0.2562160617319234 10:0.6061731923406688 11:0.5998856816233209 12:0.6511860531580451 13:0.14075450128608175 14:0.15633038010860245 15:0.14075450128608175 16:0.06244641326093169 17:0.15461560445841668 18:0.09659902829379823 20:0.2962274935695913 21:0.6036010288653901 23:0.4519862817947985 24:0.5664475564446985 25:0.009574164046870535 
-0.5348705217389309 3:0.14318376679051156 4:0.43355244355530154 5:0.393255215775936 6:0.3789654186910546 9:0.14318376679051156 10:0.43355244355530154 11:0.393255215775936 12:0.3789654186910546 15:0.13246641897685052 16:0.14075450128608175 17:0.13246641897685052 18:0.14075450128608175 19:0.14304086881966277 20:0.11631894827093456 22:0.08345241497570735 23:0.13346670477279224 25:0.009574164046870535 
-1.0 1:0.0038582452129179764 2:0.7570734495570163 3:0.3789654186910546 4:0.004572735067162046 5:0.0563018005144327 6:0.004572735067162046 7:0.0038582452129179764 8:0.7570734495570163 9:0.3789654186910546 10:0.004572735067162046 11:0.0563018005144327 12:0.004572735067162046 13:0.13818233781080308 14:0.14075450128608175 15:0.14075450128608175 16:0.13818233781080308 17:0.15633038010860245 18:0.13818233781080308 20:0.2962274935695913 23:0.5664475564446985 25:0.009574164046870535 
-1.0 4:0.004572735067162046 5:0.19091168905401543 6:0.4519862817947985 10:0.004572735067162046 11:0.19091168905401543 12:0.4519862817947985 16:0.13818233781080308 17:0.15633038010860245 18:0.06244641326093169 20:0.10302943698199486 23:0.43098028008002287 25:0.009574164046870535 
-1.0 1:0.0830237210631609 2:0.07659331237496428 3:0.5803086596170335 4:0.0010002857959416976 5:0.037439268362389255 6:0.2683623892540726 7:0.0830237210631609 8:0.07659331237496428 9:0.5851671906258931 10:0.0010002857959416976 11:0.037439268362389255 12:0.2683623892540726 13:0.09659902829379823 14:0.14075450128608175 15:0.0757359245498714 16:0.13818233781080308 17:0.14075450128608175 18:0.13246641897685052 20:0.43012289225493 23:0.9056873392397828 25:0.009574164046870535 
-1.0 1:0.3761074592740783 2:0.6779079737067734 3:0.3761074592740783 4:0.4519862817947985 5:0.3789654186910546 6:0.16218919691340383 7:0.3761074592740783 8:0.6779079737067734 9:0.3761074592740783 10:0.4519862817947985 11:0.3789654186910546 12:0.16218919691340383 13:0.14075450128608175 14:0.13246641897685052 15:0.14075450128608175 16:0.06244641326093169 17:0.14075450128608175 18:0.15633038010860245 20:0.08988282366390397 23:0.8818233781080309 25:0.009574164046870535 
-1.0 20:0.16247499285510145 23:0.2562160617319234 25:0.009574164046870535 
-1.0 2:0.11603315232923693 3:0.5385824521291798 4:0.004572735067162046 5:0.8465275793083739 6:0.9312660760217205 8:0.5851671906258931 9:0.5385824521291798 10:0.004572735067162046 11:0.8465275793083739 12:0.9316947699342669 14:0.0757359245498714 15:0.13246641897685052 16:0.13818233781080308 17:0.15461560445841668 18:0.18448128036581882 19:0.538439554158331 20:0.1261789082595027 22:0.43098028008002287 23:4.2869391254644185E-4 25:0.009574164046870535 26:0.5 
-1.0 1:0.211203200914547 2:0.8992569305515862 3:0.0038582452129179764 4:0.00400114318376679 7:0.211203200914547 8:0.8992569305515862 9:0.0038582452129179764 10:0.00400114318376679 13:0.09659902829379823 14:0.13246641897685052 15:0.13818233781080308 16:0.13818233781080308 20:0.10503000857387824 23:0.5398685338668191 25:0.009574164046870535 26:0.125 
-0.08449806755053502 3:0.17547870820234351 9:0.17547870820234351 15:0.14075450128608175 19:0.17533581023149472 20:0.538439554158331 22:0.9389825664475564 23:0.5398685338668191 25:0.009574164046870535 26:0.125 
-1.0 1:0.04315518719634181 2:0.8992569305515862 3:0.2562160617319234 7:0.211203200914547 8:0.8992569305515862 9:0.2562160617319234 13:0.09659902829379823 14:0.13246641897685052 15:0.14075450128608175 20:0.1793369534152615 23:0.43098028008002287 25:0.009574164046870535 26:0.125 
-1.0 1:0.004572735067162046 2:0.6077450700200057 3:0.5803086596170335 4:0.0038582452129179764 5:0.9058302372106316 6:0.31780508716776223 7:0.004572735067162046 8:0.6077450700200057 9:0.5851671906258931 10:0.0038582452129179764 11:0.9058302372106316 12:0.31780508716776223 13:0.13818233781080308 14:0.14075450128608175 15:0.0757359245498714 16:0.13818233781080308 17:0.13246641897685052 18:0.09659902829379823 20:0.5482995141468991 23:0.43098028008002287 25:0.009574164046870535 
-1.0 1:0.20034295513003716 2:0.4661331809088311 3:0.2562160617319234 7:0.20034295513003716 8:0.4661331809088311 9:0.2562160617319234 13:0.13246641897685052 14:0.09659902829379823 15:0.14075450128608175 20:0.30808802515004285 23:0.5664475564446985 25:0.009574164046870535 
-1.0 1:0.050157187767933695 2:0.4519862817947985 3:0.3789654186910546 7:0.050157187767933695 8:0.4519862817947985 9:0.3789654186910546 13:0.15633038010860245 14:0.06244641326093169 15:0.14075450128608175 20:0.13375250071448985 23:0.5871677622177766 25:0.009574164046870535 
-1.0 1:0.9819948556730494 2:0.5505858816804802 3:0.2562160617319234 4:0.7737925121463275 5:0.469276936267505 6:0.6934838525292941 7:0.9819948556730494 8:0.5503000857387825 9:0.2562160617319234 10:0.7737925121463275 11:0.4682766504715633 12:0.6934838525292941 13:0.14075450128608175 14:0.09659902829379823 15:0.14075450128608175 16:0.14075450128608175 17:0.18448128036581882 18:0.13246641897685052 20:0.07059159759931409 21:0.7690768791083167 23:0.7759359817090598 24:0.9371248928265219 25:0.009574164046870535 
-0.7634865906333027 1:0.38568162332094885 2:0.3843955415833095 3:0.2599314089739926 4:0.45127179194055445 5:0.5851671906258931 6:0.7274935695913118 7:0.38568162332094885 8:0.9379822806516147 9:0.25964561303229494 10:0.9981423263789654 11:0.5851671906258931 12:0.7274935695913118 13:0.13246641897685052 14:0.0757359245498714 15:0.09659902829379823 16:0.18448128036581882 17:0.0757359245498714 18:0.09659902829379823 19:0.2562160617319234 20:0.1177479279794227 21:0.4476993426693341 22:0.4476993426693341 23:0.038868248070877395 24:0.8818233781080309 25:0.009574164046870535 
-1.0 1:0.004572735067162046 2:0.6080308659617033 3:0.43355244355530154 4:0.5851671906258931 5:0.2702200628751072 6:0.8928265218633895 7:0.004572735067162046 8:0.6080308659617033 9:0.43355244355530154 10:0.5851671906258931 11:0.2702200628751072 12:0.8928265218633895 13:0.13818233781080308 14:0.09659902829379823 15:0.14075450128608175 16:0.0757359245498714 17:0.13246641897685052 18:0.14075450128608175 20:0.49928551014575595 23:0.4468419548442412 25:0.009574164046870535 
-0.8290362315491361 1:0.11160331523292369 2:0.2609316947699343 3:0.9721348956844813 4:0.26193198056587597 5:0.6243212346384681 6:0.43683909688482425 7:0.11160331523292369 8:0.2633609602743641 9:0.9639897113460989 10:0.26193198056587597 11:0.8712489282652186 12:0.43669619891397543 13:0.15461560445841668 14:0.18448128036581882 15:0.18448128036581882 16:0.14075450128608175 17:0.0757359245498714 18:0.13246641897685052 20:0.1220348671048871 21:0.26064589882823663 23:0.6510431551871964 24:0.42712203486710487 25:0.009574164046870535 
-0.06436277993063293 1:0.1177479279794227 2:0.32837953701057443 3:0.40625893112317807 4:0.6478993998285224 5:0.9927122034867105 6:0.6956273220920263 7:0.5851671906258931 8:0.32837953701057443 9:0.40625893112317807 10:0.6478993998285224 11:0.9981423263789654 12:0.6956273220920263 13:0.0757359245498714 14:0.18448128036581882 15:0.14075450128608175 16:0.09659902829379823 17:0.18448128036581882 18:0.09659902829379823 20:0.1220348671048871 23:0.6629036867676479 25:0.009574164046870535 
-1.0 1:0.7376393255215776 2:0.6011717633609602 3:0.4519862817947985 4:0.6208916833380966 5:0.8592454987139183 6:0.5422977993712489 7:0.7376393255215776 8:0.6011717633609602 9:0.4519862817947985 10:0.6208916833380966 11:0.8592454987139183 12:0.5422977993712489 13:0.14075450128608175 14:0.15633038010860245 15:0.06244641326093169 16:0.13246641897685052 17:0.06244641326093169 18:0.15461560445841668 20:0.6036010288653901 21:0.6191769076879108 23:0.2643612460703058 24:0.6191769076879108 25:0.009574164046870535 
-1.0 2:0.1823378108030866 3:0.28336667619319805 8:0.1823378108030866 9:0.28336667619319805 14:0.09659902829379823 15:0.09659902829379823 19:0.2817947985138611 20:0.538439554158331 22:0.6724778508145184 23:0.37367819376964845 25:0.009574164046870535 26:0.25 
-0.6204619460085801 1:0.016861960560160046 2:0.9229779937124892 3:0.4225492997999428 4:0.40625893112317807 5:0.6164618462417834 6:0.00400114318376679 7:0.016861960560160046 8:0.9229779937124892 9:0.4225492997999428 10:0.40625893112317807 11:0.6164618462417834 12:0.00400114318376679 13:0.0757359245498714 14:0.13246641897685052 15:0.09659902829379823 16:0.0757359245498714 17:0.13246641897685052 18:0.13818233781080308 19:0.407830808802515 20:0.03158045155758788 22:0.99156901971992 23:0.025864532723635324 25:0.009574164046870535 
-1.0 2:0.1177479279794227 3:0.6047442126321806 8:0.5851671906258931 9:0.6047442126321806 14:0.0757359245498714 15:0.13246641897685052 19:0.6036010288653901 20:0.538439554158331 22:0.936981994855673 23:0.9056873392397828 25:0.009574164046870535 26:0.25 
-1.0 3:0.08216633323806802 4:0.40625893112317807 5:0.6164618462417834 6:0.705058588168048 9:0.08216633323806802 10:0.40625893112317807 11:0.6164618462417834 12:0.705058588168048 15:0.09659902829379823 16:0.0757359245498714 17:0.13246641897685052 18:0.14075450128608175 19:0.08130894541297513 20:0.03615318662474993 22:0.99156901971992 23:0.009717062017719349 25:0.009574164046870535 
-1.0 1:0.3100885967419263 2:0.004572735067162046 3:0.37753643898256645 4:0.4519862817947985 5:0.9828522434981424 6:0.01886253215204344 7:0.30994569877107747 8:0.004572735067162046 9:0.37753643898256645 10:0.4519862817947985 11:0.9828522434981424 12:0.01886253215204344 13:0.09659902829379823 14:0.13818233781080308 15:0.14075450128608175 16:0.06244641326093169 17:0.14075450128608175 18:0.0757359245498714 19:0.37639325521577593 20:0.5851671906258931 22:0.6629036867676479 23:0.22192054872820807 25:0.009574164046870535 
-1.0 1:0.19176907687910832 2:0.7156330380108602 3:0.3789654186910546 4:0.004572735067162046 5:0.6256073163761074 6:0.1444698485281509 7:0.2633609602743641 8:0.7156330380108602 9:0.3789654186910546 10:0.004572735067162046 11:0.6256073163761074 12:0.1444698485281509 13:0.18448128036581882 14:0.13246641897685052 15:0.14075450128608175 16:0.13818233781080308 17:0.13246641897685052 18:0.13246641897685052 20:0.5804515575878822 23:0.8193769648470992 25:0.009574164046870535 
-1.0 1:0.0471563303801086 2:0.10202915118605316 3:0.4519862817947985 4:0.21834809945698772 5:0.11488996856244642 7:0.22920834524149758 8:0.10202915118605316 9:0.4519862817947985 10:0.21834809945698772 11:0.11488996856244642 13:0.13246641897685052 14:0.15633038010860245 15:0.06244641326093169 16:0.09659902829379823 17:0.13246641897685052 20:0.11431837667905116 21:0.21691911974849956 23:0.5434409831380395 24:0.24849957130608746 25:0.009574164046870535 
-1.0 1:0.43355244355530154 2:0.393255215775936 3:0.3789654186910546 4:0.0038582452129179764 5:0.6601886253215205 6:0.03515290082880823 7:0.43355244355530154 8:0.393255215775936 9:0.3789654186910546 10:0.0038582452129179764 11:0.6601886253215205 12:0.03515290082880823 13:0.14075450128608175 14:0.13246641897685052 15:0.14075450128608175 16:0.13818233781080308 17:0.13246641897685052 18:0.13818233781080308 20:0.0644469848528151 23:0.9409831380394399 25:0.009574164046870535 
-1.0 1:0.5803086596170335 2:0.46470420120034295 3:0.0038582452129179764 4:0.4519862817947985 5:0.8568162332094884 6:0.4455558731066019 7:0.5851671906258931 8:0.46470420120034295 9:0.0038582452129179764 10:0.4519862817947985 11:0.8712489282652186 12:0.4455558731066019 13:0.0757359245498714 14:0.13246641897685052 15:0.13818233781080308 16:0.06244641326093169 17:0.0757359245498714 18:0.13246641897685052 20:0.07130608745355815 23:0.6724778508145184 25:0.009574164046870535 
-1.0 1:0.5858816804801372 2:0.22977993712489284 3:0.3761074592740783 4:0.4519862817947985 5:0.3789654186910546 6:0.13446699056873393 7:0.5851671906258931 8:0.2294941411831952 9:0.3761074592740783 10:0.4519862817947985 11:0.3789654186910546 12:0.13446699056873393 13:0.0757359245498714 14:0.13246641897685052 15:0.14075450128608175 16:0.06244641326093169 17:0.14075450128608175 18:0.15633038010860245 20:0.04958559588453844 23:0.9389825664475564 25:0.009574164046870535 
-0.6712355764403957 1:0.6997713632466419 2:0.5804515575878822 3:0.6494712775078594 4:0.9694198342383538 5:0.6703343812517862 6:0.8410974564161189 7:0.6997713632466419 8:0.5851671906258931 9:0.6494712775078594 10:0.5998856816233209 11:0.6706201771934839 12:0.8412403543869678 13:0.13246641897685052 14:0.0757359245498714 15:0.13246641897685052 16:0.15461560445841668 17:0.18448128036581882 18:0.14075450128608175 19:0.64818519577022 20:0.3789654186910546 21:0.9627036296084596 22:0.7837953701057445 23:0.4476993426693341 24:0.9394112603601029 25:0.009574164046870535 
-1.0 1:0.2595027150614461 2:0.3789654186910546 3:0.5804515575878822 4:0.0038582452129179764 5:0.6126036010288654 6:0.004572735067162046 7:0.2595027150614461 8:0.3789654186910546 9:0.5851671906258931 10:0.0038582452129179764 11:0.6126036010288654 12:0.004572735067162046 13:0.13246641897685052 14:0.14075450128608175 15:0.0757359245498714 16:0.13818233781080308 17:0.13246641897685052 18:0.13818233781080308 20:0.14361246070305803 23:0.7837953701057445 25:0.009574164046870535 
