svm_type c_svc
kernel_type linear
nr_class 2
total_sv 27
rho -0.33001098122585515
label -1 6
probA -0.48600691501622745
probB -0.3200443794467351
nr_sv 15 12
SV
0.3420132132098301 1:0.7824209981005008 2:0.639613192885512 3:0.6667242272491798 4:0.005007770678639268 7:0.7824209981005008 8:0.639613192885512 9:0.6667242272491798 10:0.005007770678639268 13:0.08772232774995684 14:0.13192885512001382 15:0.13192885512001382 16:0.1367639440511138 19:0.6629252288033155 20:0.6102572958038336 22:0.7275082023830081 23:0.6940079433603868 25:0.0074253151441892595 26:0.9240506329113924 
1.0 2:0.1899499222932136 3:0.4586427214643412 4:0.3522707649801416 5:0.948540839233293 6:0.9159039889483681 8:0.1899499222932136 9:0.4586427214643412 10:0.3522707649801416 11:0.948540839233293 12:0.9159039889483681 14:0.1564496632705923 15:0.14125366948713522 16:0.026938352616128477 17:0.08772232774995684 18:0.13192885512001382 20:0.44448281816611984 21:0.3367294077016059 23:0.9889483681574858 24:0.7228457951994475 25:0.0074253151441892595 
1.0 1:0.946123294767743 2:0.3220514591607667 3:0.38836125021585216 4:0.004144361940942842 7:0.946123294767743 8:0.3220514591607667 9:0.38836125021585216 10:0.004144361940942842 13:0.13192885512001382 14:0.1367639440511138 15:0.1367639440511138 16:0.1367639440511138 20:0.6102572958038336 23:0.6102572958038336 25:0.0074253151441892595 
1.0 1:0.38335347953721294 2:0.5672595406665516 3:0.4586427214643412 7:0.38335347953721294 8:0.5672595406665516 9:0.4586427214643412 13:0.13192885512001382 14:0.13192885512001382 15:0.14125366948713522 20:0.12122258677257813 23:0.5720946295976516 25:0.008634087376964255 26:0.0 
1.0 1:0.44448281816611984 2:0.32049732343291315 3:0.38836125021585216 4:0.005007770678639268 7:0.44448281816611984 8:0.32049732343291315 9:0.38836125021585216 10:0.005007770678639268 13:0.13192885512001382 14:0.13192885512001382 15:0.14125366948713522 16:0.1367639440511138 20:0.12122258677257813 23:0.5720946295976516 25:0.008634087376964255 26:0.0 
0.22983016805227616 1:0.44448281816611984 2:0.32049732343291315 3:0.38836125021585216 4:0.23933690208944913 5:0.004144361940942842 6:0.7632533241236401 7:0.44448281816611984 8:0.32049732343291315 9:0.38836125021585216 10:0.23933690208944913 11:0.004144361940942842 12:0.7632533241236401 13:0.1367639440511138 14:0.1367639440511138 15:0.1367639440511138 16:0.13192885512001382 17:0.1367639440511138 18:0.08772232774995684 20:0.12122258677257813 21:0.23916422034190987 23:0.5720946295976516 24:0.4299775513728199 25:0.008634087376964255 26:0.0 
0.12321444106326752 1:0.9632187877741323 2:0.31566223450181313 3:0.928509756518736 4:0.005007770678639268 7:0.9632187877741323 8:0.31566223450181313 9:0.928509756518736 10:0.005007770678639268 13:0.1863236055948886 14:0.13192885512001382 15:0.14125366948713522 16:0.1367639440511138 19:0.9266102572958038 20:0.12122258677257813 22:0.4299775513728199 23:0.5720946295976516 25:0.008634087376964255 26:0.0 
1.0 1:0.0452426178552927 2:0.5672595406665516 3:0.4586427214643412 7:0.0452426178552927 8:0.5672595406665516 9:0.4586427214643412 13:0.1564496632705923 14:0.13192885512001382 15:0.14125366948713522 20:0.12122258677257813 23:0.5720946295976516 25:0.008634087376964255 26:0.0 
1.0 1:0.5672595406665516 2:0.7373510619927474 3:0.9772060093248144 7:0.5672595406665516 8:0.7373510619927474 9:0.9772060093248144 13:0.13192885512001382 14:0.13192885512001382 15:0.13192885512001382 19:0.9706441029183215 20:0.12122258677257813 22:0.25004317043688484 23:0.5720946295976516 25:0.008634087376964255 26:0.0 
0.15058187787478639 1:0.004144361940942842 2:0.04144361940942842 3:0.004144361940942842 4:0.004144361940942842 5:0.49853220514591606 6:0.004144361940942842 7:0.004144361940942842 8:0.04144361940942842 9:0.004144361940942842 10:0.004144361940942842 11:0.49853220514591606 12:0.004144361940942842 13:0.1367639440511138 14:0.1564496632705923 15:0.1367639440511138 16:0.1367639440511138 17:0.1367639440511138 18:0.1367639440511138 20:0.09203937143843896 23:0.9478501122431359 25:0.0074253151441892595 
1.0 1:0.39233293040925576 2:0.7824209981005008 3:0.44448281816611984 4:0.4586427214643412 5:0.05853911241581765 6:0.005007770678639268 7:0.39233293040925576 8:0.7824209981005008 9:0.44448281816611984 10:0.4586427214643412 11:0.05853911241581765 12:0.005007770678639268 13:0.1863236055948886 14:0.08772232774995684 15:0.13192885512001382 16:0.14125366948713522 17:0.1564496632705923 18:0.1367639440511138 20:0.10050077706786392 23:0.38836125021585216 25:0.0074253151441892595 26:0.189873417721519 
1.0 1:0.2096356415126921 2:0.5582800897945087 3:0.6225176998791228 4:0.004144361940942842 5:0.3522707649801416 6:0.639613192885512 7:0.2096356415126921 8:0.5582800897945087 9:0.6225176998791228 10:0.004144361940942842 11:0.3522707649801416 12:0.639613192885512 13:0.13192885512001382 14:0.1863236055948886 15:0.026938352616128477 16:0.1367639440511138 17:0.026938352616128477 18:0.08772232774995684 19:0.6102572958038336 20:0.01761353824900708 22:0.2540148506302884 23:0.3847349335175272 25:0.0074253151441892595 
1.0 1:0.2906233811086168 2:0.9784147815575893 3:0.39699533759281647 4:0.005007770678639268 7:0.2906233811086168 8:0.9784147815575893 9:0.39699533759281647 10:0.005007770678639268 13:0.13192885512001382 14:0.13192885512001382 15:0.1863236055948886 16:0.1367639440511138 19:0.38836125021585216 20:0.1875323778276636 22:0.44448281816611984 23:0.7050595752029011 25:0.0074253151441892595 
0.6969077558056533 1:0.5544810913486444 2:0.5503367294077016 3:0.4586427214643412 4:0.003626316698324987 5:0.9873942324296322 6:0.44448281816611984 7:0.5544810913486444 8:0.5503367294077016 9:0.4586427214643412 10:0.003626316698324987 11:0.9873942324296322 12:0.44448281816611984 13:0.08772232774995684 14:0.13192885512001382 15:0.14125366948713522 16:0.1367639440511138 17:0.08772232774995684 18:0.13192885512001382 20:0.18943187705059575 23:0.6940079433603868 25:0.0074253151441892595 
1.0 1:0.4586427214643412 2:0.6643066827836298 3:0.39699533759281647 4:0.004144361940942842 5:0.3522707649801416 6:0.639613192885512 7:0.4586427214643412 8:0.6643066827836298 9:0.39699533759281647 10:0.004144361940942842 11:0.3522707649801416 12:0.639613192885512 13:0.1367639440511138 14:0.1367639440511138 15:0.1367639440511138 16:0.1367639440511138 17:0.026938352616128477 18:0.1863236055948886 19:0.38836125021585216 20:0.17268174753928509 22:0.44448281816611984 23:0.5952339837679157 25:0.0074253151441892595 
-1.0 1:0.003453634950785702 2:0.8492488343982041 3:0.9873942324296322 4:0.003626316698324987 5:0.005007770678639268 7:0.003453634950785702 8:0.8492488343982041 9:0.9873942324296322 10:0.003626316698324987 11:0.005007770678639268 13:0.1367639440511138 14:0.1564496632705923 15:0.08772232774995684 16:0.1367639440511138 17:0.1367639440511138 20:0.3299948195475738 23:0.7202555689863581 25:0.0074253151441892595 
-1.0 1:0.011051631842514247 2:0.6760490416163012 3:0.22293213607321707 4:0.005007770678639268 7:0.011051631842514247 8:0.6760490416163012 9:0.22293213607321707 10:0.005007770678639268 13:0.1367639440511138 14:0.13192885512001382 15:0.08772232774995684 16:0.1367639440511138 20:0.3367294077016059 23:0.46986703505439475 25:0.0074253151441892595 
-1.0 1:0.43153168710067347 2:0.868589190122604 3:0.5562079088240373 4:0.005007770678639268 7:0.43153168710067347 8:0.868589190122604 9:0.5562079088240373 10:0.005007770678639268 13:0.1863236055948886 14:0.13192885512001382 15:0.08772232774995684 16:0.1367639440511138 19:0.5491279571749266 20:0.639613192885512 22:0.23916422034190987 23:0.01018822310481782 25:0.0074253151441892595 
-1.0 1:0.23933690208944913 2:0.4971507511656018 3:0.4586427214643412 4:0.007252633396649974 5:0.14971507511656018 6:0.7126575720946295 7:0.23933690208944913 8:0.4971507511656018 9:0.4586427214643412 10:0.007252633396649974 11:0.14971507511656018 12:0.7126575720946295 13:0.048350889310999824 14:0.13192885512001382 15:0.14125366948713522 16:0.1564496632705923 17:0.1564496632705923 18:0.026938352616128477 20:0.44448281816611984 23:0.8589190122604041 25:0.0074253151441892595 
-1.0 1:0.004144361940942842 2:0.5216715593161803 3:0.9873942324296322 4:0.005007770678639268 7:0.004144361940942842 8:0.5216715593161803 9:0.9873942324296322 10:0.005007770678639268 13:0.1367639440511138 14:0.1863236055948886 15:0.08772232774995684 16:0.1367639440511138 20:0.2699015714039026 23:0.440338456225177 25:0.0074253151441892595 
-1.0 1:0.6366776031773441 2:0.4203073735106199 3:0.5582800897945087 7:0.6366776031773441 8:0.4203073735106199 9:0.5582800897945087 13:0.13192885512001382 14:0.13192885512001382 15:0.1367639440511138 19:0.5491279571749266 20:0.6102572958038336 22:0.9067518563287861 23:0.6781212225867725 25:0.0074253151441892595 
-1.0 1:0.7487480573303402 2:0.38836125021585216 3:0.6102572958038336 4:0.004144361940942842 5:0.5724399930927301 6:0.8796408219651183 7:0.7487480573303402 8:0.38836125021585216 9:0.6102572958038336 10:0.004144361940942842 11:0.5724399930927301 12:0.8796408219651183 13:0.1863236055948886 14:0.1367639440511138 15:0.1367639440511138 16:0.1367639440511138 17:0.08772232774995684 18:0.13192885512001382 20:0.040580210671731995 23:0.25004317043688484 25:0.0074253151441892595 
-1.0 1:0.34536349507857017 2:0.38836125021585216 3:0.6413400103609048 4:0.004144361940942842 5:0.7452944223795545 6:0.7824209981005008 7:0.34536349507857017 8:0.38836125021585216 9:0.6413400103609048 10:0.004144361940942842 11:0.7452944223795545 12:0.7824209981005008 13:0.1367639440511138 14:0.1367639440511138 15:0.1367639440511138 16:0.1367639440511138 17:0.13192885512001382 18:0.13192885512001382 19:0.639613192885512 20:0.04955966154377482 22:0.7275082023830081 23:0.7275082023830081 25:0.0074253151441892595 
-1.0 1:0.7452944223795545 2:0.7824209981005008 3:0.44448281816611984 4:0.9873942324296322 5:0.6102572958038336 6:0.03850802970126058 7:0.7452944223795545 8:0.7824209981005008 9:0.44448281816611984 10:0.9873942324296322 11:0.6102572958038336 12:0.03850802970126058 13:0.13192885512001382 14:0.13192885512001382 15:0.13192885512001382 16:0.08772232774995684 17:0.13192885512001382 18:0.1564496632705923 20:0.1531687100673459 23:0.6463477810395442 25:0.0074253151441892595 
-0.5425474560058137 1:0.22880331548955277 2:0.4966327059229839 3:0.6413400103609048 4:0.9873942324296322 5:0.6908996719046797 6:0.3220514591607667 7:0.22880331548955277 8:0.4966327059229839 9:0.6413400103609048 10:0.9873942324296322 11:0.6908996719046797 12:0.3220514591607667 13:0.060783975133828355 14:0.13192885512001382 15:0.13192885512001382 16:0.08772232774995684 17:0.08772232774995684 18:0.13192885512001382 19:0.639613192885512 20:0.09203937143843896 22:0.7275082023830081 23:0.47245726126748405 25:0.0074253151441892595 
-1.0 1:0.004144361940942842 2:0.12139526852011742 3:0.004144361940942842 4:0.005525815921257123 7:0.004144361940942842 8:0.12139526852011742 9:0.004144361940942842 10:0.005525815921257123 13:0.1367639440511138 14:0.1564496632705923 15:0.1367639440511138 16:0.1367639440511138 20:0.14764289414608875 21:0.005353134173717838 23:0.6629252288033155 24:0.005353134173717838 25:0.0074253151441892595 
-1.0 1:0.8231738905197721 2:0.5171818338801588 3:0.4586427214643412 4:0.005007770678639268 7:0.8231738905197721 8:0.5171818338801588 9:0.4586427214643412 10:0.005007770678639268 13:0.13192885512001382 14:0.13192885512001382 15:0.14125366948713522 16:0.1367639440511138 20:0.1958211017095493 23:0.4714211707822483 25:0.0074253151441892595 
