svm_type c_svc
kernel_type linear
nr_class 2
total_sv 3
rho 0.6518347173324686
label -1 2
probA 1.4175368060547624
probB -1.2233127966134405
nr_sv 2 1
SV
0.36747122604308224 1:0.199274736660335 2:0.7439129683992401 3:0.38836125021585216 4:0.868589190122604 5:0.6382317389051977 6:0.38836125021585216 7:0.199274736660335 8:0.7439129683992401 9:0.38836125021585216 10:0.868589190122604 11:0.6382317389051977 12:0.38836125021585216 13:0.060783975133828355 14:0.13192885512001382 15:0.14125366948713522 16:0.13192885512001382 17:0.1367639440511138 18:0.1367639440511138 20:0.6102572958038336 23:0.38836125021585216 25:0.0074253151441892595 26:0.9240506329113924 
0.0611283110973529 1:0.9873942324296322 2:0.7824209981005008 3:0.9500949749611466 4:0.7824209981005008 5:0.29735796926264896 6:0.4323950958383699 7:0.9873942324296322 8:0.7824209981005008 9:0.9500949749611466 10:0.7824209981005008 11:0.29735796926264896 12:0.4323950958383699 13:0.08772232774995684 14:0.13192885512001382 15:0.13192885512001382 16:0.08772232774995684 17:0.13192885512001382 18:0.13192885512001382 19:0.9480227939906752 20:0.01899499222932136 21:0.7767225004317043 22:0.7275082023830081 23:0.7275082023830081 24:0.7254360214125367 25:0.0074253151441892595 
-0.42859953714043514 4:0.004144361940942842 5:0.44448281816611984 6:0.7558280089794509 10:0.004144361940942842 11:0.44448281816611984 12:0.7558280089794509 16:0.1367639440511138 17:0.13192885512001382 18:0.13192885512001382 20:0.07269901571403903 23:0.9126230357451217 25:0.0074253151441892595 
