svm_type c_svc
kernel_type linear
nr_class 2
total_sv 6
rho -0.5656784594939664
label -1 10
probA -0.36934956158065935
probB -0.4906259178777232
nr_sv 3 3
SV
0.867276257891196 1:0.39699533759281647 2:0.016577447763771368 3:0.22293213607321707 4:0.005007770678639268 7:0.39699533759281647 8:0.016577447763771368 9:0.22293213607321707 10:0.005007770678639268 13:0.1367639440511138 14:0.1564496632705923 15:0.08772232774995684 16:0.1367639440511138 20:0.018476946986703505 23:0.01018822310481782 25:0.0074253151441892595 
0.507351425722381 1:0.39699533759281647 2:0.6705232256950441 3:0.003453634950785702 4:0.003626316698324987 5:0.004144361940942842 6:0.8095320324641685 7:0.39699533759281647 8:0.6705232256950441 9:0.003453634950785702 10:0.003626316698324987 11:0.004144361940942842 12:0.8095320324641685 13:0.1367639440511138 14:0.1367639440511138 15:0.1367639440511138 16:0.1367639440511138 17:0.1367639440511138 18:0.1863236055948886 20:0.7309618373337938 23:0.47245726126748405 25:0.0074253151441892595 26:0.9746835443037974 
0.3159763132357819 1:0.7452944223795545 2:0.7824209981005008 3:0.44448281816611984 4:0.9873942324296322 5:0.6102572958038336 6:0.03850802970126058 7:0.7452944223795545 8:0.7824209981005008 9:0.44448281816611984 10:0.9873942324296322 11:0.6102572958038336 12:0.03850802970126058 13:0.13192885512001382 14:0.13192885512001382 15:0.13192885512001382 16:0.08772232774995684 17:0.13192885512001382 18:0.1564496632705923 20:0.1531687100673459 23:0.6463477810395442 25:0.0074253151441892595 
-0.5634139746372567 1:0.004144361940942842 2:0.34588154032118806 3:0.8931099982731825 4:0.004144361940942842 5:0.1089621826972889 6:0.004144361940942842 7:0.004144361940942842 8:0.34588154032118806 9:0.8931099982731825 10:0.004144361940942842 11:0.1089621826972889 12:0.004144361940942842 13:0.1367639440511138 14:0.13192885512001382 15:0.13192885512001382 16:0.1367639440511138 17:0.1564496632705923 18:0.1367639440511138 19:0.8887929545847004 20:0.1970298739423243 22:0.7228457951994475 23:0.5720946295976516 25:0.0074253151441892595 
-0.9667075072383189 1:0.004144361940942842 2:0.1089621826972889 3:0.004144361940942842 4:0.005525815921257123 5:0.5809013987221551 6:0.6413400103609048 7:0.004144361940942842 8:0.1089621826972889 9:0.004144361940942842 10:0.005525815921257123 11:0.5809013987221551 12:0.6413400103609048 13:0.1367639440511138 14:0.1564496632705923 15:0.1367639440511138 16:0.1367639440511138 17:0.14125366948713522 18:0.13192885512001382 20:0.18943187705059575 21:0.005353134173717838 23:0.7050595752029011 24:0.005353134173717838 25:0.0074253151441892595 
-0.1604825149737833 1:0.6908996719046797 2:0.35296149197029875 3:0.055085477465031944 4:0.4728026247625626 5:0.991538594370575 6:0.8095320324641685 7:0.6908996719046797 8:0.35296149197029875 9:0.3350025902262131 10:0.4728026247625626 11:0.991538594370575 12:0.8095320324641685 13:0.1367639440511138 14:0.1367639440511138 15:0.1367639440511138 16:0.1367639440511138 17:0.1367639440511138 18:0.1367639440511138 19:0.05491279571749266 20:0.8887929545847004 21:0.47245726126748405 22:0.6081851148333621 23:0.8197202555689863 24:0.8589190122604041 25:0.0074253151441892595 
