svm_type c_svc
kernel_type linear
nr_class 2
total_sv 60
rho 1.0004775102863512
label -1 8
probA -61.243482490496646
probB -56.47528318288315
nr_sv 8 52
SV
1.0 1:0.3021930581937489 2:0.004144361940942842 3:0.199274736660335 4:0.868589190122604 5:0.8105681229494043 6:0.8848212743912969 7:0.3021930581937489 8:0.004144361940942842 9:0.199274736660335 10:0.868589190122604 11:0.8105681229494043 12:0.8848212743912969 13:0.13192885512001382 14:0.1367639440511138 15:0.060783975133828355 16:0.13192885512001382 17:0.13192885512001382 18:0.13192885512001382 20:0.6102572958038336 23:0.5589708167846659 25:0.0074253151441892595 26:0.9240506329113924 
1.0 2:0.07977896736314971 3:0.4586427214643412 4:0.004144361940942842 5:0.4586427214643412 6:0.6586081851148333 8:0.07977896736314971 9:0.4586427214643412 10:0.004144361940942842 11:0.4586427214643412 12:0.6586081851148333 14:0.1564496632705923 15:0.14125366948713522 16:0.1367639440511138 17:0.1367639440511138 18:0.1564496632705923 20:0.12122258677257813 23:0.008288723881885684 25:0.0074253151441892595 
1.0 1:0.47245726126748405 2:0.3220514591607667 3:0.39699533759281647 4:0.005007770678639268 7:0.47245726126748405 8:0.3220514591607667 9:0.39699533759281647 10:0.005007770678639268 13:0.1863236055948886 14:0.13192885512001382 15:0.1367639440511138 16:0.1367639440511138 19:0.38836125021585216 20:0.030737351061992747 22:0.44448281816611984 23:0.9126230357451217 25:0.0074253151441892595 
1.0 1:0.6366776031773441 2:0.4203073735106199 3:0.5582800897945087 7:0.6366776031773441 8:0.4203073735106199 9:0.5582800897945087 13:0.13192885512001382 14:0.13192885512001382 15:0.1367639440511138 19:0.5491279571749266 20:0.6102572958038336 22:0.9067518563287861 23:0.6781212225867725 25:0.0074253151441892595 
1.0 3:0.1402175790018995 9:0.1402175790018995 15:0.1564496632705923 19:0.13969953375928165 20:0.5634605422206873 22:0.9972370920393714 23:0.5703678121222587 25:0.0074253151441892595 
1.0 1:0.017440856501467795 2:0.7057503021930582 3:0.4586427214643412 4:0.005007770678639268 7:0.017440856501467795 8:0.7057503021930582 9:0.4586427214643412 10:0.005007770678639268 13:0.1367639440511138 14:0.13192885512001382 15:0.08772232774995684 16:0.1367639440511138 20:0.44448281816611984 23:0.7028147124848904 25:0.0074253151441892595 
1.0 3:0.09238473493351752 4:0.4586427214643412 5:0.7755137281989294 6:0.32049732343291315 9:0.09238473493351752 10:0.4586427214643412 11:0.7755137281989294 12:0.32049732343291315 15:0.1564496632705923 16:0.14125366948713522 17:0.08772232774995684 18:0.13192885512001382 19:0.09203937143843896 20:0.10050077706786392 22:0.23916422034190987 23:0.44448281816611984 25:0.0074253151441892595 
1.0 3:0.07269901571403903 4:0.4586427214643412 5:0.9057157658435503 6:0.7050595752029011 9:0.07269901571403903 10:0.4586427214643412 11:0.9057157658435503 12:0.7050595752029011 15:0.1564496632705923 16:0.14125366948713522 17:0.08772232774995684 18:0.060783975133828355 20:0.10050077706786392 23:0.44448281816611984 25:0.0074253151441892595 
-0.06647748325006192 1:0.1844241063719565 2:0.33638404420652734 3:0.38836125021585216 4:0.005007770678639268 7:0.1844241063719565 8:0.33638404420652734 9:0.38836125021585216 10:0.005007770678639268 13:0.1564496632705923 14:0.1564496632705923 15:0.14125366948713522 16:0.1367639440511138 20:0.12122258677257813 23:0.5720946295976516 25:0.008634087376964255 26:0.0 
-0.16292936685328147 1:0.13987221550682094 2:0.2738732515973062 3:0.7373510619927474 7:0.13987221550682094 8:0.2738732515973062 9:0.7373510619927474 13:0.1564496632705923 14:0.13192885512001382 15:0.13192885512001382 19:0.7309618373337938 20:0.11293386289069246 22:0.8178207563460542 23:0.2540148506302884 25:0.0074253151441892595 26:0.02531645569620253 
-0.07873296801905234 2:0.03574512174063201 3:0.34588154032118806 4:0.001554135727853566 8:0.03574512174063201 9:0.34588154032118806 10:0.001554135727853566 14:0.1564496632705923 15:0.13192885512001382 16:0.1367639440511138 19:0.3367294077016059 20:0.16318425142462442 22:0.6781212225867725 23:0.6463477810395442 25:0.0074253151441892595 26:0.9113924050632911 
-0.027516914107133934 1:0.10101882231048179 2:0.49507857019513035 3:0.4586427214643412 7:0.10101882231048179 8:0.49507857019513035 9:0.4586427214643412 13:0.1564496632705923 14:0.13192885512001382 15:0.14125366948713522 20:0.1875323778276636 23:0.5708858573648765 25:0.0074253151441892595 26:0.7215189873417721 
-0.012221586118980627 1:0.4586427214643412 2:0.1333103091003281 3:0.4586427214643412 4:0.005007770678639268 7:0.4586427214643412 8:0.1333103091003281 9:0.4586427214643412 10:0.005007770678639268 13:0.14125366948713522 14:0.1564496632705923 15:0.14125366948713522 16:0.1367639440511138 20:0.1875323778276636 23:0.5708858573648765 25:0.0074253151441892595 26:0.7215189873417721 
-0.34486476816191314 1:0.0452426178552927 2:0.5672595406665516 3:0.4586427214643412 7:0.0452426178552927 8:0.5672595406665516 9:0.4586427214643412 13:0.1564496632705923 14:0.13192885512001382 15:0.14125366948713522 20:0.12122258677257813 23:0.5720946295976516 25:0.008634087376964255 26:0.0 
-0.07081899631664279 1:0.158694525988603 2:0.5684683128993265 3:0.29804869625280606 7:0.158694525988603 8:0.5684683128993265 9:0.29804869625280606 13:0.1564496632705923 14:0.1863236055948886 15:0.13192885512001382 19:0.29632187877741323 20:0.1656017958901744 22:0.6940079433603868 23:0.7254360214125367 25:0.0074253151441892595 26:0.27848101265822783 
-0.20097446198354868 1:0.08133310309100328 2:0.08444137454671041 3:0.38836125021585216 7:0.08133310309100328 8:0.08444137454671041 9:0.38836125021585216 13:0.1564496632705923 14:0.1564496632705923 15:0.14125366948713522 20:0.1656017958901744 23:0.6940079433603868 25:0.0074253151441892595 
-0.7789706344368632 1:0.869797962355379 2:0.23933690208944913 3:0.39699533759281647 4:0.005007770678639268 7:0.869797962355379 8:0.23933690208944913 9:0.39699533759281647 10:0.005007770678639268 13:0.08772232774995684 14:0.048350889310999824 15:0.08772232774995684 16:0.1367639440511138 19:0.38836125021585216 20:0.4337765498186842 22:0.44448281816611984 23:0.6781212225867725 25:0.0074253151441892595 
-0.060818366106554195 1:0.38836125021585216 2:0.3381108616819202 3:0.4586427214643412 4:0.005007770678639268 7:0.38836125021585216 8:0.3381108616819202 9:0.4586427214643412 10:0.005007770678639268 13:0.1367639440511138 14:0.1367639440511138 15:0.1367639440511138 16:0.1367639440511138 20:0.6102572958038336 23:0.9266102572958038 25:0.0074253151441892595 26:0.759493670886076 
-0.035042489429002954 2:0.1656017958901744 3:0.9632187877741323 4:0.005007770678639268 8:0.1656017958901744 9:0.9632187877741323 10:0.005007770678639268 14:0.1564496632705923 15:0.1863236055948886 16:0.1367639440511138 20:0.29632187877741323 23:0.5720946295976516 25:0.008634087376964255 26:0.0 
-0.14600195889213766 1:0.4586427214643412 2:0.6643066827836298 3:0.39699533759281647 4:0.005007770678639268 7:0.4586427214643412 8:0.6643066827836298 9:0.39699533759281647 10:0.005007770678639268 13:0.1367639440511138 14:0.1367639440511138 15:0.1367639440511138 16:0.1367639440511138 19:0.38836125021585216 20:0.80193403557244 22:0.44448281816611984 23:0.6855465377309619 25:0.0074253151441892595 
-0.14175211934164483 1:0.38836125021585216 2:0.6116387497841478 3:0.9873942324296322 4:0.005007770678639268 7:0.38836125021585216 8:0.6116387497841478 9:0.9873942324296322 10:0.005007770678639268 13:0.1367639440511138 14:0.1564496632705923 15:0.08772232774995684 16:0.1367639440511138 20:0.6052495251251943 23:0.5087204282507339 25:0.0074253151441892595 26:0.5822784810126582 
-0.013267034652435398 1:0.10101882231048179 2:0.4586427214643412 3:0.14816093938870661 7:0.10101882231048179 8:0.4586427214643412 9:0.14816093938870661 13:0.1564496632705923 14:0.14125366948713522 15:0.1564496632705923 19:0.14764289414608875 20:0.1797616991883958 22:0.4586427214643412 23:0.31842514246244175 25:0.0074253151441892595 26:0.31645569620253167 
-0.06060802781499038 1:0.14971507511656018 2:0.7126575720946295 3:0.6102572958038336 4:0.005007770678639268 7:0.14971507511656018 8:0.7126575720946295 9:0.6102572958038336 10:0.005007770678639268 13:0.1564496632705923 14:0.026938352616128477 15:0.060783975133828355 16:0.1367639440511138 20:0.04955966154377482 23:0.22293213607321707 25:0.0074253151441892595 
-0.014172859758588419 1:0.9621826972888966 2:0.22293213607321707 3:0.05076843377654982 7:0.9621826972888966 8:0.22293213607321707 9:0.05076843377654982 13:0.1863236055948886 14:0.08772232774995684 15:0.1564496632705923 19:0.04955966154377482 20:0.1341737178380245 22:0.6855465377309619 23:0.729235019858401 25:0.0074253151441892595 26:0.26582278481012656 
-0.14351753060664074 1:0.6890001726817475 2:0.199274736660335 3:0.1692281125884994 4:0.9873942324296322 5:0.5577620445518908 6:0.8798135037126575 7:0.6890001726817475 8:0.199274736660335 9:0.1692281125884994 10:0.9873942324296322 11:0.5577620445518908 12:0.8798135037126575 13:0.1863236055948886 14:0.060783975133828355 15:0.1564496632705923 16:0.08772232774995684 17:0.08772232774995684 18:0.13192885512001382 19:0.16784665860818512 20:0.47245726126748405 22:0.22293213607321707 23:0.8197202555689863 25:0.0074253151441892595 
-0.00104984555553024 1:0.3068554653773096 2:0.199274736660335 3:0.6102572958038336 4:0.9873942324296322 5:0.011051631842514247 6:0.6760490416163012 7:0.3068554653773096 8:0.199274736660335 9:0.6102572958038336 10:0.9873942324296322 11:0.011051631842514247 12:0.6760490416163012 13:0.1863236055948886 14:0.060783975133828355 15:0.13192885512001382 16:0.08772232774995684 17:0.1367639440511138 18:0.13192885512001382 20:0.5211535140735625 23:0.9706441029183215 25:0.0074253151441892595 
-0.277952518740377 1:0.004144361940942842 2:0.18321533413918148 3:0.9873942324296322 4:0.005007770678639268 7:0.004144361940942842 8:0.18321533413918148 9:0.9873942324296322 10:0.005007770678639268 13:0.1367639440511138 14:0.1564496632705923 15:0.08772232774995684 16:0.1367639440511138 20:0.17751683647038508 23:0.9941288205836643 25:0.0074253151441892595 
-0.009989516729117846 3:0.046106026592989124 9:0.046106026592989124 15:0.1564496632705923 19:0.045933344845449836 20:0.10050077706786392 22:0.4586427214643412 23:0.44448281816611984 25:0.0074253151441892595 26:0.189873417721519 
-0.3913089344440002 1:0.3232602313935417 2:0.22293213607321707 3:0.05076843377654982 4:0.004144361940942842 5:0.22293213607321707 6:0.8095320324641685 7:0.3232602313935417 8:0.22293213607321707 9:0.05076843377654982 10:0.004144361940942842 11:0.22293213607321707 12:0.8095320324641685 13:0.1367639440511138 14:0.08772232774995684 15:0.1564496632705923 16:0.1367639440511138 17:0.08772232774995684 18:0.13192885512001382 19:0.04955966154377482 20:0.1341737178380245 22:0.6855465377309619 23:0.729235019858401 25:0.0074253151441892595 26:0.26582278481012656 
-0.43896439056396525 2:0.15144189259195304 3:0.33085822828527023 4:0.005007770678639268 8:0.15144189259195304 9:0.33085822828527023 10:0.005007770678639268 14:0.1564496632705923 15:0.14125366948713522 16:0.1367639440511138 19:0.3299948195475738 20:0.04886893455361768 22:0.9266102572958038 23:0.12001381453980314 25:0.0074253151441892595 
-0.22391670239247405 1:0.02072180970471421 2:0.004144361940942842 3:0.09238473493351752 4:0.005007770678639268 7:0.02072180970471421 8:0.004144361940942842 9:0.09238473493351752 10:0.005007770678639268 13:0.1367639440511138 14:0.1367639440511138 15:0.1564496632705923 16:0.1367639440511138 19:0.09203937143843896 20:0.1934035572439993 22:0.23916422034190987 23:0.996373683301675 25:0.0074253151441892595 26:0.1518987341772152 
-0.003896363950431567 3:0.10101882231048179 9:0.5672595406665516 15:0.13192885512001382 19:0.10050077706786392 20:0.0904852357105854 22:0.44448281816611984 23:0.22293213607321707 25:0.0074253151441892595 26:0.4936708860759494 
-4.816073519879982E-4 1:0.39699533759281647 2:0.008979450872042825 3:0.22293213607321707 4:0.004144361940942842 5:0.9873942324296322 6:0.7081678466586082 7:0.39699533759281647 8:0.008979450872042825 9:0.22293213607321707 10:0.004144361940942842 11:0.9873942324296322 12:0.7081678466586082 13:0.1367639440511138 14:0.1564496632705923 15:0.08772232774995684 16:0.1367639440511138 17:0.08772232774995684 18:0.13192885512001382 20:0.023830081160421342 23:0.010706268347435675 25:0.0074253151441892595 26:0.620253164556962 
-0.10336972410246487 1:0.00949749611466068 2:0.6760490416163012 3:0.39699533759281647 4:0.9873942324296322 5:0.199274736660335 6:0.9500949749611466 7:0.00949749611466068 8:0.6760490416163012 9:0.39699533759281647 10:0.9873942324296322 11:0.199274736660335 12:0.9500949749611466 13:0.1367639440511138 14:0.13192885512001382 15:0.1863236055948886 16:0.026938352616128477 17:0.060783975133828355 18:0.13192885512001382 19:0.38836125021585216 20:0.31842514246244175 22:0.44448281816611984 23:0.6102572958038336 25:0.0074253151441892595 26:0.24050632911392406 
-0.0012584828802628342 1:0.07459851493697116 2:0.5120013814539803 3:0.16646520462787084 4:0.18960455879813504 7:0.07459851493697116 8:0.5120013814539803 9:0.16646520462787084 10:0.18960455879813504 13:0.1564496632705923 14:0.13192885512001382 15:0.1564496632705923 16:0.1564496632705923 19:0.1656017958901744 20:0.09203937143843896 21:0.18943187705059575 22:0.7254360214125367 23:0.23916422034190987 24:0.5708858573648765 25:0.0074253151441892595 26:0.35443037974683544 
-0.009757931675225137 1:0.06976342600587118 2:0.13244690036263168 3:0.120531859782421 4:0.005007770678639268 7:0.06976342600587118 8:0.13244690036263168 9:0.120531859782421 10:0.005007770678639268 13:0.1564496632705923 14:0.1564496632705923 15:0.1564496632705923 16:0.1367639440511138 19:0.12018649628734243 20:0.17527197375237438 22:0.07097219823864617 23:0.18338801588672077 25:0.0074253151441892595 
-0.09096147228925822 1:0.8095320324641685 2:0.6102572958038336 3:0.3545156276981523 4:0.9873942324296322 5:0.6102572958038336 6:0.3002935589708168 7:0.8095320324641685 8:0.6102572958038336 9:0.3545156276981523 10:0.9873942324296322 11:0.6102572958038336 12:0.3002935589708168 13:0.08772232774995684 14:0.13192885512001382 15:0.13192885512001382 16:0.026938352616128477 17:0.060783975133828355 18:0.13192885512001382 19:0.3367294077016059 20:0.19443964772923503 22:0.9972370920393714 23:0.08202383008116042 25:0.0074253151441892595 26:0.5063291139240507 
-0.0018831449044497508 1:0.06095665688136764 2:0.07045415299602832 3:0.07079951649110688 4:0.12035917803488172 7:0.06095665688136764 8:0.07045415299602832 9:0.07079951649110688 10:0.12035917803488172 13:0.1564496632705923 14:0.1564496632705923 15:0.1564496632705923 16:0.1564496632705923 20:0.061474702123985495 21:0.12018649628734243 23:0.13279226385771023 24:0.07097219823864617 25:0.0074253151441892595 
-0.005044491175543011 1:0.020894491452253496 2:0.6706959074425833 3:0.38836125021585216 4:0.004144361940942842 5:0.3522707649801416 6:0.7375237437402866 7:0.020894491452253496 8:0.6705232256950441 9:0.38836125021585216 10:0.004144361940942842 11:0.3522707649801416 12:0.7375237437402866 13:0.1367639440511138 14:0.13192885512001382 15:0.14125366948713522 16:0.1367639440511138 17:0.026938352616128477 18:0.13192885512001382 20:0.6102572958038336 23:0.940079433603868 25:0.0074253151441892595 
-0.002993552281796915 1:0.004144361940942842 2:0.7050595752029011 3:0.4586427214643412 4:0.004144361940942842 5:0.639613192885512 6:0.8095320324641685 7:0.004144361940942842 8:0.7050595752029011 9:0.4586427214643412 10:0.004144361940942842 11:0.639613192885512 12:0.8095320324641685 13:0.1367639440511138 14:0.060783975133828355 15:0.1367639440511138 16:0.1367639440511138 17:0.08772232774995684 18:0.13192885512001382 20:0.6102572958038336 23:0.7202555689863581 25:0.0074253151441892595 
-0.027230938044215756 1:0.024866171645657055 2:0.43947504748748056 3:0.7824209981005008 4:0.004144361940942842 5:0.7373510619927474 6:0.9675358314626143 7:0.024866171645657055 8:0.43947504748748056 9:0.7824209981005008 10:0.004144361940942842 11:0.7373510619927474 12:0.9675358314626143 13:0.1367639440511138 14:0.13192885512001382 15:0.08772232774995684 16:0.1367639440511138 17:0.13192885512001382 18:0.026938352616128477 19:0.7767225004317043 20:0.12122258677257813 22:0.7254360214125367 23:0.7275082023830081 25:0.0074253151441892595 
-0.3363325233116219 1:0.26057675703678124 2:0.199274736660335 3:0.6102572958038336 4:0.38836125021585216 5:0.8773959592471076 6:0.7824209981005008 7:0.26057675703678124 8:0.199274736660335 9:0.6102572958038336 10:0.38836125021585216 11:0.8773959592471076 12:0.7824209981005008 13:0.13192885512001382 14:0.060783975133828355 15:0.1564496632705923 16:0.14125366948713522 17:0.1552408910378173 18:0.08772232774995684 20:0.5634605422206873 23:0.8178207563460542 25:0.0074253151441892595 
-0.41105122686545653 3:0.11293386289069246 4:0.47245726126748405 5:0.39906751856328787 6:0.9326541184596788 9:0.11293386289069246 10:0.47245726126748405 11:0.39906751856328787 12:0.9326541184596788 15:0.1564496632705923 16:0.1863236055948886 17:0.13192885512001382 18:0.13192885512001382 20:0.9910205491279572 23:0.6940079433603868 25:0.0074253151441892595 
-0.0037755170514398293 1:0.44448281816611984 2:0.10101882231048179 3:0.16646520462787084 4:0.47245726126748405 5:0.9480227939906752 6:0.6430668278362976 7:0.44448281816611984 8:0.5672595406665516 9:0.16646520462787084 10:0.47245726126748405 11:0.9480227939906752 12:0.6430668278362976 13:0.13192885512001382 14:0.13192885512001382 15:0.1564496632705923 16:0.1863236055948886 17:0.08772232774995684 18:0.13192885512001382 19:0.1656017958901744 20:0.040580210671731995 22:0.7254360214125367 23:0.6940079433603868 25:0.0074253151441892595 26:0.08860759493670886 
-0.01672396066435429 1:0.6560179589017441 2:0.004144361940942842 3:0.7262994301502331 4:0.004144361940942842 5:0.3522707649801416 6:0.639613192885512 7:0.6560179589017441 8:0.004144361940942842 9:0.7262994301502331 10:0.004144361940942842 11:0.3522707649801416 12:0.639613192885512 13:0.13192885512001382 14:0.1367639440511138 15:0.08772232774995684 16:0.1367639440511138 17:0.026938352616128477 18:0.1863236055948886 19:0.7254360214125367 20:0.17319979278190295 22:0.9972370920393714 23:0.950958383698843 25:0.0074253151441892595 
-0.8707739243042928 2:0.16750129511310655 3:0.15921257123122087 4:0.38836125021585216 5:0.6435848730789155 6:0.3522707649801416 8:0.16750129511310655 9:0.15921257123122087 10:0.38836125021585216 11:0.6435848730789155 12:0.3522707649801416 14:0.1564496632705923 15:0.1564496632705923 16:0.14125366948713522 17:0.08772232774995684 18:0.08772232774995684 19:0.15748575375582802 20:0.11535140735624244 22:0.44085650146779487 23:0.44448281816611984 25:0.0074253151441892595 
-0.004404345312130222 4:0.38836125021585216 5:0.8354342945950614 6:0.9873942324296322 10:0.38836125021585216 11:0.8354342945950614 12:0.9873942324296322 16:0.14125366948713522 17:0.08772232774995684 18:0.08772232774995684 20:0.16784665860818512 23:0.5950613020203764 25:0.0074253151441892595 
-0.09593913623096353 3:0.08133310309100328 4:0.38836125021585216 5:0.16629252288033156 9:0.08133310309100328 10:0.38836125021585216 11:0.16629252288033156 15:0.1564496632705923 16:0.14125366948713522 17:0.1564496632705923 19:0.08098773959592472 20:0.08426869279917112 22:0.9126230357451217 23:0.5793472629943015 25:0.0074253151441892595 26:0.5949367088607594 
-0.004071094282494325 1:0.10360904852357106 2:0.08910378173027111 3:0.02642030737351062 4:0.08841305474011397 7:0.10360904852357106 8:0.08910378173027111 9:0.02642030737351062 10:0.08841305474011397 13:0.1564496632705923 14:0.1564496632705923 15:0.1367639440511138 16:0.1564496632705923 20:0.1864962873424279 21:0.08824037299257469 23:0.07062683474356761 24:0.07079951649110688 25:0.0074253151441892595 
-0.5019714742564715 1:0.1588672077361423 2:0.29804869625280606 3:0.2797444310136419 7:0.1588672077361423 8:0.29804869625280606 9:0.2797444310136419 13:0.1564496632705923 14:0.13192885512001382 15:0.1863236055948886 20:0.6290796062856157 23:1.726817475392851E-4 25:0.0074253151441892595 
-3.761609795558908E-4 4:0.44448281816611984 5:0.5931618027974443 6:0.9235019858400967 10:0.44448281816611984 11:0.5931618027974443 12:0.9235019858400967 16:0.13192885512001382 17:0.08772232774995684 18:0.13192885512001382 25:0.0074253151441892595 26:0.0379746835443038 
-1.0 3:0.17924365394577793 4:0.199274736660335 5:0.948540839233293 6:0.3028837851839061 9:0.17924365394577793 10:0.199274736660335 11:0.948540839233293 12:0.3028837851839061 15:0.1564496632705923 16:0.060783975133828355 17:0.08772232774995684 18:0.13192885512001382 19:0.17855292695562078 20:0.44448281816611984 22:0.47245726126748405 23:0.4714211707822483 25:0.0074253151441892595 
-0.002506199056899098 4:0.639613192885512 5:0.8095320324641685 6:0.8796408219651183 10:0.639613192885512 11:0.8095320324641685 12:0.8796408219651183 16:0.1863236055948886 17:0.08772232774995684 18:0.13192885512001382 20:0.15075116560179588 23:0.7254360214125367 25:0.0074253151441892595 26:0.16455696202531644 
-0.005236244074068804 4:0.4586427214643412 5:0.9480227939906752 6:0.6772578138490761 10:0.4586427214643412 11:0.9480227939906752 12:0.6772578138490761 16:0.14125366948713522 17:0.08772232774995684 18:0.13192885512001382 20:0.1797616991883958 23:0.4299775513728199 25:0.0074253151441892595 26:0.31645569620253167 
-9.78305570309172E-4 4:0.6102572958038336 5:0.8718701433258504 6:0.8095320324641685 10:0.6102572958038336 11:0.8718701433258504 12:0.8095320324641685 16:0.060783975133828355 17:0.08772232774995684 18:0.13192885512001382 25:0.0074253151441892595 26:0.0379746835443038 
-0.48302147461300804 4:0.6715593161802798 5:0.9219478501122431 6:0.868589190122604 10:0.6715593161802798 11:0.9219478501122431 12:0.868589190122604 16:0.1367639440511138 17:0.1367639440511138 18:0.1367639440511138 20:0.06302883785183906 23:0.38836125021585216 25:0.0074253151441892595 26:0.6455696202531646 
-0.13517988720243 4:0.6102572958038336 5:0.9205663961319288 6:0.970298739423243 10:0.6102572958038336 11:0.9205663961319288 12:0.970298739423243 16:0.060783975133828355 17:0.13192885512001382 18:0.026938352616128477 20:0.16784665860818512 23:0.4299775513728199 25:0.0074253151441892595 
-0.11703295340838983 4:0.868589190122604 5:0.4624417199102055 6:0.9480227939906752 10:0.868589190122604 11:0.4624417199102055 12:0.9480227939906752 16:0.1552408910378173 17:0.08772232774995684 18:0.08772232774995684 20:0.17648074598514937 23:0.9951649110689 25:0.0074253151441892595 26:0.6582278481012658 
-0.05979716021362398 1:0.11483336211362459 2:0.03660853047832844 3:0.04127093766188914 4:0.5491279571749266 5:0.8798135037126575 6:0.3755828008979451 7:0.11483336211362459 8:0.03660853047832844 9:0.04127093766188914 10:0.5491279571749266 11:0.8798135037126575 12:0.3755828008979451 13:0.1564496632705923 14:0.1564496632705923 15:0.1564496632705923 16:0.13192885512001382 17:0.13192885512001382 18:0.14125366948713522 19:0.040580210671731995 20:0.15748575375582802 22:0.5950613020203764 23:0.8552926955620791 25:0.0074253151441892595 
-0.0020812296719175407 4:0.9632187877741323 5:0.31566223450181313 6:0.928509756518736 10:0.9632187877741323 11:0.31566223450181313 12:0.928509756518736 16:0.1863236055948886 17:0.13192885512001382 18:0.14125366948713522 25:0.0074253151441892595 26:0.3291139240506329 
