svm_type c_svc
kernel_type linear
nr_class 2
total_sv 19
rho -0.13311385917086319
label -1 5
probA -1.332394520089649
probB -0.10060386758400182
nr_sv 10 9
SV
0.8689759052819447 1:0.8762140208370122 2:0.6319971746424157 3:0.20854670669256578 4:0.0038848666784389897 5:0.7778562599328978 6:0.45629524986756137 7:0.8762140208370122 8:0.6319971746424157 9:0.20854670669256578 10:0.0038848666784389897 11:0.7778562599328978 12:0.45629524986756137 13:0.13738301253752427 14:0.19565601271410912 15:0.06321737594914356 16:0.14303372770616282 17:0.13738301253752427 18:0.13738301253752427 20:0.6169874624757196 23:0.6401200776973336 25:0.00688680911177821 26:0.9657534246575342 
1.0 2:0.1995408793925481 3:0.4633586438283595 4:0.0038848666784389897 5:0.5067985166872683 6:0.9546176938018718 8:0.1995408793925481 9:0.4633586438283595 10:0.0038848666784389897 11:0.5067985166872683 12:0.9546176938018718 14:0.1638707398905174 15:0.14762493378068162 16:0.14303372770616282 17:0.19565601271410912 18:0.13738301253752427 20:0.13985520042380364 23:0.815292247925128 25:0.00688680911177821 
0.5094243100033419 1:0.6515980928836306 2:0.9781034787215257 3:0.4004944375772559 4:0.004238036376478898 7:0.6515980928836306 8:0.9779268938725058 9:0.4004944375772559 10:0.004238036376478898 13:0.13738301253752427 14:0.13738301253752427 15:0.14762493378068162 16:0.14303372770616282 20:0.12555182765318737 23:0.5779622108423097 25:0.008299487903937842 26:0.0 
1.0 1:0.49814585908529047 2:0.4633586438283595 3:0.7713226205191595 4:0.004238036376478898 7:0.49814585908529047 8:0.4633586438283595 9:0.7713226205191595 10:0.004238036376478898 13:0.13738301253752427 14:0.14762493378068162 15:0.09253046088645595 16:0.14303372770616282 19:0.7669079992936606 20:0.3300370828182942 22:0.7010418506092178 23:0.5779622108423097 25:0.008299487903937842 26:0.0 
1.0 1:0.6794984990287833 2:0.7778562599328978 3:0.4570015892636412 4:0.004238036376478898 7:0.6794984990287833 8:0.7778562599328978 9:0.4570015892636412 10:0.004238036376478898 13:0.09253046088645595 14:0.13738301253752427 15:0.13738301253752427 16:0.14303372770616282 20:0.3300370828182942 23:0.5779622108423097 25:0.008299487903937842 26:0.0 
0.266606559387029 1:0.4570015892636412 2:0.3323326858555536 3:0.4004944375772559 4:0.004238036376478898 7:0.4570015892636412 8:0.3323326858555536 9:0.4004944375772559 10:0.004238036376478898 13:0.13738301253752427 14:0.13738301253752427 15:0.14762493378068162 16:0.14303372770616282 20:0.12555182765318737 23:0.5779622108423097 25:0.008299487903937842 26:0.0 
1.0 1:0.4570015892636412 2:0.3323326858555536 3:0.4004944375772559 4:0.24969097651421507 5:0.0038848666784389897 6:0.7600211901818824 7:0.4570015892636412 8:0.3323326858555536 9:0.4004944375772559 10:0.24969097651421507 11:0.0038848666784389897 12:0.7600211901818824 13:0.14303372770616282 14:0.14303372770616282 15:0.14303372770616282 16:0.13738301253752427 17:0.14303372770616282 18:0.09253046088645595 20:0.12555182765318737 21:0.24951439166519512 23:0.5779622108423097 24:0.4426982164930249 25:0.008299487903937842 26:0.0 
0.242586283362196 1:0.8762140208370122 2:0.9798693272117253 3:0.20854670669256578 4:0.0038848666784389897 5:0.9803990817587851 6:0.20854670669256578 7:0.8762140208370122 8:0.9798693272117253 9:0.20854670669256578 10:0.0038848666784389897 11:0.9803990817587851 12:0.20854670669256578 13:0.09253046088645595 14:0.13738301253752427 15:0.06321737594914356 16:0.14303372770616282 17:0.19565601271410912 18:0.06321737594914356 20:0.12555182765318737 23:0.5779622108423097 25:0.008299487903937842 26:0.0 
0.061730747922636796 1:0.6879745717817412 2:0.765142150803461 3:0.4004944375772559 4:0.004238036376478898 7:0.6879745717817412 8:0.765142150803461 9:0.4004944375772559 10:0.004238036376478898 13:0.13738301253752427 14:0.13738301253752427 15:0.14762493378068162 16:0.14303372770616282 20:0.12555182765318737 23:0.5779622108423097 25:0.008299487903937842 26:0.0 
0.9674723379537299 4:0.0038848666784389897 5:0.034257460709871096 6:0.0038848666784389897 10:0.0038848666784389897 11:0.034257460709871096 12:0.0038848666784389897 16:0.14303372770616282 17:0.1638707398905174 18:0.14303372770616282 20:0.10453823061981282 23:0.681087762669963 25:0.00688680911177821 26:0.17123287671232876 
-1.0 1:0.0038848666784389897 2:0.3328624404026135 3:0.4004944375772559 4:0.0038848666784389897 5:0.36341161928306553 6:0.9263641179586791 7:0.0038848666784389897 8:0.3328624404026135 9:0.4004944375772559 10:0.0038848666784389897 11:0.36341161928306553 12:0.9263641179586791 13:0.14303372770616282 14:0.14303372770616282 15:0.14303372770616282 16:0.14303372770616282 17:0.09253046088645595 18:0.13738301253752427 20:0.6169874624757196 23:0.6989228324209783 25:0.00688680911177821 
-0.019948645340649745 1:0.4946141621048914 2:0.7971040084760728 3:0.20854670669256578 4:0.9871093060215433 5:0.47748543174995584 6:0.9671552180822885 7:0.4946141621048914 8:0.7971040084760728 9:0.20854670669256578 10:0.9871093060215433 11:0.47748543174995584 12:0.9671552180822885 13:0.13738301253752427 14:0.13738301253752427 15:0.06321737594914356 16:0.024368709164753664 17:0.19565601271410912 18:0.024368709164753664 20:0.6169874624757196 23:0.1958325975631291 25:0.00688680911177821 
-1.0 1:0.10524457001589263 2:0.3333921949496733 3:0.20854670669256578 4:0.0038848666784389897 5:0.4633586438283595 6:0.657778562599329 7:0.10524457001589263 8:0.3333921949496733 9:0.20854670669256578 10:0.0038848666784389897 11:0.4633586438283595 12:0.6595444110895285 13:0.1638707398905174 14:0.13738301253752427 15:0.06321737594914356 16:0.14303372770616282 17:0.19565601271410912 18:0.13738301253752427 20:0.6169874624757196 23:0.1958325975631291 25:0.00688680911177821 
-0.6153032720328602 3:0.18753310965919123 4:0.4633586438283595 5:0.6169874624757196 6:0.6722585202189653 9:0.18753310965919123 10:0.4633586438283595 11:0.6169874624757196 12:0.6722585202189653 15:0.1638707398905174 16:0.14303372770616282 17:0.14303372770616282 18:0.14303372770616282 19:0.18717993996115134 20:0.7277061628112308 22:0.69221260815822 23:0.5140384954970864 25:0.00688680911177821 
-1.0 1:0.9449055271057744 2:0.3328624404026135 3:0.4004944375772559 4:0.0038848666784389897 7:0.9449055271057744 8:0.3328624404026135 9:0.4004944375772559 10:0.0038848666784389897 13:0.13738301253752427 14:0.14303372770616282 15:0.14303372770616282 16:0.14303372770616282 20:0.6169874624757196 23:0.6169874624757196 25:0.00688680911177821 
-1.0 1:0.47748543174995584 2:0.3328624404026135 3:0.40914709517923364 4:0.004238036376478898 7:0.47748543174995584 8:0.3328624404026135 9:0.40914709517923364 10:0.004238036376478898 13:0.19565601271410912 14:0.13738301253752427 15:0.14303372770616282 16:0.14303372770616282 19:0.4004944375772559 20:0.028783330390252517 22:0.4570015892636412 23:0.9101183118488434 25:0.00688680911177821 
-1.0 1:0.9871093060215433 2:0.7488963446936253 3:0.20854670669256578 4:0.0038848666784389897 5:0.09747483665901466 6:0.20289599152392726 7:0.9871093060215433 8:0.7488963446936253 9:0.20854670669256578 10:0.0038848666784389897 11:0.09747483665901466 12:0.20289599152392726 13:0.024368709164753664 14:0.19565601271410912 15:0.06321737594914356 16:0.14303372770616282 17:0.1638707398905174 18:0.1638707398905174 20:0.6169874624757196 23:8.829242450997704E-4 25:0.00688680911177821 
-1.0 1:0.4633586438283595 2:0.9095885573017836 3:0.40914709517923364 4:0.004238036376478898 7:0.4633586438283595 8:0.9095885573017836 9:0.40914709517923364 10:0.004238036376478898 13:0.14762493378068162 14:0.13738301253752427 15:0.14303372770616282 16:0.14303372770616282 19:0.4004944375772559 20:0.22390958855730178 22:0.4570015892636412 23:0.24439343104361647 25:0.00688680911177821 
-0.28154422653736866 1:0.40914709517923364 2:0.6655482959562069 3:0.0031785272823591734 4:0.0033551121313791276 5:0.0038848666784389897 6:0.8048737418329507 7:0.40914709517923364 8:0.6655482959562069 9:0.0031785272823591734 10:0.0033551121313791276 11:0.0038848666784389897 12:0.8048737418329507 13:0.14303372770616282 14:0.14303372770616282 15:0.14303372770616282 16:0.14303372770616282 17:0.14303372770616282 18:0.19565601271410912 20:0.7277061628112308 23:0.47748543174995584 25:0.00688680911177821 
