svm_type c_svc
kernel_type linear
nr_class 2
total_sv 60
rho 1.000517935930599
label -1 8
probA 46.03117654259344
probB 51.88340976138167
nr_sv 6 54
SV
1.0 1:0.3132615221613986 2:0.0038848666784389897 3:0.20854670669256578 4:0.8647360056507152 5:0.8059332509270705 6:0.8815115663076108 7:0.3132615221613986 8:0.0038848666784389897 9:0.20854670669256578 10:0.8647360056507152 11:0.8059332509270705 12:0.8815115663076108 13:0.13738301253752427 14:0.14303372770616282 15:0.06321737594914356 16:0.13738301253752427 17:0.13738301253752427 18:0.13738301253752427 20:0.6169874624757196 23:0.565248101712873 25:0.00688680911177821 26:0.9657534246575342 
1.0 2:0.08387780328447819 3:0.4633586438283595 4:0.0038848666784389897 5:0.4633586438283595 6:0.6533639413738301 8:0.08387780328447819 9:0.4633586438283595 10:0.0038848666784389897 11:0.4633586438283595 12:0.6533639413738301 14:0.1638707398905174 15:0.14762493378068162 16:0.14303372770616282 17:0.14303372770616282 18:0.14303372770616282 20:0.12555182765318737 23:0.007946318205897933 25:0.00688680911177821 
1.0 1:0.47748543174995584 2:0.3328624404026135 3:0.40914709517923364 4:0.004238036376478898 7:0.47748543174995584 8:0.3328624404026135 9:0.40914709517923364 10:0.004238036376478898 13:0.19565601271410912 14:0.13738301253752427 15:0.14303372770616282 16:0.14303372770616282 19:0.4004944375772559 20:0.028783330390252517 22:0.4570015892636412 23:0.9101183118488434 25:0.00688680911177821 
1.0 1:0.631114250397316 2:0.43280946494790745 3:0.5645417623167932 7:0.631114250397316 8:0.43280946494790745 9:0.5645417623167932 13:0.13738301253752427 14:0.13738301253752427 15:0.14303372770616282 19:0.5551827653187357 20:0.6169874624757196 22:0.9041144269821649 23:0.6734946141621049 25:0.00688680911177821 
1.0 3:0.1465654246865619 9:0.1465654246865619 15:0.1638707398905174 19:0.14603567013950203 20:0.5700158926364118 22:0.9973512272647007 23:0.5761963623521101 25:0.00688680911177821 
1.0 1:0.016775560656895637 2:0.7017481900052975 3:0.4633586438283595 4:0.004238036376478898 7:0.016775560656895637 8:0.7017481900052975 9:0.4633586438283595 10:0.004238036376478898 13:0.14303372770616282 14:0.13738301253752427 15:0.09253046088645595 16:0.14303372770616282 20:0.4570015892636412 23:0.6987462475719584 25:0.00688680911177821 
-0.002203043966628955 1:0.9468479604449939 2:0.4517040437930426 3:0.20854670669256578 4:0.9871093060215433 5:0.657601977750309 6:0.8069927600211901 7:0.9468479604449939 8:0.4517040437930426 9:0.20854670669256578 10:0.9871093060215433 11:0.657601977750309 12:0.8069927600211901 13:0.09253046088645595 14:0.13738301253752427 15:0.06321737594914356 16:0.024368709164753664 17:0.16245806109835775 18:0.14303372770616282 20:0.280769909941727 23:0.6897404202719407 25:0.00688680911177821 26:0.5616438356164384 
-0.017736235824667226 1:0.2138442521631644 2:0.24969097651421507 3:0.23256224615927953 4:0.0038848666784389897 5:0.7589616810877626 6:0.7510153628818648 7:0.2138442521631644 8:0.24969097651421507 9:0.23256224615927953 10:0.0038848666784389897 11:0.7589616810877626 12:0.7510153628818648 13:0.14303372770616282 14:0.14303372770616282 15:0.09253046088645595 16:0.14303372770616282 17:0.14303372770616282 18:0.14303372770616282 20:0.3300370828182942 23:0.5779622108423097 25:0.008299487903937842 26:0.0 
-0.0026228974191856973 1:0.1938901642239096 2:0.5066219318382483 3:0.4633586438283595 4:0.0038848666784389897 5:0.3328624404026135 6:0.4004944375772559 7:0.1938901642239096 8:0.5066219318382483 9:0.4633586438283595 10:0.0038848666784389897 11:0.3328624404026135 12:0.4004944375772559 13:0.1638707398905174 14:0.19565601271410912 15:0.14762493378068162 16:0.14303372770616282 17:0.14303372770616282 18:0.14303372770616282 20:0.17093413385131556 23:0.6404732473953735 25:0.008299487903937842 26:0.5547945205479452 
-0.18640504382068168 2:0.034610630407911 3:0.35687797986932723 4:0.0015892636411795867 8:0.034610630407911 9:0.35687797986932723 10:0.0015892636411795867 14:0.1638707398905174 15:0.13738301253752427 16:0.14303372770616282 19:0.34751898287126964 20:0.17093413385131556 22:0.6734946141621049 23:0.6404732473953735 25:0.00688680911177821 26:0.5547945205479452 
-0.0038620392786357285 1:0.13049620342574608 2:0.0031785272823591734 3:0.7089881688151156 4:0.0038848666784389897 5:0.35687797986932723 6:0.9057036906233445 7:0.6606039201836482 8:0.0031785272823591734 9:0.7089881688151156 10:0.0038848666784389897 11:0.35687797986932723 12:0.9057036906233445 13:0.1638707398905174 14:0.14303372770616282 15:0.024368709164753664 16:0.14303372770616282 17:0.13738301253752427 18:0.13738301253752427 20:0.12996644887868622 23:0.5142150803461063 25:0.00688680911177821 26:0.4383561643835616 
-0.5841651739132818 1:0.10524457001589263 2:0.4633586438283595 3:0.4570015892636412 7:0.10524457001589263 8:0.4633586438283595 9:0.4570015892636412 13:0.1638707398905174 14:0.14762493378068162 15:0.09253046088645595 20:0.3300370828182942 23:0.5779622108423097 25:0.008299487903937842 26:0.0 
-0.1959205806767283 2:0.14638883983754195 3:0.03496380010595091 8:0.14638883983754195 9:0.03496380010595091 14:0.1638707398905174 15:0.1638707398905174 19:0.03478721525693095 20:0.12555182765318737 22:0.7241744658308317 23:0.5779622108423097 25:0.00688680911177821 26:0.0 
-0.018444000126022566 1:0.219318382482783 2:0.5645417623167932 3:0.619106480663959 4:0.0038848666784389897 5:0.36341161928306553 6:0.6341161928306551 7:0.219318382482783 8:0.5645417623167932 9:0.619106480663959 10:0.0038848666784389897 11:0.36341161928306553 12:0.6341161928306551 13:0.13738301253752427 14:0.19565601271410912 15:0.024368709164753664 16:0.14303372770616282 17:0.024368709164753664 18:0.09253046088645595 19:0.6169874624757196 20:0.016952145505915592 22:0.2647006886809112 23:0.3967861557478368 25:0.00688680911177821 
-5.932882686472493E-4 1:0.4633586438283595 2:0.6591912413914887 3:0.40914709517923364 4:0.0038848666784389897 5:0.36341161928306553 6:0.6341161928306551 7:0.4633586438283595 8:0.6591912413914887 9:0.40914709517923364 10:0.0038848666784389897 11:0.36341161928306553 12:0.6341161928306551 13:0.14303372770616282 14:0.14303372770616282 15:0.14303372770616282 16:0.14303372770616282 17:0.024368709164753664 18:0.19565601271410912 19:0.4004944375772559 20:0.180822885396433 22:0.4570015892636412 23:0.6016245806109836 25:0.00688680911177821 
-0.009163919570742871 1:0.47748543174995584 2:0.09005827300017659 3:0.9871093060215433 4:0.00476779092353876 5:0.7552533992583437 6:0.7778562599328978 7:0.47748543174995584 8:0.09005827300017659 9:0.9871093060215433 10:0.00476779092353876 11:0.7552533992583437 12:0.7778562599328978 13:0.13738301253752427 14:0.1638707398905174 15:0.09253046088645595 16:0.14303372770616282 17:0.13738301253752427 18:0.19565601271410912 20:0.17605509447289422 21:0.0045912060745188065 23:0.6897404202719407 24:0.0045912060745188065 25:0.00688680911177821 
-0.09318903805879843 1:0.4004944375772559 2:0.1276708458414268 3:0.12325622461592796 4:0.4004944375772559 5:0.08122903054917888 6:0.7089881688151156 7:0.4004944375772559 8:0.1276708458414268 9:0.12325622461592796 10:0.4004944375772559 11:0.08122903054917888 12:0.7089881688151156 13:0.14762493378068162 14:0.1638707398905174 15:0.1638707398905174 16:0.14762493378068162 17:0.1638707398905174 18:0.024368709164753664 19:0.1227264700688681 20:0.006710224262758255 22:0.8550238389546176 23:0.9892283242097828 25:0.00688680911177821 26:0.2945205479452055 
-0.00284525174030325 1:0.00900582730001766 2:0.6713755959738654 3:0.40914709517923364 4:0.9871093060215433 5:0.20854670669256578 6:0.9486138089351933 7:0.00900582730001766 8:0.6713755959738654 9:0.40914709517923364 10:0.9871093060215433 11:0.20854670669256578 12:0.9486138089351933 13:0.14303372770616282 14:0.13738301253752427 15:0.19565601271410912 16:0.024368709164753664 17:0.06321737594914356 18:0.13738301253752427 19:0.4004944375772559 20:0.3300370828182942 22:0.4570015892636412 23:0.6169874624757196 25:0.00688680911177821 26:0.0821917808219178 
-0.02645276761428741 1:0.5574783683559951 2:0.3672964859615045 3:0.36341161928306553 4:0.0038848666784389897 5:0.6697863323326858 6:0.5495320501500971 7:0.5574783683559951 8:0.3672964859615045 9:0.36341161928306553 10:0.0038848666784389897 11:0.6697863323326858 12:0.5495320501500971 13:0.13738301253752427 14:0.19565601271410912 15:0.09253046088645595 16:0.14303372770616282 17:0.13738301253752427 18:0.13738301253752427 19:0.34751898287126964 20:0.20448525516510682 22:0.7194066749072929 23:0.523220907646124 25:0.00688680911177821 
-0.03415718317882281 1:0.1665195126258167 2:0.5746070987109306 3:0.30937665548295956 7:0.1665195126258167 8:0.5746070987109306 9:0.30937665548295956 13:0.1638707398905174 14:0.19565601271410912 15:0.13738301253752427 19:0.30761080699276 20:0.17393607628465477 22:0.6897404202719407 23:0.7220554476425922 25:0.00688680911177821 26:0.08904109589041095 
-0.03536812205549299 1:0.8417799752781211 2:0.3033727706162811 3:0.9871093060215433 4:0.4633586438283595 5:0.2696450644534699 6:0.9198304785449408 7:0.8417799752781211 8:0.3033727706162811 9:0.9871093060215433 10:0.4633586438283595 11:0.2696450644534699 12:0.9198304785449408 13:0.13738301253752427 14:0.13738301253752427 15:0.09253046088645595 16:0.14762493378068162 17:0.09253046088645595 18:0.13738301253752427 20:0.08793925481193714 23:0.4426982164930249 25:0.00688680911177821 
-0.09076557236228172 1:0.6171640473247395 2:0.4004944375772559 3:0.6169874624757196 4:0.0038848666784389897 5:0.4004944375772559 6:0.6169874624757196 7:0.6171640473247395 8:0.4004944375772559 9:0.6169874624757196 10:0.0038848666784389897 11:0.4004944375772559 12:0.6169874624757196 13:0.13738301253752427 14:0.14762493378068162 15:0.06321737594914356 16:0.14303372770616282 17:0.14303372770616282 18:0.14303372770616282 20:0.15610100653363942 23:0.24439343104361647 25:0.00688680911177821 26:0.4246575342465753 
-0.14392839981755645 1:0.0033551121313791276 2:0.6590146565424686 3:0.9871093060215433 4:0.004238036376478898 7:0.0033551121313791276 8:0.6590146565424686 9:0.9871093060215433 10:0.004238036376478898 13:0.14303372770616282 14:0.14303372770616282 15:0.09253046088645595 16:0.14303372770616282 20:0.6120430867031609 23:0.5142150803461063 25:0.00688680911177821 26:0.4383561643835616 
-0.6631104208654001 1:0.11742892459826947 2:0.16510683383365707 3:0.41797633763023134 4:0.004238036376478898 7:0.11742892459826947 8:0.16510683383365707 9:0.41797633763023134 10:0.004238036376478898 13:0.1638707398905174 14:0.1638707398905174 15:0.13738301253752427 16:0.14303372770616282 19:0.4004944375772559 20:0.15610100653363942 22:0.4004944375772559 23:0.9969980575666608 25:0.00688680911177821 26:0.4246575342465753 
-0.03459422176925944 1:0.5613632350344341 2:0.3099064100300194 3:0.7089881688151156 4:0.20854670669256578 5:0.426982164930249 6:0.004238036376478898 7:0.5613632350344341 8:0.3099064100300194 9:0.7089881688151156 10:0.20854670669256578 11:0.426982164930249 12:0.004238036376478898 13:0.19565601271410912 14:0.13738301253752427 15:0.024368709164753664 16:0.06321737594914356 17:0.13738301253752427 18:0.14303372770616282 20:0.5853787745011478 23:0.4633586438283595 25:0.00688680911177821 
-0.004787060080517208 1:0.3323326858555536 2:0.4004944375772559 3:0.6169874624757196 4:0.4004944375772559 5:0.6966272293837189 6:0.8294190358467244 7:0.3323326858555536 8:0.4004944375772559 9:0.6169874624757196 10:0.4004944375772559 11:0.6966272293837189 12:0.8294190358467244 13:0.13738301253752427 14:0.14762493378068162 15:0.06321737594914356 16:0.14762493378068162 17:0.1638707398905174 18:0.13738301253752427 20:0.34098534345753134 23:0.6072752957796221 25:0.00688680911177821 
-0.10209184576517633 1:0.6358820413208547 2:0.8470775207487198 3:0.6879745717817412 4:0.004238036376478898 7:0.6358820413208547 8:0.8470775207487198 9:0.6879745717817412 10:0.004238036376478898 13:0.13738301253752427 14:0.19565601271410912 15:0.13738301253752427 16:0.14303372770616282 19:0.6870916475366413 20:0.7623167932191418 22:0.9945258696803814 23:0.5779622108423097 25:0.008299487903937842 26:0.0 
-0.7580588663071894 3:0.142327388310083 9:0.142327388310083 15:0.1638707398905174 19:0.1419742186120431 20:0.5700158926364118 22:0.8484901995408793 23:0.5779622108423097 25:0.008299487903937842 26:0.0 
-0.1442787838413136 1:0.6659014656542469 2:0.4004944375772559 3:0.6169874624757196 4:0.004238036376478898 7:0.6655482959562069 8:0.4004944375772559 9:0.6169874624757196 10:0.004238036376478898 13:0.13738301253752427 14:0.14762493378068162 15:0.06321737594914356 16:0.14303372770616282 20:0.7669079992936606 23:0.5767261168991701 25:0.00688680911177821 26:0.4452054794520548 
-0.026419825968744513 2:0.15839660957089882 3:0.3418682677026311 4:0.004238036376478898 8:0.15839660957089882 9:0.3418682677026311 10:0.004238036376478898 14:0.1638707398905174 15:0.14762493378068162 16:0.14303372770616282 19:0.34098534345753134 20:0.04873741832950733 22:0.9245982694684796 23:0.12431573371004767 25:0.00688680911177821 
-0.17291884187781653 2:0.07699099417269999 3:0.6598975807875684 8:0.07699099417269999 9:0.6598975807875684 14:0.1638707398905174 15:0.09253046088645595 19:0.657601977750309 20:0.5700158926364118 22:0.7220554476425922 23:0.5779622108423097 25:0.008299487903937842 26:0.0 
-0.03996887444469438 1:0.650361998940491 2:0.0038848666784389897 3:0.722938371887692 4:0.0038848666784389897 5:0.36341161928306553 6:0.6341161928306551 7:0.650361998940491 8:0.0038848666784389897 9:0.722938371887692 10:0.0038848666784389897 11:0.36341161928306553 12:0.6341161928306551 13:0.13738301253752427 14:0.14303372770616282 15:0.09253046088645595 16:0.14303372770616282 17:0.024368709164753664 18:0.19565601271410912 19:0.7220554476425922 20:0.18135263994349285 22:0.9973512272647007 23:0.9494967331802932 25:0.00688680911177821 
-0.05121917324002368 1:0.3328624404026135 2:0.40914709517923364 3:0.05067985166872682 4:0.0038848666784389897 5:0.05491788804520572 6:0.9214197421861204 7:0.3328624404026135 8:0.40914709517923364 9:0.05067985166872682 10:0.0038848666784389897 11:0.05491788804520572 12:0.9214197421861204 13:0.14303372770616282 14:0.14303372770616282 15:0.1638707398905174 16:0.14303372770616282 17:0.1638707398905174 18:0.13738301253752427 19:0.049443757725587144 20:0.13985520042380364 22:0.681087762669963 23:0.7259403143210312 25:0.00688680911177821 26:0.04794520547945205 
-0.612926171350977 1:0.5532403319795162 2:0.6828536111601624 3:0.49585025604803107 4:0.004238036376478898 7:0.5532403319795162 8:0.6828536111601624 9:0.49585025604803107 10:0.004238036376478898 13:0.13738301253752427 14:0.09253046088645595 15:0.13738301253752427 16:0.14303372770616282 19:0.47748543174995584 20:0.5700158926364118 22:0.9101183118488434 23:0.5767261168991701 25:0.00688680911177821 26:0.0136986301369863 
-0.002228977522607025 1:0.8048737418329507 2:0.6169874624757196 3:0.3658838071693449 4:0.9871093060215433 5:0.6169874624757196 6:0.31131908882217907 7:0.8048737418329507 8:0.6169874624757196 9:0.3658838071693449 10:0.9871093060215433 11:0.6169874624757196 12:0.31131908882217907 13:0.09253046088645595 14:0.13738301253752427 15:0.13738301253752427 16:0.024368709164753664 17:0.06321737594914356 18:0.13738301253752427 19:0.34751898287126964 20:0.20360233092000707 22:0.9973512272647007 23:0.08634999117075755 25:0.00688680911177821 26:0.3082191780821918 
-0.10056621125949552 1:0.988698569662723 2:0.5013243863676496 3:0.20854670669256578 4:0.4633586438283595 5:0.19830478544940844 6:0.9871093060215433 7:0.988698569662723 8:0.5013243863676496 9:0.20854670669256578 10:0.4633586438283595 11:0.19830478544940844 12:0.9871093060215433 13:0.13738301253752427 14:0.13738301253752427 15:0.06321737594914356 16:0.14762493378068162 17:0.1638707398905174 18:0.09253046088645595 20:0.780681617517217 23:0.815292247925128 25:0.00688680911177821 26:0.5958904109589042 
-9.093901347903379E-4 1:0.6358820413208547 2:0.5746070987109306 3:0.4633586438283595 4:0.0038848666784389897 5:0.07699099417269999 6:0.5739007593148507 7:0.6358820413208547 8:0.5746070987109306 9:0.4633586438283595 10:0.0038848666784389897 11:0.07699099417269999 12:0.5739007593148507 13:0.13738301253752427 14:0.13738301253752427 15:0.14762493378068162 16:0.14303372770616282 17:0.1638707398905174 18:0.13738301253752427 20:0.7669079992936606 23:0.4633586438283595 25:0.00688680911177821 26:0.4452054794520548 
-0.02624691727474115 1:0.9470245452940138 2:0.34328094649479074 3:0.35687797986932723 4:0.4570015892636412 5:0.5739007593148507 6:0.8647360056507152 7:0.9470245452940138 8:0.34328094649479074 9:0.35687797986932723 10:0.4570015892636412 11:0.5739007593148507 12:0.8647360056507152 13:0.09253046088645595 14:0.09253046088645595 15:0.13738301253752427 16:0.13738301253752427 17:0.13738301253752427 18:0.16245806109835775 19:0.34751898287126964 20:0.8484901995408793 22:0.6734946141621049 23:0.6404732473953735 25:0.00688680911177821 
-0.07716937106641326 1:0.20854670669256578 2:0.17746777326505386 3:0.1915945611866502 4:0.9871093060215433 5:0.5640120077697334 6:0.8763906056860321 7:0.20854670669256578 8:0.17746777326505386 9:0.1915945611866502 10:0.9871093060215433 11:0.5640120077697334 12:0.8763906056860321 13:0.06321737594914356 14:0.1638707398905174 15:0.1638707398905174 16:0.09253046088645595 17:0.09253046088645595 18:0.13738301253752427 19:0.19018188239449055 20:0.47748543174995584 22:0.23256224615927953 23:0.815292247925128 25:0.00688680911177821 
-0.0792042554805791 1:0.06533639413738301 2:0.0038848666784389897 3:0.4004944375772559 4:0.0038848666784389897 5:0.009358996998057567 6:0.3180293130849373 7:0.06533639413738301 8:0.0038848666784389897 9:0.4004944375772559 10:0.0038848666784389897 11:0.009358996998057567 12:0.3180293130849373 13:0.1638707398905174 14:0.14303372770616282 15:0.14303372770616282 16:0.14303372770616282 17:0.14303372770616282 18:0.14303372770616282 20:0.6169874624757196 23:0.7006886809111779 25:0.00688680911177821 
-0.4724844872233064 1:0.6713755959738654 2:0.24969097651421507 3:0.4004944375772559 4:0.9871093060215433 5:0.4633586438283595 6:0.7711460356701395 7:0.6713755959738654 8:0.24969097651421507 9:0.4004944375772559 10:0.9871093060215433 11:0.4633586438283595 12:0.7711460356701395 13:0.13738301253752427 14:0.048207663782447466 15:0.14303372770616282 16:0.09253046088645595 17:0.14762493378068162 18:0.09253046088645595 20:0.6169874624757196 23:0.7167579021719936 25:0.00688680911177821 26:0.3013698630136986 
-0.015870663404116865 1:0.0038848666784389897 2:0.17905703690623345 3:0.0038848666784389897 4:0.0038848666784389897 5:0.13667667314144447 6:0.988698569662723 7:0.0038848666784389897 8:0.17905703690623345 9:0.0038848666784389897 10:0.0038848666784389897 11:0.13667667314144447 12:0.988698569662723 13:0.14303372770616282 14:0.1638707398905174 15:0.14303372770616282 16:0.14303372770616282 17:0.1638707398905174 18:0.16245806109835775 20:0.18717993996115134 23:0.2647006886809112 25:0.00688680911177821 
-0.020182280988972796 1:0.6865618929895815 2:0.30248984637118137 3:0.7418329507328272 4:0.14868444287480134 5:0.0038848666784389897 6:0.988698569662723 7:0.6865618929895815 8:0.30248984637118137 9:0.7418329507328272 10:0.14868444287480134 11:0.0038848666784389897 12:0.988698569662723 13:0.09253046088645595 14:0.13738301253752427 15:0.13738301253752427 16:0.1638707398905174 17:0.14303372770616282 18:0.16245806109835775 19:0.7277061628112308 20:0.9544411089528518 21:0.1485078580257814 22:0.2606392371534522 23:0.10542115486491259 24:0.14797810347872153 25:0.00688680911177821 26:0.0136986301369863 
-0.03162047087800705 1:0.6291718170580964 2:0.20854670669256578 3:0.01942433339219495 4:0.0038848666784389897 5:0.5066219318382483 6:0.7778562599328978 7:0.6291718170580964 8:0.20854670669256578 9:0.01942433339219495 10:0.0038848666784389897 11:0.5066219318382483 12:0.7778562599328978 13:0.19565601271410912 14:0.06321737594914356 15:0.14303372770616282 16:0.14303372770616282 17:0.19565601271410912 18:0.13738301253752427 20:0.6667843898993466 23:0.12431573371004767 25:0.00688680911177821 26:0.678082191780822 
-0.01502761045657452 1:0.20678085820236625 2:0.10224262758255341 3:0.0038848666784389897 4:0.0038848666784389897 5:0.19989404909058803 6:0.9871093060215433 7:0.20678085820236625 8:0.10224262758255341 9:0.0038848666784389897 10:0.0038848666784389897 11:0.19989404909058803 12:0.9871093060215433 13:0.1638707398905174 14:0.1638707398905174 15:0.14303372770616282 16:0.14303372770616282 17:0.1638707398905174 18:0.09253046088645595 20:0.11336747307081052 23:0.23256224615927953 25:0.00688680911177821 
-0.016990005810425 1:0.8647360056507152 2:0.4672435105067985 3:0.4633586438283595 4:0.9871093060215433 5:0.3328624404026135 6:0.4004944375772559 7:0.8647360056507152 8:0.4672435105067985 9:0.4633586438283595 10:0.9871093060215433 11:0.3328624404026135 12:0.4004944375772559 13:0.14303372770616282 14:0.14303372770616282 15:0.14303372770616282 16:0.09253046088645595 17:0.13738301253752427 18:0.14762493378068162 20:0.7669079992936606 23:0.5767261168991701 25:0.00688680911177821 26:0.0821917808219178 
-0.04351591065151431 1:0.20854670669256578 2:0.3492848313614692 3:0.9468479604449939 4:0.0038848666784389897 5:0.8666784389899347 6:0.8048737418329507 7:0.20854670669256578 8:0.3492848313614692 9:0.9468479604449939 10:0.0038848666784389897 11:0.8666784389899347 12:0.8048737418329507 13:0.06321737594914356 14:0.13738301253752427 15:0.09253046088645595 16:0.14303372770616282 17:0.13738301253752427 18:0.13738301253752427 20:0.5700158926364118 23:0.5779622108423097 25:0.008299487903937842 26:0.0 
-0.11376456111359294 1:0.4004944375772559 2:0.1289069397845665 3:0.23256224615927953 4:0.004238036376478898 7:0.4004944375772559 8:0.1289069397845665 9:0.23256224615927953 10:0.004238036376478898 13:0.14762493378068162 14:0.1638707398905174 15:0.09253046088645595 16:0.14303372770616282 20:0.45152745894402263 23:0.01642239095885573 25:0.00688680911177821 
-0.46159273141755885 1:0.006533639413738301 2:0.021896521278474308 3:0.23256224615927953 4:0.0038848666784389897 5:0.9871093060215433 6:0.7043969627405968 7:0.006533639413738301 8:0.021896521278474308 9:0.23256224615927953 10:0.0038848666784389897 11:0.9871093060215433 12:0.7043969627405968 13:0.13738301253752427 14:0.14303372770616282 15:0.09253046088645595 16:0.14303372770616282 17:0.09253046088645595 18:0.13738301253752427 20:0.02207310612749426 23:0.010065336394137384 25:0.00688680911177821 26:0.2945205479452055 
-0.020321289181483335 1:0.0038848666784389897 2:0.052975454705986226 3:0.0038848666784389897 4:0.0038848666784389897 5:0.19283065512978986 6:0.9871093060215433 7:0.0038848666784389897 8:0.052975454705986226 9:0.0038848666784389897 10:0.0038848666784389897 11:0.19283065512978986 12:0.9871093060215433 13:0.14303372770616282 14:0.1638707398905174 15:0.14303372770616282 16:0.14303372770616282 17:0.1638707398905174 18:0.09253046088645595 20:0.16440049443757726 23:0.2684089705103302 25:0.00688680911177821 
-0.002260580693574273 3:0.11742892459826947 4:0.47748543174995584 5:0.4110895285184531 6:0.930778739184178 9:0.11742892459826947 10:0.47748543174995584 11:0.4110895285184531 12:0.930778739184178 15:0.1638707398905174 16:0.19565601271410912 17:0.13738301253752427 18:0.13738301253752427 20:0.9908175878509624 23:0.6897404202719407 25:0.00688680911177821 26:0.5068493150684932 
-0.2036808237549506 2:0.10012360939431397 3:0.06480663959032315 4:0.0031785272823591734 5:0.8048737418329507 6:0.4969097651421508 8:0.10012360939431397 9:0.06480663959032315 10:0.0031785272823591734 11:0.8048737418329507 12:0.4969097651421508 14:0.13738301253752427 15:0.1638707398905174 16:0.14303372770616282 17:0.09253046088645595 18:0.13738301253752427 19:0.06463005474130319 20:0.09306021543351581 22:0.06463005474130319 23:0.025428218258873387 25:0.00688680911177821 
-7.209045490049216E-4 1:0.10701041850609218 2:0.09394313967861558 3:0.0238389546176938 7:0.10701041850609218 8:0.09394313967861558 9:0.0238389546176938 13:0.1638707398905174 14:0.1638707398905174 15:0.14303372770616282 20:0.1958325975631291 23:0.0750485608334805 25:0.00688680911177821 26:0.7054794520547946 
-0.06789057805863213 2:0.3046088645594208 3:0.9468479604449939 4:0.9871093060215433 5:0.49585025604803107 6:0.3934310436164577 8:0.3046088645594208 9:0.9468479604449939 10:0.9871093060215433 11:0.49585025604803107 12:0.3934310436164577 14:0.14303372770616282 15:0.09253046088645595 16:0.09253046088645595 17:0.13738301253752427 18:0.13738301253752427 20:0.5700158926364118 23:0.815292247925128 25:0.00688680911177821 26:0.0136986301369863 
-0.15646349133489748 2:0.12237330037082818 3:0.2834186826770263 4:0.6341161928306551 5:0.6598975807875684 6:0.40914709517923364 8:0.12237330037082818 9:0.2834186826770263 10:0.6341161928306551 11:0.6598975807875684 12:0.40914709517923364 14:0.1638707398905174 15:0.13738301253752427 16:0.09253046088645595 17:0.13738301253752427 18:0.13738301253752427 19:0.280769909941727 20:0.8855730178350697 22:0.7241744658308317 23:0.7194066749072929 25:0.00688680911177821 
-0.0043502196617025805 1:0.019600918241214904 2:0.6659014656542469 3:0.4004944375772559 4:0.0038848666784389897 5:0.36341161928306553 6:0.734416387073989 7:0.019600918241214904 8:0.6655482959562069 9:0.4004944375772559 10:0.0038848666784389897 11:0.36341161928306553 12:0.734416387073989 13:0.14303372770616282 14:0.13738301253752427 15:0.14762493378068162 16:0.14303372770616282 17:0.024368709164753664 18:0.13738301253752427 20:0.6169874624757196 23:0.938548472541056 25:0.00688680911177821 
-0.002773616225513489 4:0.4570015892636412 5:0.5995055624227441 6:0.9214197421861204 10:0.4570015892636412 11:0.5995055624227441 12:0.9214197421861204 16:0.13738301253752427 17:0.09253046088645595 18:0.13738301253752427 25:0.00688680911177821 26:0.11643835616438356 
-0.0011697933956038645 4:0.6169874624757196 5:0.21949496733180293 6:0.5018541409147095 10:0.6169874624757196 11:0.21949496733180293 12:0.5018541409147095 16:0.06321737594914356 17:0.09253046088645595 18:0.13738301253752427 25:0.00688680911177821 26:0.11643835616438356 
-0.003407552228772351 4:0.9623874271587498 5:0.3273883100829949 6:0.9265407028076991 10:0.9623874271587498 11:0.3273883100829949 12:0.9265407028076991 16:0.19565601271410912 17:0.13738301253752427 18:0.14762493378068162 25:0.00688680911177821 26:0.547945205479452 
-0.0013906630292920643 4:0.8647360056507152 5:0.6341161928306551 6:0.823061981282006 10:0.8647360056507152 11:0.6341161928306551 12:0.823061981282006 16:0.16245806109835775 17:0.09253046088645595 18:0.13738301253752427 25:0.00688680911177821 26:0.9452054794520548 
