svm_type c_svc
kernel_type linear
nr_class 2
total_sv 7
rho -0.8580976602552115
label -1 6
probA -1.751401006795348
probB -0.5388812898494242
nr_sv 5 2
SV
0.2596688339682811 1:0.7400177462289264 2:0.20372670807453416 3:0.002484472049689441 4:0.0026619343389529724 5:0.0033717834960070984 7:0.7400177462289264 8:0.20372670807453416 9:0.002484472049689441 10:0.0026619343389529724 11:0.0033717834960070984 13:0.34214729370008873 14:0.3359361135758651 15:0.3359361135758651 16:0.3359361135758651 17:0.3359361135758651 20:0.029103815439219166 23:0.6342502218278616 25:0.004791481810115351 
0.49766680044480016 1:0.5107364685004436 2:0.9753327417923692 3:0.7494232475598935 4:0.8301685891748004 5:0.9870452528837622 6:0.6740017746228927 7:0.5107364685004436 8:0.9753327417923692 9:0.7494232475598935 10:0.8301685891748004 11:0.9870452528837622 12:0.5879325643300799 13:0.3217391304347826 14:0.34214729370008873 15:0.040106477373558116 16:0.34214729370008873 17:0.3217391304347826 18:0.47329192546583854 20:0.027861579414374445 21:0.8298136645962733 23:7.09849157054126E-4 24:0.6402839396628216 25:0.004791481810115351 
0.32208540226076965 1:0.003194321206743567 2:0.04897959183673469 3:0.0388642413487134 4:0.7874001774622893 5:0.5966282165039929 6:0.34676131322094056 7:0.003194321206743567 8:0.04897959183673469 9:0.0388642413487134 10:0.7872227151730258 11:0.6065661047027506 12:0.34676131322094056 13:0.3359361135758651 14:0.3217391304347826 15:0.3359361135758651 16:0.47329192546583854 17:0.12191659272404615 18:0.3217391304347826 20:0.41171251109139306 21:0.7868677905944986 23:0.7118012422360248 24:0.7327417923691215 25:0.004791481810115351 
0.0021726355693604147 1:0.2388642413487134 2:0.9448092280390417 3:0.6001774622892635 7:0.2388642413487134 8:0.9448092280390417 9:0.6065661047027506 13:0.3217391304347826 14:0.34214729370008873 15:0.12191659272404615 19:0.5989352262644189 20:0.45554569653948535 22:0.6342502218278616 23:0.8181011535048802 25:0.004791481810115351 
0.002133159359318891 1:0.8409937888198757 2:0.9730257320319432 3:0.7400177462289264 4:0.7813664596273292 5:0.002484472049689441 6:0.5897071872227152 7:0.8409937888198757 8:0.9730257320319432 9:0.7400177462289264 10:0.7810115350488022 11:0.002484472049689441 12:0.5897071872227152 13:0.1955634427684117 14:0.1955634427684117 15:0.34214729370008873 16:0.47329192546583854 17:0.3359361135758651 18:0.040106477373558116 20:0.07861579414374445 21:0.7790594498669032 23:0.8044365572315882 24:0.7119787045252883 25:0.004791481810115351 
-0.41928610597164917 1:0.8535936113575865 2:0.017036379769299025 3:0.6042590949423248 4:0.6354924578527062 5:0.017036379769299025 6:0.8846495119787046 7:0.8535936113575865 8:0.017036379769299025 9:0.6042590949423248 10:0.6354924578527062 11:0.017036379769299025 12:0.8846495119787046 13:0.1955634427684117 14:0.366282165039929 15:0.1955634427684117 16:0.1955634427684117 17:0.366282165039929 18:0.1955634427684117 19:0.5989352262644189 20:0.01685891748003549 21:0.6342502218278616 22:0.59094942324756 23:3.54924578527063E-4 24:0.59094942324756 25:0.004791481810115351 
-0.6644407256308811 1:0.6042590949423248 2:0.017036379769299025 3:0.6354924578527062 4:0.8846495119787046 5:0.9144631765749778 6:0.006388642413487134 7:0.6042590949423248 8:0.017036379769299025 9:0.6354924578527062 10:0.8846495119787046 11:0.9144631765749778 12:0.006388642413487134 13:0.1955634427684117 14:0.366282165039929 15:0.1955634427684117 16:0.1955634427684117 17:0.11251109139307897 18:0.3359361135758651 19:0.6342502218278616 20:0.01685891748003549 21:0.884472049689441 22:0.59094942324756 23:3.54924578527063E-4 24:0.59094942324756 25:0.004791481810115351 
