svm_type c_svc
kernel_type linear
nr_class 2
total_sv 15
rho -0.3717101764578554
label 1 -1
probA -0.31902439191527693
probB 0.42157630157306314
nr_sv 6 9
SV
1.0 1:0.6991738505747126 2:0.6460129310344828 3:0.5167025862068966 4:0.0028735632183908046 5:0.9504310344827587 6:0.6661278735632183 7:0.6686422413793104 8:0.6460129310344828 9:0.5167025862068966 10:0.0028735632183908046 11:0.9504310344827587 12:0.6661278735632183 13:0.4694683908045977 14:0.359375 15:0.33710488505747127 16:0.33063936781609193 17:0.359375 18:0.33710488505747127 20:0.028915229885057472 23:0.7291666666666666 25:0.004489942528735632 
1.0 3:0.04256465517241379 4:0.6650502873563219 5:0.617816091954023 6:0.10201149425287356 9:0.5280172413793104 10:0.6497844827586207 11:0.6185344827586207 12:0.10201149425287356 15:0.359375 16:0.4694683908045977 17:0.11602011494252873 18:0.31645114942528735 19:0.041666666666666664 20:0.02783764367816092 21:0.664691091954023 22:0.7713721264367817 23:0.6291307471264368 24:0.8491379310344828 25:0.004489942528735632 
1.0 2:0.14044540229885058 3:0.867816091954023 4:0.0028735632183908046 5:0.7361709770114943 6:0.18193247126436782 8:0.6185344827586207 9:0.8676364942528736 10:0.0028735632183908046 11:0.7361709770114943 12:0.18193247126436782 14:0.11602011494252873 15:0.1882183908045977 16:0.33063936781609193 17:0.03089080459770115 18:0.31645114942528735 19:0.8563218390804598 20:0.49748563218390807 22:0.8051364942528736 23:0.7147988505747126 25:0.004489942528735632 
1.0 1:0.8696120689655172 2:0.867816091954023 3:0.6375718390804598 4:0.7940014367816092 5:0.7719109195402298 6:0.15535201149425287 7:0.8696120689655172 8:0.8676364942528736 9:0.6373922413793104 10:0.7940014367816092 11:0.7717313218390804 12:0.15535201149425287 13:0.03089080459770115 14:0.1882183908045977 15:0.1882183908045977 16:0.33710488505747127 17:0.1882183908045977 18:0.31645114942528735 19:0.6352370689655172 20:0.49748563218390807 21:0.7916666666666666 22:0.7878951149425287 23:0.7147988505747126 24:0.7449712643678161 25:0.004489942528735632 
0.845019818070117 1:0.6027298850574713 2:0.16091954022988506 3:0.595007183908046 4:0.00305316091954023 7:0.6027298850574713 8:0.16091954022988506 9:0.5948275862068966 10:0.00305316091954023 13:0.11602011494252873 14:0.31645114942528735 15:0.4694683908045977 16:0.33063936781609193 19:0.5908764367816092 20:0.5874640804597702 22:0.8491379310344828 23:0.6291307471264368 25:0.004489942528735632 
1.0 1:0.7367097701149425 2:0.1966594827586207 3:0.0021551724137931034 4:0.002334770114942529 5:0.00305316091954023 7:0.7367097701149425 8:0.1966594827586207 9:0.0021551724137931034 10:0.002334770114942529 11:0.00305316091954023 13:0.33710488505747127 14:0.33063936781609193 15:0.33063936781609193 16:0.33063936781609193 17:0.33063936781609193 20:0.02244971264367816 23:0.6291307471264368 25:0.004489942528735632 
-0.3441331178867108 4:0.9766522988505747 5:0.6661278735632183 6:0.617816091954023 10:0.9815014367816092 11:0.6661278735632183 12:0.6185344827586207 16:0.4694683908045977 17:0.33710488505747127 18:0.11602011494252873 20:0.018139367816091954 21:0.9753951149425287 23:0.5418462643678161 24:0.78125 25:0.004489942528735632 
-0.7769435209833208 1:0.5944683908045977 2:0.6460129310344828 3:0.6417025862068966 4:0.5305316091954023 5:0.7447916666666666 6:0.6027298850574713 7:0.6027298850574713 8:0.6460129310344828 9:0.6417025862068966 10:0.5305316091954023 11:0.8701508620689655 12:0.6027298850574713 13:0.359375 14:0.359375 15:0.03089080459770115 16:0.1882183908045977 17:0.4694683908045977 18:0.11602011494252873 19:0.6352370689655172 20:0.869073275862069 21:0.5272988505747126 22:0.8863146551724138 23:0.7147988505747126 24:0.78125 25:0.004489942528735632 
-0.22789842115608244 1:0.33979885057471265 2:0.9136135057471264 3:0.7358117816091954 4:0.00305316091954023 7:0.33979885057471265 8:0.9136135057471264 9:0.7367097701149425 10:0.00305316091954023 13:0.3613505747126437 14:0.10560344827586207 15:0.33710488505747127 16:0.33063936781609193 20:0.1257183908045977 23:0.8049568965517241 25:0.004489942528735632 
-1.0 1:0.5985991379310345 2:0.804058908045977 3:0.679058908045977 4:0.00305316091954023 7:0.6027298850574713 8:0.804058908045977 9:0.6786997126436781 10:0.00305316091954023 13:0.11602011494252873 14:0.33710488505747127 15:0.1882183908045977 16:0.33063936781609193 19:0.6677442528735632 20:0.3473419540229885 22:0.6291307471264368 23:0.8019037356321839 25:0.004489942528735632 
-0.9760801290408067 1:0.013110632183908046 2:0.32992097701149425 3:0.7367097701149425 4:0.617816091954023 5:0.8229166666666666 6:0.23186063218390804 7:0.013110632183908046 8:0.3193247126436782 9:0.7367097701149425 10:0.6185344827586207 11:0.8227370689655172 12:0.23186063218390804 13:0.33063936781609193 14:0.31645114942528735 15:0.33710488505747127 16:0.11602011494252873 17:0.1882183908045977 18:0.31645114942528735 20:0.07866379310344827 21:0.6158405172413793 23:0.7367097701149425 24:0.7367097701149425 25:0.004489942528735632 
-0.8165718899021707 1:0.0028735632183908046 2:0.3478807471264368 3:0.0028735632183908046 4:0.0028735632183908046 5:0.4791666666666667 6:0.9489942528735632 7:0.0028735632183908046 8:0.3478807471264368 9:0.0028735632183908046 10:0.0028735632183908046 11:0.4791666666666667 12:0.8701508620689655 13:0.33063936781609193 14:0.3613505747126437 15:0.33063936781609193 16:0.33063936781609193 17:0.3613505747126437 18:0.4694683908045977 20:0.17169540229885058 23:0.8157327586206896 25:0.004489942528735632 
-0.3737450513899875 1:0.018139367816091954 2:0.0016163793103448276 3:0.8516522988505747 4:0.6003951149425287 5:0.014188218390804598 6:0.0016163793103448276 7:0.018139367816091954 8:0.0016163793103448276 9:0.8516522988505747 10:0.6003951149425287 11:0.014188218390804598 12:0.0016163793103448276 13:0.33063936781609193 14:0.31645114942528735 15:0.1882183908045977 16:0.1882183908045977 17:0.33063936781609193 18:0.31645114942528735 19:0.8493175287356322 20:0.014188218390804598 21:0.5960847701149425 22:0.5887212643678161 23:3.5919540229885057E-4 24:0.5887212643678161 25:0.004489942528735632 
-0.3296476877110379 1:0.7218031609195402 2:0.0028735632183908046 3:0.5944683908045977 4:0.7447916666666666 5:0.7083333333333334 6:0.9565373563218391 7:0.7218031609195402 8:0.0028735632183908046 9:0.6027298850574713 10:0.8701508620689655 11:0.7083333333333334 12:0.9565373563218391 13:0.03089080459770115 14:0.33063936781609193 15:0.11602011494252873 16:0.4694683908045977 17:0.1882183908045977 18:0.10560344827586207 19:0.5908764367816092 20:0.22880747126436782 21:0.7446120689655172 22:0.5425646551724138 23:0.9080459770114943 24:0.8863146551724138 25:0.004489942528735632 
-1.0 1:0.8848778735632183 2:0.6733117816091954 3:0.5944683908045977 7:0.8848778735632183 8:0.6733117816091954 9:0.6027298850574713 13:0.4694683908045977 14:0.33710488505747127 15:0.11602011494252873 19:0.5908764367816092 20:0.22880747126436782 22:0.5425646551724138 23:0.9080459770114943 25:0.004489942528735632 
