svm_type c_svc
kernel_type linear
nr_class 2
total_sv 18
rho -2.2101215814004496
label -1 3
probA 0.8285646878387308
probB -1.1583436791920312
nr_sv 11 7
SV
0.38114413729140517 3:0.05128660159716061 4:0.6695652173913044 5:0.6228926353149956 6:0.10896184560780835 9:0.5307897071872227 10:0.6544809228039041 11:0.6236024844720497 12:0.10896184560780835 15:0.3646850044365572 16:0.47329192546583854 17:0.12191659272404615 18:0.3217391304347826 19:0.05039929015084295 20:0.03655723158828749 21:0.6692102928127773 22:0.7744454303460515 23:0.6342502218278616 24:0.8511091393078971 25:0.004791481810115351 
0.15116351803025324 1:0.6236024844720497 2:0.45323868677905943 3:0.6706299911268855 4:0.535226264418811 5:0.4429458740017746 6:0.003194321206743567 7:0.6236024844720497 8:0.45323868677905943 9:0.6706299911268855 10:0.5359361135758651 11:0.4429458740017746 12:0.003194321206743567 13:0.12191659272404615 14:0.3217391304347826 15:0.34214729370008873 16:0.34214729370008873 17:0.3217391304347826 18:0.3359361135758651 19:0.6699201419698314 20:0.9994676131322094 22:0.9984028393966282 23:0.004968944099378882 25:0.004791481810115351 
0.00466698225350384 1:0.006388642413487134 2:0.20390417036379768 3:0.9444543034605146 4:0.636734693877551 7:0.006388642413487134 8:0.20390417036379768 9:0.9446317657497781 10:0.636734693877551 13:0.3359361135758651 14:0.3359361135758651 15:0.34214729370008873 16:0.1955634427684117 19:0.943566992014197 20:0.2727595385980479 21:0.6342502218278616 22:0.8244897959183674 23:0.9102040816326531 24:0.816681455190772 25:0.004791481810115351 
1.0 1:0.006388642413487134 2:0.7948535936113575 3:0.977639751552795 4:0.0026619343389529724 5:0.9144631765749778 6:0.8713398402839396 7:0.006388642413487134 8:0.7948535936113575 9:0.9753327417923692 10:0.0026619343389529724 11:0.9144631765749778 12:0.8713398402839396 13:0.3359361135758651 14:0.3359361135758651 15:0.34214729370008873 16:0.3359361135758651 17:0.11251109139307897 18:0.040106477373558116 19:0.9753327417923692 20:0.35403726708074534 22:0.9102040816326531 23:0.9703637976929902 25:0.004791481810115351 
0.9697424339887417 1:0.003194321206743567 2:0.9102040816326531 3:0.9180124223602485 4:0.003194321206743567 5:0.4755989352262644 6:0.9144631765749778 7:0.003194321206743567 8:0.9102040816326531 9:0.9613132209405502 10:0.003194321206743567 11:0.4755989352262644 12:0.9144631765749778 13:0.3359361135758651 14:0.11251109139307897 15:0.3646850044365572 16:0.3359361135758651 17:0.366282165039929 18:0.11251109139307897 19:0.9130434782608695 20:0.4748890860692103 22:0.8165039929015084 23:0.8044365572315882 25:0.004791481810115351 
1.0 1:0.9180124223602485 2:0.4798580301685892 3:0.003194321206743567 4:0.9144631765749778 5:0.34392191659272403 6:0.5442768411712511 7:0.9613132209405502 8:0.4798580301685892 9:0.003194321206743567 10:0.9144631765749778 11:0.34392191659272403 12:0.5430346051464063 13:0.3646850044365572 14:0.366282165039929 15:0.3359361135758651 16:0.11251109139307897 17:0.366282165039929 18:0.47329192546583854 20:0.4748890860692103 21:0.9130434782608695 23:0.7377107364685005 24:0.8074534161490683 25:0.004791481810115351 
1.0 3:0.042945874001774624 4:0.7478260869565218 5:0.5359361135758651 6:0.8768411712511092 9:0.5201419698314108 10:0.8718722271517303 11:0.5359361135758651 12:0.8768411712511092 15:0.11251109139307897 16:0.47329192546583854 17:0.34214729370008873 18:0.3646850044365572 19:0.0417036379769299 20:0.05554569653948536 21:0.7476486246672582 22:0.6402839396628216 23:0.535226264418811 24:0.8876663708961846 25:0.004791481810115351 26:0.3888888888888889 
0.7323659577977322 1:0.6042590949423248 2:0.017036379769299025 3:0.6354924578527062 4:0.8846495119787046 5:0.9144631765749778 6:0.006388642413487134 7:0.6042590949423248 8:0.017036379769299025 9:0.6354924578527062 10:0.8846495119787046 11:0.9144631765749778 12:0.006388642413487134 13:0.1955634427684117 14:0.366282165039929 15:0.1955634427684117 16:0.1955634427684117 17:0.11251109139307897 18:0.3359361135758651 19:0.6342502218278616 20:0.01685891748003549 21:0.884472049689441 22:0.59094942324756 23:3.54924578527063E-4 24:0.59094942324756 25:0.004791481810115351 
0.4988550459223557 1:0.5329192546583851 2:0.1701863354037267 3:0.7391304347826086 4:0.5201419698314108 5:0.5717834960070985 6:0.7400177462289264 7:0.5329192546583851 8:0.1701863354037267 9:0.7400177462289264 10:0.5201419698314108 11:0.5717834960070985 12:0.7400177462289264 13:0.11251109139307897 14:0.3217391304347826 15:0.34214729370008873 16:0.040106477373558116 17:0.040106477373558116 18:0.34214729370008873 20:0.05039929015084295 21:0.5196095829636203 23:0.8500443655723159 24:0.6402839396628216 25:0.004791481810115351 
1.0 3:0.12706299911268856 4:0.7478260869565218 5:0.6228926353149956 6:0.10949423247559893 9:0.6065661047027506 10:0.8718722271517303 11:0.6236024844720497 12:0.10949423247559893 15:0.12191659272404615 16:0.47329192546583854 17:0.12191659272404615 18:0.3359361135758651 19:0.12386867790594498 20:0.40141969831410823 21:0.7476486246672582 22:0.5451641526175688 23:0.5907719609582963 24:0.8876663708961846 25:0.004791481810115351 
0.26206192471600837 4:0.8571428571428571 5:0.003194321206743567 6:0.8967169476486246 10:0.8571428571428571 11:0.003194321206743567 12:0.8967169476486246 16:0.1955634427684117 17:0.3359361135758651 18:0.1955634427684117 20:0.45554569653948535 21:0.8548358473824312 23:0.8248447204968944 24:0.6402839396628216 25:0.004791481810115351 26:0.6666666666666666 
-1.0 1:0.5966282165039929 2:0.6509316770186335 3:0.6466725820763087 4:0.5332741792369121 5:0.7478260869565218 6:0.6065661047027506 7:0.6065661047027506 8:0.6509316770186335 9:0.6466725820763087 10:0.5332741792369121 11:0.8718722271517303 12:0.6065661047027506 13:0.3646850044365572 14:0.3646850044365572 15:0.040106477373558116 16:0.1955634427684117 17:0.47329192546583854 18:0.12191659272404615 19:0.6402839396628216 20:0.8708074534161491 21:0.5300798580301685 22:0.8876663708961846 23:0.7183673469387755 24:0.7842058562555457 25:0.004791481810115351 
-1.0 1:0.002484472049689441 2:0.5359361135758651 3:0.6239574090505767 4:8.873114463176575E-4 5:0.0026619343389529724 6:0.5879325643300799 7:0.002484472049689441 8:0.5359361135758651 9:0.6236024844720497 10:8.873114463176575E-4 11:0.0026619343389529724 12:0.5879325643300799 13:0.3359361135758651 14:0.34214729370008873 15:0.12191659272404615 16:0.3359361135758651 17:0.3359361135758651 18:0.47329192546583854 19:0.6209405501330967 20:0.5007985803016859 22:0.6328305235137534 23:0.5989352262644189 25:0.004791481810115351 
-1.0 1:0.003194321206743567 2:0.7508429458740018 3:0.6706299911268855 4:0.06867790594498668 5:0.8115350488021296 6:0.8713398402839396 7:0.003194321206743567 8:0.7508429458740018 9:0.6706299911268855 10:0.06867790594498668 11:0.8115350488021296 12:0.8713398402839396 13:0.3359361135758651 14:0.040106477373558116 15:0.34214729370008873 16:0.3217391304347826 17:0.3359361135758651 18:0.040106477373558116 19:0.6699201419698314 20:0.006033717834960071 21:0.06796805678793257 22:0.9984028393966282 23:0.7183673469387755 24:0.7842058562555457 25:0.004791481810115351 
-1.0 1:0.6569653948535936 2:0.017213842058562554 3:0.6706299911268855 4:0.8782608695652174 5:0.8440106477373558 6:0.04862466725820763 7:0.6569653948535936 8:0.017213842058562554 9:0.6706299911268855 10:0.8718722271517303 11:0.8438331854480923 12:0.04862466725820763 13:0.040106477373558116 14:0.366282165039929 15:0.34214729370008873 16:0.47329192546583854 17:0.1955634427684117 18:0.3359361135758651 19:0.6699201419698314 20:0.02165039929015084 21:0.8766637089618456 22:0.9984028393966282 23:0.6342502218278616 24:0.8074534161490683 25:0.004791481810115351 
-1.0 3:0.24933451641526175 4:0.9494232475598935 5:0.7112688553682343 6:0.9891748003549246 9:0.7400177462289264 10:0.8718722271517303 11:0.7112688553682343 12:0.5332741792369121 15:0.34214729370008873 16:0.47329192546583854 17:0.040106477373558116 18:0.1955634427684117 20:0.40141969831410823 21:0.9481810115350489 23:0.6402839396628216 24:0.6342502218278616 25:0.004791481810115351 
-1.0 1:0.003194321206743567 2:0.04897959183673469 3:0.0388642413487134 4:0.7874001774622893 5:0.5966282165039929 6:0.34676131322094056 7:0.003194321206743567 8:0.04897959183673469 9:0.0388642413487134 10:0.7872227151730258 11:0.6065661047027506 12:0.34676131322094056 13:0.3359361135758651 14:0.3217391304347826 15:0.3359361135758651 16:0.47329192546583854 17:0.12191659272404615 18:0.3217391304347826 20:0.41171251109139306 21:0.7868677905944986 23:0.7118012422360248 24:0.7327417923691215 25:0.004791481810115351 
-1.0 1:0.5966282165039929 2:0.2388642413487134 3:0.15669920141969831 4:0.814019520851819 5:0.5515527950310559 6:0.94924578527063 7:0.6065661047027506 8:0.2388642413487134 9:0.15669920141969831 10:0.814019520851819 11:0.5508429458740017 12:0.8718722271517303 13:0.12191659272404615 14:0.3217391304347826 15:0.3217391304347826 16:0.040106477373558116 17:0.47329192546583854 18:0.47329192546583854 19:0.1565217391304348 20:0.40141969831410823 21:0.8138420585625554 22:0.5989352262644189 23:0.8979591836734694 24:0.59094942324756 25:0.004791481810115351 
