svm_type c_svc
kernel_type linear
nr_class 2
total_sv 39
rho -0.6893814038797769
label -1 8
probA -0.3100073638987046
probB -0.48059467879779816
nr_sv 22 17
SV
1.0 1:0.5966282165039929 2:0.2388642413487134 3:0.15669920141969831 4:0.814019520851819 5:0.5515527950310559 6:0.94924578527063 7:0.6065661047027506 8:0.2388642413487134 9:0.15669920141969831 10:0.814019520851819 11:0.5508429458740017 12:0.8718722271517303 13:0.12191659272404615 14:0.3217391304347826 15:0.3217391304347826 16:0.040106477373558116 17:0.47329192546583854 18:0.47329192546583854 19:0.1565217391304348 20:0.40141969831410823 21:0.8138420585625554 22:0.5989352262644189 23:0.8979591836734694 24:0.59094942324756 25:0.004791481810115351 
1.0 1:0.13558118899733806 2:0.5359361135758651 3:0.6017746228926353 4:0.0033717834960070984 7:0.6092280390417036 8:0.5359361135758651 9:0.6065661047027506 10:0.0033717834960070984 13:0.1955634427684117 14:0.34214729370008873 15:0.12191659272404615 16:0.3359361135758651 19:0.5989352262644189 20:0.4104702750665484 22:0.6402839396628216 23:0.7375332741792369 25:0.004791481810115351 
1.0 1:0.7391304347826086 2:0.5094942324755989 3:0.9446317657497781 4:0.0033717834960070984 7:0.7400177462289264 8:0.5094942324755989 9:0.9446317657497781 10:0.0033717834960070984 13:0.34214729370008873 14:0.3217391304347826 15:0.34214729370008873 16:0.3359361135758651 19:0.943566992014197 20:0.3433895297249335 22:0.8246672582076309 23:0.7476486246672582 25:0.0058562555456965395 26:0.05555555555555555 
1.0 1:0.9834960070984916 2:0.45377107364685004 3:0.9144631765749778 4:0.003194321206743567 5:0.7886424134871339 6:0.585980479148181 7:0.9834960070984916 8:0.45377107364685004 9:0.9144631765749778 10:0.003194321206743567 11:0.7886424134871339 12:0.5858030168589174 13:0.34214729370008873 14:0.366282165039929 15:0.11251109139307897 16:0.3359361135758651 17:0.3646850044365572 18:0.47329192546583854 19:0.9130434782608695 20:0.2727595385980479 22:0.8074534161490683 23:0.8267968056787932 25:0.004791481810115351 
0.45068876433149524 4:0.8571428571428571 5:0.003194321206743567 6:0.8967169476486246 10:0.8571428571428571 11:0.003194321206743567 12:0.8967169476486246 16:0.1955634427684117 17:0.3359361135758651 18:0.1955634427684117 20:0.45554569653948535 21:0.8548358473824312 23:0.8248447204968944 24:0.6402839396628216 25:0.004791481810115351 26:0.6666666666666666 
1.0 4:0.8782608695652174 5:0.4392191659272405 6:0.721206743566992 10:0.8718722271517303 11:0.4392191659272405 12:0.721206743566992 16:0.47329192546583854 17:0.3217391304347826 18:0.1955634427684117 20:0.5102040816326531 21:0.8766637089618456 23:0.6402839396628216 24:0.8074534161490683 25:0.004791481810115351 26:0.1111111111111111 
1.0 4:0.9787045252883763 5:0.43087843833185446 6:0.8713398402839396 10:0.9753327417923692 11:0.43087843833185446 12:0.8713398402839396 16:0.34214729370008873 17:0.3217391304347826 18:0.040106477373558116 20:0.5102040816326531 21:0.9753327417923692 23:0.6402839396628216 24:0.923868677905945 25:0.004791481810115351 26:0.1111111111111111 
1.0 4:0.8782608695652174 5:0.6205856255545696 6:0.9148181011535049 10:0.8718722271517303 11:0.6205856255545696 12:0.9148181011535049 16:0.47329192546583854 17:0.040106477373558116 18:0.1955634427684117 20:0.5102040816326531 21:0.8766637089618456 23:0.6402839396628216 24:0.8074534161490683 25:0.004791481810115351 26:0.1111111111111111 
1.0 4:0.9203194321206744 5:8.873114463176575E-4 10:0.9203194321206744 11:8.873114463176575E-4 16:0.1955634427684117 17:0.3359361135758651 20:0.4209405501330967 21:0.9130434782608695 23:0.8502218278615794 24:0.5444543034605146 25:0.004791481810115351 
0.5421607566809615 1:0.8175687666370897 2:0.9563442768411713 3:0.8046140195208518 4:0.0033717834960070984 7:0.8175687666370897 8:0.9563442768411713 9:0.8046140195208518 10:0.0033717834960070984 13:0.040106477373558116 14:0.3646850044365572 15:0.34214729370008873 16:0.3359361135758651 19:0.8044365572315882 20:0.01685891748003549 22:0.59094942324756 23:0.732564330079858 25:0.004791481810115351 
1.0 1:0.34676131322094056 2:0.6466725820763087 3:0.5196095829636203 4:0.5464063886424135 7:0.34676131322094056 8:0.6466725820763087 9:0.5196095829636203 10:0.5464063886424135 13:0.3217391304347826 14:0.040106477373558116 15:0.34214729370008873 16:0.34214729370008873 20:0.009405501330967169 21:0.5460514640638864 23:0.732564330079858 24:0.9096716947648624 25:0.004791481810115351 
0.15808479387455227 1:0.40798580301685894 2:0.5978704525288376 3:0.5897071872227152 4:0.0033717834960070984 7:0.40798580301685894 8:0.5976929902395741 9:0.5897071872227152 10:0.0033717834960070984 13:0.3359361135758651 14:0.47329192546583854 15:0.040106477373558116 16:0.3359361135758651 19:0.5895297249334517 20:0.029103815439219166 22:0.5194321206743567 23:0.6342502218278616 25:0.004791481810115351 26:0.16666666666666666 
0.8557360522320873 1:0.6228926353149956 2:0.5107364685004436 3:0.6706299911268855 4:0.004614019520851819 5:0.3244010647737356 6:0.5801242236024845 7:0.6236024844720497 8:0.5107364685004436 9:0.6706299911268855 10:0.004614019520851819 11:0.3244010647737356 12:0.579946761313221 13:0.12191659272404615 14:0.3217391304347826 15:0.34214729370008873 16:0.3359361135758651 17:0.3217391304347826 18:0.47329192546583854 19:0.6699201419698314 20:0.011357586512866016 22:0.9984028393966282 23:0.8503992901508429 25:0.004791481810115351 
1.0 1:0.8046140195208518 2:0.3416149068322981 3:0.002484472049689441 4:0.004614019520851819 5:0.4321206743566992 6:0.0026619343389529724 7:0.8046140195208518 8:0.3416149068322981 9:0.002484472049689441 10:0.004614019520851819 11:0.4321206743566992 12:0.0026619343389529724 13:0.34214729370008873 14:0.366282165039929 15:0.3359361135758651 16:0.3359361135758651 17:0.3217391304347826 18:0.3359361135758651 20:0.006388642413487134 23:0.8503992901508429 25:0.004791481810115351 26:0.16666666666666666 
0.19306333969439393 1:0.7274179236912156 2:0.6017746228926353 3:0.001064773735581189 4:0.13700088731144633 5:0.4614019520851819 6:0.001064773735581189 7:0.7204968944099379 8:0.6065661047027506 9:0.001064773735581189 10:0.6110026619343389 11:0.4614019520851819 12:0.001064773735581189 13:0.47329192546583854 14:0.12191659272404615 15:0.3359361135758651 16:0.1955634427684117 17:0.3217391304347826 18:0.3359361135758651 20:0.01685891748003549 21:0.13664596273291926 23:1.774622892635315E-4 24:0.6402839396628216 25:0.004791481810115351 
0.5918355532977888 4:0.05661047027506655 10:0.05661047027506655 16:0.366282165039929 20:0.14658385093167703 21:0.05554569653948536 23:0.7183673469387755 24:0.535226264418811 25:0.004791481810115351 
0.8902609314831348 2:0.40301685891748 3:0.9921916592724046 4:0.7872227151730258 5:0.9613132209405502 6:0.9197870452528838 8:0.8729370008873114 9:0.9921916592724046 10:0.7872227151730258 11:0.9613132209405502 12:0.9192546583850931 14:0.11251109139307897 15:0.34214729370008873 16:0.47329192546583854 17:0.3646850044365572 18:0.3646850044365572 19:0.9918367346938776 20:0.006388642413487134 21:0.7868677905944986 22:0.6402839396628216 23:0.6342502218278616 24:0.6342502218278616 25:0.004791481810115351 26:0.16666666666666666 
0.35037943545958106 3:0.15669920141969831 4:0.7478260869565218 5:0.5966282165039929 6:0.2388642413487134 9:0.15669920141969831 10:0.8718722271517303 11:0.6065661047027506 12:0.2388642413487134 15:0.3217391304347826 16:0.47329192546583854 17:0.12191659272404615 18:0.3217391304347826 19:0.1565217391304348 20:0.06796805678793257 21:0.7476486246672582 22:0.5989352262644189 23:0.8876663708961846 24:0.8876663708961846 25:0.004791481810115351 
0.0026356275825244633 1:0.5998225377107365 2:0.08145519077196096 3:0.004614019520851819 4:0.0033717834960070984 7:0.6065661047027506 8:0.08145519077196096 9:0.004614019520851819 10:0.0033717834960070984 13:0.12191659272404615 14:0.3217391304347826 15:0.3359361135758651 16:0.3359361135758651 20:0.5989352262644189 23:0.6342502218278616 25:0.004791481810115351 26:0.5 
1.0 1:0.6017746228926353 2:0.45891748003549243 3:0.535226264418811 4:0.0033717834960070984 7:0.6065661047027506 8:0.45891748003549243 9:0.5359361135758651 10:0.0033717834960070984 13:0.12191659272404615 14:0.3217391304347826 15:0.34214729370008873 16:0.3359361135758651 20:0.17941437444543035 23:0.8181011535048802 25:0.004791481810115351 
1.0 2:0.1650399290150843 3:0.8191659272404614 8:0.1650399290150843 9:0.819343389529725 14:0.3359361135758651 15:0.47329192546583854 19:0.8182786157941437 20:0.07861579414374445 22:0.7183673469387755 23:0.811357586512866 25:0.004791481810115351 
0.8989048833591379 1:0.9707187222715173 2:0.5966282165039929 3:0.5675244010647738 4:0.7966282165039928 5:0.5998225377107365 6:0.8699201419698314 7:0.9712511091393079 8:0.6065661047027506 9:0.5673469387755102 10:0.7966282165039928 11:0.6065661047027506 12:0.8693877551020408 13:0.34214729370008873 14:0.12191659272404615 15:0.1955634427684117 16:0.34214729370008873 17:0.12191659272404615 18:0.1955634427684117 19:0.5593611357586513 20:0.1543921916592724 21:0.794321206743567 22:0.8995563442768412 23:0.9102040816326531 24:0.7480035492457853 25:0.004791481810115351 
-1.0 1:0.7252883762200533 2:0.003194321206743567 3:0.5966282165039929 4:0.7478260869565218 5:0.712156166814552 6:0.9568766637089618 7:0.7252883762200533 8:0.003194321206743567 9:0.6065661047027506 10:0.8718722271517303 11:0.712156166814552 12:0.9568766637089618 13:0.040106477373558116 14:0.3359361135758651 15:0.12191659272404615 16:0.47329192546583854 17:0.1955634427684117 18:0.11251109139307897 19:0.5930789707187223 20:0.23513753327417924 21:0.7476486246672582 22:0.5451641526175688 23:0.9089618456078083 24:0.8876663708961846 25:0.004791481810115351 
-1.0 1:0.8862466725820763 2:0.6777284826974268 3:0.5966282165039929 7:0.8862466725820763 8:0.6777284826974268 9:0.6065661047027506 13:0.47329192546583854 14:0.34214729370008873 15:0.12191659272404615 19:0.5930789707187223 20:0.23513753327417924 22:0.5451641526175688 23:0.9089618456078083 25:0.004791481810115351 
-1.0 1:0.7151730257320319 2:0.003194321206743567 3:0.9444543034605146 4:0.7430346051464064 5:0.11481810115350488 6:0.9524401064773735 7:0.7151730257320319 8:0.003194321206743567 9:0.9446317657497781 10:0.7400177462289264 11:0.11481810115350488 12:0.9524401064773735 13:0.47329192546583854 14:0.3359361135758651 15:0.34214729370008873 16:0.34214729370008873 17:0.366282165039929 18:0.34214729370008873 19:0.943566992014197 20:0.4592724046140195 21:0.7400177462289264 22:0.8244897959183674 23:0.887488908606921 24:0.8165039929015084 25:0.004791481810115351 
-1.0 4:0.7478260869565218 5:0.6228926353149956 6:0.2015971606033718 10:0.8718722271517303 11:0.6236024844720497 12:0.2015971606033718 16:0.47329192546583854 17:0.12191659272404615 18:0.3217391304347826 20:0.12386867790594498 21:0.7476486246672582 23:0.6324755989352263 24:0.8876663708961846 25:0.004791481810115351 
-0.9503227187522671 1:0.5329192546583851 2:0.1701863354037267 3:0.7391304347826086 4:0.5201419698314108 5:0.5717834960070985 6:0.7400177462289264 7:0.5329192546583851 8:0.1701863354037267 9:0.7400177462289264 10:0.5201419698314108 11:0.5717834960070985 12:0.7400177462289264 13:0.11251109139307897 14:0.3217391304347826 15:0.34214729370008873 16:0.040106477373558116 17:0.040106477373558116 18:0.34214729370008873 20:0.05039929015084295 21:0.5196095829636203 23:0.8500443655723159 24:0.6402839396628216 25:0.004791481810115351 
-1.0 3:0.12706299911268856 4:0.7478260869565218 5:0.6228926353149956 6:0.10949423247559893 9:0.6065661047027506 10:0.8718722271517303 11:0.6236024844720497 12:0.10949423247559893 15:0.12191659272404615 16:0.47329192546583854 17:0.12191659272404615 18:0.3359361135758651 19:0.12386867790594498 20:0.40141969831410823 21:0.7476486246672582 22:0.5451641526175688 23:0.5907719609582963 24:0.8876663708961846 25:0.004791481810115351 
-1.0 1:0.21490683229813665 2:0.3188997338065661 3:0.7391304347826086 4:0.12298136645962733 7:0.7068322981366459 8:0.30008873114463175 9:0.7400177462289264 10:0.12298136645962733 13:0.1955634427684117 14:0.3217391304347826 15:0.34214729370008873 16:0.3359361135758651 20:0.36770186335403726 21:0.12262644188110026 23:0.7400177462289264 24:0.14445430346051463 25:0.004791481810115351 
-1.0 1:0.6092280390417036 2:0.7966282165039928 3:0.5998225377107365 4:0.927240461401952 5:0.003194321206743567 6:0.9630878438331855 7:0.6092280390417036 8:0.7966282165039928 9:0.6065661047027506 10:0.9256433007985803 11:0.003194321206743567 12:0.9630878438331855 13:0.1955634427684117 14:0.34214729370008873 15:0.12191659272404615 16:0.47329192546583854 17:0.3359361135758651 18:0.3646850044365572 19:0.5989352262644189 20:0.23513753327417924 21:0.9251109139307897 22:0.6328305235137534 23:0.8503992901508429 24:0.6342502218278616 25:0.004791481810115351 
-1.0 1:0.8221827861579415 2:0.5966282165039929 3:0.5339840283939663 4:0.7400177462289264 5:0.12014196983141083 6:0.0033717834960070984 7:0.8221827861579415 8:0.6065661047027506 9:0.5338065661047028 10:0.7400177462289264 11:0.12014196983141083 12:0.0033717834960070984 13:0.11251109139307897 14:0.12191659272404615 15:0.1955634427684117 16:0.34214729370008873 17:0.366282165039929 18:0.3359361135758651 19:0.5300798580301685 20:0.45554569653948535 22:0.6722271517302573 23:0.5907719609582963 25:0.004791481810115351 
-0.9834274192433897 1:0.12706299911268856 2:0.5107364685004436 3:0.7391304347826086 4:0.94924578527063 5:0.8619343389529724 6:0.6917480035492458 7:0.6065661047027506 8:0.5107364685004436 9:0.7400177462289264 10:0.8718722271517303 11:0.8619343389529724 12:0.8445430346051465 13:0.12191659272404615 14:0.3217391304347826 15:0.34214729370008873 16:0.47329192546583854 17:0.1955634427684117 18:0.47329192546583854 20:0.22342502218278615 21:0.9481810115350489 23:0.8708074534161491 24:0.5444543034605146 25:0.004791481810115351 
-1.0 20:0.23513753327417924 23:0.5456965394853593 25:0.004791481810115351 
-1.0 1:0.13771073646850043 2:0.7863354037267081 3:0.5694764862466726 4:0.001064773735581189 5:0.6740017746228927 6:0.0033717834960070984 7:0.13771073646850043 8:0.7863354037267081 9:0.5691215616681455 10:0.001064773735581189 11:0.5879325643300799 12:0.0033717834960070984 13:0.3217391304347826 14:0.3217391304347826 15:0.1955634427684117 16:0.3359361135758651 17:0.47329192546583854 18:0.3359361135758651 19:0.5593611357586513 20:0.23513753327417924 22:0.6342502218278616 23:0.9703637976929902 25:0.004791481810115351 
-1.0 2:0.12706299911268856 3:0.41952085181898846 4:0.7400177462289264 5:0.04809228039041703 8:0.6065661047027506 9:0.41952085181898846 10:0.7400177462289264 11:0.04809228039041703 14:0.12191659272404615 15:0.3217391304347826 16:0.34214729370008873 17:0.366282165039929 19:0.41561668145519076 20:0.1543921916592724 22:0.6324755989352263 23:0.5907719609582963 25:0.004791481810115351 
-1.0 20:0.23513753327417924 23:0.7366459627329193 25:0.004791481810115351 
-1.0 4:0.00354924578527063 5:0.0033717834960070984 6:0.9029281277728483 10:0.00354924578527063 11:0.0033717834960070984 12:0.9022182786157942 16:0.3359361135758651 17:0.3359361135758651 18:0.1955634427684117 20:0.23265306122448978 23:0.7400177462289264 25:0.004791481810115351 
-1.0 1:0.60301685891748 2:0.06033717834960071 3:0.5966282165039929 4:0.9180124223602485 5:0.8530612244897959 6:0.9760425909494232 7:0.6065661047027506 8:0.06015971606033718 9:0.6065661047027506 10:0.9613132209405502 11:0.8530612244897959 12:0.9758651286601597 13:0.12191659272404615 14:0.3217391304347826 15:0.12191659272404615 16:0.3646850044365572 17:0.040106477373558116 18:0.47329192546583854 19:0.5930789707187223 20:0.23265306122448978 21:0.9130434782608695 22:0.5451641526175688 23:0.7400177462289264 24:0.8165039929015084 25:0.004791481810115351 
-1.0 1:0.9144631765749778 2:0.8115350488021296 3:0.7391304347826086 4:0.0033717834960070984 7:0.9144631765749778 8:0.8115350488021296 9:0.7400177462289264 10:0.0033717834960070984 13:0.11251109139307897 14:0.3359361135758651 15:0.34214729370008873 16:0.3359361135758651 20:0.23513753327417924 23:0.8377994676131322 25:0.004791481810115351 
