svm_type c_svc
kernel_type linear
nr_class 2
total_sv 17
rho -2.172104549504561
label -1 3
probA 0.5343258244182634
probB -1.056463560562624
nr_sv 10 7
SV
0.5264627027152197 3:0.04256465517241379 4:0.6650502873563219 5:0.617816091954023 6:0.10201149425287356 9:0.5280172413793104 10:0.6497844827586207 11:0.6185344827586207 12:0.10201149425287356 15:0.359375 16:0.4694683908045977 17:0.11602011494252873 18:0.31645114942528735 19:0.041666666666666664 20:0.02783764367816092 21:0.664691091954023 22:0.7713721264367817 23:0.6291307471264368 24:0.8491379310344828 25:0.004489942528735632 
0.2623554233715029 1:0.6185344827586207 2:0.44935344827586204 3:0.6661278735632183 4:0.532507183908046 5:0.43875718390804597 6:0.0028735632183908046 7:0.6185344827586207 8:0.44935344827586204 9:0.6661278735632183 10:0.5332255747126436 11:0.43875718390804597 12:0.0028735632183908046 13:0.11602011494252873 14:0.31645114942528735 15:0.33710488505747127 16:0.33710488505747127 17:0.31645114942528735 18:0.33063936781609193 19:0.6654094827586207 20:0.9998204022988506 22:0.998742816091954 23:0.004669540229885058 25:0.004489942528735632 
0.11700568879916012 1:0.00610632183908046 2:0.1968390804597701 3:0.9439655172413793 4:0.6316451149425287 7:0.00610632183908046 8:0.1968390804597701 9:0.9441451149425287 10:0.6316451149425287 13:0.33063936781609193 14:0.33063936781609193 15:0.33710488505747127 16:0.1882183908045977 19:0.9430675287356322 20:0.2661637931034483 21:0.6291307471264368 22:0.822198275862069 23:0.9093031609195402 24:0.8142959770114943 25:0.004489942528735632 
1.0 1:0.00610632183908046 2:0.7922054597701149 3:0.9777298850574713 4:0.002334770114942529 5:0.9136135057471264 6:0.8696120689655172 7:0.00610632183908046 8:0.7922054597701149 9:0.9753951149425287 10:0.002334770114942529 11:0.9136135057471264 12:0.8696120689655172 13:0.33063936781609193 14:0.33063936781609193 15:0.33710488505747127 16:0.33063936781609193 17:0.10560344827586207 18:0.03089080459770115 19:0.9753951149425287 20:0.3484195402298851 22:0.9093031609195402 23:0.9703663793103449 25:0.004489942528735632 
1.0 1:0.0028735632183908046 2:0.9093031609195402 3:0.9172054597701149 4:0.0028735632183908046 5:0.47162356321839083 6:0.9136135057471264 7:0.0028735632183908046 8:0.9093031609195402 9:0.9610272988505747 10:0.0028735632183908046 11:0.47162356321839083 12:0.9136135057471264 13:0.33063936781609193 14:0.10560344827586207 15:0.359375 16:0.33063936781609193 17:0.3613505747126437 18:0.10560344827586207 19:0.912176724137931 20:0.4709051724137931 22:0.8141163793103449 23:0.8019037356321839 25:0.004489942528735632 26:0.52 
1.0 1:0.9172054597701149 2:0.475933908045977 3:0.0028735632183908046 4:0.9136135057471264 5:0.3389008620689655 6:0.5416666666666666 7:0.9610272988505747 8:0.475933908045977 9:0.0028735632183908046 10:0.9136135057471264 11:0.3389008620689655 12:0.5404094827586207 13:0.359375 14:0.3613505747126437 15:0.33063936781609193 16:0.10560344827586207 17:0.3613505747126437 18:0.4694683908045977 20:0.4709051724137931 21:0.912176724137931 23:0.734375 24:0.8049568965517241 25:0.004489942528735632 
1.0 3:0.033764367816091954 4:0.7447916666666666 5:0.5332255747126436 6:0.8751795977011494 9:0.5172413793103449 10:0.8701508620689655 11:0.5332255747126436 12:0.8751795977011494 15:0.10560344827586207 16:0.4694683908045977 17:0.33710488505747127 18:0.359375 19:0.032507183908045974 20:0.046875 21:0.7446120689655172 22:0.6352370689655172 23:0.532507183908046 24:0.8863146551724138 25:0.004489942528735632 26:0.4 
0.498163853906306 1:0.014188218390804598 2:0.0016163793103448276 3:0.6303879310344828 4:0.8832614942528736 5:0.9136135057471264 6:0.00610632183908046 7:0.014188218390804598 8:0.0016163793103448276 9:0.6303879310344828 10:0.8832614942528736 11:0.9136135057471264 12:0.00610632183908046 13:0.33063936781609193 14:0.31645114942528735 15:0.1882183908045977 16:0.1882183908045977 17:0.10560344827586207 18:0.33063936781609193 19:0.6291307471264368 20:0.014188218390804598 21:0.8830818965517241 22:0.5887212643678161 23:3.5919540229885057E-4 24:0.5887212643678161 25:0.004489942528735632 
0.5960123312078113 1:0.5301724137931034 2:0.1625359195402299 3:0.7358117816091954 4:0.5172413793103449 5:0.5695043103448276 6:0.7367097701149425 7:0.5301724137931034 8:0.1625359195402299 9:0.7367097701149425 10:0.5172413793103449 11:0.5695043103448276 12:0.7367097701149425 13:0.10560344827586207 14:0.31645114942528735 15:0.33710488505747127 16:0.03089080459770115 17:0.03089080459770115 18:0.33710488505747127 20:0.041666666666666664 21:0.5167025862068966 23:0.8480603448275862 24:0.6352370689655172 25:0.004489942528735632 
1.0 3:0.12104885057471264 4:0.7447916666666666 5:0.617816091954023 6:0.10255028735632184 9:0.6027298850574713 10:0.8701508620689655 11:0.6185344827586207 12:0.10255028735632184 15:0.11602011494252873 16:0.4694683908045977 17:0.11602011494252873 18:0.33063936781609193 19:0.11799568965517242 20:0.39709051724137934 21:0.7446120689655172 22:0.5425646551724138 23:0.5885416666666666 24:0.8863146551724138 25:0.004489942528735632 
-1.0 1:0.5944683908045977 2:0.6460129310344828 3:0.6417025862068966 4:0.5305316091954023 5:0.7447916666666666 6:0.6027298850574713 7:0.6027298850574713 8:0.6460129310344828 9:0.6417025862068966 10:0.5305316091954023 11:0.8701508620689655 12:0.6027298850574713 13:0.359375 14:0.359375 15:0.03089080459770115 16:0.1882183908045977 17:0.4694683908045977 18:0.11602011494252873 19:0.6352370689655172 20:0.869073275862069 21:0.5272988505747126 22:0.8863146551724138 23:0.7147988505747126 24:0.78125 25:0.004489942528735632 
-1.0 1:0.0021551724137931034 2:0.5332255747126436 3:0.6187140804597702 4:8.979885057471264E-4 5:0.002334770114942529 6:0.5858477011494253 7:0.0021551724137931034 8:0.5332255747126436 9:0.6185344827586207 10:8.979885057471264E-4 11:0.002334770114942529 12:0.5858477011494253 13:0.33063936781609193 14:0.33710488505747127 15:0.11602011494252873 16:0.33063936781609193 17:0.33063936781609193 18:0.4694683908045977 19:0.6158405172413793 20:0.49748563218390807 22:0.6276939655172413 23:0.5960847701149425 25:0.004489942528735632 
-1.0 1:0.0028735632183908046 2:0.7478448275862069 3:0.6661278735632183 4:0.060704022988505746 5:0.8090876436781609 6:0.8696120689655172 7:0.0028735632183908046 8:0.7478448275862069 9:0.6661278735632183 10:0.060704022988505746 11:0.8090876436781609 12:0.8696120689655172 13:0.33063936781609193 14:0.03089080459770115 15:0.33710488505747127 16:0.31645114942528735 17:0.33063936781609193 18:0.03089080459770115 19:0.6654094827586207 20:0.005747126436781609 21:0.059985632183908046 22:0.998742816091954 23:0.7147988505747126 24:0.78125 25:0.004489942528735632 
-1.0 1:0.014188218390804598 2:0.9996408045977011 3:0.6661278735632183 4:0.8766163793103449 5:0.8419540229885057 6:0.03933189655172414 7:0.014188218390804598 8:0.9996408045977011 9:0.6661278735632183 10:0.8701508620689655 11:0.8417744252873564 12:0.03933189655172414 13:0.33063936781609193 14:0.33063936781609193 15:0.33710488505747127 16:0.4694683908045977 17:0.1882183908045977 18:0.33063936781609193 19:0.6654094827586207 20:0.017420977011494254 21:0.875 22:0.998742816091954 23:0.6291307471264368 24:0.8049568965517241 25:0.004489942528735632 
-1.0 3:0.2413793103448276 4:0.9489942528735632 5:0.7072557471264368 6:0.9894037356321839 9:0.7367097701149425 10:0.8701508620689655 11:0.7072557471264368 12:0.5305316091954023 15:0.33710488505747127 16:0.4694683908045977 17:0.03089080459770115 18:0.1882183908045977 20:0.39709051724137934 21:0.9477370689655172 23:0.6352370689655172 24:0.6291307471264368 25:0.004489942528735632 
-1.0 1:0.0028735632183908046 2:0.03987068965517242 3:0.029813218390804596 4:0.7846623563218391 5:0.5944683908045977 6:0.3410560344827586 7:0.0028735632183908046 8:0.03987068965517242 9:0.029813218390804596 10:0.7844827586206896 11:0.6027298850574713 12:0.3410560344827586 13:0.33063936781609193 14:0.31645114942528735 15:0.33063936781609193 16:0.4694683908045977 17:0.11602011494252873 18:0.31645114942528735 20:0.4073275862068966 21:0.7841235632183908 23:0.7077945402298851 24:0.7293462643678161 25:0.004489942528735632 
-1.0 1:0.5944683908045977 2:0.23186063218390804 3:0.14834770114942528 4:0.8116020114942529 5:0.5490301724137931 6:0.9488146551724138 7:0.6027298850574713 8:0.23186063218390804 9:0.14834770114942528 10:0.8116020114942529 11:0.5483117816091954 12:0.8701508620689655 13:0.11602011494252873 14:0.31645114942528735 15:0.31645114942528735 16:0.03089080459770115 17:0.4694683908045977 18:0.4694683908045977 19:0.14816810344827586 20:0.39709051724137934 21:0.8114224137931034 22:0.5960847701149425 23:0.8967313218390804 24:0.5887212643678161 25:0.004489942528735632 
