svm_type c_svc
kernel_type linear
nr_class 2
total_sv 14
rho 0.45353650061048967
label -1 5
probA -0.0017459577917388772
probB -0.6659673736764358
nr_sv 8 6
SV
0.5190261801727012 2:0.14044540229885058 3:0.867816091954023 4:0.0028735632183908046 5:0.7361709770114943 6:0.18193247126436782 8:0.6185344827586207 9:0.8676364942528736 10:0.0028735632183908046 11:0.7361709770114943 12:0.18193247126436782 14:0.11602011494252873 15:0.1882183908045977 16:0.33063936781609193 17:0.03089080459770115 18:0.31645114942528735 19:0.8563218390804598 20:0.49748563218390807 22:0.8051364942528736 23:0.7147988505747126 25:0.004489942528735632 
0.3150532177911324 1:0.3829022988505747 2:0.9136135057471264 3:0.39439655172413796 4:0.0021551724137931034 5:0.5332255747126436 6:0.6187140804597702 7:0.3829022988505747 8:0.9136135057471264 9:0.39439655172413796 10:0.0021551724137931034 11:0.5332255747126436 12:0.6185344827586207 13:0.31645114942528735 14:0.10560344827586207 15:0.33063936781609193 16:0.33063936781609193 17:0.33710488505747127 18:0.11602011494252873 19:0.3857758620689655 20:0.02514367816091954 22:0.5569324712643678 23:0.8484195402298851 25:0.004489942528735632 
0.3583953326664555 1:0.0028735632183908046 2:0.7478448275862069 3:0.6661278735632183 4:0.060704022988505746 5:0.8090876436781609 6:0.8696120689655172 7:0.0028735632183908046 8:0.7478448275862069 9:0.6661278735632183 10:0.060704022988505746 11:0.8090876436781609 12:0.8696120689655172 13:0.33063936781609193 14:0.03089080459770115 15:0.33710488505747127 16:0.31645114942528735 17:0.33063936781609193 18:0.03089080459770115 19:0.6654094827586207 20:0.005747126436781609 21:0.059985632183908046 22:0.998742816091954 23:0.7147988505747126 24:0.78125 25:0.004489942528735632 
0.7841771765705584 3:0.4348060344827586 4:0.9847341954022989 5:0.4581537356321839 9:0.4348060344827586 10:0.9847341954022989 11:0.4581537356321839 15:0.31645114942528735 16:0.33063936781609193 17:0.31645114942528735 19:0.4333692528735632 20:0.07094109195402298 22:0.6352370689655172 23:0.8019037356321839 25:0.004489942528735632 
1.0 1:0.5079022988505747 2:0.5163433908045977 3:0.7670617816091954 7:0.5079022988505747 8:0.5163433908045977 9:0.7670617816091954 13:0.31645114942528735 14:0.33063936781609193 15:0.33063936781609193 20:0.33836206896551724 23:0.7446120689655172 25:0.005567528735632184 26:0.0 
1.0 1:0.2081537356321839 2:0.3135775862068966 3:0.7358117816091954 4:0.11709770114942529 7:0.7027658045977011 8:0.2947198275862069 9:0.7367097701149425 10:0.11709770114942529 13:0.1882183908045977 14:0.31645114942528735 15:0.33710488505747127 16:0.33063936781609193 20:0.3624281609195402 21:0.11673850574712644 23:0.7367097701149425 24:0.13667385057471265 25:0.004489942528735632 
0.47484243610081067 1:0.6045258620689655 2:0.7940014367816092 3:0.5969827586206896 4:0.9265445402298851 5:0.0028735632183908046 6:0.962823275862069 7:0.6045258620689655 8:0.7940014367816092 9:0.6027298850574713 10:0.9249281609195402 11:0.0028735632183908046 12:0.962823275862069 13:0.1882183908045977 14:0.33710488505747127 15:0.11602011494252873 16:0.4694683908045977 17:0.33063936781609193 18:0.359375 19:0.5960847701149425 20:0.22880747126436782 21:0.9243893678160919 22:0.6276939655172413 23:0.8484195402298851 24:0.6291307471264368 25:0.004489942528735632 
0.7367138153714249 1:0.4163074712643678 2:0.5070043103448276 3:0.0028735632183908046 4:0.8696120689655172 5:0.4640804597701149 6:0.0028735632183908046 7:0.4163074712643678 8:0.9743175287356322 9:0.0028735632183908046 10:0.8696120689655172 11:0.9139727011494253 12:0.0028735632183908046 13:0.33063936781609193 14:0.4694683908045977 15:0.33063936781609193 16:0.03089080459770115 17:0.1882183908045977 18:0.33063936781609193 20:0.8304597701149425 21:0.869073275862069 23:0.6352370689655172 24:0.7291666666666666 25:0.004489942528735632 
-1.0 1:0.33979885057471265 2:0.9136135057471264 3:0.7358117816091954 4:0.00305316091954023 7:0.33979885057471265 8:0.9136135057471264 9:0.7367097701149425 10:0.00305316091954023 13:0.3613505747126437 14:0.10560344827586207 15:0.33710488505747127 16:0.33063936781609193 20:0.1257183908045977 23:0.8049568965517241 25:0.004489942528735632 
-1.0 1:0.30854885057471265 2:0.9136135057471264 3:0.7397629310344828 4:0.6469109195402298 5:0.00610632183908046 6:0.30854885057471265 7:0.3083692528735632 8:0.9136135057471264 9:0.7367097701149425 10:0.6469109195402298 11:0.00610632183908046 12:0.3083692528735632 13:0.31645114942528735 14:0.10560344827586207 15:0.33710488505747127 16:0.03089080459770115 17:0.33063936781609193 18:0.31645114942528735 19:0.7367097701149425 20:0.1257183908045977 21:0.6463721264367817 22:0.8141163793103449 23:0.8049568965517241 24:0.9477370689655172 25:0.004489942528735632 
-0.2924603573769763 1:0.00610632183908046 2:0.1968390804597701 3:0.9439655172413793 4:0.6316451149425287 7:0.00610632183908046 8:0.1968390804597701 9:0.9441451149425287 10:0.6316451149425287 13:0.33063936781609193 14:0.33063936781609193 15:0.33710488505747127 16:0.1882183908045977 19:0.9430675287356322 20:0.2661637931034483 21:0.6291307471264368 22:0.822198275862069 23:0.9093031609195402 24:0.8142959770114943 25:0.004489942528735632 
-1.0 3:0.12104885057471264 4:0.7783764367816092 5:0.8151939655172413 6:0.00610632183908046 9:0.6027298850574713 10:0.7780172413793104 11:0.8151939655172413 12:0.00610632183908046 15:0.11602011494252873 16:0.4694683908045977 17:0.03089080459770115 18:0.33063936781609193 19:0.11799568965517242 20:0.2661637931034483 21:0.7760416666666666 22:0.5425646551724138 23:0.9093031609195402 24:0.7079741379310345 25:0.004489942528735632 
-1.0 1:0.2765804597701149 2:0.12248563218390805 3:0.0028735632183908046 4:0.00305316091954023 7:0.2765804597701149 8:0.12248563218390805 9:0.0028735632183908046 10:0.00305316091954023 13:0.3613505747126437 14:0.33063936781609193 15:0.33063936781609193 16:0.33063936781609193 20:0.45545977011494254 23:0.6291307471264368 25:0.004489942528735632 
-0.8957478012961068 1:0.23186063218390804 2:0.9443247126436781 3:0.5973419540229885 7:0.23186063218390804 8:0.9443247126436781 9:0.6027298850574713 13:0.31645114942528735 14:0.33710488505747127 15:0.11602011494252873 19:0.5960847701149425 20:0.45186781609195403 22:0.6291307471264368 23:0.8157327586206896 25:0.004489942528735632 
