svm_type c_svc
kernel_type linear
nr_class 2
total_sv 30
rho -0.3291029826798837
label -1 6
probA -0.04058588900608069
probB -0.6583498534701553
nr_sv 18 12
SV
1.0 1:0.00862706433325117 2:0.35173773724426916 3:0.41483855065319203 4:0.7219620409169337 5:0.7241804288883411 6:0.03475474488538329 7:0.00862706433325117 8:0.35173773724426916 9:0.4145920631008134 10:0.7219620409169337 11:0.7241804288883411 12:0.03475474488538329 13:0.18141483855065318 14:0.17056938624599458 15:0.17056938624599458 16:0.19004190288390435 17:0.17056938624599458 18:0.18141483855065318 19:0.39092925807246737 20:0.024402267685481885 21:0.7194971653931477 22:0.93640621148632 23:0.7949223564210007 24:0.4811437022430367 25:0.012077890066551638 
0.07671657914361965 1:0.5730835592802563 2:0.5834360364801577 3:0.8969682031057432 4:0.00862706433325117 5:0.8969682031057432 6:0.7986196697066799 7:0.5728370717278778 8:0.5834360364801577 9:0.8969682031057432 10:0.00862706433325117 11:0.8969682031057432 12:0.797880207049544 13:0.17056938624599458 14:0.19004190288390435 15:0.08134089228493961 16:0.18141483855065318 17:0.08134089228493961 18:0.17056938624599458 19:0.8952427902390929 22:0.5578013310327828 25:0.012077890066551638 
0.4654614573112111 1:0.5368498890806014 2:0.5964998767562238 3:0.5834360364801577 4:0.3034261769780626 5:0.007887601676115356 6:0.29898940103524774 7:0.5368498890806014 8:0.5964998767562238 9:0.5834360364801577 10:0.3034261769780626 11:0.007887601676115356 12:0.29898940103524774 13:0.11412373675129406 14:0.17056938624599458 15:0.19004190288390435 16:0.03574069509489771 17:0.18141483855065318 18:0.06778407690411634 20:0.19102785309341877 21:0.29874291348286913 23:0.5955139265467094 24:0.3228986936159724 25:0.01257086517130885 26:0.18421052631578946 
0.12464919207565132 1:0.674389943307863 2:0.18634458959822528 3:0.5834360364801577 4:0.008873551885629776 7:0.674389943307863 8:0.18634458959822528 9:0.5834360364801577 10:0.008873551885629776 13:0.19004190288390435 14:0.2018733053980774 15:0.19004190288390435 16:0.18141483855065318 20:0.19102785309341877 23:0.5955139265467094 25:0.01257086517130885 26:0.18421052631578946 
0.6643381290999871 1:0.332511708158738 2:0.596992851860981 3:0.5955139265467094 4:0.008873551885629776 7:0.332511708158738 8:0.596992851860981 9:0.33078629529208775 10:0.008873551885629776 13:0.19004190288390435 14:0.200887355188563 15:0.25560759181661324 16:0.18141483855065318 20:0.19102785309341877 23:0.5955139265467094 25:0.01257086517130885 26:0.18421052631578946 
0.5567567904300882 1:0.9768301700764112 2:0.9324624106482623 3:0.5834360364801577 4:0.5215676608331279 5:0.9546462903623367 6:0.29898940103524774 7:0.9768301700764112 8:0.9309834853339907 9:0.5834360364801577 10:0.5215676608331279 11:0.9546462903623367 12:0.29898940103524774 13:0.19004190288390435 14:0.25560759181661324 15:0.19004190288390435 16:0.19004190288390435 17:0.17056938624599458 18:0.06778407690411634 20:0.09785555829430614 21:0.519595760414099 23:0.7194971653931477 24:0.6995316736504806 25:0.01257086517130885 26:0.47368421052631576 
1.0 1:0.1772245501602169 2:0.5728370717278778 3:0.5834360364801577 4:0.008873551885629776 7:0.1772245501602169 8:0.5728370717278778 9:0.5834360364801577 10:0.008873551885629776 13:0.2018733053980774 14:0.17056938624599458 15:0.19004190288390435 16:0.18141483855065318 20:0.8952427902390929 23:0.6738969682031057 25:0.012077890066551638 26:0.23684210526315788 
1.0 20:0.14887848163667736 23:0.373675129405965 25:0.012077890066551638 
0.27690927166856466 20:0.13458220359871825 23:0.7949223564210007 25:0.012077890066551638 26:0.8947368421052632 
0.8726725797576982 1:0.47769287650973624 2:0.8516144934680798 3:0.982499383781119 4:0.00862706433325117 5:0.29898940103524774 6:0.4902637416810451 7:0.47719990140497903 8:0.8516144934680798 9:0.982499383781119 10:0.00862706433325117 11:0.29898940103524774 12:0.4900172541286665 13:0.25560759181661324 14:0.17056938624599458 15:0.19004190288390435 16:0.18141483855065318 17:0.06778407690411634 18:0.25560759181661324 19:0.9785555829430613 20:0.18461917673157505 22:0.8952427902390929 23:0.4811437022430367 25:0.012077890066551638 
0.4703086118510347 1:0.9593295538575302 2:0.6911510968696081 3:0.042642346561498644 4:0.29898940103524774 5:0.4818831649001725 6:0.9137293566674883 7:0.9593295538575302 8:0.6911510968696081 9:0.042642346561498644 10:0.29898940103524774 11:0.4818831649001725 12:0.9137293566674883 13:0.17056938624599458 14:0.19004190288390435 15:0.2018733053980774 16:0.06778407690411634 17:0.03574069509489771 18:0.08134089228493961 19:0.04190288390436283 20:0.638156273108208 21:0.29874291348286913 22:0.5782597978802071 23:0.5782597978802071 24:0.6738969682031057 25:0.012077890066551638 
0.7014652231591438 1:0.2593049051022923 2:0.5955139265467094 3:0.2748336209021444 4:0.29898940103524774 5:0.596992851860981 6:0.9963026867143209 7:0.2593049051022923 8:0.33078629529208775 9:0.2748336209021444 10:0.29898940103524774 11:0.596992851860981 12:0.9963026867143209 13:0.2018733053980774 14:0.25560759181661324 15:0.19004190288390435 16:0.06778407690411634 17:0.200887355188563 18:0.18141483855065318 19:0.2740941582450086 20:0.015528715799852107 21:0.29874291348286913 22:0.9534138526004436 23:0.4611782105003697 24:0.6738969682031057 25:0.012077890066551638 
1.0 1:0.29898940103524774 2:0.27162928272122255 3:0.5097362583189549 4:0.42716292827212227 5:0.6953413852600444 6:0.6684742420507764 7:0.29898940103524774 8:0.27162928272122255 9:0.5097362583189549 10:0.42716292827212227 11:0.6953413852600444 12:0.6684742420507764 13:0.06778407690411634 14:0.08134089228493961 15:0.11412373675129406 16:0.17056938624599458 17:0.19004190288390435 18:0.17056938624599458 19:0.5075178703475475 20:0.013310327828444664 21:0.42666995316736506 22:0.4873058910525018 23:0.7949223564210007 24:0.5361104264234656 25:0.012077890066551638 
0.020672446139883085 1:0.8969682031057432 2:0.3527236874537836 3:0.5287157998521075 4:0.29898940103524774 5:0.31599704214937147 6:0.9642593049051023 7:0.8969682031057432 8:0.3527236874537836 9:0.5287157998521075 10:0.29898940103524774 11:0.31599704214937147 12:0.963766329800345 13:0.08134089228493961 14:0.17056938624599458 15:0.19004190288390435 16:0.06778407690411634 17:0.19004190288390435 18:0.25560759181661324 19:0.5250184865664284 20:0.8952427902390929 21:0.29874291348286913 22:0.6950948977076657 23:0.4811437022430367 24:0.6738969682031057 25:0.012077890066551638 26:0.23684210526315788 
1.0 1:0.3593788513680059 2:0.14370224303672666 3:0.29898940103524774 4:0.3088489031303919 5:0.5043135321666256 6:0.3379344343110673 7:0.3593788513680059 8:0.6043874784323392 9:0.29898940103524774 10:0.33078629529208775 11:0.5043135321666256 12:0.5437515405472023 13:0.06778407690411634 14:0.2018733053980774 15:0.06778407690411634 16:0.25560759181661324 17:0.03574069509489771 18:0.11412373675129406 19:0.29874291348286913 20:0.2321912743406458 21:0.3081094404732561 22:0.6738969682031057 23:0.4715306877002711 24:0.7655903376879467 25:0.012077890066551638 
0.7700497193631183 1:0.9107715060389451 2:0.8863692383534632 3:0.8969682031057432 4:0.445403007148139 5:0.7066798126694602 6:0.8969682031057432 7:0.9107715060389451 8:0.8863692383534632 9:0.8969682031057432 10:0.445403007148139 11:0.7066798126694602 12:0.8969682031057432 13:0.03574069509489771 14:0.25560759181661324 15:0.08134089228493961 16:0.03574069509489771 17:0.19004190288390435 18:0.08134089228493961 19:0.8952427902390929 20:0.202119792950456 21:0.44219866896721716 22:0.5578013310327828 23:0.0012324377618930244 24:0.6374168104510722 25:0.012077890066551638 26:0.13157894736842105 
1.0 1:0.22849396105496672 2:0.31599704214937147 3:0.8969682031057432 4:0.22504313532166625 5:0.46191767315750554 6:0.9216169583436037 7:0.8646783337441459 8:0.31599704214937147 9:0.8969682031057432 10:0.22504313532166625 11:0.46191767315750554 12:0.9216169583436037 13:0.25560759181661324 14:0.19004190288390435 15:0.08134089228493961 16:0.2018733053980774 17:0.11412373675129406 18:0.19004190288390435 19:0.8952427902390929 20:0.20803549420754253 21:0.22356421000739463 22:0.5578013310327828 23:0.6953413852600444 24:0.373675129405965 25:0.012077890066551638 
1.0 4:0.5955139265467094 5:0.95760414099088 6:0.3852600443677594 10:0.33078629529208775 11:0.95760414099088 12:0.3852600443677594 16:0.25560759181661324 17:0.03574069509489771 18:0.11412373675129406 20:0.09958097116095638 23:0.6790732068030565 25:0.012077890066551638 
-1.0 1:0.6024155780133104 2:0.674389943307863 3:0.8969682031057432 4:0.29898940103524774 5:0.8969682031057432 6:0.3527236874537836 7:0.6024155780133104 8:0.674389943307863 9:0.8969682031057432 10:0.29898940103524774 11:0.8969682031057432 12:0.3527236874537836 13:0.03574069509489771 14:0.19004190288390435 15:0.08134089228493961 16:0.06778407690411634 17:0.08134089228493961 18:0.17056938624599458 19:0.8952427902390929 20:0.11831402514173034 21:0.29874291348286913 22:0.5578013310327828 23:0.4715306877002711 24:0.6738969682031057 25:0.012077890066551638 
-1.0 1:0.2267685481883165 2:0.5728370717278778 3:0.674389943307863 4:0.008873551885629776 7:0.8540793689918659 8:0.5728370717278778 9:0.674389943307863 10:0.008873551885629776 13:0.11412373675129406 14:0.17056938624599458 15:0.19004190288390435 16:0.18141483855065318 19:0.6741434557554844 20:0.8217894996302687 22:0.3081094404732561 23:2.4648755237860487E-4 25:0.012077890066551638 
-1.0 4:0.00862706433325117 5:0.17968942568400295 6:0.00862706433325117 10:0.00862706433325117 11:0.17968942568400295 12:0.00862706433325117 16:0.18141483855065318 17:0.2018733053980774 18:0.18141483855065318 20:0.151589844712842 23:0.7655903376879467 25:0.012077890066551638 26:0.0 
-1.0 2:0.15528715799852108 3:0.00862706433325117 4:0.00862706433325117 5:0.07246734039930984 6:0.29898940103524774 8:0.15528715799852108 9:0.00862706433325117 10:0.00862706433325117 11:0.07246734039930984 12:0.29898940103524774 14:0.2018733053980774 15:0.18141483855065318 16:0.18141483855065318 17:0.2018733053980774 18:0.06778407690411634 20:0.17796401281735272 23:0.6490017254128666 25:0.012077890066551638 
-1.0 1:0.00862706433325117 2:0.17968942568400295 3:0.00862706433325117 4:0.29898940103524774 5:0.7934434311067291 6:0.3088489031303919 7:0.00862706433325117 8:0.17968942568400295 9:0.00862706433325117 10:0.29898940103524774 11:0.7936899186591078 12:0.33078629529208775 13:0.18141483855065318 14:0.2018733053980774 15:0.18141483855065318 16:0.06778407690411634 17:0.2018733053980774 18:0.25560759181661324 20:0.07098841508503821 21:0.29874291348286913 23:0.7047079122504314 24:0.6738969682031057 25:0.012077890066551638 
-1.0 1:0.38871087010105987 2:0.9216169583436037 3:0.8969682031057432 4:0.29898940103524774 5:0.643825486812916 6:0.703721962040917 7:0.38871087010105987 8:0.9216169583436037 9:0.8969682031057432 10:0.29898940103524774 11:0.643825486812916 12:0.703721962040917 13:0.11412373675129406 14:0.19004190288390435 15:0.08134089228493961 16:0.06778407690411634 17:0.11412373675129406 18:0.11412373675129406 19:0.8952427902390929 20:0.151589844712842 21:0.29874291348286913 22:0.5578013310327828 23:0.7655903376879467 24:0.6738969682031057 25:0.012077890066551638 26:0.0 
-1.0 1:0.38871087010105987 2:0.9216169583436037 3:0.23687453783583928 4:0.29898940103524774 5:0.9642593049051023 6:0.45131870840522553 7:0.38871087010105987 8:0.9216169583436037 9:0.8969682031057432 10:0.29898940103524774 11:0.963766329800345 12:0.45131870840522553 13:0.03574069509489771 14:0.19004190288390435 15:0.08134089228493961 16:0.06778407690411634 17:0.25560759181661324 18:0.17056938624599458 19:0.23588858762632486 20:0.151589844712842 21:0.29874291348286913 22:0.5578013310327828 23:0.7655903376879467 24:0.6738969682031057 25:0.012077890066551638 26:0.0 
-1.0 1:0.6290362336701997 2:0.5215676608331279 3:0.8969682031057432 4:0.008873551885629776 7:0.6290362336701997 8:0.5215676608331279 9:0.8969682031057432 10:0.008873551885629776 13:0.17056938624599458 14:0.19004190288390435 15:0.08134089228493961 16:0.18141483855065318 19:0.8952427902390929 20:0.10968696080847917 22:0.5578013310327828 23:0.4811437022430367 25:0.012077890066551638 
-1.0 1:0.9216169583436037 2:0.33078629529208775 3:0.674389943307863 4:0.29898940103524774 5:0.07394626571358147 6:0.3593788513680059 7:0.9216169583436037 8:0.33078629529208775 9:0.674389943307863 10:0.29898940103524774 11:0.07394626571358147 12:0.3593788513680059 13:0.19004190288390435 14:0.25560759181661324 15:0.19004190288390435 16:0.06778407690411634 17:0.2018733053980774 18:0.06778407690411634 19:0.6741434557554844 20:0.8952427902390929 21:0.29874291348286913 22:0.3081094404732561 23:0.5578013310327828 24:0.6738969682031057 25:0.012077890066551638 
-1.0 1:0.674389943307863 2:0.8972146906581218 3:0.29898940103524774 4:0.3593788513680059 5:0.9110179935913236 6:0.3088489031303919 7:0.674389943307863 8:0.8972146906581218 9:0.29898940103524774 10:0.3593788513680059 11:0.9110179935913236 12:0.33078629529208775 13:0.19004190288390435 14:0.2018733053980774 15:0.06778407690411634 16:0.06778407690411634 17:0.18141483855065318 18:0.25560759181661324 19:0.29874291348286913 20:0.07320680305644565 21:0.3554350505299482 22:0.6738969682031057 23:0.4813901897954153 24:0.9534138526004436 25:0.012077890066551638 
-1.0 4:0.5955139265467094 5:0.27927039684495936 6:0.8969682031057432 10:0.33078629529208775 11:0.27927039684495936 12:0.8969682031057432 16:0.25560759181661324 17:0.19004190288390435 18:0.08134089228493961 20:0.08380576780872566 23:0.626324870594035 25:0.012077890066551638 
-1.0 1:0.009120039438008381 2:0.007887601676115356 3:0.29898940103524774 4:0.6398816859748583 5:0.7894996302686714 6:0.9216169583436037 7:0.009120039438008381 8:0.007887601676115356 9:0.29898940103524774 10:0.6398816859748583 11:0.7892531427162929 12:0.9216169583436037 13:0.18141483855065318 14:0.18141483855065318 15:0.06778407690411634 16:0.03574069509489771 17:0.25560759181661324 18:0.19004190288390435 19:0.29874291348286913 20:0.06803056445649494 21:0.638156273108208 22:0.6738969682031057 23:0.9405964998767562 24:0.6374168104510722 25:0.012077890066551638 
