svm_type c_svc
kernel_type linear
nr_class 2
total_sv 63
rho 1.0002014186318031
label -1 8
probA 4.590196873746299
probB 9.17634323117122
nr_sv 7 56
SV
1.0 1:0.7560975609756098 2:0.4897959183673469 3:0.5273768043802887 4:0.27675460428073667 5:0.6886510701841713 6:0.009457441513190641 7:0.7560975609756098 8:0.4897959183673469 9:0.5273768043802887 10:0.27675460428073667 11:0.6886510701841713 12:0.009457441513190641 13:0.1714783474365356 14:0.03160776505724241 15:0.1913887506222001 16:0.078397212543554 17:0.1714783474365356 18:0.18218018914883027 19:0.5253857640617222 20:0.02687904430064709 22:0.7080637132901941 23:0.804629168740667 25:0.012692882030861125 
1.0 2:0.045047287207565956 3:0.15057242409158786 8:0.045047287207565956 9:0.15057242409158786 14:0.20532603285216525 15:0.20532603285216525 19:0.15007466401194625 20:0.1565455450472872 22:0.48680935788949725 23:0.015928322548531607 25:0.012692882030861125 
1.0 1:0.24265803882528622 2:0.6635141861622698 3:0.00821304131408661 4:0.008461921353907416 5:0.6027874564459931 6:0.7555998008959681 7:0.9084121453459433 8:0.6635141861622698 9:0.00821304131408661 10:0.008461921353907416 11:0.33424589347934297 12:0.7555998008959681 13:0.078397212543554 14:0.1714783474365356 15:0.18218018914883027 16:0.18218018914883027 17:0.2603285216525635 18:0.03160776505724241 20:0.8685913389746143 23:0.695370831259333 25:0.012692882030861125 
1.0 1:0.39298158287705326 2:0.920358387257342 3:0.9084121453459433 4:0.30214036834245894 5:0.6515679442508711 6:0.7122946739671479 7:0.39298158287705326 8:0.920358387257342 9:0.9084121453459433 10:0.30214036834245894 11:0.6515679442508711 12:0.7122946739671479 13:0.11498257839721254 14:0.1913887506222001 15:0.078397212543554 16:0.06470881035340965 17:0.11498257839721254 18:0.11498257839721254 19:0.9066699850671976 20:0.15131906421105026 21:0.3018914883026381 22:0.5644599303135889 23:0.7757590841214534 24:0.6821801891488303 25:0.012692882030861125 26:0.0 
1.0 20:0.12842210054753608 23:0.8038825286212046 25:0.012692882030861125 26:0.9433962264150944 
1.0 1:0.920358387257342 2:0.08287705326032851 3:0.00821304131408661 4:0.008461921353907416 5:0.009457441513190641 7:0.920358387257342 8:0.08287705326032851 9:0.00821304131408661 10:0.008461921353907416 11:0.009457441513190641 13:0.1913887506222001 14:0.20532603285216525 15:0.18218018914883027 16:0.18218018914883027 17:0.18218018914883027 20:0.219761075161772 23:0.4771030363364858 25:0.012692882030861125 26:0.9433962264150944 
1.0 1:0.3359880537580886 2:0.6996017919362867 3:0.29442508710801396 4:0.32603285216525635 5:0.30214036834245894 6:0.9084121453459433 7:0.3359880537580886 8:0.6996017919362867 9:0.29442508710801396 10:0.32603285216525635 11:0.30214036834245894 12:0.9084121453459433 13:0.1913887506222001 14:0.1913887506222001 15:0.20532603285216525 16:0.20532603285216525 17:0.06470881035340965 18:0.078397212543554 19:0.2939273270283723 20:0.804629168740667 21:0.32578397212543553 22:0.687655550024888 23:0.616973618715779 24:0.5579890492782479 25:0.012692882030861125 
-0.23432013004653143 1:0.6366351418616227 2:0.920358387257342 3:0.5007466401194625 7:0.6366351418616227 8:0.920358387257342 9:0.5007466401194625 13:0.1714783474365356 14:0.1913887506222001 15:0.2603285216525635 19:0.49377799900447983 20:0.15555002488800398 22:0.7757590841214534 23:0.7038327526132404 25:0.012692882030861125 26:0.20754716981132076 
-0.05605636886257578 1:0.7414136386261821 2:0.5226480836236934 3:0.601543056246889 4:0.008461921353907416 5:0.009457441513190641 7:0.7414136386261821 8:0.5251368840219014 9:0.601543056246889 10:0.008461921353907416 11:0.009457441513190641 13:0.1714783474365356 14:0.2603285216525635 15:0.1913887506222001 16:0.18218018914883027 17:0.18218018914883027 19:0.5905923344947736 20:0.1565455450472872 22:0.920358387257342 23:0.5858636137381782 25:0.013190642110502738 26:0.07547169811320754 
-0.0039043014758313207 1:0.24116475858636138 2:0.06918865107018417 3:0.009208561473369835 7:0.24116475858636138 8:0.06918865107018417 9:0.009208561473369835 13:0.20532603285216525 14:0.20532603285216525 15:0.18218018914883027 20:0.1635141861622698 23:0.3018914883026381 25:0.013190642110502738 
-0.009355558646215635 1:0.009208561473369835 2:0.5099552015928323 3:0.5345943255350921 7:0.009208561473369835 8:0.5099552015928323 9:0.5345943255350921 13:0.18218018914883027 14:0.03160776505724241 15:0.1913887506222001 19:0.53086112493778 20:0.19238427078148332 22:0.7035838725734196 23:0.6027874564459931 25:0.013190642110502738 26:0.18867924528301888 
-0.17204201940284172 1:0.00821304131408661 2:0.20408163265306123 3:0.009208561473369835 4:0.008461921353907416 5:0.6027874564459931 6:0.5905923344947736 7:0.00821304131408661 8:0.20408163265306123 9:0.009208561473369835 10:0.008461921353907416 11:0.33424589347934297 12:0.5905923344947736 13:0.18218018914883027 14:0.20532603285216525 15:0.18218018914883027 16:0.18218018914883027 17:0.2603285216525635 18:0.1913887506222001 20:0.11174713787954206 23:0.374066699850672 25:0.013190642110502738 26:0.2830188679245283 
-0.2250922168094255 1:0.9084121453459433 2:0.6635141861622698 3:0.00821304131408661 4:0.008461921353907416 5:0.009457441513190641 7:0.9084121453459433 8:0.6635141861622698 9:0.00821304131408661 10:0.008461921353907416 11:0.009457441513190641 13:0.078397212543554 14:0.1714783474365356 15:0.18218018914883027 16:0.18218018914883027 17:0.18218018914883027 20:0.19238427078148332 23:0.6027874564459931 25:0.013190642110502738 26:0.18867924528301888 
-0.2511747138133628 1:0.920358387257342 2:0.11199601791936287 3:0.00821304131408661 4:0.008461921353907416 5:0.2899452463912394 6:0.009208561473369835 7:0.920358387257342 8:0.11199601791936287 9:0.00821304131408661 10:0.008461921353907416 11:0.2899452463912394 12:0.009208561473369835 13:0.1913887506222001 14:0.20532603285216525 15:0.18218018914883027 16:0.18218018914883027 17:0.03160776505724241 18:0.18218018914883027 20:0.0973120955699353 23:0.7282229965156795 25:0.013190642110502738 26:0.49056603773584906 
-9.965895993229709E-5 1:0.9659034345445495 2:0.34917869586859135 3:0.9519661523145844 4:0.26854156296665005 5:0.34917869586859135 6:0.27675460428073667 7:0.33424589347934297 8:0.34892981582877053 9:0.9512195121951219 10:0.9683922349427576 11:0.34892981582877053 12:0.27675460428073667 13:0.2603285216525635 14:0.2603285216525635 15:0.2603285216525635 16:0.20433051269288202 17:0.2603285216525635 18:0.078397212543554 19:0.9509706321553012 20:0.09084121453459433 22:0.6874066699850672 23:0.6455948232951717 25:0.012692882030861125 
-0.5802265267115895 1:0.920358387257342 2:0.49850671976107513 3:0.5273768043802887 7:0.920358387257342 8:0.49825783972125437 9:0.5273768043802887 13:0.1913887506222001 14:0.1714783474365356 15:0.1913887506222001 19:0.5253857640617222 20:0.2770034843205575 22:0.7080637132901941 23:0.8683424589347934 25:0.012692882030861125 
-0.015221710865176648 1:0.9880537580886013 2:0.13066202090592335 3:0.13763066202090593 7:0.327775012444002 8:0.5798904927824788 9:0.5905923344947736 13:0.11498257839721254 14:0.1714783474365356 15:0.1913887506222001 20:0.1635141861622698 23:0.37755102040816324 25:0.012692882030861125 26:0.660377358490566 
-0.005508391768355996 1:0.04803384768541563 2:0.13414634146341464 3:0.0037332005973120955 4:0.0037332005973120955 5:0.9937779990044798 6:0.5440517670482827 7:0.31557989049278246 8:0.13414634146341464 9:0.0037332005973120955 10:0.0037332005973120955 11:0.9937779990044798 12:0.5440517670482827 13:0.03160776505724241 14:0.20532603285216525 15:0.20532603285216525 16:0.1714783474365356 17:0.20433051269288202 18:0.2603285216525635 20:0.23220507715281236 23:0.6226978596316576 25:0.012692882030861125 
-0.16281431159186102 4:0.007715281234444997 5:0.9079143852663016 6:0.4721254355400697 10:0.007715281234444997 11:0.9079143852663016 12:0.4721254355400697 16:0.03160776505724241 17:0.1913887506222001 18:0.11498257839721254 20:0.26704828272772524 23:0.8526630164260827 25:0.012692882030861125 
-0.038147891508940754 1:0.009208561473369835 2:0.11772025883524141 3:0.009208561473369835 4:0.004479840716774514 5:0.09233449477351917 6:0.009457441513190641 7:0.009208561473369835 8:0.5438028870084619 9:0.009208561473369835 10:0.004479840716774514 11:0.09233449477351917 12:0.009457441513190641 13:0.18218018914883027 14:0.11498257839721254 15:0.18218018914883027 16:0.06470881035340965 17:0.20532603285216525 18:0.18218018914883027 20:0.17844698855151817 23:0.4818317570930811 25:0.012692882030861125 
-0.004009822363492522 1:0.9736187157789945 2:0.9039323046291687 3:0.9084121453459433 4:0.9099054255848681 5:0.9659034345445495 6:0.6908909905425585 7:0.33424589347934297 8:0.9036834245893479 9:0.9084121453459433 10:0.9099054255848681 11:0.33424589347934297 12:0.6908909905425585 13:0.2603285216525635 14:0.2603285216525635 15:0.078397212543554 16:0.18218018914883027 17:0.2603285216525635 18:0.078397212543554 19:0.9066699850671976 20:0.2147834743653559 21:0.9066699850671976 22:0.5644599303135889 23:0.695370831259333 24:0.7757590841214534 25:0.012692882030861125 26:0.7169811320754716 
-9.371542202978103E-4 4:0.5798904927824788 5:0.9823295171727228 6:0.27675460428073667 10:0.5798904927824788 11:0.9823295171727228 12:0.27675460428073667 16:0.1714783474365356 17:0.1913887506222001 18:0.078397212543554 20:0.17745146839223494 21:0.5734196117471378 23:0.374066699850672 24:0.4771030363364858 25:0.012692882030861125 26:0.7547169811320755 
-0.11895678274700555 1:0.6996017919362867 2:0.6662518666002987 3:0.7152812344449975 4:0.9965156794425087 5:0.920358387257342 6:0.9763563962170234 7:0.6996017919362867 8:0.6660029865604778 9:0.7152812344449975 10:0.9965156794425087 11:0.920358387257342 12:0.9763563962170234 13:0.1913887506222001 14:0.1714783474365356 15:0.1913887506222001 16:0.1714783474365356 17:0.1913887506222001 18:0.18218018914883027 19:0.713290194126431 20:0.9066699850671976 22:0.4362867098058736 23:0.8038825286212046 25:0.012692882030861125 26:0.1509433962264151 
-0.02584684640973952 1:0.5099552015928323 2:0.3242906918865107 3:0.5345943255350921 4:0.009208561473369835 5:0.04330512692882031 6:0.009208561473369835 7:0.5099552015928323 8:0.3242906918865107 9:0.5345943255350921 10:0.009208561473369835 11:0.04330512692882031 12:0.009208561473369835 13:0.03160776505724241 14:0.03160776505724241 15:0.1913887506222001 16:0.18218018914883027 17:0.20532603285216525 18:0.18218018914883027 19:0.53086112493778 20:0.25983076157292184 22:0.7035838725734196 23:0.5826281732205078 25:0.012692882030861125 
-0.17899411009519162 1:0.5798904927824788 2:0.5905923344947736 3:0.026630164260826282 4:0.2929318068690891 5:0.009457441513190641 7:0.5798904927824788 8:0.5905923344947736 9:0.026630164260826282 10:0.2929318068690891 11:0.009457441513190641 13:0.1714783474365356 14:0.1913887506222001 15:0.18218018914883027 16:0.1714783474365356 17:0.18218018914883027 20:0.6147336983573918 21:0.29168740666998505 23:0.6450970632155301 24:0.8106022896963664 25:0.012692882030861125 26:0.4339622641509434 
-0.08143211514816293 4:0.009208561473369835 5:0.3621204579392733 6:0.30214036834245894 10:0.009208561473369835 11:0.36187157789945246 12:0.30214036834245894 16:0.18218018914883027 17:0.1714783474365356 18:0.06470881035340965 20:0.16226978596316574 23:0.804629168740667 25:0.012692882030861125 26:0.6226415094339622 
-0.10220632049883362 4:0.008710801393728223 5:0.008710801393728223 6:0.008710801393728223 10:0.008710801393728223 11:0.008710801393728223 12:0.008710801393728223 16:0.1714783474365356 17:0.1714783474365356 18:0.18218018914883027 20:0.17745146839223494 23:0.374066699850672 25:0.012692882030861125 26:0.7547169811320755 
-0.20495521046400184 1:0.24265803882528622 2:0.9629168740666999 3:0.5345943255350921 4:0.009208561473369835 5:0.26879044300647087 6:0.30214036834245894 7:0.9084121453459433 8:0.9626679940268791 9:0.5345943255350921 10:0.009208561473369835 11:0.26879044300647087 12:0.30214036834245894 13:0.078397212543554 14:0.1714783474365356 15:0.1913887506222001 16:0.18218018914883027 17:0.20532603285216525 18:0.06470881035340965 19:0.53086112493778 20:0.15131906421105026 22:0.7035838725734196 23:0.681184668989547 25:0.012692882030861125 26:0.7924528301886793 
-0.046086834049718556 1:0.9596814335490294 2:0.009208561473369835 3:0.6202090592334495 4:0.9683922349427576 5:0.34917869586859135 6:0.45097063215530114 7:0.9596814335490294 8:0.009208561473369835 9:0.6202090592334495 10:0.9683922349427576 11:0.34892981582877053 12:0.45097063215530114 13:0.1714783474365356 14:0.18218018914883027 15:0.11498257839721254 16:0.20433051269288202 17:0.2603285216525635 18:0.03160776505724241 19:0.6177202588352414 20:0.6973618715778994 22:0.8685913389746143 23:0.48680935788949725 25:0.012692882030861125 
-0.057828718529514836 1:0.9084121453459433 2:0.35639621702339475 3:0.5345943255350921 4:0.30214036834245894 5:0.3193130910900946 6:0.9639123942259831 7:0.9084121453459433 8:0.35639621702339475 9:0.5345943255350921 10:0.30214036834245894 11:0.3193130910900946 12:0.9634146341463414 13:0.078397212543554 14:0.1714783474365356 15:0.1913887506222001 16:0.06470881035340965 17:0.1913887506222001 18:0.2603285216525635 19:0.53086112493778 20:0.9066699850671976 21:0.3018914883026381 22:0.7035838725734196 23:0.48680935788949725 24:0.6821801891488303 25:0.012692882030861125 26:0.1509433962264151 
-0.0013352386481032923 1:0.9096565455450473 2:0.8977103036336486 3:0.9084121453459433 4:0.45097063215530114 5:0.7152812344449975 6:0.9084121453459433 7:0.9096565455450473 8:0.8977103036336486 9:0.9084121453459433 10:0.45097063215530114 11:0.7152812344449975 12:0.9084121453459433 13:0.03160776505724241 14:0.2603285216525635 15:0.078397212543554 16:0.03160776505724241 17:0.1913887506222001 18:0.078397212543554 19:0.9066699850671976 20:0.20557491289198607 21:0.44773519163763065 22:0.5644599303135889 23:0.0012444001991040318 24:0.6450970632155301 25:0.012692882030861125 26:0.22641509433962265 
-0.11088565010609273 1:0.21279243404678944 2:0.9965156794425087 3:0.06794425087108014 4:0.4673967147834744 5:0.920358387257342 6:0.27675460428073667 7:0.21279243404678944 8:0.9965156794425087 9:0.06794425087108014 10:0.4673967147834744 11:0.920358387257342 12:0.27675460428073667 13:0.20532603285216525 14:0.1714783474365356 15:0.20532603285216525 16:0.11498257839721254 17:0.1913887506222001 18:0.078397212543554 19:0.06620209059233449 20:0.22822299651567945 21:0.46689895470383275 22:0.7038327526132404 23:0.37755102040816324 24:0.9402687904430065 25:0.012692882030861125 26:0.660377358490566 
-0.3307620249692464 1:0.1326530612244898 2:0.952463912394226 3:0.38651070184171227 4:0.5273768043802887 5:0.6804380288700846 6:0.7175211548033847 7:0.5851169736187157 8:0.952463912394226 9:0.3862618218018915 10:0.5273768043802887 11:0.6804380288700846 12:0.7175211548033847 13:0.20433051269288202 14:0.03160776505724241 15:0.2603285216525635 16:0.1913887506222001 17:0.20433051269288202 18:0.11498257839721254 19:0.37755102040816324 20:0.9066699850671976 21:0.5253857640617222 22:0.8222996515679443 23:0.4818317570930811 24:0.7080637132901941 25:0.012692882030861125 
-0.020024617834969494 2:0.04803384768541563 3:0.13414634146341464 4:0.0037332005973120955 5:0.9937779990044798 6:0.5440517670482827 8:0.31557989049278246 9:0.13414634146341464 10:0.0037332005973120955 11:0.9937779990044798 12:0.5440517670482827 14:0.03160776505724241 15:0.20532603285216525 16:0.1714783474365356 17:0.20433051269288202 18:0.2603285216525635 19:0.13389746142359382 20:0.003982080637132902 22:0.6027874564459931 23:0.6226978596316576 25:0.012692882030861125 
-0.317732189527834 1:0.26854156296665005 2:0.6625186660029866 3:0.9084121453459433 4:0.30214036834245894 5:0.7461423593827775 6:0.7142857142857143 7:0.9683922349427576 8:0.6590343454454952 9:0.9084121453459433 10:0.30214036834245894 11:0.7458934793429567 12:0.7142857142857143 13:0.20433051269288202 14:0.2603285216525635 15:0.078397212543554 16:0.06470881035340965 17:0.2603285216525635 18:0.03160776505724241 19:0.9066699850671976 20:0.11647585863613738 21:0.3018914883026381 22:0.5644599303135889 23:0.48680935788949725 24:0.6821801891488303 25:0.012692882030861125 
-0.057902976335268724 1:0.6625186660029866 2:0.9084121453459433 3:0.11697361871577899 4:0.30214036834245894 5:0.7461423593827775 6:0.7142857142857143 7:0.6590343454454952 8:0.9084121453459433 9:0.11697361871577899 10:0.30214036834245894 11:0.7458934793429567 12:0.7142857142857143 13:0.2603285216525635 14:0.078397212543554 15:0.20532603285216525 16:0.06470881035340965 17:0.2603285216525635 18:0.03160776505724241 19:0.11647585863613738 20:0.1565455450472872 21:0.3018914883026381 22:0.2939273270283723 23:0.48680935788949725 24:0.6821801891488303 25:0.012692882030861125 
-0.12479860366837124 1:0.958934793429567 2:0.6996017919362867 3:0.03832752613240418 4:0.30214036834245894 5:0.48755599800895966 6:0.912643106022897 7:0.958934793429567 8:0.6996017919362867 9:0.03832752613240418 10:0.30214036834245894 11:0.48755599800895966 12:0.912643106022897 13:0.1714783474365356 14:0.1913887506222001 15:0.20532603285216525 16:0.06470881035340965 17:0.03160776505724241 18:0.078397212543554 19:0.03758088601294176 20:0.6458437033349925 21:0.3018914883026381 22:0.5853658536585366 23:0.5853658536585366 24:0.6821801891488303 25:0.012692882030861125 
-0.014215014175108771 3:0.24265803882528622 4:0.29815828770532604 5:0.5634644101543056 6:0.27675460428073667 9:0.9084121453459433 10:0.29815828770532604 11:0.5637132901941264 12:0.27675460428073667 15:0.078397212543554 16:0.03160776505724241 17:0.2603285216525635 18:0.078397212543554 19:0.241662518666003 20:0.16226978596316574 21:0.2939273270283723 22:0.5644599303135889 23:0.804629168740667 24:0.8541562966650075 25:0.012692882030861125 26:0.6226415094339622 
-0.05667912607434299 1:0.5273768043802887 2:0.3018914883026381 3:0.28621204579392734 4:0.009457441513190641 7:0.5273768043802887 8:0.27675460428073667 9:0.28621204579392734 10:0.009457441513190641 13:0.1913887506222001 14:0.078397212543554 15:0.1714783474365356 16:0.18218018914883027 19:0.28372324539571925 20:0.95370831259333 22:0.6431060228969636 23:0.5858636137381782 25:0.013190642110502738 26:0.03773584905660377 
-0.1445532607989977 1:0.007715281234444997 2:0.8623693379790941 3:0.30537580886012944 7:0.007715281234444997 8:0.8623693379790941 9:0.30537580886012944 13:0.03160776505724241 14:0.2603285216525635 15:0.078397212543554 19:0.3018914883026381 20:0.09507217521154804 22:0.6963663514186162 23:0.8320059731209557 25:0.012692882030861125 26:0.1320754716981132 
-0.08779518180638131 4:0.007715281234444997 5:0.5482827277252365 6:0.5701841712294674 10:0.007715281234444997 11:0.5482827277252365 12:0.5701841712294674 16:0.03160776505724241 17:0.2603285216525635 18:0.03160776505724241 20:0.08611249377799901 23:0.7038327526132404 25:0.012692882030861125 
-0.04210316872084784 1:0.9763563962170234 2:0.9659034345445495 3:0.49328023892483824 4:0.019661523145843702 5:0.009457441513190641 7:0.9763563962170234 8:0.33424589347934297 9:0.49328023892483824 10:0.019661523145843702 11:0.009457441513190641 13:0.18218018914883027 14:0.2603285216525635 15:0.1714783474365356 16:0.18218018914883027 17:0.18218018914883027 19:0.4895470383275261 20:0.8469387755102041 21:0.01916376306620209 22:0.8138377302140368 23:0.48680935788949725 24:0.015181682429069188 25:0.012692882030861125 26:0.03773584905660377 
-0.24562492498790628 4:0.3758088601294176 5:0.9659034345445495 6:0.5525136884021902 10:0.3758088601294176 11:0.33424589347934297 12:0.5525136884021902 16:0.1714783474365356 17:0.2603285216525635 18:0.11498257839721254 20:0.13763066202090593 21:0.374066699850672 23:0.4883026381284221 24:0.7757590841214534 25:0.012692882030861125 
-2.2776972416019238E-4 4:0.007715281234444997 5:0.5482827277252365 6:0.9099054255848681 10:0.007715281234444997 11:0.5482827277252365 12:0.9099054255848681 16:0.03160776505724241 17:0.2603285216525635 18:0.03160776505724241 20:0.08611249377799901 23:0.7038327526132404 25:0.012692882030861125 
-0.0014254918097513034 4:0.5893479342956695 5:0.9659034345445495 6:0.5273768043802887 10:0.5893479342956695 11:0.33424589347934297 12:0.5273768043802887 16:0.11498257839721254 17:0.2603285216525635 18:0.1913887506222001 20:0.2628173220507715 21:0.5881035340965655 23:0.8138377302140368 24:0.6956197112991538 25:0.012692882030861125 26:0.018867924528301886 
-0.09817822138672466 3:0.12070681931309109 4:0.057989049278247884 5:0.5905923344947736 6:0.18093578894972623 9:0.5525136884021902 10:0.057989049278247884 11:0.5905923344947736 12:0.18093578894972623 15:0.11498257839721254 16:0.20532603285216525 17:0.1913887506222001 18:0.20532603285216525 19:0.11996017919362867 20:0.8685913389746143 21:0.05749128919860627 22:0.3193130910900946 23:0.6027874564459931 24:0.30711796913887507 25:0.012692882030861125 26:0.41509433962264153 
-0.6665662671814291 2:0.21826779492284717 3:0.009208561473369835 8:0.21826779492284717 9:0.009208561473369835 14:0.20532603285216525 15:0.18218018914883027 20:0.13937282229965156 23:0.3018914883026381 25:0.013190642110502738 
-0.5048635221329814 1:0.6366351418616227 2:0.009208561473369835 3:0.018914883026381283 4:0.009208561473369835 5:0.3631159780985565 6:0.9571926331508213 7:0.6366351418616227 8:0.009208561473369835 9:0.018914883026381283 10:0.009208561473369835 11:0.3631159780985565 12:0.9571926331508213 13:0.1714783474365356 14:0.18218018914883027 15:0.18218018914883027 16:0.18218018914883027 17:0.06470881035340965 18:0.03160776505724241 20:0.6642608262817322 23:0.6717272274763564 25:0.012692882030861125 26:0.4339622641509434 
-0.43367662323045486 4:0.009208561473369835 5:0.4952712792434047 6:0.9084121453459433 10:0.009208561473369835 11:0.4952712792434047 12:0.9084121453459433 16:0.18218018914883027 17:0.1913887506222001 18:0.078397212543554 20:0.17844698855151817 23:0.6821801891488303 25:0.012692882030861125 26:0.8867924528301887 
-0.11619222913690692 2:0.26854156296665005 3:0.9328023892483823 4:0.920358387257342 5:0.4723743155798905 6:0.5905923344947736 8:0.9683922349427576 9:0.9347934295669488 10:0.920358387257342 11:0.4723743155798905 12:0.5905923344947736 14:0.20433051269288202 15:0.2603285216525635 16:0.1913887506222001 17:0.2603285216525635 18:0.1913887506222001 19:0.9260826281732205 20:0.17297162767546043 22:0.4736187157789945 23:0.1834245893479343 25:0.012692882030861125 26:0.8301886792452831 
-0.09870151369585481 4:0.3909905425584868 5:0.9659034345445495 6:0.906172224987556 10:0.3909905425584868 11:0.33424589347934297 12:0.906172224987556 16:0.1714783474365356 17:0.2603285216525635 18:0.11498257839721254 20:0.21329019412643105 21:0.3885017421602787 23:0.7035838725734196 24:0.6874066699850672 25:0.012692882030861125 26:0.05660377358490566 
-0.04153115057146951 1:0.29517172722747637 2:0.9084121453459433 3:0.5998008959681433 4:0.30214036834245894 5:0.8780487804878049 6:0.27675460428073667 7:0.29517172722747637 8:0.9084121453459433 9:0.5998008959681433 10:0.30214036834245894 11:0.8780487804878049 12:0.27675460428073667 13:0.078397212543554 14:0.078397212543554 15:0.11498257839721254 16:0.06470881035340965 17:0.03160776505724241 18:0.078397212543554 19:0.5905923344947736 20:0.7456445993031359 21:0.3018914883026381 22:0.6874066699850672 23:0.30711796913887507 24:0.6821801891488303 25:0.012692882030861125 26:0.03773584905660377 
-0.05422719010860665 1:0.6291687406669985 2:0.9084121453459433 3:0.9883026381284221 4:0.29517172722747637 5:0.9211050273768043 6:0.009208561473369835 7:0.6291687406669985 8:0.9084121453459433 9:0.327775012444002 10:0.29517172722747637 11:0.9211050273768043 12:0.009208561473369835 13:0.1913887506222001 14:0.078397212543554 15:0.11498257839721254 16:0.078397212543554 17:0.03160776505724241 18:0.18218018914883027 19:0.9830761572921851 20:0.2147834743653559 21:0.2939273270283723 22:0.8685913389746143 23:0.695370831259333 24:0.6338974614235938 25:0.012692882030861125 26:0.7169811320754716 
-0.32029236705967484 1:0.9084121453459433 2:0.9581881533101045 3:0.7162767546042808 7:0.9084121453459433 8:0.9581881533101045 9:0.7162767546042808 13:0.078397212543554 14:0.1714783474365356 15:0.1913887506222001 19:0.7160278745644599 20:0.23967147834743655 22:0.48680935788949725 23:0.6906421105027377 25:0.012692882030861125 26:0.8113207547169812 
-8.330933248880264E-4 1:0.03733200597312095 2:0.366351418616227 3:0.9084121453459433 4:0.3170731707317073 5:0.920358387257342 6:0.4131408661025386 7:0.28944748631159783 8:0.36585365853658536 9:0.9084121453459433 10:0.3170731707317073 11:0.920358387257342 12:0.4131408661025386 13:0.1913887506222001 14:0.2603285216525635 15:0.078397212543554 16:0.1714783474365356 17:0.1913887506222001 18:0.2603285216525635 19:0.9066699850671976 20:0.7757590841214534 21:0.31557989049278246 22:0.5644599303135889 23:0.29915380786460927 24:0.6874066699850672 25:0.012692882030861125 26:0.41509433962264153 
-0.0038485990471802197 1:0.367595818815331 2:0.2859631657541065 3:0.9084121453459433 4:0.9136386261821802 5:0.009457441513190641 7:0.367595818815331 8:0.2859631657541065 9:0.9084121453459433 10:0.9136386261821802 11:0.009457441513190641 13:0.18218018914883027 14:0.2603285216525635 15:0.078397212543554 16:0.03160776505724241 17:0.18218018914883027 19:0.9066699850671976 20:0.9576903932304629 21:0.9066699850671976 22:0.5644599303135889 23:0.7038327526132404 24:0.5450472872075659 25:0.012692882030861125 26:0.1509433962264151 
-0.005025540700510567 2:0.23593827775012444 3:0.004479840716774514 4:0.5273768043802887 5:0.5082130413140866 8:0.23593827775012444 9:0.004479840716774514 10:0.5273768043802887 11:0.5084619213539074 14:0.20532603285216525 15:0.06470881035340965 16:0.1913887506222001 17:0.1714783474365356 20:0.7757590841214534 21:0.5253857640617222 23:0.32578397212543553 24:0.7080637132901941 25:0.012692882030861125 
-0.015577211007572938 1:0.8083623693379791 2:0.9823295171727228 3:0.9084121453459433 7:0.8076157292185167 8:0.9823295171727228 9:0.9084121453459433 13:0.1714783474365356 14:0.1913887506222001 15:0.078397212543554 19:0.9066699850671976 20:0.9576903932304629 22:0.5644599303135889 23:0.6906421105027377 25:0.012692882030861125 26:0.39622641509433965 
-8.183144652112475E-4 1:0.5798904927824788 2:0.009208561473369835 3:0.6871577899452463 4:0.009457441513190641 7:0.5798904927824788 8:0.009208561473369835 9:0.6871577899452463 10:0.009457441513190641 13:0.1714783474365356 14:0.18218018914883027 15:0.11498257839721254 16:0.18218018914883027 19:0.6824290691886511 20:0.9156296665007466 22:0.9902936784469886 23:0.7038327526132404 25:0.013190642110502738 26:0.03773584905660377 
-0.16790187401379983 3:0.11971129915380786 9:0.5500248880039821 15:0.11498257839721254 19:0.11871577899452464 20:0.6343952215032355 22:0.6988551518168243 23:0.5876057740169238 25:0.012692882030861125 26:0.2641509433962264 
-0.008025471459218987 1:0.35340965654554507 2:0.46789447486311597 3:0.7135390741662518 4:0.009457441513190641 7:0.35340965654554507 8:0.46789447486311597 9:0.7135390741662518 10:0.009457441513190641 13:0.1714783474365356 14:0.1913887506222001 15:0.20433051269288202 16:0.18218018914883027 19:0.713290194126431 20:0.9260826281732205 22:0.9502239920358387 23:0.30711796913887507 25:0.012692882030861125 26:0.09433962264150944 
-0.2032201762942665 1:0.20084619213539073 2:0.22274763563962172 3:0.20084619213539073 7:0.7496266799402688 8:0.22274763563962172 9:0.20084619213539073 13:0.11498257839721254 14:0.20532603285216525 15:0.20532603285216525 19:0.19960179193628672 20:0.12842210054753608 22:0.7080637132901941 23:0.4771030363364858 25:0.012692882030861125 
-0.1292376810072682 1:0.1326530612244898 2:0.9659034345445495 3:0.8232951717272274 4:0.009457441513190641 7:0.5851169736187157 8:0.33424589347934297 9:0.018914883026381283 10:0.009457441513190641 13:0.20433051269288202 14:0.2603285216525635 15:0.11498257839721254 16:0.18218018914883027 19:0.8222996515679443 20:0.9156296665007466 22:0.6821801891488303 23:0.764808362369338 25:0.013190642110502738 26:0.03773584905660377 
