svm_type c_svc
kernel_type linear
nr_class 2
total_sv 25
rho 0.005161199044953795
label -1 6
probA -0.7065047126101661
probB -0.3728671362878412
nr_sv 14 11
SV
1.0 1:0.009208561473369835 2:0.3554006968641115 3:0.41986062717770034 4:0.7307117969138875 5:0.7329517172722748 6:0.030612244897959183 7:0.009208561473369835 8:0.3554006968641115 9:0.4196117471378795 10:0.7307117969138875 11:0.7329517172722748 12:0.030612244897959183 13:0.18218018914883027 14:0.1714783474365356 15:0.1714783474365356 16:0.1913887506222001 17:0.1714783474365356 18:0.18218018914883027 19:0.39522150323544053 20:0.02264808362369338 21:0.7282229965156795 22:0.9352911896465903 23:0.804629168740667 24:0.48680935788949725 25:0.012692882030861125 
0.7233168318488716 1:0.1408661025385764 2:0.009208561473369835 3:0.3661025385764062 4:0.009457441513190641 7:0.1408661025385764 8:0.009208561473369835 9:0.36585365853658536 10:0.009457441513190641 13:0.20532603285216525 14:0.18218018914883027 15:0.2603285216525635 16:0.18218018914883027 19:0.3646092583374813 20:0.24041811846689895 22:0.4736187157789945 23:0.6226978596316576 25:0.012692882030861125 26:0.9245283018867925 
1.0 1:0.5801393728222997 2:0.5905923344947736 3:0.9084121453459433 4:0.009208561473369835 5:0.9084121453459433 6:0.8083623693379791 7:0.5798904927824788 8:0.5905923344947736 9:0.9084121453459433 10:0.009208561473369835 11:0.9084121453459433 12:0.8076157292185167 13:0.1714783474365356 14:0.1913887506222001 15:0.078397212543554 16:0.18218018914883027 17:0.078397212543554 18:0.1714783474365356 19:0.9066699850671976 22:0.5644599303135889 25:0.012692882030861125 
1.0 1:0.5430562468889994 2:0.6037829766052762 3:0.5905923344947736 4:0.30662020905923343 5:0.008461921353907416 6:0.30214036834245894 7:0.5430562468889994 8:0.6037829766052762 9:0.5905923344947736 10:0.30662020905923343 11:0.008461921353907416 12:0.30214036834245894 13:0.11498257839721254 14:0.1714783474365356 15:0.1913887506222001 16:0.03160776505724241 17:0.18218018914883027 18:0.06470881035340965 20:0.19238427078148332 21:0.3018914883026381 23:0.6027874564459931 24:0.32628173220507717 25:0.013190642110502738 26:0.18867924528301888 
0.7590011595052797 1:0.17770034843205576 2:0.5798904927824788 3:0.5905923344947736 4:0.009457441513190641 7:0.17770034843205576 8:0.5798904927824788 9:0.5905923344947736 10:0.009457441513190641 13:0.20532603285216525 14:0.1714783474365356 15:0.1913887506222001 16:0.18218018914883027 20:0.9066699850671976 23:0.6821801891488303 25:0.012692882030861125 26:0.1509433962264151 
1.0 20:0.14907914385266302 23:0.37755102040816324 25:0.012692882030861125 
0.5006082498190425 20:0.13439522150323543 23:0.804629168740667 25:0.012692882030861125 26:0.9433962264150944 
1.0 1:0.483325037332006 2:0.8626182180189149 3:0.9823295171727228 4:0.009208561473369835 5:0.30214036834245894 6:0.4965156794425087 7:0.48282727725236435 8:0.8626182180189149 9:0.9823295171727228 10:0.009208561473369835 11:0.30214036834245894 12:0.4962667994026879 13:0.2603285216525635 14:0.1714783474365356 15:0.1913887506222001 16:0.18218018914883027 17:0.06470881035340965 18:0.2603285216525635 19:0.9783474365355899 20:0.18591338974614235 22:0.9066699850671976 23:0.48680935788949725 25:0.012692882030861125 
1.0 1:0.9084121453459433 2:0.7797411647585863 3:0.3193130910900946 4:0.3170731707317073 5:0.920358387257342 6:0.4131408661025386 7:0.9084121453459433 8:0.7797411647585863 9:0.3193130910900946 10:0.3170731707317073 11:0.920358387257342 12:0.4131408661025386 13:0.078397212543554 14:0.1714783474365356 15:0.1913887506222001 16:0.1714783474365356 17:0.1913887506222001 18:0.2603285216525635 20:0.021652563464410156 21:0.31557989049278246 23:0.29915380786460927 24:0.6874066699850672 25:0.012692882030861125 
0.11457034588679818 1:0.9571926331508213 2:0.39298158287705326 3:0.920358387257342 4:0.009208561473369835 5:0.026630164260826282 6:0.6702339472374316 7:0.9571926331508213 8:0.39298158287705326 9:0.920358387257342 10:0.009208561473369835 11:0.026630164260826282 12:0.6699850671976108 13:0.03160776505724241 14:0.11498257839721254 15:0.1913887506222001 16:0.18218018914883027 17:0.18218018914883027 18:0.1714783474365356 20:0.26704828272772524 23:0.7053260328521652 25:0.012692882030861125 
0.9260191855853688 1:0.5798904927824788 2:0.39298158287705326 3:0.920358387257342 4:0.30214036834245894 5:0.8359880537580886 6:0.30214036834245894 7:0.5798904927824788 8:0.39298158287705326 9:0.920358387257342 10:0.30214036834245894 11:0.8352414136386261 12:0.30214036834245894 13:0.1714783474365356 14:0.1714783474365356 15:0.1913887506222001 16:0.06470881035340965 17:0.1714783474365356 18:0.06470881035340965 20:0.06844201095072175 21:0.3018914883026381 23:0.8101045296167247 24:0.6821801891488303 25:0.012692882030861125 26:0.03773584905660377 
0.10315716178924607 1:0.009208561473369835 2:0.17247386759581881 3:0.7038327526132404 4:0.6027874564459931 5:0.9084121453459433 6:0.34121453459432555 7:0.009208561473369835 8:0.17247386759581881 9:0.7038327526132404 10:0.33424589347934297 11:0.9084121453459433 12:0.5500248880039821 13:0.18218018914883027 14:0.20532603285216525 15:0.1913887506222001 16:0.2603285216525635 17:0.078397212543554 18:0.11498257839721254 20:0.17745146839223494 23:0.3193130910900946 25:0.012692882030861125 
0.6856249930526483 1:0.8755599800895968 2:0.5701841712294674 3:0.3193130910900946 4:0.5851169736187157 5:0.5582379293180687 6:0.27675460428073667 7:0.8755599800895968 8:0.5701841712294674 9:0.3193130910900946 10:0.5851169736187157 11:0.5637132901941264 12:0.27675460428073667 13:0.1714783474365356 14:0.03160776505724241 15:0.1913887506222001 16:0.1714783474365356 17:0.2603285216525635 18:0.078397212543554 20:0.9156296665007466 23:0.5856147336983574 25:0.012692882030861125 
0.011149598137344953 1:0.5905923344947736 2:0.912643106022897 3:0.5798904927824788 4:0.5905923344947736 5:0.9084121453459433 6:0.5199104031856645 7:0.5905923344947736 8:0.912643106022897 9:0.5798904927824788 10:0.5905923344947736 11:0.9084121453459433 12:0.013190642110502738 13:0.1913887506222001 14:0.078397212543554 15:0.1714783474365356 16:0.1913887506222001 17:0.078397212543554 18:0.11498257839721254 19:0.5734196117471378 20:0.04355400696864112 22:0.4771030363364858 23:0.8220507715281234 25:0.012692882030861125 
-1.0 1:0.6097560975609756 2:0.6826779492284719 3:0.9084121453459433 4:0.30214036834245894 5:0.9084121453459433 6:0.35639621702339475 7:0.6097560975609756 8:0.6826779492284719 9:0.9084121453459433 10:0.30214036834245894 11:0.9084121453459433 12:0.35639621702339475 13:0.03160776505724241 14:0.1913887506222001 15:0.078397212543554 16:0.06470881035340965 17:0.078397212543554 18:0.1714783474365356 19:0.9066699850671976 20:0.11996017919362867 21:0.3018914883026381 22:0.5644599303135889 23:0.4771030363364858 24:0.6821801891488303 25:0.012692882030861125 
-1.0 1:0.23145843703334992 2:0.5798904927824788 3:0.6826779492284719 4:0.009457441513190641 7:0.8651070184171229 8:0.5798904927824788 9:0.6826779492284719 10:0.009457441513190641 13:0.11498257839721254 14:0.1714783474365356 15:0.1913887506222001 16:0.18218018914883027 19:0.6824290691886511 20:0.8320059731209557 22:0.3113489298158288 23:2.4888003982080636E-4 25:0.012692882030861125 
-1.0 4:0.009208561473369835 5:0.18068690890990544 6:0.07989049278247884 10:0.009208561473369835 11:0.18068690890990544 12:0.07989049278247884 16:0.18218018914883027 17:0.20532603285216525 18:0.20532603285216525 20:0.15131906421105026 23:0.7757590841214534 25:0.012692882030861125 26:0.0 
-1.0 2:0.15430562468889994 3:0.009208561473369835 4:0.009208561473369835 5:0.06968641114982578 6:0.20034843205574912 8:0.15430562468889994 9:0.009208561473369835 10:0.009208561473369835 11:0.06968641114982578 12:0.20034843205574912 14:0.20532603285216525 15:0.18218018914883027 16:0.18218018914883027 17:0.20532603285216525 18:0.20532603285216525 20:0.17844698855151817 23:0.6567944250871081 25:0.012692882030861125 
-0.6524310143198866 1:0.18068690890990544 2:0.07989049278247884 3:0.009208561473369835 4:0.30214036834245894 5:0.8036336485813838 6:0.22200099552015928 7:0.18068690890990544 8:0.07989049278247884 9:0.009208561473369835 10:0.30214036834245894 11:0.8036336485813838 12:0.8252862120457939 13:0.20532603285216525 14:0.20532603285216525 15:0.18218018914883027 16:0.06470881035340965 17:0.1714783474365356 18:0.1714783474365356 20:0.06844201095072175 21:0.3018914883026381 23:0.713290194126431 24:0.6821801891488303 25:0.012692882030861125 
-0.7460846085194349 1:0.39298158287705326 2:0.920358387257342 3:0.9084121453459433 4:0.30214036834245894 5:0.6515679442508711 6:0.7122946739671479 7:0.39298158287705326 8:0.920358387257342 9:0.9084121453459433 10:0.30214036834245894 11:0.6515679442508711 12:0.7122946739671479 13:0.11498257839721254 14:0.1913887506222001 15:0.078397212543554 16:0.06470881035340965 17:0.11498257839721254 18:0.11498257839721254 19:0.9066699850671976 20:0.15131906421105026 21:0.3018914883026381 22:0.5644599303135889 23:0.7757590841214534 24:0.6821801891488303 25:0.012692882030861125 26:0.0 
-1.0 1:0.39298158287705326 2:0.920358387257342 3:0.24265803882528622 4:0.30214036834245894 5:0.9639123942259831 6:0.4569437531110005 7:0.39298158287705326 8:0.920358387257342 9:0.9084121453459433 10:0.30214036834245894 11:0.9634146341463414 12:0.4569437531110005 13:0.03160776505724241 14:0.1913887506222001 15:0.078397212543554 16:0.06470881035340965 17:0.2603285216525635 18:0.1714783474365356 19:0.241662518666003 20:0.15131906421105026 21:0.3018914883026381 22:0.5644599303135889 23:0.7757590841214534 24:0.6821801891488303 25:0.012692882030861125 26:0.0 
-1.0 1:0.6366351418616227 2:0.5273768043802887 3:0.9084121453459433 4:0.009457441513190641 7:0.6366351418616227 8:0.5273768043802887 9:0.9084121453459433 10:0.009457441513190641 13:0.1714783474365356 14:0.1913887506222001 15:0.078397212543554 16:0.18218018914883027 19:0.9066699850671976 20:0.11025385764061722 22:0.5644599303135889 23:0.48680935788949725 25:0.012692882030861125 
-1.0 1:0.920358387257342 2:0.33424589347934297 3:0.6826779492284719 4:0.30214036834245894 5:0.070681931309109 6:0.093827775012444 7:0.920358387257342 8:0.33424589347934297 9:0.6826779492284719 10:0.30214036834245894 11:0.070681931309109 12:0.093827775012444 13:0.1913887506222001 14:0.2603285216525635 15:0.1913887506222001 16:0.06470881035340965 17:0.20532603285216525 18:0.20532603285216525 19:0.6824290691886511 20:0.9066699850671976 21:0.3018914883026381 22:0.3113489298158288 23:0.5644599303135889 24:0.6821801891488303 25:0.012692882030861125 
-0.42493190278527854 1:0.4362867098058736 2:0.25111996017919364 3:0.30214036834245894 4:0.3631159780985565 5:0.9099054255848681 6:0.3120955699352912 7:0.4362867098058736 8:0.25111996017919364 9:0.30214036834245894 10:0.3631159780985565 11:0.9099054255848681 12:0.33424589347934297 13:0.1913887506222001 14:0.20532603285216525 15:0.06470881035340965 16:0.06470881035340965 17:0.18218018914883027 18:0.2603285216525635 19:0.3018914883026381 20:0.07018417122946739 21:0.3591338974614236 22:0.6821801891488303 23:0.48705823792931807 24:0.9527127924340468 25:0.012692882030861125 
-1.0 4:0.6027874564459931 5:0.28247884519661526 6:0.9084121453459433 10:0.33424589347934297 11:0.28247884519661526 12:0.9084121453459433 16:0.2603285216525635 17:0.1913887506222001 18:0.078397212543554 20:0.08113489298158287 23:0.6338974614235938 25:0.012692882030861125 
