svm_type c_svc
kernel_type linear
nr_class 2
total_sv 16
rho -0.14458124141046155
label -1 4
probA 0.30532327205175597
probB -0.8288916111367604
nr_sv 10 6
SV
0.18082623083108654 1:0.009208561473369835 2:0.26879044300647087 3:0.30214036834245894 4:0.9736187157789945 5:0.7777501244400199 6:0.7882030861124938 7:0.009208561473369835 8:0.26879044300647087 9:0.30214036834245894 10:0.33424589347934297 11:0.7777501244400199 12:0.7882030861124938 13:0.18218018914883027 14:0.20532603285216525 15:0.06470881035340965 16:0.2603285216525635 17:0.03160776505724241 18:0.11498257839721254 19:0.3018914883026381 20:0.1635141861622698 21:0.9683922349427576 22:0.6821801891488303 23:0.3113489298158288 24:0.7757590841214534 25:0.012692882030861125 
0.15193782929735825 1:0.6913887506222001 2:0.4897959183673469 3:0.9477351916376306 4:0.7080637132901941 5:0.02463912394225983 6:0.29915380786460927 7:0.6913887506222001 8:0.4897959183673469 9:0.9477351916376306 10:0.7080637132901941 11:0.02463912394225983 12:0.29915380786460927 13:0.1714783474365356 14:0.03160776505724241 15:0.1913887506222001 16:0.06470881035340965 17:0.18218018914883027 18:0.11498257839721254 19:0.9415131906421105 20:0.023892483822797413 22:0.5878546540567446 23:0.29915380786460927 25:0.012692882030861125 
0.0640640739593728 1:0.6996017919362867 2:0.3471876555500249 3:0.5345943255350921 4:0.5905923344947736 5:0.16500746640119462 6:0.009208561473369835 7:0.6996017919362867 8:0.3469387755102041 9:0.5345943255350921 10:0.5905923344947736 11:0.16500746640119462 12:0.009208561473369835 13:0.1913887506222001 14:0.1714783474365356 15:0.1913887506222001 16:0.1913887506222001 17:0.20532603285216525 18:0.18218018914883027 19:0.53086112493778 20:0.9066699850671976 22:0.7035838725734196 23:0.7038327526132404 25:0.012692882030861125 
1.0 2:0.15430562468889994 3:0.009208561473369835 4:0.009208561473369835 5:0.06968641114982578 6:0.20034843205574912 8:0.15430562468889994 9:0.009208561473369835 10:0.009208561473369835 11:0.06968641114982578 12:0.20034843205574912 14:0.20532603285216525 15:0.18218018914883027 16:0.18218018914883027 17:0.20532603285216525 18:0.20532603285216525 20:0.17844698855151817 23:0.6567944250871081 25:0.012692882030861125 
1.0 1:0.24116475858636138 2:0.06918865107018417 3:0.009208561473369835 7:0.24116475858636138 8:0.06918865107018417 9:0.009208561473369835 13:0.20532603285216525 14:0.20532603285216525 15:0.18218018914883027 20:0.1635141861622698 23:0.3018914883026381 25:0.013190642110502738 
1.0 1:0.2078148332503733 2:0.8743155798904928 3:0.5905923344947736 4:0.009208561473369835 5:0.1408661025385764 6:0.009208561473369835 7:0.2078148332503733 8:0.8743155798904928 9:0.5905923344947736 10:0.009208561473369835 11:0.1408661025385764 12:0.009208561473369835 13:0.20532603285216525 14:0.1714783474365356 15:0.1913887506222001 16:0.18218018914883027 17:0.20532603285216525 18:0.18218018914883027 20:0.1635141861622698 23:0.3018914883026381 25:0.013190642110502738 
0.7810013166931461 1:0.7013439522150323 2:0.9298158287705326 3:0.920358387257342 4:0.9823295171727228 5:0.7135390741662518 6:0.5647088103534097 7:0.7013439522150323 8:0.9298158287705326 9:0.920358387257342 10:0.9823295171727228 11:0.7135390741662518 12:0.5647088103534097 13:0.03160776505724241 14:0.2603285216525635 15:0.1913887506222001 16:0.1913887506222001 17:0.20433051269288202 18:0.1714783474365356 20:0.19238427078148332 21:0.9783474365355899 23:0.6027874564459931 24:0.9066699850671976 25:0.013190642110502738 26:0.18867924528301888 
0.5095357100881506 1:0.7010950721752115 2:0.7080637132901941 3:0.601543056246889 4:0.009457441513190641 7:0.7010950721752115 8:0.7080637132901941 9:0.601543056246889 10:0.009457441513190641 13:0.1714783474365356 14:0.06470881035340965 15:0.1913887506222001 16:0.18218018914883027 19:0.5905923344947736 20:0.19238427078148332 22:0.920358387257342 23:0.6027874564459931 25:0.013190642110502738 26:0.18867924528301888 
1.0 1:0.30214036834245894 2:0.9865604778496765 3:0.5905923344947736 4:0.03086112493777999 5:0.5905923344947736 6:0.2844698855151817 7:0.30214036834245894 8:0.9855649576903932 9:0.5905923344947736 10:0.03086112493777999 11:0.5905923344947736 12:0.2844698855151817 13:0.06470881035340965 14:0.2603285216525635 15:0.1913887506222001 16:0.18218018914883027 17:0.1913887506222001 18:0.1714783474365356 20:0.19238427078148332 23:0.6027874564459931 25:0.013190642110502738 26:0.18867924528301888 
0.3126348391308856 1:0.6699850671976108 2:0.9634146341463414 3:0.5345943255350921 4:0.009208561473369835 5:0.5512692882030861 6:0.6998506719761075 7:0.6699850671976108 8:0.9634146341463414 9:0.5345943255350921 10:0.009208561473369835 11:0.5440517670482827 12:0.6998506719761075 13:0.1714783474365356 14:0.1714783474365356 15:0.1913887506222001 16:0.18218018914883027 17:0.2603285216525635 18:0.1913887506222001 19:0.53086112493778 20:0.11996017919362867 22:0.7035838725734196 23:0.5853658536585366 25:0.012692882030861125 26:0.37735849056603776 
-1.0 1:0.9377799900447984 2:0.9708810353409657 3:0.3193130910900946 4:0.009457441513190641 7:0.9377799900447984 8:0.96913887506222 9:0.3193130910900946 10:0.009457441513190641 13:0.18218018914883027 14:0.1714783474365356 15:0.1913887506222001 16:0.18218018914883027 20:0.9066699850671976 23:0.6450970632155301 25:0.012692882030861125 
-1.0 1:0.27675460428073667 2:0.96913887506222 3:0.5905923344947736 4:0.004479840716774514 5:0.2899452463912394 6:0.5905923344947736 7:0.27675460428073667 8:0.96913887506222 9:0.5905923344947736 10:0.004479840716774514 11:0.2899452463912394 12:0.5905923344947736 13:0.078397212543554 14:0.1714783474365356 15:0.1913887506222001 16:0.06470881035340965 17:0.03160776505724241 18:0.1913887506222001 20:0.14260826281732206 23:0.6824290691886511 25:0.012692882030861125 
-1.0 1:0.018666002986560477 2:0.9596814335490294 3:0.5905923344947736 4:0.9099054255848681 5:0.3091090094574415 6:0.920358387257342 7:0.018666002986560477 8:0.9596814335490294 9:0.5905923344947736 10:0.9099054255848681 11:0.3086112493777999 12:0.920358387257342 13:0.18218018914883027 14:0.1714783474365356 15:0.1913887506222001 16:0.03160776505724241 17:0.2603285216525635 18:0.1913887506222001 20:0.14260826281732206 21:0.9066699850671976 23:0.6824290691886511 24:0.7757590841214534 25:0.012692882030861125 
-1.0 3:0.1866600298656048 4:0.009208561473369835 5:0.3554006968641115 6:0.6027874564459931 9:0.7038327526132404 10:0.009208561473369835 11:0.3554006968641115 12:0.33424589347934297 15:0.1913887506222001 16:0.18218018914883027 17:0.1714783474365356 18:0.2603285216525635 20:0.16699850671976108 23:0.9952712792434046 25:0.012692882030861125 
-1.0 1:0.49328023892483824 2:0.8481831757093081 3:0.5905923344947736 4:0.009457441513190641 7:0.49328023892483824 8:0.8481831757093081 9:0.5905923344947736 10:0.009457441513190641 13:0.1714783474365356 14:0.1714783474365356 15:0.1913887506222001 16:0.18218018914883027 20:0.17844698855151817 23:0.015181682429069188 25:0.012692882030861125 
-1.0 2:0.045047287207565956 3:0.15057242409158786 8:0.045047287207565956 9:0.15057242409158786 14:0.20532603285216525 15:0.20532603285216525 19:0.15007466401194625 20:0.1565455450472872 22:0.48680935788949725 23:0.015928322548531607 25:0.012692882030861125 
