svm_type c_svc
kernel_type linear
nr_class 2
total_sv 10
rho 1.3679996103341372
label 1 -1
probA 1.123481216188381
probB 1.124170326099333
nr_sv 4 6
SV
1.0 1:0.29898940103524774 2:0.613261030317969 3:0.9484841015528716 4:0.008873551885629776 7:0.29898940103524774 8:0.613261030317969 9:0.9484841015528716 10:0.008873551885629776 13:0.06778407690411634 14:0.11412373675129406 15:0.19004190288390435 16:0.18141483855065318 19:0.9423219127434065 20:0.025881192999753513 22:0.5807246734039931 23:0.2960315504067045 25:0.012077890066551638 
1.0 1:0.6847424205077643 2:0.5437515405472023 3:0.2861720483115603 4:0.9755977323145181 5:0.9686960808479171 6:0.9738723194478679 7:0.6847424205077643 8:0.5437515405472023 9:0.2861720483115603 10:0.9755977323145181 11:0.9686960808479171 12:0.33078629529208775 13:0.03574069509489771 14:0.11412373675129406 15:0.19004190288390435 16:0.18141483855065318 17:0.200887355188563 18:0.25560759181661324 19:0.2854325856544245 20:0.015035740695094897 21:0.9746117821050037 22:0.4811437022430367 23:0.7357653438501356 24:0.4762139511954646 25:0.012077890066551638 
0.6723759135690738 1:0.6830170076411142 2:0.48360857776682276 3:0.9484841015528716 4:0.6995316736504806 5:0.027113630761646537 6:0.00961301454276559 7:0.6830170076411142 8:0.48360857776682276 9:0.9484841015528716 10:0.6995316736504806 11:0.027113630761646537 12:0.00961301454276559 13:0.17056938624599458 14:0.03574069509489771 15:0.19004190288390435 16:0.06778407690411634 17:0.2018733053980774 18:0.18141483855065318 19:0.9423219127434065 20:0.025881192999753513 22:0.5807246734039931 23:0.2960315504067045 25:0.012077890066551638 
1.0 1:0.9484841015528716 2:0.026127680552132118 3:0.6995316736504806 4:0.00961301454276559 7:0.9484841015528716 8:0.026127680552132118 9:0.6995316736504806 10:0.00961301454276559 13:0.19004190288390435 14:0.2018733053980774 15:0.06778407690411634 16:0.18141483855065318 20:0.026867143209267932 21:0.009120039438008381 23:0.2960315504067045 24:0.009120039438008381 25:0.012077890066551638 
-0.020322202335604198 4:0.5955139265467094 5:0.767315750554597 6:0.9886615725905842 10:0.33078629529208775 11:0.767315750554597 12:0.9886615725905842 16:0.25560759181661324 17:0.03574069509489771 18:0.11412373675129406 20:0.22997288636923835 23:0.5341385260044368 25:0.012077890066551638 
-0.9285119550304379 1:0.27162928272122255 2:0.7638649248212965 3:0.6911510968696081 4:0.8969682031057432 5:0.746117821050037 6:0.9662312053241311 7:0.27162928272122255 8:0.7638649248212965 9:0.6911510968696081 10:0.8969682031057432 11:0.746117821050037 12:0.33078629529208775 13:0.08134089228493961 14:0.17056938624599458 15:0.19004190288390435 16:0.08134089228493961 17:0.17056938624599458 18:0.25560759181661324 20:0.033768794675868866 21:0.8952427902390929 23:0.001971900419028839 24:0.5578013310327828 25:0.012077890066551638 
-0.25414313010440326 3:0.17451318708405225 4:0.982499383781119 5:0.3581464136061129 6:0.8676361843726892 9:0.674389943307863 10:0.982499383781119 11:0.3581464136061129 12:0.8676361843726892 15:0.03574069509489771 16:0.19004190288390435 17:0.11412373675129406 18:0.17056938624599458 19:0.17426669953167365 20:0.16391422233177225 21:0.9785555829430613 22:0.3081094404732561 23:0.6953413852600444 24:0.8952427902390929 25:0.012077890066551638 26:0.868421052631579 
-0.49208984758480345 1:0.2267685481883165 2:0.5728370717278778 3:0.674389943307863 4:0.008873551885629776 7:0.8540793689918659 8:0.5728370717278778 9:0.674389943307863 10:0.008873551885629776 13:0.11412373675129406 14:0.17056938624599458 15:0.19004190288390435 16:0.18141483855065318 19:0.6741434557554844 20:0.8217894996302687 22:0.3081094404732561 23:2.4648755237860487E-4 25:0.012077890066551638 
-1.0 1:0.9938378111905348 2:0.4917426669953167 3:0.5287157998521075 4:0.008873551885629776 7:0.9938378111905348 8:0.4917426669953167 9:0.5287157998521075 10:0.008873551885629776 13:0.200887355188563 14:0.25560759181661324 15:0.19004190288390435 16:0.18141483855065318 19:0.5250184865664284 20:0.04609317229479911 22:0.6950948977076657 23:0.2960315504067045 25:0.012077890066551638 26:0.2894736842105263 
-0.9773087785138248 1:0.6302686714320926 2:0.4298742913482869 3:0.6911510968696081 4:0.008873551885629776 7:0.6302686714320926 8:0.4298742913482869 9:0.6911510968696081 10:0.008873551885629776 13:0.11412373675129406 14:0.17056938624599458 15:0.19004190288390435 16:0.18141483855065318 20:0.19102785309341877 23:0.5955139265467094 25:0.01257086517130885 26:0.18421052631578946 
