svm_type c_svc
kernel_type linear
nr_class 2
total_sv 18
rho -1.2957299342874415
label -1 5
probA -0.9232406454504194
probB 0.0028487549240310624
nr_sv 10 8
SV
0.4025840566598073 1:0.9228471876555501 2:0.32677949228471875 3:0.9084121453459433 4:0.30214036834245894 5:0.3790443006470881 6:0.6042807366849179 7:0.8977103036336486 8:0.32677949228471875 9:0.9084121453459433 10:0.30214036834245894 11:0.3787954206072673 12:0.6042807366849179 13:0.2603285216525635 14:0.03160776505724241 15:0.078397212543554 16:0.06470881035340965 17:0.2603285216525635 18:0.20433051269288202 19:0.9066699850671976 20:0.013937282229965157 21:0.3018914883026381 22:0.5644599303135889 23:0.001991040318566451 24:0.6821801891488303 25:0.012692882030861125 
1.0 3:0.1866600298656048 4:0.009208561473369835 5:0.3554006968641115 6:0.6027874564459931 9:0.7038327526132404 10:0.009208561473369835 11:0.3554006968641115 12:0.33424589347934297 15:0.1913887506222001 16:0.18218018914883027 17:0.1714783474365356 18:0.2603285216525635 20:0.16699850671976108 23:0.9952712792434046 25:0.012692882030861125 
0.7072269588439852 1:0.5512692882030861 2:0.6998506719761075 3:0.9084121453459433 4:0.38800398208063713 5:0.9240915878546541 6:0.36187157789945246 7:0.5440517670482827 8:0.6998506719761075 9:0.9084121453459433 10:0.38800398208063713 11:0.9240915878546541 12:0.36187157789945246 13:0.2603285216525635 14:0.1913887506222001 15:0.078397212543554 16:0.1714783474365356 17:0.1714783474365356 18:0.1714783474365356 19:0.9066699850671976 20:0.1565455450472872 21:0.3870084619213539 22:0.5644599303135889 23:0.5858636137381782 24:0.9380288700846192 25:0.013190642110502738 26:0.07547169811320754 
0.33364806887669274 1:0.5798904927824788 2:0.6826779492284719 3:0.920358387257342 7:0.5798904927824788 8:0.6826779492284719 9:0.920358387257342 13:0.1714783474365356 14:0.1913887506222001 15:0.1913887506222001 20:0.16699850671976108 23:0.9011946241911398 25:0.012692882030861125 
0.06973881008647932 1:0.9084121453459433 2:0.38800398208063713 3:0.30214036834245894 4:0.6027874564459931 5:0.9885515181682429 6:0.920358387257342 7:0.9084121453459433 8:0.38800398208063713 9:0.30214036834245894 10:0.33424589347934297 11:0.9885515181682429 12:0.920358387257342 13:0.078397212543554 14:0.1714783474365356 15:0.06470881035340965 16:0.2603285216525635 17:0.11498257839721254 18:0.1913887506222001 19:0.3018914883026381 20:0.19238427078148332 22:0.6821801891488303 23:0.6027874564459931 25:0.013190642110502738 26:0.18867924528301888 
1.0 4:0.6027874564459931 5:0.7775012444001991 6:0.6826779492284719 10:0.33424589347934297 11:0.7775012444001991 12:0.6826779492284719 16:0.2603285216525635 17:0.03160776505724241 18:0.1913887506222001 20:0.16699850671976108 23:0.9011946241911398 25:0.012692882030861125 
0.6563746947136927 1:0.2690393230462917 2:0.8755599800895968 3:0.5905923344947736 7:0.9693877551020408 8:0.8755599800895968 9:0.5905923344947736 13:0.1714783474365356 14:0.1714783474365356 15:0.1913887506222001 20:0.1565455450472872 23:0.5858636137381782 25:0.013190642110502738 26:0.07547169811320754 
0.7287725493683566 1:0.9096565455450473 2:0.8755599800895968 3:0.3193130910900946 4:0.9763563962170234 5:0.6027874564459931 6:0.3193130910900946 7:0.9096565455450473 8:0.8755599800895968 9:0.3193130910900946 10:0.9763563962170234 11:0.33424589347934297 12:0.3193130910900946 13:0.03160776505724241 14:0.2603285216525635 15:0.1913887506222001 16:0.18218018914883027 17:0.2603285216525635 18:0.1913887506222001 20:0.9066699850671976 21:0.974365355898457 23:0.4771030363364858 24:0.37755102040816324 25:0.012692882030861125 
1.0 1:0.3820308611249378 2:0.3232951717272275 3:0.5905923344947736 4:0.009457441513190641 7:0.3820308611249378 8:0.3232951717272275 9:0.5905923344947736 10:0.009457441513190641 13:0.11498257839721254 14:0.11498257839721254 15:0.1913887506222001 16:0.18218018914883027 20:0.2073170731707317 23:0.4771030363364858 25:0.012692882030861125 26:0.9433962264150944 
1.0 1:0.5564957690393231 2:0.8297660527625684 3:0.31831757093081137 4:0.004479840716774514 5:0.15953210552513689 6:0.009457441513190641 7:0.5564957690393231 8:0.8292682926829268 9:0.31806869089099055 10:0.004479840716774514 11:0.15953210552513689 12:0.009457441513190641 13:0.1714783474365356 14:0.1714783474365356 15:0.2603285216525635 16:0.06470881035340965 17:0.20532603285216525 18:0.18218018914883027 19:0.31557989049278246 20:0.18591338974614235 22:0.48705823792931807 23:0.48680935788949725 25:0.012692882030861125 
-1.0 1:0.03160776505724241 2:0.9390243902439024 3:0.920358387257342 4:0.6027874564459931 5:0.27824788451966154 6:0.0156794425087108 7:0.27675460428073667 8:0.9390243902439024 9:0.920358387257342 10:0.33424589347934297 11:0.27824788451966154 12:0.0156794425087108 13:0.078397212543554 14:0.1714783474365356 15:0.1913887506222001 16:0.2603285216525635 17:0.1913887506222001 18:0.18218018914883027 20:0.2635639621702339 23:0.7038327526132404 25:0.012692882030861125 
-0.9115484187259303 3:0.17496266799402688 4:0.9823295171727228 5:0.36187157789945246 6:0.8787954206072673 9:0.6826779492284719 10:0.9823295171727228 11:0.36187157789945246 12:0.8787954206072673 15:0.03160776505724241 16:0.1913887506222001 17:0.11498257839721254 18:0.1714783474365356 19:0.17471378795420608 20:0.1635141861622698 21:0.9783474365355899 22:0.3113489298158288 23:0.7038327526132404 24:0.9066699850671976 25:0.012692882030861125 26:0.9245283018867925 
-0.29580060684589427 1:0.06296665007466401 2:0.5798904927824788 3:0.3193130910900946 4:0.009208561473369835 5:0.16500746640119462 7:0.06296665007466401 8:0.5798904927824788 9:0.3193130910900946 10:0.009208561473369835 11:0.16500746640119462 13:0.20532603285216525 14:0.1714783474365356 15:0.1913887506222001 16:0.18218018914883027 17:0.20532603285216525 20:0.9066699850671976 23:0.6226978596316576 25:0.012692882030861125 26:0.9245283018867925 
-0.9090040494921583 1:0.6996017919362867 2:0.3471876555500249 3:0.5345943255350921 4:0.5905923344947736 5:0.16500746640119462 6:0.009208561473369835 7:0.6996017919362867 8:0.3469387755102041 9:0.5345943255350921 10:0.5905923344947736 11:0.16500746640119462 12:0.009208561473369835 13:0.1913887506222001 14:0.1714783474365356 15:0.1913887506222001 16:0.1913887506222001 17:0.20532603285216525 18:0.18218018914883027 19:0.53086112493778 20:0.9066699850671976 22:0.7035838725734196 23:0.7038327526132404 25:0.012692882030861125 
-0.7819920634850313 1:0.1408661025385764 2:0.009208561473369835 3:0.3661025385764062 4:0.009457441513190641 7:0.1408661025385764 8:0.009208561473369835 9:0.36585365853658536 10:0.009457441513190641 13:0.20532603285216525 14:0.18218018914883027 15:0.2603285216525635 16:0.18218018914883027 19:0.3646092583374813 20:0.24041811846689895 22:0.4736187157789945 23:0.6226978596316576 25:0.012692882030861125 26:0.9245283018867925 
-1.0 1:0.24265803882528622 2:0.6635141861622698 3:0.00821304131408661 4:0.008461921353907416 5:0.6027874564459931 6:0.7555998008959681 7:0.9084121453459433 8:0.6635141861622698 9:0.00821304131408661 10:0.008461921353907416 11:0.33424589347934297 12:0.7555998008959681 13:0.078397212543554 14:0.1714783474365356 15:0.18218018914883027 16:0.18218018914883027 17:0.2603285216525635 18:0.03160776505724241 20:0.8685913389746143 23:0.695370831259333 25:0.012692882030861125 
-1.0 1:0.12444001991040318 2:0.6635141861622698 3:0.30214036834245894 4:0.009457441513190641 7:0.12444001991040318 8:0.6635141861622698 9:0.30214036834245894 10:0.009457441513190641 13:0.20532603285216525 14:0.1714783474365356 15:0.06470881035340965 16:0.18218018914883027 19:0.3018914883026381 20:0.20557491289198607 22:0.6821801891488303 23:0.7038327526132404 25:0.012692882030861125 
-1.0 1:0.6361373817819811 2:0.6826779492284719 3:0.9084121453459433 4:0.009208561473369835 5:0.3193130910900946 6:0.9181184668989547 7:0.6358885017421603 8:0.6826779492284719 9:0.9084121453459433 10:0.009208561473369835 11:0.3193130910900946 12:0.9176207068193131 13:0.2603285216525635 14:0.1913887506222001 15:0.078397212543554 16:0.18218018914883027 17:0.1913887506222001 18:0.1714783474365356 19:0.9066699850671976 20:0.219761075161772 22:0.5644599303135889 23:0.8106022896963664 25:0.013190642110502738 
