svm_type c_svc
kernel_type linear
nr_class 2
total_sv 3
rho -0.764695020984669
label -1 7
probA 1.6444477686602879
probB -0.9584020875698724
nr_sv 2 1
SV
0.5528948732199 1:0.852107468572837 2:0.746117821050037 3:0.6911510968696081 4:0.011831402514173034 5:0.6803056445649495 6:0.00862706433325117 7:0.852107468572837 8:0.746117821050037 9:0.6911510968696081 10:0.011831402514173034 11:0.6803056445649495 12:0.00862706433325117 13:0.11412373675129406 14:0.17056938624599458 15:0.19004190288390435 16:0.2018733053980774 17:0.03574069509489771 18:0.18141483855065318 20:0.017500616218880948 23:0.25092432832141975 25:0.012077890066551638 
0.44710512678009995 1:0.9216169583436037 2:0.15011091939857038 3:0.29898940103524774 4:0.008873551885629776 7:0.9216169583436037 8:0.15011091939857038 9:0.29898940103524774 10:0.008873551885629776 13:0.19004190288390435 14:0.2018733053980774 15:0.06778407690411634 16:0.18141483855065318 19:0.29874291348286913 20:0.202119792950456 22:0.6738969682031057 23:0.6953413852600444 25:0.012077890066551638 
-1.0 1:0.9110179935913236 2:0.007641114123736751 3:0.3076164653684989 4:0.007887601676115356 5:0.982499383781119 6:0.27162928272122255 7:0.9110179935913236 8:0.007641114123736751 9:0.3076164653684989 10:0.007887601676115356 11:0.982499383781119 12:0.27162928272122255 13:0.03574069509489771 14:0.18141483855065318 15:0.17056938624599458 16:0.18141483855065318 17:0.19004190288390435 18:0.08134089228493961 19:0.30416563963519844 20:0.03302933201873305 22:0.7111165886122751 23:4.929751047572097E-4 25:0.012077890066551638 
