svm_type c_svc
kernel_type linear
nr_class 2
total_sv 20
rho -1.2429842328355563
label -1 5
probA 0.17972913029471155
probB -0.7705533792915473
nr_sv 12 8
SV
0.307965779028993 1:0.9240818338673897 2:0.3233916687207296 3:0.8969682031057432 4:0.29898940103524774 5:0.3751540547202366 6:0.596992851860981 7:0.8863692383534632 8:0.3233916687207296 9:0.8969682031057432 10:0.29898940103524774 11:0.374907567167858 12:0.596992851860981 13:0.25560759181661324 14:0.03574069509489771 15:0.08134089228493961 16:0.06778407690411634 17:0.25560759181661324 18:0.200887355188563 19:0.8952427902390929 20:0.013310327828444664 21:0.29874291348286913 22:0.5578013310327828 23:0.001971900419028839 24:0.6738969682031057 25:0.012077890066551638 
1.0 3:0.18535863938871086 4:0.00862706433325117 5:0.35173773724426916 6:0.5955139265467094 9:0.6953413852600444 10:0.00862706433325117 11:0.35173773724426916 12:0.33078629529208775 15:0.19004190288390435 16:0.18141483855065318 17:0.17056938624599458 18:0.25560759181661324 20:0.1668720729603155 23:0.9953167365048065 25:0.012077890066551638 
0.7808344213254271 1:0.5728370717278778 2:0.674389943307863 3:0.9216169583436037 7:0.5728370717278778 8:0.674389943307863 9:0.9216169583436037 13:0.17056938624599458 14:0.19004190288390435 15:0.19004190288390435 20:0.1668720729603155 23:0.8898200640867636 25:0.012077890066551638 
0.16546026429344407 1:0.8969682031057432 2:0.3837811190534878 3:0.29898940103524774 4:0.5955139265467094 5:0.9886615725905842 6:0.9216169583436037 7:0.8969682031057432 8:0.3837811190534878 9:0.29898940103524774 10:0.33078629529208775 11:0.9886615725905842 12:0.9216169583436037 13:0.08134089228493961 14:0.17056938624599458 15:0.06778407690411634 16:0.25560759181661324 17:0.11412373675129406 18:0.19004190288390435 19:0.29874291348286913 20:0.19102785309341877 22:0.6738969682031057 23:0.5955139265467094 25:0.01257086517130885 26:0.18421052631578946 
0.4090358490446059 4:0.5955139265467094 5:0.767315750554597 6:0.674389943307863 10:0.33078629529208775 11:0.767315750554597 12:0.674389943307863 16:0.25560759181661324 17:0.03574069509489771 18:0.19004190288390435 20:0.1668720729603155 23:0.8898200640867636 25:0.012077890066551638 
0.27793999361764093 1:0.2649741188070002 2:0.8646783337441459 3:0.5834360364801577 7:0.9696820310574316 8:0.8646783337441459 9:0.5834360364801577 13:0.17056938624599458 14:0.17056938624599458 15:0.19004190288390435 20:0.1570125708651713 23:0.5787527729849643 25:0.01257086517130885 26:0.07894736842105263 
0.8446989856111771 1:0.9107715060389451 2:0.8646783337441459 3:0.31599704214937147 4:0.9765836825240325 5:0.5955139265467094 6:0.31599704214937147 7:0.9107715060389451 8:0.8646783337441459 9:0.31599704214937147 10:0.9765836825240325 11:0.33078629529208775 12:0.31599704214937147 13:0.03574069509489771 14:0.25560759181661324 15:0.19004190288390435 16:0.18141483855065318 17:0.25560759181661324 18:0.19004190288390435 20:0.8952427902390929 21:0.9746117821050037 23:0.4715306877002711 24:0.373675129405965 25:0.012077890066551638 
1.0 1:0.37811190534877986 2:0.31994084298742914 3:0.5834360364801577 4:0.008873551885629776 7:0.37811190534877986 8:0.31994084298742914 9:0.5834360364801577 10:0.008873551885629776 13:0.11412373675129406 14:0.11412373675129406 15:0.19004190288390435 16:0.18141483855065318 20:0.20458466847424206 23:0.4715306877002711 25:0.012077890066551638 26:0.8947368421052632 
1.0 1:0.550160216909046 2:0.8195711116588612 3:0.31501109193985705 4:0.003943800838057678 5:0.16021690904609318 6:0.008873551885629776 7:0.550160216909046 8:0.819078136554104 9:0.31476460438747844 10:0.003943800838057678 11:0.16021690904609318 12:0.008873551885629776 13:0.17056938624599458 14:0.17056938624599458 15:0.25560759181661324 16:0.06778407690411634 17:0.2018733053980774 18:0.18141483855065318 19:0.3122997288636924 20:0.18461917673157505 22:0.4813901897954153 23:0.4811437022430367 25:0.012077890066551638 
0.19312441521182702 1:0.9593295538575302 2:0.6911510968696081 3:0.042642346561498644 4:0.29898940103524774 5:0.4818831649001725 6:0.9137293566674883 7:0.9593295538575302 8:0.6911510968696081 9:0.042642346561498644 10:0.29898940103524774 11:0.4818831649001725 12:0.9137293566674883 13:0.17056938624599458 14:0.19004190288390435 15:0.2018733053980774 16:0.06778407690411634 17:0.03574069509489771 18:0.08134089228493961 19:0.04190288390436283 20:0.638156273108208 21:0.29874291348286913 22:0.5782597978802071 23:0.5782597978802071 24:0.6738969682031057 25:0.012077890066551638 
0.4819080793594032 1:0.2593049051022923 2:0.5955139265467094 3:0.2748336209021444 4:0.29898940103524774 5:0.596992851860981 6:0.9963026867143209 7:0.2593049051022923 8:0.33078629529208775 9:0.2748336209021444 10:0.29898940103524774 11:0.596992851860981 12:0.9963026867143209 13:0.2018733053980774 14:0.25560759181661324 15:0.19004190288390435 16:0.06778407690411634 17:0.200887355188563 18:0.18141483855065318 19:0.2740941582450086 20:0.015528715799852107 21:0.29874291348286913 22:0.9534138526004436 23:0.4611782105003697 24:0.6738969682031057 25:0.012077890066551638 
0.5644285950474931 1:0.29898940103524774 2:0.27162928272122255 3:0.5097362583189549 4:0.42716292827212227 5:0.6953413852600444 6:0.6684742420507764 7:0.29898940103524774 8:0.27162928272122255 9:0.5097362583189549 10:0.42716292827212227 11:0.6953413852600444 12:0.6684742420507764 13:0.06778407690411634 14:0.08134089228493961 15:0.11412373675129406 16:0.17056938624599458 17:0.19004190288390435 18:0.17056938624599458 19:0.5075178703475475 20:0.013310327828444664 21:0.42666995316736506 22:0.4873058910525018 23:0.7949223564210007 24:0.5361104264234656 25:0.012077890066551638 
-1.0 1:0.03574069509489771 2:0.9398570372196204 3:0.9216169583436037 4:0.5955139265467094 5:0.2748336209021444 6:0.016021690904609316 7:0.27162928272122255 8:0.9398570372196204 9:0.9216169583436037 10:0.33078629529208775 11:0.2748336209021444 12:0.01577520335223071 13:0.08134089228493961 14:0.17056938624599458 15:0.19004190288390435 16:0.25560759181661324 17:0.19004190288390435 18:0.2018733053980774 20:0.2588119299975351 23:0.6953413852600444 25:0.012077890066551638 
-1.0 3:0.17451318708405225 4:0.982499383781119 5:0.3581464136061129 6:0.8676361843726892 9:0.674389943307863 10:0.982499383781119 11:0.3581464136061129 12:0.8676361843726892 15:0.03574069509489771 16:0.19004190288390435 17:0.11412373675129406 18:0.17056938624599458 19:0.17426669953167365 20:0.16391422233177225 21:0.9785555829430613 22:0.3081094404732561 23:0.6953413852600444 24:0.8952427902390929 25:0.012077890066551638 26:0.868421052631579 
-0.7946833153063432 1:0.06655163914222331 2:0.5728370717278778 3:0.31599704214937147 4:0.00862706433325117 5:0.16539314764604388 7:0.06655163914222331 8:0.5728370717278778 9:0.31599704214937147 10:0.00862706433325117 11:0.16539314764604388 13:0.2018733053980774 14:0.17056938624599458 15:0.19004190288390435 16:0.18141483855065318 17:0.2018733053980774 20:0.8952427902390929 23:0.6154794182893764 25:0.012077890066551638 26:0.868421052631579 
-0.714441915125249 1:0.6911510968696081 2:0.3436036480157752 3:0.5287157998521075 4:0.5834360364801577 5:0.16539314764604388 6:0.00862706433325117 7:0.6911510968696081 8:0.3433571604633966 9:0.5287157998521075 10:0.5834360364801577 11:0.16539314764604388 12:0.00862706433325117 13:0.19004190288390435 14:0.17056938624599458 15:0.19004190288390435 16:0.19004190288390435 17:0.2018733053980774 18:0.18141483855065318 19:0.5250184865664284 20:0.8952427902390929 22:0.6950948977076657 23:0.6953413852600444 25:0.012077890066551638 
-0.5162711521084191 1:0.13975844219866898 2:0.00862706433325117 3:0.36233670199654916 4:0.008873551885629776 7:0.13975844219866898 8:0.00862706433325117 9:0.36209021444417056 10:0.008873551885629776 13:0.2018733053980774 14:0.18141483855065318 15:0.25560759181661324 16:0.18141483855065318 19:0.36085777668227753 20:0.23465614986443184 22:0.46807986196697066 23:0.6154794182893764 25:0.012077890066551638 26:0.868421052631579 
-1.0 1:0.23687453783583928 2:0.655656889327089 3:0.007641114123736751 4:0.007887601676115356 5:0.5955139265467094 6:0.7456248459452798 7:0.8969682031057432 8:0.655656889327089 9:0.007641114123736751 10:0.007887601676115356 11:0.33078629529208775 12:0.7456248459452798 13:0.08134089228493961 14:0.17056938624599458 15:0.18141483855065318 16:0.18141483855065318 17:0.25560759181661324 18:0.03574069509489771 20:0.8575301947251663 23:0.6869608084791718 25:0.012077890066551638 
-1.0 1:0.9216169583436037 2:0.15011091939857038 3:0.29898940103524774 4:0.008873551885629776 7:0.9216169583436037 8:0.15011091939857038 9:0.29898940103524774 10:0.008873551885629776 13:0.19004190288390435 14:0.2018733053980774 15:0.06778407690411634 16:0.18141483855065318 19:0.29874291348286913 20:0.202119792950456 22:0.6738969682031057 23:0.6953413852600444 25:0.012077890066551638 
-1.0 1:0.6285432585654425 2:0.674389943307863 3:0.8969682031057432 4:0.00862706433325117 5:0.31599704214937147 6:0.9191520828198176 7:0.6282967710130638 8:0.674389943307863 9:0.8969682031057432 10:0.00862706433325117 11:0.31599704214937147 12:0.9186591077150604 13:0.25560759181661324 14:0.19004190288390435 15:0.08134089228493961 16:0.18141483855065318 17:0.19004190288390435 18:0.17056938624599458 19:0.8952427902390929 20:0.21567660833127927 22:0.5578013310327828 23:0.8008380576780872 25:0.01257086517130885 
